solver_type L2R_L2LOSS_SVR_DUAL
nr_class 2
nr_feature 26084
bias -1
w
5.237678886426759e-05 
1.5947915297721e-05 
-0.0001918860065791517 
-4.481525441947163e-05 
-3.113989401376843e-05 
1.701165661608224e-05 
8.491880648120952e-06 
-1.383135112461052e-05 
2.59657433036134e-05 
-2.655762716707464e-05 
-5.281392857038801e-05 
0.0002108381108401477 
-0.0001070151469743077 
3.507014717792209e-06 
0.000205127897410094 
0.0001306299438650154 
2.987803267305595e-05 
-6.129012631127134e-05 
0.0001339003098732312 
-0.0002710653613927206 
-0.0002033660590811157 
-0.000191615718065519 
-7.364708912396509e-05 
-4.107020770515704e-05 
4.525648876122253e-05 
-0.0002954415521965311 
-9.578283190837688e-06 
1.887670187009167e-05 
0.0001069345656628328 
0.0003951408108314385 
1.786562007741168e-05 
4.854632852975961e-05 
6.114780214475126e-05 
3.103434836934193e-05 
2.397101501604755e-05 
2.989351760138771e-05 
-5.696658473975674e-05 
4.734196377968642e-05 
0.0001024121960390286 
-5.534091913225495e-06 
-0.0001759666140997904 
-8.363562609611393e-05 
-0.0001127145096584387 
0.0001915475607648913 
1.850386491803035e-05 
0.0002378098445008618 
-0.0002869022157108017 
8.26302768851787e-05 
-3.638200240495696e-05 
0.0001369348336477253 
-9.254545332546337e-05 
-7.741188375798087e-05 
-4.085687782037732e-06 
-1.924213474999094e-05 
0.0001118031093269699 
-8.16021704828366e-06 
-6.735951202135199e-06 
-3.381941552846657e-05 
-0.0002461904869827568 
-6.533336097623669e-05 
1.252911117234574e-05 
0.0001923373842199509 
-8.656667843125819e-05 
-3.05417100525004e-05 
-6.636901575656915e-05 
-0.0001137421088138266 
-0.0001065823999034184 
7.072468204423386e-05 
7.220366587783768e-05 
-8.933198098284571e-05 
0.0001329404405220828 
-2.894462037950094e-05 
0.0001690573410696797 
2.654593729109914e-05 
-0.0001126665647048476 
0.000253444805325491 
-1.021643842390267e-05 
-4.4342951788082e-05 
-2.060415682283936e-05 
-0.0001352576536644835 
8.347484420646188e-06 
2.391151659311693e-05 
-8.006255353588515e-06 
-0.0002910295299497967 
-0.0001482506591561704 
2.570250336054733e-05 
-7.849765232389295e-05 
0.0001799866771799973 
7.084926246987447e-05 
-3.025526720513186e-05 
0.000100084911396339 
-0.0002035661639899714 
5.910334872806002e-06 
0.0001444261507493659 
3.219876285863183e-05 
2.249114711312346e-05 
3.256004546718734e-07 
-2.92731725754611e-05 
-0.0001452293525716995 
1.901612857899734e-05 
3.251412346451547e-05 
-1.664925631847652e-05 
3.474857634734437e-05 
5.894157494819022e-06 
-8.898202173983597e-05 
8.721484693554291e-05 
2.486595710791824e-05 
-3.038954849952005e-05 
-7.240989217120482e-05 
0.0002134757430292678 
-4.350419208533823e-06 
-0.0001234542383623905 
-6.130667418681016e-05 
-8.209567593331445e-05 
-1.628919778713485e-05 
-0.00020949299311089 
-0.0001891740475931112 
1.249830778513789e-05 
-2.593223371676493e-05 
-1.487729568499779e-05 
0.000128060168454854 
-0.000110036046893577 
0.0002415166494337677 
0.000167788461255366 
-5.571185070387713e-07 
-9.775682201697488e-05 
0.0001625710462610495 
3.89284442004901e-05 
-0.0001125855961751971 
0.0002481223520321352 
-0.0001340523997357293 
-2.067350365031172e-05 
1.176682361274416e-05 
-0.0003153405078571847 
-9.910527332150309e-05 
5.46645045168123e-05 
-0.0001194250763074511 
0.0002140647058643009 
0.0002380261207520237 
0.0001767366346199391 
-2.675905663511278e-05 
4.006962828152035e-05 
4.220389608154423e-05 
6.629597847740008e-05 
-1.655053306545944e-05 
-0.0001557137093963032 
-0.0001096821699162158 
-8.880951708463487e-05 
-9.752773127775942e-05 
0.0002191352170834079 
-4.181738534254483e-05 
-4.408700843608296e-05 
-0.0001144465441979867 
7.383051815293305e-06 
2.33268399567022e-06 
6.204964844228878e-05 
-7.783201786396769e-05 
-0.0001254434978629767 
-4.129701189053969e-06 
0.0001722921876664017 
1.324322852387669e-06 
2.699164965791337e-05 
-1.029675450179636e-05 
-0.0001046553254146345 
-4.916815676126218e-06 
-9.112482994448155e-05 
0.0003422006884459651 
-5.628995599465887e-05 
4.671416793481535e-05 
-0.0004261575364190098 
2.950618902389349e-05 
-3.559654131561667e-05 
5.012256683538662e-05 
6.531863858803366e-07 
-2.670624263106979e-05 
-5.960860343021114e-06 
1.695327904279376e-05 
0.0001544397872758502 
0.0001312259448520561 
2.877580863874157e-05 
-9.815913860843951e-05 
1.325077939440478e-05 
-6.251241167853471e-05 
-0.0002520430842162691 
-2.038902521778538e-05 
6.062289689614309e-05 
3.903408754694495e-05 
7.014968832087192e-05 
-1.016897277029023e-05 
4.386275135415182e-05 
2.377606339086169e-06 
-2.065702139546029e-06 
-3.147887420680642e-05 
0.0002254889604857274 
-0.0001237935802011863 
0.0001045583790053741 
-0.0001151703250758062 
-8.144822375277341e-05 
-7.302311556604567e-05 
0.0001244076953667963 
0.0001817901729158541 
-4.699134980212896e-05 
1.775829595629312e-05 
-4.43102792843846e-05 
-4.862809853145959e-07 
-2.024817618454291e-05 
-9.371296361958679e-05 
1.098436452893603e-05 
2.082798630380287e-05 
0.0001248701973458831 
-1.470990834596823e-05 
-0.0002172716555800174 
-0.0001068059538454349 
2.105511216360354e-05 
7.972459869627956e-05 
-0.0001200595199768157 
-3.720209571435151e-05 
0.0001269393278713426 
-7.175811503371008e-05 
-3.173291948716748e-05 
5.086672642438807e-05 
-4.270683877137279e-05 
2.439272449549319e-05 
1.040783779964519e-05 
-0.0002162621601490377 
0.0002268444932027741 
-5.934751343158519e-05 
5.832802046037862e-05 
-9.556259576382212e-05 
-2.26424919560071e-05 
0.0002971863193319758 
-0.0003991003462113829 
-9.573454948432917e-05 
7.788167018633051e-05 
1.583139423453505e-05 
0.0003775908582480888 
-0.0001293238859050141 
2.588017952643565e-05 
0.0002117594180794765 
-1.692603213877791e-05 
-4.19516366016986e-05 
-4.640088535897326e-05 
0.000135743912355632 
-0.0001432374439321811 
-5.786890035521924e-05 
-4.534219100627149e-05 
-1.809553028523769e-06 
-5.50977286555263e-05 
4.286293077980281e-05 
4.173859912653006e-05 
-0.0001754985923605321 
7.133302703133338e-05 
-6.641287162438196e-06 
0.0001032043885940765 
1.204441666986129e-05 
-0.0002383196303999012 
3.657744386288476e-05 
-8.352736246372039e-06 
3.988915693023284e-05 
0.0001752971435097805 
-3.19295067156041e-05 
-8.212670024087487e-05 
3.970413722094456e-06 
-1.869793453122203e-06 
-4.069961606287604e-05 
1.249588414911706e-05 
-2.435977949587504e-05 
-2.334844105451676e-05 
-8.432517889003307e-05 
-8.918179213767571e-05 
0.0002452421414062766 
1.547867766565336e-05 
-8.227031192347426e-06 
-9.833006842128981e-05 
8.405865985668659e-05 
8.427554820055319e-05 
-0.0001602146290030595 
5.030356197763924e-05 
2.25730831407715e-05 
-6.55901018788888e-05 
-8.5811418434282e-05 
7.866916705285773e-05 
7.241018590822182e-05 
-0.0001634141859279665 
0.0001567108027910137 
-0.0001982288413711936 
-0.000269750790349379 
0.0002089709446275772 
2.398526558547472e-05 
-9.436366355258581e-05 
0.0001640344126443959 
0.0002828304528600391 
5.762962832630611e-06 
1.436968603208787e-05 
0.0002801005820089251 
6.655969629610099e-06 
-8.282924209103612e-05 
-0.0001196219259417206 
-2.75629285403922e-05 
5.451063800321482e-05 
-0.0001292985053484652 
0.0001060053576668471 
-0.0001308634309947253 
-0.0001532807085316757 
-0.0001567921981584744 
9.785404613444672e-05 
2.03884615725136e-05 
-0.0002443886886051149 
7.751561230717724e-05 
-0.0001646073131172564 
1.771174686507956e-06 
1.032690078776868e-05 
2.715250207572859e-05 
-4.804856287626716e-05 
-3.021389711882386e-05 
0.0001578530273050561 
-1.032214220455157e-05 
-6.982634990151712e-05 
-4.042123891576756e-05 
2.248594769195786e-05 
8.108558905735679e-06 
-8.668830166751098e-05 
-5.287565005754416e-05 
-0.0001266811255799511 
1.616577600141837e-05 
-4.323930164786015e-06 
-6.91689387032096e-05 
-2.336708012277685e-05 
-1.742882958594332e-05 
7.208499794751747e-05 
0.0002556869261362258 
0.0002086967717694525 
-0.0001762995897528781 
1.257403045794753e-05 
-5.741168292190743e-05 
-0.0001439200151448754 
6.447615041640569e-05 
-0.0001031630542838145 
-2.900303504733017e-05 
-2.177992634244608e-05 
0.000107497222962993 
2.535039432150425e-05 
-4.490807227361152e-05 
4.509514432950871e-05 
-4.806936290006107e-05 
-7.191703081982334e-06 
-0.0001378855075600392 
0.000125138217833455 
2.735891693135158e-05 
2.079827878915848e-05 
-8.552631796877773e-05 
9.78229402827725e-05 
0.0001363149514257687 
-0.0002049572628414365 
-0.0001422290002949642 
0.0001062988502287327 
1.155477693970383e-05 
-4.573443371534333e-05 
-2.284084326512441e-05 
0.0003434694117294915 
-7.126639446456307e-05 
0.0002054713468957037 
-5.145375334644211e-05 
-8.891344944950686e-05 
-4.555823443221213e-05 
-2.377844674490934e-05 
2.769695387168218e-05 
7.703329470294721e-05 
-0.0004024044792604409 
-6.05451408474377e-06 
-7.726152170528695e-05 
2.799158183691154e-05 
2.909136873790939e-06 
-0.0001624539921974778 
2.411057300073367e-05 
1.967640285408197e-05 
-9.616307974853598e-05 
-6.296729006863087e-05 
-4.593926988447425e-05 
0.0002102676471923569 
4.266463505455779e-06 
-0.0001120255617007822 
0.0004272522143463679 
-0.0001111498742728507 
-4.287677488037944e-06 
-1.156723240118559e-05 
-4.512690671747909e-05 
-2.310455087866477e-05 
1.058038946301847e-05 
1.318175529713472e-05 
-8.047645822669676e-05 
1.471712968085459e-05 
-1.087584866344632e-05 
6.951967067276019e-05 
1.404737172351755e-05 
-0.0001468093188020331 
-2.657876670876053e-06 
-4.971470991037764e-05 
-1.313448002685966e-06 
-2.14546493393408e-05 
1.32518603690267e-05 
-3.257252774498358e-05 
2.823893554153296e-05 
0.0001529566442036063 
5.795292568142641e-06 
-9.180446702933165e-05 
-3.434488971590176e-05 
6.229100259877443e-05 
-3.88771549970976e-05 
0.0001312472913032053 
1.571999586407408e-05 
5.911256726279078e-05 
2.128490516768107e-05 
-9.778057584533604e-05 
7.823138596671879e-06 
-7.583745395330972e-05 
0.0002246574094610569 
-4.014360196297558e-06 
7.551836991239563e-06 
9.675622511912802e-05 
-7.774133743392534e-06 
0.0001015057272966225 
-0.0003363915914167076 
-6.239940371698525e-05 
-0.0001021298239417205 
2.981769840472159e-05 
-0.0001196476978765654 
-0.0001036874138408629 
6.692837526044818e-05 
6.535673552164506e-05 
2.12746712473899e-05 
2.522572407838596e-05 
8.582416901447231e-05 
3.960652561864455e-05 
-9.716703784831947e-07 
2.957618830020017e-05 
-9.321338472680065e-05 
5.365799498063841e-05 
4.824487899069277e-05 
1.206847404323253e-05 
-7.01751204850477e-05 
2.026295299618929e-05 
-1.255263049608384e-05 
-3.276693174621721e-05 
-1.55802724767731e-05 
-2.284039439133157e-05 
-3.604982891696739e-05 
-5.695872504846625e-05 
-6.476899763547036e-05 
-3.223622340430741e-06 
-2.704375660511716e-05 
4.379517878522649e-06 
0.0001306675884668045 
-0.0001363036165858414 
-5.672565873897119e-05 
0.0001204307091858422 
-8.918848425987691e-05 
-3.997309399063138e-05 
-0.0002248267542101089 
4.537458588236758e-05 
-9.984775538078308e-05 
-2.065107872058264e-05 
-0.0002058172064784556 
0.0001389586313062216 
7.813704038010222e-05 
8.064069392518161e-05 
6.010406504148931e-06 
-1.373828279371543e-05 
4.005991951467927e-05 
6.98159537761848e-05 
2.006915769813696e-05 
0.0003298014512721755 
-1.51232075784487e-06 
-8.627975678321748e-05 
-8.402383130241953e-05 
2.8229753273905e-05 
-0.0001145929888682361 
3.809973547189048e-05 
7.038074519448999e-05 
-8.137648035294446e-05 
5.395486913750107e-05 
-6.427412457186355e-05 
6.657988393403826e-05 
7.141452817726887e-05 
-2.574725207004245e-06 
-1.492212429777235e-05 
-1.441128946349256e-05 
-4.44106807831655e-05 
0.000278571175769201 
0.0003686576965305562 
-0.0004599608866168023 
-0.0001259874821904765 
-6.383166834073926e-05 
6.291731313162354e-05 
5.782110910870821e-05 
3.884988912734933e-05 
1.876884920028514e-05 
5.360894192220194e-05 
-2.827627795960538e-05 
5.153073217842732e-05 
-2.659225130587977e-06 
-2.074023387501713e-05 
-6.756421343297975e-06 
-1.408241394349093e-06 
-0.0002706428072341797 
-2.003201773292305e-05 
-7.817115856983193e-06 
-8.529737913478563e-05 
3.425759465633337e-06 
-0.0001884843623419092 
8.064069392518161e-05 
6.690782579298795e-05 
-6.844012807755507e-05 
5.727973272333606e-05 
9.045408278363101e-05 
1.37917995160891e-06 
-1.77965911595153e-05 
5.078001929388446e-05 
-2.480795061208769e-05 
3.292891837159572e-05 
-8.250270586741913e-05 
-0.0002181504252878789 
-7.214704719563054e-05 
0.00022161647270701 
6.637569015348174e-05 
-8.010782438847948e-05 
0.0004157908084464135 
0.0001702916142649247 
0.0001021629860809233 
1.08614401938575e-05 
-0.0002392852388454148 
-0.0001179689978476095 
-0.00010699606694508 
0.0001426108055103776 
-0.0001639958683985439 
-2.536862159654719e-05 
-0.000140471265329706 
-8.620813997043737e-05 
3.68147319481481e-05 
-7.621107129507925e-05 
-4.871309430700993e-06 
8.012559868170941e-07 
-7.928639793118928e-06 
-1.5727642449199e-05 
6.321118270247935e-05 
0.0001362061496153885 
-2.225607442738969e-05 
-6.367204931818315e-05 
-4.204629382763843e-05 
-9.216183424875249e-05 
-0.0001621743155207074 
-1.989849419056929e-05 
3.283149124338382e-05 
7.614491115842829e-06 
5.019598081363744e-05 
1.489187028619213e-06 
-8.002808429933861e-05 
0.0001370601816315235 
-0.0001168390776276351 
0.0001997523871224832 
-0.0001180765575686384 
-6.705256815454799e-05 
6.899922865012529e-05 
5.783377699916735e-05 
-1.157473173555056e-05 
-4.870433005202139e-05 
8.642473859034985e-05 
4.978243979627954e-05 
1.599422578747991e-05 
6.862804582003507e-05 
0.0001273952707836163 
2.6683645497712e-05 
-0.0003151163683638157 
-6.829921780548997e-06 
-6.921878530072229e-05 
-4.329073285605882e-05 
-0.0001280033398868039 
0.0001092130040747073 
8.004774506873806e-05 
9.244863114145714e-05 
1.678053052985015e-06 
6.746845837895858e-05 
-7.938215540903966e-05 
6.074710856729272e-05 
1.279382789746643e-05 
1.279186722294588e-05 
3.273157701009406e-07 
2.684300422855867e-05 
-4.333644252175669e-05 
-5.083555849220593e-06 
-7.440338503955176e-06 
-2.229441541691992e-05 
3.181961930271684e-05 
-0.0001253925000135327 
0.0001392611463031402 
-0.0001882042961854643 
-0.0001992298769219205 
0.0001139533065472072 
-4.941490397647961e-05 
-5.639522677992935e-06 
7.578667693496333e-05 
-4.203557114625299e-05 
-5.274465850387537e-05 
-0.0001423321314227642 
2.405375683627642e-05 
2.336923957060941e-05 
1.104766706043057e-05 
5.804548440342902e-05 
-9.15861687585256e-05 
0.0001042131979246929 
2.831506994055766e-07 
-5.936308587356257e-05 
-1.982693754796907e-05 
-1.594097176473737e-05 
0.000292103475451122 
-8.284154384514331e-05 
-5.457288176790343e-05 
2.597844361939334e-05 
-8.419041779197358e-05 
5.637181615011864e-05 
-1.401756301799344e-05 
-5.58617785816381e-05 
0.000145012029816042 
2.675275243257617e-05 
-1.539292512585555e-05 
-4.219763009543432e-05 
0.0001004411906167414 
-0.0002357688809429496 
0.0001186609098311032 
-0.0001301616807443972 
-1.196221775413136e-05 
5.015768997928828e-05 
3.278073590890439e-05 
1.730731776977231e-05 
-4.252379154249401e-05 
-5.866973746574069e-05 
-1.570403466492246e-05 
-3.449152160125652e-05 
-2.898603914670118e-05 
-2.484069823982592e-05 
4.922211552864328e-05 
8.471850598150885e-05 
3.014889272446037e-05 
0.0003253113820060639 
3.494158440211291e-05 
-5.337799811794215e-05 
-4.690889476260263e-05 
2.260049481855496e-05 
0.0001547284722799493 
-6.192221943364113e-05 
-8.384561908236116e-05 
-0.000282860321605901 
-3.127933126747279e-06 
-4.29730606064892e-05 
0.0001211748607493661 
3.965288136363556e-05 
2.073494713810179e-05 
-8.734404582878025e-05 
5.54228887848785e-05 
-7.076029246870552e-05 
-1.831301437307486e-05 
-7.308382086720971e-05 
-5.387377916978627e-06 
5.952796569951958e-06 
-0.000171868159774997 
-0.0002838414271614605 
1.930233005104905e-05 
-8.517722722011466e-05 
3.458410064328458e-05 
1.054352320364492e-05 
0.0001946773106625256 
1.823652936528212e-05 
-4.265135735712152e-06 
8.967482625741486e-05 
-7.572664976914643e-05 
0.0001056164268888096 
-0.0002725056940700989 
-0.0001395869202555573 
-6.17556817843478e-05 
-6.475694389625295e-06 
-8.52189496035792e-06 
-7.214533692918226e-05 
-7.153883272066412e-05 
2.589307742042722e-05 
1.966845572874228e-05 
-2.928017064113215e-05 
0.0001055138596062251 
-0.0001014820952894814 
-2.060802413686091e-05 
-3.863349450191652e-05 
2.965204851846081e-05 
-1.955034831841928e-05 
-6.700164057096776e-05 
0.0001045426968964948 
4.677162240330431e-05 
4.028139555664793e-05 
1.451886920148858e-05 
-0.0001731776549350575 
5.026791044170485e-05 
-8.77492327699897e-06 
0.0003448339941849506 
0.0002223125423402281 
-0.0001462907175185047 
-3.106461171486106e-05 
-1.345482586069055e-05 
9.798206898931728e-05 
-7.984935767142094e-05 
3.563108727818048e-05 
-2.743792000434746e-05 
-0.0001512240019224562 
-0.0004539128342109099 
-0.0001033843080926721 
6.471924645308034e-05 
0.0001130536129701127 
-5.294191963571522e-06 
-4.249354043558496e-05 
1.305850447645859e-05 
2.729909152243547e-05 
-5.861275679683074e-05 
5.493797617510218e-05 
0.0001911911335960962 
-2.070669796408705e-05 
4.795464197920453e-05 
-3.797646481503967e-05 
-4.741327252927449e-05 
2.960910729197319e-06 
1.405710783780599e-05 
0.0001248343380596625 
2.921932885987296e-05 
1.06648284590199e-05 
-4.213833501653807e-05 
-5.82751095153042e-05 
-9.666656049340404e-06 
5.763341748801528e-05 
6.988403332491605e-05 
4.792114857559516e-05 
3.053622101778237e-05 
3.361713878998758e-05 
2.916421916101314e-05 
7.414172037912516e-05 
0.0002489149975111186 
-3.442392555161384e-05 
-2.734274807945855e-05 
5.652465852138719e-05 
-0.0002411816031783886 
-9.872331710620102e-06 
-2.421824735333206e-05 
-0.0001201991520721597 
5.170385857223563e-05 
2.180082675453546e-07 
-7.11456011458078e-05 
7.283900667587365e-05 
4.936815992451517e-05 
3.47126230965729e-05 
-0.000131690962051273 
3.854406096846587e-05 
-6.65231175990189e-05 
-9.224833511902785e-05 
1.937957356968757e-05 
-6.416007125552109e-05 
4.79973221075589e-05 
9.126708169390283e-06 
4.501567069016474e-05 
1.936306474999484e-06 
-2.205194505192701e-06 
-0.0001598514579073821 
7.836643842438755e-05 
-2.588174086700666e-05 
-2.587719514249608e-05 
-9.328808947528653e-06 
-0.0001902642570104823 
-4.314679040122675e-06 
-7.090808071333339e-05 
6.243099824929231e-06 
3.414266721130634e-05 
-7.962859847656503e-06 
-1.113409339311751e-05 
0.0001432910146447081 
9.483765344525486e-05 
4.774449965975385e-05 
-2.701003799222408e-05 
-4.194791656326122e-06 
-1.863890898148193e-05 
0.0001672319596339135 
-0.0001680517998118106 
-4.65090805562546e-05 
1.528958338722662e-05 
-1.982949910162035e-05 
1.428584153974033e-05 
-5.879148299854435e-05 
-2.13539995668965e-05 
0.0002698137469204515 
-1.822734655680727e-05 
-0.0001072215318892842 
2.50915357045766e-05 
2.979773074601057e-05 
-0.000204326371464729 
4.069950168529451e-05 
2.301013125584579e-05 
-4.637193706229145e-05 
5.383769138235013e-06 
1.554682306555866e-05 
2.900495375811602e-05 
-7.896755806734862e-06 
-8.623826964080166e-06 
-3.476613169851865e-05 
2.489439840199058e-05 
-3.46620622941406e-05 
5.115228872183957e-06 
-3.574429559078875e-05 
-0.0001691262119484819 
-3.071265590724677e-05 
-5.50992347447868e-05 
-3.945197808309553e-05 
0.000118942018629291 
8.373527291598263e-05 
-5.121450755020465e-06 
-2.058100253641877e-05 
9.466204366214453e-06 
-4.043279790449806e-05 
0.000275145408328912 
-0.0001860742239927926 
-2.263450898438921e-05 
-8.114174222884593e-05 
1.327391037257245e-05 
-3.275201630895182e-05 
6.487880096050793e-05 
-9.759243658759404e-06 
2.91415008110126e-05 
-3.548230552174295e-05 
2.367602818250975e-05 
3.020331052213227e-06 
-2.006756519594871e-05 
1.331393475699914e-05 
4.473903246788307e-06 
-4.483459571902702e-05 
-1.935831269759837e-05 
-6.771536027157688e-05 
-0.0001389661817588633 
7.588058175407709e-06 
-0.0001520341036525833 
-5.071204531177868e-05 
7.267002118103868e-06 
1.39520955499201e-05 
1.000150814820931e-05 
2.176650337655078e-05 
8.637522150123647e-06 
-4.256538412583016e-06 
5.891475448395479e-06 
-3.837639722581341e-05 
0.0001212844954998088 
-1.896797003684495e-05 
-5.607102572201826e-05 
0.0001909589312954844 
-0.0001316870122812033 
8.794164029774006e-05 
-2.214306587689164e-05 
5.029999679790129e-05 
0.0001355643443154392 
-3.966146305183108e-05 
0.0001534819723455149 
-2.900350813174831e-06 
-0.0001561950555807158 
-1.731413598792679e-05 
-7.835169126141779e-06 
-4.52878316172119e-06 
-0.0001046601718360859 
1.145727181586347e-05 
3.857873276797762e-05 
-0.0001808406081423171 
0.0001766046191376317 
-3.275443858140364e-05 
-7.603393658656245e-05 
-1.623437799028796e-05 
-2.808566266630255e-06 
9.826743570084588e-06 
-5.690488097168926e-05 
1.449667610242867e-05 
-3.852690614470555e-05 
-0.0001085290800589663 
-2.035687777087028e-05 
-3.659240733369506e-05 
0.0001881031887209034 
-9.298001153876392e-05 
1.583816421651983e-05 
3.725877098824321e-05 
-6.753775934848497e-05 
1.066898449746643e-05 
0.0002631056002488619 
-3.010475304299762e-05 
7.735337473270955e-05 
-3.556376664395698e-05 
-1.36895935981632e-05 
-6.748008398937046e-05 
1.959168155505075e-05 
-1.775943229492287e-05 
2.42045536944969e-05 
2.48289510365353e-06 
-3.012406549798249e-05 
2.175467282711818e-05 
4.69200873964811e-06 
9.884681797315433e-05 
8.345979681692492e-06 
2.653335859365619e-05 
3.139783356647454e-05 
1.710668105705219e-05 
-0.0001198866098298934 
0.000116737231181644 
-0.0002337007839468601 
-4.951076617143275e-05 
-1.139291675039754e-05 
-3.257826098447561e-05 
-7.863469207024507e-06 
-2.502624340164329e-05 
-4.676472912685988e-05 
1.513321987026377e-05 
-9.298557856150889e-06 
1.500089683655734e-05 
1.200466448136365e-06 
-5.125566666072868e-05 
1.041582257643269e-05 
0.0001467535958707269 
7.737708274860583e-05 
-5.596475429207749e-05 
-1.1999392588523e-05 
-5.121268684010324e-05 
4.350342850261886e-05 
-7.374543819177337e-05 
4.230023392967936e-05 
2.828352451890612e-05 
3.009377523743312e-05 
-2.556264055533013e-06 
-2.630679259770643e-05 
0.0001111265122868365 
5.072191580672392e-05 
5.334366020765885e-05 
3.606580545096698e-05 
-0.0003443871196398716 
0.0003449571175783408 
-0.0005869695452556009 
-6.991217886017716e-06 
0.000259290842194148 
-0.0001166982973870615 
0.000153259776983384 
-1.522852400684609e-05 
-2.319090419671433e-05 
2.032994161577784e-06 
1.61392754390436e-05 
2.210195470989323e-06 
-2.022622357669062e-06 
-3.952074062655805e-05 
1.224668761381771e-05 
-4.799593771359032e-06 
7.145235043926206e-05 
-4.08958491740196e-05 
-1.19229146272091e-05 
-2.621647085074863e-06 
-1.296871782018748e-05 
-4.804645456549681e-05 
-7.723525833983974e-05 
0.0001470269564230602 
4.19687969972173e-05 
3.584690286125009e-05 
-1.179856127719353e-05 
0.0001793646255925754 
-0.0003265348482543684 
-9.383282380447229e-05 
0.0001359494937509305 
-2.87895725398485e-05 
2.957585410482281e-05 
1.46898936066482e-05 
-1.755282133731009e-06 
-1.920031695683405e-05 
-2.230045149649433e-06 
0.0001251637780872305 
-0.0001592510919117522 
-2.821186094371292e-05 
-2.808224994099214e-10 
-3.987951046805209e-05 
-2.181774115790444e-05 
-6.382568786837283e-06 
-0.0001006307178008462 
-5.313231827573873e-06 
-1.096159979766838e-05 
-1.688686012776309e-05 
-2.491225865084891e-05 
-2.099181201834743e-06 
3.283351123078298e-06 
-8.100028222953658e-05 
0.000163054265011682 
-1.716776211174227e-05 
-2.610531567781841e-05 
-3.538313339897502e-05 
-3.754789004296661e-06 
3.484347777470967e-05 
3.623801145262054e-05 
-7.061509831348485e-05 
-9.724522603520339e-07 
-5.690918716014815e-05 
-1.704144024714177e-05 
1.397054708564771e-05 
-0.0002816248743528282 
-7.946197467062877e-05 
0.0001186091308895143 
1.578856777683015e-05 
3.684409581662752e-05 
-4.198974909992686e-05 
0.0001124735299553629 
0.0001364635345975693 
9.076484421748906e-05 
-0.0002372512576346833 
7.781398607822775e-05 
5.736273794563899e-05 
-2.156370654827106e-05 
2.02542789563757e-05 
-4.983917590157967e-05 
-3.094888793657351e-05 
-5.659577572205762e-05 
4.115006445585581e-05 
2.192723359158268e-05 
2.401295387893168e-05 
-5.625153588834484e-05 
-5.945989793086804e-06 
5.87942373854014e-05 
1.598325184292548e-05 
2.166439140504314e-05 
0.0001350560193972775 
-2.26884723132767e-05 
-6.482488064965418e-05 
7.00242291158776e-06 
-3.495981749001709e-05 
-1.225131247576577e-05 
-0.0001390872774994956 
0.0001218304910450191 
0.0002358151302516585 
1.606776831459717e-05 
-0.0003565479687012051 
-0.0001655578443004667 
-0.0001793255040299923 
-9.099397711285528e-05 
0.000257028680721322 
2.995186270972529e-05 
-2.203230869599736e-05 
-0.0001890307682799595 
4.079834106496751e-05 
6.23172470082002e-05 
1.477288478329745e-06 
-3.766423111284974e-05 
0.0003490777557058581 
-9.150918318176682e-07 
-4.120791825125044e-05 
3.462621482858444e-05 
1.986791417543948e-06 
7.895828827881332e-05 
-6.930750523287055e-05 
-0.000132084863477974 
-1.248469424876998e-05 
8.53495146098708e-06 
9.951639447933121e-05 
-1.265288920084098e-05 
0.0004695618046721941 
-0.0002369403110843101 
-2.919318707609135e-05 
2.912000845878521e-05 
-1.933762940959857e-05 
2.063855957781141e-05 
2.726481052650276e-05 
-0.000146414900975285 
3.267579616590467e-05 
-2.52958450635999e-05 
-9.392838219822741e-05 
-6.433470699884387e-05 
4.114148155640122e-07 
0.0001586003503518637 
-3.657064020671641e-05 
-4.522576796758875e-05 
-0.000169418566307866 
-0.0001956237598622223 
0.0001485982113179198 
9.285945998096834e-05 
3.737156408437001e-05 
-0.0001876524423283419 
6.485039425754412e-05 
-1.169136471407041e-06 
3.331344271185818e-05 
-9.357497520969301e-05 
2.750202208477217e-05 
-2.983914641097278e-05 
8.190782622739516e-06 
5.865829219695835e-06 
2.094288599951141e-05 
6.052421982806926e-06 
-9.717034417504095e-06 
0.0001043791431976696 
-4.978668173625499e-05 
7.607059220388953e-05 
-1.949578550514793e-05 
-3.185548407280774e-05 
-1.708045411304033e-05 
7.968436527064537e-06 
-4.937154306388098e-05 
2.188510637362892e-05 
-2.000671664880797e-05 
3.794945053400652e-06 
2.352430760248893e-05 
-0.0001009260803931738 
-0.0001703911232577624 
7.043975568962875e-07 
-1.766808262139216e-05 
-8.738650502933692e-05 
5.530876055494013e-05 
-9.334026362798723e-06 
-0.0002702149171698488 
0.0001560715174131145 
7.549373816000562e-05 
-0.0001870022770241966 
0.000263033531462406 
9.956083525003008e-06 
-6.104685233718874e-06 
5.826112112041505e-05 
-3.63356779114133e-05 
1.875582401984118e-06 
-1.418684799565449e-05 
-1.913870157742348e-05 
-0.0001107107082035361 
-6.152488869105486e-05 
0.0001535200921162203 
0.0002042666650556343 
2.568537745475742e-05 
7.775385995587992e-05 
-3.900529061748017e-06 
1.072858609299284e-05 
-1.918590868206549e-05 
-0.0001323494180234332 
2.948919565700708e-05 
1.90777166897112e-05 
-1.99560440207604e-05 
-2.011283916904797e-05 
0.0001616226718241442 
-0.0002517640093470916 
-7.588067103124842e-05 
1.643501085344441e-05 
-4.015649488661984e-05 
3.322440105068362e-06 
-8.682089427215062e-05 
0.0001699591354678339 
4.373682635391305e-06 
4.029032668835039e-06 
-8.005963628573547e-05 
1.37825141770511e-05 
0.0001014668035492647 
-0.0001741428936202297 
7.739693046110306e-07 
0.0001565919838543872 
3.300039267250331e-05 
-4.762250361139765e-05 
-0.0001508451850072507 
3.31577774111328e-05 
4.860375450064793e-05 
3.213939150576066e-05 
-2.973502920946675e-05 
-6.125520168492601e-05 
0.000113192012113501 
3.07833995637718e-05 
-2.871047091132919e-05 
-9.09101669093244e-05 
2.967338108577019e-05 
-6.079023764114718e-05 
-4.337282484260171e-05 
-0.0001074282411493829 
-0.0001471715661861844 
-8.379269309317213e-05 
0.0002849083865407146 
-4.930316558046494e-06 
2.219990152612032e-05 
-0.0001948158927037045 
-4.781159835127581e-05 
0.0001550171188550329 
-3.576109046401938e-05 
-6.711537160136821e-06 
0.0001569658096833404 
6.327458148634691e-05 
-0.0001189488244408477 
-4.850627625342089e-05 
-0.0006421273566126401 
0.0003867714849283984 
8.283956200308456e-05 
-6.185290226650731e-05 
-2.204728990763515e-05 
0.0003202893957001123 
-9.908611089871966e-06 
-3.78692707651119e-05 
-0.0001058800138309745 
-4.697693698205772e-06 
-2.246215612087781e-06 
-7.171345095506222e-05 
-2.562242296412805e-05 
-0.0001885381443472703 
0.0001989138778224101 
1.596487844828611e-05 
0.0001077090584787674 
-4.17014249121018e-05 
-1.887440945173745e-05 
4.851714050499912e-05 
-3.790328379642173e-05 
-8.896840520296267e-05 
-3.854613765874808e-05 
-6.978247934892483e-05 
3.081652476312766e-05 
-3.29876782850849e-06 
-1.622825542586128e-05 
8.017670323909418e-05 
-2.184128534918381e-05 
4.857842881523889e-05 
-7.436602125356252e-05 
0.0001145989915000016 
-0.0002192267687160865 
0.0001090311800785181 
1.652627452973724e-05 
-2.798855298167986e-06 
0.0001770295527929724 
-9.212045706205633e-06 
-6.550668689939325e-05 
-6.726230349840648e-05 
3.145520884651716e-05 
-8.522628968776637e-05 
-0.0001288940964678567 
0.0001215160019622903 
7.323921680868226e-05 
0.0001566218888035876 
-0.0001124469305374826 
-2.258712191451227e-05 
-6.886819402951173e-07 
-1.94540495359163e-05 
5.884077852005621e-05 
-2.812383915367674e-05 
5.216807872511359e-05 
1.214060297466153e-05 
-0.0001469237002226267 
-5.090269385660407e-05 
-1.148148779092391e-05 
-2.562534505272373e-05 
2.332618531976597e-05 
1.611120530323304e-05 
-1.72659627729033e-05 
-9.112278574492293e-05 
-1.62355171028708e-06 
0.0001095292257676277 
2.416098886712912e-05 
-3.405398278703916e-05 
0.0002574284673480767 
-0.0001713847913701249 
-5.149570478758395e-05 
-7.215032272318812e-05 
0.000192272553533717 
1.111993785751036e-05 
-3.746335230968796e-05 
-4.053325053800483e-05 
5.60642610931394e-05 
-3.758008459407716e-06 
-9.920656348519057e-05 
4.597657019847723e-05 
1.746800090475385e-06 
-4.850310390849324e-05 
-2.965493315999886e-05 
3.22704023905522e-06 
-4.653568713946947e-05 
3.533225192045905e-05 
-5.67717592754776e-06 
-7.410489761388106e-05 
-2.748164178518343e-05 
-3.76238656882496e-05 
4.584546996047281e-05 
-5.185279188057753e-05 
-6.737763317866931e-06 
-5.331759817821913e-05 
7.573396479427238e-06 
-4.081888927246704e-05 
0.0001080876949732414 
-5.318904302996121e-06 
-9.558878880759725e-05 
5.071473697928545e-05 
-1.377776054979398e-05 
-2.340911805976362e-05 
-0.0001646413661914098 
-0.0001591326926072066 
-8.410504500176294e-06 
-0.0001053656678300378 
-7.089474035226505e-06 
0.0002345214935881349 
3.644952118435146e-05 
4.177298941447423e-05 
6.321998601095866e-05 
1.481459479281877e-05 
-0.0001218200016776453 
-1.383195311109435e-06 
-8.21371922204174e-05 
5.542542023298604e-05 
5.180086726441984e-05 
-9.831043255137192e-06 
1.054792470886557e-05 
-5.551687447894712e-05 
2.203164359864951e-05 
8.701901582779182e-05 
2.360224600728204e-05 
-4.357273208399662e-05 
-2.762235019849698e-05 
-2.283301025724966e-05 
-3.665432694733422e-05 
-4.586153319080936e-05 
0.0001736969681342901 
1.019242838405298e-05 
1.606447559453312e-05 
-6.396116209931167e-05 
0.0001925568334536972 
-4.758556661891965e-05 
-0.0003692916897212523 
-6.727174923375274e-05 
0.0001386895805632561 
0.0001379926342120185 
1.279267828685662e-05 
-6.889460201156279e-05 
9.915718786134509e-07 
-3.174453310134351e-05 
-2.426065831400369e-06 
-5.22960120097158e-05 
1.847119579553538e-05 
0.0001761228838186609 
3.720349294571509e-05 
-1.947854381270755e-05 
-9.285727092109872e-06 
-3.681964935352526e-05 
-0.0001423711711071579 
-9.201312976730677e-06 
1.274694649755729e-05 
1.332520839413569e-05 
-1.568370691400972e-05 
-5.810558077783328e-05 
6.410852582899286e-05 
-2.653991789441455e-06 
7.417010533539713e-06 
3.685068352740835e-05 
5.892231174668736e-06 
-2.299268412840726e-05 
0.0001285206677349699 
4.317464394282114e-06 
-5.567747900116789e-05 
-8.609858036298644e-05 
-3.573983145706962e-05 
-0.0001577127831666397 
-3.103015143943864e-05 
-6.458637956507427e-06 
1.837137262475989e-05 
-4.031165671061391e-05 
0.0003457940572207299 
-2.58656541950807e-05 
-0.0001012196621864034 
2.679844347455841e-05 
0.0002548623713871908 
-0.0003871227320654406 
2.634765318666385e-05 
2.184101772124049e-05 
-3.612404323636616e-07 
-1.160674135331802e-06 
1.136916786088616e-05 
-0.0002390329984465206 
0.0001013273970263289 
1.095391648047169e-05 
-3.663880430417051e-05 
-5.945704221762836e-05 
4.363851831212755e-05 
2.811535962224619e-05 
2.536253058720872e-05 
9.660310546929689e-05 
1.22903387496037e-05 
-4.146324984919514e-05 
2.962826015614644e-05 
-2.772362552187738e-05 
-0.0001002569895143318 
2.302081041193329e-05 
0.0002481802855775915 
-0.0003842029376572277 
-9.85906712259508e-05 
1.363624883934962e-05 
1.908308317537209e-05 
-0.0001296658069227617 
-3.005129770518755e-05 
0.0001990957141518391 
2.13212906886839e-05 
8.886280713093735e-05 
2.839421099219225e-05 
-4.454095961785159e-05 
-1.212089009137557e-05 
7.310067350126351e-05 
7.780793748419761e-05 
3.213395423234837e-05 
-0.000194923125484724 
-3.140246488459325e-06 
5.677005489643037e-05 
-3.554018647178254e-05 
-2.524300197863587e-05 
-5.083075521103611e-05 
-0.0001637853581203284 
8.466962779230149e-05 
-9.297064745413106e-06 
6.412282802563709e-05 
0.0001226258343663015 
-2.137850073957576e-05 
-4.899780707746358e-05 
1.666951010346415e-05 
-0.0001250562301280292 
-8.138116199821452e-06 
-6.59356196824912e-05 
-2.728060481535494e-05 
9.77209735746801e-05 
-0.0002140955338072311 
6.365730460279081e-06 
-3.133355142075752e-05 
3.66251725624724e-05 
0.0001273089572871844 
-2.358726652226936e-05 
3.261688253390289e-05 
5.609543371627691e-06 
5.051004825557942e-05 
8.061549704767796e-05 
-1.76479741126023e-05 
-0.0002967336837662327 
1.567906062907996e-06 
0.0001817022919449584 
-0.0002789120663474061 
2.235997850369316e-06 
0.000285210019277488 
-7.369759880016274e-06 
9.558105352567188e-06 
1.356200390769028e-05 
8.308489447644755e-05 
-2.063635586100001e-06 
-6.538378146634135e-06 
3.619519964765823e-05 
-6.23063022985341e-05 
-3.150437111155155e-05 
-0.0001515533472100955 
-0.000106959751037123 
-7.458973914660577e-06 
0.0001573536569555345 
0.0001970728371650206 
-3.311631789560327e-05 
-5.156379025902455e-05 
-7.536787160416563e-06 
0.0002372179733474026 
-6.464973486145935e-06 
0.0001318671659078555 
-0.0004880019194942079 
0.000263280007793827 
-0.0001086995561244855 
3.111702378415281e-05 
1.937710021737396e-05 
1.424527209089328e-05 
4.545947619327008e-05 
2.939126088076757e-05 
9.38982105941001e-06 
-0.0001368434071167393 
1.895263776697115e-05 
3.214983039167339e-05 
-3.679942610170958e-05 
-1.266098476051786e-05 
-8.227618690470583e-05 
-5.503908763466211e-05 
-9.095067336937912e-06 
1.223694172064576e-05 
-1.830779834754303e-05 
-4.067055452665047e-06 
1.730979497417389e-05 
-0.0001105040631324781 
-1.31494553443022e-06 
1.761356209136946e-05 
-0.000160726678268393 
-1.973372384023483e-05 
0.0002277393438370098 
1.519595294405839e-05 
0.0001818290870209088 
2.062788099801065e-05 
-4.809793077145589e-05 
-0.0001187543523216679 
2.238412599086496e-05 
2.800462897258261e-05 
-0.000147208709954423 
-3.171956316670825e-05 
0.0001966569129332954 
-9.172783145277832e-05 
0.0001247468229997774 
1.526292412630685e-05 
1.769792818415217e-05 
-0.0001662210471936065 
-2.071949442502651e-05 
-1.141951300712853e-05 
-4.955191282603285e-05 
-8.209625647111387e-05 
4.573181068824752e-05 
3.601160947493821e-05 
-4.516871829240035e-05 
7.18453114328703e-06 
-1.343625366006606e-05 
-4.433718135036179e-06 
-8.9838996892498e-05 
-0.0001736071131044743 
-5.557939244645885e-05 
0.0003399544473385181 
-0.0002403591929310369 
-0.0001236093618420108 
-0.0001116957036816847 
-0.0001827935474575944 
0.0001145150911236724 
-1.9591951134717e-05 
-2.274049315960448e-05 
4.289152309556673e-05 
-3.940528304542192e-05 
1.753263411840023e-05 
0.0001652855205246055 
-1.170341506194888e-05 
8.477944178019409e-05 
4.94625197830809e-05 
5.082042465469208e-05 
0.0001158880739460647 
-7.117292740070497e-05 
-9.497645322829519e-05 
7.34143892567616e-05 
0.0001248221586320001 
1.67935950814841e-05 
-4.19946651297925e-05 
-2.225217607549437e-05 
-3.787702611393954e-06 
2.563855210261427e-06 
-3.439445378242844e-05 
4.804027417862761e-06 
-1.286266905160059e-05 
-2.282242158402469e-05 
-1.68183580838284e-05 
1.90750719878667e-05 
9.28585133989664e-05 
4.42852623298205e-05 
-4.166217547053796e-05 
-4.412633256799918e-05 
9.476878774409591e-07 
1.633411046887521e-05 
-4.799172007525339e-05 
-2.365177612401574e-05 
6.6438346144989e-05 
5.15093489607402e-06 
-1.840922754993447e-06 
-8.157471718081883e-06 
-1.051657280362166e-05 
9.508866204008143e-05 
0.000137981524373935 
-0.0001471187565438326 
8.154463204839373e-05 
-9.6786720782962e-06 
-0.0001626394676557674 
-4.841105284716221e-05 
-0.0002536227481424793 
0.0002600121313556831 
-9.549204282515423e-05 
4.823212024487215e-05 
-8.47457149775196e-05 
-6.451047853137418e-05 
0.0003627631849547564 
-0.0002968451061386615 
1.101812726854917e-06 
-3.364797784790367e-05 
4.809036898083769e-05 
-5.860844733113339e-06 
-5.665983458727498e-05 
3.212503626023671e-06 
-2.059420615220671e-05 
4.905267622785774e-05 
0.000112512790173102 
-1.889309349464532e-05 
9.715303742720345e-05 
-1.776205736154694e-05 
2.259863139148125e-05 
-5.668835442792566e-05 
-1.282310485172026e-05 
-3.0269346250765e-05 
1.516684766033275e-05 
-0.000143167177830925 
-3.888462098829371e-05 
-8.038380112506064e-05 
6.487009485088093e-05 
-2.695013507949859e-05 
0.0002242745667873905 
5.706779236270794e-05 
-5.053237992450166e-05 
-2.212478549431717e-05 
-0.00021341383967003 
2.743263542269979e-05 
-0.0001158976501255918 
3.414503267024117e-05 
-1.549984821475353e-05 
4.582607593899843e-05 
9.812208566321735e-06 
8.896742400392915e-06 
-0.0001515704010617921 
3.037781730843757e-05 
6.808054925268725e-05 
-7.435592395016832e-05 
7.55394842781687e-07 
-2.611296739162067e-05 
-0.0001705097491484137 
8.654892960815249e-05 
-3.904627406966789e-05 
-5.079963241731105e-05 
3.622038811606798e-06 
0.0002809705050100115 
5.728645447057753e-05 
-0.0001508614961605321 
3.720982462607879e-05 
-3.931036965647468e-05 
-0.0002675718712751436 
0.0001701015921300445 
-5.567011671324348e-05 
-0.0002839708523639812 
-6.13306401593762e-05 
2.862995140143125e-05 
-5.898202166271116e-05 
0.0001256988506985658 
0.0002869319969451481 
3.544713186873928e-05 
8.641819879679521e-05 
2.730696282295329e-05 
-6.840079233033155e-05 
-1.376260547379952e-06 
1.674863183974767e-05 
1.188030566378003e-05 
0.0001469893001082712 
9.938771023046954e-05 
-0.0001270567603203527 
2.984836708969834e-05 
-8.774562058045559e-05 
-3.757951672748487e-05 
0.0001130720885220543 
-7.117267885920977e-05 
-0.0001585905976442885 
-5.097788448522701e-06 
-2.799126638100413e-05 
1.791339760832565e-05 
-8.805107901360534e-05 
-1.167319516005079e-05 
0.0001529739842330515 
9.763887430966552e-05 
-0.0001319282132991615 
-0.0003135290806982999 
-6.597929880575527e-05 
-3.516603807858001e-05 
0.0002315843556943104 
-9.229983898596096e-06 
-1.016220456591208e-05 
0.0001069268338626788 
2.697417596459443e-06 
-9.606672850034118e-06 
-6.74628947460029e-06 
0.00012869404750661 
5.03305057589711e-06 
-1.08050264699663e-05 
-8.536621779938611e-05 
6.23596952218897e-05 
-2.802205235192026e-05 
5.009134147180681e-05 
-1.179402821246912e-05 
4.166745300712142e-05 
9.878028045920921e-06 
-6.895764233754014e-05 
2.029775076748271e-05 
-6.415633332215197e-05 
-0.0002692282957458095 
-0.0001121572394211618 
8.496911302649535e-05 
3.908486509832926e-05 
0.0001010867992295594 
-6.620035518334615e-05 
0.0002147997679401786 
-6.036669644101619e-05 
6.943273486225924e-05 
-2.876165278828075e-05 
-2.028925292233415e-05 
-3.392076965549644e-06 
-7.906247663582243e-05 
-0.0001017897148628449 
-3.478464795730874e-05 
3.374905425999644e-05 
0.0002604149579177851 
-8.626800105360591e-05 
-0.0001252179115276548 
0.0001192951159383104 
-8.409634173662095e-05 
2.725141553171677e-05 
-3.867116892741049e-05 
-0.0002403930288099885 
6.692148530552558e-05 
6.803282795111366e-05 
-7.217887078194506e-05 
-8.813101698441344e-06 
0.0001417079087120673 
0.0001093731280433934 
-0.0001721183469533496 
0.0001357273892689887 
-8.788135138678044e-06 
-2.234024986053885e-06 
7.590066806289632e-05 
-1.176357068904574e-05 
-6.431276029782581e-05 
0.0001070840093057172 
0.0001767463742188219 
5.028207728402281e-06 
-3.478464795730874e-05 
2.35423364352011e-05 
8.777541646142476e-06 
-0.0001306321240031314 
3.481484389885686e-05 
-7.789004585838534e-05 
2.299581977403975e-05 
-0.0001259908762096907 
-9.406584597190766e-06 
7.20176863275262e-06 
-0.0003873832081045541 
0.0003313390501709119 
-0.0001049937294488567 
2.309015783402005e-05 
-3.543825752839995e-05 
5.46580014972537e-05 
-1.800089132070393e-05 
-2.093649931195322e-05 
6.293968860308329e-05 
-2.127589368305849e-05 
5.117112970250134e-06 
3.148472680271487e-05 
4.35886479631183e-05 
-0.0001285932633927029 
1.776093272767706e-05 
5.333451050003776e-07 
-2.878590295029459e-05 
4.876143930086407e-05 
1.15802546115737e-05 
2.271133665963622e-05 
1.694203868144235e-05 
0.0001233935183962737 
-0.0001208757477982611 
-7.40223454976537e-05 
4.573167784864419e-05 
-0.000134523800085722 
-0.0002007278479325852 
0.0001921311471866866 
-7.621651171021592e-05 
-9.137029954727316e-05 
9.918044483161722e-05 
-3.972057774779667e-05 
1.371218627558437e-05 
6.288106579473186e-05 
-0.000157173543554661 
3.693883067430972e-05 
7.333893252842553e-05 
0.0002028863035533845 
0.000141098694981511 
-0.0001157742356885078 
0.0002334694354444158 
-2.545052735408894e-05 
-4.54675455279175e-05 
-0.0001778290026078954 
-0.0001622988750475254 
-8.13786170865817e-05 
-0.0001029417771023872 
-0.0002118954309767938 
0.0001987344137298566 
-5.598635493567411e-06 
6.235972361810103e-05 
-0.0002370158952272547 
2.26648165959602e-05 
2.546099260843896e-06 
-3.878013625688381e-06 
-7.520610790159373e-06 
-2.282035932296654e-08 
2.588912668176853e-05 
-7.407972661817506e-05 
-3.64911479712147e-06 
7.27500750535323e-05 
3.598964027741678e-05 
4.545174846753403e-05 
-1.292284748012176e-05 
5.355196248951496e-06 
-1.100138426664086e-05 
2.318543361495109e-06 
-7.729750403959548e-07 
7.914642174137997e-05 
-0.0001365306561405874 
-0.0002628415425708379 
8.576026414621832e-05 
2.338453167205402e-05 
-0.0002263187717996936 
4.438964392880009e-05 
8.938188192841267e-05 
-3.254375766246766e-05 
0.0001312496931214741 
-2.727652802180506e-05 
-6.065662121900869e-06 
-0.0001628488168886124 
-0.0001061873048186134 
0.0001421071861708144 
-8.236458681864373e-05 
3.471481140282217e-05 
4.664029655082209e-05 
0.0002024561690253624 
-3.705019381253176e-05 
-1.026627118645538e-05 
-7.12287518211052e-05 
-4.471310326608275e-05 
0.0002109403140945237 
-8.000713795164129e-05 
-1.823434665014304e-05 
-1.33537443602488e-05 
-2.601016490991296e-05 
1.118164995826025e-05 
0.0002094919950843111 
-5.141034827980567e-05 
8.64119551133304e-07 
1.38513363720868e-05 
-0.000165950150785438 
0.0001155309220071146 
-9.128217742094887e-05 
0.000225913665625158 
-2.364261132756436e-06 
6.105024356974081e-05 
2.295494717820269e-05 
2.398031691379047e-05 
-1.906913871528288e-05 
-1.935693975275577e-05 
3.530071211822467e-05 
4.235928667321768e-06 
-0.000200842406428663 
-9.08583005489165e-05 
1.544173654145025e-07 
-2.192436492428948e-05 
8.634249594084864e-05 
3.74072931093188e-05 
5.170099935856292e-05 
1.883747346940901e-05 
9.000729214922938e-06 
-4.305210358025677e-05 
3.26125928592951e-08 
8.502638346136285e-05 
0.0001578651099349612 
0.0001046637550195523 
-8.072553088041452e-05 
-0.000204957262634525 
-0.0001165037268031106 
0.0003038118599976937 
-0.0003209519188756985 
-0.0001148093791353975 
-8.745134395736238e-06 
5.201712271642353e-05 
6.750596902114045e-05 
5.519476666189977e-05 
-1.923421397378158e-05 
0.0001723965267710654 
-1.257681391149588e-05 
-9.180295083696591e-05 
-0.00010394793227248 
0.0001900759304626036 
0.0001864461907258822 
-0.0002935625882981805 
-6.830788650828217e-06 
8.663010411425384e-05 
-1.387917514069147e-05 
-0.0001431661378186318 
-0.0002101792390273597 
-5.955304900859305e-05 
0.0001207260553568517 
3.130787817553591e-05 
-3.10747820349624e-05 
8.309647846720244e-06 
-7.311665818469733e-05 
5.918806058947668e-05 
2.332659260601503e-05 
-1.398446595941506e-05 
-1.620056515922694e-05 
-2.235129147305056e-06 
-7.00016919747922e-05 
-1.183268571493049e-05 
9.192540629683645e-05 
-0.0001119640459086242 
-0.0001298874096244899 
0.0002243056411319328 
-1.04345415298623e-05 
-0.0001201618304018458 
9.829115502631494e-05 
8.94564172831523e-06 
-4.406233590592406e-05 
-0.0001514829451585311 
5.267114421480618e-05 
-1.162607473085392e-05 
-2.674281297229161e-07 
0.0002750582134088832 
7.733782600323317e-05 
-1.343046371993462e-05 
-1.88437974743308e-05 
1.470824205710737e-05 
-1.696761030657526e-05 
4.523465726433422e-05 
-1.887440945173745e-05 
2.960510734949241e-05 
-1.296939264827488e-05 
9.849815719281088e-06 
3.089442576615435e-05 
-7.667128800177783e-05 
-2.281473797417933e-05 
-0.0001702993595403186 
9.147240003680286e-05 
-3.28507733216466e-05 
8.151659245279073e-05 
-2.057729206631365e-05 
-0.0001293014267778223 
-0.0001872055414693033 
1.623306886869827e-05 
0.0002697988561084084 
1.87699302477944e-05 
-0.000365649834051815 
-6.840844277842336e-05 
-1.04062046748883e-05 
-5.273511176669055e-06 
2.940206189885586e-06 
-0.0001044333626637114 
4.166639761312049e-05 
2.672401121697017e-05 
-3.90003737009311e-06 
-8.751445811149755e-05 
0.0001385371725350054 
-0.0002796606711315514 
-0.0001889616798693759 
0.0001292670387031397 
0.0003483526064883155 
2.179057667967502e-05 
-0.0004133890452695239 
3.744182827686407e-05 
0.0001167291157368549 
-6.382949792620324e-05 
-0.0003927645079564701 
0.0001631397035470008 
0.0002913743662732381 
4.057610202412483e-05 
0.0001362895755263789 
-5.668642407958669e-05 
8.122308324034404e-05 
-1.807353407421752e-05 
2.925977578420684e-05 
-4.579604790033264e-05 
9.697326428091983e-05 
0.0001121672654562615 
-0.0002195225455358785 
0.000134083554022044 
-8.656492636372383e-05 
3.856453937790184e-05 
0.0001019588202085915 
0.0004536993276343033 
-2.288436831494962e-05 
-0.00030099824193281 
-0.0002158866388966066 
2.007691055712953e-05 
-7.695658733321555e-05 
-2.2074578225492e-05 
-3.420284696258721e-06 
-1.908137380054709e-05 
-4.094605085738593e-05 
-2.846576259219448e-05 
-4.208012924709934e-05 
-4.964197793652965e-06 
4.470229611082186e-05 
1.133945733786319e-06 
-0.0002815675526809347 
-0.0002182954033420709 
1.755080749175505e-05 
-3.682055276703035e-05 
8.140415664155367e-05 
0.0002786175395740653 
7.109010747546016e-05 
1.383518474964407e-05 
5.162972689194771e-05 
-9.442974554049592e-05 
-6.624681618479323e-05 
1.191549391806841e-05 
2.500507294773386e-05 
8.670015573330597e-06 
7.858054076791356e-05 
-2.438575537217694e-05 
-8.56754907506679e-06 
-1.383899170437802e-06 
2.276963015904701e-05 
-5.573734247048615e-05 
-0.0001517304800081892 
2.87747014950632e-05 
7.396673926852409e-06 
-2.089145460591233e-05 
-5.129287648897992e-06 
-6.345100280263119e-07 
3.370016207858487e-05 
-9.8746640444691e-07 
8.868920689727295e-05 
4.695171439732219e-05 
0.0001060999542566897 
-7.170958204059909e-05 
0.0001692113924518812 
-0.0002531171577939393 
-9.038351066087831e-05 
0.0001528801158266915 
5.769874580096829e-05 
-0.0001073126042883341 
0.000160674588857553 
0.000120568999203046 
-0.0003157776433393324 
5.556647999044564e-05 
-8.123878633279109e-06 
-1.548544795500948e-05 
6.65229987506466e-05 
0.0002035165594521784 
1.397717734546978e-05 
-0.0001027941377155374 
2.921504340147916e-05 
-2.138503387861613e-05 
6.349182813693695e-05 
-1.788190754635668e-05 
-3.818763176878097e-05 
-4.455674796625433e-05 
-1.4668101771435e-05 
-5.77419582604112e-05 
5.028748589074191e-05 
5.525754061079715e-05 
0.0001190289203741765 
-8.580617295842366e-05 
2.40240118793743e-05 
-1.811609877997258e-05 
1.301143754630068e-05 
-8.705137040326306e-05 
-1.032793180568158e-05 
-0.0002836441368305139 
-0.0002632641001048054 
4.601528233566865e-05 
0.0001285065507678112 
-0.0002948729182510346 
3.273202494876194e-05 
0.0002954362255712967 
1.848021155329185e-05 
0.0003182110622092963 
0.0001646305305945175 
-9.463425714549358e-05 
-7.075259542554184e-05 
7.509964009711425e-05 
-0.0002772932476431402 
-5.057596318575833e-05 
-0.0002893564522193739 
-5.578705835733148e-05 
-8.59244291215629e-05 
0.0001088204270750593 
-9.236120438495222e-05 
1.191971215052241e-05 
3.461996915946846e-05 
2.778536445374745e-05 
7.237292596536733e-05 
-2.112342771852512e-05 
0.00010031967663293 
1.775570953139354e-05 
-0.0001124219632396936 
9.645942110925228e-05 
3.485640341515281e-05 
0.000111277476722558 
5.085055787731254e-06 
-2.605925732733222e-05 
-5.289661926633223e-05 
-7.635332084446995e-05 
6.543277421955212e-06 
-2.455785569721435e-05 
-1.952276247446529e-05 
1.978403311130269e-05 
-4.758067460175788e-06 
3.190776373416286e-05 
-0.0001532435526116303 
-5.151529345623876e-05 
4.423963811234952e-06 
0.0001266476791072651 
-0.0001961850465446368 
8.667194224430605e-05 
-1.276287976246894e-05 
8.167529021979509e-05 
-6.256017218766508e-06 
0.0001703215720950984 
-8.058921184221368e-05 
6.107200674677335e-06 
1.192299596251277e-06 
-1.90798264686577e-05 
1.300015167550091e-05 
-4.355780432945159e-05 
-4.048365104092967e-05 
0.0001949349280490068 
-2.362615234521179e-05 
3.583892968703581e-05 
-7.434750063713671e-05 
2.827589318786607e-05 
-4.617528595960435e-05 
-6.280017720845371e-06 
6.711467006061447e-06 
2.123742908715479e-05 
-2.840363048530733e-05 
1.003597759875073e-05 
-2.941708529169048e-05 
-0.0001502807983472707 
-5.61652978610096e-06 
-0.0002618241056897568 
6.038264093973123e-06 
3.393942762081499e-05 
-3.051960071670252e-05 
-0.0001093249797877774 
0.0001348586774168489 
-0.0002763884039061324 
-9.143303262610081e-05 
-5.275384861965439e-05 
8.464131393997675e-05 
0.0001849642242707204 
-0.0003432961250091329 
0.0001295482599165214 
2.244364531797599e-05 
5.880719452988359e-05 
2.763886378772342e-05 
-2.637911228574428e-06 
-5.173528191897264e-05 
-3.240933703447683e-05 
0.0001427953420264063 
3.734580177256235e-05 
4.605897001340289e-05 
5.499253766296042e-05 
-9.465156212810626e-06 
-2.316095417935658e-05 
0.0001123770346010527 
1.750337790476312e-06 
7.066611071963142e-05 
4.306121189088423e-05 
-8.768978295484392e-05 
2.48083309778593e-05 
7.065175460623277e-06 
-2.18816588026903e-05 
2.834768822645386e-05 
-7.572328045211731e-05 
2.468879287882423e-05 
-2.630943642065084e-07 
-6.509752012194732e-05 
-3.545989257687224e-05 
5.752788177474801e-05 
-0.0001142408644245072 
0.000118607410894846 
3.76154444574848e-05 
5.76318325387538e-05 
-4.202971638455035e-05 
8.928902768137052e-06 
7.696862358156243e-07 
-1.374482035203038e-05 
-3.026246362720234e-05 
-9.874988021189754e-05 
7.399231062644613e-05 
2.449738138152422e-05 
7.024037479819655e-05 
6.307112747060595e-05 
0.0002453132784063191 
-0.000296364564321329 
2.601746529982351e-05 
-7.360145787051365e-06 
-8.441743814108392e-05 
5.891153666630195e-05 
1.086861737211856e-05 
5.132931343841366e-05 
-0.0001446753358505209 
-7.692616589080416e-05 
-3.841087489022232e-06 
0.0001971869185182301 
-8.914509633813758e-05 
6.462765549967429e-05 
7.07023009423573e-05 
-5.894878054591353e-05 
-3.129183300714528e-05 
-0.0001277827318084438 
-3.765980159364473e-05 
-1.628753930628746e-05 
9.408579672852027e-06 
-8.141870973514282e-05 
9.56907079526026e-05 
2.086013251665005e-05 
5.085433684247536e-05 
1.527200242279475e-06 
8.319327467201448e-05 
4.979716192199961e-06 
-2.801693689798243e-05 
-8.334034964091454e-05 
4.113491976695501e-05 
5.275141888694277e-05 
-1.586260008296109e-05 
-5.038496465107595e-05 
4.554903736041302e-05 
-5.284202728293396e-05 
2.879123997075633e-05 
2.699712617879085e-05 
-4.025935939907599e-05 
1.097534503639765e-06 
-0.0001626811851280282 
-6.442689288611846e-05 
1.342006413347095e-05 
-5.27373131434163e-05 
2.940378732079669e-05 
0.000144356096888075 
3.863201009697206e-06 
4.483011033844499e-05 
-0.0002843744975753881 
6.635259916249093e-06 
2.225462275772308e-05 
-0.0001290549914500436 
-0.0002158373575606375 
0.000158248519650795 
0.0001342666431086542 
3.881532412949638e-05 
-3.7117740141156e-05 
8.946935044799523e-05 
6.184063287385564e-07 
1.424536715954043e-06 
-6.741840676371525e-05 
-4.50526312090245e-06 
-3.033530621697553e-07 
-2.478313342475529e-05 
-0.0001186947606038613 
2.826170066212785e-05 
9.997846685722575e-06 
-3.458967748531385e-06 
-1.701893001201263e-05 
1.283039027968266e-05 
-1.807939454036141e-05 
3.543234070294772e-05 
5.1504193771266e-05 
-1.086081774882162e-06 
-1.749704823131421e-05 
9.078314389728017e-05 
0.0001157738016097671 
0.0001920068268066388 
-4.751824547590002e-05 
-6.358017333885547e-06 
-5.845632759122864e-05 
7.649586152863326e-05 
-2.986122489817858e-06 
-0.0002288482666264204 
-0.0002171473670382103 
0.0002458040191492031 
-4.059525640500066e-06 
3.961491233045713e-05 
0.0001632942791876466 
-1.623131111128906e-05 
-9.634819142819191e-05 
-8.522041568734698e-05 
-0.0001256988781884814 
-0.0001446862234885119 
3.707636909420569e-05 
-6.423523950527671e-05 
0.0001348410489309871 
8.247084510953634e-05 
-0.0001259760996587912 
-1.455775725145425e-05 
6.760774056794152e-05 
9.337272233740719e-05 
-0.0001008634918277982 
-0.0001643433391162804 
-3.596752609051371e-05 
6.902002715751556e-05 
-0.0001390203104241304 
-7.355955877624494e-05 
-5.236074466167095e-05 
-0.0002418599182508389 
-2.890873214097118e-05 
2.507936059665479e-05 
0.0001723348573500517 
1.400665262855178e-05 
2.641891146192913e-05 
-7.290283503485077e-05 
-2.2758039423098e-05 
-2.91916302186959e-05 
-0.0001697770529658226 
0.0003641643140308356 
0.0003734110100409639 
0.0002079064062326509 
3.706230379866516e-05 
-8.298740533137424e-05 
-0.0001079368499419593 
3.281626532626677e-06 
-1.194314910954104e-05 
-6.322847660565498e-05 
-0.00022102721556513 
4.063831364723906e-06 
-0.0002636868924170363 
3.62932214054539e-05 
5.359104119438638e-05 
0.0001727220380908662 
-7.845511105907191e-06 
2.774857136524767e-05 
1.486590992453705e-05 
-9.279353011920743e-05 
0.0001519896398963273 
-2.47652950289332e-05 
0.0002705146502001063 
-0.0002012554666050606 
-0.0001364188861274234 
-2.597652232673031e-05 
-7.998699810183412e-06 
6.046178606772934e-05 
4.256693467843339e-06 
-2.534842857601891e-05 
-2.359414027466966e-06 
-0.0001623348801044833 
2.263050008184549e-05 
4.742576771604144e-05 
-3.624807905416955e-06 
-1.015567458187225e-05 
-8.574909897018443e-06 
6.941277440457941e-05 
4.326996928845935e-05 
-0.0001358810031121598 
-0.0002440281836763867 
-2.318068496409466e-05 
2.961918583523848e-05 
0.0001102884820141002 
8.052488419353301e-05 
0.0001104378011860079 
-0.0002031909277596858 
-0.0002137266555425784 
0.0002722917759606758 
-0.0001443678037026948 
-5.933457134608267e-05 
0.0002105611087078068 
0.0001477303658476437 
7.187577321712719e-05 
-0.0001006581373376541 
0.0001400015549294683 
-0.0001507149274647846 
3.981703694622489e-05 
-1.654206513965824e-07 
-4.866542961122074e-05 
0.0001772124255974437 
5.239667513932261e-05 
-0.0001619047947221816 
2.070111133750684e-05 
-7.408043408252639e-05 
-0.0001246042343384719 
2.613113496196786e-05 
3.481292103174143e-05 
-7.597259940888109e-05 
2.637189808556749e-05 
0.0001092816885756336 
9.099810221085276e-05 
-5.149026248616382e-05 
1.558757773071282e-05 
-2.415089304333928e-06 
-2.646930479017764e-05 
-3.191145959753225e-05 
5.587414988380978e-05 
-1.073245745532989e-05 
-0.0002665770908933104 
-1.50175013544704e-06 
2.303319873314247e-05 
2.280450813936382e-06 
-5.508046883668536e-05 
0.0004584855700354206 
-0.0001191476916884938 
2.159698602381938e-05 
-3.137216277028615e-05 
-0.0001479721381793756 
0.0001184544872610696 
-0.0003968551906221007 
-0.0001456040880493866 
0.0001917340898023012 
8.548096285503374e-06 
2.007686136824604e-05 
0.0001251820750010285 
-0.0001621450819500222 
-8.488205112169462e-05 
-4.596519199669384e-05 
3.393336107781662e-05 
-2.330908965284237e-05 
-6.180925538701741e-05 
3.63604399583794e-05 
2.237551021546939e-05 
-3.651092256778476e-05 
8.138042956888922e-05 
5.419951006954928e-05 
9.674466204028206e-05 
-1.862721556449135e-06 
-1.329489883138975e-05 
-0.0001260244669505748 
6.800749687339301e-06 
8.258501485492099e-06 
-5.591515564334564e-06 
-4.958929856026843e-06 
-2.566372921012906e-05 
-3.80872346542044e-05 
-1.68995824481346e-05 
1.1808411505163e-05 
2.200072805994854e-05 
-4.965931489497831e-05 
-4.094605085738593e-05 
-6.922110425033586e-06 
-2.540717074564204e-05 
7.108049864513567e-05 
-4.200328964000389e-05 
0.0001613023957701648 
0.0001140780103953554 
2.665397809737358e-05 
-8.468608706830937e-05 
0.0002360091004285596 
-0.0001333804249602534 
-0.00010544197503396 
-0.0003679926761444681 
-6.507678265807794e-05 
0.0001057661588356705 
6.635738303272075e-05 
-0.0001122719085337839 
7.974178404428403e-05 
-3.784418587978295e-06 
4.742365995333551e-05 
-1.7799747173194e-05 
0.000262365420564936 
3.935514681027791e-05 
1.099745858413242e-05 
-0.0002620255276300815 
2.396568909625382e-05 
-5.53593184418178e-05 
4.380373942019701e-05 
-2.994766414674556e-05 
3.920869954812633e-05 
0.0003871194302345501 
5.30589794362076e-05 
-1.944462712900069e-05 
-9.070741349424729e-05 
2.765177169122581e-05 
-0.0001495541419961216 
-7.236579986945521e-05 
-5.110962449029614e-05 
0.000162822735853872 
-0.0001600328489677606 
-8.292386263864641e-05 
0.0001389065896170942 
0.0001837313967130513 
0.0001085579128642618 
-6.216597273352406e-05 
3.50357892749328e-05 
9.285497687706076e-05 
-1.269654516434258e-05 
9.991266085750347e-06 
3.245014067962724e-05 
1.350453201133491e-05 
-6.317949892012896e-05 
4.647910848508699e-05 
-6.473587776633752e-05 
-4.215422103986195e-05 
-6.522480027189126e-05 
-5.280766105344408e-05 
-0.0004876017184788872 
-1.736258670568549e-05 
-0.0001368566184358147 
8.395274881638623e-05 
-0.0001398979309276899 
-3.434187105015554e-06 
-7.205362691891814e-05 
0.0001735149305733792 
0.0002933604352908505 
9.741778006263289e-05 
7.402787318311621e-06 
1.3795385407381e-05 
-5.426103619475486e-06 
-9.020983870025773e-05 
-0.0002293545839329834 
0.0001246500171204742 
5.406324511753117e-05 
-1.651386899034906e-05 
2.406873272578476e-05 
-4.87905604203268e-05 
2.94642270376e-06 
0.0001493423125936572 
5.991002672784693e-05 
7.902444062165968e-05 
1.534384122262577e-05 
-7.889295602021481e-05 
-0.0002930948210520229 
6.295468762137799e-05 
-2.126916227385509e-05 
-0.0002491723894972331 
5.716758992873554e-06 
-1.120212670274962e-05 
1.686876448584104e-05 
-1.700233887945894e-05 
0.0003338687810942191 
-5.259204246450948e-05 
-0.0002364206958609864 
0.0001473568616589783 
-8.076804691927217e-05 
0.0002061346706156701 
4.999135894301149e-05 
0.0002054105917676817 
-7.943043061473508e-05 
-0.0001373488249282093 
-0.0002278957966153343 
3.399149347913086e-06 
-1.681033136463709e-05 
2.437906965522613e-06 
-8.252551032100658e-05 
-1.749325798362215e-05 
-9.354639968531551e-05 
-0.0001069718364276912 
-8.233431321898581e-05 
0.0003800327797114573 
-8.717008702422129e-06 
4.972011557292907e-05 
5.985493327786922e-06 
-0.0002129792526646391 
-2.764993610364363e-06 
5.625360325997835e-05 
-1.041608712131243e-06 
5.516744940642665e-05 
-6.561484134341688e-05 
-4.798853586102762e-05 
-5.639438690634808e-05 
-3.49584435409132e-05 
3.34975604717193e-05 
0.000135601356300753 
-0.000161209511110211 
-1.402794742859e-06 
2.291514213670202e-05 
-1.304428671170834e-05 
5.306462838406573e-05 
-8.387256867802744e-05 
-5.977358355685864e-05 
0.0002237631900492788 
7.187538512026925e-05 
-0.0001591505473699349 
-2.288521230773312e-05 
1.263570931770005e-05 
7.013423685087042e-05 
4.710754692230216e-05 
-8.730533371615637e-05 
2.805860676362178e-06 
4.973218985466512e-05 
2.654362044433202e-05 
0.0001631730786229285 
-0.000146937283604825 
-0.000122217844596898 
-0.0001021488961794189 
-0.0001075567426848201 
9.171846846305061e-05 
5.615468484558486e-05 
6.955876494845978e-07 
7.110331169651413e-05 
-9.551615927540544e-05 
-4.986872269764505e-05 
-6.846986664807661e-05 
2.998624427939189e-05 
2.625791619886091e-05 
-9.054074200795067e-05 
-0.0001313626512071858 
-0.0002004523271605833 
0.0001770861493162666 
-0.0001563190987949019 
0.0001018745614054969 
-3.87521582990598e-06 
4.78221101946142e-05 
7.268630527244953e-05 
-4.066973117408317e-05 
-0.000110750861097749 
4.377454519076981e-05 
8.086045921179094e-05 
0.0002022716995321398 
0.0001297675970215525 
-2.684480856139712e-05 
0.0001164963574874221 
0.0001902677930326398 
4.764259475910701e-05 
-2.003564039964351e-05 
-7.074730522108516e-05 
-1.772694875939871e-05 
-2.999531487458094e-05 
6.815197038727106e-06 
-3.865791146520592e-05 
3.487189673260804e-05 
-0.0001482948557847883 
-0.000261195805465278 
-9.97329591692782e-05 
-1.011704577481572e-05 
0.0001442206747330415 
0.0001729378178619859 
2.10563463393884e-05 
7.796445444602517e-07 
-0.0001100138120999691 
-0.0001132445042955855 
3.086657169306273e-05 
-0.0001348227885309301 
-0.0001176010691833415 
3.430916333106489e-07 
-8.221419721470092e-06 
1.971415941413356e-05 
-4.497548478611426e-07 
-5.245415641885887e-05 
0.0001270920859637853 
-4.701017428837091e-05 
-5.593779844933695e-05 
0.0001454858703087785 
-4.565942393362901e-05 
-2.235442127044939e-05 
0.0001216717597516762 
-0.0001623090515061749 
-0.0002363936189186605 
0.0002577042533638709 
3.162453886320879e-06 
-0.0001368268413911998 
4.160609538405516e-05 
1.094580845585052e-05 
-6.885156140172839e-06 
3.997616657764198e-05 
-2.053930183301517e-05 
-1.567730315632777e-05 
1.766207852608562e-05 
-9.164453201882531e-05 
-4.897966047700182e-05 
0.0001117186257885583 
-1.430148039236302e-05 
-0.0001452103432933912 
3.341169451935033e-06 
-0.0001343913719829065 
0.0001415187359650327 
0.0001827265102504733 
-1.170717706717034e-05 
7.026155938388428e-05 
-0.0002829013330827572 
0.0001943430698380835 
-2.03385638793525e-05 
0.0001932576542986377 
-8.542199970582643e-05 
3.016339182698213e-06 
-0.00013767269588015 
-4.712656585580719e-05 
0.0002194123547585747 
-0.0002127257739810796 
5.651517616376034e-05 
-0.0001633806920515486 
6.301152774309797e-05 
-2.744723865342512e-05 
0.0001461986801495186 
-8.540722004809549e-05 
-2.711799406388817e-05 
6.982413390714163e-05 
-7.248978066809353e-05 
-1.338098837979428e-05 
1.096145939364028e-05 
1.084868845331407e-05 
9.218499900149298e-05 
6.639114690370247e-05 
-0.0001628336286219236 
-3.232678801063881e-05 
-7.956598060887696e-05 
4.147493136303261e-07 
0.0001164813206733787 
0.0001577483107155845 
-6.30866529501389e-05 
9.716543220809662e-05 
1.032191890670087e-05 
0.0003091548043482827 
8.908805252041862e-05 
-0.0002199757017225127 
-5.730751494935699e-05 
0.000117925074373822 
-4.745040088251108e-05 
-0.0002479741200774255 
-8.881369799274628e-05 
-0.0001130818407706805 
-0.0001652693531000595 
9.786044536892765e-05 
1.689246311877117e-05 
1.223749175186436e-05 
-8.866973433132693e-07 
3.279641185502466e-05 
3.981160861731177e-05 
6.114209527022048e-05 
-0.0002038996358767097 
-5.79225596128479e-06 
0.0001733533759288618 
-2.792331023191441e-05 
-1.095382824233537e-05 
1.366881573309757e-05 
9.297674221311057e-06 
-8.99763389867305e-05 
-4.319998243049202e-06 
2.919389338532352e-05 
-0.0001974691176354367 
-0.0002547920709621722 
3.687144856478666e-05 
-2.644372602903682e-05 
0.0006641745780058117 
-5.973026022626779e-05 
0.0001296921845825528 
-0.0001017312326653575 
-0.000267206275668577 
8.738736716982195e-06 
6.847617261378009e-05 
-3.303967205506913e-05 
6.087217544731839e-05 
6.272220772887101e-05 
-0.0002446619279010175 
3.462089149062293e-05 
1.104836738534986e-06 
-3.976260696047493e-05 
3.835051871608542e-06 
2.390119211458506e-05 
0.0001069441949190065 
-5.913602196810942e-05 
8.511083815836071e-05 
-0.0002442696765198603 
-8.547296754858056e-06 
-9.648076719911192e-07 
5.960248543305422e-05 
-0.0001443615223352118 
-3.115918275214647e-05 
-3.819169507244153e-05 
9.860081939182415e-05 
-4.585419773534734e-05 
-3.582275110842431e-05 
5.719998318893704e-05 
-9.246436122922843e-05 
-7.141991096231001e-05 
-1.873279713030398e-05 
0.0002205814435071026 
-3.823602988563719e-05 
0.0001080362562663329 
0.0001269792520523505 
-6.342588885577602e-05 
-9.362980442797433e-05 
-8.401732907931978e-05 
-7.873556668011207e-05 
0.0002056000587906867 
-0.0003525609098561479 
0.000372208987317961 
-0.0001844664949108229 
2.590533696681483e-05 
5.352379524108473e-05 
-3.21939708786484e-05 
-3.600340326574051e-05 
-7.90040356920211e-06 
-1.064247526788392e-05 
-7.745414800616775e-06 
-3.85194188202386e-05 
0.0001069294101786251 
-6.117442913964914e-05 
-0.0001344079526648092 
-9.160691871594485e-05 
-6.862617111201552e-05 
0.0001376730306504132 
7.225350662177048e-05 
-4.847859221084227e-05 
-0.0001096333632424612 
7.119410100175618e-05 
-0.0001235820266377426 
2.94317185387725e-05 
0.0001427382030045468 
3.246135771915948e-05 
4.681852937796452e-05 
-0.0001577589998207694 
-1.887060032931847e-05 
1.671247059202737e-05 
-2.659653244989914e-05 
-3.543893569276034e-05 
1.996606427578441e-05 
0.0002415371906707772 
5.084404541584282e-05 
1.867340731179337e-05 
-9.550305257195452e-05 
-2.995772213216169e-05 
-2.343487635323646e-06 
-0.000125987957767074 
-9.70444105736682e-05 
0.0003589354785729203 
-0.0002294757384895133 
-9.292504190052338e-05 
-0.0001287917883005769 
6.543858428787418e-05 
0.0001325420428721551 
-0.0001445663356368674 
1.213690975422414e-05 
-0.0001348155746590879 
6.966121034768514e-06 
-0.0001187620972573739 
0.0002408245892206831 
-3.294330732010122e-05 
-1.513117299422195e-05 
-5.584402225941589e-05 
-4.615436935930991e-05 
0.0002135581624618757 
1.77894475539758e-05 
-0.0002324252130183579 
-1.336827046904206e-07 
-6.700484845756512e-05 
5.493635287106941e-06 
-7.899978772294763e-06 
0.0002241268827631699 
-2.163108596923389e-05 
2.531829132868031e-05 
-1.989325456839124e-05 
-4.004532793405075e-05 
-0.0001559167694440812 
-2.676728395535679e-05 
9.633979583695896e-05 
-3.964235900129194e-05 
-3.812185030328501e-05 
0.0002300431053406114 
0.0001110319580419469 
-0.0003500616518858894 
6.791889621063586e-06 
-0.0001299867848731968 
4.247067737263049e-05 
4.398354534787895e-05 
0.0002503896110925765 
9.327920626296458e-05 
-8.721941942821e-06 
2.058251689387275e-05 
-0.0001054585677462621 
4.777482742847353e-05 
-5.086751691681547e-05 
-0.0002363497606904973 
4.620362002639799e-05 
-0.0001414978541032117 
-3.179037884176933e-05 
0.0001749288089767468 
9.229629441976796e-05 
-0.0002006148008416971 
-8.987099817145694e-05 
2.900891357126583e-05 
3.206230724900071e-06 
-4.672455912173073e-05 
0.0003080356546870437 
-0.0002016242980019097 
0.0002852950195183624 
-5.384184217656041e-05 
-3.907512927839975e-05 
-5.127612434284605e-05 
-3.52433174041635e-05 
6.888895627934198e-05 
-0.0002482397441293462 
-3.433800759957933e-05 
-0.0001236654441380132 
-0.0001190096705044629 
8.641162341081346e-06 
-5.787248600662689e-05 
-7.240758469457122e-05 
0.0001230746719518175 
-7.001560522452646e-05 
3.304631312918392e-05 
5.468764782508744e-05 
-5.861458427489941e-05 
-5.77464574909401e-05 
0.000200478277675777 
4.811639105491712e-05 
2.394938087330346e-05 
-0.0001290729094399595 
0.0001589051587693481 
1.441647938304128e-06 
-5.598034964648647e-05 
0.0001938040952060902 
2.931742572728364e-05 
0.0001130778161565579 
-0.0004655956026922246 
3.658274633844251e-05 
-7.642906086607964e-05 
-3.435311608840186e-05 
-1.741324379802588e-05 
0.0003364854605655335 
-1.753396342189952e-05 
0.0001023222523234328 
2.551958606588701e-05 
0.0001403394241729942 
5.843775787645625e-05 
3.404222879205848e-05 
0.0001172210224102933 
-2.276302495669937e-05 
-5.264999374412053e-06 
0.0001120869489455939 
3.795999852681447e-05 
-5.540394266162183e-05 
0.0003028643795606721 
-6.78962273187095e-05 
-9.451442434618683e-05 
-0.0002711230582242409 
-2.809035138627473e-06 
-5.79924046597121e-05 
9.528628084947681e-05 
1.164199892684922e-05 
5.487634722212108e-05 
-0.0003234114635914096 
0.0001316032044564377 
-0.0001248482486683496 
3.921412905515194e-05 
4.153103561147353e-05 
-2.226627422902597e-05 
-1.259837857791044e-05 
-8.030651010998042e-06 
-0.0001917728784689753 
-0.0001491703722863875 
6.547792625021097e-05 
-6.657974033334823e-05 
0.0001212248394672536 
-3.6200194351243e-05 
-0.0001132433247873817 
-9.428592166576859e-05 
5.397270371338497e-05 
1.884292751278892e-05 
3.700796216993415e-06 
4.627219200939957e-05 
-0.0001208198021328751 
-3.835716670158905e-05 
-5.818505068226327e-05 
-9.191758660611918e-05 
9.627710000093819e-05 
-2.756524203552718e-05 
-4.667915733651155e-05 
-2.945199119724457e-05 
-1.010899325380464e-05 
3.859279745757547e-06 
-3.908806130733877e-05 
2.52233302652919e-05 
-0.0001699142228360958 
8.055267012001975e-05 
3.500694863574165e-05 
8.331283966700315e-05 
3.114707936685649e-05 
-5.307788262240593e-07 
-4.060851834983444e-08 
-0.0001364035310981752 
2.717991619933989e-05 
7.500040700808601e-05 
7.50048503665721e-05 
-1.892358453405954e-05 
-2.64813847697784e-05 
0.0002178055713869377 
-3.205259827004358e-05 
0.0001277607289715332 
-3.378651137660562e-05 
-9.561308415390796e-05 
-6.152541450800773e-05 
-3.789436365488901e-05 
6.557831193120069e-05 
7.538105756701973e-05 
0.0001017182681335061 
2.949163654127085e-05 
0.0002868374086728639 
-0.0001814780876020182 
7.510550963470512e-05 
2.456431432745433e-05 
-1.565011219448825e-05 
-0.0001153312242488818 
-3.441592630710173e-06 
9.543428480782076e-06 
-2.321423880791638e-05 
2.069121348636296e-05 
-0.0001172653598632461 
0.0002874788531817961 
-0.0004191497938330565 
-3.860379912154411e-05 
-0.0001155192495263824 
1.527701454048593e-05 
0.0001489258014405843 
2.00570665339094e-05 
1.322172998267953e-05 
-5.946249465698685e-05 
-0.0001296860549322165 
2.920383988075007e-05 
-0.0001200170584938787 
0.0001249378359111746 
-3.351024742786549e-05 
-1.595752936941067e-05 
-7.172456936921614e-05 
-2.664721945367838e-05 
-1.132807989480091e-05 
-2.256150489182295e-05 
-3.756528720213753e-05 
-3.834479708615083e-05 
-0.0001566193429312549 
-9.165999727047085e-05 
4.229552219946177e-06 
1.114799694519908e-05 
-6.774506145440486e-05 
0.0001104346159662216 
-0.0001508565723500486 
7.017719000480939e-05 
1.423081022043758e-05 
2.408542801422716e-06 
-1.548287272306159e-05 
0.0001205513584661039 
-5.632987356280304e-06 
-3.494324808462769e-05 
-4.703153422491119e-05 
-1.556301428842976e-06 
5.676304862999209e-05 
-0.0001473980145191031 
6.39248588970788e-05 
0.0001220455986810768 
4.565285359666488e-05 
0.0002012401671178465 
-0.0001039805576142207 
-5.551256526759055e-05 
2.899215148222215e-05 
2.496130017403286e-05 
2.463371510613535e-06 
-8.260850272310477e-05 
2.587308781720459e-05 
-6.572904683921246e-05 
-0.0001628297293598391 
9.944189124454005e-05 
-8.670789055439384e-05 
0.0001427132268618353 
-6.204182047584841e-05 
-0.0002330495382410431 
2.554123612943057e-05 
-5.527760388834436e-06 
-1.279289557852812e-05 
-0.000165273648088223 
-5.921594988289233e-06 
0.0002033584447119123 
-5.085906508649009e-05 
-9.451166284959306e-05 
1.924749145423845e-05 
1.51436258753266e-05 
5.897344791071428e-05 
6.757160616924108e-05 
5.942363062589869e-06 
0.0001921853582299276 
-0.0001357682942835363 
0.0001720553592997409 
-0.0002103807048674259 
0.0003001935191986105 
-0.0001146264623929606 
9.106643221865811e-05 
-9.517796323977032e-05 
-3.719136307444132e-05 
2.089276789307664e-05 
-0.0001299566939377741 
-0.0001085795933592681 
2.419064133145558e-05 
-2.929416312902785e-06 
-5.040682116271298e-05 
1.49101949810289e-05 
-5.890087312692433e-05 
-3.975625007203859e-05 
-8.41040322864821e-05 
5.289009906899285e-05 
-6.638771359893396e-05 
3.721135178225761e-05 
-3.382866203296955e-05 
0.000265741315187934 
4.601681073038155e-05 
5.752472657500178e-05 
-8.741637429127285e-05 
0.0001215083238997682 
2.797005809369546e-05 
5.173324867558372e-05 
-0.0001190529184687768 
5.44105144619255e-05 
8.807279105293865e-05 
0.0001243323946307568 
-0.0002857771956933424 
-5.940756575744445e-05 
0.0001461904321505676 
-3.485439210807357e-05 
-8.541723749528026e-06 
-3.1689268731261e-05 
6.495340283018356e-05 
0.000171549987447237 
-0.0001664885125491322 
0.0001004302678730522 
-0.0001669767418745545 
-7.667839626223928e-06 
-3.127441020973383e-05 
-3.424531782749404e-05 
4.23538875070848e-05 
5.267364695418082e-05 
-6.348463044986076e-05 
2.772040165535447e-05 
-0.0001555112678937877 
-2.687851826596002e-05 
8.798323032403425e-05 
-0.0001908030803079349 
4.525338355579867e-06 
0.0002423444767094544 
-6.621985310793575e-05 
0.0002979851351561039 
-0.00043311401975012 
0.0001077995822324318 
0.0002836430312702526 
-3.952840176489858e-05 
8.999781066205503e-05 
-0.0003084051061018221 
-0.0002492937296710344 
0.0002083492609151497 
8.382955802320253e-05 
-8.807957521628654e-05 
4.029529481014059e-05 
-0.0001510362241254625 
-6.208490914458404e-05 
-4.975303878542749e-05 
-1.00352060982389e-06 
0.0001457152675451928 
-5.950543480077726e-05 
2.743416888306448e-05 
-2.451900730805865e-05 
-2.010023733922874e-05 
6.539292471667978e-05 
2.37713375300632e-05 
-1.374750337899856e-05 
-9.316901025686699e-06 
-1.974992018748104e-05 
0.0002437395638550258 
-8.197805259647185e-05 
-4.339827137157803e-05 
-5.056940582422282e-05 
-0.0001642687532369433 
-0.0001643795618117107 
2.617724665498464e-05 
0.0002408870874687957 
3.579070315787045e-05 
-3.119460395540816e-05 
-0.0002160660608752921 
0.0001501866658865853 
7.641636997774329e-06 
3.183618307800503e-05 
-1.031710560640018e-05 
7.336221054166583e-05 
-1.635385453465707e-05 
0.0001406468989743066 
1.118360857609702e-06 
-8.627763958668028e-05 
-0.0001064282488978719 
-0.0001725798178689656 
0.000200788799267044 
-0.0001298614413406283 
0.0002596558672048489 
-9.387748520358187e-05 
5.969390627466944e-05 
2.157726291427996e-07 
-9.128185070498461e-05 
-5.273912169951532e-05 
3.412582261266083e-05 
9.502310608425508e-05 
3.764402189472697e-05 
-0.000119292326961974 
-0.0001333195681689133 
2.975624005908348e-06 
-5.998727830769603e-05 
0.0001820452455765328 
-1.384918264564169e-05 
-2.207566628332275e-06 
2.671749688035009e-05 
-6.686024240625832e-05 
-0.0001238061463128199 
0.0001368002653135815 
-7.924594728960156e-05 
9.47370346462139e-06 
-2.521677773785532e-05 
3.742180918172665e-05 
-0.0001199088093091911 
-0.0001217854642558951 
2.199999047069667e-05 
0.0001054960048338539 
-0.0001820259740112568 
2.172552700647443e-05 
-2.703112137097546e-05 
2.525179073726425e-05 
-1.509222006840607e-05 
-1.793773672371798e-05 
4.788561748956241e-05 
0.0002761166966553747 
0.000115471660987661 
-4.622886244887443e-05 
-7.908877658021599e-05 
-2.893466271644166e-05 
-0.0001143783084499301 
-2.355947226844911e-05 
-8.610409276537507e-07 
1.097146887388308e-05 
2.508089908706835e-05 
-7.885040455385488e-06 
0.0002741427211594652 
1.593205379073823e-05 
-0.0002985171575996158 
2.444475934176325e-05 
7.688040635131213e-05 
-9.358066530975169e-05 
1.276501089348415e-05 
1.442465493145176e-05 
-2.582666005316398e-05 
-1.478508613512419e-05 
-0.0002097601394986191 
6.549166835637876e-05 
2.76990972555211e-05 
6.966615557512499e-05 
-2.38888277776689e-05 
-0.0001208341001952352 
-0.0002114895366948857 
3.00105428435212e-05 
-1.153596185839598e-05 
-0.0001336312722105044 
-3.76826320316079e-05 
-2.937954517731813e-05 
-5.72289318234118e-05 
-1.598779435947853e-05 
-9.6653237928799e-05 
0.0001671090616856071 
0.0001011474033051787 
2.492601972786426e-05 
-2.433559274768297e-05 
0.0001775713485100372 
-1.866610855544195e-05 
-5.366627648411223e-05 
3.561367392937278e-05 
-4.157592300873427e-05 
8.792934644238673e-05 
-2.804152712429607e-06 
-3.676517888507522e-05 
0.0001997646633565319 
-0.0001021307144550796 
-8.033023850505954e-06 
8.136126788925154e-05 
1.892090530421594e-05 
7.397586371759274e-06 
2.040264950307144e-05 
-7.306651224591174e-05 
-6.733477088829451e-05 
-6.0249320738149e-05 
0.0002123844963149655 
0.0001068946757203862 
-2.339044596841762e-05 
0.0001661598328501418 
-8.196512753375387e-05 
-2.636581798350737e-05 
-2.595453062533445e-05 
-0.0002114191158968399 
8.728866090966027e-05 
-7.964862200949605e-05 
2.880862819503214e-05 
-1.881706501203935e-06 
0.0002015952866444195 
-0.0003396562262303866 
0.0001009402527911411 
-2.799445966780389e-05 
-0.0002365322206234941 
0.000103480933313917 
0.0001194908219771391 
5.293352142021081e-06 
-6.605900258690797e-05 
1.195298288386106e-05 
5.28084685460153e-05 
2.080237119384464e-05 
-8.323020005524104e-05 
-1.960205676224485e-05 
2.981134088561707e-05 
-3.689743393300557e-05 
3.9715322942168e-05 
-7.671491005367494e-05 
-0.0001948318266724049 
0.000141435077510636 
8.338196361454929e-06 
1.909254582235444e-06 
-6.249984173154206e-05 
-3.631574556921322e-05 
3.802253759785361e-05 
-0.0001291695470871977 
-7.966399064135696e-05 
-8.020136145030205e-05 
1.434400874478547e-05 
-5.165051767032983e-06 
5.670404153170009e-05 
0.0001708799414944484 
0.0001682036291650897 
-1.556942697428996e-05 
3.073861890152737e-05 
3.641705669544452e-06 
5.276508439833033e-05 
-1.772671790364751e-05 
3.502298940088981e-05 
4.153367866023477e-05 
4.300644615722514e-05 
-0.0001310889761326535 
-8.83937076388599e-05 
6.603220576270247e-05 
-0.0002345772149698591 
-2.856780265442155e-05 
0.0001562530202246419 
-5.316354960496042e-05 
-5.155898583660452e-05 
-0.0003402000860107897 
0.0002984011358830478 
-6.51873909200264e-05 
0.0003072557119148245 
-0.0001014769959922528 
-0.0002172516722622967 
-0.0001210279307417836 
-6.217854495332517e-05 
0.0001677042095064301 
-7.639862548101046e-05 
0.0001449631454635598 
6.565652559043216e-05 
-8.036225349707343e-05 
2.184844705977813e-07 
9.130900481376803e-05 
8.552212828045861e-05 
-1.894713590906392e-05 
2.581690102251617e-05 
3.045268925514048e-05 
-0.0001084058500457326 
7.504652862328912e-05 
3.357831353325096e-05 
-3.238743283484769e-05 
-0.0001608240781626318 
5.485408624460137e-05 
-2.143181935418537e-05 
7.24991940026978e-05 
-3.942137523945603e-05 
-1.422768090162083e-05 
-3.766444693095263e-05 
-0.0001165194961809559 
1.386472200570984e-05 
0.000188290080781522 
-7.002409995618948e-05 
-5.074187446007733e-05 
0.0001169431726616242 
1.203723069182154e-05 
2.172002602876306e-05 
-8.670426247283144e-05 
2.821199061210857e-05 
-9.62571861159473e-06 
-2.385175913981245e-06 
-2.52773571205124e-06 
-1.461161719824286e-05 
4.172716063891065e-06 
6.119307713902964e-05 
2.449735744281476e-06 
4.410735279937684e-05 
-4.042724417650151e-05 
-5.767384311118603e-05 
2.189800691857814e-05 
-0.0001743783722297984 
-0.0001229545562748039 
-7.131415702673703e-05 
0.0002470668647739378 
-7.258630765011261e-05 
6.206441227893275e-05 
-3.138970224190306e-06 
-6.395251077682027e-05 
9.008540493254857e-07 
1.396799608591515e-05 
-2.816009273273918e-05 
-6.400606099226985e-05 
1.73444327683513e-06 
4.438467513251918e-05 
-2.945239040178753e-05 
2.069820851815933e-05 
5.645373915602292e-05 
8.353573097276444e-06 
5.554669417932498e-05 
-6.781388344388744e-05 
2.283725856225962e-05 
-5.212348626615598e-05 
4.464466463867527e-05 
0.0003095593839577229 
-0.0004265769394780843 
3.371366291764522e-05 
2.935097347260501e-06 
2.19611271561336e-05 
1.119546192388115e-05 
-0.0002015634479238948 
9.341240238318581e-05 
-8.455735300362432e-05 
0.0002398363982703994 
-4.424001983580787e-05 
0.0001213828391749686 
-4.01885357035035e-05 
-3.932455185837238e-05 
-2.02683828983159e-05 
-2.997748668423008e-05 
-2.797968417897287e-05 
-2.790574387966608e-06 
-1.219739591812396e-05 
-9.442723279126646e-05 
2.568940499509242e-05 
-2.773891492374407e-05 
2.820562558632212e-05 
8.196411957846131e-05 
-6.568212446182348e-05 
0.0001110581566739412 
9.240314545878791e-05 
-8.480842518746994e-05 
-5.049310686599266e-05 
-0.000150711268944421 
-3.048499740295438e-05 
-6.468926553910571e-05 
-4.41304592011716e-05 
-0.0001765165026552656 
9.983724670437302e-05 
0.0001245252562700778 
5.484898237070809e-05 
-1.745128149091177e-05 
-6.970538155862032e-05 
0.0001615940217397242 
-0.0003480850620764841 
0.0003379349801334264 
0.0002339793551066004 
-0.0003141783408030258 
0.0002540693006384051 
2.898018200132583e-06 
-0.0001177403862226464 
-0.0004270647039634043 
3.339511947231216e-05 
5.378627239038218e-05 
4.147156688399025e-06 
0.0001403062632158972 
8.288104915875183e-06 
-1.710636684220646e-05 
-7.412972243641365e-05 
4.445920271728547e-05 
-0.0001357693884427645 
-0.0001122243623426264 
-6.035494721609271e-06 
8.300150348158181e-05 
0.0001570626624179925 
-0.0001001420773475465 
-0.0001404192351342829 
8.158282140434431e-06 
-3.327878813887928e-07 
-0.000103836017992759 
5.122528811021351e-05 
-0.0001142504811618034 
6.85775639046735e-05 
0.0002061284861874633 
-4.210116601035286e-05 
1.309729287336487e-06 
5.392380851190448e-05 
2.711379962467998e-05 
-1.872180184981292e-05 
-0.0001079685713722262 
-8.432428889012455e-05 
-6.2398301921219e-05 
-2.135061850674315e-05 
0.0001091255358327174 
-0.0003951155812744636 
0.0001402923530518055 
0.0001895541521371793 
0.0002391679957332074 
-0.000234333216315344 
5.458508740454707e-05 
-4.099611150718833e-05 
0.0001090765435134793 
0.0001778484404685853 
3.962891445923754e-05 
-0.000260470657741282 
6.574758840562385e-05 
-1.357379873384244e-05 
7.795094155315308e-05 
-0.0004154961380006341 
1.577210275169246e-05 
-0.0001053627420094394 
0.0001444021978307298 
0.0001784559075722989 
1.892797880331366e-05 
-1.652952806775231e-05 
5.281702546076699e-06 
6.260113137616509e-05 
2.350372105405698e-05 
-1.675573234579516e-05 
-3.864154845438769e-05 
-0.0002441111757357782 
4.741261700321322e-05 
9.591034042682845e-05 
-3.763495075140266e-05 
-0.0001034799114577397 
6.324277356403577e-06 
4.277699230499795e-06 
5.199722171711298e-05 
9.425378781707912e-05 
0.0001045895137564944 
-5.323030081934128e-05 
0.0001923763534100289 
-0.0002532186682290958 
9.531558109993897e-05 
2.242135497027612e-05 
3.52323546932658e-05 
-0.0002598033425326381 
0.0001752271339134306 
-1.546586620456081e-05 
5.319950230773827e-05 
0.0001095289546043024 
-9.639663735382083e-06 
8.877122889288622e-05 
-9.997787991070022e-05 
-9.147972902638865e-05 
-4.728876048664936e-05 
-9.11730697852457e-06 
-2.591531043750246e-05 
4.021022919765931e-06 
0.000134845444485952 
-1.220589052564383e-05 
-7.413393968087698e-05 
-0.0001735371813546272 
1.600869695049271e-05 
5.255870849565705e-05 
2.074859101398815e-05 
-7.865462045248489e-05 
-9.048765532261943e-06 
-0.0001044964803644207 
-3.380383820899815e-05 
0.0002054691060502557 
-3.544285401877552e-06 
-1.372041744349962e-05 
-0.0002402687899358175 
-3.469573855648593e-05 
0.0001717186310314204 
-2.196742881649274e-05 
1.033901068922199e-05 
0.0001852080061455206 
6.224949404432984e-05 
-4.191211557527034e-05 
-3.328087699370769e-05 
-3.745028767638209e-05 
-0.0001440831649663906 
0.0001663658338613104 
6.66805116905665e-05 
4.424526686180359e-05 
-0.0003569114574544176 
5.652443938505151e-06 
-7.994064140491038e-05 
1.169900545164633e-05 
-8.735842830859304e-06 
5.168245590720749e-05 
1.375770521864547e-05 
1.770970339094547e-05 
-1.095666670657297e-05 
6.305399835930296e-05 
-3.38098766029799e-05 
0.0001691268040247183 
-0.0001293971601742164 
0.0001493969850503955 
-0.0001787927011204606 
5.067955632207023e-05 
-2.248004180314316e-05 
1.185119784785745e-05 
-0.000242382541865714 
0.000133132950642519 
5.584514363503925e-05 
2.465604292182261e-06 
-2.645641712518718e-05 
-3.459808717961738e-05 
6.371290443222591e-05 
0.0002025653087925846 
8.447299828891369e-06 
-0.0001540023724276841 
3.076671925198301e-05 
-4.580378587731797e-05 
-7.752670084646841e-05 
0.0001504854400989643 
-9.769769894466756e-05 
1.751674295440295e-05 
3.740531896911832e-05 
0.0001342737288945908 
-3.764139333160579e-06 
-0.0001063860492356736 
-8.222129594359386e-05 
1.522066585847237e-05 
0.0002868800920369559 
-6.336461387769884e-05 
0.0001342736281563848 
-2.461111357620942e-05 
-2.607262949323358e-05 
-0.0001022008013848192 
-1.815060781944716e-05 
-0.0001264804560823921 
-0.0002019612307532798 
-5.479158084359625e-05 
5.090730959484395e-05 
2.118691858763288e-05 
4.210369105202396e-06 
-9.270885250062719e-06 
0.0001054849423013614 
-0.0001042833128681863 
-5.203237836004315e-05 
0.0001122528818841505 
-2.378480137963987e-05 
-9.951703533819858e-05 
-1.599509052396886e-05 
-0.0001488349439117517 
-0.0001255866772708376 
9.88697137772058e-06 
2.492415169291686e-05 
2.104722225084029e-05 
2.203897662441609e-05 
-3.67780764198537e-06 
4.0241801079731e-05 
8.553190702068763e-05 
-2.972822027890564e-06 
0.0001074683241783392 
0.0001311433150724197 
-9.630596359076196e-05 
-9.200631229272636e-05 
6.668450391614848e-07 
1.311351927907071e-05 
1.782337218639909e-06 
0.0001228855185806491 
-0.0002059320081898372 
1.13805125277075e-05 
0.0001567575153778381 
-1.147994508775628e-05 
0.0001022021264877088 
-0.0002992563423605717 
-0.0001093162369157978 
1.404891067964566e-05 
3.842165448797529e-05 
0.0001038587306228509 
4.001138056008513e-05 
-3.377349952326353e-05 
8.884680449603737e-06 
-5.117789774555225e-05 
2.420805286118085e-05 
-0.0002484886442393669 
-3.135733617801521e-06 
3.410963584533169e-05 
0.0001191453518346726 
-2.312361391012894e-05 
-0.0001517362792107866 
-7.336218048760435e-05 
5.966153011708987e-06 
-7.748902659138119e-06 
0.0001223701628896361 
1.695760345749107e-05 
-0.0001756288049515006 
-3.680072589946642e-05 
7.032019705187015e-05 
0.0001631781784815687 
2.596700795088191e-05 
-3.943439951931861e-05 
-6.808281917124335e-05 
0.0001373008871752528 
0.0001904874137285902 
5.826743691327619e-06 
-8.021104841871855e-05 
1.187403833946348e-05 
-0.0002388131835677117 
-5.079023456806302e-05 
-9.567162600626675e-05 
-7.975821809599262e-05 
5.38337022609182e-05 
-3.75875357572664e-05 
-7.805027147023911e-06 
-0.0001044532708912312 
-4.362362254472877e-05 
-4.59304230334906e-05 
0.0001948614163145848 
-2.202824944361515e-05 
2.484741532078694e-05 
-4.31480210952298e-09 
3.406716386522699e-05 
-6.733392330656772e-05 
0.0001139766429195267 
5.761053372261874e-05 
0.0001085950543386301 
-0.0001174491790734914 
5.078507234221909e-05 
1.318728828913259e-05 
-8.012277842918041e-05 
9.08895682276463e-05 
-7.038015330561676e-05 
0.0001021720229877111 
8.836509497764768e-06 
-6.87255935290678e-05 
7.213902679804346e-05 
-5.487795874773081e-05 
1.658102406273488e-05 
2.734080670891244e-05 
-4.023106744195515e-05 
-0.0001627942725245257 
9.943189156145837e-07 
-0.0001038946737661131 
-0.0001019689589748224 
4.807564906549737e-05 
7.290826031162954e-05 
0.0001646861255535809 
2.799831671919279e-06 
-8.718452448911656e-05 
4.525843444404674e-05 
2.023852479768727e-05 
9.389531100256521e-05 
5.326938511119069e-06 
-4.27050663513079e-05 
-0.0001417928378030278 
4.536852932774845e-05 
6.852968544135615e-06 
-2.959749807364626e-05 
4.353897451860065e-05 
7.160971241297151e-05 
7.462411120332585e-05 
5.521415540913184e-05 
-1.848304022615481e-05 
0.0001200829063257574 
-4.322787105592784e-05 
-0.0004024947397381727 
9.287910353348444e-05 
7.35794182013377e-05 
-2.791165318082769e-05 
-3.919547137547095e-05 
3.82363603758861e-05 
0.0001558215787740973 
-9.327627809120126e-05 
4.997742569670739e-05 
1.124675490322744e-05 
-0.0004619103552628665 
-0.0001304367424552903 
2.083946352659009e-05 
0.0001069903068528523 
-7.106868920862925e-06 
-9.351547524590495e-06 
-5.264434158195091e-05 
-4.135989115135838e-05 
-2.4177822570295e-06 
2.495447978775376e-07 
0.0001138559674177774 
4.521361732924203e-05 
-1.958550780452706e-05 
1.390535984787852e-05 
0.0001395919216846072 
-3.759205527671832e-07 
-2.25213378987903e-05 
-0.0002717525849210786 
7.755725082059727e-05 
-7.73307604696535e-05 
0.0001804932528339218 
2.558595673157522e-05 
7.286694978477618e-05 
-1.767188220467758e-05 
-6.077155211719383e-06 
-8.925849140886307e-05 
0.0001144946321600996 
-0.0002665682479706805 
-3.158931189201127e-06 
-1.620513590439054e-05 
-3.703252146272568e-05 
0.0001241438529115715 
-5.599814955552721e-06 
0.0001369454243481363 
8.388882214056303e-05 
1.888203803041893e-05 
0.0001170331986937793 
1.468421824907628e-05 
-0.0001621009632160789 
0.0001547521492126812 
5.997427914570543e-05 
-0.0002925199321968402 
5.586115733050918e-06 
-7.142726227380191e-05 
6.865121667945907e-05 
-3.527160495611782e-05 
0.0001120684754687651 
0.0001710197469406244 
8.190655547031951e-05 
2.936160511405429e-05 
-1.482329278221233e-06 
3.287854440068955e-05 
-0.000104742356026469 
-0.0001791663986568373 
-0.0001038479138053248 
-0.0001006496122601671 
-4.971623586377958e-05 
0.0001235871325753136 
-2.75910954260736e-05 
-0.0001326453304840222 
1.713236287896868e-05 
2.849807744897055e-05 
-6.766297641641849e-05 
-8.464123072291152e-05 
8.842950449841727e-05 
-5.056161857120846e-06 
0.0001655953962435236 
-0.000280771753597907 
-4.457321408448822e-05 
5.130599132953819e-05 
-0.0001105643899002727 
-9.731315923052721e-05 
7.962674441589328e-05 
-5.008857425269782e-05 
1.634186975027533e-05 
-1.982621536079739e-05 
0.0001927686592224246 
0.0001387571447350782 
1.372067511706616e-05 
-2.754217412269403e-05 
-6.407374492574321e-06 
6.047656723800649e-05 
0.0001161664372930727 
-0.000118114736480685 
-6.069348030316392e-05 
1.722215333466194e-05 
-4.264751468042637e-05 
-3.261089487864355e-05 
1.998051221446465e-05 
0.0001497018473028454 
-4.205367348050731e-06 
1.083248747055139e-05 
6.5848139745059e-05 
-7.852668740843969e-05 
3.019271127323202e-06 
1.422549825340587e-05 
-1.237438639267277e-05 
-0.0001526944605403484 
4.774405527828536e-05 
0.0001200586097809933 
6.897120950721374e-05 
-3.014179490122627e-05 
-0.0004359074668905283 
5.00799563060391e-05 
2.95355083898341e-05 
1.082673420962823e-05 
0.0001278641332669148 
1.211652025204614e-05 
-0.0001391872578630423 
-0.0001023739697457059 
0.000155894071640087 
-0.000211147992286756 
3.854082474047208e-05 
9.456755904373719e-06 
6.508990639349895e-05 
7.002330501880147e-05 
-3.56587582845079e-05 
-4.060377330585008e-05 
-3.256821251425589e-05 
5.674298460555295e-05 
2.898427519923429e-06 
-0.0001067328430416416 
8.601666360646195e-06 
6.924617128708314e-05 
0.0002090765224049486 
-0.0001445953447450752 
0.0001287122296322606 
-0.0001525500808019541 
3.29641854963147e-06 
-1.318359835513273e-05 
-3.363316624741194e-05 
-5.117337020773866e-05 
0.0001123295632015641 
-9.316177740901836e-05 
0.0002845385781665287 
-0.0002838033730030278 
3.34594655255801e-05 
-0.0002967295428658838 
0.0002070502048602004 
0.0001210793418055908 
7.814263006307625e-05 
-3.254017543150214e-05 
-4.224453412022091e-06 
4.168869780468809e-05 
0.0001254471092917129 
3.384843628469348e-05 
-3.431949477913057e-05 
-3.456400711617504e-05 
-2.401818866331841e-05 
-1.04603155449323e-05 
-0.0002572259016967678 
-3.533762551138891e-05 
-1.328949570321723e-05 
-0.0001350250026074817 
0.0001773356630801376 
-0.0001251639463138869 
-0.0001161066336557872 
-0.0001711791966815971 
2.94668396581037e-05 
-6.744506910399453e-05 
-9.303041259583901e-05 
3.124688497945418e-05 
6.227834689436623e-05 
3.456155304647676e-05 
-0.0001353197298999524 
-6.790245796048199e-06 
0.0003638892000271966 
-5.326027759104778e-05 
-7.253602673832312e-05 
-0.0001493403184481486 
0.0002789907992925902 
-0.0001145109331420438 
-2.02444859768062e-05 
-7.24752447164614e-06 
3.20791414626e-05 
0.0002037318022418297 
0.0001055391310524333 
-0.000124404354584306 
-8.080989681326034e-05 
0.0001580409021834914 
-0.0001216937764019815 
1.344006317851149e-05 
-2.456646403284168e-05 
-7.474332612976855e-06 
-2.938727922245424e-05 
-5.273060084515565e-05 
6.672298684482357e-05 
-8.232404618839285e-05 
-0.0001930228377092048 
-5.940080237528565e-05 
-3.185735862128807e-05 
-4.993376998732309e-05 
0.0003832805219378608 
0.000259141190070999 
4.466959631625106e-05 
-4.254533091775455e-05 
-2.344548322511755e-05 
-0.000161634706743966 
1.063734817518713e-05 
4.492094946509492e-06 
-0.0001226654845582598 
6.543479096693417e-05 
2.355242170534857e-05 
-0.0002319676724930932 
-4.732769510224035e-05 
-0.0001601367306670524 
4.364907615121281e-05 
0.0003821732833040738 
6.75864174231492e-05 
-8.63220852272994e-05 
-1.497872429228751e-05 
-1.746964397089368e-05 
-0.000113356226634707 
2.658520046990961e-05 
6.086644048510722e-05 
-6.712268608958628e-05 
-5.440955223524356e-05 
0.0003674045816116198 
0.0001272739970844484 
-0.0001192581874580513 
-5.713224326970215e-05 
-0.0004590793927324323 
-4.419298007373427e-05 
-5.995390781874345e-05 
-5.269981318062334e-05 
-3.919835181352796e-05 
8.700359553014085e-05 
-3.142654809308454e-05 
5.437258876009962e-05 
1.939039892723833e-05 
-8.061133119078366e-05 
-0.0004104107040207162 
-0.0001286948344238274 
-7.190901152348381e-05 
0.0002552535474787488 
-0.0002214714110181386 
9.434461029820902e-06 
0.0001068419615386912 
-7.395835299189309e-06 
-1.101887212191578e-05 
0.0002961027874849835 
-2.790214318094283e-05 
-8.666737964361902e-06 
5.794683804533189e-05 
6.527060806142306e-05 
-1.591517867722658e-07 
3.05439686794192e-05 
0.0002599138788993159 
6.609472370368474e-05 
-9.106996584327366e-05 
-8.09182673040415e-05 
6.747686473164142e-05 
-3.6940654975228e-05 
-0.0002911653731931596 
-0.0001297559119924905 
-7.745406030130055e-05 
-1.323008909108471e-05 
-9.053038612891782e-06 
-4.185026635026843e-05 
-0.0002692964896110255 
0.0002202995854992667 
0.0002575210756220532 
6.15895371714221e-05 
-6.7616067720982e-05 
-8.534097661049746e-05 
5.057585467339026e-05 
1.152115295973617e-05 
-2.918732505503829e-05 
-0.000187631131418033 
6.982494636940575e-05 
1.866870003370983e-05 
-2.681870107189415e-05 
4.052406376691548e-05 
-9.833990400744378e-05 
0.0003431558461568906 
4.733024716139221e-05 
-2.266584757215114e-05 
4.701005743512509e-06 
-5.284697912424661e-06 
0.0001554973689762122 
0.000201020134179235 
-9.105171404364835e-05 
-5.221184089345492e-05 
-0.0001227420233618926 
3.445608782605288e-05 
-0.0001559143233669249 
-3.119081433728194e-05 
-2.253239881102974e-05 
0.000109143698751672 
-5.76277314578816e-06 
1.229275142024126e-05 
5.633138859632307e-05 
4.705836442245599e-05 
6.775198648919381e-05 
-4.788943175501675e-05 
1.52379727084961e-05 
-6.02623079378491e-05 
-5.697439236195885e-07 
0.0002043809773752245 
-2.097876110104247e-05 
2.219221007928103e-05 
1.725662811972827e-05 
-4.172152656701349e-05 
-0.0002552120082510307 
2.054893823431978e-05 
-0.000229553939657624 
-2.484413832287723e-05 
-0.000227348824009285 
0.000146680372871681 
-3.153410233361387e-05 
-1.557308550146123e-05 
0.0003337044501725568 
4.924447418600837e-05 
-0.0001453465493265391 
0.0001038524354852922 
-0.0001349218105342546 
-3.783654335053876e-05 
-7.194221707718779e-05 
1.689933793864448e-05 
-3.734287050655537e-05 
-1.898129511835268e-05 
8.67247740575991e-05 
5.06858432867969e-06 
-2.079842570735065e-06 
-4.2753948799573e-07 
-9.821190673315267e-05 
-9.940465576507373e-06 
0.0001040962282987456 
1.710827306458418e-06 
2.249584246478321e-05 
-0.0001510253876511898 
-4.303019484837999e-06 
-5.372104979259685e-05 
-8.792988539259655e-05 
-6.138934541670559e-05 
-0.0001945765181416881 
-1.604537973810693e-05 
7.202256590921937e-07 
1.61294828393295e-06 
8.294733455774721e-05 
0.0001299067710853845 
0.0001266124670713947 
0.0001337029544223843 
0.0001115886246793998 
-8.503216315356969e-06 
-4.188028692068544e-05 
0.0001082636676610102 
2.962296267998739e-05 
5.408766697021773e-05 
-6.728345123171174e-05 
0.0002506775371258565 
0.0001643586797141834 
-0.0001178093561188893 
-0.0001112074138088376 
-5.196113498270301e-05 
-9.186570906104928e-05 
-8.37952306912804e-05 
0.0003892491755469874 
-4.282089334959435e-05 
-5.055606659980427e-05 
-1.723408291832358e-05 
1.832739913208161e-05 
-2.608743451160979e-05 
-1.375891834614767e-05 
1.357462465244827e-06 
-2.881321848118652e-05 
7.417604832959432e-05 
5.115472461574749e-06 
-1.893356408470111e-05 
-3.439516706445575e-05 
-8.854405227764104e-05 
-7.691603998002486e-05 
4.483343837795031e-05 
-0.0002009825052248449 
-3.616057895119267e-05 
-7.939898561864188e-05 
-0.0002156748328677273 
6.512326610450409e-05 
-0.0002055387226515159 
8.660236833382039e-05 
-0.0001959553353970529 
-0.0001345382447338822 
0.0002035991942605793 
0.0001886913206051454 
0.0001141960881124456 
1.779220603123864e-05 
-0.0001432896383796662 
4.128331591521702e-05 
-0.0001058435622469552 
-3.017402151148848e-05 
3.020915011582704e-05 
-3.783402726603034e-05 
3.763333986128037e-05 
-7.602646627131944e-05 
0.0001003706173063646 
5.210024631277376e-06 
1.776654295467644e-05 
-3.069006070445021e-05 
-9.802585590380218e-06 
3.044395442551045e-05 
1.106134198747442e-05 
9.638910892748787e-06 
-0.0002122232768854897 
3.088340489088508e-05 
2.418740709830629e-05 
-0.0001017583442717047 
0.0003519761726873874 
-1.615730351101889e-05 
-4.142456713103507e-05 
-5.520143009096023e-06 
-7.668226424862254e-05 
8.549735042912276e-05 
-0.0001088393511016944 
0.0003751940418435742 
7.685349881673003e-05 
7.734573074711807e-05 
1.730882082640027e-05 
-8.472279758682312e-05 
0.0002171978201603524 
-0.0001458717177388358 
1.630033778901368e-05 
-3.254185179317855e-05 
-5.513113793183113e-05 
-0.0001016272634934449 
1.715461985621295e-05 
2.389764802765028e-06 
-1.568859563137495e-05 
-1.24780734635059e-05 
6.276909645961017e-06 
-2.695727425953803e-05 
-6.964700168256168e-05 
7.426277287804187e-05 
-0.0002322623155109122 
-0.0001045213746290481 
1.608985983120439e-05 
-8.036468693810988e-06 
0.0001117037998170689 
-0.0001029380419521236 
8.077702715012945e-06 
-2.560058637513912e-05 
-0.0001201151323526533 
-0.0003878927510949657 
3.867295716042489e-05 
8.249313375619829e-05 
0.0001733383386438808 
-9.885508608460734e-05 
0.000191500395695724 
-5.269563990629299e-05 
3.901630152504767e-06 
-6.488501379632508e-05 
-2.874961387900566e-05 
-1.25069005067653e-05 
-8.270827797715986e-06 
-2.783543590320669e-05 
3.328048200145426e-05 
5.556539107648238e-05 
-0.0001222449973852695 
-7.814596539142757e-05 
-5.529216777301551e-05 
0.0001864653665718021 
-0.0001936087893996844 
-5.80642622803331e-05 
5.782967489866207e-05 
6.899923104838139e-05 
0.0001198014315109635 
9.752164163169176e-05 
1.532847209436569e-05 
0.0001281562484014132 
-4.027749339522247e-05 
-4.770783166539551e-06 
-2.516037755065084e-05 
-2.232095305426375e-05 
-6.08542510367241e-05 
-0.000112899283570208 
-0.0002149145885812324 
1.160654585777821e-05 
7.095624036273669e-05 
-0.0001591393765434701 
-3.662517880286494e-05 
0.0001066518133183213 
5.940473380402797e-05 
-3.315353756521351e-05 
-1.931879289053259e-06 
-3.772458952092685e-05 
-2.670987361090728e-05 
-8.770962244428342e-06 
-7.557820056521106e-05 
-2.488539008734554e-05 
-9.062850182012213e-05 
2.091482357634859e-05 
-9.580961955791343e-06 
-2.484922317316223e-05 
2.198669736532386e-05 
-0.0001181061262205559 
-0.000123799930903674 
0.0001381207934843318 
0.000159306920675928 
3.80128924824821e-05 
0.0001841522182202384 
9.855073461332205e-05 
4.410047387525809e-05 
-7.25296234797496e-05 
2.158265188759679e-05 
0.0001084961433729517 
-1.131900581819302e-05 
-6.825136807302066e-05 
6.503681447581447e-06 
1.995117767913569e-05 
1.369651413867859e-05 
-7.425901117696e-05 
0.0002105998178944517 
-0.0001625111374631316 
-0.0001100610295232572 
-7.881306114790367e-05 
1.92511307331876e-05 
5.003403234705256e-05 
5.726267796370838e-06 
0.0001525774167939728 
9.36029073075698e-05 
-4.853365458757145e-05 
1.709648117017504e-05 
5.006650797763182e-05 
8.774853807897724e-06 
0.0001550080160691473 
0.0001369625205919315 
-2.094906762441716e-05 
9.556575583004237e-06 
1.297140178127387e-05 
-5.378844557119887e-05 
-7.044761928562605e-05 
3.096616573700465e-06 
5.849237166999129e-05 
-0.0001942563657323383 
-0.0001998143895000233 
-2.759353839047842e-05 
-5.220839354263127e-05 
-0.0001022657264583584 
-8.033278301923728e-06 
8.367106992324488e-05 
1.150450067215931e-05 
5.883024692394588e-07 
3.323587850473273e-05 
-0.0001501128526363778 
-8.193910680076512e-05 
1.151119904480342e-05 
0.0001236499911668116 
4.819732300406891e-05 
