solver_type L2R_L2LOSS_SVR_DUAL
nr_class 2
nr_feature 26084
bias -1
w
-3.535032734545222e-05 
7.234616614637845e-05 
-3.073248691514314e-06 
8.387109451340842e-05 
8.543621128334217e-05 
1.104602988225279e-06 
-6.11922543332446e-05 
-2.830211165738256e-05 
6.909749537198188e-05 
-3.57793732664944e-05 
-0.0003121297083551624 
0.000202424190297463 
6.876433269252252e-05 
2.239537190617987e-05 
3.154242265264164e-05 
0.0001494442020324091 
0.0001082660564211624 
0.0002242625243910682 
0.0001075568119362267 
-3.209810654857749e-05 
-0.0001337579779804227 
-0.000317538582562703 
-2.721069355443126e-05 
-0.0001116975461821161 
6.592946796820045e-06 
6.507215111475995e-05 
-8.567266120122499e-05 
2.020781381761409e-05 
-3.531745381700848e-06 
0.0001592714633677503 
-0.0001093270228747065 
-0.0001115105139451409 
-3.844814956782521e-05 
3.019908014963685e-05 
5.147925398489519e-05 
1.357588673217359e-06 
-1.324231573275012e-05 
0.0001399515369272707 
7.974231439685337e-05 
-1.41812710594363e-05 
-0.000194829848014142 
0.0001409136384181767 
0.000161844496811401 
-0.0001133182789254201 
-0.0001026531101127899 
0.0002240572552188936 
-0.0002870036589183757 
0.0002113681426424378 
4.700004139287599e-05 
6.58167831057235e-05 
-0.0001323398569335245 
-0.0002725647372554744 
-0.0001173393602457803 
-6.769560546598869e-05 
8.594627218784463e-05 
-0.0001011299915640978 
9.851387456760761e-05 
0.0001399393736992601 
-1.933676340140962e-05 
-0.000143108486486 
-4.300689894474499e-05 
0.0001413771434186613 
0.0001632414142799687 
-5.306589339728484e-05 
-1.359455147844785e-05 
-8.060793300380668e-05 
-3.817113856989873e-05 
1.699548899591479e-05 
0.0001573819726400939 
-0.0001492741276469306 
0.0004064012477232815 
-0.0001858224903783451 
0.0002993419328655947 
1.525827347289874e-05 
-0.0001421886230067545 
0.0002896527219538934 
9.567524937283218e-05 
7.683866398108284e-05 
-0.0002213523560490248 
-0.0002132217512526574 
7.814084264247454e-05 
-7.217556056300024e-05 
-1.502118039915272e-05 
-0.0002103104650313994 
-0.0002015524798301828 
2.620022435422944e-05 
-0.0001731880409023187 
0.0003587173975526241 
4.665743366059498e-05 
9.072226105784418e-05 
0.000111206125862291 
-0.0002670793253002864 
-4.378038831421044e-06 
-6.231995501808429e-05 
2.186292155218387e-05 
2.868924342354943e-05 
-3.279746923825326e-05 
-3.907796811339689e-05 
-4.608221829769408e-05 
3.542393137704073e-05 
1.941464931871563e-05 
-7.507507756438901e-06 
3.804372927113965e-06 
-0.0002417548630191133 
-3.033916165011398e-05 
0.0001528657726218478 
-3.964116106700171e-06 
5.821451453996251e-05 
-2.157398336155081e-05 
0.0001610895063199122 
1.51409897515214e-05 
-0.000105366574332433 
-0.000140012818892132 
-0.0001853694283094888 
1.791976562997561e-05 
-0.0001147854656053256 
0.0002216015212434777 
-2.370798850903308e-05 
1.478242674958115e-05 
3.117427233284279e-05 
6.563319696923351e-05 
3.289574564978684e-05 
0.0001362189567570164 
-8.462080410524808e-05 
-2.910780045204704e-05 
-4.156452751656431e-06 
0.0001083104203003189 
0.0001052185618619577 
-2.041342628004181e-05 
7.46018533268944e-05 
3.017613233446468e-05 
0.0001529644093118761 
-5.992262121198043e-05 
-2.934598707829161e-05 
0.0002009401571160593 
1.469677855436032e-05 
-0.000201479765254789 
-1.388300239415724e-05 
-2.087486449703359e-05 
-6.108531627717183e-05 
1.965378151035161e-05 
0.0001782850913814709 
0.0002083560236121562 
-4.582161049902719e-05 
-7.040217053556692e-05 
-0.0002008268440033256 
8.36346150483349e-06 
-0.0001131568601358041 
-4.539145144684434e-05 
0.0003868820259289874 
-0.0001750557260347138 
-3.19200441899924e-05 
-0.0001524563749839393 
1.138004803200704e-05 
-8.443019254645029e-05 
-3.294515251870326e-05 
-4.951502783129718e-05 
9.704943103693775e-05 
-9.280413241977769e-06 
0.0001043416411603855 
0.0001336948117511826 
-1.18510102039818e-05 
2.50483842906116e-05 
-0.0001264038536494868 
0.0002895717728219845 
3.850599715396836e-05 
0.0002042589383230622 
-7.293046964941324e-05 
-0.0001610666417406717 
-7.277600821641727e-05 
-0.0001224717738694453 
-9.420281507736325e-05 
6.971003113719357e-05 
-1.089941694408567e-05 
3.151425697194641e-05 
-0.0002637088254739234 
7.098332031688765e-05 
-3.866835344328624e-05 
0.0002848902348196853 
1.639205602335618e-05 
-8.682659279671082e-05 
2.622278671716915e-05 
-0.000192411191997823 
-0.0002486948747371454 
6.751624705665121e-06 
0.0004079999868725666 
0.0002235289675000047 
-0.0002317525074572999 
-1.715224853692758e-05 
9.483717445626651e-06 
1.682715860842659e-05 
-3.408347781567816e-05 
0.0001671645025238368 
7.338887046654753e-05 
-0.0001002218687261306 
2.469024608361209e-05 
-0.0002626453609358982 
2.022131228295021e-05 
-3.591086866847271e-05 
0.0003126830684015585 
0.0001734975703857211 
3.92219322945697e-06 
-3.841211715909679e-05 
-1.227208389139226e-05 
5.84936808847953e-06 
2.043873173238285e-05 
-0.0001417755836077457 
3.355647436918961e-05 
1.046835393179509e-05 
0.0001306519478259616 
5.017150555773407e-06 
-6.821677199757883e-05 
-0.0003100481752014487 
0.0001537687310003441 
-4.828391044985421e-05 
3.776444244058399e-05 
0.0001041625424374146 
-0.0001045260878276784 
-1.43912969433058e-05 
4.012863480676842e-05 
2.970905972809303e-05 
-0.0002052359064617512 
-5.681007824534904e-06 
7.002182325410051e-05 
-0.0003944364926012668 
0.0002758572078770137 
2.982348567997452e-05 
2.511574814504573e-05 
-3.333201713340342e-05 
-0.000114082291566082 
0.0005114764994100388 
-0.000224438674142386 
-0.0003204459058726178 
8.328258274856196e-05 
0.0002820296402493357 
0.0003662489989025963 
-0.0004391315676994744 
0.000126843073970087 
0.0002705645449515699 
-0.0001950067013544679 
1.74326532545686e-05 
-1.085322926731533e-05 
5.418351954840997e-05 
-0.0001472145181293934 
-5.140945467800926e-05 
-2.297127107899397e-05 
4.410236431379421e-05 
1.800004754889664e-05 
-0.0001876975435459167 
-4.98237044478926e-06 
0.0001349739415385144 
5.141435770795592e-05 
-2.522260866356217e-05 
5.091540824209744e-05 
2.668983842878209e-06 
-0.0001042244279039799 
4.755129963480705e-05 
-1.959072772152292e-05 
3.526103843808725e-05 
0.0001714350509679929 
-3.829882084176121e-05 
4.323011326832753e-05 
-1.528687064774206e-05 
3.447057913876577e-05 
-1.9334887225358e-05 
2.719531004956394e-05 
-1.524524498567155e-05 
8.787318842662599e-05 
-0.0002554087072521092 
-0.0001757500667407964 
0.0001715540002774306 
3.832848482826346e-05 
4.003068313782365e-07 
0.000336128462138608 
0.0001517926317099988 
0.000152281253580219 
-7.670953554955944e-06 
-4.316210216666048e-05 
-2.142099914196198e-05 
-3.923635953483292e-05 
0.0001397235016911513 
8.331361539253585e-06 
5.683357323055087e-05 
-0.0001606290797729931 
6.96404171394955e-05 
-0.0003468779139346154 
-0.0001954672023832631 
-0.000149166653136597 
7.731537249022355e-05 
-0.0001101235936134722 
0.0001958856337762328 
2.849552717044083e-05 
0.0001327322142417219 
5.410756449120274e-05 
-1.018837182898871e-06 
-0.0001303600972887346 
-7.450543679999935e-05 
5.613241967425915e-05 
-3.587906739039238e-06 
7.513611867684141e-05 
-0.0001170455021825851 
0.0001084628494264686 
-0.0001155675253282925 
0.0004043505845746096 
-0.0001154987898210098 
-0.0002883103199931591 
-6.370493891371915e-06 
5.971586947335363e-05 
7.183640178762657e-05 
-0.0002915742846200378 
9.581453615293277e-06 
-4.340348943667643e-05 
2.267320464116743e-05 
0.0001776983428993254 
2.203552724519958e-05 
6.250250452632772e-05 
7.85430838691598e-05 
-6.275881847110741e-05 
-9.438612907062595e-05 
-0.0001132094642907669 
-6.662172944863336e-05 
0.0001014239370781698 
-1.126303358708807e-05 
-4.622389578220163e-05 
5.079811901796573e-05 
-4.999132683544973e-05 
-3.354451876113918e-05 
-7.212960570407217e-05 
-0.0002395960186462041 
0.0001946484930298982 
-0.0001476225142214969 
0.0003495990276663452 
4.682395374544323e-05 
9.703844828790729e-05 
9.698553734741883e-05 
-5.690601136839863e-05 
0.0001279565939417974 
-4.545848005078845e-05 
-0.0002470622562157999 
8.146945265286275e-05 
-1.339792928378117e-05 
9.968702325602874e-05 
-2.151891028207242e-05 
-3.993254227395995e-05 
0.0001002511487783612 
6.388949604821341e-05 
-0.0001883871557970922 
0.000182899042797182 
-0.0004684159487876756 
-2.238383517382604e-05 
-0.0001433908070342131 
0.0003898602294559827 
5.151073177001873e-05 
-2.278399752598736e-05 
3.766201599360652e-05 
-6.172801835562922e-06 
-5.233656944210439e-05 
-0.0001477663797853639 
-3.529964532780212e-05 
2.092198883664758e-05 
-1.909441410775701e-05 
0.0001931155786772805 
-2.899034925334328e-05 
-0.0001241393641102916 
-5.866109652534465e-05 
0.0001647290327549954 
1.265462538963314e-05 
7.989214154148485e-05 
-0.0004999165425868737 
-3.620429263603983e-06 
-0.0003266090579794143 
9.611829556397252e-05 
0.0001817867405147171 
-0.000225997823538223 
2.816121928475286e-05 
0.0001004664735900429 
-0.0003369938226949039 
0.0001301827677842546 
-2.134450727558772e-05 
8.049253103014362e-05 
0.0002339678949888241 
-2.884266256202293e-05 
0.0007037516741163695 
-0.0001073602641728779 
3.704673176429676e-05 
2.782710907526908e-05 
0.0001957081613616541 
2.05226582259704e-05 
-6.017301798141763e-06 
3.426572275702479e-05 
-7.223001755086151e-05 
-0.0001133968394208067 
-7.00338891879502e-06 
0.0001273055642517857 
-0.0001483100183476283 
-5.425825471117664e-05 
1.517556377885226e-05 
-0.0001094248547394366 
5.230336072862744e-06 
-5.810933379692558e-05 
0.000185917556623706 
-0.0003875469149316809 
-0.000129983111530514 
3.913870053325005e-05 
-3.532419702004219e-05 
-7.705443431646801e-05 
-2.480045857258542e-05 
0.0004447080382620858 
-2.498003351575508e-05 
3.659367765973462e-06 
-2.653781894605574e-05 
-1.016229196120576e-05 
0.0001972208300612318 
-6.489230830389854e-05 
1.050387120772932e-05 
7.528535048996552e-05 
0.0002285966761613793 
-2.196706820904454e-05 
3.873697873160483e-06 
1.504539099806939e-05 
-1.604216287323272e-07 
4.068957128723876e-05 
-0.000493013002081286 
-0.0004447275652673479 
-0.0001052121582654757 
-6.516955572485659e-05 
-4.90040263497927e-05 
-9.829997700418728e-05 
-1.049125845640787e-05 
0.000200160155409398 
2.462426240101071e-05 
0.0001081214737939916 
0.0006441737542354901 
1.828556416895904e-05 
0.0003632966025170915 
-0.0001097016759711555 
-0.0001221607032709867 
0.0001319029517249559 
-3.384876565453628e-06 
-3.615481639797892e-05 
-6.039342497422119e-05 
3.166150865961001e-05 
-7.506827728702745e-05 
7.921449060859508e-05 
-8.335048634011318e-05 
-8.838701598315057e-05 
0.0001128070234199028 
-6.632282963195251e-05 
-7.525860694900815e-06 
-3.375999500483639e-05 
-0.000173151019283137 
-7.493653646484399e-06 
-0.000105253997485051 
-8.56208879075515e-05 
0.0003742084520369073 
0.0001885554555091568 
0.0001289161278712714 
4.51863481689614e-05 
2.909664916232414e-05 
-8.030540560068787e-05 
1.57583468592671e-05 
-5.898575144735986e-05 
-0.0001040133908291098 
-8.922834691950141e-05 
6.34326506626073e-05 
5.303174122369304e-05 
3.507606147445138e-05 
7.159623079504136e-05 
3.534218956062148e-05 
7.527753658791926e-05 
7.106966501891012e-05 
0.0001740667916553552 
-4.4395121115119e-05 
-0.0001220869198745156 
-4.735922816034635e-05 
-3.517660054357603e-05 
-0.0001806203544459753 
1.190880786561097e-05 
-0.0001259315583012331 
-2.130979343036477e-06 
0.0001294771720601412 
8.46182487831907e-05 
9.064655996572234e-05 
3.864969074764215e-05 
-2.805758244486776e-07 
-6.815998725611216e-06 
2.458784110310864e-06 
3.507948059137042e-05 
0.0003187567169891252 
7.374022445199293e-05 
-0.0002660171314135252 
-0.0001760528118070963 
-1.554187685918981e-05 
0.0001816692805557189 
-7.946907365973254e-05 
-0.0001655548110167661 
-9.225972285335433e-06 
5.961866215916564e-05 
-2.299410243270529e-05 
1.503133340190864e-06 
-4.863519387321434e-06 
-8.990165732540319e-06 
6.514061537927526e-05 
5.247178858774117e-06 
-0.0003075431013165664 
-9.262943391555388e-05 
0.000105766594294533 
0.0002618955205823155 
4.031268795542978e-05 
-0.000378296922508746 
5.303174122369304e-05 
5.614718868622169e-05 
-8.9756773880997e-05 
-3.625593351022281e-05 
3.758535314538187e-05 
-2.745233745613029e-05 
0.0001431151579202929 
2.845418326276603e-05 
-4.027398901723146e-05 
0.0001496192842480227 
-0.0001376173356286919 
-0.0002075340766677207 
6.146740571582102e-07 
0.000118656553367478 
-3.271522329342647e-05 
-0.0001489322705546059 
0.00032209916674829 
0.0001193558755974666 
7.190065709494303e-05 
-1.615742586145505e-05 
8.365393822656288e-05 
-2.125287906114362e-05 
0.0001245270249980504 
0.0002366209414708014 
-9.414345230037334e-05 
-2.710437619708248e-05 
-0.0001668738226332095 
-0.0001176467250582418 
-7.037245915405949e-06 
-5.197442230422847e-05 
2.157625609274771e-05 
9.622554545431663e-06 
-5.754286102940209e-05 
-0.0001176464865561444 
6.949273895505194e-05 
0.0001075670088010456 
-0.0001626102416340335 
1.784243406106789e-05 
1.792211325078043e-06 
8.836012072266125e-05 
-0.0002502032917079245 
-9.169997483727344e-05 
-2.185896409577323e-05 
-2.216686026940225e-07 
3.767614541985928e-05 
1.976783588056408e-06 
-6.930188240426948e-05 
0.0001463823369792135 
-0.000261099946647397 
-0.0001657816166398842 
-6.748734506537056e-05 
8.912331964693511e-05 
7.453950312222945e-05 
8.211405284448377e-05 
-7.241383919892311e-06 
4.722389564991817e-05 
6.014131315700457e-05 
-2.520585204399526e-05 
8.603122136678466e-05 
8.695921536525146e-05 
0.0001640149555981336 
-2.062243759826327e-06 
3.302566676656688e-06 
-1.866891628991855e-05 
-5.631270100314069e-05 
0.0001047001892216388 
-0.0001300131914181524 
-2.374448253602031e-05 
4.999003487549704e-06 
0.0002468778173753216 
1.527666818615338e-05 
0.0001023591730323629 
3.088467331708145e-06 
3.705153712523977e-05 
-9.712384846173525e-05 
6.338312530184546e-06 
8.390408541989409e-05 
-3.32923719420825e-05 
0.0001021784241850717 
-0.0002177259941231866 
9.093856840997436e-05 
-6.157656899382506e-06 
6.360887557596563e-05 
-2.651775727442455e-05 
-4.87699625410919e-05 
-0.000181750339935795 
-0.0002096785812524567 
-1.600329158826075e-05 
-0.0002190982537284679 
0.0004009752930541266 
0.0001068949862913128 
0.0002154673945292585 
-2.099373247933733e-05 
-9.58326791074759e-05 
1.016957182657171e-05 
-1.482613366488931e-06 
-8.566433711144812e-06 
-8.38930041455145e-05 
-2.464176256304454e-05 
-9.825685115108341e-05 
-0.0001189059546522355 
-0.0001254533249597014 
0.0001808786919019484 
-7.62697243664323e-05 
0.0001735000029946596 
5.573244453867706e-05 
8.844537258123073e-06 
-6.411936568061093e-07 
1.860885311213378e-05 
3.217828358582084e-05 
0.0002052101986318988 
-0.0001135016784417611 
3.488663221617837e-05 
-6.59679773799644e-05 
4.39213235472543e-06 
1.066092292797919e-05 
0.0002047034356600877 
-8.886199697605347e-05 
9.898183838574103e-05 
1.829618549349307e-05 
-5.834509652785759e-05 
-1.68530776346659e-05 
0.0001123777460904262 
3.929006676978432e-05 
-6.290712978369867e-05 
-2.231020674370185e-05 
-2.092098347561355e-05 
2.671986874347637e-07 
-0.000221666295122379 
-1.382193332443406e-05 
4.204324556178364e-05 
5.28110478388242e-05 
0.0001706454994007833 
0.0002867654462216475 
-0.0001147800435845684 
5.343284238109619e-05 
-2.847715998568047e-05 
-0.0001474416558506271 
0.000249269675587311 
3.294660254348258e-05 
-5.262010802052191e-05 
-0.0006922637875888049 
-5.919691288796135e-05 
5.29165999227259e-05 
6.573411175118853e-05 
-2.281806841018047e-05 
2.90022503937653e-06 
8.999220440857056e-06 
0.0001309426489804629 
-6.679477255859227e-05 
1.719073085813004e-05 
-0.0001922786963961529 
0.0002227698520130643 
-0.0001107104264778659 
-0.0001368240736208609 
-0.0001421989707903385 
-3.780466808441288e-05 
-6.302874551924473e-05 
0.0003581276793372136 
0.0002661065710102394 
9.405085614697193e-05 
-0.0001709307814096736 
-6.10044404312752e-06 
5.197770623082089e-05 
-9.103727329412435e-05 
0.0001261107974990232 
-0.0005028820195536927 
-0.000158285653968278 
6.602811176077491e-05 
-0.0001011365897684563 
6.542505260873912e-05 
-0.0003194711218964126 
9.668203409421106e-05 
0.0001828548508704585 
0.0001440485237935204 
1.668547642468426e-05 
0.0001698506909055391 
-0.0002116769057769718 
-1.097804880472262e-05 
0.0001427618230052944 
1.964658079540238e-05 
-1.957111847039364e-05 
-0.0001725068774081718 
2.175813931185146e-05 
0.0001675819356206125 
0.0001284259670883709 
-4.102329142684768e-05 
-0.0002223532605154389 
-1.0195044679463e-05 
1.689110869184823e-05 
0.0004563541128819992 
0.000250967317250541 
-0.0001483079561731864 
-3.904063920472923e-05 
-0.0003294902826532741 
8.289776427746096e-05 
0.0002328572930179762 
0.0002187765374261526 
3.757281359685995e-05 
-9.177161672147628e-05 
-0.0005944909270783049 
0.0001114736209157298 
9.123579876623695e-05 
1.771662700358401e-06 
0.0002210302378885132 
-0.0001268304162776415 
4.073110027116977e-05 
-3.164232961885923e-05 
2.184881226658026e-05 
-3.064420874682056e-05 
0.0002003311959597597 
-6.265525861784806e-05 
0.0001390734291825368 
-0.000163404318666874 
-4.326005344146579e-05 
-1.258632981456429e-05 
-7.851991787135031e-05 
6.688735028798307e-05 
6.577576798249312e-05 
-5.327511953867702e-05 
-3.974544060827921e-05 
-6.461642672665855e-05 
7.400277394145391e-05 
8.153789466375985e-05 
0.0001378171044781637 
-3.320452739141898e-05 
0.0001731591948366577 
7.373059004392235e-05 
3.04563593733041e-05 
4.287545036303303e-06 
0.0001324589491609006 
-7.192162058351983e-05 
8.886913861603611e-05 
-0.0001315823797089787 
-0.0003849035338958015 
-8.92846396647735e-05 
-4.424657269889084e-05 
-0.000231895872031542 
0.0001808304369303344 
-3.193933982293513e-05 
0.0001156231822536506 
1.481780682138858e-06 
7.532017881626247e-05 
4.079869166818936e-05 
-6.657054312907711e-06 
0.000569045631997739 
6.034965191803631e-05 
0.0001733673490841607 
-0.0002280103606892269 
-4.0205304832677e-05 
-5.331531240356801e-05 
-0.0001116489687539116 
5.595676201193413e-05 
-3.591976538211033e-05 
-1.582473621542118e-05 
-0.0002876816419263362 
5.395414322790822e-05 
4.831501114798067e-06 
-1.834052991652698e-05 
3.071848067844177e-05 
-0.0001159328638443383 
2.387381821415619e-05 
-0.0001077092964835926 
-1.174025332950595e-05 
6.295696994917104e-07 
-1.581666693421713e-06 
5.640046830958697e-05 
0.0001806313844678448 
0.0001846553802028488 
-5.540717482926324e-05 
-3.236132696541642e-05 
-0.0002189255135710902 
-2.060326884784354e-05 
0.000128695232472861 
8.857517789364411e-06 
-2.479434203916861e-05 
-7.096917140773226e-05 
6.16071300930052e-05 
2.479035549463349e-05 
-5.949261467666804e-05 
-2.99175032889384e-05 
0.0003725565853121966 
0.0001169082390121464 
-2.903498617061829e-05 
-0.0002064231520787181 
-3.784391660112265e-05 
-8.599332408668696e-05 
0.0001520928496513182 
4.792804351898704e-05 
-0.0001937901662365508 
6.947642088837513e-05 
-5.367421203751254e-05 
-1.463142930894814e-05 
-3.16271712191514e-06 
-0.0001238470467120398 
-1.819478341463957e-05 
6.707777197779455e-05 
0.0002285559011185 
-1.611499647895598e-05 
1.922846149082019e-05 
-0.0001818368065674948 
-1.075599019041277e-05 
-0.0001192939208842741 
7.678500463846065e-05 
2.733091276981584e-05 
-0.0001200356067678809 
-2.46559097253784e-05 
0.0002039684615625044 
0.0001367584209761448 
-0.000189049379307526 
7.125923720230924e-05 
0.0005195794445922857 
-3.550351705363596e-05 
-1.755226557271082e-05 
-5.801135149539569e-05 
-0.0001521048383285517 
-0.0001100869142812344 
-3.348233310371896e-05 
-4.989704900991496e-05 
-8.287377989478683e-05 
5.34860876371052e-05 
1.074270625248277e-05 
-5.235343628109454e-06 
-1.248246598125035e-05 
-2.532361873257261e-07 
-5.776743427787477e-05 
-1.493939301562263e-05 
-7.057563593143356e-05 
-4.784463200400943e-05 
-6.228311914352581e-05 
-0.0001348401338747193 
-4.698569093955063e-05 
-2.672515059069402e-05 
1.686905880721735e-05 
-3.021597250593617e-05 
2.137770347531533e-05 
2.182339338009748e-06 
0.0001438728821015473 
1.097012337100163e-05 
-4.699788726858417e-05 
-1.144193587633624e-05 
7.784179084470708e-05 
-8.931839517595945e-05 
-1.002331419720952e-05 
-7.338115662396252e-05 
9.412197426043662e-05 
-1.259548089779249e-05 
0.0001364517096156928 
0.0003685799847559292 
-7.652972389491839e-05 
-4.969741860989357e-05 
3.73388789648172e-05 
9.261186930331654e-05 
-5.260081036360352e-05 
3.423635178945029e-05 
6.921995054505241e-06 
-0.0001707579228742037 
1.735157297103722e-05 
1.642001082669721e-05 
-0.0002231679795013394 
0.0003474519184867663 
1.731055663929201e-05 
-0.0001172022070623845 
-3.169447674849114e-05 
-4.2759816652118e-05 
-3.442913802694894e-06 
-8.329695629243403e-05 
9.755967121667345e-05 
-9.357166038872672e-06 
-0.0001287213916759915 
0.0001111336896380055 
-6.014541580191247e-05 
0.0001841736467465977 
-0.000185646921697096 
-4.351803785824571e-05 
6.596905006961061e-06 
-6.470333873018113e-05 
-2.00166617913411e-05 
0.0005948425437984003 
-2.024887405363971e-05 
-0.000100181878675354 
0.000300438694199693 
-0.0002634560573824486 
-4.173729896386955e-05 
-6.941174841260917e-05 
1.451349149082558e-05 
1.358448347470244e-05 
-2.080673174517108e-06 
1.051669392256055e-05 
-1.970554495500967e-05 
-5.78448611526983e-05 
1.582485649105663e-05 
-5.021380702198664e-05 
4.906500981745987e-05 
0.0001925149535009471 
-2.976531483159359e-05 
-0.0001838185781757627 
3.009329329306802e-05 
-0.0001017670231003337 
-6.731939140683294e-05 
-0.0002199359892164938 
0.0001784833691338958 
4.744841869086146e-08 
-1.20833151494378e-05 
-0.0001863036383803387 
0.0001653292626402465 
-3.85846703822496e-05 
1.973999113055972e-05 
0.0001224855888366853 
-4.995568224667213e-05 
-1.664404641269269e-06 
2.612450412700519e-05 
0.000145467297294505 
5.505490662044849e-05 
-9.617353179381969e-05 
8.174719637147887e-06 
0.0001672557998834132 
-1.306176874369502e-05 
-5.017931922156851e-05 
0.0001452448028014829 
-1.125201083842643e-05 
-4.915751733879948e-05 
0.0001567593514424587 
7.549388506667508e-05 
0.0002302830655211224 
-7.366145138808817e-05 
5.873566673240641e-05 
-4.113093777303215e-05 
0.0005448227815429905 
-0.0002529543357909807 
-6.306397311943959e-05 
9.647941879862929e-05 
-3.014382158808873e-05 
-0.0001015738893065668 
1.80576273545496e-06 
-9.208906281321011e-05 
1.075792426847482e-05 
-5.694668048447726e-05 
1.986639836444617e-06 
-5.780388783041172e-06 
-5.140537683609359e-05 
-6.52934805939035e-05 
-7.564736769354688e-05 
-3.234818653984258e-05 
-6.203869690215699e-05 
-4.294634355030726e-05 
-1.486684881264499e-06 
-2.360553219026525e-05 
-1.246049191590816e-05 
-5.771976534745193e-05 
0.0002838055166273348 
-3.440585436327306e-05 
-0.000174010294697812 
8.841455009483004e-05 
0.0002596619879948675 
2.16355195209799e-05 
-0.0001373907700240815 
0.0003640859000541224 
2.713253747660434e-05 
3.836221890769604e-05 
-2.136047943390526e-06 
8.505059025205842e-05 
-2.487892958775831e-05 
-4.264829976607767e-05 
7.91744159626603e-05 
-4.185154888099699e-05 
-7.560254109006503e-05 
-2.84486411690817e-05 
-4.768649810071335e-05 
5.494687077956698e-06 
1.392159959109578e-05 
-0.0004497496737060159 
3.101525594951648e-05 
-0.0001150857848497823 
-2.932248519832505e-06 
-3.094420984081307e-05 
-4.803850782972859e-06 
1.094196885309742e-05 
-3.544316208032607e-05 
1.279894630748846e-05 
-1.548531556371933e-05 
1.149196014607758e-05 
-2.721440726358415e-05 
-7.550503496343057e-06 
2.255445932462569e-05 
3.464508194346951e-05 
-1.049637015122887e-05 
-4.884126940492938e-05 
-0.0001469189054169221 
-2.751750081727073e-05 
9.603955846044641e-06 
-0.0002983771284059186 
6.67273712192696e-05 
-2.079704305284049e-05 
4.744827447890672e-05 
-4.390130338464775e-05 
-3.366313740900446e-05 
9.13904331742881e-05 
0.0002598599679384657 
3.94100744656178e-05 
0.0001788616456516112 
-0.0001231905025163047 
-1.481824729890837e-05 
3.913899350313445e-05 
2.420712479389452e-06 
-0.000112340718680319 
-1.647160649659041e-05 
3.429310348262993e-05 
0.0001571767947719269 
3.293749488069813e-05 
-8.097577100884542e-06 
3.144817847859718e-05 
3.276963515372325e-05 
-7.100597204702562e-05 
0.0001147935337698083 
-1.550316455820831e-05 
-0.0001760063253946354 
0.0001050437414554486 
2.409099033547948e-05 
-1.645225699650306e-05 
-4.398917042024502e-05 
2.619557135492676e-05 
0.0003408326401515363 
1.940944368935084e-05 
-0.0001746943411192285 
-0.00011004961622018 
-0.0001118836053962681 
-8.713629294391843e-05 
-0.0001438843027032719 
-5.900290703541679e-05 
2.68182051025452e-05 
-1.01228059468664e-05 
-5.88803162822474e-05 
1.779450861297977e-06 
4.466828126394325e-05 
0.0001011670337182533 
0.0001497092008505261 
5.088752692435229e-06 
0.0003537681182287301 
8.719418195371489e-05 
-0.0001997554018508554 
-2.998256485571272e-06 
2.924179097922619e-06 
9.353834608216824e-06 
-4.13393981705344e-05 
-9.165501376050717e-05 
1.257814395020446e-05 
7.636912943662687e-06 
-1.044793153096003e-05 
-0.0003023507761625842 
0.0004427680961683198 
6.438468406987755e-05 
-0.0003176883411770857 
2.063297906716241e-05 
-5.765077397056278e-05 
1.585540645097472e-05 
-4.633167402193594e-07 
-5.52605328595046e-05 
1.035706716387044e-05 
2.350486952908311e-05 
-0.0001135576170996623 
-9.41065106755481e-05 
3.677641007377446e-05 
0.0001222424474251214 
-4.394542231318663e-05 
-5.194786531206948e-05 
-6.262108075271325e-06 
4.843180095970749e-05 
0.0002069583925653221 
3.662639310302494e-05 
5.286463650390305e-05 
-0.0001132461377034818 
3.041844953810728e-05 
-4.068963702806207e-06 
-7.005599669267298e-06 
0.0002387586746186794 
-3.691615161464848e-05 
-8.639333167425791e-05 
1.529947095562456e-05 
-1.765580702166282e-05 
0.000288096753312792 
4.053528018783468e-05 
-3.93943019283469e-05 
2.218164163784855e-05 
-4.468606480437371e-05 
-3.533321668586081e-05 
-1.719996670283816e-05 
5.558578672862497e-05 
-2.980371981510904e-05 
-9.815779875944928e-05 
-1.342021865664966e-05 
-9.653763999567611e-05 
-3.185308298406731e-05 
4.377112866599864e-05 
-2.727613988034583e-05 
-0.0001313694495537018 
-0.0002246502442897313 
-3.039807956249617e-06 
-7.13955880211044e-05 
-6.257782762921079e-05 
0.0001383418367171468 
4.231636313140652e-05 
-0.0003445404446724277 
7.374124497588865e-05 
0.0002485940509165852 
-0.0002707494251845898 
0.0004321864728609882 
0.0002356347108125137 
-6.128444628554945e-05 
5.412443377337119e-05 
1.763043897325876e-05 
-0.0001095714768899427 
-6.825731188216677e-06 
2.103149793576269e-05 
-4.375293240516477e-05 
0.000108601316893408 
0.0007351701615478367 
9.33563180922789e-05 
5.074551761859828e-05 
-7.745544064653031e-05 
4.745172617187785e-06 
1.471554329059261e-05 
-0.0001709516135949695 
-0.0001330218425351173 
-3.079677005371486e-05 
1.222005411419163e-06 
7.248102454047879e-05 
2.889298103139971e-05 
0.0002037298660436158 
-8.097765276935004e-05 
-0.0002507490272666326 
-9.894754319209525e-05 
-8.263241504828375e-05 
3.937750897495424e-06 
-2.682950370264482e-05 
0.0001435820305538155 
-0.0001020044590456218 
5.966113587927805e-05 
-6.105685907571627e-06 
-1.580829965078697e-05 
-0.0001433525670900514 
-0.0001102358164900515 
-0.0001041372377121112 
0.0001976609089148587 
-4.542283980833431e-05 
4.184305157253777e-05 
-3.291323408303093e-05 
0.0001166713979611486 
-0.0001740162565398429 
9.317890542177035e-05 
-0.0001074417999230197 
-2.565581876902873e-05 
3.776865539678283e-05 
0.0001389948936913077 
-3.609364133669046e-05 
1.068781080442826e-05 
3.519601573606914e-06 
-6.21309289830394e-05 
-3.42075245446086e-05 
-8.622107472636461e-05 
-9.822060419413161e-05 
2.024406616688663e-05 
0.0003299944237489782 
0.0001681384287309713 
-3.086060271753074e-05 
6.13334390687285e-05 
-0.0002190924990554904 
-7.068966078479293e-05 
1.214652199931704e-05 
-2.255795817960185e-05 
-4.88503985638263e-05 
0.000296557494226877 
-0.0001764250817446772 
-8.431845376240105e-05 
-0.0005160609995415863 
0.000395278610881385 
0.0001753426765048262 
3.52720121050642e-05 
-7.499391751424894e-05 
0.0001078307206265239 
5.758532512243119e-05 
0.000135976535403998 
-7.727964813836873e-05 
-1.111534334068595e-05 
-6.2640135651572e-05 
-7.676442361079962e-07 
1.104384476187286e-06 
-3.345522798716648e-05 
-3.48951579961427e-05 
5.565514196634521e-05 
7.361376133761829e-05 
-0.0001188544181990776 
-1.756881886828217e-05 
-3.072703868238959e-05 
-4.35522957918866e-05 
-6.305585090987186e-05 
8.039142863028732e-07 
-8.754635455517632e-05 
9.471674478349991e-05 
4.063155134356917e-05 
-8.274662257140263e-05 
0.0001200503688225517 
1.995848111415065e-05 
1.919595927651988e-05 
-2.71313026805686e-05 
1.885857246323948e-05 
-0.0003555548757766981 
0.0001582632592221075 
1.294918181205925e-05 
-3.557564555558942e-05 
-3.767465699914508e-05 
-4.613905888495605e-05 
-0.0001985753167198429 
9.593562916777046e-06 
0.0002544543519606366 
0.0002827440090265668 
-0.0001438734173204646 
0.0002337080524104224 
0.0004412872961531533 
-0.0003066590279644938 
-5.059283249924772e-05 
-2.378968483584513e-05 
1.271056278340119e-05 
-6.063856376171657e-05 
0.0001163145071256106 
-0.0001047591468111844 
5.672756244557244e-05 
4.136085092054008e-05 
-7.757172085341584e-05 
-3.79513534549435e-05 
-2.108118479764088e-05 
-5.782358606136162e-05 
8.805119417854466e-05 
-9.05292048090508e-05 
9.585808639288241e-06 
-7.250882351886969e-05 
4.041732985367012e-05 
3.261455502578939e-05 
-5.738608678459776e-07 
1.417109538699901e-05 
0.0002579414539960894 
-0.0001872534617688802 
0.000253719873824962 
-0.0001185342786049265 
0.0001921371005846286 
0.0001897350235029749 
-2.231303309659467e-05 
7.333274518864695e-05 
8.866888521012581e-05 
-0.0001872851830021639 
-5.909152754791415e-05 
6.947105353449594e-05 
-6.568290776459438e-05 
-5.422486816795443e-05 
4.050294067229735e-05 
-8.506270421333679e-05 
-4.516100779073911e-05 
-0.0001346071505482133 
-3.405175677846812e-05 
-5.994872316582157e-05 
-3.448299755533939e-05 
-7.386215610248832e-05 
7.263017514521902e-05 
1.820565519707418e-05 
1.589167170988863e-05 
2.073305281583663e-05 
-2.409662685237873e-05 
-5.853029851087983e-05 
0.0001213850829841492 
-0.0001142792835651671 
-0.0001028780000499975 
0.0001284017944258922 
0.0001531092918265917 
-0.0001869143890284658 
-0.0002041965543702835 
0.0001644407022230224 
0.0001258188636280818 
1.832663039170298e-05 
2.495888836328535e-05 
0.0001426750927558667 
6.828727565426632e-05 
0.0002397922019456686 
3.054962071782574e-05 
1.069506847599066e-05 
-6.984151356022813e-05 
2.466065277816988e-05 
0.0003693335133597861 
-4.231502775931743e-05 
-7.133924286672699e-05 
-9.048720066104815e-05 
-3.375828911492765e-05 
-0.000388049809398801 
1.904066446099934e-05 
0.0001334301975543486 
-9.691888458687166e-05 
-0.0001594681615503285 
-0.0001106721035771404 
1.032946170405556e-05 
-8.50651803641182e-05 
-8.732179100447461e-05 
-1.319034315219481e-05 
0.0001480505546290496 
-2.014943059476798e-05 
-0.0001589269428818703 
-2.547503990143088e-05 
-0.0003467692776919892 
0.0001101364501359116 
0.0003373066630384607 
0.0001872131181219784 
9.626838853358728e-05 
-1.211796500193653e-05 
-0.000106654004383481 
-0.0001106226124529155 
-7.625177482347572e-05 
2.201914559724911e-05 
0.0001392920424921972 
-5.225219888143743e-05 
-0.0001305137632237289 
0.0002339957415618915 
5.561997137768549e-05 
-0.0001059965147514111 
-4.268381550724847e-05 
0.0001371063872425065 
-1.288538007867611e-05 
-8.806440549147349e-05 
1.746027511241245e-05 
1.123099785092053e-05 
-4.688724606125892e-05 
0.0001072613569391126 
4.866415470572337e-05 
1.267029601367849e-05 
-7.949861932866877e-05 
-3.419830919356179e-06 
-2.759218289851009e-05 
0.0001992582785751038 
-6.178206486958128e-05 
7.297309357839703e-05 
-1.479785068605379e-05 
-1.195775152120131e-05 
-0.000285597771357786 
-3.802250022197857e-05 
-2.269989032860925e-05 
6.976648469400604e-06 
0.0001370114786290299 
-0.0001515882680305138 
-2.743169623817989e-06 
1.435369588048635e-05 
0.0001896548404308733 
0.0005731780463476463 
-0.000600723949612654 
2.889343421185692e-05 
-1.288004628458376e-05 
-2.724855505304892e-06 
-3.146806424788593e-06 
5.407323537665616e-05 
-0.000196350675703709 
4.579816820103156e-05 
-0.0001015072550663606 
7.052749141854005e-05 
-3.779181509613452e-05 
3.498979223151659e-05 
-3.119370101824302e-05 
0.0002623814659636879 
4.326586639613962e-06 
-7.721522045795267e-06 
-4.168237870704872e-05 
6.150702131377756e-05 
-2.637714472152098e-05 
-3.461916370956238e-05 
-0.0001792754092574245 
0.0005349777421753381 
3.242312678152701e-05 
-0.0001280799465710335 
-1.264207092016356e-05 
-5.362372300510797e-05 
-0.0001496858316490174 
-0.0002079015174261735 
0.0004554567053116349 
-1.058205404414878e-05 
6.049677674289001e-05 
2.587264808696997e-05 
0.0001262302442681524 
4.83653538929492e-06 
8.066726350350282e-07 
1.523175616115248e-05 
8.223030185144026e-06 
-0.0003311040517782606 
-0.0002583603680297858 
9.090850761542378e-05 
0.0001445411658590225 
0.0001745772221972235 
-0.0001169895257595188 
0.0001000359250503166 
-0.0001148046413662997 
-2.244627201093377e-05 
-7.963335424012839e-05 
2.470284004599159e-05 
-6.521886148014217e-05 
5.462353673947636e-05 
1.984053260737142e-06 
-0.000163371484391226 
1.28894781877124e-05 
-2.026187464407895e-05 
2.865734755931652e-05 
-0.0001589703782412381 
-0.0002702335384099315 
-4.307975120226495e-05 
-5.79750846145683e-05 
-5.06603925872431e-05 
6.776068912242927e-06 
-1.348908637450917e-05 
-7.757712762826739e-05 
-3.538153322820704e-05 
4.998571374032256e-05 
2.608780735269193e-05 
0.0001094881751087227 
-6.399942587005573e-05 
-2.865266919980163e-05 
8.412722673324381e-05 
0.0001093504947037744 
-0.0002199470483541635 
0.0007510079078287022 
-8.345611047599109e-05 
-6.622485493201918e-05 
-9.574550283470295e-05 
0.0002831104952564909 
3.399475346062436e-06 
-1.532254113827505e-07 
7.990387146469916e-05 
-8.27285799448704e-05 
-4.130600685654232e-05 
-0.0001369093224054307 
-0.0002044319559782146 
1.072898746072724e-05 
-0.0001282366958967678 
-5.693589969470245e-05 
-0.0001769390939343415 
0.00011259601988675 
2.609334783954686e-05 
0.0001360833862426055 
-0.0002125492153176757 
0.0006100128621580709 
-0.0002954548753901598 
0.0006779204426956536 
-0.0002529742739954873 
6.744585427563587e-05 
-0.0001234807090916903 
-4.008906503437152e-05 
0.0002116092149570082 
0.0001731711519954313 
-5.500335739643761e-05 
-0.0001292981745856938 
3.251395771003823e-05 
1.122704412641612e-06 
8.656979402128605e-05 
-3.86452918612012e-05 
-7.25475659553987e-05 
-0.0001167248329222863 
3.063083094214711e-05 
-1.117119178523776e-06 
-2.268878929406503e-05 
-1.682325958878148e-06 
-4.072301133336106e-05 
-9.115699238148358e-05 
-7.864764226715914e-05 
6.681608906592859e-05 
2.48801123443239e-05 
-0.0001196416884695681 
0.0005018868840099622 
8.644741278670355e-05 
0.0004465874097093512 
-1.463957807289829e-05 
-0.0001162876642378843 
-0.0001213315683767961 
4.386611699930132e-05 
-9.509611808760424e-05 
3.992997218927082e-05 
-6.444757651437827e-05 
5.871135828942751e-05 
-3.145678357942385e-05 
5.431874792202458e-05 
-3.090395724031074e-05 
-9.060865886699971e-05 
-0.0001874556514243809 
-5.033225008295817e-06 
-4.30738919512897e-05 
0.0001138300133808411 
-0.0002209640831997053 
6.312284794297916e-05 
2.512711180243916e-05 
-8.846224914799035e-05 
1.65219247273578e-05 
6.452440078201668e-07 
-3.327692116852653e-05 
-6.191639088962653e-05 
-0.0001748425422217367 
6.417217167303414e-05 
0.0002231295504849658 
-0.0003169987375033262 
0.0002582630448257473 
0.0001422606311713745 
-0.0001003492630548352 
0.000160061290395212 
2.454019394784738e-05 
-6.390124519910127e-05 
3.32233839965221e-05 
-6.1628262999499e-05 
5.337103636028245e-05 
0.0003011333043775525 
-0.0001257138643238601 
-1.865669461901244e-05 
-6.414487946292939e-05 
-2.999485353578877e-07 
0.0001396106824975012 
-0.0001580780802151977 
-0.0001086100912389518 
3.485372494688163e-05 
-5.030432976748886e-05 
2.796342982342362e-05 
-8.23618528024488e-05 
6.188146123744411e-05 
1.122048844881775e-06 
-4.717521731976678e-06 
1.133461864371119e-05 
-4.976033456912056e-05 
-2.515255024223742e-05 
-1.616169583320289e-05 
-7.050950197843299e-05 
5.098842835139582e-05 
3.667322733820412e-05 
-4.547732102549204e-05 
-3.174132360651029e-05 
-5.436540392603914e-05 
-4.74880728122476e-05 
-0.0001119378448866142 
-5.935961261181383e-05 
-3.300523987322448e-05 
7.479803362168004e-05 
2.970356655404196e-06 
-1.21801867707984e-05 
1.419703281075373e-05 
-7.913965401458711e-06 
0.0003499282332029704 
-0.0002268622984384944 
-5.888333339200832e-05 
-6.514099366753122e-05 
-4.832096546577309e-05 
9.585434969375679e-05 
-8.097364237794843e-05 
-9.107977356639411e-05 
0.0002639388231288754 
-0.0002231015937907877 
7.65850734442565e-06 
-8.558451711130867e-05 
0.000105164560447655 
0.0003060990945037218 
5.046989922412674e-05 
8.083072406278973e-05 
-2.796654315098318e-05 
-5.153784254667097e-05 
5.577377445804394e-05 
3.998670880848355e-05 
5.398330994951911e-06 
1.227827528204107e-05 
9.981840757456307e-05 
2.514110340043026e-05 
8.74109680239936e-07 
0.0002870999993661601 
-7.405141218113467e-06 
0.0001461666738794087 
-5.690864186344396e-05 
-1.850806293432378e-05 
-5.747119847798044e-05 
-9.776342834293726e-05 
-0.0007980827976697586 
0.0003418592576988874 
-0.0002067270314082065 
0.0001823662102781587 
-3.9548743097711e-05 
0.0002656471831319695 
8.752309352501419e-05 
-5.579908085087501e-05 
0.000153138593425485 
-0.0002690244846235394 
-9.847589049691862e-05 
-6.7127355705354e-05 
1.940369646498033e-05 
-0.0001889806930405015 
0.0003630111874006051 
2.532431390757019e-05 
7.190605275478014e-05 
-0.0004380192026987469 
-9.408474940485165e-05 
8.833210130099081e-05 
-0.0001306569614076982 
-3.118658494955431e-05 
-1.226141302341079e-05 
-0.0001239433141868298 
-4.899314988397191e-06 
1.538498663729154e-05 
-7.965162731516177e-05 
6.176969284733919e-05 
0.0002261346921435512 
0.00013415902682395 
-0.0001942295991723966 
0.0003018133559807164 
8.779387381072399e-05 
-0.0002611480358368481 
0.0001890728236134141 
5.918089475852777e-05 
-0.0003981666146600843 
8.769235289058377e-07 
0.0002205416069305129 
1.906584947779387e-05 
0.0001248438249938572 
0.0003556129228412688 
-5.449680712796479e-05 
3.838535496505082e-05 
0.0001597381776725505 
2.732914807269471e-05 
-7.89190430921926e-06 
-0.0002818211962230768 
0.0001623438191550498 
2.26803275460935e-05 
-0.0001624765667446549 
-0.0001542088353011056 
6.51359479783844e-05 
0.0002280163727839222 
-0.0002090895365707316 
0.0001290055473422329 
-6.493601487120679e-05 
-0.0001640331357768057 
1.403955948133756e-05 
-4.094397919396451e-05 
8.604215031539652e-05 
-3.771395870241625e-05 
-1.148382444376726e-05 
0.0001744061312880932 
-7.508977534180226e-05 
-1.561001004556581e-05 
-0.0003986500191531298 
0.0001599547978640527 
-5.46020863587076e-05 
0.0003650735702091132 
3.174736133770797e-05 
-3.810288676604417e-05 
7.671390294301021e-05 
7.742032584741642e-06 
-2.132662537397339e-05 
6.610930860822952e-06 
8.697675344070185e-05 
5.204004844024645e-06 
-7.267909151799258e-05 
-3.126287996314004e-05 
7.264831592288616e-05 
-0.0001138234370900923 
6.947732323547412e-06 
-5.107927038848386e-06 
-3.822597252214983e-05 
-3.79408026321146e-06 
-2.147065697337604e-05 
8.260052024222793e-05 
1.746901633766734e-05 
-0.0001787753157772924 
0.0002337027855697358 
-0.0001395637107963456 
2.056587500424589e-05 
5.572880865020655e-05 
-6.688404980614225e-05 
0.0004151546086605292 
-2.154650868885235e-05 
7.400476779654424e-05 
9.945967973023873e-06 
-2.549973838388083e-05 
-0.0001153704280431463 
3.792201328989039e-05 
-4.030048897607649e-05 
-4.02145644006757e-05 
-3.843609210539619e-05 
0.0001718001144047205 
-0.0001874492412468273 
-4.992510392702909e-06 
5.096064667822646e-05 
-1.74881331705517e-05 
-0.0001120541327401031 
-8.970200588100025e-06 
-0.0002077574929117563 
0.0002005534686175772 
7.15703073741724e-05 
0.0002065802189789647 
6.1155936367741e-06 
-0.0001326602569941777 
0.000262950681407501 
-0.0003186209540465844 
2.795485302426374e-05 
4.142435941185016e-05 
-4.307945705393362e-05 
1.052525961583044e-05 
1.141169057072898e-06 
2.482103428664477e-05 
0.0002648875939605957 
0.0001811681780359657 
-7.249671140712865e-06 
-4.02145644006757e-05 
1.881755101150323e-05 
-4.626764571728931e-05 
-4.398183832063089e-05 
-2.06886103786392e-05 
-0.0001023613598213626 
7.047537005352454e-06 
-7.314257212204074e-05 
8.624051380831173e-05 
3.647922054307112e-05 
-0.0005072577987223766 
0.0003793886289933738 
-0.0002294280312024746 
3.106037798234057e-05 
-1.653231006883137e-05 
6.796844455395452e-05 
-0.0002040931020586903 
-4.051567075762008e-05 
6.503021626835864e-05 
1.513100976987331e-05 
2.914363800114049e-05 
4.131806004229651e-05 
7.741361205616672e-06 
-8.295724330135889e-05 
-7.569127441643584e-05 
0.0001932973922838355 
-8.436007829522633e-05 
7.868301427308156e-05 
1.128529020634363e-05 
-1.932223405639608e-05 
-4.549047098164157e-05 
0.0001653726097015299 
6.031326263906221e-05 
-0.0003895841080448248 
5.934799592152125e-05 
-0.000146145161939338 
-0.0001613866138142857 
0.000196832653097482 
2.836460574891122e-05 
-5.418442791998695e-05 
0.0005270817062967646 
-0.0001516775745897473 
3.628480257299052e-05 
5.618462398637509e-05 
-0.0003130213806375302 
0.0001675880253651019 
3.094461272851619e-05 
0.0001081875330013549 
0.0001306664768190888 
-0.0002995139131505505 
0.0003676927979564172 
-0.0001599365882070781 
0.0001855621655225874 
-0.0002719820798762623 
0.0003156620876766922 
-0.0002201425177988065 
-5.941672092662043e-05 
-0.0001184790961871731 
-0.0001440718792608102 
2.625166891852493e-06 
-2.90268959950008e-06 
1.152041723591033e-05 
3.005795744550259e-05 
-1.762024877861848e-06 
1.013286187626242e-07 
-1.066435296710763e-06 
6.194167554442159e-06 
2.024742005569017e-05 
-5.064334608658242e-05 
3.154484251963752e-05 
1.921435574524137e-05 
0.0002563831157268929 
-0.0002271602090804257 
-6.159864210397455e-05 
0.0001643130211322384 
-3.448783934723023e-05 
-2.237266439813619e-05 
1.383384322242788e-05 
8.121393292266373e-05 
6.145894011279839e-05 
-0.0005633482839703555 
0.0002249248791319689 
4.225031410478737e-05 
-0.0003721908274762292 
0.0005683593097504663 
-0.0001016021285110177 
-4.120718310066194e-05 
0.0001933566508714375 
-0.0001298860080829394 
-5.764814087407815e-05 
-0.000216381502328848 
-2.375323243209214e-05 
0.000104135209101173 
7.338316262920393e-05 
-9.143916818847885e-05 
-7.145791284219736e-05 
0.0003718232571481958 
-7.519826457773752e-05 
-5.77410269726766e-05 
-0.0001265919625568025 
-0.0003829776627215308 
0.0005391764686980317 
0.0002495743602724091 
5.136752713615754e-05 
-0.0002568233167799083 
2.115953779186787e-05 
3.247188662080621e-05 
0.0001347590474837716 
-0.0001018106303403456 
6.809090176254951e-05 
3.24978298995582e-06 
-0.0002526425108495751 
0.0001623494881218869 
-0.0001193600583418565 
-7.395883213572434e-05 
2.852049377648245e-05 
1.55104482751656e-05 
1.166259249913354e-05 
9.513520803706798e-05 
4.393511966038448e-05 
-1.141796757983101e-05 
4.312760321895432e-05 
-4.303761419388981e-06 
-7.367735281866764e-05 
4.477074728525303e-05 
8.352662962258612e-05 
-1.113426590235034e-05 
0.0001617507299632212 
4.463401834140619e-05 
-4.485319998212652e-05 
1.991539302356131e-05 
4.175664122119439e-05 
-4.400020861168692e-05 
5.840212761952648e-06 
3.002573728276768e-05 
0.0002868079212778678 
7.725490479349684e-05 
0.0002553936104991508 
-0.0005616226389133573 
-7.116152170632443e-05 
0.0002166366912893837 
-0.0002275167157837947 
-0.0001034211730565552 
4.723762684439582e-06 
-0.0001101091086986264 
-0.0001058446127070551 
0.0001456141350031319 
-7.857064561123184e-05 
0.0002851628537366471 
-2.384926471879812e-05 
-0.0002440540242660525 
0.000222414021593514 
0.0001879592732619415 
0.0005131676007304508 
-0.0003053692478529929 
-5.126340829901299e-05 
7.254573709686361e-05 
-1.545706743402092e-05 
-0.0001275197129341097 
-0.0003644891524954389 
-1.302994953308019e-05 
6.179869193279258e-05 
1.552750258868207e-05 
-0.0001254596148057666 
0.0001485045059727369 
8.724241570289263e-05 
-6.851124352010738e-06 
-7.206335397009472e-05 
-4.838883529087016e-05 
8.456199764717924e-05 
2.530692691943183e-06 
-6.689067502077293e-05 
-8.47052847720936e-06 
6.01254819791855e-05 
-5.471436230557661e-05 
4.660688033073133e-05 
0.0001306261323159763 
-2.04436287674544e-05 
-0.0001328577231528499 
0.0003181657348155853 
-0.0003839765634335996 
0.0001746746606520191 
-0.0002923552004782474 
3.552972386372384e-05 
0.0003562438385718466 
6.548455106971728e-05 
0.0002134420170689671 
3.421481730348251e-05 
-3.536013487975927e-06 
-0.0001462441156860913 
9.575744456680538e-06 
1.444409258118319e-05 
-1.116608140385185e-05 
-1.756881886828217e-05 
6.713478682737066e-05 
3.164941554593095e-05 
4.712231113124975e-05 
0.0001631752270154791 
-0.0001449450384299971 
-6.514906326105011e-05 
-0.0001346329306493202 
-6.228969027445925e-05 
-0.0004413290474819883 
0.000220365971036027 
0.0002488648529088816 
-5.178864951077023e-05 
-0.0001995542087592385 
3.788590529545624e-05 
8.924648751171026e-05 
-0.0002302445702367909 
-0.0001472964956084189 
0.0001101541257437777 
-5.613511247978212e-05 
-1.815784041762828e-05 
-3.209842734505523e-05 
-1.156238494814089e-05 
1.746585890620888e-06 
7.095024853951064e-05 
-4.492245583241976e-05 
-5.009789912851198e-05 
8.77992432020574e-05 
0.0002735603903809179 
-0.0002572822811720118 
-0.000103251599019836 
0.0003204905086205803 
-4.836322832963122e-06 
0.000448990436952872 
0.000207541359675819 
-5.167298628662113e-05 
-0.0001116120456584927 
-0.000548383978007968 
0.0001985808817613014 
-6.547357576744835e-06 
-5.217174100487278e-05 
0.0001162741025242805 
-0.0001190463265808016 
-7.136104532054455e-05 
-2.647392558413714e-07 
2.320931646422027e-05 
0.0002243213851462292 
1.426438217242183e-05 
0.0001915235547635154 
-0.000487898193570494 
-0.0003061874171804542 
0.0001542632877243915 
-5.658552249410643e-05 
0.0002948629044681825 
0.0005077076677541477 
-5.43755679000454e-05 
-0.0001870464644220427 
-0.000257516128882657 
-5.364594682505907e-06 
-0.0001216417833661448 
-1.721763053514933e-05 
-1.776922256730152e-05 
-1.041349001803734e-05 
-4.456171192122631e-05 
-4.025540248377769e-05 
-0.0001234359293374874 
-4.078305658074545e-05 
0.0001071223604359446 
0.0001684940322367621 
-0.0003701124306633451 
-0.000106959553080454 
0.0002099574491583832 
-3.108211831212412e-05 
-0.0002020389995289781 
0.0005100416738592774 
0.000403456466818039 
1.989707794096262e-05 
-0.0002551830411014959 
9.137595759800194e-05 
-0.0001315157622656174 
2.55167077981451e-05 
1.665279467404199e-05 
2.896517276286087e-05 
2.357279130874624e-05 
-1.686520781961512e-05 
3.786291225641091e-05 
-9.927986735010196e-06 
-9.899637499099363e-07 
-9.937240448430247e-05 
-4.883963735566326e-05 
9.86701452181499e-06 
-1.818432231686068e-05 
-1.804999746668653e-05 
-1.403682283185703e-05 
-4.269074863379766e-06 
0.000256037267055836 
-1.113323797762493e-05 
4.231445817369563e-05 
0.0001734345568897112 
-3.129182944948472e-05 
-0.000332620571997826 
-0.0002961916226015114 
0.0006215506562558135 
-0.0004179303072139592 
9.741555091203682e-05 
-0.0003076909261584301 
-0.0001928569085924971 
0.0003249125068554944 
0.000477753770380695 
-0.0002059815497133971 
9.010106802192864e-05 
-8.901575000218251e-05 
3.554823523230935e-06 
6.298815441482236e-05 
0.0002899728325135562 
0.0001151795809360613 
-1.405326130449387e-05 
-1.928885063136297e-05 
-0.0001543856615490481 
0.0004990260843272793 
-3.574630619541522e-05 
-3.228324944425636e-05 
-4.510766089645147e-05 
-2.875181202944929e-05 
-4.731453562463922e-05 
-0.0001250873409829501 
-0.0001412191873655044 
8.13741622735229e-05 
-8.643911521681767e-05 
5.621422838951935e-05 
-1.515577415254946e-05 
-1.020928454524808e-05 
-4.296284922305853e-05 
2.263120082485736e-05 
-3.725642150749587e-05 
-0.0001848213536475111 
-0.0003130258043217274 
0.0001168063320839746 
-0.0001691784196660876 
7.840960046961837e-05 
0.0002990186494260622 
-5.449009504850145e-05 
0.0005714760757446757 
3.819186803174963e-05 
-0.0001316676801271436 
6.009516200213902e-05 
-2.833226449912421e-05 
0.0003570625166818264 
-8.964503769586814e-05 
-0.0001797303903253384 
-2.219205679522406e-05 
-6.809612330626966e-05 
9.907693979753935e-05 
-0.0002336335724064105 
0.00017782754334739 
-3.325531970746409e-05 
1.962067344137112e-06 
8.57072865490435e-05 
-0.0001694392457739182 
-8.882574005342114e-05 
-1.427242527353174e-06 
-0.0001458261688118945 
5.001913188672535e-05 
5.458905479513404e-05 
-4.58931825131035e-05 
-0.000111299661193548 
3.073200145112929e-05 
-4.583842825456032e-05 
-0.0001431513431274861 
7.177883966317002e-05 
8.795255411666175e-07 
-7.245267895712705e-06 
-3.694807276731038e-05 
5.253276879500394e-05 
7.649895272375399e-05 
-0.0001527798705395523 
-5.774937125714621e-05 
-3.891901524281157e-05 
0.0004077084252194328 
-0.000236375090064428 
-0.0001733305461557567 
-8.487632450720959e-05 
0.0001641093998946883 
-8.420377746570165e-05 
0.0003981953965008214 
-0.0001829825508443602 
1.826915301995053e-05 
-1.580097317413693e-06 
3.22373173616864e-05 
-2.381664139335127e-05 
-4.941880068285284e-05 
0.0001466686769825114 
0.0002216149754671433 
-0.0001585255170232722 
0.0003496533114910114 
-0.0003175192241208449 
9.769966915440252e-05 
-0.000159521690891818 
2.810097038992893e-05 
-3.019383411752875e-05 
-1.438799914708955e-05 
-7.56460410177583e-05 
5.450364817834984e-05 
-1.529080467246063e-05 
-7.852707162027585e-05 
9.868355547634543e-06 
3.11581007338221e-05 
-4.626935889719398e-05 
3.972735103048553e-05 
-0.0002028115884820305 
-0.0001247283649084733 
7.650637948485748e-05 
-3.771221191268448e-05 
7.031350862314481e-05 
-0.0001734262400517125 
6.508370508371127e-05 
0.0002103339503861545 
-0.000531304131960325 
-4.412659316230223e-05 
8.374736028239998e-05 
-7.224544588393804e-05 
-5.058604383374065e-06 
0.0002350647731139546 
-2.676815064596153e-05 
-1.649103058095914e-06 
0.0003436419782773146 
8.896929524533329e-05 
5.344698543586832e-05 
-2.721139447616936e-05 
-3.691995426944531e-05 
-9.312759731330849e-05 
0.0002116333336753934 
4.185600623502405e-05 
2.47580005846582e-06 
4.503568211803888e-05 
-0.0001419112775041937 
3.958166593431837e-05 
-3.82187495940138e-06 
-2.079908747514127e-05 
1.633953262407791e-05 
-2.808624162011388e-05 
-3.632646870292086e-05 
-3.987016175815399e-05 
-4.734400980069101e-05 
0.0001681986173250872 
8.408505333751037e-05 
-6.321273515388524e-05 
0.0003397794872799664 
2.259812404129986e-05 
1.884283854109992e-05 
-9.948512235080406e-05 
-7.577981345765922e-07 
5.486777902490116e-05 
-5.241518249961081e-05 
-4.807743777839044e-05 
-6.904751707865713e-05 
-4.304701267061152e-05 
-5.437501542518934e-05 
-1.383798520185917e-05 
0.0002498766802412663 
0.000212129497708398 
-0.000233566436346273 
7.110426177789006e-05 
-8.141641961818041e-05 
-9.610141680009977e-05 
-0.0001218510961721532 
-5.83439406937238e-05 
0.0002620337635339757 
-0.000195522939135289 
-2.688762716946692e-05 
-0.000102946685805721 
0.0004276569955854101 
-0.0001293065781076178 
-6.274604028125767e-05 
4.210652229352856e-05 
0.0001990952957463253 
-2.997492381474399e-05 
-5.375758719078859e-05 
-0.0001459454191611638 
-1.626190717392507e-06 
0.0001187754016416535 
2.212863124507847e-05 
-3.225369952050269e-06 
1.456364854247158e-05 
0.0001445768711324887 
-2.551038250823111e-05 
-3.337272281561862e-05 
-8.332114225577237e-05 
7.150269437476394e-05 
0.0002755798500079638 
3.077475977513607e-05 
8.874884823645269e-05 
-0.0001081038733970172 
0.0001243069028058932 
2.938948819021272e-06 
-5.126412183462727e-05 
3.032358209037725e-05 
8.872225371680706e-06 
-0.0001396802480227524 
-0.0001739052043688743 
-0.0002349034509556663 
-0.0001528772526292705 
1.196524105725817e-05 
-1.492667920763142e-05 
-6.680469592091659e-05 
3.619109880622492e-06 
-0.0001028735623646471 
0.0001056124885390132 
-0.0004356088411936851 
4.616444027698843e-05 
1.811141539204738e-05 
-0.0002375715175419625 
9.233044301031113e-05 
2.903437602065285e-05 
0.0001200097646739433 
-3.672796519327408e-05 
0.0005090013820891871 
0.0002698136218908142 
1.170103641028386e-05 
-0.0001155714989379135 
-4.691100145997573e-05 
-1.299730331801863e-05 
-5.268391719106464e-06 
-5.633728989246576e-05 
-0.0003370619504161356 
-4.437803379393299e-06 
6.848974547247841e-05 
-6.039093055839967e-05 
4.162082695595538e-05 
2.754484339773528e-05 
-3.736629072831511e-05 
0.0002837705985264966 
2.935179295852038e-05 
-2.780142087078997e-05 
0.0002894295108262133 
-0.0001088851832189289 
3.181447434216932e-05 
0.0002335914124714231 
-0.0001185817418515928 
-7.743184413275996e-05 
0.0001738349142489527 
-1.294427000220334e-05 
-1.292259632466278e-05 
-0.0002131037693188979 
-0.0001305822289473761 
0.0002920797454490288 
-9.600814949533881e-06 
7.738975586412727e-05 
0.0001714234760803394 
8.954866688032676e-06 
-3.310709049305299e-06 
5.824186149337702e-05 
-0.000144641110370463 
-0.0002319625660353018 
7.360137904242087e-05 
-0.0002107462863183689 
0.0001042480220034647 
2.24601279292566e-05 
-0.0001631550814863664 
5.411349841076841e-06 
-0.000183823927739433 
-7.81675005783038e-05 
0.0006392570457712841 
-0.0004154446857630064 
-3.058398734395698e-05 
3.363434522896116e-05 
-0.0001351895378076413 
0.000197752213333498 
0.0001792308553522223 
0.0001263272233301052 
-1.396612419275242e-05 
-0.0001039363750554224 
0.0002216893558429235 
-0.000125402039763299 
-0.0004828494744558189 
-6.638580096186577e-06 
-1.029523635346324e-06 
-7.636984290779197e-06 
0.0002465590391867003 
0.0002078969699806337 
0.0002656354463517728 
0.0001038841690913482 
-3.847859573230252e-05 
-5.066171668610068e-05 
-2.372742544046494e-05 
5.892308690244311e-05 
-3.528261586183927e-05 
-7.695587080573181e-05 
-0.0003055584838718905 
-0.0002542539983977284 
-7.507552530568663e-05 
-2.187210148282108e-05 
6.795736323299238e-05 
0.000203673629130696 
-1.816158174356826e-06 
4.75560895018243e-05 
0.0001513917914125769 
-0.0002486621177438943 
1.963674241409594e-05 
-0.0002445485272880926 
0.0003853276837719445 
-0.0003880378221176884 
-0.0004095942697327476 
-6.094222809227686e-05 
-9.401864862184908e-05 
5.227862614833089e-05 
1.017222868258795e-06 
-7.494804367437377e-05 
-0.0001700792389448037 
-0.000389274363226355 
-6.308982370578836e-06 
6.924460019888436e-05 
8.952111738498881e-06 
-5.488892048569771e-05 
-1.160388338755366e-05 
9.532953401069177e-05 
0.0001367471796231402 
0.0002625882889153395 
-0.0003760734665119491 
0.0001337057258359375 
-0.0002164935240342674 
1.972606680332923e-05 
0.0002392871836251555 
9.585600747303307e-05 
0.0003910703461820161 
0.0002449702388409337 
0.0001537837867199807 
-0.0002094441575240905 
0.0004566853034826563 
9.533411209774112e-06 
6.676399650799606e-05 
-2.991165721362001e-05 
0.000414629284751013 
0.0002035461448773901 
-0.0001918439521813929 
-7.410498911363238e-05 
5.331966490943792e-05 
0.000563398640523806 
0.0004242777891665902 
0.0002794715083507195 
7.498235328060072e-05 
0.0003220954163944518 
-0.0001717373209276769 
-0.0003837283467084078 
6.387094995624118e-05 
-0.0001562187120041363 
-0.0003061740349592496 
3.969034417357483e-05 
2.490199205627673e-05 
0.0001183779761560285 
-0.0001071067313781323 
-2.209543658799426e-05 
-7.249508827595342e-05 
-0.0001326944079215822 
-0.0001117611396468587 
7.494914717712637e-05 
-0.0001609445466956937 
-0.0005911450590541379 
-4.656915557875668e-07 
3.218740153763793e-05 
-7.094088413879665e-05 
-0.000103610627606161 
0.0009715435895631735 
0.0001691841194488466 
-0.0002708243270883633 
-5.719353764086954e-05 
-0.0002887769446959705 
6.142418720423055e-05 
-1.559281072001958e-05 
-0.0003077914158859234 
0.0002239468393574383 
-9.97599425162498e-05 
-8.719516368599412e-05 
0.0001085197131953577 
-0.0003447375405721811 
-0.0001160283377304936 
-7.214929152493112e-05 
-3.767622684800798e-05 
0.0001587325566650666 
0.0002713769622813654 
-0.0001682072917089018 
7.749763737146123e-06 
2.052426292304478e-05 
6.166840245383569e-06 
0.0001518982251308235 
2.379353489354884e-06 
1.32412108859075e-07 
1.661904431594164e-05 
-0.0001708965775528174 
-2.202250206653551e-05 
6.406873598247689e-05 
-1.497583011386738e-05 
-4.088806349716461e-05 
-5.00668179505326e-05 
-9.284072052391186e-05 
-2.207061151471605e-05 
-1.028314840068493e-05 
0.0001269376907316847 
-4.839136113032671e-05 
-4.456171192122631e-05 
1.609582159520182e-05 
-2.381614140666407e-05 
2.13678701337717e-05 
-5.450305885411522e-05 
0.0001739529972771763 
0.0006819590628125224 
7.956654733995483e-05 
-9.679031431887542e-05 
0.0004877334218217271 
-0.0001994769931700836 
-0.0006885461875244497 
-0.0002172671658188874 
-0.0001450275214422698 
-8.981448274437931e-05 
0.0004631829828833674 
-9.164052013386969e-05 
0.0006248520314755342 
-0.0001200202854956591 
-8.137159136890814e-05 
4.900906040141788e-05 
0.0001792949432392989 
-7.775509564526118e-05 
-4.449560418557391e-05 
-0.0005727168415392552 
-4.260555995418649e-05 
-7.047352876867599e-05 
2.89742999335362e-05 
-6.589370230658069e-05 
0.0004586217723020159 
0.0009202029847604545 
0.0002731727248996288 
8.017827842141028e-05 
0.0002222775936384314 
-0.0001222842100365438 
-0.0003367219345393708 
3.199070354975291e-06 
-8.571961507431563e-05 
7.401160515282953e-05 
-0.0004109451714114122 
-2.338919029478211e-05 
2.350669424197352e-05 
-0.0002829552741871942 
0.0001629223234441844 
3.915577939899075e-05 
9.3371993595876e-06 
9.284869330041194e-05 
4.793518869516315e-05 
5.92153406668512e-05 
4.39627138142406e-05 
2.430350957371727e-05 
-2.98290031766038e-05 
0.0002468783467353016 
-0.0001717605550266062 
-2.139974226595901e-05 
-8.15482679579804e-05 
-0.0001048516059859274 
-0.0008404732270926118 
-0.0001634486354881349 
0.0001119137102343117 
0.0004527268516487362 
-9.478509105931134e-05 
-0.0002021323675465782 
-0.0001925803452867909 
0.0005001242484906008 
0.0006349230829357237 
0.0008731465888650447 
1.166589492196644e-05 
-0.000303103169311259 
-1.059229776359651e-05 
-0.0005007617988463841 
-0.0004162973175006607 
-2.634936415236551e-05 
-9.681945025929024e-07 
-5.987801130338999e-06 
0.0001098153690029594 
1.710755017749338e-05 
2.004795242712487e-05 
0.0001588977535389038 
-6.414695955658931e-06 
0.000104477473748549 
-7.576293398506097e-05 
-0.0001742726759829222 
-0.0002815170445936582 
1.669267265448501e-05 
2.400608823931204e-05 
-0.0003486293662143877 
-4.661873332486582e-06 
-0.0001023778230947952 
-0.0001105882591969826 
-0.0001082788335797033 
0.001352897377100045 
0.0002412703606071884 
-0.0002695458166608189 
0.0003465371882150713 
0.0003923691928933541 
7.703463912296635e-05 
-5.886990048064981e-05 
0.0002398090594142022 
-0.0003914368416411363 
0.0003233929045837701 
-0.0003724488375957453 
-7.8339190138639e-05 
-3.508377680126411e-05 
0.0001190929252457229 
-0.0001813794776151444 
-0.0001151938125365029 
-0.0002771263123220796 
-0.0001616183717945766 
-0.0003821681974148321 
9.210797566952276e-05 
-4.186110162736938e-05 
4.194572273962956e-05 
5.517604591491505e-05 
-0.0002821725401938272 
-1.213130693197316e-05 
-3.888631624446956e-05 
-9.53017517435607e-05 
6.249436459061215e-05 
-0.0001471163792774972 
-0.0001087357791075687 
-6.685231884566697e-05 
-0.0001583757432740018 
-2.962083404994942e-05 
0.0001439517396461356 
0.0002978957123812762 
-0.0001686696857900368 
0.0001907885631171752 
0.0003572602342665458 
0.0005720141179431253 
6.29975545235422e-05 
-0.0001265320554299591 
4.919535865798628e-05 
1.098202932744559e-06 
-0.0001554833700471846 
7.744900040012207e-05 
-2.539686831218069e-06 
0.0001934785041094835 
0.0001478988441592189 
-1.750434076303734e-05 
-0.0002580684426075511 
-6.635907602742117e-05 
-6.018798177919538e-05 
0.0001769092954637427 
-0.0001642947195317278 
-0.0003827989176740525 
-0.0003052069672202969 
-9.080720450382049e-05 
0.0001102935837461737 
0.0001103333678292771 
-1.122285600338107e-05 
-0.0001140097094438595 
-0.000274006344916947 
-8.37985115034971e-05 
-0.0001109693912037362 
6.501092151544605e-06 
6.18760575338345e-05 
-0.0001681326013808628 
0.0001618068504019296 
-0.0003082767919741429 
0.000444161785611432 
-0.0002717800132158268 
-5.684165002219229e-05 
-0.0001286170198310568 
0.0002038226442616604 
-4.923206268537719e-05 
-0.0001682538992317318 
-0.0001177298733245959 
-1.892434194147533e-06 
0.0008213808921918807 
0.0006506718106332539 
0.0001391643307424249 
9.241020168891705e-06 
6.118744258865174e-06 
-5.56552830583974e-05 
0.0001380040678282347 
-5.602298756116394e-05 
-0.0001418043485567927 
-5.542582302437496e-05 
-3.824225100695432e-05 
-1.061722284370452e-05 
-6.497222451376526e-05 
7.209020316998709e-06 
-0.0003808077030387216 
-0.0005094764948602418 
1.133415778471509e-05 
-8.027805711935919e-06 
0.0003147985649451582 
0.0001446536302052723 
6.075149893849148e-05 
3.384235018377669e-05 
-0.0002691532939044453 
0.0001308475431862554 
0.0009616373991496098 
-2.356758357011201e-05 
-0.0002347573449955288 
1.208366920427179e-05 
1.439912498857129e-05 
3.975913462220487e-05 
2.1465980479507e-05 
-3.418922537463418e-05 
5.569063143056275e-05 
-9.907418393080956e-05 
-0.0002847250010088534 
-8.036348065881965e-05 
-0.0001016799905125525 
-5.62032600452219e-05 
-0.0001146500578679739 
0.0002904696287085276 
-0.000443657165523966 
0.0002133663502298863 
-0.0002539086813059479 
-0.0001933387365186149 
9.52134016745241e-05 
1.992773309369569e-05 
-4.38278424792426e-05 
1.07583665801381e-05 
-4.757221397826513e-05 
-6.951296209579025e-05 
-5.018324423085112e-06 
-2.070637013766198e-05 
0.0001313975769401168 
0.0002423895380958814 
-4.232515995872226e-05 
-0.0002179238074862473 
7.917332873359008e-05 
-0.0001893493526783211 
0.0005533774990997585 
0.0004835505919269476 
-0.0001743468807768344 
0.00015106636109816 
-9.636350473134301e-05 
0.0005371526236789495 
0.0001456558827650882 
0.0002000420848340886 
-0.0001097664591392986 
-0.000291406293235974 
-0.0002831443180533097 
-1.627855762816554e-05 
-7.741753603972504e-06 
-0.0001836905501931521 
0.0001509423431144941 
-0.0002175560684593676 
-6.987795554235189e-05 
-0.0001155824428502665 
-3.002947514140526e-05 
-0.0001871082042026765 
-8.267896843490454e-06 
8.025236616059512e-08 
-0.0003081488339908313 
-3.0711889727086e-05 
2.843966170009188e-05 
-5.411056972859984e-05 
0.0001027785136746288 
0.0001540177510977321 
-0.0002459874754063711 
5.380987045815808e-05 
-0.0002020657598510734 
2.329046437236884e-06 
1.182777016198397e-05 
0.0004168715115660606 
-8.048308977784592e-05 
-3.828388083081324e-05 
0.0002166289605507252 
0.0008427968267780462 
-3.65763812947802e-05 
0.0003530930369004645 
-0.0003595243409488138 
-0.0002459260136944289 
-6.83703616810784e-05 
-0.0003806824654251898 
8.42865605523664e-05 
-0.000355479374100354 
-0.0005067003547939867 
0.0007407716023805618 
4.350069282604516e-05 
1.983645257281062e-07 
-6.947759462463215e-05 
1.315868833400212e-05 
5.591315722446002e-06 
7.088011433689444e-05 
-0.0001838857381338879 
-0.0002439429038616405 
6.923425665199032e-05 
-1.730486944963522e-06 
-0.0001446554327839158 
-5.809789505887668e-05 
-1.074201736311527e-05 
-8.098356448574292e-05 
-0.0001264878834072044 
-6.700237324095375e-05 
-0.0007233606595003963 
0.0002952839677676463 
3.705908384744647e-05 
-0.0002115254625553955 
0.0006972710099429695 
-9.779266827334023e-05 
0.000223097369606945 
-0.0001901299687648431 
-8.439067458239729e-05 
0.0002494438701354052 
-0.0001634729668719246 
9.929585905893163e-05 
6.520136526326809e-05 
0.0001376561908644477 
-8.844800724259618e-06 
-4.742570123022246e-05 
-7.632090713734411e-05 
-0.0002729966938235458 
2.373588415349174e-05 
0.0001644183621440713 
0.0001022059050577655 
4.112460597202765e-06 
0.0001983545434820252 
6.907401202450807e-05 
2.200252760473395e-05 
-9.972415786406661e-05 
-0.0002587437335688696 
0.0002085632231448015 
0.0001486098398714765 
0.0003968321641881233 
6.05726307829958e-05 
-7.611128372427676e-05 
-5.291599161563671e-05 
9.795160725514786e-05 
-0.000170579982936433 
-0.0002486043316026655 
-8.27989778953115e-05 
0.000191487098622329 
-8.958530175036351e-06 
-6.299155760187892e-05 
0.0001463011355442309 
-0.0001228525033508161 
-0.0001608160435977758 
-0.0002748172793760466 
0.0001186915797932708 
0.0007675583256413304 
-0.0003757207008245905 
0.0002283814983896764 
-0.0004011031320431541 
-4.775120973651131e-05 
0.0002581147598832927 
4.376823195415524e-05 
-8.487042317502022e-05 
-8.108103870665773e-05 
1.834866210213809e-05 
-2.725842313327482e-05 
-0.0003883178461269449 
8.197095346168826e-06 
-6.85100980180941e-05 
-7.098358656906968e-05 
0.0003004731898600595 
-5.323848176122329e-05 
1.901325960718059e-05 
0.0003100620561617147 
-6.770469602643281e-05 
0.0003379143494432443 
-0.000329685285207795 
0.0002621281332088821 
-0.000127148939722961 
-1.087482751653628e-06 
-6.994530984508575e-05 
4.530663045560836e-05 
-4.421189579051825e-05 
1.504626541612188e-05 
1.085550649982421e-05 
-2.624823335769637e-05 
-0.000114938384461237 
2.934830407263728e-05 
0.0004192649320250468 
0.0002275360971770059 
2.664221065980403e-05 
-0.0002873320044756805 
-9.282753882482693e-05 
-3.764220401165764e-05 
-0.0002270850251292419 
-0.0003099825416310651 
0.0005462820640786477 
-0.0001716965564510839 
1.731213285228663e-05 
0.0001940236349189196 
-9.602783172482854e-05 
0.0004695386794920066 
-0.0001158914948377194 
-3.465996540596615e-05 
-1.865507161607305e-05 
-5.088434695707162e-05 
-0.0003134349300991237 
-0.0001582871850671387 
-7.472322413332401e-05 
7.482221524136676e-05 
-8.839689608014676e-05 
0.0004340037846597996 
0.0003516393837332029 
9.559228158443502e-05 
-0.0001041762092003011 
-4.243921648225993e-05 
-8.047332607162731e-05 
1.422902503087355e-06 
2.538399920024329e-05 
0.0005238267085044472 
-0.0003312279338996548 
-9.938947007056546e-05 
-9.873404884047362e-05 
-8.0776826464064e-05 
-0.0001702497314479344 
-0.00013986636703412 
-6.49334883545932e-05 
-0.0001951976181961279 
-0.0001249601848170961 
0.0003653036279600884 
1.964611607375819e-05 
-2.879686429862244e-05 
0.0001885633831053104 
0.0003336180688316644 
-8.369075364573316e-05 
4.028202622827646e-05 
0.0001902354878392305 
8.333104323010735e-05 
-1.650005376050639e-05 
9.670875579424661e-05 
-0.000212063219657282 
3.688949356453814e-05 
-0.0001073909148488776 
-3.188006895292917e-06 
5.759806580522369e-05 
-0.0001921557195212091 
-4.162424067277192e-05 
4.352847160857415e-05 
-8.282810366293087e-05 
-0.0003383256170274557 
-0.0002052910872275388 
8.537079278368771e-05 
3.044238634653915e-06 
-0.0001359187650027025 
0.0001860359299974127 
-0.0002277860569717855 
0.0003971507398905797 
-2.949046681516679e-05 
8.280540974680385e-06 
9.759271839730041e-05 
-8.922073840841589e-05 
-4.121280493274027e-06 
-0.0003090156201750944 
-0.0001179394788162992 
-1.826379338723958e-06 
0.00011704857872664 
-4.306141081863941e-05 
0.0004012681595293527 
5.003517686116057e-05 
-7.912676160917541e-05 
0.0001307360439365223 
-0.0001813093817734029 
0.0001988180881246531 
-0.00017928180429998 
-0.0002595768159385704 
0.0004421742617082274 
-7.732994955816564e-05 
-0.0001420546593710861 
-0.0004972433335312402 
0.0002825709100710133 
6.725854296135699e-06 
-2.371756458959153e-05 
0.0003768221479001263 
-0.0004054137202495507 
0.0001046507866971378 
-0.0006079411062337043 
6.585650968626898e-05 
-0.0001509137368184724 
-2.49570252051525e-06 
4.810551503542209e-06 
0.0007056264265366438 
0.0002392099376932668 
3.181901587000711e-05 
-1.044103964881036e-05 
-0.0001837609758284155 
-0.0001209394651733225 
9.052797335677208e-05 
0.0002298483263141409 
-0.0001213938623638427 
4.35271786332744e-05 
5.108283674581201e-06 
2.382787635654747e-06 
-0.0002005017408738553 
0.0003482833427783727 
-0.0002108930299728027 
9.40553075830813e-05 
-0.0005104595070953567 
-0.0001030406293566411 
0.0004738676391649112 
3.137622574517268e-05 
-3.567245630800097e-06 
2.287074160591431e-05 
-0.0001407630688297447 
-2.347252527982632e-05 
-0.0001291651381200968 
-2.758615412686885e-05 
2.858320807293305e-05 
-3.592447130610719e-06 
-4.824224431987182e-05 
-8.118624394769109e-05 
-4.031656087663113e-05 
0.0001913164742663562 
0.0004210041262821949 
4.910835807234659e-05 
-4.897622055027301e-05 
3.548107014062028e-05 
-0.0001398087071558036 
0.0001366945633773607 
6.167843599617822e-05 
-0.0001294621553761568 
0.0001912521852461272 
3.861745426004219e-05 
0.0001945718923402752 
1.506451615847424e-05 
-0.0001844189391942943 
-0.0001067933000061636 
8.557685808215378e-05 
-9.879686617621239e-05 
0.0002571249913608228 
-4.064166149754691e-05 
-9.313367383479304e-05 
-9.993872994930498e-05 
-0.0001571903951400968 
-2.913590318024089e-05 
-0.0002787672108368416 
0.000252834979459191 
-0.0001685010079607897 
8.559028218566951e-05 
9.876447611119708e-05 
-2.884336213085826e-05 
8.208535332315351e-05 
-0.0001072359225422998 
-1.808113028449783e-05 
-3.127361140064861e-05 
0.0001348153539176517 
-1.055162892792473e-05 
-3.800821338754445e-05 
0.0001953950610134006 
-0.0004996722187922994 
-0.0001694441334372234 
-0.0001198139710766132 
-2.590486337358564e-05 
-3.798495666998582e-06 
-9.150881391212855e-05 
0.000110131403616206 
8.752367663731835e-07 
9.86761008251058e-06 
0.0003680019542981677 
0.0002980381322362202 
-0.0001879914699043684 
0.0001003330326940464 
-3.325545170925806e-05 
-2.68417792706379e-05 
-0.0003332491553940659 
-3.646468591358339e-05 
-1.106885726216703e-05 
-6.773849520627534e-05 
-0.0001831791032027789 
-0.0002272010772232818 
0.000372325290848661 
-0.000112807531547862 
0.0001767215408458487 
0.000315990936505712 
-3.827091651900361e-05 
0.0001096739112905053 
-0.0001210080538349848 
0.0001269189084268112 
0.0002494110269783657 
5.06142299241302e-05 
6.979984258323558e-05 
-1.921331598695282e-05 
6.603687232637745e-05 
-0.0003290796718480304 
-8.762954414864556e-05 
-0.0001246241525471203 
-1.305432489360458e-05 
2.724531414993897e-05 
-1.09945119692996e-05 
6.409838635185567e-05 
-3.505907309904978e-05 
3.125540557681563e-05 
0.0004792194166762316 
-4.854587146475637e-05 
-6.235353807804156e-06 
4.045032535120815e-05 
5.446331927686949e-05 
-0.0003943964573464373 
8.293182012276073e-05 
7.858344870981551e-05 
-0.0001712846511154495 
0.0001417802356613008 
0.0002423361160577156 
5.469341840799456e-05 
-7.703299557292937e-05 
-0.0004101476314993973 
-3.991074670872326e-05 
-5.629361645080078e-05 
0.0001527184923366855 
4.056740027968016e-05 
0.0002922938993451286 
-1.823471511972298e-05 
6.254674679802402e-05 
1.543290006228214e-05 
-6.369323007887293e-05 
-3.983641594148886e-05 
1.268982447456567e-05 
-5.022743018330881e-06 
0.0002626367691335452 
0.0002650937364041153 
-3.076868386480766e-05 
-0.000220031321196922 
0.0001429969872646436 
-5.174133247276604e-05 
5.369114483843322e-05 
-0.0001014547405073397 
-0.0002131424824924372 
0.0001365290694280732 
-0.0001250175892470053 
9.165444060361498e-06 
-0.0003262533259858013 
4.974320265397632e-05 
0.0002381202470507217 
-0.0002264998662839466 
-0.0001154578838660475 
1.376697773809386e-05 
5.360801324935153e-05 
-1.051137189501414e-06 
-4.469458080109093e-05 
-0.0002276728907836907 
0.0003702755107435325 
1.921736122654857e-05 
0.0003796953178431888 
-0.0002953831853853643 
0.00013454288679366 
-0.0002444245395165136 
0.0004773976999865016 
0.0004529996462412809 
-8.986400188109027e-05 
1.655626199333027e-05 
-0.0002152052885243232 
-0.0001505680465439352 
-2.211760598918688e-05 
-7.463465654511251e-05 
6.910901375383921e-06 
-2.746168333382798e-05 
-0.0001295862940423335 
0.0001492927795194286 
-0.0001020871302319144 
-4.146018775011352e-05 
1.31201099535183e-05 
-0.0001946664197347524 
0.0001798691841264802 
0.0002972812479891211 
2.932757899039245e-05 
-0.0001976846818341001 
-0.0001051186964702257 
-2.264601123312931e-06 
0.0001094454170346986 
0.0002684872568290867 
-0.000335270554275079 
-0.0001652459223079736 
4.898690137103412e-05 
0.0007499061534594459 
-0.0004488357984572908 
-0.0001481632545536789 
-3.543779190526004e-05 
-0.0002418629461999298 
-4.951238017994696e-05 
-6.66856111462598e-05 
-5.01740152261403e-05 
0.0002213679076265239 
-7.876219852820125e-05 
-2.85149653256115e-05 
-0.0006476134139305953 
4.614906260955308e-05 
-8.299915006355099e-05 
3.102782158922393e-06 
-7.150683341958213e-05 
0.0003415782036138979 
-2.991977765126019e-05 
0.0003390369331563768 
0.000317038211331212 
-7.167157913875018e-05 
-3.084314258480219e-06 
-0.0003688420153633608 
-0.0002734212936341692 
0.0006338029147894296 
-0.0003396263356847121 
0.0005833880863705683 
-0.0003347642071840295 
5.875618415272218e-05 
0.0004666017029878211 
0.0001115530668968138 
0.0002034893379040039 
-0.0002853137342404954 
-0.0004096784300252342 
0.0002164810086065091 
-3.890821715436271e-05 
-7.108391580008282e-05 
-5.97543229543495e-05 
-6.659562524267347e-05 
-3.757053751355596e-05 
1.094041297058884e-05 
-2.33774078946198e-05 
0.0002239185363432334 
4.833251406322721e-05 
-7.172078107481561e-06 
-4.518444440867505e-05 
9.236000748661551e-05 
0.0004169787683033441 
0.0002158588436798858 
-0.00010746857892027 
6.814696120582424e-05 
-6.719685417303292e-05 
6.288869573294129e-05 
3.365193770873945e-05 
-9.68017644011127e-05 
-7.936419179800144e-05 
-0.0002530273540973747 
-0.0005663104490131644 
-0.0005089032798075188 
0.0006110809257552937 
0.0004914675162690951 
-4.914552932166672e-05 
-5.291109068475174e-05 
-7.44637649630804e-05 
-7.21240078085338e-07 
-2.720783703788684e-05 
-2.843796705239248e-05 
1.655709760066581e-05 
-0.0002491941274183121 
0.0001736720438978588 
-8.708988988205017e-05 
-6.782242027772068e-05 
-0.0001227646807755675 
-0.0001967576466038473 
0.000410091292402819 
-0.0002319217066536865 
-1.588302936152527e-05 
-0.0001752932909997075 
8.684851478529807e-05 
9.472441035190251e-06 
3.971961451519634e-05 
-0.0002329920303449628 
0.0001104514968586353 
0.0001010609164231106 
0.0003815171889700022 
2.665984639531582e-05 
-5.765992350408208e-05 
-0.0001543962972894072 
0.0001389712291640157 
0.0004258337329297142 
-1.802820790599482e-05 
-3.623780543270175e-05 
-2.974754858568037e-06 
-0.0001156715987509365 
8.947969780756286e-05 
-7.512735826358526e-05 
-0.0001605051171500312 
-7.401477039458644e-05 
7.526801855569715e-05 
7.477260597653598e-05 
-0.0001790147315575952 
-0.0003926547201995852 
0.0003767769478051953 
5.833194431721859e-05 
-0.0002391168471817207 
7.782495209743307e-05 
-2.624522213457827e-05 
-4.32932095733274e-05 
1.223469460565486e-05 
-6.204300779504499e-05 
-0.0001108369173216011 
0.0002471588280620709 
0.0001307286171354989 
-9.243436493842943e-05 
-0.0001982655325635762 
-7.487260202290033e-05 
-0.0001301549220263826 
-6.48576920251101e-07 
8.219112838139784e-06 
-1.398817188770629e-07 
2.542886439516588e-05 
-0.000183712673402685 
0.0002514142410122404 
5.152466422449985e-05 
0.0003070492092485029 
1.549869720192343e-05 
0.000363778454132506 
-2.759525470353974e-07 
-9.287804535343791e-05 
0.0001420661248815224 
-6.404133471620654e-05 
-0.0001079228261346576 
-0.0003579289800591208 
-4.869949542034004e-05 
0.0001106033976679822 
-3.574422448217218e-05 
-8.840821497955033e-05 
-0.0002461147757878214 
5.673807862062832e-05 
7.67290604588655e-05 
4.327000030706621e-05 
0.0001767751414740189 
-2.653874971595168e-05 
6.969295439173208e-06 
-3.701335447991927e-05 
0.0001034717068289647 
0.0001629049978658634 
0.0004444551206723808 
-1.903061097623454e-05 
0.0001792298916679161 
-8.136127212330117e-05 
0.0001524930917297287 
-0.0002076383921540471 
-3.452833845093684e-05 
-8.169496400193482e-05 
-5.906673528277283e-05 
0.0002482631789282951 
-0.0003653407796320852 
-8.970729969815056e-05 
0.0001910948377481256 
-8.044970190369877e-05 
-0.0001043273007576991 
0.0001446704949883632 
-6.459112064195416e-05 
-6.744167173109271e-07 
0.000298285239820148 
-7.938339116631993e-07 
-0.0001290907924392912 
-4.079128379250796e-06 
0.0006684530391098345 
6.969124344261499e-05 
-3.900707778688596e-05 
-7.366480332570497e-05 
7.835540120951832e-05 
-0.0002300126393320672 
-2.185092961892434e-05 
-0.0001318144721194305 
-0.0001270956922257037 
-0.0002443364675464857 
-4.028235651347049e-05 
0.0004012348230906606 
1.751582483120749e-05 
-0.0001960174946179823 
0.0001370799832788576 
-0.0002275278614380864 
-0.0003451423110740469 
0.0001542445076749392 
-6.462079116328038e-06 
2.037143027583864e-05 
0.000317389069995831 
-6.862578500776246e-05 
-1.834982490155695e-05 
8.680493874930807e-05 
-0.0001283410260696786 
-0.0001251385513525587 
-2.163397413489003e-05 
-6.362380172219321e-06 
-2.544885422832576e-05 
-0.0001505770904140907 
0.0004385348430348224 
0.0005317523067769704 
-1.664022210677063e-05 
-4.134214669671491e-05 
0.0001283984402633166 
-0.0002083431231589005 
6.653189852082555e-05 
-0.0001347920796775423 
0.0002409884675233549 
-0.0001657068650874114 
3.571868190413518e-05 
-7.474245681054399e-05 
0.0001402200394361215 
0.0001246943829057102 
0.0001061873627787515 
-3.828919314706588e-05 
1.76844592043245e-05 
-6.375552407109178e-06 
0.0001421047550763021 
-0.0002092312245905721 
-8.640279630308411e-06 
-1.112012278434787e-05 
3.400961511950233e-05 
-0.000232088874841552 
-7.758224527566655e-05 
-0.0004724431906856172 
-0.0004247904496599215 
-0.0003181081953051829 
0.0006852832779854065 
2.038158188237739e-05 
-0.0001101795839754194 
-0.000260548911332282 
0.0004362847442176563 
-0.0002039278224190622 
0.0002807467068440691 
-0.0001687239968037438 
-0.0005522080026522505 
0.0002343055194540241 
-9.654559640887361e-05 
0.0003095717695480221 
-8.262463355547875e-05 
0.0003748466044251182 
-0.000162073674988941 
-0.0001408911364245304 
-0.0002492486463890837 
0.0003822445331359636 
0.0002465151100910096 
-6.09031723718243e-05 
-1.414992736642976e-05 
6.285867025301784e-05 
8.683700373116752e-05 
0.0001030143326100195 
0.0001977907002623957 
-0.0001876474265774759 
-0.0003828138020155614 
-7.69133655277512e-06 
9.323887879586532e-05 
0.0001196556119037727 
-6.681556374214754e-05 
-7.430973023095156e-05 
-5.750481949796548e-05 
9.685369226873896e-05 
-5.180148942548887e-05 
0.0005281397758054083 
2.470698017803652e-05 
-7.496827795045866e-05 
0.0001144976579873636 
-9.13723763223108e-05 
0.0004825873081635554 
-0.0002935588740118968 
-0.0001607808281360865 
1.859308493524647e-06 
-7.88073918735266e-05 
-1.814419710997864e-05 
4.216379133109236e-05 
1.413081852766914e-05 
0.0001616391329030968 
-8.484992447753993e-05 
6.248512457566211e-05 
-7.484279617498213e-05 
-0.0002425471114588539 
-9.487269816427084e-06 
0.0001306835693953972 
-6.823980611808141e-05 
-5.386718111173246e-05 
-0.0002143453197305507 
-0.0001288433481682926 
0.0001068238899968338 
0.000293420701032398 
0.0001843658785055389 
4.404342874786017e-05 
-0.0002907104017422774 
-0.0002817504804340078 
-0.0001466978717120611 
0.0001561381275203484 
7.463247194159587e-05 
2.132439956713114e-05 
6.555322500067003e-05 
-0.0002056159766920304 
7.685334429818086e-05 
0.0001419521035346061 
-0.000185326853329164 
-2.782489522508062e-05 
-0.0001580592038061434 
-6.129965799449561e-05 
0.0001556518184765937 
-0.0005284844457164487 
0.0006893161295942762 
-0.0003927033347012942 
0.0002462085801552456 
0.0001108918574738101 
-5.622594262767135e-05 
0.0004984209479129885 
-0.0001877269800759017 
0.0001326507173617106 
-0.0001151010154657935 
-2.910943765077405e-06 
-7.125853870789878e-05 
-3.297256494454006e-05 
-0.000156024837778217 
5.102062254035238e-05 
-6.408726230026092e-05 
2.864822367242784e-05 
0.0001036060664392408 
-9.10643267974263e-05 
-0.0001839633207033635 
-5.047818096731949e-05 
5.528177523087778e-05 
0.0001025162875090694 
5.504151476562353e-05 
0.0001039026969740666 
0.0004243720561864987 
0.0002506447724280123 
-4.744095787288728e-05 
-4.949705942844109e-05 
-0.0001056745568694025 
-6.892310755556072e-05 
-0.0002435419540848108 
-2.063349713141384e-05 
-5.922618682983429e-05 
-0.0002091472100591106 
-0.0001319004062225129 
4.943838855077311e-05 
0.0003500066260446559 
0.0001198848130066473 
-0.0003117365652201818 
0.0001429261769496816 
0.0002261604509488707 
-0.0003405434059385849 
0.0002911311977529143 
0.0001275792446466374 
-1.177380341129068e-05 
-0.0003713575301426091 
-7.437439822151284e-05 
0.0001576523608790376 
-5.87276444824107e-05 
-4.811459288244103e-05 
3.199202444982276e-05 
-4.867248525988398e-05 
-8.267247533599664e-05 
0.0001561555970078219 
-0.0001815033959490926 
-3.292932172434712e-05 
-0.0002779312941608318 
3.776352304200522e-05 
0.0001392087696186986 
-4.873040087281882e-05 
0.0001725364188416446 
8.287496213738522e-05 
8.732412003271013e-06 
-1.864006732536635e-06 
0.0007062643490136237 
-0.0001093457109640754 
7.189735222131774e-05 
0.00017887513655506 
-8.096626488848612e-05 
4.50942648339382e-05 
4.759038683108685e-05 
-0.0001350364675875901 
2.52916803066459e-05 
-0.0001120120542148545 
-0.0003415299928573422 
-6.277467910504305e-05 
-9.701635430137006e-05 
0.0001070155475630815 
-0.0005334856486363554 
0.0001536871880715972 
0.0003000729242312906 
-4.909800028798548e-05 
-0.0002036445675252593 
0.0001189486968506848 
-9.314055429067108e-05 
0.0002425957452571932 
-4.199781714693707e-05 
-0.0003344996596770687 
-0.0002116436454368596 
9.45174792166834e-05 
2.953461998857354e-05 
0.0001266268654282465 
9.152658941871279e-05 
0.000146801855256855 
-0.0001207275386131251 
-1.782347455402023e-05 
0.0001803782175580527 
-2.696555424491444e-05 
-5.801028313257796e-05 
-4.196960157307261e-05 
0.0001190351713734107 
-3.749263332578808e-05 
2.537891737308789e-05 
0.0001067953808646739 
-9.886232031788114e-06 
-3.727782290456126e-05 
0.0001448475136138768 
-3.518450728688101e-06 
-0.0001596719255934036 
-0.000255265328755267 
-0.0001136036305881094 
-4.5108827893274e-05 
0.0002396332357891447 
0.000215111243875867 
-0.0001954353495437121 
0.0001600542048752281 
-0.000163584578001197 
4.28526778539021e-05 
0.0001149626935477438 
2.903943941479186e-05 
0.0001840486704346581 
-8.217290460047679e-05 
5.655732178732824e-05 
0.0001447877334124263 
3.004821141795254e-05 
-0.0001539195781150413 
-0.0001517589398004726 
-0.0001025996277266636 
-0.0001259361356472392 
2.162642921744634e-05 
6.948160160316044e-05 
-4.460544373396816e-05 
-0.0001088484272825384 
-2.246223971320653e-06 
-8.945529573063562e-05 
-0.0001055391899358931 
0.0001131970407770351 
5.111519064553456e-05 
-5.001337020051781e-05 
-3.93018514555188e-05 
-5.042705082768738e-07 
2.381326234956217e-05 
0.0001763667633583286 
0.0001433785651071019 
0.0001749639136273866 
-5.088854932643503e-05 
7.066534709170094e-05 
0.0003621794199765574 
-0.0002011254375959758 
0.0002411970932974828 
-8.89865601971339e-05 
-1.043070067598754e-05 
0.0001071770449754574 
3.252069265751507e-05 
-0.0001075294365535996 
1.589387240835945e-05 
-7.888097793104581e-05 
1.172961996292113e-05 
0.0001091473200343968 
-0.000107979977458461 
6.550418821363714e-05 
-0.0004012789918477636 
-2.907854870197149e-05 
4.357937767235395e-05 
0.0001729838119245584 
-0.0001691779930668071 
0.0001434183428330388 
2.780954727971079e-05 
-4.566927137426303e-05 
-7.207452618192496e-05 
6.605373460314299e-05 
2.883097477809582e-05 
3.456870890314358e-05 
-9.373324988229032e-05 
2.967002865368154e-05 
-0.0001054587152304064 
-2.472866904946253e-05 
4.268791433101621e-05 
-6.7492139937518e-05 
-2.400578322669023e-05 
4.661195874993729e-05 
4.741882804413161e-05 
2.038972713000447e-05 
-0.0002379865911632639 
1.538305487591212e-05 
6.1539350578763e-05 
2.32885495628851e-05 
-2.692357195076623e-05 
-0.0002161479976904656 
0.00015954559173937 
0.0001389191940178112 
-3.380169550738692e-05 
0.0004152617186245649 
-0.0001638167474367527 
-1.130448475595786e-05 
3.837995761432608e-05 
4.067410620438079e-05 
1.826641802390057e-05 
-7.33724615821743e-05 
-0.0002504507859306936 
-2.495987190551285e-05 
0.0003062679721314928 
1.383331534224206e-05 
4.04701236065873e-05 
-3.401639772220246e-05 
-0.0002555888400472672 
-2.998517460531631e-05 
-0.000163638923750653 
0.0001120085092112848 
0.0001847170756047076 
-0.0002866944011236883 
-2.642417012720111e-05 
3.023618832281891e-05 
7.502857281399941e-05 
4.197815581542371e-06 
0.0001161515479965132 
6.478416304285859e-05 
0.0002106966408891678 
-0.0001457735036953823 
9.175306828406876e-05 
-0.000125557765770803 
9.545731994391025e-05 
-0.0001616047381755722 
-0.0001435373742900365 
-4.057625456160119e-05 
-0.000101600429057045 
-5.392729237063228e-05 
8.385233903741454e-05 
2.064812416635854e-05 
-3.158702040014281e-05 
-1.738058459097824e-05 
-4.930718989542702e-05 
0.000150675495422456 
0.0003115292281499072 
-0.000149591655927557 
-0.0001930349931314985 
-1.389669945610121e-05 
4.982585722917627e-05 
8.083172335736884e-05 
0.0004395282973287735 
-0.0002644536212908226 
4.923529614783196e-05 
0.0003534561836198129 
-0.0001637847157200989 
3.183333006035329e-06 
-0.0002935875196001009 
-0.0003615283820696904 
-1.748663225304925e-05 
3.689242975104448e-05 
3.364429208160553e-05 
0.00010616535150737 
-0.0001147705926158494 
8.472402892979863e-05 
-5.423635893091612e-05 
1.188767999932564e-05 
-0.0001117486288887125 
4.556336804806856e-05 
5.284048823591471e-05 
0.0001456451281852938 
4.165654707335099e-05 
-2.526418588087833e-05 
-0.0001460216324725643 
1.258890802547333e-05 
9.779876510171663e-05 
2.491344410433844e-05 
2.001212211714581e-06 
2.756507383988559e-05 
-0.0001512473797647573 
8.74184152258624e-05 
0.0001770972162823407 
-2.259747276446435e-05 
-0.0001178714434064303 
-6.566791151531721e-05 
0.0003702549745035546 
0.0001499886911021951 
2.062853523270997e-05 
-0.000106601033638961 
0.0001332766660797371 
-0.0004677574017715357 
4.932469363053529e-05 
-0.0002863581729963103 
-0.0001639201733258742 
7.820960716023167e-05 
1.997548758088008e-05 
8.681866037421258e-06 
-4.315990726723923e-06 
-0.0001300324969883083 
0.000145229566835382 
0.0002122272607647686 
-0.0001558263256274084 
3.309692312307629e-05 
-3.629080803409255e-05 
-3.281402914709004e-05 
5.279914437357862e-05 
0.0001556657884968791 
0.000127566164327624 
4.719227124162859e-05 
7.510176909018335e-06 
-0.0001337666540159616 
-5.017723069380322e-05 
-1.58043077626034e-05 
0.0003653300446707441 
-0.0001017137767882259 
-7.189051136049944e-05 
0.0001406055411164494 
7.944446804421509e-05 
7.960355026543869e-05 
4.518935915130754e-05 
-6.353222093018479e-05 
1.511357881879968e-05 
-3.91530365436391e-05 
-0.0001348939024369545 
1.88916858380581e-05 
-8.067101029138389e-05 
-0.0001852701014187058 
-7.740540714344485e-05 
0.0002091579904030332 
0.0004334954110658197 
7.31403810333902e-06 
0.0001969123214965869 
7.00230249084093e-05 
-6.289209608359017e-05 
4.312308768493688e-05 
-0.0002954428843118476 
-0.0001159773474255847 
-7.733254922756996e-05 
-0.0003495586910459217 
-4.523763072327831e-05 
-3.607875785017056e-05 
0.0002850567110235012 
9.486625143916842e-05 
-3.703440240029949e-05 
0.0002284285226539309 
-2.095182859992714e-05 
0.0001277403855391444 
-9.613178426407479e-05 
-0.0002170911311643546 
0.0001492228473191406 
0.0002636314966922289 
1.338248361579207e-05 
1.355392595621229e-05 
-2.572848360958811e-05 
1.446266516741418e-05 
0.0001221685490395712 
6.27879624756987e-05 
-0.0001952237782959858 
-0.0003450945608098282 
0.0001638139980928691 
-0.0001219378427765877 
-0.0001268392483863345 
1.317131485594994e-05 
-0.0001431834189201589 
2.307478703474231e-05 
-0.0002252110271432108 
4.64926876944222e-05 
3.237533827902219e-05 
0.0001593025788018499 
-9.784910323911779e-05 
-4.733846363331863e-06 
-3.12005429504353e-05 
-3.54589970319943e-05 
-3.266551404985375e-05 
9.383194275397591e-05 
-0.0001724472335259925 
0.0001337188096524159 
0.0002542072812999701 
0.0001337595442114469 
8.480720682234189e-05 
4.432018964574926e-05 
-4.580518113957245e-05 
-8.778438088111197e-05 
-0.000193398741144956 
0.0001223271143072939 
-0.0001705707765111285 
1.583742483432322e-05 
-6.310032336666402e-06 
-0.0002416017613034573 
0.0002963566325550123 
6.565823771913091e-05 
6.953244236499778e-05 
-0.0001159611407647398 
-0.0001155851082053152 
0.0001132437030530732 
6.710739791117872e-05 
-3.241629414501592e-05 
0.0001884574936228727 
-8.748975115430578e-05 
-0.0003608591613055995 
6.427505711980734e-05 
-0.0001400188294299992 
-9.556480716989334e-05 
0.000354183878898193 
0.0003407150246543569 
4.064281443897312e-05 
8.089711312637686e-05 
0.0001747209560960418 
0.0001769877172049939 
0.0001824910694490588 
-0.0002247696806793442 
5.479310101194496e-05 
-0.0003050776693522189 
-0.0001613350601342005 
-9.868514351452736e-05 
-2.238193044204827e-05 
0.0002762938951535859 
5.630349668067638e-05 
2.544080162857753e-05 
-4.863591033850266e-05 
7.607654811743617e-05 
-0.0001743998923484043 
1.928805120767702e-05 
-1.307916234284938e-05 
0.0001278581147041784 
-0.0004884200436692948 
0.0001060692662747623 
-6.624038892706592e-05 
-0.0001372492273923356 
-0.0002353852513375117 
3.022989329524998e-05 
-9.066350085761247e-05 
1.988197485844576e-05 
1.340405910635946e-05 
0.0001024994003296505 
0.0002455818890778752 
0.0001712165442028012 
7.903450462989053e-05 
1.754846759820489e-05 
0.0001214973450396927 
0.0001865862875739303 
1.899636210982261e-05 
-7.081147225314282e-05 
-3.103380748200586e-05 
-0.0003018414823398469 
0.0001545042955060096 
-4.687832388651869e-05 
0.0002039812476969234 
0.000102316309386367 
2.643312898244013e-07 
0.0001458716619042146 
2.542690417420638e-05 
-7.271537790827956e-05 
-2.264175282550448e-05 
7.26874204266907e-05 
-0.0001487747916739029 
6.058158592922941e-05 
0.0002548906788643716 
-0.0001693554170694953 
0.0001567474777429618 
-0.0005711700113496162 
-0.0002101147299337433 
9.633412226603625e-05 
2.508444436152164e-05 
9.924368746384834e-05 
5.38754948311866e-06 
-0.0001160598838596437 
5.22954226583784e-05 
0.0001134911648893248 
-2.725532329454295e-05 
0.0001658011183344203 
-3.001780252901922e-05 
3.445551967926237e-05 
8.244697459536141e-05 
2.141498831399417e-05 
4.270258007780203e-05 
-0.0003288141067838235 
5.185631542591298e-05 
1.039586693683563e-05 
-0.000308893054118099 
1.224837093991781e-05 
3.785643644157553e-05 
0.0003584127998833198 
-1.588011113409314e-05 
8.959647166820413e-05 
-0.0002373933015456707 
5.430542631781027e-06 
-7.554271743724483e-05 
-0.0001012168056390977 
-0.0002068654166867747 
7.081037144527524e-05 
-0.0001758248003614749 
-1.090401819722282e-06 
-0.0001675034618109515 
-1.408728872165913e-05 
-0.0005661852890562302 
-6.100373205677455e-05 
0.0009791699761725267 
0.000241014235552836 
5.169663796607539e-05 
-3.604225795691745e-05 
2.02063191554872e-05 
0.0002742088931528444 
8.629142709193554e-05 
-2.958785660580227e-05 
0.0003078165818017952 
3.890413186738572e-06 
-4.743866183235654e-05 
-0.0003127990414437154 
-0.000122207161950898 
1.077402350784279e-05 
9.140497645168918e-05 
0.0001253844581472193 
-7.638361754854942e-05 
-2.663093106372694e-05 
-0.0001598209226966996 
0.0001425286132520218 
-2.748054230171815e-05 
-0.0001155091637426957 
9.163096315875213e-06 
6.343433051500533e-05 
-0.0002564169878730099 
-0.0001703326673490422 
-6.872541609140484e-05 
0.0006852362654509883 
-8.904974855858719e-05 
-0.0002138730008528287 
-9.096435350002552e-05 
0.0002443167056114144 
-0.0003725920604615797 
-3.605089829225272e-05 
7.229826403692814e-05 
1.578311777358602e-06 
0.0001246939582308316 
7.088787147453601e-05 
-0.0003188339092302173 
-7.811708362040292e-05 
0.0006110315521310665 
-1.933432940496181e-05 
9.452828275703735e-05 
-0.0001471546526668343 
-1.050644055559914e-05 
4.460157938734491e-05 
-9.28557023604298e-05 
8.704740820615946e-05 
-8.884543541194239e-05 
-8.991584005325598e-05 
0.0001435752793441668 
-4.935050448525199e-05 
-5.415673743408432e-05 
0.0001519185526540596 
0.0005070673368192276 
5.051922436575476e-05 
4.055314815742215e-05 
-3.200886040611206e-05 
-0.0003381153125185583 
0.0003250034663272329 
8.866215087880598e-05 
-1.783767282972524e-05 
4.335861284176039e-05 
0.0001451634884868614 
-0.0006324832929969334 
0.0001666895183589098 
-0.0003966150287306319 
-8.470626847963685e-06 
0.0005453077441668518 
3.324629057006084e-05 
-0.000180734315833105 
-5.276570057878159e-05 
-0.0001238668081569833 
0.0001058095024862387 
-1.820963897762584e-06 
-0.0001761099586012732 
-7.308655805838149e-05 
-5.299003452598539e-05 
0.0002995602568351267 
0.0003730780519272498 
-8.179767413304199e-05 
-0.0003061026629263513 
-0.0004251354538830978 
-0.0002276343220945352 
-8.3642844771359e-05 
-3.952328513392538e-05 
-8.260663146697107e-05 
0.0002064911158674332 
-4.257480915616903e-05 
0.0001649984567620524 
-1.657411779363036e-05 
6.765756934826997e-05 
-0.0001822794902068403 
-0.0001096498766992462 
-0.0001604614004774172 
1.74636224971824e-05 
-0.0002602363341327101 
-1.403506653932232e-06 
0.0001098736121619058 
1.83896861160831e-05 
-1.719604181103139e-06 
0.0003056068977677033 
4.310267352368561e-05 
2.906978902329367e-05 
5.940274321887989e-05 
0.0002110814432598258 
0.0002718461338963838 
-9.078562409377512e-05 
5.697960397469645e-05 
5.4479550730614e-05 
9.710670159222936e-05 
-0.0002281628458244815 
-4.505585768763439e-05 
-5.991336986752464e-05 
-0.0004103032684037414 
-0.0001735773035369717 
-6.972904590401225e-05 
3.403084086275525e-06 
-5.733964665742702e-05 
-0.0001958521626949905 
-0.0002915311334303185 
0.0003989566201236605 
0.0003644073897971923 
9.244013613565175e-06 
-0.0002360921374681765 
-0.0001230901382603862 
0.0002239376280146025 
-0.0001484244271391122 
-0.0001074896191602577 
-0.0001638646355872813 
-2.558438741836842e-05 
0.0003231148313864587 
5.800284187558021e-05 
9.993565162660128e-05 
1.727460993808496e-05 
0.0004418056886625137 
-5.603124063720494e-06 
0.0001467915219612113 
2.678523086836467e-05 
-4.417118018042892e-05 
0.0001900229028575582 
0.0001698455145278877 
-0.0002071222424410002 
4.485158016533991e-05 
-6.296930667742358e-06 
1.817281889553853e-05 
-5.044596779786676e-05 
-0.0002143829006110512 
-5.761079815491481e-06 
0.0001766823248456596 
-6.148826194047127e-05 
6.876201413889146e-05 
3.129449702153763e-05 
0.000250032121062128 
0.0003358359434454238 
-7.638005560900214e-05 
-0.0001072147847780341 
-0.0004163938303739297 
1.735149400537406e-05 
-1.269210611395979e-05 
-8.401826510169874e-05 
5.475454615894762e-05 
8.486047476284222e-05 
-0.0001898636577766424 
-0.0002326837164601709 
5.07254401658229e-05 
-0.0002069507865011251 
-0.0001602843091028799 
-0.000230099256359613 
3.81621060909662e-05 
9.378317937977799e-06 
-3.333526757460731e-05 
0.001014188209650627 
-6.293726601168705e-05 
1.966296259684268e-06 
0.0002136488265981488 
-5.982269211351945e-05 
5.44981983988195e-06 
-4.510716473941425e-05 
-4.239205299064321e-05 
0.0002474330111500997 
5.437224751987573e-06 
6.170729082994084e-05 
0.0003039532036955905 
-4.72022137882568e-05 
0.0002170125611370779 
-0.0001287359702337748 
-2.145803869778588e-05 
-0.0002521144794662325 
9.015512221932175e-06 
-0.0001212887249674369 
-0.0003884902061117219 
2.377217636871537e-05 
-4.411908047428534e-05 
0.0003909399848321211 
-0.0003257483584430459 
-0.0004630929333584159 
-7.381512692298908e-05 
3.483766715331923e-06 
7.671654269744534e-07 
0.0001794210004939426 
0.000393804680023284 
8.943505831946512e-05 
0.0002894188570125212 
-0.0002908581435078143 
-0.0001384924525002109 
-9.583133458631998e-05 
0.0001440240762864922 
-4.747056694208996e-06 
0.0001243843516505161 
-8.983334217555544e-06 
0.0003024047530900731 
0.0001651384271905843 
4.612294170378834e-05 
8.145675097737577e-05 
-9.333321343805898e-05 
1.438163939841572e-05 
5.410506849051374e-06 
0.0002042858391872635 
-9.299292011059196e-05 
-7.027962811411493e-05 
6.791844768722362e-07 
0.0001096601146863301 
-4.399157237223582e-05 
8.23872967231896e-06 
-9.84046911004153e-05 
-8.65917604382396e-05 
7.890630477448215e-05 
-1.321464965507438e-05 
-3.643573828112021e-05 
-8.973311457097596e-05 
-0.0004369030443770861 
-7.861849511286984e-05 
0.0001489940589797891 
-0.0005869159755203351 
0.0006678817685121127 
-5.701648249637622e-05 
-0.0003215841230667097 
0.0002074440133242175 
-0.0001099102326904221 
2.877293210826544e-05 
-5.496560704471606e-05 
-0.0002204756168217648 
0.0004303956520786359 
7.561827263238995e-05 
-5.092812522337477e-05 
7.427929869500648e-05 
-0.0001257747689720761 
-9.808047075857807e-05 
-9.498545131754924e-05 
-0.0001356013737075756 
7.251136265668074e-05 
-0.0001328673670985541 
-4.152769155095674e-05 
-5.953678547383005e-05 
0.0001616281886782 
4.171779108285401e-07 
5.029890430107679e-05 
-4.155945395518549e-05 
6.74605675174944e-06 
-2.726449458673558e-06 
0.0001963696542261765 
3.49084589331205e-05 
-0.0003615544828547183 
0.0001519216820229808 
4.79956986720567e-06 
-0.0002009941493468181 
0.000489468004934545 
0.0001369769040701025 
-0.0001031794050222586 
3.660132717475327e-06 
-6.602403044823187e-05 
0.0001195801602190425 
-0.000228733889518689 
0.0006331906940563365 
0.0003062002251582413 
0.0001485121421180925 
1.697043072710074e-05 
-0.00012393506534944 
0.0002855796061076171 
-9.024768576648863e-05 
5.794280100010637e-05 
0.0001915507333929799 
-8.301873680692599e-05 
-0.000186699932773595 
-9.383408860485106e-05 
4.430054420480435e-05 
2.915289460914404e-05 
0.0002523305015750408 
-2.796769146836812e-05 
3.753170720003358e-05 
-0.0002314088253437783 
-0.0002113915949322323 
-0.0002233164865680913 
-0.0003541362710458636 
2.431230015279733e-05 
0.0002077150015064856 
7.898320446236755e-05 
-0.0001728199916608897 
-0.0002319275527972636 
6.061215274898225e-05 
-7.251020425142404e-05 
-0.000288119313979812 
4.44864690103577e-05 
-0.0002309040002377575 
0.0003433158797695389 
-0.0001163689477643711 
0.0004610971651875671 
-0.0002443512956854589 
-1.794398100293096e-05 
-5.534968695218654e-05 
-2.847784528960405e-05 
-8.696503251434494e-05 
-9.045921603315474e-05 
-3.235904554095373e-05 
1.024314064817024e-05 
4.478315849254765e-05 
5.147819912964792e-05 
0.0004302319599824414 
-0.0001245553166658653 
-2.766662668093394e-05 
-0.0002233997333737203 
-3.22080977053024e-05 
-2.454524523361288e-05 
4.00514841434497e-05 
0.0001396397879769663 
-0.000156882869292794 
2.158628102847563e-05 
0.0004802238828478167 
-0.0001791991929527414 
-6.864666718814457e-05 
6.564469893524366e-05 
3.761419504256368e-05 
-0.0001838171632791349 
0.0001337647338971674 
-0.0002551948100407548 
1.885889400921283e-05 
3.814865846467697e-05 
-2.762857783315134e-05 
-8.732490463939521e-05 
0.000232363172612988 
5.576295696599912e-05 
-7.85890334881487e-05 
-0.000132775286836073 
-0.0001673092397204398 
-5.508980807551738e-05 
-3.674708329617614e-05 
-0.000129185540869039 
-0.0002261932013354938 
-0.0002014793087626369 
6.169664544316291e-05 
-7.566445438150932e-05 
6.334314678557119e-05 
8.220789484153673e-05 
-0.0002614659436889208 
-0.000227655057573634 
0.0002389960411643147 
0.0001354234989623839 
0.0003212761471176339 
0.0005542060988343521 
9.196659339764128e-05 
0.0001858718294283498 
-0.0002344691597698238 
-1.16777562188864e-05 
0.0002478640017334204 
-4.43072714271098e-05 
0.0001005193128538027 
2.001510813822034e-05 
6.308864169739138e-05 
-0.0002194600780438571 
-0.0001047402234550631 
0.000470887040641697 
-0.0002078735068164873 
-4.849579527141672e-05 
6.435989772993666e-06 
-3.796718277193732e-05 
0.0001950019689832876 
-6.917250387151148e-05 
0.0001115610696194574 
-0.0001347308929708997 
-9.847147584763305e-05 
-1.444685004239412e-05 
7.710108586001058e-05 
-1.066542933496307e-05 
5.111318571142611e-05 
-0.0002166648684996241 
-7.521838443817186e-05 
-1.126216666711594e-05 
1.610039762274162e-05 
-4.341881094792276e-05 
-1.807749330665772e-05 
-7.439653920222539e-05 
0.0001326617298798215 
0.0007823523343835824 
-0.0002950011562314005 
-0.0001203053572785006 
-0.0001126778948898604 
-9.822409665805748e-05 
-2.208659349485908e-05 
0.0001091161300665978 
3.90487674538024e-05 
1.680114154751477e-05 
3.70455839335782e-05 
-2.994025218800758e-05 
-0.0001351579398710711 
3.291890576646449e-05 
1.269749907130869e-05 
