solver_type L2R_L2LOSS_SVR_DUAL
nr_class 2
nr_feature 25998
bias -1
w
-0.0001069358308816461 
6.760061825507869e-05 
-0.0001848016171871821 
5.745273097529799e-05 
7.349551902831246e-05 
-8.97990438234101e-05 
3.119064527573281e-06 
-5.348533687691592e-06 
8.662665251452445e-05 
-4.953387874514218e-06 
-3.184427279060609e-06 
1.010765342611544e-06 
6.961361003042941e-06 
-3.974259780460285e-06 
-1.022915056229474e-05 
2.612433459021163e-06 
4.47383299730214e-05 
-1.404485845726591e-06 
-1.992213282088005e-05 
-2.802545656941498e-06 
-8.893978304642179e-06 
-1.445586117400687e-05 
-7.576698814054307e-07 
6.079348806175603e-05 
1.732891883396458e-05 
3.580864111858911e-06 
8.759945018921638e-05 
2.081872516948355e-05 
8.860650915101738e-05 
-4.731250796605144e-05 
-3.685165694094705e-05 
-5.507546354240435e-05 
-3.559405368714051e-05 
-7.155882362143862e-05 
2.150784793000348e-05 
1.150916580482141e-05 
1.981072212406298e-05 
8.333678288610858e-07 
-1.111826195019592e-05 
5.103852043070188e-06 
2.778476684872341e-07 
-5.422780284847232e-06 
-3.529867028753231e-05 
-4.891492789054431e-05 
-1.659689066793431e-05 
5.238681640654196e-06 
8.616402246512294e-05 
-5.614372636594399e-05 
-5.958085541689088e-05 
2.90563357868758e-05 
6.764421273052726e-05 
-3.629844632899781e-05 
6.06913675690401e-06 
-7.509096137108716e-06 
-1.926871294615918e-05 
7.849015138072962e-05 
-4.466714035959105e-05 
-6.741242065222229e-06 
5.390418633663651e-05 
6.819439364287515e-05 
0.0001353289505269447 
-1.735477276923583e-05 
-7.289979711053549e-05 
-1.852179939074186e-05 
5.102463002724654e-05 
-8.135330274289967e-05 
6.851285238124538e-06 
-0.0001304976942534835 
-2.610527802534432e-05 
-3.819029713336448e-05 
0.0001223310047910098 
5.100219636289858e-05 
-6.357336383902135e-05 
2.06171903617854e-05 
-4.855489855349202e-05 
5.690858571201802e-05 
-1.440986028841828e-05 
-1.785684924861021e-05 
-2.841529659324488e-07 
7.323768158264746e-05 
9.935853971830195e-06 
2.883600843786892e-05 
2.295669336974228e-05 
-1.682924696192918e-05 
0.0001553633719683921 
7.954224884892111e-06 
-1.565405256321122e-05 
9.826824582267271e-05 
-0.0001001070077497637 
8.772304891679432e-05 
-9.77954420315232e-06 
-3.752981712054756e-05 
1.105313347418151e-05 
-2.924330946831616e-05 
-3.448301534520386e-05 
-0.0001139685870728994 
-9.116171009246008e-06 
-3.465098968832901e-05 
2.548720061708284e-05 
7.954871258370762e-05 
8.05659402982422e-07 
5.613875703904578e-05 
-6.694116021878712e-06 
-9.97185021087684e-06 
-3.907591836272327e-05 
7.128221678770416e-05 
-1.830444920209676e-05 
-5.307975605374187e-05 
-5.506233516995244e-05 
2.744341333470785e-05 
-5.419918621020325e-05 
-1.254426335190729e-06 
8.50215874824726e-06 
1.263619487910299e-05 
-4.378770620778346e-05 
3.238324078098882e-05 
-5.804757463728495e-06 
1.43351812049608e-05 
6.938968695087062e-07 
-4.579067241743132e-06 
9.675702074546639e-05 
0.000102139651595217 
5.256257667708228e-05 
-3.945762330789312e-05 
-3.480764221483026e-05 
-2.136896565991977e-05 
-3.13576210862731e-05 
-9.250042243287785e-05 
-6.499627232338524e-06 
1.432671493094276e-06 
7.666431575227115e-06 
1.407942422739288e-05 
-4.738331090376884e-06 
-4.799842013235049e-05 
9.612906638362633e-05 
6.007894023826592e-05 
-4.828777548181807e-07 
-2.823580547478396e-05 
0.0001043377281986935 
-3.082534801589494e-05 
-7.853060910201546e-05 
1.460279343796258e-05 
-1.253184278009774e-05 
9.220390989684607e-05 
7.020606827497036e-06 
-1.464704383626949e-05 
-3.610327833852411e-05 
-1.757634312571121e-05 
6.051804088074271e-06 
-2.059875534403315e-05 
-1.733582930899797e-05 
-7.216064197751169e-07 
3.573223204058852e-05 
-4.92728639013793e-05 
5.843909950290083e-05 
1.801803815719161e-05 
-5.278179653511937e-05 
4.100561966952907e-06 
-8.877506754753072e-05 
1.340501529221952e-05 
-4.567229065949801e-05 
2.044985993247029e-05 
-4.249605155333322e-06 
-2.256409183839443e-05 
3.726935933490671e-06 
1.939966095264272e-06 
5.311050607456893e-05 
-8.801634656216618e-06 
-5.877956144754183e-05 
-4.48437693045294e-06 
-7.01237073714053e-06 
3.855574669849144e-05 
-1.872373123663048e-05 
-7.884873035025977e-06 
0.0001264315386413792 
-3.626697551498822e-05 
8.30929276777377e-05 
3.223025523545657e-06 
-3.648792745124066e-05 
-1.557911499834396e-05 
9.887727028260822e-05 
3.760292079253369e-05 
-6.627948616616155e-05 
-3.086219307525691e-05 
4.912032749547044e-05 
-6.6986716729633e-05 
-2.998095686626779e-06 
-1.271952116431789e-05 
-2.277078931848467e-06 
2.841818240325148e-05 
-3.482380772642105e-05 
-3.545287702322275e-05 
6.941487132971405e-05 
3.018314589184014e-06 
1.842528319425433e-05 
-9.168951826755497e-05 
0.0002635046148869196 
-6.649314079561466e-06 
-6.57070076212215e-05 
-0.0001251895864357623 
-1.649744477033355e-05 
-5.546108010969791e-06 
4.136702058570396e-06 
-2.618187402752888e-05 
-2.189652778509911e-06 
-2.893322779716693e-06 
7.745178686443839e-07 
4.98422439443856e-06 
-2.804727541329862e-05 
-1.220792359506905e-06 
-5.767430568249556e-06 
-2.042370043151104e-05 
2.376865555981173e-05 
-4.709312105409486e-06 
3.356425261555661e-05 
-8.92593328678866e-05 
-7.453519858666169e-05 
5.071084569435399e-05 
-1.277088182848988e-05 
1.691677883911517e-05 
5.249820982428726e-05 
1.133321873693637e-05 
5.289488984019506e-05 
-1.024749113293386e-06 
2.609896327704341e-05 
-2.879799291029362e-05 
5.176639892267866e-05 
-1.640213566749445e-05 
-3.246884085967284e-06 
-4.100353613098151e-05 
-0.000108188200022563 
-6.277412470094001e-05 
-2.177049790052386e-05 
2.787506244271954e-05 
7.62788596039812e-06 
-0.0001014091120097936 
-9.532533280048273e-07 
0.00010953029374968 
3.547602692053566e-05 
3.133609832655811e-05 
2.044038659759706e-05 
-4.001957374731754e-05 
0.0001244359360018888 
-0.0001088948005107067 
3.892205927174991e-05 
-1.283162089575299e-05 
0.0001038949705006585 
7.671399942275661e-06 
-5.412617608381019e-05 
2.826881910107083e-05 
9.905044717284177e-06 
4.661693290850366e-05 
-5.184441781626099e-06 
-1.947213058938824e-05 
-1.861660100181629e-05 
-5.323198871457119e-07 
-8.976188466585741e-05 
5.080594834269334e-05 
0.0001439151783676877 
-4.800792513948009e-05 
4.171416494050123e-05 
4.977026121504851e-05 
2.189890088769472e-05 
-5.221201201218996e-05 
-7.829368992076264e-06 
4.593533395795643e-05 
1.212289460191882e-07 
2.968285280376241e-06 
2.795760077136804e-05 
-2.832694154826532e-05 
-1.581972472021221e-05 
-1.47717224219721e-05 
4.003471241449048e-05 
3.013504455092398e-05 
2.618849520550457e-07 
1.17070845581474e-06 
1.366827904439466e-06 
-9.523363459526795e-06 
-3.712890707073389e-05 
-6.307042521606308e-05 
1.786940911743877e-06 
2.783904724897693e-05 
-4.424523292500116e-05 
-8.585740425515e-05 
1.450986816831496e-05 
-7.128600292728193e-06 
-6.947145019059405e-05 
9.660590298026214e-05 
5.158823355756798e-05 
4.415642469650718e-05 
8.321224362121888e-05 
-7.749957606593464e-06 
-9.716468218869573e-05 
6.536305731840353e-05 
-7.612244239125523e-06 
-1.562039011831919e-05 
2.083228531630292e-05 
4.188586898326019e-05 
7.999204059231105e-05 
-0.0001336736806909384 
-7.771657495714749e-06 
-4.661795140430224e-06 
-4.56663036039506e-06 
2.476800797954003e-05 
5.739798579754315e-05 
-4.740908492707811e-05 
-5.038832730877789e-05 
-3.092118042201288e-06 
7.483537823859456e-06 
7.166511481297864e-05 
-4.724503774143212e-05 
-5.323271776184019e-05 
-4.118689689556491e-05 
4.009401260871966e-05 
9.485011237060586e-06 
-4.082773101211855e-05 
-9.662561040776171e-06 
0.0001090921883659616 
-3.233105264222606e-05 
-7.717657011249131e-05 
3.695310564342734e-05 
-4.058786119940013e-05 
-1.054564748386555e-05 
-6.906524826719172e-05 
3.651991856521835e-05 
4.690521261230546e-06 
-1.154598413835617e-06 
-3.456542031189778e-07 
1.676266336180549e-05 
-3.212240249534258e-05 
-3.858586194358627e-05 
-3.259736402093604e-05 
2.320821894151923e-07 
3.407742753415816e-05 
5.835101432170497e-05 
2.242505884143961e-05 
8.255985817144868e-05 
0.0001905715998646244 
4.629529931164312e-05 
-0.0002071148738392927 
-1.089937144757536e-05 
1.295264368845222e-05 
3.072890869523156e-05 
-2.559556450675168e-05 
-3.193339366746631e-05 
-2.040662291084577e-06 
2.149136776805708e-05 
3.439633980329128e-05 
-2.610719827645368e-06 
4.288141599100347e-05 
-6.409772690167785e-05 
-7.694939711686658e-05 
-2.434572325010259e-05 
0.0002005615059383475 
8.155710712454229e-06 
5.570206214065187e-05 
2.25094811076149e-05 
1.246495414822807e-05 
-4.693319393704628e-05 
-1.959413226919773e-05 
-9.092294506114357e-06 
3.284066476342624e-06 
4.413653132175546e-05 
-3.767459022766802e-05 
-5.894852019284262e-05 
-0.0001914277651623358 
-5.432863752227449e-06 
1.322591201095121e-09 
-2.371568912469429e-05 
-4.873368299572494e-06 
-6.727588907307466e-05 
7.624447802514964e-05 
2.509603839133648e-05 
-8.555868366225779e-06 
-2.364135735755817e-05 
1.699450052843319e-05 
-9.89872395958182e-06 
-3.896587224218433e-06 
-4.267994209999017e-05 
-2.97355302087093e-05 
4.833127905747633e-05 
-1.833190473311269e-05 
4.985992346954042e-05 
8.835496722225718e-05 
3.547358900682177e-05 
1.639667785950822e-05 
-1.702368607850948e-05 
8.328743095072587e-05 
-7.325097644192557e-05 
2.182452161108293e-05 
2.040866602525167e-05 
0.0001133722013061015 
-1.831077766137863e-05 
2.076624273308666e-05 
9.052878691736649e-05 
0.0001441005773412879 
-5.8008574420752e-05 
-7.019563450017634e-06 
-9.726771597834686e-05 
-0.0002050484283593669 
9.154763546453124e-06 
-5.361717681460338e-05 
1.590618201022544e-05 
-2.696323666063695e-06 
1.45054233543312e-05 
3.732566126721513e-06 
1.5691762047182e-05 
6.852766135401108e-06 
-4.592260800837534e-05 
3.404863150224754e-06 
-3.549218280822441e-05 
1.38640348076908e-05 
9.068400377309375e-05 
6.993456031988455e-06 
-0.0001011256935074057 
1.34780698469391e-05 
-4.983980522041002e-07 
2.909086662184914e-05 
-2.617599736488638e-05 
-1.284495512431943e-05 
1.291812408456613e-05 
1.686315602132205e-05 
-2.267395498936205e-06 
-1.051384697251115e-06 
2.427233584916147e-05 
-2.616070881952959e-06 
2.009317921575872e-05 
-2.676382361227836e-06 
-8.520318171476106e-07 
-1.095230643887383e-05 
5.99561233923558e-05 
-2.847769390150514e-05 
9.465500288447337e-06 
2.468658620099692e-06 
-5.412168202669617e-06 
-8.706640671087407e-06 
2.615720723033333e-05 
1.60678968353414e-05 
-3.710105909289532e-06 
-2.072918666052767e-05 
7.59171402125035e-06 
1.301353786262065e-05 
-4.19390541603009e-05 
-3.515294929070062e-05 
-0.0001069561714163896 
7.462898259911616e-05 
0.0001498596828754016 
-0.000125785195681837 
-3.715851392932076e-05 
-0.0001521975913786484 
-0.000123748671704661 
0.0001381697072112043 
0.0001630388738887596 
8.434120160820588e-05 
2.193560357856384e-05 
1.469352393698903e-06 
-7.966624681502403e-07 
1.805372379307093e-06 
1.457056018273892e-05 
1.308561047650181e-05 
-1.40728720079563e-05 
7.409423097201933e-06 
-4.770917654025735e-05 
8.006305821686791e-06 
2.660607359947106e-05 
-1.670096951039197e-05 
1.093429540010178e-05 
1.084432965018535e-05 
-7.283684823596434e-06 
4.284605964537439e-06 
-6.075191841849665e-05 
-1.669480666905938e-05 
3.889751604817785e-06 
-6.389370781624642e-06 
-3.76752438392004e-06 
1.448000742220481e-06 
8.93189094325389e-06 
-8.304108975101546e-06 
1.530928657751067e-05 
-1.486149614226753e-05 
-0.0001726275286353035 
3.610818869523903e-05 
2.138534997249088e-06 
-6.666864462001201e-05 
1.915786795092907e-06 
8.87186650189377e-05 
0.0001328750294835343 
-3.957349451460801e-06 
4.582180539087138e-05 
-4.458068126498493e-06 
2.813719796233792e-05 
-2.012261004030275e-05 
3.973990584718027e-05 
-3.480617163202765e-05 
-9.48803427874183e-06 
4.208644642298546e-06 
1.453784833513615e-07 
9.557433666396791e-06 
-3.963130974140087e-06 
-4.969539602533575e-05 
-1.52164097765485e-05 
4.609568736068539e-05 
1.497948053736113e-05 
-9.72665964350489e-06 
-2.357359786400898e-06 
-2.199855863437811e-06 
-1.461997035150119e-05 
1.44793859943793e-05 
1.308437938545804e-05 
-1.998840084935634e-05 
4.846018987353152e-06 
-2.73130558066376e-05 
-4.531378018474217e-06 
8.03634492115771e-06 
1.278233698446641e-05 
-5.145630886793983e-05 
1.612358162213574e-05 
3.114481697977161e-05 
-4.851811124984167e-06 
1.011553168956013e-05 
-1.149879478426574e-06 
-1.251687593567573e-06 
1.09877005652984e-06 
7.904395078112323e-06 
-1.175764325832379e-06 
6.008698573576899e-06 
-1.118044596430666e-06 
-6.304679170656807e-05 
-1.328904532963429e-05 
2.618032389497606e-05 
5.498300821788815e-05 
-7.581685980221913e-06 
-2.358942884482194e-05 
-1.566554832513516e-05 
1.425198417420462e-05 
-2.821254042988146e-05 
2.294648271682692e-05 
4.038290221341419e-05 
3.927532991226974e-05 
-4.262929918915432e-05 
-3.092286566388882e-05 
-1.919301743469842e-05 
-5.631446800546648e-05 
0.0001003879352667531 
-6.895032692410673e-06 
-3.572231608673836e-06 
-1.212535909671354e-05 
-8.063729657683993e-06 
8.421124644870542e-06 
1.295659401785707e-05 
-4.923509095408082e-07 
7.698759959515547e-06 
-1.037342970140891e-05 
4.500510944246119e-06 
-2.62825360365096e-05 
3.354906826420215e-06 
0.0001224903224771865 
5.339757449847285e-05 
-1.563437262943653e-05 
-3.810812579283999e-05 
3.547988683210849e-05 
-2.410732373034134e-05 
3.35007989418027e-05 
-6.569600615576384e-05 
1.95303711459701e-05 
-2.582651885995948e-05 
-2.001931832644906e-06 
2.213421733718125e-05 
-3.501925942369184e-05 
-4.068915844387619e-05 
-2.303015240297517e-05 
1.737562591153072e-05 
8.308962378352949e-05 
1.34003410682652e-05 
1.295771919260117e-05 
-8.672798122057136e-05 
7.39682187680593e-06 
-9.908640821506872e-06 
-4.499967518950826e-06 
-5.718648458933681e-05 
-5.885289307513575e-06 
5.639483586849364e-06 
-3.237568117213155e-06 
1.706889215503889e-06 
5.565115891549471e-05 
5.264197586216493e-07 
-2.562507332852193e-05 
2.487699023383292e-06 
-1.028245535894187e-05 
8.898297798267039e-06 
1.234804850699748e-05 
-8.230924299572775e-06 
-1.264853575942524e-05 
1.016067809159615e-05 
2.973926560958815e-06 
-3.902135272627055e-05 
-0.0001446635287657863 
-1.513157327945368e-05 
8.641960260142295e-06 
5.89167911735992e-05 
-0.0001270187348880062 
-3.967412056412436e-05 
0.0001561066610046492 
-4.118692152179286e-05 
6.832547817653996e-05 
5.656685012956494e-05 
0.000104786044341507 
8.710839812454543e-06 
-1.874393651618941e-05 
-5.731706596817553e-05 
1.709108562616188e-05 
1.925214401260526e-05 
-3.604831917706218e-06 
7.298428309893136e-06 
-6.438630920329381e-06 
-1.350803434854488e-05 
1.011204634346575e-05 
2.146114123206244e-05 
-1.193272974954266e-05 
-2.273071597348693e-05 
-3.020832280006314e-05 
-2.611697267501421e-06 
-3.948570436864387e-05 
6.295657335117896e-06 
8.96800779649061e-06 
-1.216769899374497e-06 
5.381984260335363e-06 
1.220666454749806e-05 
-3.816283673063084e-05 
-6.538236873221227e-06 
0.0001978390656835307 
3.886297138529548e-05 
2.949758841290966e-05 
-0.0001568527070689893 
8.362756984774686e-05 
0.0001318892577073439 
-6.491760313959464e-05 
-5.232777856556611e-05 
-3.933906399562926e-05 
1.795930989247776e-06 
6.570646265777258e-06 
6.074129123954841e-06 
1.466053006592423e-05 
4.315245899234219e-05 
1.117515209481422e-06 
-2.059438145515116e-06 
5.673568793845643e-06 
-6.396089250673282e-06 
6.895913028663345e-05 
2.875745791375238e-05 
-7.460779513699099e-07 
5.058030314090403e-05 
-2.79515117262188e-06 
-6.341890837383182e-06 
-1.048456635444032e-05 
9.64373557327211e-06 
2.652702956921584e-06 
-8.371778009204627e-06 
3.936308959170747e-06 
3.466734327859824e-06 
-3.323623997151957e-06 
-5.565462771864488e-07 
5.425140403191865e-06 
-4.342771431542061e-05 
7.028210669977566e-05 
4.648048935794699e-05 
6.763986269994621e-07 
-7.23427941478417e-05 
-4.163213549341733e-05 
-2.142398414111416e-05 
-0.0001106560804876201 
-1.190860873027685e-05 
-2.851916759422915e-06 
-4.851811124984167e-06 
2.643277218656484e-06 
1.59175153458926e-05 
5.348937054194452e-05 
5.29333356657522e-05 
3.129269350208721e-06 
-2.510011344526016e-05 
2.507030486129801e-05 
-0.0001444543219354345 
6.143760271536912e-05 
4.812193779159298e-05 
-1.540731194682127e-05 
5.663834340916795e-05 
-4.769910427555379e-06 
3.99158986065789e-05 
5.16645398512121e-05 
-2.273606070710185e-05 
-2.117556436265381e-05 
-1.600551893765106e-05 
7.0384051707846e-06 
-1.980270550685178e-05 
-1.30649749102008e-05 
1.330211283793238e-05 
9.418989320058642e-06 
-4.25115578360162e-05 
-1.382063857398446e-05 
3.717340956337163e-05 
2.058404231597303e-05 
8.797677169322455e-06 
-9.083440369570777e-05 
-4.424634417895318e-05 
4.430482750604419e-05 
6.378963341114281e-06 
5.171438500772487e-06 
-0.0001117879618469459 
-2.918264677425726e-06 
-5.938466930231392e-05 
-7.927059891461033e-06 
7.137355163937083e-05 
-6.369125009316749e-05 
-1.154759003497068e-05 
5.822639280153103e-05 
-4.195477173173046e-06 
9.34020833789152e-06 
4.316295029408553e-05 
9.71600510742051e-05 
-0.0001364353164016768 
-9.722830125027758e-06 
-4.351843563063025e-06 
-2.981680206782014e-05 
6.132040654126624e-06 
-2.421788591936863e-05 
3.848666040529351e-05 
0.0001239084195769511 
-5.561204349257933e-06 
-5.754898445772282e-06 
1.92291459530243e-06 
1.612030721376338e-06 
-1.053900486847532e-05 
1.226925354322476e-05 
-3.476858322354181e-06 
-2.477908522501027e-06 
1.012196403028007e-08 
2.127897908474105e-05 
-7.804777685402699e-06 
1.496363988208725e-06 
3.145517665888395e-05 
-3.580664954219174e-05 
1.116500552176307e-05 
1.806831359975684e-05 
-1.547470024216651e-06 
1.304740144755215e-06 
1.179310714612537e-05 
1.685130118933948e-06 
-0.0001019814088793999 
-5.016127634040363e-05 
3.416749042947699e-06 
2.931478627424851e-05 
0.0001453302433612122 
-5.494567669594161e-05 
3.181006643042294e-05 
-7.837641989047422e-05 
3.217641456192572e-07 
1.462838953530273e-05 
1.412541087215872e-05 
-1.842056189285753e-05 
-6.684210700576527e-05 
4.217529746521915e-05 
-3.63402164820974e-05 
1.160969257215174e-05 
4.706429448672278e-05 
2.538246375689583e-05 
1.618577983636619e-05 
-1.752434181198707e-06 
2.375225253324347e-06 
5.307996756127998e-05 
-3.849955823930191e-06 
1.186472358392328e-05 
-8.18199972416227e-06 
1.99672593160967e-05 
1.046364985972122e-05 
1.072916614735849e-05 
-1.150020799016671e-05 
-1.911350379947663e-05 
6.946092216400905e-06 
0.0001015275611302984 
3.361373341190019e-05 
-1.197721883622931e-05 
-1.530034579399488e-05 
-4.15117673418949e-05 
3.289042761776413e-05 
6.770061429104726e-06 
5.005994187881286e-06 
5.565099244786114e-05 
-2.629234575926973e-05 
-8.514577570762762e-06 
-5.114849181158916e-06 
3.382035285442384e-05 
-9.495859838876902e-05 
-3.658524389584662e-05 
-0.0001941096798088709 
4.576736856305781e-05 
5.159485050016114e-05 
2.867410904504614e-05 
-8.08836382455419e-06 
5.639050824741717e-06 
2.285013261603759e-05 
-1.66512907566235e-06 
1.457469966164045e-05 
1.584660036612976e-06 
-3.855764882178007e-05 
-2.580633575675072e-06 
2.744135889084121e-05 
2.04392099293291e-05 
-1.610265927807102e-05 
-8.997688833961676e-05 
0.0001278150881371957 
-5.085074779618988e-05 
-2.291527365799789e-05 
1.236922122168274e-05 
-0.0001334593806569881 
3.46108077575881e-06 
-3.558773469154481e-07 
-3.174987555477791e-05 
-1.11194195152099e-05 
0.0001244506831570956 
5.34620088451851e-06 
-2.552083901619246e-05 
1.175156643927309e-05 
7.58564444517405e-06 
3.18282471228162e-06 
7.358377874974229e-05 
-7.805924243790267e-06 
-7.460779513699099e-07 
-2.428296354323072e-07 
-2.783118629743016e-06 
-9.495781178483811e-06 
-1.124754669815579e-06 
2.899592806255032e-06 
-7.658238094073203e-06 
-1.520541089292119e-06 
3.137743949853483e-07 
4.021744946855655e-05 
-2.227503481403247e-05 
1.919279467787967e-05 
1.269792146837453e-05 
7.487056873281218e-06 
-6.039692053236089e-07 
1.385550379679808e-06 
3.241187404220114e-05 
-2.072447280544773e-06 
-5.113545138784018e-06 
-5.431901267140729e-05 
4.443523776320569e-06 
-3.058988021909509e-05 
0.0001606302238071864 
-1.131878158727146e-05 
5.354597642065215e-05 
-1.299248277564711e-05 
4.011181963432406e-05 
4.532754603340023e-05 
-4.719330977909779e-05 
-4.299297382484403e-05 
-0.0001563521499369374 
2.037835562403031e-05 
2.685765853724378e-05 
-8.886269706621443e-05 
5.222735877300932e-05 
-3.156036571399827e-05 
3.461203388943846e-05 
3.404110660465685e-05 
-5.941006302833157e-05 
-5.875711033766815e-06 
-7.538129421419344e-05 
-1.743277354136138e-05 
-2.031196191016541e-05 
6.546430650591013e-05 
-0.0001046435290528685 
2.701399033841157e-06 
5.802048558343916e-05 
1.93639150867954e-05 
2.442924971359347e-06 
-4.566422474577839e-05 
2.662615301012589e-05 
2.971216396387788e-05 
2.375225253324347e-06 
-2.821209592483355e-06 
1.271772295682836e-05 
-5.418467218017255e-06 
-6.029014491996389e-07 
-4.215359474709169e-07 
2.901977154842862e-06 
-3.525513686239919e-05 
2.556404490211346e-05 
4.7639290542514e-05 
6.023740159967528e-05 
-4.670510664458625e-05 
9.586015335509761e-06 
5.439910470929162e-05 
-1.125811276240704e-05 
9.30821613414736e-06 
6.633723906297116e-05 
-3.878340110337202e-05 
-4.90535089766369e-06 
1.569137422116148e-05 
-1.797017770179972e-05 
5.448954854123566e-06 
-2.146316993302113e-05 
4.133314341701855e-05 
5.614631397018895e-05 
2.599140767779047e-05 
4.095592841152643e-05 
-1.147321989168868e-05 
-2.235152986636274e-05 
-2.161971269463677e-05 
-5.263804990715106e-05 
-1.136920999095773e-05 
-2.239872742461531e-05 
2.488441356896423e-05 
1.516923787209624e-06 
-2.016288061593381e-05 
-2.531226434517217e-05 
1.894669946224503e-05 
-1.763504157913961e-05 
-1.145360425486582e-05 
4.224443477659292e-05 
5.90152397017279e-06 
1.103949121960089e-05 
-1.11430017396852e-05 
-2.271630600158413e-05 
4.303128039493916e-06 
-1.101066723904068e-05 
6.777572671570283e-06 
-1.867679705529914e-05 
-2.631932166332054e-05 
5.402412571866018e-05 
-1.03671930915314e-05 
3.007779535112072e-05 
9.801714915700748e-06 
1.747366291271197e-05 
-4.839834153539007e-06 
-6.746393588886522e-07 
5.206410096917496e-06 
4.559591030421616e-05 
-1.642808281424817e-05 
-2.669450980012522e-05 
3.25320122457705e-05 
-8.945743179737551e-05 
3.227919919245407e-05 
8.106184806304457e-05 
-0.0001035877795357273 
-5.749270795584658e-05 
7.638060595088259e-05 
5.734622914841058e-05 
-6.878895783278349e-05 
-7.067997191469994e-06 
4.107262558042732e-06 
4.863599386511321e-05 
3.450391435954798e-05 
5.412529034721819e-05 
-1.66125145484111e-05 
1.792842775579458e-05 
-3.171558161468043e-05 
-0.0001034917496574126 
4.920921116039238e-06 
5.245961726191463e-05 
-1.76786588396555e-05 
-5.283551680285835e-06 
-1.711721436333118e-05 
3.703667483155031e-05 
1.444274318529558e-05 
1.376481998786518e-05 
2.872678833698016e-05 
1.923088490119691e-06 
-1.420480099656165e-05 
1.008412050003734e-05 
-2.679643744939593e-05 
-8.299889709978463e-05 
-3.528237407516053e-05 
6.196016884640329e-05 
1.099659596337321e-05 
-1.423640462415461e-05 
-1.100246973659818e-06 
-3.051066967834693e-07 
-8.663043621115441e-05 
9.227809747917384e-07 
6.872932941535201e-05 
3.33385636106494e-05 
2.17284976402579e-05 
1.631575139929248e-05 
-1.517110519439269e-05 
0.0001255757279134427 
-0.0001143586719690504 
-8.444911289883387e-05 
4.682735242154471e-05 
-8.497645436188662e-06 
4.868034738550001e-05 
-0.0002538393085645759 
0.0001193910917201574 
-6.622725198792596e-05 
2.852979938274627e-05 
3.83315361827283e-05 
7.751208020745102e-06 
8.196092204592454e-05 
2.260585694727831e-05 
-5.819854738230105e-05 
2.608600981955589e-05 
-2.609195006028184e-05 
-1.074712555034635e-05 
4.854705884522992e-05 
4.159578639887984e-05 
-3.111236982388663e-05 
-1.434189465842181e-05 
-2.436437089927741e-05 
2.981239130894798e-05 
-2.753844229445443e-05 
2.248206345354906e-05 
6.916695069516626e-05 
8.666841093661732e-06 
-2.427380504790928e-05 
-7.461140009681938e-05 
9.245808280882048e-07 
9.151502191107537e-06 
2.368560133754538e-05 
5.366703333284999e-06 
-4.927342810669704e-06 
-8.473709430697561e-06 
1.765414500398702e-05 
-8.988816089398156e-06 
3.982945321256597e-05 
1.687928855479633e-05 
-1.257252157618412e-05 
-6.747114515933319e-05 
-1.783661537021519e-05 
-1.745330980035634e-05 
1.624725032179356e-05 
-1.918774446984642e-05 
-7.460779513699099e-07 
4.884566507912296e-05 
-4.283271247692628e-06 
6.856291092127547e-05 
-3.552249932504012e-06 
1.581114587712627e-05 
-0.000112342535652954 
-5.935436482892754e-06 
-1.880579817413926e-05 
2.847747467099615e-05 
2.254568034464757e-05 
-8.164026209066425e-05 
1.186098476893289e-05 
0.0001067737781323566 
2.618417357192386e-06 
-3.5016076140398e-05 
-1.443939142032517e-06 
3.175513685266281e-06 
-5.69370222478651e-06 
3.066481461445292e-05 
9.986287189574546e-06 
-8.855134922984149e-06 
2.518884908416735e-05 
-4.839834153539007e-06 
1.47451826174108e-05 
4.17203747092398e-05 
-2.001550342603874e-05 
-8.998178708996229e-06 
1.741921927134028e-06 
8.464456645688851e-06 
2.068393934626327e-05 
3.505858762157767e-07 
-1.972259117965505e-05 
-2.278983005209967e-05 
2.157421864202467e-05 
5.466786413254438e-05 
-5.627324993217539e-05 
-4.004488066895674e-05 
-6.079331020200549e-06 
-4.584923959367517e-05 
6.120074824434028e-05 
5.311419143815618e-05 
2.997313522201609e-05 
-1.591994420523212e-05 
-2.40177964923875e-06 
-7.053523408935381e-05 
1.915438430037124e-05 
-2.083322931112161e-06 
-8.691381304469848e-06 
2.481270109041771e-05 
4.316258338872874e-07 
1.221115065547299e-05 
-1.481662483620702e-05 
-1.426775437163215e-07 
4.186770828362484e-06 
2.106706720713819e-06 
-4.23555418330546e-06 
8.486615451874839e-06 
-1.994195222469637e-05 
0.0001348626101492512 
-1.385683384854755e-05 
-0.0001179486999273769 
9.241762874372853e-05 
0.0001142862126770069 
-3.142725786691028e-05 
-5.54375873857596e-05 
-2.632580110333537e-05 
-9.632124128321969e-06 
3.175378012244275e-05 
3.297262786089076e-05 
-1.169888744972752e-05 
-5.6422338387235e-05 
9.818569338350928e-07 
-1.221758586250053e-05 
-1.012591825416986e-05 
2.245772324750747e-06 
1.177465097209147e-05 
1.417373455260061e-05 
-1.079590325873793e-06 
-1.550024384455594e-05 
6.818365252809886e-06 
-4.712482337201306e-06 
2.014606050766931e-05 
-1.493437154563775e-05 
-2.853402930021938e-05 
-1.75392577361372e-05 
3.007136503373013e-05 
-9.629171921979828e-07 
-1.780213715860079e-05 
2.007212166880917e-06 
-7.348265981047464e-07 
4.545040658977372e-06 
-3.438092791971889e-05 
2.71961324271057e-06 
-7.460779513699099e-07 
-4.839834153539007e-06 
-1.65605066056172e-06 
6.270072120624413e-08 
1.500491133489333e-05 
7.763291651488886e-06 
3.12499389481403e-05 
-1.842544664363436e-05 
1.761809342875074e-05 
4.014939448460508e-06 
-3.959882917721668e-05 
8.31550318634529e-06 
-4.89456458805545e-05 
7.441754362670441e-05 
-1.950403234385914e-05 
-1.538876478792739e-05 
-8.756376162135908e-06 
-4.538438863237157e-05 
7.711612315660756e-05 
4.615076404822438e-05 
-4.410627816196379e-05 
-1.990292399758096e-05 
3.265274311682673e-05 
-6.931448962092458e-06 
0.0001196405541364322 
2.024904853515522e-05 
-8.000227388872137e-06 
0.0001311589374090549 
-2.996835838014903e-06 
6.865861517204633e-06 
3.58480983781022e-07 
1.618801702777305e-05 
6.748825893024918e-05 
-4.277141081708148e-05 
-0.0001030950799330841 
-3.836854783526884e-05 
-5.274468652784011e-05 
2.683878084029833e-05 
-2.440496049877653e-05 
-8.009595807884915e-05 
9.924629216701031e-06 
4.764431275820544e-05 
3.776546411379119e-06 
6.545224025032251e-07 
1.146767703507026e-05 
-6.667464619737844e-06 
3.346510094568279e-05 
-1.879139264951333e-06 
6.856816614525158e-06 
2.019773767661266e-05 
-7.483171518942061e-07 
-1.411301421533058e-05 
1.700259821539866e-05 
-4.507210290943427e-05 
-1.967999134116182e-05 
-7.349726684921271e-05 
-3.120437614100007e-06 
-2.924296752421198e-05 
-4.747375129304629e-06 
7.06977938981965e-06 
-2.817349947483693e-06 
4.446405873197151e-05 
1.287330287009205e-05 
9.429930205368457e-06 
-8.213188782264119e-07 
-2.730575293233662e-05 
-1.823549744957043e-05 
1.432904900785833e-05 
4.695176217279761e-06 
-7.210797299543746e-06 
-5.345231406058031e-06 
4.484515340706934e-05 
6.82808770395509e-06 
-9.038104175766672e-06 
3.541150272702054e-05 
3.348219215562978e-06 
3.783158353844104e-05 
5.904295441199451e-05 
-9.659972550992155e-05 
-0.0001048720783903404 
-0.0001561541592541358 
1.941762513389236e-05 
0.0001380439516419365 
-2.990483727628195e-05 
-3.912931433545753e-05 
0.000116562005206318 
5.995445100674489e-06 
-2.050928328981521e-05 
9.578066775986252e-05 
-4.086295424415435e-05 
-8.930110799594611e-06 
3.947125139539404e-05 
-3.60458618159424e-07 
3.762440155426274e-05 
4.185737189402446e-06 
-1.106009358743847e-06 
4.647862457279023e-06 
-5.578208557940159e-05 
-7.620346307033494e-06 
4.908290634059269e-05 
2.130309065104502e-05 
-2.512035988176611e-05 
-5.939944656976618e-06 
-1.567644255178706e-05 
-5.9480370522788e-06 
-1.059474725441367e-05 
-8.866877836177327e-06 
-1.917329422314142e-05 
-7.551824284321476e-06 
-1.566512128913799e-05 
-1.719652614414948e-06 
1.140686429268702e-05 
8.132460294094703e-05 
1.970901279955236e-06 
-3.34137299922763e-06 
9.175841245386961e-06 
3.219128268407301e-05 
-0.0001017256123610913 
-6.027997202734565e-06 
-7.073082631330072e-05 
3.112426527410895e-06 
4.321245675607427e-05 
3.245127462885392e-05 
-5.950369262063919e-06 
1.756304032027862e-05 
1.232857177487323e-05 
6.71514365007872e-05 
-1.438263070665815e-05 
8.448804561635423e-06 
0.0001222983165621303 
-7.257940051549453e-06 
7.577586653204959e-05 
6.992884737889709e-06 
2.12729462676871e-05 
-4.48602436846075e-05 
5.694428901019908e-05 
-8.538884490834052e-05 
9.473474777301291e-06 
-4.324297188174974e-05 
3.818014295833947e-05 
-7.394604901596071e-05 
-1.597757034428873e-05 
4.773206936536165e-05 
-9.034961833961647e-06 
2.324330044536947e-06 
-0.0001186600998176995 
-2.136298665127834e-06 
2.005013427047198e-05 
2.172712101290763e-05 
-3.776170832268414e-05 
-5.206619441427774e-05 
5.096193189522205e-05 
8.084864601744189e-06 
2.77012794238413e-06 
5.722060836073248e-05 
1.089251505747538e-05 
-3.585210245558602e-05 
-4.73797732149154e-05 
-4.044034761258534e-05 
4.714965619084752e-06 
2.831009610130576e-06 
7.04401181710307e-05 
1.45264615997892e-05 
-1.083777643070341e-05 
1.114746425311525e-05 
-2.833180341137939e-05 
8.320240004006799e-06 
-1.452995160824301e-05 
-1.450386709813916e-05 
-1.276669045718428e-05 
-7.20488816174381e-05 
1.664756420526261e-05 
2.340744046586296e-05 
-0.0001206464068778371 
2.826151779662298e-05 
1.378191863529193e-06 
-1.762232616598924e-05 
0.0001548492444993177 
-2.091713716881614e-06 
-1.266671909542787e-05 
-4.507349030948535e-05 
1.16938008888413e-05 
2.228666062415858e-05 
6.711906976184053e-05 
-8.544571996790651e-06 
-3.99437260056749e-05 
4.800127485783451e-05 
4.270777287997796e-06 
-9.323926914316625e-06 
7.261127451582418e-05 
-6.154988877416702e-05 
3.855787172596461e-05 
-2.613390548809317e-05 
-4.155888609698767e-05 
-0.0001225354528929954 
6.113546567616643e-05 
-1.09356851125661e-05 
-1.163857635298867e-05 
7.962974876531371e-05 
-1.400761218614077e-05 
-3.504601420824069e-06 
1.367269940005158e-05 
-9.989323284316313e-06 
-1.391941036441781e-05 
5.114717552962168e-05 
-8.667381777731572e-05 
4.141047707398073e-06 
4.63513554413135e-05 
1.181754868507735e-06 
6.862988057986607e-06 
-3.019903714078856e-06 
2.197552712761112e-05 
3.188077639133589e-05 
-8.834358757077867e-05 
2.872694622420236e-05 
-1.929715001692573e-05 
6.957387800023967e-05 
7.465174828993296e-06 
1.570079851909663e-05 
7.047081771731252e-06 
5.823726559866782e-05 
-1.31760238053371e-06 
-8.316189516444219e-06 
-1.789648521544349e-06 
-8.262101778638907e-06 
-4.607317722146683e-06 
-1.244683788427464e-06 
1.310043456587439e-05 
2.887316059401468e-05 
-4.045928122743536e-05 
-3.970229161028259e-05 
2.285132353226964e-05 
-9.614435452537377e-05 
-5.366795272183676e-05 
2.480872785368697e-05 
-5.574854802700378e-06 
3.169420154423907e-05 
7.288389519762384e-06 
3.20136405372477e-06 
-3.332836128472505e-05 
7.355416909167838e-07 
2.351487705719645e-05 
0.0001430471624088289 
3.673784623026836e-06 
-6.694291915746589e-05 
-1.919619880991505e-05 
-3.531938091135707e-05 
-1.130739633181427e-05 
2.949499278056518e-05 
-8.462190740007613e-06 
-5.470736293524701e-06 
2.963018720931276e-05 
1.401744768728207e-06 
1.137591312404743e-05 
3.194747228194956e-05 
-2.655698542540916e-05 
-3.149001862715252e-05 
-1.722296837954249e-05 
-6.605532236805891e-06 
-1.048614310800947e-05 
7.348862424475338e-06 
-1.029937414225027e-05 
1.582967907275879e-05 
1.836157022014168e-05 
-8.617812642750444e-06 
-3.047303068287918e-05 
3.834775966012928e-05 
-1.824500811678558e-05 
-7.357059449048969e-06 
-3.057892372922613e-05 
-4.188382807025634e-06 
-5.709421236122062e-05 
0.0001028990069314921 
4.404163528256122e-05 
-1.9783927298374e-05 
-8.048930603423537e-05 
8.975907661942357e-05 
-1.006601458300758e-05 
1.008853702660204e-06 
4.873610688413434e-05 
-3.833884490930127e-05 
-6.16976037178073e-05 
-0.0001016775764554615 
-6.464841107452046e-05 
9.635893488836656e-06 
9.928646001394431e-05 
1.685937558157545e-05 
3.588051914293199e-05 
9.101131940343625e-05 
-1.697355464666939e-05 
-2.130480707732368e-05 
-3.861717693892562e-05 
-1.054120605813157e-06 
-4.334078920010666e-05 
1.549377275900714e-05 
3.441991346064363e-05 
2.099999340278673e-05 
-2.021778945442834e-05 
-2.257265064293073e-05 
-6.652097414361283e-05 
-6.701814003204473e-05 
-1.087338487841058e-06 
5.748136421102167e-05 
-5.642458560257321e-05 
2.027767436653977e-05 
7.141449919356626e-05 
4.395770284340461e-05 
7.801985274701871e-05 
2.360252005711052e-05 
-2.094858088274064e-05 
-0.0001650111555558891 
-7.929828350052074e-06 
9.979307397880644e-05 
3.48029839093394e-06 
-6.971363446303449e-05 
-1.172385171009032e-05 
2.309173685381887e-05 
-1.784392900588351e-06 
2.301587710727134e-06 
7.112045404525736e-05 
4.826146129562461e-05 
0.0001101118404801659 
-6.044947801265677e-05 
-2.645258198441213e-05 
-7.308497353443819e-08 
-2.481444690577543e-06 
4.460046482296232e-05 
-6.200729452432951e-06 
-3.451465370178449e-05 
5.289732100848814e-05 
3.046858447916667e-05 
9.536568769041674e-06 
-5.945455392865674e-07 
1.245760208387143e-06 
-2.593568772453159e-05 
4.225959385799384e-05 
-4.82880200877432e-05 
4.925815771123909e-05 
-0.0001700844457189869 
2.416477950886934e-05 
2.252909266234289e-05 
2.175963646829138e-05 
1.674492449718737e-05 
1.213938168722434e-05 
-8.35836014726895e-06 
-3.157964233293728e-06 
9.851850290565054e-06 
2.134173178376716e-05 
2.854235524793637e-05 
-3.263761708827945e-05 
-3.550426636725953e-05 
-4.131127660470936e-05 
-0.0001940192790555621 
-2.510141363176094e-05 
5.024712372699137e-05 
-1.559747359651528e-06 
5.860033990059028e-05 
-1.057915169875422e-05 
3.457076034551274e-05 
5.812848852472138e-05 
6.216859643478175e-05 
-3.305581606280802e-06 
5.200624086458296e-05 
0.0001098659100253101 
-5.094022515019756e-05 
-3.456565619330513e-05 
-3.703348453589143e-05 
4.016515598851583e-05 
-7.005986507378943e-05 
-2.415698132838585e-05 
1.928307173711441e-05 
-1.010630725250981e-05 
1.485654739236069e-05 
1.952757626625423e-05 
6.097656071994154e-06 
-3.336158714196534e-05 
2.642493871127954e-05 
4.037388142120759e-06 
-8.284509769304738e-06 
-9.585428428769978e-05 
7.883888221954447e-05 
-5.049781270143734e-05 
5.008114249713987e-05 
-3.85384688517245e-05 
-1.37950999519494e-05 
4.679841650012022e-05 
2.917566919736542e-06 
-1.313756954864233e-05 
1.317654908950867e-06 
-4.325997947857309e-05 
-7.514589455658792e-06 
1.974881774679003e-05 
-3.122166143987274e-05 
3.021339605047964e-06 
-6.552120221236407e-05 
3.442117553031895e-05 
7.22743097995969e-05 
7.941600029004113e-05 
-8.408165824160614e-06 
4.719715494899167e-06 
-7.428158300422232e-06 
5.917203931894976e-05 
2.118518447163694e-05 
2.540153883919698e-05 
-8.893628613230218e-06 
-8.451417210384101e-05 
3.2600309032381e-08 
-1.424433936397514e-05 
4.100669527880494e-06 
5.421606423588787e-06 
1.081508963247442e-05 
-2.188191286884301e-06 
9.859193189001524e-06 
-6.003678408087845e-07 
-9.827500262240859e-05 
3.956980181112386e-05 
2.393843619155392e-05 
-1.321352202995018e-05 
-4.142967263299544e-06 
4.146185208749074e-05 
-1.827654903192147e-06 
-4.787532527753206e-07 
1.201752946001771e-06 
-1.011353760099499e-05 
-2.137703124355558e-05 
3.610678793090218e-05 
-2.847031255485654e-05 
-7.925149663361834e-06 
-5.244901891807428e-05 
5.961566761531353e-05 
7.794431271406818e-06 
-8.157963734212818e-05 
-0.0001206572632430568 
0.0001357846031150685 
-1.354200072442367e-05 
2.507409109294613e-05 
6.74964288054282e-05 
2.845461529104904e-05 
6.830824990517806e-06 
-3.604942730225594e-05 
-9.521273709825656e-06 
-5.591426135980981e-06 
4.009927080774372e-06 
1.222783704015077e-05 
2.59880639514897e-05 
3.756895348784268e-05 
4.340974473461244e-05 
-2.89371787981472e-06 
-3.505815969944218e-06 
3.06107833009036e-05 
-1.689819924356684e-05 
-1.451468922279557e-05 
1.634477059943907e-05 
5.704185020515943e-05 
4.23855157788142e-05 
-9.684869664049948e-05 
-2.880940030251351e-05 
-2.420561272032684e-05 
-5.84759899430339e-05 
-1.682680303128226e-05 
-6.038493675974433e-05 
-3.932545339708045e-05 
-2.68244366921311e-05 
0.0001776079645810828 
4.190511581724842e-05 
5.084637788167487e-05 
-4.446178511828958e-06 
-4.307237627912298e-05 
2.01367365332164e-05 
-5.307715485466302e-05 
-2.506022800020943e-06 
-1.525910721699654e-06 
-1.963510247301348e-06 
1.200754643403312e-05 
-5.707330569810389e-06 
1.073040314358802e-05 
-5.363124789238455e-05 
-5.087022026357087e-06 
1.827468298675958e-05 
-9.353548279430746e-06 
1.442923014850381e-05 
-1.119134000390444e-05 
1.353981630787819e-05 
7.833232844844981e-06 
-1.75742832431734e-05 
3.016014241125447e-06 
-9.012542024544772e-06 
1.185412468432261e-05 
9.898453178401935e-05 
-5.161261487812913e-05 
7.418789276445091e-05 
1.65642711988346e-05 
2.046166796159242e-05 
6.359698149193169e-05 
-3.201772893220341e-05 
9.976371992699296e-07 
2.279814226981657e-05 
8.219392892623448e-06 
-4.756611026858304e-05 
-1.7084587604606e-05 
-6.456643664665997e-05 
-4.145245482826978e-05 
8.74238413648432e-07 
1.64191945446327e-06 
-1.350309923724968e-06 
-5.320940145299964e-06 
-2.367524879689346e-05 
9.409946995718075e-06 
2.366944008612605e-05 
1.382084568864329e-05 
7.703661009629947e-06 
-9.946580333762148e-06 
1.15420729001805e-05 
-4.795673907084067e-06 
-1.684747537634697e-05 
-1.135582346678365e-05 
1.508823612868616e-05 
9.07619369285815e-06 
3.404503686987931e-06 
4.830423176042031e-05 
7.100879146486374e-05 
-1.686954039032542e-05 
1.511242005642564e-05 
1.035120197892403e-06 
-1.996762625567788e-06 
2.510310252372518e-05 
0.0001071083571941942 
-0.0001119327541562281 
2.641546635252465e-05 
-8.504611480281219e-05 
-1.479084881248195e-05 
-4.946352978997756e-05 
-0.0001163539802835765 
0.0001050699125903942 
-2.61931593743246e-05 
5.442858127727757e-07 
8.363959906292586e-06 
1.112632192541025e-05 
1.526696272769752e-07 
-3.776033561860348e-05 
2.470938393085969e-05 
-3.269715986767081e-05 
4.264462476114225e-05 
-7.496146837632804e-06 
-9.772955868108031e-05 
1.365310610217116e-07 
4.630647065565231e-05 
3.299488774995627e-05 
-3.667371459537747e-05 
4.260415150547081e-07 
1.67296299486819e-06 
-7.50608302283433e-06 
3.893986912378236e-05 
-4.279449592125032e-05 
2.385733108191124e-05 
5.385945666490664e-05 
-9.710491919712723e-06 
1.473758390759218e-05 
-1.392901493662879e-05 
5.244930171215833e-05 
-4.914764693418967e-05 
-2.578512101867012e-05 
0.000143153028010803 
-8.774151590139171e-05 
-3.519216573883629e-05 
3.99247773132588e-05 
-1.738277146949773e-05 
-5.57336992362477e-05 
4.672955282485079e-05 
-2.881913748939292e-05 
4.43411363014422e-05 
2.223170700114003e-05 
0.0001094583757053696 
5.194561784619434e-05 
-1.549863211343264e-05 
2.792021427245697e-05 
-5.483562757398244e-06 
5.306881735175103e-05 
3.779142902958174e-05 
-0.000132676641705565 
-7.459671279472974e-05 
5.804468661631296e-05 
6.254159505492675e-06 
-8.782942531464312e-07 
-5.93288046300502e-06 
-0.0001493235109969804 
4.905114820155415e-05 
-3.059468883919741e-05 
7.387310491542641e-06 
-9.954060593279335e-05 
5.307791037017538e-05 
9.030703546539649e-05 
-4.832624089374164e-05 
1.317879594878176e-05 
1.390489708508479e-05 
2.234818534030471e-06 
2.280413154738685e-06 
1.222230625747616e-06 
1.008456391588615e-05 
-3.132188011247598e-06 
-1.24321813895354e-05 
-1.149255710489994e-05 
-1.593102374740099e-06 
1.433257980574485e-05 
8.443858843430023e-07 
-3.331691812545262e-05 
2.807906325252023e-05 
-5.629035340229556e-05 
-3.042424511958656e-05 
-2.40264274398787e-05 
5.796049391824266e-05 
6.075191929428059e-07 
-1.315077236684714e-05 
1.9387982427258e-05 
-4.717893363063019e-06 
-1.71838653158715e-06 
1.99153437167963e-05 
2.043246560642681e-06 
2.23696944987725e-05 
-2.908122209926124e-06 
-1.76771470762503e-05 
1.220630428921607e-05 
2.054865659974912e-05 
3.007882928824407e-06 
-3.284493222762709e-06 
-2.774703989935537e-05 
-1.006467120724148e-06 
1.834170504867808e-05 
3.739115988247223e-06 
3.70926341168048e-05 
-2.85414429500895e-05 
-4.393244003158159e-05 
2.576879514567159e-05 
-3.335154810548721e-05 
2.027036327335565e-05 
-1.041181438653937e-06 
4.254959555861091e-05 
-1.03603919727264e-05 
-2.246314702713193e-05 
7.408473358044197e-05 
-1.149751311153227e-06 
-7.460779513699099e-07 
-8.726354225025189e-06 
1.989749636017537e-06 
-8.477094309577478e-06 
1.127802052931552e-06 
6.941919546445917e-05 
5.167743360969357e-05 
-1.891262408106537e-05 
-2.927705716596006e-05 
-3.137211717688495e-05 
3.945734783863369e-06 
1.196875443205241e-06 
-2.590991125787631e-05 
-0.0001404149322998311 
8.569956424076386e-05 
3.456341597421964e-05 
-3.972911815596417e-06 
2.659136316096704e-05 
2.251321211283232e-05 
-4.613989956644429e-05 
1.903392603593843e-05 
-4.31101784208437e-05 
4.816006093575015e-06 
4.43417811744425e-05 
1.467851924968312e-05 
-4.290905711532549e-06 
8.977215242405827e-07 
-8.163182910066218e-05 
-9.246771634314349e-07 
-1.188266555780985e-05 
-4.035607951768585e-09 
4.520626735576215e-05 
-2.677466431571574e-05 
3.172588651029621e-05 
4.48386252051719e-06 
6.737773452815732e-06 
1.82099291747884e-05 
1.58243317213044e-05 
2.500241734850169e-05 
-0.0001367980688629046 
-0.0001056957012309492 
0.0001450697143776729 
0.000195343229371679 
-6.29282740187132e-05 
7.138614570466442e-06 
-4.404975812355069e-06 
-2.605854722879725e-05 
2.500878072866969e-05 
2.375383378345697e-05 
1.468700067143485e-05 
-1.954418853783525e-05 
2.168453544402455e-06 
-7.540253421769414e-05 
0.0001275635432748495 
5.116449246813267e-05 
3.537592895343176e-05 
-4.919788083989961e-05 
4.082626408028451e-05 
2.523833541020286e-05 
-3.781572612218361e-05 
-4.605123719895579e-05 
3.666169547370472e-06 
9.419398580119293e-05 
-3.104093616812868e-05 
3.349138201617243e-05 
-2.411398139939029e-06 
3.273258880311072e-06 
4.267562526306725e-05 
2.556813940374217e-06 
2.361199715051377e-06 
1.237694922053951e-05 
2.068242364572058e-06 
1.145300507821489e-05 
-1.557281305923924e-05 
-7.134495101154192e-05 
-4.977648091183585e-05 
-1.620336957477677e-05 
-9.296343225574927e-05 
1.126546668900227e-05 
-2.233401930340566e-05 
-5.118864342098401e-05 
1.828793476366854e-05 
-8.323914324793425e-06 
2.029082251510993e-06 
-2.467285309061303e-05 
-4.399918857459638e-05 
5.146640582526467e-05 
6.102792111320417e-05 
3.378729425451774e-05 
-3.270637241461759e-05 
-4.282035729414834e-05 
-3.205574220592194e-05 
-2.312326944857987e-06 
2.051619595215167e-05 
1.892430664285123e-05 
5.533959122289263e-07 
3.411697321177846e-05 
9.420870433533687e-05 
-5.865594110032197e-06 
-2.596684179759439e-05 
3.049600279312796e-05 
-6.62937636280741e-05 
2.327019753786042e-05 
-9.674063336484963e-06 
9.096077303450993e-06 
7.936215576736905e-06 
-8.15927678751451e-07 
2.900844270908092e-05 
2.630028844010975e-05 
-1.207817094934219e-05 
2.688709275987624e-05 
-2.566157524904328e-05 
2.333854017653029e-06 
-7.255610579250884e-05 
-8.983257737259941e-05 
4.302496944047354e-05 
4.219430587882697e-05 
3.497043802989958e-06 
-1.5714227421213e-05 
2.177574899026183e-05 
3.846095988592389e-05 
4.450641227895366e-06 
3.175597015860702e-05 
9.677195541213711e-05 
1.993345284924356e-06 
-2.130249738029085e-05 
-1.839554314185246e-06 
3.551107288865763e-05 
-4.015233283142257e-06 
-4.542944026242466e-05 
-5.536664606280877e-05 
-6.57964599384642e-05 
1.297184948119524e-05 
-5.517401615794314e-05 
2.892806957365151e-06 
1.983750916265118e-05 
4.615509365447342e-06 
-7.049619992522676e-05 
-9.61633496545879e-05 
1.612584461387232e-05 
2.352765401555422e-05 
3.573948588441243e-05 
2.456601664324701e-05 
-9.792622302732928e-06 
-3.181144705492131e-06 
3.184440862178796e-05 
-9.630221533660622e-06 
3.101236205293206e-05 
5.886928618947141e-05 
-7.127162244542337e-06 
4.05477818379179e-07 
-3.015288591291343e-06 
1.965655787270636e-05 
-5.235720852428284e-06 
7.43978992385106e-06 
-1.123579223954413e-05 
-3.193766220981055e-05 
-1.479685471652203e-06 
3.104164347860484e-05 
-8.388894810983905e-06 
-2.975040235459899e-05 
-3.290268322429174e-05 
8.901017661706733e-05 
-3.409890414149988e-05 
-0.0001137319876241432 
1.911102967672969e-05 
3.560292303216342e-05 
-2.708997321221534e-05 
-4.086047570090437e-05 
2.110620704216766e-05 
3.516371609258069e-05 
4.033303747881674e-05 
-1.148935851658092e-05 
2.680665550167715e-05 
-3.702742828064207e-06 
3.143110684851895e-06 
-1.189831025202155e-05 
8.932812237495656e-06 
2.200485249564327e-06 
1.990125888174591e-06 
-1.556720502034479e-05 
1.186076472090881e-05 
-4.071737575609057e-06 
-1.095966415970775e-05 
1.019977729336648e-05 
1.987296097195613e-05 
3.882807358813269e-06 
-3.844640488196864e-05 
9.291963571285001e-06 
-2.852125156156341e-05 
3.42400005853219e-05 
2.202181995998701e-05 
7.466871916788147e-05 
-2.778941856316638e-06 
5.98308374276827e-05 
1.716618862055781e-05 
-5.608331598381009e-05 
-3.392776377053841e-05 
-4.690651526591505e-05 
-1.638027200831105e-05 
-3.680302309229212e-05 
-1.486465682212446e-05 
1.461182712099322e-05 
0.000142731075114542 
1.677426306146083e-05 
-5.740438905906579e-05 
-9.755357127721336e-06 
-4.026474252616395e-05 
-2.725137317732324e-05 
1.852958072511125e-05 
-4.290413432408361e-06 
4.119655293023467e-05 
-8.464152489522219e-05 
-0.000103373523785229 
-1.352824433709517e-05 
6.699907110188889e-05 
-1.871980750488287e-05 
2.658082981650584e-05 
-2.286633016740788e-06 
3.765142489138865e-05 
-4.812092682763573e-06 
-1.094461669240444e-06 
-3.480191581413119e-05 
4.121582464803647e-05 
9.949618575746039e-06 
-1.839074042050536e-05 
2.732426640636966e-05 
-1.952084538023548e-05 
-2.202150795145323e-06 
-1.543529796789532e-05 
2.216660875336068e-05 
3.44066629045737e-05 
1.158825636052986e-05 
4.935472401928765e-06 
4.882339317531202e-06 
-4.80570380886918e-05 
-1.189743500581352e-05 
7.966328199425553e-06 
8.678929959297076e-05 
-6.23576126576273e-06 
1.470374899139544e-06 
-3.177496831324556e-05 
-1.699535946358569e-05 
1.498711942477803e-05 
-9.820987879684681e-07 
8.827394106790995e-06 
4.462576617778579e-06 
-5.782382652233136e-06 
2.257405049359902e-05 
-4.245852960164109e-06 
-9.073850031682539e-07 
2.51844336975545e-06 
1.832373468804619e-05 
-0.0001029492414972003 
3.021722356456411e-05 
-9.07740037062831e-06 
4.209944594948698e-05 
1.269323872488388e-06 
6.448982576319996e-05 
-3.757399458839422e-05 
-1.901358694309271e-05 
-9.952241063411807e-05 
-4.132609076646689e-05 
2.180724677366886e-05 
3.796128108697702e-05 
-7.494264941503859e-06 
5.662111274764642e-05 
7.546505393570563e-05 
-3.486086532469282e-05 
8.45473516601506e-05 
3.86631531946867e-06 
-5.335909464026535e-05 
-9.4838264826985e-06 
5.885110189995536e-05 
-1.553378546790001e-05 
4.004952765038466e-05 
-2.200315115469216e-05 
-8.171841557991742e-05 
-4.375462669543073e-06 
-0.0001275731674594142 
3.152869788750994e-05 
8.43511897331323e-05 
1.087032759706064e-05 
-0.0001416060055179677 
0.0001481611508265817 
-8.518400949959859e-05 
-1.114622773227373e-05 
1.046836714638211e-05 
8.84031243425738e-06 
-5.074029273467932e-06 
7.103033626599907e-05 
-6.833758480303713e-06 
2.745423232729965e-06 
3.248283670176177e-06 
-5.156787312395388e-06 
6.085837214609002e-06 
-9.349596771602554e-06 
4.105801653692998e-05 
-2.06860424824164e-05 
-5.562579569862493e-05 
3.259285784516073e-05 
1.411382778247346e-05 
0.0001113676510257111 
-4.836996977972088e-05 
1.003510656184046e-05 
2.454858565714452e-06 
5.729383143799034e-09 
-2.456416388186488e-05 
-5.018747241164656e-06 
-1.058219633875576e-05 
-2.235906319947332e-05 
-8.827319312133438e-06 
4.808780264313668e-07 
1.391748336081895e-05 
-1.920380135651035e-05 
-5.637841405054392e-05 
6.979994705557888e-05 
4.071187191084603e-05 
-2.135553199521701e-05 
1.904292438578041e-05 
8.641981045760109e-06 
3.465178975470063e-05 
-9.305927102210861e-05 
-2.553036447875242e-05 
-4.450941417228003e-05 
5.528979133236181e-05 
9.965415972746252e-06 
1.035667324800782e-05 
-3.55822444659467e-06 
1.280379589521039e-05 
-1.109921086852095e-05 
2.363247723052283e-05 
2.0628815497929e-06 
0.0002101781455986616 
-0.0001499510742330825 
-2.392076894400576e-06 
4.467251266814204e-05 
-8.208331762875498e-05 
1.54265763775217e-05 
-6.218313168213714e-05 
5.370820689985499e-05 
-8.927617812039764e-06 
2.988120958761257e-05 
-4.423633699348421e-05 
2.675994948415052e-05 
-9.951794340967262e-06 
7.531099847323826e-06 
-2.682864178572502e-06 
-6.10335039754715e-05 
-3.793894245951936e-05 
2.123727315368863e-06 
5.930078004960324e-05 
-4.05852240321379e-06 
2.347210830959564e-05 
5.821411135099705e-06 
-6.238967356733905e-06 
-7.510512078551257e-05 
1.175312643047851e-05 
7.659215294940024e-06 
7.505928047399941e-05 
2.963039056598163e-05 
-3.236335087763743e-06 
1.739004292795041e-05 
7.638251951267079e-05 
-7.324501205833462e-06 
-7.508328787922472e-05 
-2.380138072866108e-06 
2.153510236831792e-05 
2.563590937717868e-05 
-1.651878463702952e-05 
2.392039029606869e-05 
2.000927622102059e-05 
4.776130260575014e-05 
2.296001332513945e-05 
7.548856997031985e-06 
-2.589352198935908e-05 
3.117848810055989e-06 
1.282021923218152e-05 
-1.078688027173426e-05 
-7.233180487494592e-05 
-3.587970211543741e-05 
-5.341827960556437e-05 
-3.497652289865151e-05 
-9.170562625188672e-05 
1.274038694283142e-05 
9.388811307108629e-05 
-5.090418112032283e-05 
-3.795880447058925e-05 
-1.475417580920998e-06 
3.108259131400055e-05 
7.970043208237899e-05 
-8.791267562559934e-06 
-1.579689524260031e-05 
4.085422704883083e-07 
1.394192516086091e-05 
-8.164603196884367e-07 
5.452122680857763e-05 
-4.872361073640229e-05 
1.196949086332693e-05 
6.959411168623137e-05 
3.136512488033996e-05 
0.000120640930515548 
0.0001159159050267896 
1.595366304196499e-05 
-8.726193190291094e-05 
-4.326183463693243e-06 
-7.817869637579967e-05 
9.882914035388444e-05 
-0.0001084018132220744 
-8.856673116385444e-05 
-6.759931727283084e-05 
2.417468823808624e-05 
-1.283014165370217e-05 
-2.540955452161725e-05 
4.533049859399852e-06 
8.863315261069532e-06 
1.736916804934621e-06 
1.668553624299727e-05 
-1.095924879999225e-05 
-3.395880071705293e-06 
-1.599153997618978e-06 
-3.181559788362731e-05 
3.029118869142639e-06 
6.416305858107309e-05 
-4.753562526391558e-06 
4.482573827519484e-05 
-1.479022354250913e-05 
7.947809495594585e-06 
2.311005321159404e-05 
-2.22723690666611e-06 
1.006914626633833e-06 
-1.502281259273703e-05 
-3.012285660104731e-06 
6.684248331279668e-06 
4.718137950673026e-05 
-1.324671354368959e-05 
-3.458175233096552e-05 
-2.357759435569768e-05 
8.926004353132709e-06 
-8.016698483679156e-06 
2.57705876486523e-05 
8.523169528302839e-05 
-4.062722911119691e-05 
-7.402577852594998e-05 
-8.000989271856572e-05 
1.92529144824024e-05 
-6.472049364327914e-05 
-6.486192160380417e-07 
4.89507982917171e-05 
5.352001262880268e-05 
5.820519007979397e-06 
3.848574957590079e-05 
8.729961425357125e-06 
4.809958655584907e-06 
9.96989170674057e-06 
9.523410854653672e-06 
6.782788900874966e-07 
-7.811209315258043e-05 
4.791836207123497e-05 
-4.512237133532566e-06 
9.778070182853256e-06 
-2.278340176830086e-06 
9.158990636911765e-06 
1.262177190557597e-05 
4.94462825068943e-05 
7.012510392489821e-06 
-2.78753297384932e-06 
5.327611375636405e-05 
2.726893228677451e-05 
7.434034058304608e-05 
-6.760210981465353e-05 
0.0001390683410504541 
2.997523128280826e-06 
7.34844707320119e-06 
1.362076366884496e-05 
-8.844978890875905e-05 
-0.0001336272234899166 
-5.36938646267529e-05 
4.564774699256769e-05 
-4.810756707779058e-05 
-1.363213088576674e-06 
-1.495355736276577e-05 
7.508915029785771e-05 
-0.0001643135550022759 
-5.079738381219163e-05 
-3.438861093705744e-06 
3.995805562501844e-05 
-6.940117944799775e-06 
-2.583106270871215e-06 
2.776432628647213e-05 
1.741303563776829e-06 
4.889579957103334e-07 
4.990974120122754e-05 
7.572287916506583e-05 
5.851255553397296e-07 
-2.698578227596083e-05 
2.17740451467174e-05 
0.0001200812488084091 
-2.635511253222136e-05 
4.474235874921517e-05 
-1.328638443451013e-05 
-1.517320702581122e-05 
-5.130746607761419e-06 
-4.781174106420298e-05 
2.233120571286611e-05 
1.702197270636323e-05 
2.476260840632126e-05 
6.342040178796595e-06 
-8.647205923164159e-05 
7.295374091550524e-05 
5.456848242726042e-05 
-0.0002013415350602226 
3.078322076034579e-06 
2.375225253324347e-06 
-4.531004872996941e-07 
4.405495468538233e-06 
-1.045686407782244e-05 
-1.694743593628682e-05 
-7.449050632055139e-06 
-2.038230738477574e-06 
-9.321648832439878e-06 
1.36009193398268e-05 
2.57339875538007e-05 
1.976325656838802e-05 
1.886550588485951e-05 
-3.662009612617745e-05 
3.942717817257834e-05 
-7.327503195359897e-06 
1.447114899340932e-05 
-2.878660362880642e-06 
3.902985598172048e-05 
1.596559641351063e-05 
9.853162767494897e-06 
1.931005229313483e-05 
3.197909534685624e-06 
-5.136860701486728e-05 
5.30801783134367e-05 
-9.699870452973152e-05 
-7.032158418420473e-06 
4.092316318356311e-05 
4.632585817350279e-06 
-2.350584744821892e-05 
-3.486553205095122e-05 
-2.773994023020348e-05 
-2.49844266849367e-05 
-9.929501045078078e-06 
5.053892837663108e-06 
-2.174240180559095e-05 
3.567534205603302e-05 
3.28388762800327e-06 
-1.110382214970421e-05 
8.256850084354804e-06 
-9.253111174830178e-06 
0.0001514119223183635 
-1.024051494568075e-05 
4.31546015620038e-05 
-2.122463894055942e-06 
-5.652536718716386e-05 
-1.947037982662125e-05 
-1.189583362927545e-05 
-1.591902112303749e-06 
-2.123261928400582e-05 
1.177192766312763e-06 
-1.661304175705994e-06 
-1.33403755635667e-06 
-9.358912792406494e-06 
-3.384863657429395e-06 
6.457766450900291e-08 
-1.070509118506131e-05 
-5.440240570305393e-05 
-2.299352311626661e-06 
6.915424481162409e-05 
3.79780325516412e-06 
7.061635254319358e-06 
6.216029556479602e-06 
-1.614090027964274e-05 
2.816059530904731e-05 
-9.247753537112353e-05 
0.0001542855594281762 
-2.70364532465638e-05 
-2.914005419631416e-05 
1.331389452156643e-05 
2.937821437717139e-05 
1.482068724523192e-05 
-1.036115953283921e-05 
-4.11062801756149e-05 
-5.63184945871415e-06 
-3.145207718424646e-05 
-5.153065103383436e-06 
5.164276016507251e-05 
1.181459905633325e-05 
-7.750526980988451e-07 
1.890720652868191e-06 
4.301260330222259e-06 
1.732916262343009e-05 
-7.261002063649189e-06 
5.530054611798412e-05 
-7.491494055148941e-06 
-2.763559663347879e-05 
4.300380699568173e-06 
1.729466666655696e-05 
1.420681232764547e-06 
-5.813598886787993e-07 
-2.74259746841258e-05 
3.052558539843667e-06 
-0.0001064120686483158 
0.0002409136153913652 
-1.892585073218979e-05 
-4.546812479931555e-06 
-2.009339801577243e-05 
1.081029281099692e-05 
-6.278168940779635e-06 
-3.727099990377886e-05 
-2.833284773948835e-05 
2.2562846719262e-06 
-9.290782378916642e-05 
-5.226076742778765e-06 
-7.848078900837118e-05 
9.709440211607441e-05 
1.266676499342809e-06 
3.41650282857309e-05 
3.116864073494052e-06 
-1.882154241305159e-05 
7.965328978296636e-05 
-0.0001078142006869152 
2.279032861894631e-05 
-8.924020475310051e-06 
2.406070721481013e-05 
1.121174622163929e-05 
-3.68481593194301e-06 
3.550315177036659e-05 
1.100687269488905e-05 
5.836436726167716e-05 
-2.725330255998416e-05 
3.41775816550423e-05 
-8.754063982485016e-05 
-3.810848384802842e-05 
6.183245999805344e-05 
-1.722490565876265e-05 
-3.212401192081513e-05 
-1.178847972537458e-06 
1.275046657872145e-06 
-3.506300209054681e-06 
-1.823261634090377e-05 
7.238492800701096e-05 
-6.976386099032119e-06 
-1.816697544835088e-05 
-1.838033387831673e-05 
-1.607739320137249e-05 
1.792653447991035e-05 
-4.542255216746763e-05 
3.99745522006233e-05 
6.707630038724873e-06 
1.821100942067993e-05 
2.005140669831403e-05 
-5.908118417327834e-06 
-1.090945000620693e-06 
1.90745478396965e-05 
4.529448059360235e-05 
0.0001180883877538366 
3.697230921198941e-05 
-1.214773426857247e-05 
5.647489034116889e-05 
-8.952157788511073e-05 
-4.897414188061099e-05 
-9.67397055123158e-06 
2.661454044099804e-05 
-3.203236503867331e-05 
7.59738000570061e-06 
-3.393391279445518e-05 
-1.049897622408993e-06 
-2.911040680613957e-07 
-1.28409946438073e-05 
-2.119255039103699e-05 
-1.868977942495523e-07 
5.521886366037938e-05 
5.512979683914018e-05 
-7.831499349442662e-06 
-9.42797537000835e-06 
-3.912866995806383e-05 
-2.773544424509933e-05 
-2.873514436589322e-05 
3.003676564978164e-05 
-1.394647606771464e-05 
-1.532954932230061e-05 
-3.393152261340112e-05 
4.107511152035499e-06 
5.662363325349503e-05 
2.188892124843163e-05 
-1.500225299569944e-05 
3.351690298666411e-06 
1.185123611920538e-05 
5.150430672189315e-06 
-1.42842033020828e-05 
5.019147875638249e-05 
-1.760339889203046e-06 
-1.870493370620222e-05 
0.000116983548001908 
-5.953176859429336e-05 
-8.313323802908724e-05 
7.158474961902639e-06 
7.235298171176775e-05 
1.461106732301758e-05 
-5.054603929039583e-05 
-3.939009861662056e-06 
-1.142335322449909e-05 
1.808459264696858e-05 
-3.064297030930654e-05 
-1.41547748802648e-05 
3.458439091083848e-05 
-2.544805449675169e-05 
-2.967188380642413e-05 
-4.213343140504416e-05 
7.585361514793959e-05 
2.518664710102536e-05 
-6.198258175198042e-06 
-2.163022827672559e-05 
-6.413260167641602e-05 
6.464306473963042e-05 
-2.594055423411261e-05 
1.702789120418284e-05 
6.892475350402132e-06 
3.771738788688545e-05 
3.85382558535e-05 
-7.133095123796146e-05 
1.629684886608675e-05 
-5.492168634862873e-06 
5.326801161211665e-06 
-1.117864764080491e-06 
-3.908349526132867e-06 
7.714347846017746e-05 
5.37816033304967e-06 
1.647423752333218e-05 
2.10010311439374e-05 
-3.754972827775428e-06 
2.001562485098805e-05 
-1.629726547078114e-05 
2.87027412450505e-06 
-1.226299688739029e-05 
-3.81580926239725e-05 
6.125650966138869e-05 
5.797892543147062e-05 
-0.0001099398675539988 
-3.36385007182199e-05 
2.024310359837775e-05 
-4.087545252527013e-05 
-4.415263640088067e-05 
-1.509644870745291e-05 
-1.560097903159704e-05 
-5.594091658119937e-06 
8.691549135394392e-06 
2.245342386013545e-05 
-6.291539864323195e-05 
3.479754532798058e-05 
-2.52712878388448e-07 
5.122383733471714e-05 
-7.796832621531008e-07 
-4.956045562826851e-06 
-8.795698760518413e-05 
-8.15480657153257e-05 
-1.950870811450475e-05 
0.0001208696049355267 
7.074548414978479e-05 
4.945243541460663e-05 
-2.487467977394755e-05 
1.729699967522023e-05 
1.204827970829201e-05 
-2.046652513482719e-05 
6.056897002897439e-05 
5.435032766988312e-06 
1.695394876212545e-05 
6.606197683408708e-07 
-7.270760738369047e-06 
3.193892055608834e-06 
-5.746799619461889e-05 
-2.44497453216806e-05 
-9.42797537000835e-06 
-1.692187103339543e-05 
3.266365951612954e-05 
-3.583503901202333e-05 
7.643842939788516e-06 
-3.442405363261083e-05 
-1.697936214373594e-05 
5.535181108503681e-07 
-9.086300803212362e-06 
4.46533258344571e-06 
4.467412858772384e-06 
7.304040612372752e-05 
5.418336676228181e-05 
-5.050481791408207e-05 
-5.760849179159957e-06 
4.77827545872406e-05 
1.149160197597707e-05 
-1.488593718228733e-05 
-4.274370388212464e-05 
-5.476635677772332e-05 
-4.071651977012466e-05 
-2.760600834332184e-05 
-4.357496173025353e-05 
-2.537925556585738e-05 
-1.824964319835096e-06 
-3.025159213175177e-07 
5.204675137071917e-05 
-2.079791706395322e-06 
2.18941942469256e-05 
3.138090592092603e-05 
1.585845369144993e-05 
-9.88294261909167e-06 
-1.18193338741523e-05 
0.0001488614691319004 
2.674050147830386e-05 
-0.0001033625409771568 
-3.608697342779213e-07 
-5.48675901189588e-06 
4.190873539531396e-05 
-6.022505496741402e-05 
-3.570668026940367e-05 
1.635537636529436e-05 
-1.147872914378372e-05 
2.528883030317814e-06 
6.545076323234583e-06 
1.532095476540821e-05 
3.4143842714982e-06 
-4.996113941730002e-05 
-4.867122721840009e-06 
1.414738067530115e-05 
-7.469634950132907e-06 
3.583074332526497e-05 
-2.117007522945106e-06 
-4.735346112070062e-06 
8.826890395754711e-06 
8.486791487620534e-05 
-3.236942085336714e-05 
-2.298842556946462e-06 
3.584648247661428e-05 
7.795189187411409e-06 
-0.0001307821143308925 
8.264905167494082e-05 
6.44433697051694e-05 
-7.519909492254558e-05 
8.628038390654167e-05 
7.940107946160371e-06 
-2.909766582751538e-05 
-1.295240120870262e-05 
2.812858847350152e-05 
-5.792638060255664e-05 
-1.618503176076347e-05 
-2.398523271456771e-05 
1.694356953575378e-05 
0.000115305181718108 
-6.876057681678475e-05 
-8.081851280715064e-05 
-8.06291649583369e-05 
0.0001366422273002001 
-1.327209760227172e-05 
-1.865146347620547e-06 
3.481360735982898e-06 
-7.424997961200314e-06 
0.0001697377859498985 
-0.0001288377119813009 
-1.980029447418861e-06 
-2.535242778394648e-05 
6.346212216874608e-05 
-6.406219298166331e-05 
3.029992648369131e-05 
2.952060754285248e-05 
-4.588909249232535e-06 
2.45421040069052e-05 
-6.016334922715584e-06 
-5.97635733566338e-06 
-4.45431139101393e-05 
-1.30174837313869e-05 
-2.561047425712111e-07 
1.796717462602768e-06 
-7.062364274270006e-06 
-1.106194655370143e-05 
4.173051405677577e-05 
-2.123501692296666e-06 
-3.833935874282536e-06 
-1.012896447517274e-05 
-1.679599322973651e-05 
-3.68885241497193e-06 
1.902671144496075e-06 
-3.363460515900841e-05 
-2.781703374569291e-06 
3.720434445573044e-05 
2.572438757734472e-05 
-1.766693704501616e-05 
2.038824801076525e-06 
1.613545436433555e-06 
1.470157181407986e-05 
-8.439213264178542e-06 
-1.344114168203906e-06 
1.831550427913146e-05 
5.242858632863779e-05 
9.548100077661607e-05 
-6.831678054506797e-05 
-3.012593490237194e-05 
-2.734727610217453e-05 
5.562263370681437e-05 
1.277578788761742e-05 
-9.900301550366852e-06 
1.429684362532131e-05 
-7.106014966602182e-05 
6.215887926089132e-05 
-4.49789444530241e-05 
1.336543093738378e-05 
-8.051190126623451e-06 
9.618379023874291e-06 
-3.351061731814161e-05 
-3.981137479741439e-05 
-1.947446538238726e-06 
3.230893228917653e-05 
-2.80100118268798e-05 
-2.954588399955258e-05 
7.045219192299854e-05 
-1.086532781286737e-05 
-2.472728406249031e-05 
-6.057099936034046e-06 
1.890720652868191e-06 
-2.995833342540417e-06 
-3.405381108378901e-06 
1.63486914884976e-05 
4.733487981014827e-05 
7.00581953742214e-05 
8.339643334148696e-05 
1.205706430408819e-05 
-6.625334968057955e-06 
2.665852849988183e-05 
5.346402864760561e-06 
4.81193533043532e-06 
1.295256212164594e-05 
-5.502449312365027e-07 
1.080459804275103e-05 
-5.163353257773538e-06 
1.521428516028728e-06 
2.394266975355193e-05 
-1.041183031702587e-05 
-7.500018701508395e-05 
9.315150440235749e-07 
-5.123594983496096e-06 
-0.0001449336830729786 
3.449778766326157e-06 
1.781632152489667e-05 
-2.037280477634497e-05 
-2.172424470490729e-05 
6.970585025963082e-05 
7.160259077804854e-06 
2.487130639770851e-05 
-2.167277249389979e-05 
-2.053181757006319e-07 
2.778130465293319e-06 
-1.91284395990491e-05 
-6.107040320179352e-07 
-2.841066347322648e-06 
1.328767281509634e-07 
4.099068574999311e-06 
-1.399987107129866e-05 
6.396220084949487e-05 
1.935361412641805e-05 
3.486275134967409e-05 
-7.42693195903415e-05 
3.641389483400886e-06 
-7.290845175804283e-05 
7.138074911819982e-05 
1.833455819985384e-05 
0.0001038117675360723 
-0.000188726125394329 
-3.575096822587728e-05 
9.251642784321168e-06 
-2.451565264140333e-05 
9.787444652698437e-06 
4.189075403508117e-05 
1.607815226702592e-05 
-0.0002032509244045612 
-0.0001148831401225329 
0.0001968282902166959 
-1.951286986067987e-05 
8.993879566940922e-05 
3.403639283138527e-05 
-4.568725084761798e-06 
-2.217352303469174e-05 
2.369420924863174e-06 
-3.848014259245505e-05 
6.081394244467332e-06 
7.603482537379871e-05 
-1.543785871030152e-05 
5.524029014253364e-05 
1.579116186431158e-05 
7.701855631318851e-05 
-3.327102330177281e-05 
-1.397807821033654e-05 
-7.106310623988769e-05 
2.71139084179689e-05 
-8.085866686040654e-05 
3.100572795500473e-05 
3.505506972746031e-05 
1.977765351480157e-05 
-1.109977287543143e-06 
-5.580595172452087e-05 
-3.215158614053774e-05 
9.48580348337246e-06 
5.347069550664882e-06 
1.02681872514324e-05 
1.522934224814449e-05 
2.55665612320011e-05 
6.663428870201122e-07 
3.397218632979023e-06 
-6.192171633361634e-06 
-4.174736712398125e-05 
-8.456648314316083e-05 
9.475089547521464e-05 
1.210810873109308e-06 
-3.640809692428645e-06 
8.835600232409505e-05 
-8.789283783629027e-05 
1.115923258901698e-06 
-3.358026887608496e-05 
-2.402450126127973e-05 
4.854857570188921e-05 
-1.127033095045218e-05 
-1.019690713839004e-05 
5.338958497049206e-06 
1.869337521070599e-06 
-5.457875609962377e-06 
-1.468777426654952e-05 
1.452694172092055e-06 
3.665648001389743e-06 
-3.820646197389864e-05 
8.76637023636354e-05 
-2.29789488460576e-06 
3.475069035220474e-06 
-1.727783374900532e-05 
-4.383481600154785e-05 
2.412228374040742e-05 
-3.731058110141978e-05 
4.516952008406983e-05 
7.702481006079007e-05 
-6.247097540747364e-05 
-4.99236734229496e-05 
4.494832731849308e-05 
-7.802684348069781e-05 
-9.862178266168362e-06 
5.09644829716307e-06 
-1.028411203013129e-06 
3.592405761905772e-05 
1.978762411040642e-05 
2.276502014184873e-05 
-5.907955058132444e-06 
5.884312870854426e-05 
4.54352966193053e-05 
-1.317547512123615e-05 
3.906341948301903e-05 
-4.079679291939743e-05 
-4.849942284565456e-06 
-2.74953003409009e-05 
1.016019527713046e-05 
3.227298762141238e-06 
-4.159743012432808e-06 
-5.256543612151133e-06 
3.164108348960865e-05 
1.469361876079566e-05 
-6.241821978813163e-06 
8.760668260443266e-06 
3.878654306212392e-05 
-9.336927321183508e-07 
-3.764848401582415e-05 
3.188669828535296e-06 
-3.210241426890122e-05 
2.320172477267823e-05 
2.108187652607213e-06 
-1.682175691255584e-05 
2.782729398782787e-06 
-5.444478514295326e-06 
-3.382004184397137e-06 
-1.680247893254812e-06 
1.547373798891407e-06 
-8.661489891671819e-06 
1.394075094300402e-05 
-7.416796801863823e-05 
1.757649359511761e-05 
-8.085207586477934e-06 
1.412925879922727e-05 
-4.198548593986174e-06 
4.059907181074607e-06 
-4.555433961419369e-06 
-2.265752982061664e-05 
3.543123914576214e-06 
-3.734004673139694e-06 
5.04032004180437e-05 
-4.561736305786451e-06 
5.95436962645388e-05 
1.443327296028702e-05 
-6.812233093551156e-05 
9.767914128032279e-05 
-0.0001152898958856266 
8.902456047760853e-06 
4.786623120053957e-05 
2.304256138426579e-05 
6.166053673070335e-06 
4.28318624512667e-07 
-1.147246572728492e-06 
-4.779241443906666e-05 
2.565897527433991e-05 
-2.460950830089436e-05 
-3.696628333186062e-05 
-4.197291281681505e-06 
5.777893402900263e-06 
-6.368453471963853e-06 
-3.852164755509389e-06 
-1.477472865379976e-05 
7.224529547701904e-05 
1.933552561742993e-05 
-1.063447629811666e-05 
2.078942334465852e-06 
-5.375020104393067e-06 
-1.618853650648015e-05 
-2.476272132347985e-05 
2.019374119571734e-05 
-6.022358834835298e-05 
-2.217240166838096e-05 
-2.052380792727903e-05 
2.973397238274905e-06 
-5.083984092874033e-06 
-5.197860383253217e-05 
4.717303881273873e-05 
-6.271068090210163e-05 
-7.533503963015478e-06 
-6.704050989699983e-06 
8.328905651911519e-05 
-7.185813570561356e-08 
5.133048568615334e-05 
0.000114744785274187 
1.336581888136325e-05 
-0.0001319986415185835 
4.906293211166894e-05 
-6.055104308968695e-05 
8.673674672451822e-05 
0.0001933179593879375 
-0.0001425727333676979 
-5.380742683545727e-05 
3.589809663134815e-05 
-4.975221197925086e-05 
-8.191175200905243e-06 
-2.750466419806344e-05 
-1.250589088125685e-05 
-8.00093309668216e-06 
3.583234421025016e-06 
5.476097569172147e-05 
7.384222085681099e-05 
-1.19050063236924e-05 
-4.159519931194284e-05 
-5.850872789408899e-05 
0.0001134309321488509 
-1.558994800447273e-05 
-2.205539512937663e-06 
2.552566796784735e-05 
1.779044708649053e-05 
-1.697321308595289e-05 
8.136913019322589e-06 
7.746858509640885e-05 
3.170702459152389e-06 
8.009398605760591e-06 
3.246758890676028e-05 
-4.090867853484745e-05 
-7.498849089359111e-05 
0.0001314982969012176 
-0.0001072562930749031 
-0.0001082070204265401 
-2.005650378669747e-05 
-3.536751256925066e-05 
4.992853566634801e-05 
2.919840366351723e-05 
-2.741062630366124e-05 
1.704344012313558e-05 
7.740395859580391e-05 
2.466173477501629e-05 
-3.272857125300023e-06 
8.71386654990169e-05 
-1.011450356345112e-05 
-5.138674578036806e-06 
-9.160093943871819e-05 
-1.469071063274489e-05 
5.863574022552975e-06 
-4.584500924925906e-06 
6.859352959773659e-05 
-1.232012773083063e-05 
-7.369554695905572e-05 
-4.681540420951828e-06 
-2.939919629470061e-06 
-0.0001127713872321581 
-4.924661826559789e-06 
4.33741306605848e-05 
1.830036071962093e-05 
7.618312976792985e-05 
2.906638907296139e-05 
-1.791595299174927e-05 
2.433800753607863e-05 
2.633154122706053e-05 
5.332869289525836e-05 
-1.999062457305408e-05 
-5.011391650877585e-05 
-8.179849642011331e-05 
3.524299473222972e-06 
0.0001291637800677947 
-1.243884151422985e-05 
8.066960511508435e-05 
-0.0001140128658984372 
-9.227503681125442e-06 
-7.695391322813339e-06 
-3.452038806506173e-05 
-4.457890344349901e-06 
3.471297950359849e-05 
-3.006628809222301e-05 
1.470773320419741e-05 
3.000171474890474e-06 
1.796920609444643e-05 
2.729334766503661e-06 
-3.118391663452432e-05 
9.147490790318263e-05 
-1.080308783970343e-05 
3.277822687016805e-06 
1.761770261209515e-06 
1.451401935533558e-05 
2.720898759922211e-05 
9.724172560104517e-06 
2.837841724232484e-06 
8.670015477433757e-06 
-3.554829434143108e-05 
-5.810649876743683e-05 
-2.686427457433114e-05 
7.823191651763005e-05 
2.174218620881951e-05 
-2.592243179540769e-05 
-6.010196373422087e-05 
1.070059861887309e-05 
-3.245373945674045e-05 
-9.717305713628631e-06 
6.240189192664116e-06 
2.172590591581032e-06 
-1.648306484746562e-05 
4.158650086967604e-06 
-0.0001328816849269375 
6.74655337157001e-06 
3.157132530530006e-06 
-1.431697187183668e-05 
6.172367693527332e-05 
1.033991938329214e-05 
0.0001807087543370474 
-9.101281272629917e-05 
-1.306937942333149e-06 
-8.458232491000223e-06 
2.099508746817688e-05 
2.862706878695569e-05 
1.597236654421816e-05 
-6.587635722071155e-05 
7.374207580990574e-06 
-1.07379616705869e-06 
3.690575324330468e-06 
5.364344979509115e-05 
1.802945303237042e-06 
-5.915417722760357e-06 
-9.448752706783125e-05 
4.255850510389654e-05 
-0.0001666934194877005 
5.034451473876413e-05 
-3.803332471094875e-07 
0.0001058099982499558 
-4.122712821413018e-05 
2.420216113091017e-05 
2.62874044043529e-05 
3.936880107055396e-05 
8.818811217619509e-05 
-2.706844147405047e-05 
-3.000508308101141e-05 
8.190139246353595e-06 
3.727046181880398e-05 
-9.400872207712e-06 
4.146008614079939e-06 
1.529929301821077e-05 
7.097182263490977e-07 
-1.309205439742854e-05 
-4.182497744826524e-06 
1.347563150165008e-05 
3.78716077042751e-05 
1.065695755656255e-05 
9.285099075666525e-06 
1.072583654214984e-05 
-3.677560271439684e-05 
5.697669804827912e-06 
-3.565101722298941e-05 
-2.617545915676263e-05 
-5.785219797381147e-06 
-1.352038678371184e-05 
-2.107717315460553e-05 
-3.306260858851261e-05 
5.878570067856927e-05 
-1.308178799245108e-06 
0.0002431075492407586 
-0.0001242920287869102 
7.758755099124551e-05 
-2.693802187524428e-05 
-2.157263911675654e-06 
-1.860623126252031e-06 
-8.358492462795516e-07 
4.203386318325493e-06 
2.620467256093541e-05 
-2.1433115825545e-06 
-2.045358796515043e-05 
3.030159034661571e-05 
-1.612499766869542e-05 
-1.105113340554291e-05 
-3.45975303247024e-05 
-1.899851801158125e-05 
-5.459344236037989e-06 
-3.55858926591087e-06 
4.759562451789597e-05 
-1.550543374761421e-05 
-5.066232288324285e-05 
-0.0001473828062857953 
2.774349934188099e-05 
7.382436612605255e-05 
-2.717055462677489e-05 
-8.420823846593898e-06 
1.707646340250199e-05 
-7.726824799344072e-06 
-2.716431813088066e-05 
-3.459825681662477e-05 
-2.02354782201538e-05 
8.114709188594231e-05 
-7.809743979430188e-05 
8.600022238497955e-05 
-2.520154291903858e-06 
-1.293247087725266e-05 
-3.605900474410668e-05 
5.536936989794608e-05 
-6.420569873797519e-05 
2.002213707581864e-05 
-3.21014606103974e-05 
2.39530096358863e-05 
1.963646782966626e-05 
5.85741729826616e-05 
1.62392326583591e-05 
2.408672794463015e-06 
-4.670345080587087e-06 
-4.448497817010303e-06 
-1.483577285870483e-06 
-3.215958454117325e-05 
2.117771836506176e-05 
-1.605807415957963e-06 
-1.349083933151831e-05 
-1.230690278483798e-05 
5.271125865618851e-05 
-3.169249593142515e-06 
4.928016613340502e-06 
-2.263893359463975e-05 
2.521559857381367e-05 
-3.785207229927632e-05 
-8.987212205960912e-06 
1.703194585903128e-05 
-1.232650229497497e-05 
2.380367102329716e-05 
-3.245319702161895e-05 
8.31804222924821e-05 
-1.680100170268288e-05 
-2.249287774331654e-05 
-7.938916165618789e-05 
0.0001283363855784297 
1.027542793655266e-05 
-3.041641469928983e-05 
2.379053695787757e-05 
2.050373347914446e-06 
-1.423085189498785e-05 
3.100543628015452e-07 
9.547122700698042e-06 
-4.546568799475498e-05 
-1.31414227972617e-05 
-1.983725722603926e-05 
2.9510660496026e-05 
1.026481637123192e-05 
1.545800199728185e-05 
-7.300350318145948e-05 
-7.254913114844282e-06 
6.362848235858907e-06 
-2.624182722709758e-05 
8.69489641594447e-05 
-5.851300395379174e-06 
-5.864864425686544e-06 
-3.063782268990378e-05 
2.316746433903549e-05 
0.0001416455772543241 
-6.581257746358942e-05 
-1.410381174056725e-05 
-7.839203467556718e-06 
-9.136344320220965e-06 
2.381669239629002e-05 
1.836637401494247e-05 
5.871051469618311e-06 
-1.012520158513539e-05 
1.630469700062863e-05 
-1.989470719539583e-05 
-1.044480834727754e-05 
9.481779128794415e-06 
-1.656161267387983e-05 
0.0001529804705779294 
-0.0001445363343445158 
1.884415807167598e-06 
3.537909660179288e-05 
-1.658549373685697e-05 
1.006554216896566e-05 
-1.730961014049853e-05 
1.614762725742642e-05 
-1.293217201012879e-05 
-6.332998863786984e-06 
2.26572627721765e-06 
-5.867277090794471e-06 
-5.819314260297338e-06 
-7.949686898241697e-07 
-7.408542802328199e-05 
7.679340017834552e-06 
1.136335912397638e-05 
1.057299224321539e-05 
1.572674890198987e-05 
-6.479337511783946e-05 
-1.038074712316636e-05 
4.222183392438868e-05 
-0.0001193295245016596 
-4.371592655134188e-05 
3.033815411335186e-05 
1.151722297456683e-05 
1.125363005966243e-05 
-2.249628654534646e-05 
-4.891261476307607e-05 
4.187694601051129e-05 
6.410513801122819e-05 
0.0002325210382118702 
7.660163769035044e-05 
1.247515715970875e-05 
3.03975177635964e-05 
-9.002246472737041e-06 
1.418742518829545e-06 
-6.916537403352887e-06 
-6.111753310013986e-05 
1.061800877180284e-05 
6.135238798824245e-05 
-6.380992098427568e-06 
-5.478236161743608e-07 
-1.532935737890183e-06 
-5.526153493355298e-05 
4.538833376059748e-07 
-8.011339195015642e-05 
-5.891838444141959e-06 
-0.0001462957924283958 
6.545393073620836e-05 
-6.760564508266227e-05 
2.336780314220046e-05 
-4.049276484118239e-05 
-2.887396850909634e-06 
3.107601658818333e-05 
3.128919160757315e-05 
0.0001881931553546938 
2.045756937684024e-05 
3.488252212557323e-05 
-5.272188279314915e-06 
-6.056700583375712e-07 
-1.606742485823132e-05 
5.303686966728101e-06 
3.679815263405097e-05 
-9.42797537000835e-06 
-3.021765079177164e-05 
1.865259761741554e-05 
-5.412515439145226e-05 
-6.379816907015883e-05 
-2.386194142472578e-05 
4.526501083766302e-05 
-6.657582965058594e-06 
-6.620986312535764e-06 
-2.053573143521211e-05 
3.579690707625479e-05 
4.140120997560545e-06 
-1.279345395611193e-05 
-1.447918092915088e-05 
3.260845878859482e-05 
-9.231326972698175e-05 
-1.442612938301014e-05 
5.586633985520941e-05 
-1.290863216928751e-05 
-1.090284055858057e-05 
1.657503814302786e-05 
1.543646551711168e-06 
-5.389918153432907e-05 
-5.072140097136935e-05 
-7.739716836988961e-05 
1.198040976357153e-05 
-5.006007312887172e-05 
-1.760032989909674e-05 
-1.610396887866259e-05 
0.0001308162001052923 
-5.797370960757167e-05 
9.219824499095352e-05 
-2.028946432423832e-06 
1.117515209481422e-06 
1.135166786422626e-05 
-6.780278650513784e-06 
-4.253239377815657e-06 
2.781857844146136e-06 
2.214857240488884e-07 
-2.02526912602481e-06 
1.433560064631549e-05 
-1.026185971925281e-05 
1.587866681426472e-06 
-7.072013499302139e-06 
2.910223010000915e-05 
1.290373312291544e-05 
-3.42093820201442e-06 
2.60510232067561e-05 
6.198677024323402e-07 
3.331987243543881e-05 
-7.412557801009524e-05 
6.762684273681969e-05 
5.328430573058681e-05 
-6.20148337056953e-06 
5.419419104172186e-06 
-1.260597559575949e-05 
-1.368482074998482e-05 
-6.220782644038776e-06 
-4.03693457985901e-05 
5.18690768705407e-05 
7.786287260787734e-06 
3.263583861816297e-05 
-3.042095421849053e-05 
3.902175127922827e-05 
1.197984653002795e-05 
-5.737511513792557e-07 
-3.436928574272506e-05 
-4.736942194566081e-05 
7.598650506004134e-05 
6.517816454856449e-05 
-0.0001631368183227901 
-3.669573883736585e-06 
-4.139217834563063e-05 
-4.784012346597194e-05 
-1.172069697561359e-06 
7.207426471748314e-05 
3.529063376864566e-06 
-2.80490752811419e-06 
1.834063426600382e-05 
-3.006579982813137e-05 
4.361387515102246e-05 
0.0001044729173124697 
-3.256161528818304e-05 
6.606175594952013e-06 
-8.814273522816336e-06 
1.621988704016397e-05 
2.657079601493222e-05 
-1.636126134360067e-05 
-1.373472671290122e-05 
4.052245098559593e-06 
1.178147675258435e-05 
-1.744224399999618e-06 
5.315399778263269e-06 
-1.036554945487794e-05 
-6.848583274281463e-07 
-2.725828413565583e-05 
5.123668976429286e-05 
-1.206875311355094e-05 
-3.573103292991263e-06 
3.110195741987988e-05 
-1.085720586809679e-06 
9.76306030332452e-06 
1.85090773380215e-05 
-3.732867831780651e-05 
9.290344207095439e-05 
-3.022211943615164e-05 
-1.805179147808791e-05 
-5.218175353471503e-05 
-0.0001042710438816205 
0.0001382168181429402 
-0.0001011510779668751 
-2.803929571069746e-05 
8.391065259945485e-06 
6.9606994665844e-06 
9.934985773217807e-06 
1.064979532800273e-06 
3.062245007845289e-05 
-4.057399137143458e-05 
-3.398830379301285e-05 
3.405932599592392e-06 
-3.148894326601768e-07 
8.599178961757006e-05 
1.066890481395286e-05 
-3.781801484383782e-07 
1.394493153389277e-05 
2.570470783532545e-07 
-2.819894861291594e-05 
3.31683726950212e-05 
3.269413168176293e-07 
-8.581820827193615e-07 
-4.445967079392241e-06 
-3.970488332105616e-05 
6.057773793578745e-05 
6.80780441180787e-06 
-9.676498677233365e-05 
6.137427812671645e-05 
-3.170581440696105e-05 
5.833238059838343e-05 
-6.51222269503888e-05 
7.58337172881612e-05 
2.699930311680635e-05 
2.804465388435683e-05 
1.059783760976368e-05 
1.170411599832966e-05 
-0.0001689196121185407 
0.0001014796575587072 
2.055713306953448e-06 
-2.539771121736367e-06 
-0.0001107155491995154 
2.016688902457593e-05 
2.636719880371206e-05 
-9.6750185596389e-05 
0.0001077446870469821 
4.854808436254345e-06 
-5.121167926478835e-06 
-4.270508306917417e-06 
1.730270006523311e-05 
2.155601731210854e-05 
-4.886884744553565e-05 
1.333703660999531e-05 
-0.0001082831421977187 
1.863401128075071e-05 
3.348304033692697e-05 
-1.317976502355298e-05 
2.509027689372378e-05 
-2.60764767861756e-06 
1.891488968090249e-05 
1.459973074655785e-05 
-2.668628821421861e-07 
-4.19202346339869e-05 
1.792219056558875e-06 
1.631328009543208e-06 
-9.151005507740988e-06 
8.543225795341345e-06 
1.609629051809622e-05 
3.247173750117987e-05 
-1.680389307725591e-05 
-4.821311565463155e-06 
-3.941827321299827e-05 
-1.850350537651999e-05 
1.277304003439122e-05 
-0.0001185343534164642 
1.754404876455557e-05 
2.922009731308762e-05 
-1.905266426956353e-05 
-1.606964137084996e-05 
-1.040795847447108e-05 
5.880599598688185e-05 
-3.298134747951941e-05 
-1.359793900313021e-07 
1.171716538277912e-05 
1.150535178461885e-05 
8.594814954454211e-05 
4.395716498146372e-05 
5.12903296124015e-05 
-7.322335091286607e-05 
-3.707646618926767e-05 
3.020383021589685e-06 
1.462553865423317e-05 
-2.694683195653187e-05 
4.409112215301655e-05 
-1.548546905686509e-05 
-9.96252183997167e-06 
4.035100052638578e-06 
8.396017149525953e-07 
4.126739549124895e-05 
-5.520878253268485e-05 
-3.066135946044615e-05 
0.0001034922093986305 
2.543276118033801e-05 
3.698697533683646e-05 
-1.317749089140037e-05 
4.419220120786539e-07 
1.450925332074565e-05 
4.228102349564905e-05 
-1.520973812411796e-05 
-6.886546686005537e-05 
-4.804956912451641e-05 
-4.59441254015542e-05 
4.839415555073131e-06 
1.305416599933116e-06 
4.834839166896581e-05 
1.000923028682003e-06 
-2.223370098835284e-05 
-8.720766791031989e-05 
-7.802652865073314e-05 
-7.504616728055016e-06 
-4.985434771068778e-05 
-4.099435641108733e-07 
-4.407175005630386e-06 
1.15251224705251e-05 
-7.485644423848738e-06 
3.977222877111614e-05 
3.835489559651014e-05 
8.376451306453039e-05 
3.560492075794487e-05 
0.000152631018416613 
-0.0001706518862092138 
6.149266766633223e-05 
3.850772575341266e-05 
7.871604283827602e-06 
-4.250542586116925e-06 
-9.043786786683101e-05 
-4.714166611401718e-05 
4.101314571378086e-05 
2.050253328468475e-05 
-3.416198869047736e-05 
-1.146914604014747e-05 
-8.586476754564543e-06 
4.258771877616767e-05 
2.180865649370209e-05 
-7.865043385275632e-05 
8.770918069709902e-05 
-2.117070630411719e-06 
1.157740829863849e-05 
-2.967005362218036e-05 
3.317270064957335e-05 
6.672900680635107e-05 
3.100238928071603e-05 
-1.068769430279341e-05 
1.71137821270368e-05 
-3.854401858644698e-05 
4.476643833135512e-05 
-1.509155846165987e-05 
3.693222490119294e-05 
3.233749801453887e-05 
3.514970626777009e-06 
-1.382707240893102e-05 
5.721668540070383e-06 
1.58137047384159e-05 
-0.0001300475281242498 
2.24240746026559e-06 
2.578056068773239e-05 
2.51340262216245e-06 
7.998565531142349e-06 
0.000131995743629397 
-8.297288169574493e-06 
9.282232864126602e-05 
-1.611638485501726e-05 
4.124853121976904e-05 
6.238864611249106e-05 
6.615477245740735e-06 
2.017368784970608e-05 
1.440523524399637e-05 
-4.844691624797564e-06 
-6.993062528393985e-05 
-8.303902449661788e-06 
-1.447118620056537e-05 
-7.221545851978334e-05 
-5.786898832572967e-07 
2.360031209412714e-05 
3.404578183894287e-05 
-3.669526279108415e-05 
-0.0001474451423720462 
4.000429347930094e-05 
-2.144262700199216e-07 
1.07907606227308e-05 
-9.307060710594681e-06 
-1.325301429123527e-05 
-4.751807298943795e-06 
-5.806131417550582e-05 
5.246628131768487e-06 
-1.991079278325351e-05 
2.134385070682964e-05 
-5.153319903574693e-06 
-9.767263952740732e-06 
2.544701966209178e-06 
-1.591313059731811e-06 
0.0001034631944603323 
5.043836143364652e-05 
-3.856752834691076e-05 
2.597326903083982e-05 
6.470952450038042e-05 
-1.41360105289509e-05 
-4.148000712941326e-05 
2.119614477750318e-05 
-8.737745834689205e-06 
-1.07224172744992e-05 
3.276602145571433e-05 
-8.596193315770562e-05 
-1.354380095434857e-05 
9.26236313434586e-06 
-3.965397653244481e-05 
-2.875745521483299e-05 
9.496793842046434e-05 
1.600692304783806e-05 
3.900728663433926e-05 
-8.692104814395728e-05 
3.236552528708521e-05 
7.7818412855341e-06 
-1.810816039044824e-06 
-4.168015834207184e-05 
1.154888238858139e-05 
-1.115791500802173e-05 
4.232959768778224e-05 
1.420159294138871e-06 
-9.564946789885483e-05 
8.354093722816238e-05 
-6.054057124854617e-05 
-3.586534931845453e-05 
-5.912068258457163e-05 
4.12864541774244e-06 
3.428936364723432e-05 
1.993975540646556e-05 
1.851300394573317e-06 
6.121357986538077e-05 
-1.246216201451941e-05 
-7.566892230515648e-05 
-2.898623892894165e-05 
-4.027756954730129e-05 
-8.581874164042938e-06 
-4.216267634144607e-05 
3.214857397773452e-06 
1.146466935914176e-05 
2.980505925037453e-06 
-7.167549563212027e-05 
1.634861282104589e-05 
8.96682652111715e-05 
-2.351673906996214e-07 
3.576977099953992e-05 
-0.0001025312735268373 
5.684193287395656e-06 
-4.319166460460627e-06 
7.290483956948883e-05 
-1.017394984860608e-05 
0.0001047987547700468 
4.302115459045601e-05 
-6.909847434535125e-06 
-5.665381757899978e-06 
6.212597659640089e-05 
0.0001362149018368481 
-2.43105337385988e-05 
0.0001067434670015867 
-9.52763448037305e-06 
-2.171532941840681e-05 
3.190705543810044e-05 
-3.24307955300994e-05 
-4.575791309967034e-05 
7.075050663565975e-05 
4.141637041961686e-05 
-1.486488184654855e-05 
-2.5579044696144e-05 
2.198615995182588e-05 
-8.004229804678176e-06 
-1.946967466349878e-05 
3.860999181593839e-05 
-0.0001275745427895179 
-2.297142050200723e-05 
8.916099487271468e-06 
6.12353353710077e-05 
-3.825215152507383e-05 
1.88063971651417e-05 
-1.852732858903435e-05 
1.928860210094336e-06 
7.666303106462805e-06 
-1.457478348333962e-05 
-1.523276925185706e-05 
7.180909543400424e-06 
-7.769802282026842e-05 
-1.726117798504401e-05 
-5.609322296867917e-05 
-2.876477871605013e-05 
2.69011706660301e-05 
2.644133167987231e-06 
6.12723645279471e-05 
-9.522784183896891e-05 
-2.846713721918033e-06 
1.127871924842225e-05 
1.14960123438579e-05 
-1.698979349593929e-05 
-2.837803419430201e-05 
1.627132379147404e-07 
-4.286535247487329e-05 
-2.67356382821452e-05 
-9.832808495255084e-07 
2.506992662555254e-06 
-0.000130427878242614 
-3.836720531765993e-05 
0.0001551086655839234 
1.85604305831006e-05 
-8.031161346534984e-06 
-3.047640510574154e-05 
2.275107370435072e-07 
-4.01521648745541e-05 
-2.291416636586139e-06 
1.076487482447097e-05 
3.735012402565082e-06 
2.354315442996696e-05 
4.827369825686227e-05 
0.0001106402266021041 
-3.427548649873214e-07 
-2.302302493829804e-05 
5.443064301246174e-05 
-7.170659630357648e-06 
-4.273788957371943e-05 
-3.204185576460807e-06 
2.583658511549129e-06 
-3.985217188438268e-05 
2.839491592912949e-05 
-4.589737835186646e-06 
-2.203096727893263e-06 
1.15158690902194e-05 
8.048386210328505e-05 
-1.382036188258729e-05 
4.269718261706737e-05 
-2.625052652266429e-05 
1.456999238088172e-05 
-1.746380286719733e-05 
1.025611625239422e-05 
3.372636843492653e-05 
-8.250155083804486e-06 
3.0608359260271e-06 
6.205514963064777e-05 
-7.440483698118082e-05 
-3.586481750267463e-05 
1.614869046233916e-05 
-2.823180376984556e-05 
-5.532517318851578e-05 
5.822206565770992e-05 
-1.720399970224996e-05 
2.202516955741077e-05 
-7.88614434642878e-06 
5.022379130368849e-06 
4.798601952136799e-05 
-2.864603474365859e-05 
-1.246117159193192e-06 
4.908809144161994e-05 
0.000112427777953936 
1.714933270598425e-05 
-7.28444928240599e-05 
4.491959927710133e-05 
-5.990617855386615e-06 
-7.205745203534086e-06 
-6.680218336938695e-06 
3.818978441530423e-06 
2.797262322648004e-05 
8.626433549804669e-06 
-3.681399532797808e-05 
4.757910171233663e-05 
1.81857407246067e-05 
-5.853598191245411e-05 
2.214026902285543e-05 
-6.420936288046883e-05 
3.538676394315228e-06 
-0.0001484285344070491 
5.614982414550193e-05 
6.533029728371975e-05 
5.284316660614418e-05 
4.248776812192815e-06 
3.651161409128591e-06 
-7.213803191816271e-06 
-4.511275711436751e-05 
-0.0001233020303558557 
2.623895915653817e-05 
0.0001087600699543334 
8.967954741194741e-06 
-7.84103006037069e-05 
-3.226693510670251e-05 
5.22937123700315e-05 
2.553450250312841e-05 
5.688444848353812e-05 
1.655720886220298e-05 
-3.152179908901409e-05 
2.686901865659869e-05 
-4.235924988111591e-05 
3.6003108368826e-05 
-2.114101851641696e-05 
-4.496496661540156e-05 
4.470607545115033e-05 
-6.775014891290752e-05 
-9.772462246718438e-05 
5.818398660611613e-05 
2.50742740725639e-05 
5.186786163628081e-06 
2.258700353546653e-05 
-3.441229638497016e-06 
-8.013568620883265e-06 
3.972623755435242e-05 
3.529001759132533e-05 
-2.001392351991549e-05 
-9.646793450293429e-05 
-5.559516711365109e-06 
1.560066196096727e-05 
5.776039067937406e-06 
-6.671571713798197e-05 
2.999950179417762e-05 
2.079271339024573e-05 
1.905751441874267e-05 
2.746069725583771e-05 
-3.877073194380359e-05 
-6.854474104157462e-05 
1.209150659240994e-05 
1.039902212429798e-05 
-8.477124039397155e-05 
-2.227928117910154e-05 
8.010316286093608e-06 
-1.369728688999858e-06 
0.0001038294099986065 
-2.565791123477341e-05 
-8.658907392721348e-05 
2.740337693230904e-05 
4.774924045400479e-05 
1.264065336568038e-05 
2.949677710474234e-05 
9.519250209826573e-05 
3.905368614098578e-05 
-2.231816148854499e-05 
-8.922035210190658e-07 
-5.301545012595303e-06 
-1.269543736253771e-05 
1.467025654013414e-05 
2.568620104742244e-05 
-8.705795104096898e-05 
1.620386983403551e-05 
1.58605886766135e-06 
-3.895098677480751e-06 
-6.319752770341704e-06 
-8.732741488739831e-06 
4.997976531433283e-05 
3.963501909846696e-06 
2.882332547352997e-06 
-8.265602773918256e-05 
2.438172644860616e-05 
0.000147914323585299 
-4.454779301808355e-05 
3.321649605295323e-05 
5.308999456219148e-06 
-1.315204482962789e-05 
2.736493136734622e-06 
3.639687648705894e-05 
-4.98149164292851e-05 
7.337167028450437e-05 
7.99044154291304e-06 
9.406162031419484e-06 
3.847431341623045e-05 
5.181639955005518e-05 
-6.721512400613682e-05 
8.180254294771283e-07 
-1.497052401930618e-05 
4.761758994996749e-06 
-1.325709765697452e-05 
7.282154351293358e-05 
7.771736762119858e-07 
-1.868599138311744e-05 
-5.672587201099437e-05 
9.495367714722984e-06 
-3.723451431493846e-05 
-0.0001245361519083475 
4.00993053429347e-05 
4.714845814329395e-05 
-4.524406613020419e-05 
-3.73311289713842e-05 
2.407859499753414e-05 
4.412167955349381e-05 
-4.999607140837211e-06 
-2.092859925358597e-06 
3.381997435251023e-05 
2.578916873049656e-06 
-8.507400934243862e-07 
2.695432319517828e-06 
-4.696492593945778e-06 
1.074778880180734e-05 
1.158827187524392e-05 
-7.700780088328161e-05 
-1.200042441247358e-05 
-8.387699943985928e-05 
0.0001362857470166672 
2.734848050446804e-05 
-7.591793910392623e-05 
-2.911097398987602e-05 
1.93810769125446e-06 
5.730356955411341e-06 
-2.693136103756932e-06 
3.54277383732594e-06 
-3.950747737744789e-05 
5.678611516131424e-05 
-1.189135930022122e-05 
-9.231477722547193e-06 
-7.273531629661073e-05 
0.0001212025569731916 
0.0001084325752674935 
-1.264256021018903e-05 
2.373931875188676e-05 
-0.0001136635186359321 
-1.199653531843267e-05 
2.299108163812963e-05 
0.0001151004590688281 
4.057148075128428e-05 
3.159495249659288e-05 
-1.011596691945312e-05 
1.022322708651199e-05 
3.05096942846632e-06 
-2.23425282064081e-05 
5.554832628581333e-05 
1.927634610275055e-05 
3.200069192928494e-05 
-2.97025662078975e-05 
-2.535271080236488e-05 
5.239438168823583e-05 
-0.0001341546816110084 
-2.612640596860932e-05 
3.325526783351959e-05 
-7.856715027836097e-05 
-2.045126428139905e-05 
-2.001355307408571e-05 
-8.103013253497295e-06 
-2.561666989144484e-05 
3.122586646915711e-05 
1.486706583799667e-05 
3.365302661789846e-05 
2.115443289070167e-05 
-3.637419754638596e-05 
-3.815697000365205e-05 
4.083617924773755e-07 
-5.123158129361139e-06 
-1.087252086851148e-05 
-5.997034886946264e-07 
-1.154992482776739e-05 
8.316470787751881e-06 
9.933010606710088e-06 
-3.818877250399518e-05 
0.0001176935890278669 
4.087348703489911e-06 
1.651586231828867e-05 
-1.14378016617845e-05 
-1.197487729643181e-05 
2.920011060203898e-05 
3.290621082007234e-05 
-2.713336662368662e-05 
5.495367094999586e-06 
-4.327330058462389e-06 
-4.858754790885881e-05 
-2.519334498715693e-05 
-4.328506758656227e-05 
-2.411285620702906e-05 
-1.912569636318118e-05 
-2.42684783073302e-05 
-4.920817470824861e-06 
7.088303913123961e-07 
-4.283792996172602e-06 
-2.194975073177727e-05 
2.265379210462751e-07 
3.156903656044802e-05 
4.43810539641662e-05 
6.87373569828802e-05 
-4.309821383208385e-05 
1.413705597687604e-05 
2.399426280668139e-05 
-1.882158781500739e-05 
1.099370773754571e-05 
1.013359155745417e-05 
-1.12929248400677e-05 
-1.799601837193306e-06 
-3.25442444193907e-06 
-1.357747703104474e-05 
5.671515130019725e-07 
1.036722704958021e-05 
-1.240585672553618e-05 
1.742416770459306e-05 
-3.074551659984797e-05 
6.310140076759109e-05 
-3.220287199248165e-05 
-2.301655860898624e-05 
-1.748109813127069e-05 
-4.666895109205855e-05 
-1.35903799347655e-05 
-7.089360552299897e-06 
-4.514823485427173e-06 
3.526735386799782e-05 
1.473803009322678e-05 
7.583696992823663e-05 
-2.485782605232551e-05 
-2.623109083916083e-05 
-7.304371418781341e-06 
-2.803092109235037e-05 
4.00956003842201e-05 
-3.499220286692415e-06 
-6.790119106571104e-06 
7.275987324702265e-06 
3.392126144234099e-06 
5.080295738293341e-05 
-2.345949066541873e-05 
1.141108581697894e-05 
1.998051375151926e-05 
-1.137039701960684e-06 
-2.991631489837467e-06 
-4.164106998652703e-05 
-1.123066195764327e-05 
-5.945493679990682e-05 
5.536100527505881e-05 
1.338301883236253e-05 
5.772163006720774e-06 
-1.100239115460263e-06 
0.000191948899354415 
-2.613028538294571e-07 
-6.768731004926081e-05 
6.672382411031115e-05 
-1.585951059341981e-05 
3.203195356258704e-07 
-9.326354150654169e-05 
3.727642639023956e-05 
-1.992837226180159e-05 
-5.402458679524913e-06 
-9.998487991602759e-06 
-5.82427619691983e-05 
2.409917624808335e-05 
7.656708144989646e-06 
-8.254180886035861e-05 
4.406925321815027e-05 
1.091773743497516e-05 
6.124651183122694e-05 
2.143010724546155e-05 
-5.175324832731161e-05 
-7.068249262843683e-05 
1.674550936458226e-06 
3.970303369770844e-05 
-0.0001115420993201609 
-5.747560125014956e-06 
3.204266125294696e-05 
-1.208943433859547e-05 
0.0001236873658342019 
1.116878414608415e-05 
5.317444449998884e-05 
-5.499529272831366e-06 
-2.219393813491959e-06 
-1.860594029266454e-05 
2.227785009970351e-06 
-3.360330186314629e-05 
1.068126105272519e-07 
2.929033718684402e-05 
-1.037343865139206e-05 
-5.31755470853122e-05 
6.974103477703536e-06 
3.924535444562507e-07 
-2.668205255183815e-06 
-1.601312772627594e-06 
-3.130471073438126e-05 
-1.848814652034106e-05 
1.438084086602728e-05 
1.073535017280643e-06 
-2.713898115778279e-05 
-1.46917328742825e-05 
2.054080772194033e-05 
1.4018760817378e-05 
9.461842747264525e-05 
-4.055218980864172e-06 
-1.075884692529478e-05 
-1.958667396299311e-05 
8.57948420133431e-06 
9.429540343445363e-06 
1.666893167194137e-05 
-8.406873575764532e-06 
-1.492438610687542e-05 
5.810667415922923e-06 
-7.955071887303274e-06 
-7.874890091607637e-06 
1.626445649519735e-05 
2.497138768803887e-05 
-9.61381237348454e-06 
2.385178064185365e-05 
5.651457016561848e-05 
9.605951734440566e-05 
-1.966503691395863e-05 
-6.155425127601069e-05 
6.944477420924686e-05 
1.220066512666038e-05 
3.48838669398914e-05 
-0.000239177913663303 
6.460767055496067e-05 
-0.0001758599511554249 
0.000129031755252444 
9.310581043345788e-05 
2.927078289676769e-05 
6.033314643760639e-06 
1.344478853659913e-05 
-4.906338935033048e-05 
-5.603457091181615e-05 
0.000128153034780034 
2.759815674730286e-05 
1.696102645911131e-05 
-1.054809082725106e-05 
-1.156286823088615e-06 
-2.459390581676969e-05 
3.442434370708523e-06 
-1.044917992456761e-05 
-5.301202547809777e-06 
-1.817101093908885e-05 
-1.768287885632258e-05 
1.279543946618722e-05 
1.278682732413852e-05 
7.091407126096473e-05 
2.267278527731934e-05 
-7.417259754622612e-05 
5.613255326312637e-05 
-1.228801616090371e-05 
3.53443634401133e-05 
1.962451444656825e-05 
9.357615693980325e-06 
-6.186369894195248e-05 
-7.120640531890399e-05 
1.66600171687144e-05 
-3.705143867996199e-05 
-5.406528339250845e-05 
-3.510630229519713e-05 
-4.567152521385101e-06 
-8.300495412835775e-06 
5.803394415717107e-05 
-1.830996046414937e-05 
-2.562142220519801e-06 
-2.767934064029028e-06 
-6.625198145669013e-06 
-5.528726954313519e-05 
-1.356666975592064e-05 
4.510328019328077e-06 
8.661422512430957e-06 
-7.695359657160521e-05 
-2.704548580287887e-05 
7.936693320255595e-05 
1.336890888641019e-07 
4.852348788314837e-06 
0.0001560930741955724 
6.788484358413e-05 
3.770157312084649e-05 
-5.715624765582538e-05 
3.443425628939672e-05 
-0.0001463392050767571 
0.0001257749787701928 
-2.860199324363842e-06 
-9.000941598214426e-05 
-4.029145180963954e-05 
-1.499179614982567e-05 
5.086700270132941e-05 
6.734484715900187e-07 
-2.835105322599377e-05 
1.912051685207482e-05 
-1.218727343619008e-05 
-6.445106568442368e-06 
-8.710868571517535e-06 
1.569321884210538e-05 
1.202615685223902e-05 
-3.599676187653189e-05 
-5.420225526664802e-06 
3.943914067413791e-05 
-1.216630093273665e-05 
-1.012582970108203e-05 
-1.252028429946998e-05 
4.804294069457938e-06 
2.273007873420719e-08 
-5.856080917488742e-05 
-3.181366818018351e-05 
1.609284591357159e-05 
4.764946817425843e-05 
-1.123785582541173e-05 
-8.684516279336219e-06 
2.822869456098553e-05 
-4.528038403839659e-06 
-3.725700088685494e-05 
2.392764349084104e-05 
-0.0001133158200310225 
-9.979284819007007e-05 
2.236608694197621e-05 
0.000150966581733464 
5.092750714136113e-06 
1.336305557628183e-05 
-2.986224651093998e-06 
-4.681416712574754e-05 
3.808823733668226e-07 
8.963638830207157e-06 
-1.273848269581855e-05 
7.182638714783654e-06 
3.804469682004078e-05 
0.0001230765625010235 
-7.272863740477818e-06 
-9.308809081363767e-06 
4.235806002766062e-05 
-2.734746916142739e-05 
4.819636618734146e-06 
2.953345428387887e-06 
-1.981588058620528e-06 
-2.533012310961832e-05 
-5.540851872348576e-06 
2.083044479699935e-05 
-1.880917306611215e-05 
3.918035233397963e-05 
2.276256710069816e-05 
-1.883533411238541e-05 
-1.070768402336891e-05 
0.0001093130787892808 
5.022394357276789e-05 
2.193678466366652e-05 
-2.808992142247272e-05 
3.988169085374722e-05 
-2.114346751453478e-05 
-1.374571854487495e-05 
2.074120650830549e-05 
-1.074179106476267e-05 
-5.945527324357016e-06 
1.96122612409697e-05 
-7.037440385845558e-05 
-2.491163268071846e-05 
-6.220168037697467e-05 
1.403920465065158e-06 
-3.04060078429641e-05 
2.231963184209234e-05 
-1.128321658338493e-05 
-1.56463690482389e-05 
-1.759985381536247e-05 
-9.174269977290987e-05 
-4.757501747260755e-05 
-9.372486815028668e-06 
1.561958726624058e-05 
-3.373395155202559e-05 
-6.64566769666709e-05 
0.0001134029504918372 
-0.0001381041741524678 
0.0001068908124108643 
3.926170728903134e-05 
8.045786217529437e-06 
6.040398499886978e-05 
-8.656941924777376e-06 
4.450065244064265e-05 
1.199321656555933e-06 
3.87783744282562e-05 
7.846584441880962e-05 
-2.066198212352162e-05 
-9.455441006213097e-06 
-6.927683015851003e-06 
1.757320057993756e-07 
-2.997002384136858e-05 
-7.346767668206662e-06 
-1.031924459081197e-08 
2.891659854198316e-05 
-2.738278529914811e-06 
5.369236931879515e-06 
7.995576054740549e-07 
1.094614215882702e-06 
1.346483259471449e-05 
9.209073408530979e-06 
-2.082847416741874e-05 
-6.998766084520754e-06 
1.089189128230734e-05 
-9.866380619421947e-08 
0.0001026919504315816 
2.332764428162804e-06 
4.073899770977438e-06 
9.535476871470977e-07 
-9.30243968424514e-06 
-2.609749321792461e-05 
-9.049256200946327e-06 
-1.222975250540277e-05 
-1.251995367137153e-05 
-4.749709883779051e-05 
1.758067904978815e-05 
-5.733442844977519e-06 
-3.385016615583295e-05 
-8.986835074660851e-06 
6.458508993681818e-05 
0.0001215344791265261 
5.161970527977064e-06 
-4.874405979732544e-05 
8.405968909512016e-06 
-3.569984537417899e-05 
2.691286684251666e-05 
-9.950312092721937e-05 
5.512796260626654e-06 
3.440507201383188e-06 
1.448714918596271e-05 
-8.457220908006552e-06 
-5.214840195142929e-05 
6.77888767017159e-05 
9.852484814120905e-05 
2.39160701033974e-05 
2.234584689602415e-05 
-6.232624369253397e-05 
-5.055054211274499e-05 
3.098791353400701e-05 
-2.351457406483089e-06 
-6.735114233226078e-06 
-3.618090966186359e-05 
-7.494519902190712e-05 
-8.322849266827215e-06 
-6.352220148532569e-05 
-5.224090478244677e-06 
4.777230437140885e-06 
-1.615724636611781e-05 
1.853084746774238e-05 
3.855127435084138e-06 
7.981449302464149e-06 
-1.841770300652218e-05 
1.968417173136087e-05 
5.308696705792145e-05 
-1.087036021112301e-08 
-4.394855295503112e-06 
1.259563996288295e-05 
2.052907388508803e-05 
-6.15119280560021e-05 
6.689003748063179e-05 
9.232704772766128e-06 
