solver_type L2R_L2LOSS_SVR_DUAL
nr_class 2
nr_feature 26042
bias -1
w
0.0001079444529394249 
5.356284318759676e-05 
-4.0171184896813e-06 
0.0001455459359717436 
-4.645452452590109e-05 
-0.0001390047803674902 
-0.0001228008563622835 
-0.0002713423519760687 
0.0001477682675071277 
0.0001229639785711782 
-0.0002452622745679437 
0.000278900576063236 
-3.365599272525554e-05 
0.000250561026637913 
-1.668512643968635e-06 
0.0003976100455016707 
-8.957821823327831e-05 
0.0001117212376398148 
3.442381708041915e-05 
3.232935415822511e-06 
-0.0003564253029119419 
5.632964909909005e-05 
4.433045947848733e-05 
1.441723293985725e-05 
0.0001114726114583472 
-0.0003036775260985997 
-0.0001735249979276044 
-0.0003899339867621544 
4.238473620144888e-05 
-2.366941061581663e-05 
8.8193806376853e-05 
6.234801470219505e-05 
2.497646112751671e-05 
4.725179812878133e-05 
0.0001129090039351975 
-0.0001064981697220532 
-0.0002195862966016367 
2.839091980332666e-05 
-5.936209770548191e-05 
-4.224181824114211e-06 
9.336717026916588e-05 
0.0001221352781106438 
-5.983929515411626e-05 
-1.710704955653766e-05 
-5.018777151634251e-06 
-0.0003304513568385054 
-9.926565440532495e-05 
0.0002530654829447774 
1.228545053263133e-05 
4.805195370612936e-05 
-5.090786891554834e-05 
-0.000192245098099297 
-8.46948559122439e-05 
0.0002355948375047735 
0.0001536539466502505 
0.0001934631640736 
2.647676073853493e-05 
-0.0002542400092461805 
-3.923306826467411e-05 
-0.0001081437894405564 
-3.485341902398946e-05 
0.0003805764201726286 
-0.0001379595044510439 
-5.587238282079204e-05 
-1.546381530352007e-05 
2.022794945867975e-05 
3.400155930402692e-05 
-3.925470014450563e-05 
-2.17259076607707e-05 
2.072163299762803e-06 
-0.0001162539664655843 
1.216895657599434e-05 
0.0002459482404066743 
0.0001457242019378246 
1.237336201551348e-05 
-6.986771860892691e-06 
4.129547423233082e-05 
0.0003304884583758918 
0.0001937218485626177 
-3.419193211824581e-05 
-0.0001821525528048824 
-0.0005157979892674493 
-0.0001404026799663065 
-3.610156334119009e-05 
7.309371696611569e-06 
0.0001292970698359064 
0.0002471491625315624 
3.161919169554655e-05 
0.0001105499589610923 
-7.936582751886867e-06 
-0.0001377867698371617 
6.405159503108899e-05 
4.455321272746922e-05 
8.897206543293576e-05 
-0.0005441553991108022 
-9.061743888410502e-05 
3.19648548105456e-05 
0.0001364327454384713 
-0.0001038845195279713 
7.255605390050331e-05 
-0.0001109267073066518 
-0.0002229318259330114 
-4.260036858016173e-05 
0.0001332891679007755 
-0.0002044990232324569 
5.387310983103353e-05 
0.0002361918765055429 
-3.97366483135167e-05 
1.266070464772205e-05 
0.0001229931519593548 
-5.452266048465147e-05 
-4.74487879571311e-05 
-2.36578459025601e-05 
-0.0001596462789311401 
-0.0002283502785156647 
0.0001532239003878462 
0.000116306592489766 
-7.862675448065707e-05 
-6.983691325680258e-05 
8.468365610760928e-05 
0.0001281146662263441 
4.326128767568373e-05 
-4.485436753226833e-05 
1.008042164769237e-05 
2.051630364071968e-06 
5.558407760086278e-05 
9.905928367395563e-06 
-9.895507334234296e-05 
-1.179002005735212e-05 
4.412271306703583e-05 
-0.0002061311127842723 
8.858084401861536e-05 
-2.358422962970885e-05 
5.286511406096932e-05 
0.0001817008273674731 
0.0001023525913030966 
-0.0002631146560924003 
9.688698657564048e-05 
-2.839122900757197e-05 
0.0001234454870151207 
-3.447405160251535e-05 
0.0001097422964608686 
-9.309882899257102e-05 
-1.561588451620115e-05 
0.0001181488543745917 
6.264736344135875e-05 
0.000110157418233096 
-0.0001748655289077403 
9.199932650477067e-05 
5.141993903280914e-05 
-3.414142543175701e-05 
-7.852756624921897e-05 
-9.593368723241326e-05 
0.0002926335850094413 
9.207264888029778e-06 
-1.427531913590568e-05 
-0.0002774727697701758 
-0.0002725736111783189 
7.440033276733987e-05 
-0.0001136252509679015 
-0.0001084802541678146 
6.884193142371169e-05 
5.46674159891206e-05 
0.0002298800332231403 
-2.079671814674594e-05 
3.240163009239425e-05 
0.0001674439447158271 
3.163377206791866e-05 
2.807778827037708e-05 
9.166835427057227e-05 
-2.527848114788133e-05 
-0.0001178110413838681 
6.590883049124387e-05 
-3.732085976478923e-05 
8.454576221077204e-05 
-0.0002880552534069212 
3.008987387335606e-05 
6.722051315021494e-05 
-7.374683453368223e-05 
8.870525408838629e-05 
0.0001158673943315411 
7.367645035226838e-07 
-1.547077656052846e-05 
-4.873406019514533e-05 
8.628478930851021e-05 
5.283486628544272e-05 
-1.570324170624739e-05 
-5.536759767967278e-05 
-0.0003299750840617086 
-0.0001419435508140727 
9.77149630449081e-06 
-0.0001552008884672354 
0.0001108251168240328 
7.17211684012579e-05 
-1.301048429763485e-05 
-0.0002621289161469282 
-2.465444176192706e-06 
2.635692487986817e-05 
0.0002362200008314252 
8.198828003166167e-05 
-3.027497979630068e-06 
-0.0001251557447477975 
6.504949773517598e-05 
-2.946854383631228e-05 
-7.84847321795497e-05 
0.0001109871085622709 
3.324273137434527e-05 
-0.0001066564776828287 
-0.0003567007902946796 
0.0001016355652845727 
-8.313961015948272e-05 
5.705931093000715e-05 
-1.873945109614701e-05 
7.238840089539172e-05 
4.323551009770212e-05 
-0.0003476624253391304 
7.725852019021065e-05 
-8.703977394765125e-06 
0.000195416028103003 
2.146239100178603e-05 
-5.447959341131856e-05 
3.388214537216679e-07 
1.019689582781729e-05 
4.71371888823778e-05 
0.0003504596093916017 
0.0001277283077845994 
-3.942904041685666e-05 
-0.0001108946433740538 
0.0002166413435481434 
-9.089200580570043e-05 
0.0001747711567323124 
-0.0001699357508116248 
-1.423177191036291e-05 
-3.580686630924179e-05 
3.946220631697111e-05 
2.437192519961879e-06 
6.560870393016726e-05 
0.000166779519644394 
-1.437398810781291e-05 
-8.587875353104374e-05 
5.889538266029278e-05 
1.230684331691596e-05 
0.00022017472457264 
-0.0004028601813556363 
2.696002610207175e-05 
8.603813824893399e-05 
-0.0002900200177236141 
-4.558679495791157e-05 
-1.391450554414178e-06 
0.0001770722676888115 
-8.82560173296226e-05 
-9.614063859712721e-07 
1.094922563149304e-05 
9.285195699891585e-05 
-5.847825376940569e-05 
-0.0005074438901807223 
5.679292385434701e-05 
-8.301880584245263e-05 
-0.0005610534462834422 
0.0001264805372259583 
2.638590229109749e-05 
5.078599518936982e-05 
5.229318996164386e-05 
-5.794251662110638e-05 
-9.171329875320901e-05 
0.0001324386435501701 
-0.000116636689320434 
0.0004294500529364682 
-3.445247731999685e-05 
-2.204169305229774e-05 
3.394834180838348e-05 
3.042093637995274e-05 
0.0001766520862182077 
7.727184412909312e-05 
6.494348757704073e-05 
-0.0001639286989128273 
6.317805728997581e-05 
-0.000316397504600096 
-1.935310119078713e-05 
-2.937479768950878e-05 
9.830956733190748e-06 
-0.0001270973492879056 
-0.0002070605716414571 
0.0003502066703297483 
-2.330495585637905e-05 
5.102031277302944e-05 
7.622783526620039e-06 
-1.365104283816436e-05 
-5.723136033097811e-06 
9.522158150666589e-05 
0.0002498077983893981 
3.288458597377224e-05 
-0.0002586342472477108 
-7.760694183339265e-05 
0.0001306275841010561 
-0.0003047062411920833 
-0.0002414399676770307 
-9.877570665398201e-05 
-4.172109244548297e-06 
-7.448683494480238e-05 
0.0002364024021908053 
-0.0004529133215929935 
-7.327122518954669e-05 
-9.668376613992697e-06 
-7.852409240975249e-05 
0.0001643242986818255 
4.609769202856863e-05 
0.0001600823310817854 
1.328929257767431e-05 
0.0001193378460087714 
0.0001068481701864074 
-0.0001250561838226432 
0.0001314958019880974 
-8.749950829788707e-05 
9.764459444837147e-05 
-2.56594694754905e-06 
-0.0001041696823943165 
-2.310929230559715e-05 
0.0002111359917893232 
9.981861601263925e-05 
-0.0001113750842940315 
-3.359447399363061e-05 
-2.307436280079921e-05 
-0.000213922233691667 
7.364952262237951e-05 
-0.0002480632415911829 
0.0002242333194683701 
4.88557604153717e-05 
4.941396943100734e-05 
6.462893721891367e-05 
-6.358679040862323e-06 
-6.242317361946095e-05 
0.0002457166529632868 
1.066322308796342e-05 
-0.0003279318402931618 
9.126775713418494e-05 
-1.327886546514271e-05 
-2.122791660277844e-05 
-0.0001912371565755735 
-9.571344099888578e-05 
-3.374741532816661e-05 
-3.087127704757306e-05 
5.001426294056301e-05 
-8.261348169737175e-05 
9.598573477712994e-05 
-7.20532439335878e-06 
0.0001587605105267685 
0.0002027305710539124 
6.530888642779725e-05 
4.870934841125757e-06 
-2.748635906977871e-05 
1.672005615888846e-05 
0.0001105176397626256 
0.0001710412423752656 
-8.927873741658534e-06 
0.0001627697223506628 
2.385975208713915e-05 
3.733519122885831e-05 
-0.0001033822184795354 
-0.000217473957454775 
0.0004166942996148127 
-6.431005729068795e-05 
5.606985727827612e-06 
-6.176142964858461e-05 
-2.471860000130036e-06 
3.685204309429213e-05 
-3.546761090502248e-05 
0.0001091304628364134 
7.635461186042659e-05 
-2.194560403080786e-05 
4.645269646643411e-05 
-0.0002799209534938363 
0.0001131793171409965 
-8.230360510782401e-05 
-9.98945048371266e-05 
-8.691713683625823e-05 
-4.066389216328281e-05 
9.034965461824043e-05 
-0.0002463516833801445 
0.0001869221845668528 
9.983691601681532e-05 
0.0001234048911085995 
-0.0004700559508297558 
-0.0001157635000925981 
-0.000140104007078247 
4.836594877072941e-06 
2.977490777158732e-05 
-4.613742202593875e-05 
1.006181856968895e-05 
5.526384851451303e-05 
-4.580877867044724e-05 
5.224128005303191e-05 
-4.362745140075525e-05 
6.194751857307436e-05 
0.0002607462498400094 
3.747664452051439e-05 
-0.0005758790248507639 
-1.880956038362366e-05 
-0.0001409927827536535 
0.0001580706407864485 
0.0001139254919041904 
3.79197309176064e-05 
-2.175669708342699e-06 
0.0001095631811668459 
8.826709572250143e-06 
0.000115768570402866 
-2.098124795722874e-05 
-0.0002176024478759773 
-1.832391589801973e-05 
8.686728042475318e-07 
-4.555150891261239e-06 
0.0001106400980591534 
-5.78821559163063e-05 
8.504118722662937e-05 
1.714068127995275e-05 
-6.453843886488754e-05 
1.413056272757204e-05 
4.141766218367523e-06 
-9.680248758977036e-05 
1.989306660970217e-05 
-1.872745726556195e-05 
-3.967110061310631e-05 
-1.502842559833913e-06 
1.093908148437622e-05 
8.864085770147711e-05 
8.021093896404356e-06 
-0.0001171991890078144 
2.412343293747161e-06 
-2.757392228492663e-05 
-1.069983181636815e-05 
-6.168385696845555e-05 
2.25275042852883e-05 
-1.73220465671121e-05 
9.973896695157498e-05 
3.929735307688299e-05 
-3.562544417057098e-05 
-0.0007089082831527483 
7.025113898868196e-05 
-9.934844410607782e-06 
0.0008331406329757835 
-7.464444929269097e-06 
-2.48862864732321e-05 
0.0001377062322349466 
-0.0004643533407211792 
-0.0001658789197820273 
3.829562104026032e-05 
0.000291793849391749 
-0.0002255999787841519 
-6.602545724354829e-05 
1.54377572861444e-06 
0.0001012352815990482 
-0.0001130054181061422 
1.679491433269092e-05 
0.0001405095374796193 
-8.505285473985359e-05 
0.0001497222822283529 
9.393696408748891e-05 
-0.0001239830715790721 
-0.0002362755444830688 
0.0001358125207303041 
-0.0001226172318193248 
3.561034741364573e-05 
1.578273070922048e-05 
0.00014630885934478 
9.512434857840973e-05 
5.388244407883728e-05 
-0.0001315878511532188 
-6.487744276217216e-06 
-0.0001733292313923864 
0.0001185958201555668 
2.584214227471402e-05 
-2.633455190149539e-05 
0.0001560035120158697 
-1.986156590485488e-05 
-2.900243873083468e-05 
1.190490324641526e-05 
1.112218725064912e-05 
-3.01125479983194e-05 
-4.776131057750573e-05 
-5.706737330641563e-05 
-1.056852599669069e-05 
-8.097235362937831e-05 
4.564337464657424e-05 
6.202425560539686e-05 
-0.000196561688855724 
9.362466178345711e-05 
-1.835002430824825e-05 
1.808255824041003e-05 
-8.425035615192862e-05 
-3.845184318484351e-05 
1.3072257099885e-06 
1.665587488298316e-05 
2.367010427612541e-05 
-2.9364206100595e-05 
6.378735548507338e-06 
-4.084244569102019e-06 
1.935338689971283e-05 
-0.0001719614051896297 
-0.0002375694840268339 
-8.4014592997517e-05 
5.043548804408987e-05 
0.0001290004378627732 
1.509086773420856e-05 
-2.46108335586061e-05 
-5.372277097299488e-06 
5.35083586131637e-05 
1.629530976729469e-05 
9.610922039336474e-05 
0.0001787648559034691 
0.0001293972987615421 
-3.944703313601642e-05 
1.484909320194877e-05 
-9.838354454023912e-06 
-1.909679515498294e-05 
2.415186677552649e-05 
1.150301830248344e-05 
2.169584583590513e-05 
-2.20934316968986e-05 
-0.0001932794797126737 
2.081347462315346e-05 
-5.447620327940351e-05 
-0.0002111246035616633 
-3.690781707108154e-05 
-1.577343102882569e-05 
0.0001758664818557916 
4.57851864036798e-05 
7.769772438360148e-05 
-9.425094898931623e-05 
0.0001973725674749241 
-9.379138348852473e-05 
9.137627539076243e-05 
-2.778597825995766e-05 
5.947752694851067e-05 
-1.474172473755349e-06 
2.62002410722788e-06 
-0.0001347293721937806 
7.330370255506156e-05 
-0.0001859553608843587 
4.538633921139347e-05 
0.0001514502945715625 
-9.061517497260452e-05 
5.053885814455084e-05 
-2.69768595643849e-05 
1.250308034452306e-05 
-1.681930473158452e-05 
2.247001148326618e-05 
-1.618851485935106e-06 
2.627962716335765e-05 
6.967998732155463e-05 
-0.0001836553465889992 
1.869468280049594e-05 
-0.0001727021466549835 
-5.803971787739711e-05 
0.0001221756575016371 
-6.010623682212608e-06 
-4.733997220030281e-05 
-0.0001045303315645633 
-0.0001537819381161828 
1.147072282783168e-05 
0.0003370408922152913 
-9.568326841787079e-05 
-6.055378776552093e-05 
1.884074030741388e-05 
-7.588593680539054e-05 
9.511841514625603e-05 
-3.526991300227834e-05 
-2.944967994176301e-05 
0.0001164515218512326 
0.0001916156587998259 
0.0005296360865730186 
-0.0008366951701657473 
5.616782639128623e-05 
0.0001495637104023607 
5.446126269022409e-05 
-0.0001886795304880045 
-5.974872907564559e-07 
6.339299553156577e-05 
5.467226328326259e-05 
-2.028576412858576e-05 
-3.278779602519588e-05 
9.231669750324596e-05 
-4.599746846903262e-05 
6.479212810875487e-05 
7.731776090822604e-05 
-0.0001796842946291759 
-0.000319536699108652 
0.0001801976485619202 
-3.690625015010128e-05 
7.740338913107191e-05 
3.587535635514765e-05 
8.629417420341627e-05 
-2.596731643755701e-05 
0.0003202525404402693 
-0.0004998512541335125 
-0.0001419759311429046 
0.0002647229127196275 
3.63961148340963e-05 
-5.352555361396924e-05 
5.098064902234909e-05 
-2.372492330355752e-05 
0.0001270367039355329 
-6.965318683391557e-05 
1.845234835199265e-05 
-9.352243304223178e-05 
8.2671578067861e-07 
0.0001019097621457535 
-0.0001377609827404542 
0.0001476896494078298 
0.0001558128875793821 
-5.626390257901954e-05 
-1.071631774170904e-05 
-4.8722409617538e-05 
-8.512825331846123e-05 
0.0001217546588419608 
0.0001019997882745252 
-2.63465164373373e-05 
-0.0001232187577287238 
1.067571070211999e-05 
-2.826085184628187e-05 
-5.982972404557751e-05 
1.437120688614577e-05 
-0.0001474930168711794 
0.0001553890365297116 
2.392993792508105e-05 
-3.566012946381032e-05 
9.034784295484446e-05 
-0.0001479805066577228 
0.0004244985513803168 
-0.0004522154731608234 
-0.0001563023575154613 
0.0002320020532143265 
7.612305371340174e-05 
8.052402145316572e-05 
-0.0001209523202717704 
-0.0001831973749381178 
-3.187791610925234e-05 
-1.240557740109271e-05 
-0.0001360386870396314 
-0.0003614223516507922 
2.882528178196565e-06 
0.0001778849625919108 
-5.661681922284251e-05 
-2.338551473459625e-05 
2.071209457400801e-06 
-5.019338741174313e-05 
-2.022693523145221e-05 
2.522579449267334e-05 
-9.473916660903858e-05 
4.319467953170424e-05 
-7.228571203335352e-05 
-0.0001799841787600093 
-1.903957246914166e-05 
-0.0001207649298301849 
-0.0001462673979269509 
0.0002128809634286007 
-1.219172688497945e-05 
-7.186792156650228e-05 
-9.427031384369201e-05 
0.0001913826272446106 
7.988593466135257e-05 
1.695867180998515e-05 
0.0002722000220094091 
-3.246269539984421e-05 
7.02461535960366e-05 
-0.0003945353218412839 
5.400074054108314e-05 
0.00045316110351383 
-0.000169740052972342 
0.0003267530669358184 
-1.948183119943804e-05 
-2.027765439375527e-05 
-2.124135413051012e-05 
2.99294892315515e-05 
-2.853248927071468e-05 
-0.0001699862716498572 
-2.574384325771669e-05 
-2.270790540009488e-07 
0.0001764481169982984 
-0.0003202256885948387 
-0.00050000500134962 
2.941914887417203e-05 
3.555324534985065e-06 
-4.219540870120644e-05 
2.512646122174939e-05 
6.993450888882493e-05 
0.0002259537709419815 
-7.512086939541006e-05 
4.941569321466e-05 
-0.0002280000835014688 
0.0001176316069633739 
3.048334375005647e-05 
7.853936826058931e-05 
0.0001032695243603559 
-2.054003484144866e-05 
-0.0001813391294781959 
0.0002064879483574536 
6.766989966460466e-05 
-0.0002582460501828568 
0.0002220075247531304 
0.0003479868315494798 
1.33706953367557e-05 
-1.176983649467978e-05 
-4.647895425020446e-05 
8.009591325894808e-05 
2.398931386173708e-05 
3.531413194535564e-05 
-3.820822129837307e-06 
9.117221808896201e-05 
2.821506985205451e-05 
-2.39439482110476e-05 
-4.439770407596721e-05 
6.647513687664582e-06 
5.058209847518243e-05 
2.21079724288666e-05 
-1.598184449275735e-05 
0.0001145651510146914 
-0.000461963185455032 
-3.793394197986671e-05 
6.425028361122971e-05 
-1.380535985033758e-05 
0.0001604776351103911 
2.163528299442507e-05 
9.398258121338014e-05 
-0.0001694159473297849 
0.0001438226368759747 
0.0001543344466482436 
0.0001717642137408638 
-0.0003338000222091405 
-0.0002615226241579519 
-0.0001136342605273405 
-0.0001480593944565013 
0.0002828964600399494 
3.143263586994383e-05 
0.0002394240958398529 
1.9565938602147e-05 
-2.153078934428411e-05 
-4.388781650691516e-05 
1.538498844127702e-05 
1.735040264320842e-05 
4.915230864481641e-05 
4.954896176402275e-05 
-0.000231427433065677 
5.133090593084309e-05 
1.202884931913151e-05 
3.110937022169034e-05 
4.019860043422014e-05 
-1.101515234897908e-05 
-0.0002875244430214866 
-0.0001898478712943607 
0.0001394522347411311 
-5.834296131490361e-05 
-3.657179757782122e-05 
-2.17259076607707e-05 
-1.226889331736549e-05 
-2.883490749703717e-06 
-0.0001212810779648294 
0.0003026316388696361 
-0.0001760879141589931 
0.0001710956458241992 
-8.343872001064602e-05 
-1.774745241665413e-05 
1.688401124170319e-05 
1.686904929798691e-06 
5.640041392721304e-05 
-3.574357351456238e-05 
-6.203074124995584e-06 
-0.0002104781413837919 
3.574780310716743e-06 
5.183979378644124e-05 
1.0463689470848e-05 
-2.735036816192597e-05 
2.154276637539854e-05 
2.515936979681391e-05 
-0.0002664502099706607 
1.661724805038223e-05 
0.0002271154140113516 
1.656387614141414e-06 
6.488043562249759e-05 
8.648421282184167e-05 
-1.275506235400406e-05 
-5.794828350971608e-06 
-0.0001124023709228509 
3.538295964774438e-05 
2.78094449875158e-05 
0.0002217674607673006 
-4.456045961122686e-05 
-8.891239458399103e-05 
-3.087562919100071e-05 
3.558840590937324e-05 
-0.0003039654752779704 
7.283231012451604e-05 
1.964093641213455e-05 
1.624230370707858e-05 
-1.337368886679847e-06 
2.452639555555433e-05 
-0.0001206182020996063 
2.41936974049434e-05 
8.648760022319047e-05 
-4.594774299095763e-05 
1.16412788214212e-05 
0.0002087775312836549 
8.271377025892464e-05 
9.424705495670062e-07 
-7.860850360281783e-05 
0.0001226128668521434 
-2.71943223841111e-05 
-0.0002319735797277722 
-4.395534550870619e-05 
6.401429182004861e-05 
-0.0004056402093917251 
-0.0002228664200434807 
-1.79200611155035e-05 
1.107992489244011e-05 
0.000127639720089896 
0.0001186034545534521 
0.0001353405516497563 
2.573293328372475e-05 
-2.862083463858255e-05 
-1.701758917225084e-05 
-9.774524002120852e-05 
0.0003141444857871759 
7.208783124390538e-05 
-7.886242992330851e-05 
-0.0004048589863723989 
5.711258136810439e-05 
-1.142940885421514e-05 
0.0002428296583285289 
0.0001882301390122716 
1.812374916796878e-05 
1.819622392251076e-05 
-3.987225365888194e-05 
7.038314371579232e-06 
9.549506387551408e-06 
-4.948001335524689e-05 
-2.214130676760383e-05 
9.052746888898879e-05 
-0.0001169792469362809 
-0.0001568911072028465 
-7.520965336491536e-05 
-1.046711307440913e-05 
1.245984189148767e-05 
1.356687526532284e-05 
-1.998753881368609e-05 
-0.0001433575955749819 
3.01396596494681e-05 
-0.0001112743415757589 
3.567302502654981e-05 
-6.471918658712145e-05 
0.0004537679349957732 
-4.004628785887479e-05 
8.788403284946983e-06 
0.0002034582414023578 
-0.0002864584733924661 
-7.000125738952339e-05 
6.434149436544677e-05 
2.070381658070386e-05 
2.255751170257527e-05 
-4.106772066456887e-05 
-7.647333713410363e-05 
-0.0005238423390286001 
2.298600772485505e-05 
0.0001717742259507672 
0.0001819635949858248 
-7.326294733067506e-05 
-7.062189022857802e-05 
2.221725864005194e-06 
-9.476049895929927e-05 
0.0002209395948064181 
-0.000578868015614839 
7.0253884690669e-05 
4.719083669587463e-05 
-0.0001080046428084489 
0.0003470920510125351 
0.0001300700096628736 
8.437484646838078e-05 
-4.663227278953832e-05 
6.239687411608968e-05 
2.827869108461423e-05 
3.470084724316198e-05 
-2.958931559186649e-06 
-0.0001432468919730734 
-4.214691874326589e-05 
8.651940708487753e-05 
8.978861901680213e-05 
3.765460953701933e-05 
4.76451094880596e-06 
-0.0001039836679340926 
1.374325442131302e-05 
-1.01450022854823e-05 
-4.521509029934043e-05 
7.967129080376536e-05 
1.016625603322964e-05 
5.677065861547349e-05 
-8.869755170037707e-05 
-5.284559946150161e-05 
-0.0001816999051646167 
0.0001184190968501156 
-0.0002081859751166139 
0.0003022913757741553 
-8.412349913109123e-07 
3.037294718063525e-05 
-1.274687041500678e-05 
0.0001392821855107838 
9.750961827352439e-06 
-9.592162777350074e-05 
-4.654160011512268e-05 
2.437286222509338e-05 
0.0002624976573763548 
-0.0004096945007447783 
-0.0002976401694487027 
0.0002655280854959728 
2.494870851403587e-05 
9.515365359301317e-05 
3.610133945651282e-05 
0.0001443833922851773 
3.377706952790973e-05 
5.264455819083646e-05 
-3.971942081117096e-05 
-0.0004028000042540349 
0.0001839006618746658 
0.0001032790210904895 
-0.0001674048656023852 
-1.620539325845589e-05 
2.403763325746237e-06 
-0.0001899253200459395 
0.0001225419865266966 
-3.807393889947192e-05 
-2.952009052839997e-05 
7.812052305598956e-05 
-8.814610237251133e-05 
8.071386062060641e-05 
2.149370677064159e-05 
-5.648154279338209e-06 
-5.782996168740828e-05 
0.0001751050240784985 
1.76370218756626e-05 
-1.284715559727651e-06 
-0.000186909327436872 
-2.049638712432252e-06 
6.680255711527163e-05 
-5.673292229599039e-05 
7.036308814497723e-06 
1.152883480448036e-05 
-5.782130065861559e-05 
1.989645777889121e-05 
-5.76489939192717e-05 
7.306315768695035e-05 
-0.000173573253587955 
0.000541948452064126 
0.0003933190002396757 
3.466159607923134e-05 
-0.0001261828976838194 
-0.0001632073587434623 
-0.000302826068955779 
-0.0002361964329057417 
-7.809249751965072e-05 
0.0001110579255250289 
-0.0001353453502538947 
2.0204104097677e-05 
-0.0004251730615764061 
-0.0002045119858852133 
-2.829470784581296e-05 
9.657292542991767e-05 
8.708699731182647e-05 
-2.592354143203018e-05 
2.742663922933359e-06 
2.604289513423633e-06 
1.357283151225482e-05 
0.0001487146665017085 
-1.471967915206447e-05 
1.155004282308961e-06 
-9.496915286239357e-05 
7.605768920460638e-05 
0.0001992718322242679 
0.0001032713403997205 
-0.0005135527687452619 
5.740005660323467e-05 
6.465117251352529e-05 
-4.145923269337222e-06 
-5.768903462426192e-05 
0.0001964489285199537 
0.000148559761726445 
2.111466969617947e-05 
4.157168518293765e-05 
3.626054621356707e-05 
-5.911488836782004e-05 
8.590927371686213e-05 
3.24436145671824e-05 
0.0004109894995101732 
1.24735826722102e-05 
-1.831463491518534e-05 
-3.678931664045068e-05 
-0.0001526405909719526 
-0.0001857533055316637 
-7.195340990809666e-05 
-0.0001661158079157314 
-0.0003166139140242804 
0.0001968754477664163 
0.0004603388961401504 
1.095146710837042e-05 
0.000110323915039763 
0.0001425985956408674 
-0.0002362184544906848 
-2.533412583829054e-05 
4.266871501426808e-05 
-1.096515725349304e-06 
-2.18464582833469e-05 
3.454491833407947e-05 
2.267828250238712e-05 
0.0001216506463863805 
-8.660995654126685e-05 
-5.915244097824147e-05 
0.0001541269412048971 
8.184545669718905e-06 
-1.941559323409882e-05 
4.883136203038854e-05 
-0.0004060143480351816 
-0.0001763322238624445 
4.321643987324902e-05 
-8.774517269754461e-05 
5.097132332831389e-05 
-0.0003292676761285632 
-3.392968983292994e-05 
-7.878036642749189e-05 
0.0002279461116591682 
0.0002278401727920332 
0.0001596016279957803 
7.050453248945711e-05 
1.913733351819906e-05 
-2.341384248373585e-05 
-8.322825697583546e-05 
0.0002330546036192231 
5.196153582861625e-06 
4.582972544534905e-05 
-0.0005070364756933118 
-4.388781650691516e-05 
3.389445686514986e-06 
3.705042459193036e-05 
-6.411455963448487e-05 
6.461229354901512e-06 
0.000130814987360341 
-4.238414745302586e-05 
-4.739774235320305e-07 
-3.405736534816416e-05 
-3.206000622394532e-05 
1.578119928533839e-07 
-2.792454220257941e-07 
2.119674196381124e-05 
6.511763642304476e-05 
-7.184495760820406e-05 
9.294666201598578e-07 
0.0001017981562442394 
-6.847522742604188e-05 
-3.819152807143805e-05 
7.146812692913046e-05 
-0.0001076077372537912 
9.715408102484841e-06 
-6.685595255259661e-05 
-5.018461649627275e-05 
-0.0001712603983445307 
0.0003653517728766618 
5.282718058876004e-06 
0.0001719366229342859 
4.451675751707195e-05 
8.551930427126708e-05 
-1.963613737955622e-05 
-3.145774730210117e-05 
-0.0003994740572018865 
-6.032404684033344e-05 
3.655187177940377e-05 
0.0002820266931378008 
-0.0002534032267426898 
8.046624083060538e-05 
-9.143968281019204e-06 
9.062884351962707e-06 
6.391139932367973e-05 
-5.496704703286333e-05 
2.077857902068797e-05 
-1.429011933219933e-05 
9.898544048840811e-06 
-0.0001556176061698518 
-2.534888087951823e-05 
4.064899044391931e-05 
-6.66276432445321e-05 
-4.978193690084904e-05 
3.126037148432923e-05 
0.0001393305840299623 
-1.730325212877738e-05 
-0.0002270425310342404 
0.0001246501688802111 
0.0001262364777606557 
9.520634408892724e-06 
7.9340707902806e-07 
3.021230706667439e-06 
4.5211316183136e-05 
-3.625613163470615e-06 
3.560232440093034e-05 
-5.032444347048625e-05 
-6.293290647068009e-05 
3.025167926586813e-05 
0.0002658228746249422 
1.130754805839931e-05 
-0.0001296705625097953 
2.220922638589967e-05 
7.400397942576901e-05 
0.000115988311995546 
3.404566721304636e-05 
-0.0001259813590590706 
9.23015278119193e-05 
-1.918800390373568e-05 
3.404944752400165e-05 
-5.665442357466771e-05 
-0.0005109860577736955 
-3.999129275720612e-06 
1.206857834747031e-06 
-9.555149666842528e-05 
-1.465986104818641e-05 
-1.678291108164367e-05 
-7.239764624784177e-05 
2.874718244166383e-05 
-2.28565204106017e-05 
-3.669174308092573e-05 
0.0001035640911636114 
0.0001360023482019081 
-0.0002268052953445953 
0.000125051976205497 
-0.0001931310594954988 
0.000507263339119561 
4.381294134390597e-05 
0.0003027531907872206 
-0.0001517921369678558 
1.97886165311335e-05 
-2.529704079865129e-05 
1.220655412915629e-05 
3.383084882927176e-05 
-0.0002147443329136657 
2.964462126273276e-06 
-1.963852715577118e-07 
-4.518641548909309e-05 
9.298602901564291e-05 
3.940293517389136e-05 
0.0001887213467561842 
-0.0003937573739280516 
3.475451123600603e-07 
-0.0003705535123979254 
8.766750651061421e-05 
2.798859026085744e-05 
0.0001150122235279625 
0.0002916568169603828 
0.0001602830663647138 
0.0002028133883802821 
0.0004852748402822578 
-0.00068113943718527 
-0.0002063006611498967 
-0.0003227582283794737 
0.000181852004196657 
5.369501818058804e-05 
-1.785536348460081e-05 
0.0003126303586417409 
1.587990588470595e-05 
-2.372088655768005e-05 
4.48367631228077e-06 
-0.0001527712668296116 
0.0001089691537132673 
-6.738845684642186e-06 
-9.820310320285447e-06 
6.844267346503905e-06 
0.0001112442621625439 
-0.0001508951115946676 
4.892479547733078e-05 
1.131620051863168e-05 
-0.0001571609203517325 
-1.073269994257994e-05 
-0.0001608443733011712 
-1.95419117451032e-05 
7.666422716111617e-05 
-0.000119937346142155 
-0.0002100655355077951 
-6.456553437006885e-05 
8.247816958519526e-05 
0.000121452064374544 
-1.724726071419178e-05 
-2.825089095435632e-05 
-0.0002172127960301221 
-1.045394387488354e-05 
-0.00030479156050408 
-0.0002374197059002078 
4.578562992869879e-06 
-5.817367575725006e-06 
1.529422568548085e-05 
3.09357722797488e-05 
4.278388351561407e-05 
1.241049583646541e-05 
-8.525510362333976e-05 
2.92175093416403e-05 
-1.400181088891148e-05 
-4.634932225015026e-05 
1.076644162465276e-05 
-0.0002495268049104965 
4.745055973646388e-06 
-5.943634739990083e-06 
5.044959607496123e-05 
-3.971376865706071e-05 
3.261527418751159e-05 
0.0004139232674895711 
4.681028903510646e-05 
-0.0002525891347188909 
0.0001549194262474821 
0.0001207777608472232 
0.0002648142019473173 
-5.17031191323924e-05 
4.372517638211608e-05 
0.000223291777204579 
-4.635014034233149e-05 
-8.170357425653366e-05 
0.0002284513786138755 
-0.0001106443277844871 
0.0002410653909953643 
-2.988693076655337e-05 
9.36100912692767e-05 
0.0001783344140394892 
7.324074885049919e-05 
-2.891364255292015e-05 
-0.0003649972786791101 
-0.0003644934367223814 
0.0001774480784488391 
-2.990794087325325e-05 
-0.0001360149539298678 
-3.160030535587206e-05 
4.749137470316622e-05 
-9.767305995120775e-05 
-2.369317008019247e-05 
5.326356730491359e-05 
-5.430372313550987e-05 
7.430729589967587e-05 
-7.602246084313806e-05 
-0.0001345525655674598 
2.32061188007063e-05 
5.564247712926506e-05 
-1.218919086219907e-05 
3.66540187428633e-05 
-4.775715285228347e-05 
-6.332281265098897e-06 
-4.62459627447784e-05 
8.189039916774575e-05 
0.0001464399128040971 
-2.633324294805093e-05 
-0.0006797365107610926 
9.218712543744894e-05 
0.0001349712990588681 
7.1911923155975e-06 
3.463733107623135e-05 
9.004069198903533e-05 
0.0001798799733531427 
0.0002464861983482006 
7.368801757253998e-06 
-2.645704970046271e-05 
-0.0001668720029154643 
-7.797102739216811e-06 
-0.0001736567416120544 
6.607534699051971e-06 
5.162101725952944e-06 
-3.800343086080455e-05 
9.574140584564883e-05 
-0.0002411754940238091 
-3.82205776387347e-06 
-7.749213995961138e-07 
-3.837523125042149e-05 
-6.139282467097865e-05 
0.0001237988948797138 
7.298944118339253e-05 
1.819622392251076e-05 
-3.174890205751487e-05 
7.14987204484677e-05 
4.063047381495623e-06 
7.026470579433808e-05 
-1.580473216207588e-05 
6.026818242133228e-05 
9.55583288906107e-06 
-2.219680487035641e-05 
-5.568910708985461e-05 
-8.811786877893645e-06 
-0.0002511773529957488 
-0.0003241658762102358 
-4.378534114898977e-05 
-5.970854542860302e-05 
2.368764867033103e-05 
4.49246518422726e-05 
5.371216118258725e-05 
-2.326944502138429e-05 
4.794268223612967e-05 
-5.2355491103355e-05 
-0.0002028786330508199 
9.05061012347924e-05 
-0.0005158386222785489 
0.0008277369729586823 
0.0001028644905908782 
0.0001413811139453021 
1.810775558749007e-05 
-2.55054945634513e-05 
0.0001365308527639698 
6.406895737812395e-05 
-1.684255432529629e-06 
7.533647330762643e-05 
-0.0001603237029293177 
-0.000135060666457024 
-6.363674193416384e-05 
2.363445738120592e-05 
3.508994486010251e-05 
-0.0003540029406317818 
-0.0002718399297067038 
0.0009413735497393373 
-0.0001817886338918469 
6.133571810561381e-05 
-5.231486187208011e-05 
-0.0002032877678513698 
-6.144231590329195e-05 
-4.564041199659438e-05 
0.0004058424739872428 
-8.111563758658792e-06 
-0.0002021932637785342 
6.584002582093458e-05 
0.0001165989933190169 
-0.0003189246609185783 
9.03787666507059e-05 
0.0002160959724532615 
-3.376600525876288e-05 
-4.278849175611757e-05 
-0.0001080240253041147 
5.985742517081897e-05 
-3.70345010376726e-05 
-1.273466916780691e-06 
-9.668847283669296e-06 
5.904156716272997e-05 
-5.117376862977894e-05 
-0.000171871159958167 
8.486641111761855e-06 
7.903595190164639e-06 
0.0004920678678523463 
0.0001447491780880353 
-0.0007502097649115593 
0.0002579197784614677 
-4.32935675333919e-05 
7.185811454042374e-05 
8.343624637642692e-05 
-2.982229764700088e-05 
-0.0001069813204635465 
3.077654713975012e-05 
-7.65580883644919e-06 
-7.082002322446035e-05 
3.138771215146294e-05 
0.0002811029027767163 
-8.377762314242475e-05 
-0.0001163189914473469 
-2.535648616182343e-05 
-1.675474371891733e-05 
1.557005079443005e-05 
-5.591093181958078e-05 
0.0001249875197877051 
-0.0002347714871298426 
0.0001012648575085174 
5.978556259211147e-05 
-2.660803402510497e-05 
-2.824174884125595e-05 
5.918690946885086e-05 
-7.842694704851407e-05 
-0.0002460452727464437 
-6.792638102164094e-05 
0.0001048339490179574 
2.690005727334766e-06 
-6.437061911435459e-05 
-1.496136045778934e-05 
2.339221806188481e-05 
-0.0001695427004040877 
-5.532516073554799e-05 
1.090802881874187e-06 
-5.00587721473791e-05 
2.00407063870879e-05 
3.683411990003193e-05 
-6.785147456058272e-05 
-8.355547567120376e-05 
-0.0002635533348087353 
4.550674657791408e-05 
1.716737688906829e-05 
2.428073069057568e-05 
5.116820361309701e-05 
1.611925974218797e-05 
-4.76216620515168e-05 
0.0001087681472243558 
3.519505805568358e-05 
0.0003221172685081055 
4.206713184915096e-05 
-0.0002857296363922213 
2.192295727649933e-05 
3.119778066996922e-05 
8.0546927694607e-05 
3.886808569668199e-05 
-7.606128688631806e-05 
-0.0001991170605350968 
3.867157996563991e-05 
-0.0001132690466411856 
0.0004087582612858382 
-4.291752601014277e-05 
5.60058064255589e-05 
6.021488652101231e-06 
-2.91718658161945e-05 
-0.0001458179975646644 
-6.108399633929943e-05 
6.275188767902094e-05 
-6.911696822230007e-05 
-4.833717368623747e-05 
5.246265775848197e-05 
-0.0005268986061326861 
0.000386167199373012 
-4.138839669652509e-05 
2.430416354379852e-05 
0.0002904174750358876 
0.0002288892717618613 
-1.669555534489475e-05 
7.785772811691996e-06 
2.012584331329922e-05 
-8.422393769292435e-05 
-6.869143064366401e-05 
-2.142850774752803e-05 
8.069407262880573e-05 
0.0001130321951940348 
8.272881625153132e-05 
-5.657976146820395e-05 
-7.292400523418739e-05 
-0.0004697514073400595 
3.316528699483767e-06 
0.0001621247699559049 
2.745829534765867e-05 
2.343666407160911e-05 
-4.319896473774525e-05 
-7.286185347885773e-05 
-6.1330027427999e-05 
-4.622013307712509e-05 
-0.0001124877908807793 
-7.217461025904392e-05 
0.000101167469014692 
-8.905551557641063e-05 
0.0001022989538087693 
0.0002501796071963458 
-0.0004619189989774887 
-0.000323448934968464 
4.963323159996079e-05 
-0.0001484422832299829 
0.0004999546983736939 
-0.0001316060901458486 
0.000138701276739881 
0.0001374650817147646 
-3.851284409015591e-05 
-2.428439787628988e-05 
1.306420343378001e-05 
-5.435871790006216e-06 
4.036559357770462e-05 
5.202315145594584e-06 
6.484058073245322e-05 
2.665070211965595e-05 
-6.278444387420688e-05 
4.770487505176006e-05 
-6.743559683006632e-05 
-0.0001590696647721301 
0.000480577841249949 
-0.0001648426352021761 
-1.899772327322494e-07 
-0.0001277964872876285 
1.60163121981177e-05 
-0.000151291095806042 
-4.622603243667403e-05 
-0.0002567503866515032 
-3.351890588853491e-06 
4.255927029356861e-05 
0.0001123164309611977 
4.60636912414313e-05 
-3.140620056652052e-05 
-2.477022904583366e-06 
-0.0002489541653582591 
7.303720852032423e-06 
0.0001032323628868188 
-0.0001327318431408892 
7.543772247611026e-05 
-0.0002948995078847055 
9.408719881141053e-05 
0.000105225620183574 
0.0002254241724266862 
9.564536131593763e-05 
0.000196676829132585 
0.0001014458262077486 
0.0001697512636613167 
2.286227602605595e-05 
-0.0001706623825443097 
-0.0003015963991915174 
0.0001048054229130602 
-5.909497176552523e-06 
0.0001760122427763421 
-4.792706302899117e-05 
4.965487429472115e-05 
0.0002094767351491241 
5.05546694956231e-05 
6.832530708210415e-05 
8.676225379044326e-05 
-0.0006082251180254929 
6.024495714750862e-05 
7.23000055568519e-05 
-0.0001689101895305352 
0.0001797012664710317 
6.278805562442677e-05 
-0.0001775491518506725 
-0.0005379368104605696 
-4.421172660071636e-05 
2.415793459775476e-05 
5.261694940981713e-05 
2.650093755370369e-05 
2.163486694473132e-05 
0.0001491081815283582 
-2.280856911386873e-05 
9.814903145387532e-05 
5.466138902813727e-05 
0.0001004894351073552 
3.348195233906503e-05 
0.0001027596247065911 
-0.0001208183878816901 
4.885643702136056e-06 
6.380230095483063e-05 
0.0001263640464451872 
-8.370932961428225e-05 
0.000166307899015708 
-0.0002278632617570332 
1.121864538962976e-05 
2.280671289395915e-05 
-1.370761195009991e-05 
1.874132065089041e-05 
0.0001163957877620636 
0.0001139066368026239 
-2.231285169343229e-05 
-5.597931848875773e-05 
2.435434131044938e-05 
-3.147992517737437e-05 
-2.141448702192111e-05 
2.920211881554272e-05 
-9.202198028605892e-07 
-5.994573375872009e-06 
-1.678210627239588e-05 
-0.0004224324807153587 
-0.0005434826788542866 
-9.697586984746402e-05 
-4.321526283015986e-05 
-8.970560816036116e-05 
0.0009909548739636276 
-5.8398216930327e-05 
-7.981792543748998e-05 
-4.08775266868273e-06 
7.944778864970012e-05 
0.0001678966942751164 
-0.0001944635140176142 
0.0002395200599753536 
-3.264848982339647e-05 
-0.0001166720759568431 
-9.125823890001261e-05 
0.000274827860005241 
-8.597672700748617e-05 
-0.0001644073951480771 
0.0001957218060725233 
-1.647029668114214e-05 
0.0002554773692560798 
-4.346557579906759e-05 
-4.676198202531475e-05 
0.0001830869593015127 
-0.0002914933607323086 
0.0002074189460152518 
4.321190677724773e-05 
-3.922765510612472e-06 
-0.0002295709786439287 
-6.89507666310623e-05 
-8.362030486019578e-05 
1.913150483657566e-05 
-3.005423592946728e-05 
0.0001051795126695339 
0.0001654290586581914 
-1.84034693576243e-05 
0.0001494028486195903 
-0.0001775072265930481 
-6.526493569364251e-05 
0.0001804567957071236 
3.545257335146661e-05 
-2.464427281346414e-05 
3.486446511480572e-05 
-3.507020767253953e-05 
-3.289990948331145e-05 
-0.0002097090832415464 
-0.0003487723399970724 
-0.0001339762839358754 
-0.0001432760937105744 
0.0002526671686828273 
-7.479176781040058e-06 
-0.000251353926287759 
-4.008720568555975e-05 
-0.0003408892133211252 
0.0002625673904754217 
-0.0003688702216257922 
0.0006453489698921326 
-0.0002125056282249566 
0.0002641442593078669 
-0.00014271967345946 
0.0002419562965037382 
3.110131539991819e-05 
-0.0001001380483386474 
3.327695498128802e-06 
-9.90952805654959e-05 
0.000162606708104575 
-8.165473754969063e-05 
9.39759847009548e-06 
-3.912609762822617e-05 
7.519577945991323e-05 
-7.394622922336109e-05 
2.504922630347695e-05 
9.877952660083184e-05 
7.509205758723388e-05 
1.75767862837611e-05 
-5.069852627609223e-05 
-0.000176955708848058 
-1.044477003406808e-05 
-1.889818450990628e-05 
2.226909781236323e-05 
-6.642469046696949e-05 
6.102846822469072e-06 
8.592201150113568e-05 
2.351139563956504e-05 
4.933469785798705e-06 
6.623851425953116e-08 
3.177635658857082e-05 
1.900891618374385e-06 
-0.0001418126239894516 
-2.334618609800396e-05 
-0.0001210246194029128 
-5.206837795980351e-05 
3.607161462050864e-05 
-6.014205717719802e-05 
-2.422839481222673e-05 
-0.0001868090697714706 
1.042177374346334e-05 
6.704808158332347e-05 
-5.931155051719618e-06 
1.917100072691521e-05 
5.74468631516813e-05 
-0.0001960656766951771 
-0.0007027068197197925 
4.399281755942699e-05 
-5.170643608820513e-05 
0.0002616506169077108 
0.0004586577146996526 
-0.0001161692911437252 
0.0003129295135493363 
0.0001138623607359464 
6.339650538039721e-05 
0.0002677542445773871 
7.488270875517067e-07 
-0.0001240498722955892 
-0.0001048931643236301 
0.0001334280644964096 
-0.000239632567347372 
-3.348369528268138e-05 
-0.0002649774583290896 
6.775071722376164e-05 
6.660484075755451e-05 
-9.889219932802989e-06 
-2.992436421875077e-05 
-0.0001504192821662476 
-9.477475336310588e-06 
-0.000117422239341501 
-6.01715786586029e-05 
-9.611725667116216e-05 
6.187391923933665e-05 
5.160744691889825e-05 
-0.0002784765819170955 
0.0002549973592651642 
0.0002166551326048095 
0.0001836159795610382 
-8.230889508531012e-06 
-5.195126623222221e-06 
-5.113259139438654e-05 
-3.79493508052311e-05 
3.451193489424958e-05 
-1.108969136995671e-05 
1.340876739845555e-05 
0.0001609325334643888 
-8.661589402610391e-06 
-1.98476679119632e-06 
-0.0001106935548024526 
6.222219358710915e-05 
2.630092078622993e-05 
1.571931623302234e-05 
5.420252986279271e-05 
4.870576215013292e-05 
-2.629437479220435e-05 
0.0001719172698736411 
-9.996318644304148e-05 
1.600283353148576e-05 
0.0001855460491505429 
5.190778352090299e-05 
-7.719206473810732e-05 
7.149971869757406e-05 
1.777045867835503e-05 
0.0001934126376809109 
-2.744846526981817e-06 
4.016300303018648e-05 
-7.04847015517252e-05 
-0.0001534509451150383 
-0.0002565812337970571 
-7.4190142699848e-05 
-4.929621950336183e-05 
-0.0006736380689830309 
0.0002916743667357911 
-0.0001008020071639891 
-8.488279275092054e-05 
3.342539217382768e-05 
5.593176331237202e-05 
9.669669969226791e-05 
0.0002217959795260436 
2.590223085052931e-05 
3.7563725719235e-06 
-1.842633185514731e-05 
-4.677824843969927e-05 
-8.123379372528938e-05 
-2.209802161606604e-05 
7.236016586381166e-06 
7.218096335227021e-05 
0.0001644534689823946 
6.093642306848854e-05 
0.0002358862257845105 
-8.486117409086637e-06 
1.979731292812692e-05 
0.0001450960265634124 
-0.0002854742960572317 
-0.0002153169496757867 
-3.33654981802317e-05 
4.630681750725332e-05 
1.809641439660846e-05 
-1.643427604714388e-05 
-3.356334377943595e-05 
2.825407097378257e-05 
-0.0002050755597663916 
2.630643118380866e-05 
-0.0001203147003395565 
6.313997338261504e-05 
-9.011735127875519e-05 
0.0001519792741362511 
3.587978744466459e-05 
-2.924618521217678e-05 
-4.083837258179963e-05 
1.425700881500583e-05 
-8.004744996000236e-05 
-2.215437017475686e-05 
-3.038036423649318e-05 
0.0002130467789071301 
-0.0001275020180055149 
-1.557072982286644e-05 
-5.438259797276106e-05 
8.897540866147892e-05 
-1.977403200549581e-05 
-0.0002543174362152491 
0.0003798272218138779 
0.0001957195672269557 
4.569725375597453e-05 
-0.0002801612322512467 
3.506330430823371e-05 
-0.0003019707379836326 
1.267836676972732e-05 
-0.0002120988566073731 
-2.828781061852706e-05 
-2.921687641232348e-06 
-9.161611426155036e-05 
-0.0002811398657174843 
-4.848372397657482e-05 
1.413102262633867e-05 
-0.000243721178333392 
0.0001770646658993513 
0.0001265633524017347 
0.0002437323937980104 
0.0002679960658398331 
-5.031047949626784e-05 
0.0001205602906085349 
9.648076522746966e-05 
-0.0001320592991233093 
0.0003303348529799347 
0.0001943357681067167 
-1.759452783148511e-05 
7.976904927751185e-05 
-4.705889900594222e-05 
7.404847988640823e-05 
-1.370430042196966e-05 
0.0001009696307660989 
4.030715600282833e-06 
-9.366314849388383e-08 
8.507566459613472e-06 
-1.448322837995726e-05 
1.140105153206414e-05 
-7.254644812396707e-06 
-3.973764681231153e-06 
-0.0005285413663790681 
-0.0001525290781454363 
0.0002589240801290925 
-3.408730155613573e-05 
8.135698024586835e-05 
-0.0001149360245622881 
-0.0001866765776565133 
-6.859391772973975e-05 
0.0001935370924745859 
-0.0001855402876618443 
-9.309750671778735e-05 
-4.075631733711568e-05 
-1.646799838553484e-05 
5.507946635397173e-05 
2.258619220836517e-05 
0.0001152635500799743 
-5.321592658435685e-05 
2.72821868582204e-05 
5.382772281886158e-06 
4.789842107704631e-05 
1.591187719544412e-06 
-0.0001117698785890927 
-3.977529307578878e-06 
0.0002648596779753481 
3.16507111185344e-05 
3.605941243818614e-06 
-9.385758315409368e-05 
-0.0002191149401803776 
-1.723032350265081e-05 
-7.089609587840947e-06 
0.0001052120558797657 
0.0001270616559662907 
-0.0001169919934143473 
0.0001335704880867621 
7.578044548318455e-06 
-0.000236096527286534 
0.0002474202669567749 
-5.633354834113117e-05 
9.429880188549427e-06 
-0.0001763940003048882 
0.0001573707981752133 
-0.0007033682845486696 
0.0003087988907769822 
-9.993062740812079e-05 
6.997563373495416e-05 
0.0001465453342019448 
3.15135566198585e-05 
4.13190413640957e-05 
4.6332772162919e-06 
-4.137266080005853e-05 
-0.0001796851520931023 
1.64857551220629e-05 
9.59046768176534e-05 
-7.706109751790339e-06 
-2.650775952799028e-05 
-2.771263015945922e-05 
-0.0001122988677790242 
-0.0001563811972916096 
6.880314012124313e-05 
-0.0001054523712557369 
4.965343559040433e-06 
7.424218386755481e-05 
-2.275206141860871e-07 
1.553884968079476e-05 
9.160265563841564e-05 
0.0004145319292655511 
-0.000242319277778822 
-6.593299076168021e-05 
7.906897583896575e-05 
-0.00031486094582219 
-0.0002043746454066226 
9.266683661361048e-05 
6.400970055114287e-05 
-1.271646420328896e-06 
0.0001585191597421813 
-2.462781431795362e-05 
5.838774827633799e-06 
-5.905063346838278e-05 
0.0001182140631917359 
0.0001374526737592907 
-6.513733504048213e-05 
2.484428184099781e-05 
5.694832465196063e-05 
2.856042447511798e-05 
-1.166315550543971e-05 
1.442180954802747e-05 
8.985781168175785e-05 
-3.986664055407586e-05 
0.0001220045536812124 
-6.783183469843104e-07 
6.585581844683672e-05 
9.834685203626896e-05 
0.0001786744782741878 
-0.0001159244247357677 
-3.02186952405215e-05 
-5.239693215444932e-05 
1.453422717741397e-05 
1.757114255322221e-05 
-0.0002305417053587131 
-1.863283150247982e-05 
0.0001962763606768611 
-0.0001421500013378582 
-3.817178623232778e-05 
-0.0001289227157856038 
-0.0002786874934015263 
-0.0003539250929354342 
-0.0002731035494974387 
0.0003824921247136071 
0.0002368620873768381 
0.000113692097284365 
3.790891249358972e-05 
-2.613485671892579e-05 
1.480010040191333e-05 
-0.0001043929051377552 
2.697507554728358e-05 
-8.095369850721072e-06 
-4.727021903488922e-05 
7.338522491781834e-05 
1.020216156714613e-05 
4.61672979176703e-05 
-0.000587660393508999 
-0.0002415010052672966 
0.0001406109131396404 
-0.0002409293826777043 
-0.0001992336103894582 
5.089833481347372e-05 
8.73182633424033e-05 
0.0002897523131828034 
8.897530139318949e-05 
4.618237637845346e-05 
-2.445628441329818e-05 
7.166738241486596e-05 
0.0002299985301221791 
0.0002889313039056178 
-0.0003219667466490146 
-3.596278707849559e-05 
6.57177301978921e-05 
2.43288230930442e-06 
-2.287192023672738e-06 
-7.423128676559227e-05 
-7.624583217673007e-05 
8.485412225040638e-05 
0.0001384040942929372 
7.965537944285498e-05 
-0.0001366826336760368 
-5.505625054242663e-05 
0.0002565940928000059 
0.0001975834976889447 
6.919899915139875e-05 
3.102869496549011e-05 
-2.218152714674224e-05 
-0.0001421483663987106 
-0.0001208475235002825 
-0.0004739229395561332 
-0.0002823908512962125 
2.568061949736111e-05 
0.0001108707660015348 
2.293813959369484e-05 
0.0002713804682201014 
0.0002455784230815113 
0.0001236376514912003 
2.141688905692587e-05 
-0.0003040059805886699 
6.822805011165043e-06 
9.445258008232282e-05 
-0.0002130468521082395 
-0.0002059348862854953 
-5.262498502081162e-05 
-6.364718190022544e-05 
0.0001760694006943792 
0.0001392632092605404 
0.0001387659344224329 
-7.941036756596042e-05 
0.0002157535706530969 
-0.0001003550832382972 
-2.208454028363163e-05 
-0.0001999251372538472 
4.352623021365248e-05 
-0.0002494917319426939 
0.0001643496262717903 
0.0001396389907441769 
-0.000244237766057449 
0.0001267432964774936 
0.000174947411553965 
-1.174515132920727e-05 
-6.668159827431205e-07 
-5.888926373783809e-05 
1.891847012540199e-05 
2.988772379380875e-05 
-9.659700360676201e-05 
-2.495817688775889e-05 
0.0001282314012658711 
2.884761693237119e-06 
1.66592664505892e-05 
1.105312367249046e-05 
-1.403446017126195e-05 
0.0002784438391097969 
-0.0001521354704299692 
6.466146257054817e-05 
6.451946178224562e-05 
-4.141769601484341e-05 
-0.0002416409266398814 
2.317602847755037e-05 
-9.3929679291112e-05 
-4.471390429046063e-06 
5.362917886128548e-05 
-4.215785725819424e-05 
7.724026532937649e-06 
9.43806155461888e-05 
-0.0002133027829579736 
8.108487429697832e-05 
2.166978347420011e-05 
3.521284664877038e-05 
0.0002143630260424551 
5.691204416170005e-05 
1.884134572881145e-05 
0.0003374935628672716 
0.0003044263499381494 
-0.0002913464240111144 
3.664718752908002e-05 
-1.353322828476992e-05 
-1.000495697732889e-05 
0.000189734816930354 
2.291347830939411e-05 
1.848308011446867e-05 
-8.786996662610945e-05 
-0.0002819938297848481 
-0.0001767445896373569 
3.694569725129042e-05 
-3.379659363057053e-05 
-0.0001782497393664002 
-2.247107101690495e-05 
7.640357442445056e-06 
1.177874270275678e-05 
-0.0001460510202086557 
9.712710454619426e-05 
-1.363338777612512e-06 
-1.10442089180463e-05 
-7.39313356780456e-06 
-0.0002377942572007806 
8.705880559446937e-05 
0.0003383852839980165 
0.0001152312281740498 
0.0001718342128215361 
-2.757399100806402e-05 
-0.0001332668558390231 
8.254350956453439e-06 
-1.086725404405073e-05 
-0.0008048027626604775 
-0.0003254620493184736 
-6.3052255557603e-05 
0.0002950568841787018 
-1.432410708417232e-05 
-0.0001294815886139715 
-0.0001464448970520442 
-4.951820558201845e-05 
6.389299116337703e-05 
3.703466026212203e-05 
2.371015944277371e-05 
4.809357421350227e-07 
-1.54555464224004e-05 
2.632121712053346e-05 
7.506375012951404e-05 
-4.650387491340523e-05 
0.0001848288961983263 
-4.959302796780552e-05 
-0.0001040709316838882 
-2.289307057169384e-06 
0.0002196405427940405 
-0.0001798114349542932 
0.0002177103978799677 
0.0001107095458670683 
7.758335621909913e-05 
-0.0001386573879222149 
6.491700380749351e-05 
-1.544862048787908e-05 
-0.0001264395788856679 
3.610091152301782e-05 
1.426947661343214e-05 
-9.871415706980136e-05 
-1.566459205103615e-05 
-0.0001268629070815154 
-4.80286944356533e-05 
-5.177469951953275e-06 
4.267748828140431e-05 
-0.0002707185526366632 
0.0002794435460784578 
6.184392202502436e-05 
-0.0002336339341933279 
0.0001036453534372465 
-0.0001201515482255637 
0.0002911812366967177 
-0.00018692309212383 
3.494244890563968e-05 
-2.369047920503452e-05 
-1.128266915356488e-05 
8.571428115296235e-05 
-3.882788010475023e-05 
5.965089577115792e-05 
-2.514282627527114e-05 
-3.243163288718447e-05 
9.071184650696711e-05 
0.0001077384711152888 
4.007155712123814e-05 
-0.0001324701849376627 
4.105146716919368e-05 
-4.853912947772144e-05 
0.0001222588861724327 
0.0001883740030799334 
0.000120331864336412 
2.703313611895223e-05 
0.0003886968878249114 
-0.0002045707055935185 
-0.0002253532033516185 
-0.0002390234643331721 
-0.0006561102910984796 
-0.0002700605615849811 
-9.012851045164837e-05 
0.0001295682329988429 
0.0001599683720914595 
0.0002259566206265497 
-5.229428911145019e-06 
0.0001027553468832638 
5.245908774717977e-05 
-1.37511608898324e-05 
-5.762852936962628e-05 
0.0002337908792313001 
4.406862755590232e-05 
-0.0001410283490951209 
5.056292495804812e-05 
0.0001598252830762909 
-0.0001187933044353853 
-4.89822926923354e-05 
6.613796271334235e-05 
-8.168261154652471e-05 
9.320791774899226e-05 
9.394953502912593e-05 
-5.94173295299226e-05 
8.717791458739896e-05 
0.0001717024913859128 
-3.614580469556937e-05 
-0.0001382762265626768 
-0.0001602461441716937 
4.272725261208887e-05 
-0.0001067301650623837 
-4.157780732646269e-05 
3.105659667647707e-05 
-0.0001954714856523422 
-6.066311503531922e-06 
3.709092485114216e-05 
-0.0001125592385473573 
0.0002299521042735324 
1.531182702609464e-05 
7.769128679174443e-05 
4.908363416525939e-06 
-3.297498839105962e-06 
-2.313039547263907e-05 
-7.337425331752332e-05 
-9.862255246233268e-05 
0.0001798694937061877 
3.681358022123482e-05 
-9.80093469018736e-05 
0.0002610703742218727 
-7.554198412348801e-05 
-0.0002431936394857057 
0.0001674096267559187 
-0.0001045627811519757 
1.218736581556114e-05 
-3.882788010475023e-05 
-2.645829684468734e-05 
-1.973988817996848e-05 
-1.620234726117046e-06 
7.254163298558084e-05 
-0.0001517547102599105 
0.0002536922302561441 
-0.0002537965360750603 
0.0003519747913098987 
0.0001123401914428962 
0.0002477165679544045 
3.838735366356825e-05 
-0.0005191088009814874 
-0.0003783692555437421 
-1.763750504862831e-05 
-0.0003583128608848053 
-3.327658516538643e-05 
-6.3461482153381e-05 
-0.0001185631224341617 
-7.523476312748626e-05 
0.0005240770671309672 
3.549200805031113e-05 
0.0001070299453368791 
3.225718906692824e-05 
7.071869737770021e-05 
-0.0001659078556904021 
1.006182478472759e-05 
-4.606681109650681e-05 
0.0003067471594167622 
-0.0001633042339446979 
0.0001066626356718659 
3.443730037677651e-05 
4.970888308494966e-05 
-8.046949083382957e-06 
7.863406956484456e-05 
0.0001635311690352501 
3.006389681752385e-05 
-2.216943554235342e-05 
-3.884813359303254e-06 
-1.784386568454537e-05 
-7.440433467555302e-05 
-0.0001019849341983052 
7.348083111739646e-05 
-1.792187582387856e-06 
-5.230554380272816e-05 
-0.0001149968865219232 
-9.914200745610754e-05 
9.06370482279039e-05 
0.0005361688479901534 
-0.0001311363894155231 
-0.0003279343502550176 
-1.727057530081563e-05 
-0.0001174253000881679 
0.0003804453656181857 
-0.0002669641294942788 
-9.857676509982323e-06 
-5.34520081557785e-05 
-7.387127363603854e-05 
-6.2621324713854e-05 
7.433223038771551e-06 
1.346797816630992e-05 
1.564171071667675e-05 
2.377922197954496e-05 
-3.319248731723438e-05 
-4.060349239792691e-05 
6.07789505417247e-05 
-1.204954296876497e-05 
0.0002374121416701858 
0.0001752568184628206 
-0.0001136911177117102 
9.361461340550005e-05 
0.00037449236570179 
-7.833960596406564e-06 
3.486153030283462e-07 
-0.0001652275392268056 
3.830533963900641e-05 
-0.0001698786506965624 
-3.852002158202206e-05 
-1.826895308781589e-05 
0.0003874021331301932 
-4.079259797103611e-05 
-0.000136806164723684 
-0.0002425188124295083 
-6.726548674285021e-05 
0.000106954498670561 
1.624363233375247e-05 
-3.936875601562048e-05 
-0.0002822482197792663 
6.241631305925938e-05 
-0.0002999582987671301 
-0.0001144517267079996 
-9.906034567901016e-05 
-1.05787831795316e-05 
0.0001632629617624141 
-1.083037128507056e-05 
6.616023043271383e-05 
-7.828194621230133e-05 
-0.0001798986798365314 
-9.816779709065642e-05 
9.447108652325045e-06 
6.353466962087727e-05 
-0.000509461098726038 
1.93506290857583e-05 
1.886901095549863e-05 
0.0003949548794649169 
-0.0002439913668543445 
0.0003793833042628587 
0.0002316242472651479 
0.0001082990662789142 
-0.0002363056889531016 
-6.828818083498433e-07 
-7.401295708949722e-05 
6.604202227541463e-05 
-6.725913019870396e-05 
0.0001199910804147857 
-1.375644855876136e-05 
-6.201693147534633e-05 
2.47635759390745e-06 
-0.0001073645150717843 
-0.0003895918499885897 
2.403416299335058e-05 
6.644077389360264e-05 
0.0001397208604851561 
0.0001963771019291034 
-4.0583040575919e-05 
5.32320686305362e-05 
0.0001168087504969633 
-3.651598929496319e-05 
-8.244858784550668e-05 
-0.0002552617172876812 
0.0001137695468320964 
5.193398573760832e-05 
-0.0002471653873609552 
-0.0001633364190481478 
0.0002578973510218881 
3.758387298545805e-05 
0.0003533427750152512 
0.0002565862210124597 
0.0002685480794441797 
-0.0004816728972405655 
4.810816041907925e-05 
0.0001507303424157792 
-0.000268444498363734 
6.274512702597138e-05 
0.0001357912890866712 
-3.455682762664938e-05 
-4.637715731317797e-05 
5.124571229120233e-06 
-0.0001935777162197962 
-6.701459570089409e-06 
-2.323339735120552e-05 
-0.0001215395977640534 
8.984781151452485e-06 
9.607798946222135e-05 
4.349725225893596e-05 
-5.071994867012009e-05 
-0.0001547114099632249 
-8.80883147282722e-05 
-4.05000153075894e-05 
0.0002403097791268276 
-9.747572327787886e-05 
-0.0002061931369557208 
0.0001127152603550947 
-7.210444625684148e-05 
1.240800628885149e-05 
4.70110362768267e-05 
-0.0001462990528005464 
-9.619220059790422e-05 
-5.347792535043835e-05 
5.746720116778182e-05 
4.830504847949919e-05 
0.0002120945873278195 
-2.808185385268748e-05 
0.0001021601717976436 
0.0003748552656810195 
-0.0003592105652061077 
-9.521783315963785e-06 
0.000188891660491364 
3.435611632225707e-05 
2.640015633416206e-05 
0.0001896299334873278 
-0.0001078245834463076 
2.68762901338661e-05 
-0.0001828956646677327 
-3.57362890231464e-05 
-5.231970895864157e-05 
-8.737850794115607e-06 
5.115820854269783e-05 
0.0001219306233328072 
-8.586483263758376e-05 
5.487032403612822e-06 
-0.0001971152087167833 
1.111902863373808e-05 
5.880643372474616e-05 
2.117691356908901e-05 
0.0002164321382505742 
-0.0001216270892994174 
0.0002074506662618002 
-0.0001818002883994277 
-0.0001078532923025688 
8.686641617967775e-06 
-0.0001351432955739262 
-9.367659812059976e-05 
-3.307848855195239e-05 
0.000140846136509021 
-0.0001057241591471853 
-3.140336995381189e-05 
8.725254130372831e-06 
-0.0003312920516667078 
-0.0001329328027775824 
-7.467431113635232e-06 
-8.473421308361328e-06 
6.769405999981685e-05 
8.783114508561818e-05 
4.637479643572383e-05 
-0.0001593626625942457 
8.38978713370471e-05 
0.0003045608699324007 
-7.020107362745832e-05 
8.519039138825549e-05 
6.391177842716766e-05 
-0.0001777162101462116 
0.000238564456204644 
-8.082057436065862e-05 
0.0003637870477711014 
-0.0001996406015965172 
5.424628444968903e-05 
-0.0003177773252856571 
-0.0001601309339747819 
-9.491751173931644e-05 
-8.695669778304699e-05 
0.0001190250142385544 
-3.529114470379776e-05 
-0.0002112275532494739 
-4.958936353711852e-05 
-9.172673220062346e-05 
-1.843480594440031e-05 
4.747185202111477e-06 
2.197003961309815e-05 
1.00562405006353e-05 
0.0001362712701812979 
6.539703342597179e-05 
-3.624762203808686e-05 
9.213391647620538e-05 
0.0003054831412577528 
4.251305708315274e-05 
7.864817826457371e-05 
7.181126153177073e-05 
-2.693709165834526e-05 
6.899360982013113e-06 
-3.35392534812308e-05 
-3.755204808671116e-05 
3.670196555194566e-05 
1.061227980397498e-05 
-0.0001213135312822022 
-2.632528720830746e-05 
3.358741409927413e-06 
-0.0001539857565338112 
4.017227917533588e-05 
-3.792438456769888e-05 
8.056414512339758e-05 
0.000202066542685902 
-0.0002424749886783802 
0.0003091535231485029 
4.210178133626671e-08 
3.091213079601892e-05 
-4.195739321577074e-05 
0.0003968824976539149 
2.055242905330041e-07 
-0.0001353998044174163 
-6.425440345045807e-05 
4.193174752928274e-05 
-3.577973958722664e-05 
-1.931346946269572e-05 
1.233474638930698e-05 
-9.205935195148072e-05 
-0.0002012911726537957 
-5.62318622542379e-05 
-0.0001228376234193573 
0.0002449488974723535 
3.045839674337836e-06 
-1.96433139647113e-05 
0.0001715507616165768 
-3.511126621196752e-05 
-2.470879261349694e-05 
3.095835208280446e-05 
-0.0001567954773517972 
-0.0002556632579309962 
2.106213278587346e-05 
-1.191584853801881e-05 
-1.94649907522797e-05 
-1.143499365478307e-05 
6.318299333884857e-05 
-1.297519277272247e-05 
-4.206114634646647e-06 
5.396266306860927e-05 
1.943341671907362e-05 
0.000121374809031343 
-5.924342818854116e-05 
-0.0002595006666613992 
0.0002332761575762154 
-0.000118427718829111 
-0.0004282284321729118 
-8.623707532631682e-05 
2.538505586454685e-05 
0.000427149563750349 
0.000191402677562184 
-0.0002909306757767001 
-0.0001590977784289415 
-9.241717295441134e-05 
-7.215182719861579e-05 
0.0001583513389278202 
-2.682899451145236e-05 
4.273980565156318e-05 
9.073148750375614e-05 
-2.345861989938258e-05 
0.0001167503619775389 
0.0001175880915951227 
-0.0001331752524883797 
0.0002520274373462217 
4.221813198645443e-05 
-6.963828113549582e-05 
-1.045325311805222e-05 
9.066981461065413e-06 
-0.0001199114974349477 
-0.0001290362897349835 
-5.651189145761187e-05 
-0.0003344763192328337 
2.296817890522287e-05 
-2.428707246814435e-05 
-5.134446117930919e-05 
0.0004571450196364029 
7.015662463836158e-05 
0.0002953255133178873 
0.0002812706699920267 
-4.764026405660308e-05 
3.638129169325531e-07 
3.16170196994796e-05 
-1.94044647571229e-05 
-5.65592301985597e-05 
-0.0001194099236118089 
9.169421605948592e-06 
-0.0001839663655913583 
-4.07816359252762e-05 
-0.0001570332618453909 
5.517135300515803e-05 
0.0001228763512167034 
8.258405821504703e-05 
-3.970687608747792e-05 
-0.0005935615116301093 
0.0001944577980864 
-0.0001706240515631092 
-9.320285577033705e-05 
0.0001218152066184757 
-7.420504563395669e-05 
2.033920694998001e-05 
-0.0001326010065655667 
-0.0001875359180563796 
-4.314650297398418e-05 
3.196917881780818e-06 
2.223841880450001e-05 
6.427096252019256e-05 
-0.0001729158159839328 
-0.0001437187810935341 
-0.0001310509650970233 
0.0002606905375113376 
0.0002011824270718839 
-9.900596671957743e-05 
-6.811674054624008e-05 
-5.297936811313636e-05 
0.0003229260801038388 
0.0002156085001671396 
6.825884787570714e-05 
-1.902780254335397e-06 
-9.852406037577169e-05 
-3.362655585926424e-05 
-1.91839899510145e-05 
4.43850385160523e-05 
-6.969853634641181e-06 
-3.895649072383448e-06 
-2.223996765395635e-05 
2.715204247759481e-05 
5.607746098389111e-05 
-6.473398334313098e-06 
5.817803829193021e-05 
0.0001580281702008484 
-0.0003110910699146224 
-0.0001497489901010182 
-5.193999176247284e-05 
9.007294799312553e-05 
0.0003551144572110558 
1.719929316881254e-05 
7.700611961410577e-05 
7.030846004411202e-05 
-1.219334183627057e-05 
-0.0002894768597063258 
8.114968099194338e-05 
4.759149599121675e-05 
-9.128961809887811e-05 
-3.127719984668501e-05 
4.1397594325995e-05 
2.096012778834116e-05 
0.0001337079338923692 
-0.0001792641635913464 
-0.0001747402605371437 
4.291529501171452e-06 
-0.0003292116597487423 
0.000196110371248938 
6.05759485751097e-05 
0.0001342573275213008 
-6.032139627844147e-05 
-1.222187874933373e-06 
1.00453148525393e-06 
2.182919272771739e-05 
-7.837310377916754e-06 
4.505127276880306e-05 
0.0001084324162474238 
-0.0003349140191855755 
-0.0004543346533346888 
-6.017574550605286e-05 
-3.624655323421952e-06 
-1.440582296470478e-06 
2.434138828893136e-05 
1.623159931918683e-05 
-0.0001045668509766328 
0.0001278118450500909 
0.0001640316951378603 
-0.0002539701283146509 
4.992093346063144e-05 
0.0001731274676456674 
-0.0002612145282701072 
-0.0001938389670304752 
7.327841839620504e-05 
9.305801874777658e-05 
0.0001292380682355284 
0.0001305108996415672 
0.0001686330114321991 
-8.792116857586731e-05 
1.035969463459437e-05 
2.918250663127685e-05 
-1.268204407758825e-06 
0.000226112308051745 
-7.759195085448056e-05 
-4.229386109411649e-05 
2.414695283539557e-05 
0.0001796830117816516 
-2.330042057200133e-05 
-0.0002858770688937668 
7.131326132467948e-05 
0.0002330516280026536 
0.0002419828883934056 
7.989110999166875e-05 
5.018309977100419e-05 
0.000153060694283006 
-8.169520187576373e-05 
-3.539563758434971e-05 
-1.343128793672913e-05 
1.067716926987852e-05 
-3.868477002103178e-05 
-0.0003915450345222242 
6.042451858030861e-05 
2.625517635074718e-05 
2.270540962969535e-05 
-0.0001602250072069315 
-0.000583816055157478 
0.0002186077665915143 
-1.62810488237611e-05 
-3.538358440626688e-05 
7.956611685107532e-06 
-0.0001496476640026746 
-8.461081926662507e-06 
1.807510329300587e-05 
0.0001342398010005848 
7.512217449300066e-05 
8.523848423647883e-06 
9.985626150550334e-06 
0.0001662046731251443 
0.0001637618955020274 
-7.888324093975905e-05 
-9.856736456276849e-05 
-7.496639489658832e-05 
0.0003180009341104965 
-0.0001087396694874843 
8.672383902636088e-06 
0.0001733684642162301 
-0.0001040251858065924 
-5.854920518003983e-05 
4.313002444470708e-05 
1.089839224579378e-05 
0.0003292264793932451 
-0.0003475692028752696 
0.0001846254048686924 
-0.0007487905020423313 
0.0003342217767167343 
0.0001698982310435627 
-5.757532997394978e-05 
-2.916137936141105e-05 
0.0003379551942497644 
0.000158385289384048 
-9.039417381315716e-05 
2.236841629436947e-06 
-4.969200282320831e-05 
3.212080349078228e-05 
-0.0001033895943146736 
-7.420519750704849e-05 
0.0001334658945053772 
1.828325575545461e-05 
8.333757020211972e-05 
-5.583230768940782e-06 
-0.0003902950882143468 
-0.0001236276459670394 
-3.863875070151314e-05 
-3.37145703704565e-05 
-0.0004450514467302572 
1.017057486508283e-05 
-0.0001039854729343213 
1.765523191433597e-05 
7.590658322447849e-05 
-2.019222503185341e-06 
3.86341580994917e-05 
-0.0001002541958701703 
0.0001892641658500262 
-9.250977768567025e-05 
-7.071254376756079e-05 
-0.0002348486452259479 
0.0001515746639403801 
-2.910536667504842e-05 
5.439804306289147e-05 
-6.229634996803825e-05 
-1.002846826742539e-05 
-0.0002069939398985263 
4.735386199440045e-05 
-8.057166593497592e-05 
2.768668538526404e-05 
6.197518521113212e-05 
9.954242517419434e-05 
0.0001904505670808631 
-5.847253095643324e-05 
9.036578763501488e-06 
0.0002261980467573741 
-0.0002161726382107417 
-0.0001311363091369786 
0.0005893608960780649 
-4.121038706593417e-05 
-0.0001114706166764502 
4.7846628914482e-06 
6.40336378746951e-05 
-2.736736444061297e-05 
7.998034422105691e-05 
-0.000205959080446987 
-0.0001883216423610127 
-2.984669047812462e-06 
0.0001372275423909266 
-2.821632686989698e-05 
-0.0001405764603356942 
0.0003878181989619864 
-0.0002076203081853027 
0.0002372386316696075 
-0.0006249907771503522 
-0.0002405050697733502 
9.024016759815666e-05 
0.0004442596131901486 
0.0001645123279724099 
6.965028180569439e-05 
5.268110998792734e-05 
-3.612715240173867e-05 
-4.638757249704291e-05 
0.0001743812518547863 
-7.967559010483388e-05 
8.309555156912419e-05 
1.091183428091619e-05 
-3.188615018233221e-05 
-0.0001429855637772919 
2.055369003875814e-05 
7.61165757323808e-06 
-0.000116797202839465 
-2.428357339733598e-05 
-7.221905315998185e-05 
-8.056327097408111e-05 
-0.0001746948288103174 
-9.722321382737832e-05 
0.0001047401827133212 
-0.000113984630910722 
-1.505211174544322e-05 
-6.544680414193808e-05 
2.297467750906592e-05 
0.0001766721935376494 
-0.0003860149312362165 
-0.0001275104327913238 
4.960704234940701e-05 
0.0002521613431544215 
-0.0002834646466722938 
0.0001716489617398735 
0.0002289516398359427 
0.0001167725752703617 
5.712775713640494e-06 
0.000118319971408958 
-6.494898581458787e-05 
-4.264531828102988e-05 
0.0001990970992575211 
0.0001953270682047051 
6.00705053342888e-05 
2.848610677302219e-05 
-3.33015224082333e-05 
-0.0001616491290115989 
0.0001905115823788036 
-0.0001885582965948042 
-7.582791690908714e-05 
3.65744707565344e-05 
8.543222301771984e-05 
-4.763579607062303e-05 
-7.369096875176728e-05 
-4.919042586220839e-05 
-0.0001025493058526003 
-0.0001567952876356155 
3.483952014890422e-05 
0.0001391658097408098 
-4.221177227418574e-05 
1.266378746816527e-05 
-0.0001212915927071284 
0.0002564106679936462 
-9.489501952786791e-05 
-9.339277455245688e-06 
2.885531900955076e-05 
-0.0001328588692816134 
-7.806134240404028e-07 
-3.86596489815445e-05 
1.678323090413179e-05 
0.0002911613886180114 
-4.566222058712731e-05 
0.0001324203340452811 
-0.000299922312495139 
0.0001590807512400899 
-8.178131656679189e-05 
4.596651666555968e-05 
-8.093371374383592e-05 
-5.793999624971815e-06 
3.78145577677429e-05 
5.534725293947505e-05 
0.0002234261735087981 
-9.929374324377595e-05 
0.0002850536643496488 
-0.0001693285640117915 
-5.769327315278557e-05 
-0.0001118596462022611 
0.0001120227169150546 
2.167439331319775e-05 
-3.395409285864774e-05 
-4.275472767207268e-05 
-0.0001091669121878145 
-2.115534775394048e-05 
-0.0003204429762106779 
-0.0001320002051563079 
-0.000155016396208876 
-5.71456779980837e-05 
5.240552809573645e-05 
1.873000033721801e-05 
-5.292178243292028e-05 
0.0002915469875564666 
0.0001599985104960529 
-8.537843159376047e-05 
-0.0001983594506489918 
0.0003104053775514241 
4.232012528584729e-05 
6.871037950383562e-05 
-9.941181559829123e-05 
0.000180135807623792 
-6.162691294634181e-05 
1.66199883423837e-05 
-0.0001424543459230616 
3.961042148518112e-05 
-2.806525590442297e-05 
3.681565458761931e-05 
2.775027674624326e-05 
6.045092528921175e-06 
-0.0004050256118398671 
-1.116306162420533e-05 
-7.528730006285386e-05 
-0.0003248034392031171 
0.0001815015558713863 
3.923560647129798e-05 
-0.000152658412693946 
-2.329178116829495e-05 
9.008993269810608e-05 
-7.766411435720683e-05 
-2.268322464294398e-05 
0.0002147097329187082 
-0.0004037688408172802 
0.000176636148336952 
0.000169038133345404 
5.832421671682528e-05 
5.418006588068333e-05 
4.382996919502777e-05 
5.369740260082971e-06 
5.885224486510274e-05 
4.941050613412027e-05 
4.360472650782718e-05 
-9.918857821749744e-05 
6.281175368030095e-05 
0.0001239254264580463 
2.923876708938196e-07 
9.325272360636537e-05 
-3.938050138404801e-05 
-0.0001012579029250557 
-4.227174486983174e-05 
3.484425521089623e-05 
0.0001722726207149264 
-0.0007488490631817855 
4.333173233672172e-05 
-7.230296966792797e-05 
3.260977370201433e-05 
-7.92316461273764e-05 
0.0002214380084419136 
-0.000113250013114802 
-0.0002290251209868105 
-7.042230080392397e-06 
7.643469600911079e-05 
6.222410534025683e-06 
0.0002563657763250524 
0.0002187299524867205 
0.0001374614708512212 
5.126991551533869e-05 
6.974318039877209e-05 
-1.742810246132517e-05 
-8.854876200657572e-06 
-0.0001236323276334499 
-2.130460523720382e-05 
-2.557841594377935e-05 
-0.0002039130907060873 
9.044549234620271e-05 
0.000341475839115524 
7.098610921939524e-07 
-1.452570375083908e-05 
5.395327682753921e-05 
-0.0001261446764566133 
0.0001874505249725291 
0.0001360111850928887 
-2.995554634894154e-05 
0.0001662395046469862 
-6.350024912276103e-05 
2.894335080518068e-06 
-4.167837884290718e-05 
-7.725800760277988e-05 
-0.0001809599335928335 
-0.0001206557408107578 
6.095282670992932e-05 
-4.261822500996784e-05 
-5.54931770838483e-05 
-4.795201594699496e-05 
-8.036731344548437e-05 
-2.145067261611906e-05 
6.499364974962931e-05 
-0.000236269081597541 
0.00024261528763893 
2.699779243849599e-05 
5.455023525136801e-05 
-1.870360141129746e-05 
-3.36952186664972e-05 
-8.451680290566707e-05 
-2.199326623953272e-05 
2.912016824732485e-05 
3.17397854485641e-05 
0.0002248644655220221 
1.752541825298614e-05 
0.0001261709763577724 
-6.093211183986914e-05 
-0.0002814310397619113 
-0.0001163876780748736 
-0.0001156976562633889 
-9.582879713401192e-05 
-0.0003675286996375376 
2.74323199984815e-05 
-9.196272459307219e-05 
5.663535000543317e-06 
-1.557098618968948e-05 
-4.164996696877249e-05 
-0.0001456845900215304 
5.945199001230253e-05 
8.662253071220099e-05 
0.0005088946520255327 
-0.000181820208075287 
4.324354464392135e-05 
0.0003235978483210714 
0.0001116501404497676 
-6.798210174160623e-05 
3.304731721859609e-05 
-7.964001803532545e-05 
0.000128763978923914 
6.481634362429122e-05 
-3.859219824134906e-05 
-0.0001139105073055487 
5.11961538426313e-05 
1.373677658943964e-05 
8.174353982261565e-05 
-0.0002598573532507872 
-1.31365913491939e-05 
-7.763947294392607e-06 
-9.175429295078331e-06 
9.502455485037114e-05 
-0.0004054591601208188 
-8.777598386719643e-05 
-3.618533774228913e-05 
1.904182477312101e-05 
-5.029247997901617e-05 
3.296385449469378e-05 
9.958319846509358e-07 
0.0001109048698409113 
7.248102624205414e-05 
8.412757211416824e-06 
9.640262538252877e-05 
-6.464258389682165e-05 
0.0002221718561927842 
0.000227674705029077 
-3.658699607413002e-05 
1.29922098319878e-05 
-0.0001767493181536791 
4.518670409077202e-05 
0.0001326096277160214 
-0.0002344160675910604 
-8.846647531875814e-05 
-9.599808609900669e-05 
-7.919848172162144e-05 
0.0001012220066755056 
-0.0001912582910842075 
0.0002618592069413176 
-0.0003874404858390029 
0.0005270106655937309 
1.031978150298435e-06 
-7.043134891054154e-05 
-0.0001020373679149367 
0.000106672486726442 
-1.604958951315867e-05 
2.370148196625775e-05 
1.679269468227075e-05 
6.821819860821419e-06 
0.0001828685861566708 
0.0001185073039160162 
-0.0002871254036568029 
-3.071557967570127e-05 
-4.88546209582702e-06 
8.284396497936235e-05 
0.0001643728205492637 
-4.045394940789207e-05 
-8.951985983401628e-05 
5.835421616959395e-05 
9.319134882040478e-05 
-0.0001665196825361611 
-6.956589391443286e-05 
-0.0001158681916485062 
1.038629020949082e-05 
-0.0001166996678735535 
-4.062204794018929e-05 
-8.225609679320463e-05 
-0.0003468605411592351 
0.0001150541678222266 
-4.199434281938143e-05 
0.0002884005201711909 
-1.799815766659494e-05 
-0.0004989872246849653 
0.0004479201254515272 
-0.0001365359103659415 
-0.000174180108865411 
0.0005403181422601048 
-0.0002096961237874264 
2.771995507262542e-06 
2.326655009895965e-05 
-8.831764527206698e-05 
-5.993699605681342e-06 
1.372018400222358e-05 
-4.887954437653317e-05 
-5.438273810655993e-06 
-2.653414087975751e-05 
-1.495444725355447e-05 
0.0001685628854324304 
-0.0001104717694793054 
-1.957472611287418e-05 
3.314093458026341e-05 
-6.98173095759592e-05 
6.75150134449217e-05 
8.235354400411801e-05 
-0.000199921245734009 
-0.0004441060519949353 
2.348720640247588e-05 
-0.0002266948672223422 
6.197430044513446e-05 
9.815308838767625e-05 
0.0001170993341186709 
0.0003594971314246805 
-0.0001271006109658805 
0.0002827362374403025 
0.0001063055074545054 
-0.0001390731947277016 
4.209064058795985e-05 
-0.0001263929862847602 
0.0002529878563160877 
-0.0001694496469145256 
0.0004166871771539783 
-9.668617221481037e-05 
6.320769701487357e-05 
0.000157603431376511 
-0.0003302264398565435 
6.978490723439715e-05 
0.0002174296000154859 
-0.0001622729869121285 
-9.474397898328972e-05 
0.0001454935824339966 
-3.386023906403408e-05 
1.395781105828196e-05 
-1.627271380292947e-06 
3.777795328198817e-06 
-8.409717855546671e-05 
-7.383830940506997e-05 
-7.733389235213859e-05 
-3.460805527488502e-05 
0.0002514215417994389 
-2.680840039886878e-05 
-0.0001330659143249772 
6.385287184250726e-07 
-2.828895681552514e-06 
0.0001753845670949219 
3.598603502684882e-05 
0.0001129415487336312 
-0.0002500477554100736 
-0.0001768116869141356 
0.0002331000102499697 
-0.0001291425993889507 
-0.0001472690376429839 
-0.0001469435655959605 
6.554500785291844e-05 
-6.520420641125012e-05 
-0.0001100466475012748 
-9.962438799117851e-05 
0.0004149452147877419 
7.905890719708182e-05 
-0.0002073121585172399 
3.37552047645626e-05 
-7.452097055798428e-05 
0.0001682641871936277 
-2.698197496277979e-05 
6.807159551907837e-05 
-0.0001384971390316358 
1.008921575478773e-05 
-0.0001639520462628357 
9.502196873526761e-05 
-4.160879851505674e-05 
0.0001621739223312396 
0.0006493425318057037 
-0.0001393983868343428 
-0.000202048113146245 
8.718933093915463e-05 
-9.897630450243399e-05 
-2.871435723033105e-05 
-0.0004617151614060357 
-6.593513365673382e-06 
7.377381076524758e-05 
6.713765468925351e-05 
-9.792273252968501e-05 
0.000117208311048257 
-0.0001088206264577431 
0.0001652090764760283 
0.0001576290733090888 
0.000158975690333379 
0.0001369796130509275 
-2.106361815884828e-05 
-1.250734425856275e-05 
-0.0001495588926725546 
0.0005985160196217654 
3.952934856301406e-06 
-0.0001873820856311954 
-0.0001999828385101313 
7.14461280339807e-06 
7.285644470644798e-06 
5.025953169954157e-05 
6.432061133732978e-05 
-0.0001370599707207264 
-5.324595506828106e-05 
0.0001329990016302169 
-0.0001153415388466212 
-8.064680143989896e-05 
0.0001212899138794514 
-0.0004591603251739355 
-0.0001472307052591349 
0.0003890655523466043 
3.309576404798357e-05 
-0.0001722157850729521 
-4.632944610387207e-05 
-7.583420499943094e-05 
-4.285282432113073e-05 
-6.150675449938458e-05 
-0.0001334201223834456 
-5.868805417832481e-05 
0.0001975003982225336 
-0.0004475433161288369 
-3.322489605793296e-05 
-2.486423423609858e-06 
1.167077400878618e-05 
-1.47823445059881e-05 
-1.728109618301221e-06 
0.0004576993360144934 
-6.641767581965736e-05 
-0.0002683775885089067 
0.0006535825037353663 
-0.0005493784149920757 
-5.128309100439603e-05 
-1.686926974962221e-05 
-6.662379118524377e-06 
4.361020481964567e-05 
-3.631402571449186e-05 
1.992024561845672e-05 
1.210485796593448e-05 
0.0001032894741483732 
-3.882788010475023e-05 
1.264964233160614e-05 
-5.999832953960663e-05 
-0.000176410325552249 
0.0003691572672484246 
-0.0003742506633207705 
0.0002974562193580215 
-9.582988832421975e-05 
2.341661540861799e-05 
-0.0001848208381764845 
9.584369334439569e-05 
0.000167343118838474 
-4.726875971817733e-05 
8.251845653293069e-05 
-0.0003031375044761149 
-2.964444193090827e-05 
1.91142720254609e-05 
-3.233275079305132e-05 
-0.0002753788623883321 
0.0003330843008094257 
0.0003563060800816212 
0.0001258228227968894 
-4.101874271337813e-05 
-7.43170761470954e-05 
6.248945913607805e-05 
-5.149992141976831e-05 
-0.0003123497666553536 
-8.173610958774584e-05 
-7.743133636183769e-05 
-0.0001665763633603842 
9.390282824877562e-05 
3.456027692051561e-05 
-1.612285832485222e-05 
-5.026129204443287e-06 
0.0004989665861859297 
-7.821335000081702e-05 
-0.0001867627990266367 
-7.038334790133634e-06 
0.0002257261552311446 
4.739431103856995e-05 
-1.538268306916405e-05 
-0.0002407062438508578 
-0.0001325888614625266 
5.51222440736855e-05 
0.0001466014180869982 
2.534298314555425e-05 
-8.328535381627524e-05 
-5.051766727881169e-05 
1.335800160115546e-05 
2.047731332300837e-06 
2.398366487743388e-05 
3.973045283626969e-05 
0.0001392055546893683 
4.844959012469096e-05 
0.0001252630145387197 
3.197611181208392e-05 
5.034713930725446e-07 
-0.0001155801961006046 
0.0002033817385865959 
-4.192133439818503e-05 
-6.046725473063448e-05 
3.883309935016926e-05 
-5.602048453294956e-05 
-7.360138508998766e-05 
-3.487965776880966e-05 
-0.0002869546010905932 
7.333619104163347e-05 
-0.000109734327584261 
0.0003252258020813121 
-9.639718152856512e-05 
9.75583934849805e-05 
-8.572007069153947e-05 
-0.0002016158243147712 
-0.0002005099500829328 
-2.001840148287141e-05 
1.81650052342395e-05 
-4.463598678594271e-05 
5.277555441789204e-05 
-0.000194066253414709 
-0.0001398608294371443 
-0.0001081455108688195 
9.094526830593798e-05 
0.0001343560818043475 
-9.947323246034922e-05 
0.0002589473571498791 
-1.880042158967714e-05 
6.778477759009413e-05 
-1.493591441509176e-05 
0.000162544928868828 
-0.0003272446180280394 
-0.0002972172100762854 
-0.000269871348089124 
-4.784005522390035e-05 
-0.0001450721110052485 
-3.882788010475023e-05 
-4.409176324024214e-05 
6.196982892692315e-06 
0.0006309403684891141 
-0.0003613760138591989 
-6.686381668652545e-05 
0.0005058556792547521 
-5.963144309794056e-05 
-3.850244521517196e-05 
0.0003492194101248596 
0.00025543713605585 
-3.159482246013758e-05 
-0.0003124211015659513 
-3.868695478029085e-05 
-0.0002134925170114741 
0.0002099749648691352 
-0.0001070828021272476 
-0.000100428068974441 
-0.0003316134916552629 
5.479599966392608e-06 
0.0001866620668845243 
-9.238488519981302e-05 
-0.0001426581124151705 
-0.0001365422794070697 
0.0001262998064905268 
0.0001226557599325045 
-4.905097048092569e-05 
3.248656995301163e-05 
-4.115885594872712e-05 
-6.920152195141032e-05 
0.0005592582213238848 
-2.554738286766138e-05 
0.0002405097668274753 
5.014803857525189e-05 
0.0004141453145528381 
6.828130855118686e-05 
-0.0004004188542129975 
3.742051287752413e-05 
1.0825719231645e-05 
0.0001478991999444984 
-0.0002868432775509237 
-4.393750499418306e-05 
-0.0001394464673003217 
2.249606556171976e-05 
-0.0001433531960999721 
-5.965832687485852e-05 
0.000299501413797915 
5.834138149776722e-05 
-9.611602175750636e-05 
-4.642264693859544e-05 
-7.005255956709441e-05 
6.250851489825449e-05 
-6.383726746860601e-05 
-7.3594520998406e-05 
-5.047646112213645e-05 
-0.0001036877764987724 
0.000177880173814523 
4.524519491495571e-05 
0.000438616321348069 
-7.226878813826473e-05 
3.956006358141604e-05 
7.355484517155402e-05 
9.904932357665318e-05 
-8.605562374469912e-06 
4.775472018071457e-05 
-9.395997506864124e-05 
-0.0003682617847265736 
-1.032036296308587e-05 
-0.0001227545151801217 
0.0002823630780119543 
-4.528511481458288e-06 
-0.0005512997418581833 
0.0002681182976608632 
8.23038151147575e-05 
7.31092833472719e-06 
-5.759850023723473e-05 
-0.0002559689760858797 
0.0003051727364009845 
4.188356154826558e-05 
0.00010625448029659 
-5.543617729207003e-05 
-0.0003526511513104349 
-0.0001498383613211101 
-1.734637975371975e-05 
-0.0002870983108184002 
7.165788381698848e-06 
-2.977519780602567e-05 
-0.0004212951367770506 
-0.0002537276518079261 
6.974294628412111e-05 
7.120806454852984e-06 
0.0003543925493939655 
0.0001446763588174759 
-0.000168656914982898 
-4.38640665823051e-05 
0.0001877400242873035 
6.539528005792528e-05 
-0.0001156661345616654 
-5.622285112665769e-05 
-0.0001926624552406691 
0.0002355301044550648 
0.0001437400429528461 
5.888020049654849e-05 
3.50388436730301e-05 
6.128825643983708e-05 
0.0002208710883350861 
-0.0001073455579719439 
6.058940848905677e-05 
1.879964315245793e-05 
0.0005289091375267663 
-0.0001862334333908998 
8.475959484663772e-05 
-5.213365429343832e-05 
1.480425697868691e-06 
-5.273168747447297e-06 
-3.35678315529001e-05 
-7.738730151276569e-05 
2.156382908221592e-06 
-1.587813278243788e-05 
-0.0001530232847250259 
6.136837312590561e-05 
-8.087940263896391e-05 
-0.0001455954571394346 
-9.791113584747211e-05 
0.0001117847589598488 
2.45944053440096e-05 
1.190426716680792e-05 
1.095719444195298e-05 
1.653273130341234e-05 
5.283676610546399e-05 
-0.000345798705099612 
8.575688742244012e-05 
-3.791774435080878e-05 
-4.239651078474788e-05 
-9.520865943148717e-06 
9.837036707569033e-06 
0.0002230555743624663 
0.0003699453586434365 
0.0001021082923249299 
-0.0002146938869576315 
-0.0003270808985567749 
1.245515791220147e-05 
-0.0002621815498853968 
-9.590422176712776e-06 
-5.551810781534285e-05 
-5.138231018863531e-05 
3.381399741659855e-05 
-8.036287308916038e-05 
7.253346365282313e-05 
-1.918847903429606e-05 
4.206523288849527e-05 
-6.434126130876798e-06 
2.791614359415496e-05 
1.069191002711668e-05 
7.261458304588018e-06 
-0.0001353991216971412 
0.0005496977389085468 
0.0007680855737247339 
-0.000122524375604652 
-0.0003767511099378941 
-0.000387192332638536 
0.0001194624771727744 
-2.766080193379663e-05 
-7.355827660266521e-05 
-0.0001172843503646703 
5.095293063286048e-05 
-0.0001567157980901377 
0.0001160214300615889 
-1.590634759406948e-05 
-1.524548705201777e-05 
-0.0001283173749819017 
-4.680654316012052e-05 
0.0001497580462457737 
-7.073707699752791e-05 
-9.797500550448124e-05 
-2.723069160259662e-05 
-6.47450331627224e-07 
3.427489818328765e-05 
-0.0003664769890212036 
-1.769897427565466e-06 
1.228089229460494e-05 
0.0001319388384268394 
0.0004478116302745181 
-0.0002089131272697369 
0.0002174038552570128 
-0.000260300016062482 
-0.0004233336221655186 
0.0003426119165445779 
0.0002040788960461185 
-0.0004369334146416886 
-0.0001735001398061667 
0.0001046160851387935 
0.0001723435717786773 
-5.963996514977941e-05 
-2.631952861738845e-05 
-4.251676145878284e-05 
-0.0002245023884483396 
7.655049786410612e-05 
-0.0001004932291653597 
4.330355662762002e-05 
0.0001967672941256868 
2.163277638702228e-05 
0.000309207459929501 
8.379415926099583e-05 
-4.631251904883767e-06 
2.436275618842312e-05 
0.0001011287299245109 
0.0001520679392252374 
0.0002604495355809145 
-0.0001825769702137248 
-6.743482909474348e-05 
6.652093251188183e-05 
-7.007925128912689e-05 
5.343244709827352e-05 
0.0001783937229479197 
-2.112802228835453e-05 
5.478338503333164e-05 
-0.0003733601766972607 
-0.0002329825244428811 
0.0002966282507578284 
-0.0002752850537282182 
-7.55118614220973e-06 
-1.332384982196138e-05 
1.99704313809762e-05 
-5.419661618729669e-05 
6.574723350818458e-05 
-6.20444598714929e-05 
0.0001546440437038336 
0.0003431491371055824 
-0.0001705316214873036 
-6.241933334242774e-05 
1.721150518138865e-05 
-3.149427705896637e-05 
0.0002041139232076324 
-0.000254483422097027 
-9.513916648102363e-05 
-0.000145877440547667 
-0.0002454877385774187 
0.0001568179840382841 
-3.479816843745431e-05 
0.0001252462027743597 
-9.731953610675347e-05 
-0.0001338808202460931 
0.0003128673854281838 
0.0001565056714341249 
0.0002031191752228897 
2.039075505511871e-05 
-0.0002186932096514746 
-0.0002129885476736465 
2.843098697625851e-05 
-3.497497966476083e-05 
8.913946187945984e-05 
0.0001082937759463097 
8.181428218297887e-05 
0.00031129181954367 
0.0002548733791792271 
-0.0002696194817596921 
-0.0002095478150471271 
-0.000188696757748781 
-4.326824475180205e-05 
7.246337714538651e-06 
-6.840234632922101e-05 
-2.495511964822886e-05 
-6.498457660067866e-05 
9.188384227755588e-05 
-2.476919760436993e-05 
-0.0002203963063205776 
-4.487200421170694e-05 
6.242956329105678e-05 
-9.406439226351529e-05 
0.0001291508272538166 
-9.593730121723915e-05 
-0.0001826477799045056 
0.0002102070048132263 
4.745558860170521e-05 
-0.0004015649979898856 
-0.0001338517471200181 
2.289008422166747e-05 
0.0003494718278564102 
0.0001520613268903767 
-0.0003352548979402345 
-0.000183020867350012 
5.134759002361832e-05 
0.0002781590829072857 
0.000151648305835369 
5.438995292003397e-05 
-0.0001635564125428556 
-4.586259909680166e-06 
-3.492629148014016e-05 
-0.000101051019193403 
-7.457618500441719e-05 
-9.252448381815821e-05 
-0.000103803218539597 
0.0003466105843789938 
4.714344944847921e-05 
0.0001483514842167005 
8.759033616857885e-05 
-9.996423854498504e-05 
6.767255298215279e-06 
-1.441048663730326e-05 
-9.480834881429513e-05 
-0.0001164608933491343 
3.329630228751505e-06 
0.0002664986552149541 
-0.0001246257150964792 
2.024491684256836e-05 
0.0005351426618925425 
5.754758495163579e-05 
-5.716941701170827e-05 
-3.93369064240553e-06 
-2.036006196780571e-05 
-0.0003804269336690936 
-0.0001446885531350025 
-2.858736230456442e-05 
-0.0001076885025907824 
-3.750434118286281e-05 
1.968126809960849e-05 
-2.160132288369863e-05 
-4.714553259955281e-06 
-7.064613784122037e-05 
-0.0002222959748280373 
-0.0001629914967122882 
0.0001124543625684182 
0.0006427297595395392 
-0.0005350770985868637 
0.0001457689515980748 
7.347216441662562e-05 
2.274409545705845e-05 
0.0001015168683398768 
0.0001667031329721011 
-2.929699682528478e-05 
-0.0001591173298424939 
-6.795189782783912e-05 
-4.060855941998293e-05 
-0.0002679858308997123 
-6.673152509703958e-05 
1.478700900089498e-05 
-0.0001567774488390028 
4.239858685813993e-05 
3.318221980884479e-05 
-0.0001077497750848809 
2.961529867317144e-05 
0.0002349217066576632 
-5.01242378217616e-05 
0.0001064476272645476 
3.989144855513661e-05 
-0.0001550412644391351 
-7.522287958019127e-05 
-0.0002445056605291413 
0.0001096526790085598 
-2.23398965867755e-05 
-3.334429684725256e-05 
-0.0001229800667088398 
2.735915989024003e-05 
0.0003419156422452942 
-9.354633203938962e-05 
0.0003875000454769123 
2.312463928969416e-05 
-6.366005841707634e-05 
6.260096078376738e-05 
9.873911318044102e-05 
-2.428166228885896e-05 
-7.543757215163053e-05 
-0.0002629634845392267 
0.0001838601871608237 
-0.0001185231612206501 
0.0002461923414327074 
4.207549141778492e-05 
1.767867183617528e-05 
-0.000111722073708566 
-5.113274927800057e-05 
-3.470176726897659e-05 
3.773281317216644e-05 
0.0002106961637621219 
0.0003171440071849986 
-7.289126495284695e-05 
-0.0001469521927938606 
-0.0001680745594230894 
-0.0002026796685849129 
7.591693426429769e-05 
-0.0001131991701000405 
0.0001471691695665842 
3.387173290866942e-05 
-0.0003687546784837282 
-2.364158626993447e-06 
0.000263118970349265 
-3.427108090051205e-05 
5.40005250736162e-05 
6.017086630106178e-05 
-1.826130162316059e-05 
-0.0001499216401979433 
-4.68241169054935e-05 
-0.0002215373817922161 
0.0001825795090798397 
0.0001805030754405014 
-0.0001288644694626119 
-5.479063901955191e-06 
4.304228471156302e-05 
0.0001751424244297726 
-0.0002598664015311918 
-0.0003351548114992181 
0.0004068292047703484 
0.0002446513651732141 
-0.0001359456555595018 
-0.0001426460157996688 
-0.0004095144160853419 
-0.0005732359231249824 
0.0002503240830455689 
0.0004156442247486993 
0.000110581334387656 
0.0002069706985799915 
-0.0002474440248569472 
0.0001991895989822024 
4.812080068589834e-05 
-0.0002243807829871342 
0.0004250175909444473 
-0.0002379695002756862 
7.306954578127491e-05 
0.0001204367115304046 
-0.0003288554154942788 
0.0002547623556107076 
-5.361173055554295e-05 
-0.0001724279187880032 
1.956618097629767e-05 
3.593577510469026e-05 
3.210721450764687e-05 
-2.539605348899514e-06 
-8.296320224447e-05 
1.785978274471347e-05 
-0.0004656144081786889 
-0.000260195103741633 
-1.067607712524076e-05 
-3.764708302124873e-05 
0.0002685150991534009 
-5.430049911192628e-06 
-5.620430054705416e-05 
-6.134677484911263e-05 
-0.0002372832913678548 
9.657988361376201e-05 
8.91396137414502e-05 
-9.41890198616012e-05 
-4.300639933892041e-05 
-8.683963194375653e-06 
0.0001889667221634179 
-6.416339800810103e-05 
-8.595165376405898e-05 
1.872494658881631e-05 
-2.916201961244882e-05 
4.95903121816461e-05 
-5.178061296879865e-05 
-5.576556015915145e-05 
-0.0002089943050399801 
-4.890768424727376e-05 
0.000558562177962715 
0.0001455143776362498 
9.314625008028658e-05 
-0.0001920432401725326 
0.0003637068464397282 
-5.972526772451906e-05 
5.170498324971225e-05 
2.531477258683752e-05 
2.323466833991286e-07 
-1.818751969856932e-05 
1.939158136376824e-06 
-4.631914731039621e-06 
-0.0001080158105322991 
-0.0001463532842083027 
1.745417445375386e-05 
6.835763732359713e-05 
0.0002942596752726303 
-1.682874231046152e-05 
-2.624483615866869e-05 
-2.075748531502058e-05 
9.710511655200629e-05 
-8.372162890047583e-05 
-0.0001426551894274279 
1.560811859980828e-05 
-0.000237925608291267 
-4.810060221935664e-05 
-0.0001896916305679902 
-1.100729905748377e-05 
3.020453923900681e-05 
0.0003240056260099573 
0.0001556564024749533 
0.0002496428867493331 
-4.555627688985467e-05 
0.0001499126378464174 
2.446592320774591e-05 
-0.000108764248332584 
0.0001817945348069901 
2.494188589750401e-05 
-0.0001068781622079133 
-0.0004475646518405373 
-4.799571653877441e-05 
-0.0001712689007538468 
-8.457635787284334e-05 
-0.0006298343619502782 
2.919020669365881e-05 
-3.309430417819443e-08 
-1.314670003161068e-05 
0.0001472620072007482 
-0.0002189183227776027 
-6.622758496157397e-05 
-0.0002457609947469133 
0.0002364100746209272 
0.00010850855082357 
0.0002772586202357437 
-4.909120678330922e-05 
6.779084940962951e-05 
-5.388898917205433e-05 
-6.284716678937633e-05 
-2.724471599130048e-07 
-0.0001635901007488941 
0.0001808884044734131 
0.0001455374169373443 
-0.000128941191077668 
8.489289149582207e-06 
0.0003211301439420115 
-0.0001171116832799387 
-6.699162162701551e-05 
0.0001437094157624027 
0.0001932481485138203 
-7.554715088996703e-05 
2.04718999131224e-05 
0.0001888443363540026 
0.0002585787038009613 
-8.19918056841416e-05 
7.44668753042402e-05 
-0.0002158465963398452 
5.235428595413245e-05 
1.749009906719376e-05 
0.0001288861767315441 
-7.027820943160492e-05 
-0.0004682434386845855 
3.906484512279415e-05 
-0.0001707395601791596 
0.0001119698126282712 
0.0005203183576063393 
-2.61885212818402e-05 
-3.617275122803449e-05 
8.900012501112294e-05 
-7.035357487152877e-05 
-1.070967483011666e-05 
-0.0001110223885718733 
-0.0001136158095633001 
0.0001010226725016749 
-0.0002695951999182994 
-1.364139297476446e-05 
-6.033543431961782e-05 
0.0001840457695145564 
-9.708236718555294e-05 
-3.617213921462037e-05 
-0.0002722634899385412 
0.0002895478704627893 
1.095266033065519e-05 
-2.246706359357926e-05 
0.0001417169363389616 
0.001581748376757655 
0.0001779232579452632 
-0.0001965699966510204 
-6.841064952575674e-05 
-0.0003380799228342667 
0.0004679772641895973 
0.0001298312839224295 
-0.0008190300351350174 
0.0001975264095076055 
0.0001168017661210094 
-0.0002776080976620389 
0.0002271461451492614 
-2.475053675217593e-06 
6.192091230837882e-05 
4.865396111380677e-05 
-1.357149402568358e-05 
2.790215264700077e-05 
1.14327227977478e-05 
-0.0004598362344891153 
-0.0003279894227519698 
0.0001022009662585072 
-7.745301000185488e-06 
3.460836918525311e-05 
-7.802287224609407e-05 
-5.478881908622416e-05 
-1.039981076809998e-05 
-5.664079779748895e-05 
1.626012790973366e-05 
-0.0002454708512911869 
4.166111210166903e-07 
-8.022674649325946e-05 
-0.0002927884489374153 
6.087643755169096e-05 
-0.0001400597091152586 
-0.0001283364209480772 
-5.584634226605279e-05 
-0.0002521067664347107 
-9.898879807857368e-05 
-4.394632244295885e-05 
-0.0002003489305184852 
0.0001057609573822485 
-0.0005264719189279085 
0.0004508862078536931 
-5.907467246200811e-05 
3.894829195816606e-05 
0.0004110079975167819 
-0.0002698079606315923 
0.0001334362362625336 
0.0009352894596964208 
0.0003129801355790294 
-0.0002996412781847093 
9.350193041259861e-05 
0.0001273864534607429 
-7.395991012532394e-05 
5.608974410962116e-05 
-1.40811150959314e-05 
-0.0004183996778480672 
-0.0004683653179213664 
3.835082276633316e-05 
4.427595192594742e-05 
6.724177814069831e-05 
-0.0002823776113557643 
0.000252274728767425 
7.620139153709353e-05 
-0.0003078538102214226 
6.631371838083219e-06 
-6.638708753542636e-05 
0.0002342316156336965 
-0.000236513918563975 
-0.0002980381530012168 
-0.0002901107578060734 
6.790702842752296e-06 
-0.0001851064396512714 
-9.550733901853821e-05 
0.000498086071238373 
0.0009479556126224011 
6.910155942233529e-05 
0.0001410545590253424 
-0.0001675315746392653 
-0.0002229050791881838 
0.0002448368173891282 
-5.669012601554945e-05 
-0.000221131964785746 
8.96648447639494e-05 
-2.784922894810175e-05 
-0.0004244656945765673 
-0.000158694409526958 
-0.0004203996333512987 
0.0005250132489995467 
2.927409309851327e-05 
-2.974021517963174e-05 
-6.383763052451581e-05 
0.0003830367818651791 
-8.121852990927531e-05 
0.0003064022207089367 
-0.0002554021344409843 
0.0007857486753605598 
0.0002661347677336028 
-0.000401251885152104 
0.0005196484997432397 
-0.0002656423009585834 
-0.0002646737711191576 
3.415780101095394e-05 
0.0002701913624355014 
-3.634906449389728e-06 
-0.0007065625933515063 
0.0003275665242455926 
-0.0005308951512607089 
-4.76507930913041e-06 
4.366832446767025e-05 
-0.0006281009695767087 
7.093826192902783e-05 
0.0001332911990361004 
0.0007153623047624457 
-4.989982878083773e-05 
-0.0001333937466413745 
-6.363889722438718e-05 
1.46837330886311e-05 
-3.29264027711854e-05 
-3.555648055053151e-05 
-0.0001647137762745332 
-0.0001895471902978754 
0.0002038242840861212 
9.58276607233705e-06 
6.710100669241227e-05 
-5.339946088015057e-05 
-5.688796226061165e-05 
-3.713335241179485e-06 
-0.0001227244917716039 
0.0001133071027443247 
7.553800539529635e-05 
7.783629508125429e-05 
-0.0001298679570212231 
-0.0002520215874415722 
0.000203591528711025 
-0.0002251462266345194 
-0.0003852823750943577 
0.0007442427523310818 
5.021511130529488e-05 
0.0001978062268825216 
-0.0003736509891341601 
-0.0001868590129985559 
-0.0001356445674565095 
-8.878393670622515e-05 
-0.0002928873171904485 
1.82519165930511e-05 
-1.826533853382698e-05 
-5.667863767999929e-05 
0.000253598252693413 
7.973431003896743e-05 
0.001277935958731958 
-0.0001838722066263434 
-0.0002407251548954324 
-0.0001733205719948935 
-4.895102745353214e-05 
-0.0002278846058649341 
6.330045109383234e-05 
0.0001539951164623211 
-0.0001662137240302209 
-0.0001278775269717449 
0.0001237827197703944 
-8.866193617574333e-05 
7.409442848118413e-05 
0.000326326060803341 
9.952717533143004e-05 
-0.0001411537648372712 
0.0001123584406465185 
-0.000832804087932489 
-1.9119311094618e-05 
-0.0002250408395257064 
-0.0003875645742136326 
-0.0002921497009174091 
-0.0002799196826036741 
-7.132170927990279e-06 
0.0001863977895358029 
0.0008708776525713089 
7.792597361337621e-05 
-0.0004669155201778032 
0.0002102087813552923 
2.127332903923282e-05 
-2.276404037583037e-05 
1.314501772787838e-05 
-0.0002563454560896655 
-0.0001130085948872042 
0.000465765601824285 
0.0001171752008468257 
-0.0002030628071477815 
0.0004448553080356397 
-0.0002472798536726756 
-2.996152069582338e-05 
0.0001760163761046307 
0.0001658497781524136 
-0.0001040352157338198 
5.125922422185923e-05 
0.0004291933919668034 
5.367118341554457e-05 
-0.000884469983263956 
-0.0001134195522420876 
-0.0003022719045339189 
-0.0001221104798446848 
0.0001658099955885327 
0.0005367804633485373 
-0.0002005204759911577 
-0.0001236833658373493 
0.0007627912934658033 
-5.527389831169778e-05 
-0.0006223300180705259 
-1.538451672345406e-05 
-0.0001305800153338285 
-0.0002614377798703584 
6.512503708794052e-05 
-5.801724155096618e-05 
1.013567170913088e-05 
-1.417612883973821e-05 
-2.434150307623445e-05 
-7.991502884892958e-05 
0.0002965659763220586 
-0.0002240366767342618 
8.562274299908851e-05 
2.308088966232587e-05 
-4.456416807609039e-05 
0.0008964791649683283 
-0.0001232513093086572 
-0.0001326182843780582 
-0.000586871236114777 
-0.0001191871460117207 
3.669733309460265e-05 
9.37425483985606e-05 
7.781275397849161e-05 
-0.0001157908551332469 
8.116199520140789e-05 
0.0002066357217509899 
0.0001262192665614974 
2.488650780546783e-05 
-0.0003750951758259466 
0.0008510967426674739 
0.000548643164730009 
0.0002841074111782241 
0.0004371818593238032 
6.07683634138111e-05 
0.0003215431604197231 
-0.0002636694527302453 
0.0003382946829353745 
-0.0002773842461564224 
-0.0006044084751062441 
-9.621494257492029e-07 
9.249922539998359e-05 
1.584268384936888e-05 
-0.0001888908728080656 
-5.224166130268282e-05 
-0.0003534905431294581 
-0.0002387343591198199 
2.65488417955741e-06 
-0.0001376805780876227 
-0.00028006749699405 
-0.0002273887149700876 
-0.0001315585504833693 
-7.455544358795492e-05 
-0.000213606590122562 
0.0002388207118815931 
0.0001284728420393449 
-0.0003178050568533385 
-1.410390948244774e-06 
0.001178393562649972 
0.0002073181564021109 
-0.000280071262410506 
7.354271387982612e-05 
-0.0002056883758323911 
0.0003391538599428926 
-0.0001425436218906345 
-0.0003077876453553163 
-0.0002425483121227922 
-0.0001717146568933967 
-0.0001044022778599202 
-7.515557469581148e-05 
4.290587152263345e-05 
-4.205980862041366e-05 
-3.487890538527614e-05 
-0.0006850047912364299 
-4.166081161502136e-05 
0.0006176436273548872 
0.0003698682842345458 
0.0001820521509157879 
-0.0001962560181407375 
-3.287332097358491e-05 
-7.504272908366286e-05 
9.853685082209829e-05 
0.0008136997597956377 
-6.058107525370264e-05 
-6.503731622257735e-05 
0.0002040863814194588 
0.0006444664823845072 
-5.21637998861545e-05 
4.919168902530902e-05 
-7.98563001255866e-05 
0.0001200871151978089 
0.0001909922118301285 
8.326271589959528e-06 
0.0006929046113495032 
-0.0001437880313860533 
8.249746401885064e-06 
-0.0002208111352361956 
-0.0004130318423740745 
0.0001725405548366955 
-0.0002576883073980582 
-3.267789183712815e-05 
-0.0001439200336948815 
-0.0004532130340741081 
0.0003266005061601623 
0.0002144269611620505 
-0.0008192034117889348 
-2.549696962281525e-05 
-4.706690848245568e-06 
-9.521531444152938e-05 
-3.424541174936986e-05 
-0.0001941283313172272 
-0.000600204955804099 
0.0001314050494469555 
-8.311714975089594e-06 
-0.0003090128588326336 
-4.804137829615326e-06 
-9.032486829759683e-05 
-0.000155744487213808 
-0.0003794253456604278 
3.584626536228056e-06 
0.001232370944930166 
-0.0002620628524793226 
3.918655587026196e-05 
2.192152902011937e-05 
1.800429107185095e-05 
-0.0002783878369969046 
0.0001066169342902798 
0.0005870378768053475 
0.000485208031496258 
-0.0002373828310489033 
-0.000794926847619216 
-7.48178059830835e-06 
0.0001300797790050932 
-0.0004201283137188267 
0.0004444095007370095 
-8.010622352735879e-06 
-1.084783038432482e-05 
-3.446251355112514e-05 
-8.10281074361404e-06 
1.255440483821806e-05 
-0.000150310558058896 
3.539668808431324e-05 
-8.974000076747898e-05 
0.0001411562990289448 
-0.0001057940101818601 
-3.788118281424022e-05 
-0.0001110748235135203 
-0.0001019036826269911 
0.0006455662822755099 
0.0004628449643147378 
4.735761792469941e-05 
-0.000136062367913682 
1.598019882088727e-05 
9.179081890935961e-05 
0.0002238371904356628 
-0.0003437952912585982 
0.0001285947253788761 
0.000372515914241849 
0.0002731481573847568 
-0.0001010305866738636 
-0.0003138370232089185 
-0.0002272476140936151 
-0.0001571920716532969 
0.0002029169967001182 
0.0005974672174034288 
-0.0002304906228138602 
0.000214635293670349 
0.0004532804629878718 
-0.0007757680370617816 
-0.0004167446395908412 
6.513611200164444e-05 
-5.496871733765947e-06 
-0.0003286736970393732 
-0.0001879902467820642 
-8.50075945647628e-05 
0.000195355869195399 
-0.0003353328238803033 
-0.0002600840546716834 
1.95248467101381e-05 
-0.000964469805675717 
0.0001301798518536272 
-1.611489129951661e-05 
-4.162155131150825e-05 
-1.074288164886077e-05 
6.455133428519125e-06 
-0.0001997235871794484 
-0.0005704525741478672 
-0.0002542960997765972 
-0.0001896190818815272 
0.0004573806787022463 
-0.0003064487616237415 
6.211524402855666e-05 
0.000874404620514793 
6.588869253098815e-05 
0.0006102612486394623 
-9.128490805088426e-05 
0.0007971045322128809 
-0.0002609559033065298 
-9.410173194186378e-05 
-7.86980818947924e-06 
-9.710198798148311e-05 
6.400558836206047e-05 
-0.0002171761362027717 
0.0001483524913209954 
-0.0001872202242224452 
-0.0002976520162344669 
0.0001237844945747756 
0.0001059169873136338 
-3.420928424752964e-06 
0.0002175942414710252 
-0.0007303265853623823 
0.0001611178471958873 
-0.0001627764962891491 
-1.485758524533922e-05 
0.0005215456396378059 
-0.0003013753307265501 
0.0003110180961281177 
0.0001197561848279521 
-0.0002088372736481411 
-0.0001243579621339514 
-0.0002882797673921278 
-0.0001513063301840597 
0.0004016777390862997 
-1.029848220581225e-05 
-0.0004686078963370606 
-0.0003814900672210809 
-1.21333093389651e-05 
-0.0001171023165174435 
-0.000144954281686191 
-0.0003111767847562128 
-4.307244675589955e-05 
-3.521756461166623e-05 
0.0005868033902087349 
0.001625835075352456 
