solver_type L2R_L2LOSS_SVR_DUAL
nr_class 2
nr_feature 26042
bias -1
w
3.46700439608134e-06 
0.00017956487284994 
-1.97372857800801e-05 
-4.885682945879298e-05 
-1.590805127841213e-05 
5.246594142000356e-05 
6.254684957849778e-05 
-8.490130080805591e-05 
0.000242055418175246 
0.0001734891469766795 
-0.0001841398260928867 
9.693893588154973e-05 
0.0002158211797300535 
0.0002960468541107194 
-0.000335242620079733 
-0.0001309802018003863 
-0.0002776536777620778 
4.522762488123575e-05 
-7.643665687052515e-05 
-0.0001617567095557004 
0.000162226204892689 
-6.46036046468734e-05 
8.174045616157847e-05 
2.301360504608363e-05 
0.0001935910890372301 
-0.0008520941146807767 
0.0001505281480213929 
0.0001276348884891241 
-3.022797261325548e-05 
-0.0002385963324044555 
0.0002864890583755002 
0.0001535567384815089 
-7.481256969241483e-05 
-0.0001130853070742393 
-4.482942572544201e-05 
0.0001976085678297218 
0.0001654532331491899 
3.075569688689026e-05 
2.792974120457996e-05 
2.598430468221029e-05 
9.349637737504103e-05 
9.308802540916512e-05 
-0.0001171107132395191 
5.576995376061756e-05 
-0.0003373825086702479 
-0.0003605705931445168 
0.0001416746010745188 
0.0002334571679117215 
3.18865634018277e-05 
-6.787062667465477e-05 
-0.0001749475007555467 
0.0001227798377506664 
-0.0003233161054214569 
-0.0001052740876886409 
0.0002396973810638353 
0.0003041092267010132 
5.95181229917713e-05 
-0.0002259899908410471 
1.240867662520296e-06 
-3.791265964739325e-05 
-0.0001765575665262835 
0.0002855429232409065 
-4.131745782593413e-05 
0.0001162533535042499 
-0.0001030976541969203 
-7.277279638556869e-07 
1.252748663957537e-05 
7.534054947109722e-05 
-9.512128524297564e-05 
-6.3838761378139e-05 
-0.0001326834441204686 
0.000472716022198185 
-5.772425809887655e-05 
-0.0002774488864295034 
-3.397029398134992e-05 
-6.036962397742145e-05 
-5.480404471305432e-05 
0.0002178052733099186 
-0.000179408227708243 
-2.969544874822267e-05 
-0.0005588496822188131 
-2.990271122124866e-05 
0.0001962971559103109 
-0.0001404032168884353 
-0.0001491806924982888 
0.0001274780424981793 
0.0003874933439480761 
-6.620676092567533e-05 
0.0001718979705197121 
0.0003329032934831393 
0.0001808537649735298 
0.0001519531675448729 
-8.707661755424077e-05 
-0.0001936627904834043 
7.817807963026715e-05 
-6.60031891046251e-05 
7.63295607481359e-06 
0.000138704564625546 
0.0001044736294508279 
2.451969894014222e-05 
0.0002083564682682275 
-2.889513509914236e-05 
3.137814928257602e-05 
-9.326693318613381e-05 
-0.0002039223641104765 
-0.0001243524923499105 
-3.536032160315962e-05 
-0.0002099881955380511 
6.923521271411575e-05 
-0.0001028303675330067 
-2.622769689239337e-05 
-0.0001637809259461914 
-0.0006051270578388501 
-9.191556694586346e-05 
-0.0001085827857402398 
0.0001614117764693205 
-6.561280766949664e-06 
6.123870984254661e-05 
0.0001126011159529377 
0.0004483751403041021 
0.0003958559250014843 
-0.0001302555240572133 
-3.88484958402822e-06 
-2.211749471247758e-05 
8.89015941942692e-06 
8.490867680960251e-06 
-7.737350748151795e-06 
0.0002089108012983134 
4.515365932488362e-05 
-2.868978195462713e-05 
-3.75205999228557e-06 
2.028926559393406e-05 
-0.0003770264672815645 
4.965371471069117e-05 
0.0002087827896492413 
3.64436738767945e-05 
-0.0001297597567901465 
6.406523904385458e-05 
9.316262282175427e-05 
9.623967625129911e-05 
9.157559261303478e-05 
-0.0003169244296576037 
5.733060437113541e-05 
-3.206281551778855e-05 
9.856994579082025e-05 
-8.556022259222261e-05 
-7.931273383066957e-05 
-9.687283234052157e-05 
-0.0001493266743101251 
0.0001661585934158313 
4.354202942834309e-05 
3.25464710992505e-05 
-3.158751265547853e-05 
0.0004084879904381109 
-4.318749730181483e-05 
0.0002151249882789804 
-0.0001459832789985337 
-0.0001872064413522258 
0.0001505159950916474 
-0.0001451215145508977 
-0.0001907006210774253 
-0.000107034111624615 
0.0001864349559029493 
-7.039289196648085e-05 
2.098340305232593e-05 
5.204940557826579e-05 
-0.0001165528918869522 
-0.0002418432172574897 
0.0001152556041888081 
-4.952115637455376e-05 
-8.945481302626015e-05 
-8.201088940470976e-05 
7.675315542609181e-05 
4.760151171039173e-05 
0.0008808669188525709 
-0.0007526212252566226 
-1.879784941411649e-05 
5.283242101003095e-05 
-8.344630468447428e-05 
-0.0002412314791566963 
-2.558281771975647e-05 
2.131312610381907e-05 
3.041665151497873e-05 
0.0001929391832442786 
0.000258170414457291 
-3.116453199173046e-05 
0.000125669315759146 
-0.0003033137117155926 
0.0002660152997586096 
5.504911202454296e-05 
4.006975352848533e-05 
6.517113117994778e-06 
-0.0002453985554723526 
5.679404550407758e-06 
7.600480933141608e-05 
-0.0001253757611166189 
-9.446044642541661e-05 
0.0001650439215612962 
-0.0002050758866412619 
-7.341425473515795e-05 
3.286998275585793e-05 
-7.72740533856991e-06 
6.386958194870397e-05 
0.0001528592588476591 
-0.0001166490785603509 
0.0001184851582168712 
1.646101033233368e-05 
-0.000165261819126274 
-0.0003979410007332249 
0.0006154617252973847 
0.0001843429881926043 
-8.257979829545551e-05 
-0.00017027683285993 
4.19154611820641e-05 
3.57925347897128e-05 
-5.742590196142394e-05 
4.177590235303393e-05 
5.483595830828413e-05 
0.00010957061206523 
3.253739885833538e-05 
-2.262030223920096e-05 
-1.090999215828668e-05 
9.237093242043332e-05 
-3.94907726750006e-05 
0.0002926297263068764 
0.0001539994311959154 
8.311882825989388e-06 
3.653806453038881e-05 
8.341712051061412e-05 
-0.0001973752808182572 
0.0002141946472812281 
-0.0002236768155401671 
7.656115109179954e-05 
-0.0001054294945065551 
-7.887229565328299e-06 
-6.431540851632115e-06 
-6.22014309077429e-05 
-0.0004004778003661663 
-3.98383643505302e-05 
-4.45792005035182e-06 
1.305758941570123e-05 
0.0001617034782532295 
0.0003847083234789152 
-0.0003398406781386126 
0.0001132221044761771 
0.0003962631284950183 
-0.0006211976159295917 
-9.783683029686637e-05 
-7.28684876693258e-05 
1.600398414064258e-05 
9.444889544258751e-05 
9.559261070470043e-06 
9.015853244309016e-05 
0.0002048134213707811 
-4.917719908611011e-05 
-9.562522157907999e-05 
-8.141543971206192e-05 
-0.0001778072350872255 
0.0004033037269633301 
-6.626563673223734e-06 
0.0002331999517408268 
-5.096743433670718e-06 
-0.0002802335753189854 
6.570700963021649e-05 
-0.0001112291914223156 
-4.545299911828567e-05 
-9.594692886833521e-05 
-0.0005204768436185203 
0.0001052249727290531 
3.321991513228748e-05 
0.0005035421828193267 
-0.0006868377334919744 
-0.0002208951614926305 
-0.0001321441276027043 
0.0002474933335895442 
4.136179462684815e-05 
-0.0003184895859337075 
0.0001397162355724722 
3.806752058063387e-05 
-2.254145182515269e-05 
2.80222888514324e-05 
0.0006839696718268075 
0.0001301141850240342 
-0.0001791424287306829 
5.879733493046733e-05 
0.0002280917984603482 
-8.99975502111059e-06 
-2.122732545394293e-05 
-4.505147570379074e-05 
5.787103080107073e-05 
0.0001278732188553063 
-5.896308147690228e-05 
0.0001344175963368846 
6.501179565489579e-05 
-9.345088594662901e-06 
4.314175806202658e-05 
-8.258198778394127e-05 
0.000252081633671851 
0.0001655995828923 
0.0001168159147210866 
1.91154715078278e-05 
-0.0003874526921580596 
2.51736179755464e-05 
0.000217431725132112 
-0.0004212393265956202 
-0.0001553609538513565 
0.0003802659567324188 
-0.0002124122763191918 
2.143814412748939e-06 
-0.000157378318168763 
0.0001314448042499531 
-6.139568348966849e-05 
7.541330442616641e-05 
-6.528891412291258e-05 
0.0001864238369040919 
-0.0003382719820798901 
-9.469364523531103e-05 
-2.567192099776404e-05 
0.0001795345130146868 
-3.938339610003322e-05 
-1.253583790741519e-05 
7.560280520471168e-06 
1.108381787299539e-05 
4.730292321082532e-05 
-0.000287109222658157 
0.0004923007725844841 
-2.410808541908069e-05 
2.69229383973087e-05 
-1.664253969320308e-05 
0.000155261155691895 
-0.0001032653837795405 
0.0001255919651100288 
0.0003708467926626889 
-8.202580533413482e-05 
-0.0004916801550733531 
-0.0002234963503687808 
4.446873627125196e-05 
2.078792297430215e-05 
0.0001424733108304893 
1.640564328906719e-05 
-4.099642725661426e-05 
-9.221802597793698e-05 
-1.545310256556563e-05 
1.504910420847897e-06 
-5.094841212313978e-05 
0.0004367694854155068 
-0.0001023040366579632 
1.539053212507564e-05 
-3.508323206573434e-05 
6.093571885840571e-05 
-0.0001018711109190126 
-0.000270600345762915 
-5.804342518890088e-05 
6.511480042208697e-05 
1.149174711228198e-05 
0.0001550570816518169 
3.341086126896716e-05 
-2.311146524095562e-05 
-0.0001702370916147968 
2.037117003735028e-05 
-0.0004758319817780235 
-0.0001111248964355864 
0.0001835842340386282 
-0.0001190451549217723 
0.0001452397381406203 
-0.0001716335550431131 
0.0001706660921899363 
5.531287907611769e-05 
-7.188514638266073e-05 
-0.0005002430875980815 
8.553331557573793e-05 
-0.0003324652175986385 
-3.180504204538962e-05 
0.0001445924933800205 
0.0003625570580975137 
-0.0001578161461997774 
-1.758218937480376e-05 
0.0002864836707931417 
0.0005969733732814175 
0.0001086680607937251 
0.0001884076698332111 
-3.402836440264073e-05 
-0.0003288349175761764 
1.549226838184291e-05 
-9.679434025611745e-05 
-0.0003525321222385582 
9.144544190035759e-05 
-9.702295997798794e-06 
-0.0001821408441656671 
-1.360711958716117e-05 
0.0001467641178686659 
0.0001358218513734897 
-2.345664282105375e-05 
-0.0001499023056994617 
-4.306738115060135e-05 
0.000601318210039837 
-0.0005777134532981809 
0.0002599400664946228 
-0.0004665568785906074 
-8.498924790686617e-05 
0.0003471916274360958 
0.0004637951989755325 
-8.519484335975574e-05 
-6.741910583974979e-05 
5.98317858098629e-05 
0.0004000605797230911 
-0.000212165429709135 
0.0002922283596978003 
0.0001068091462116462 
6.280094696313973e-05 
-0.0001267875528056245 
4.351685074900534e-05 
-2.749987969059977e-05 
3.660697870563117e-05 
-0.0002531073034510082 
-0.0002502255827077222 
-6.359508566994673e-06 
-8.644464945956938e-05 
-1.145029624359853e-05 
-9.176372325805021e-05 
-7.20744143198219e-06 
-7.0050910855674e-05 
-5.157843664630361e-05 
-7.451811583014755e-05 
0.0002859086672083756 
0.0002275155469080533 
0.0002672463377816871 
-4.228779988741979e-05 
-2.162934271434364e-05 
0.0001167879488736569 
9.054757911780181e-05 
4.685641970519046e-05 
-4.331949988567527e-06 
4.578845745311394e-05 
-0.0003458818277922396 
-0.0007389372864863053 
2.625564690649865e-05 
0.000269458394943733 
-1.763620513534233e-05 
0.0004102358505236321 
5.053073723689986e-06 
-0.0002841297265136345 
0.001025642361699254 
-0.0004092235198889028 
-0.0001001836254626246 
-0.0006972102856478904 
0.0002687971996380129 
8.011131962429081e-06 
7.883309624018705e-05 
-0.0003457366634210042 
0.000196580397808913 
0.0001277617319284746 
0.0001186426730708316 
-0.0002629605285529852 
6.555025371538626e-05 
0.0005321363239309195 
9.745740373903243e-05 
-3.995961405343039e-05 
0.0003541168759676682 
4.799255092538385e-05 
-0.0007783106706938365 
-0.0002777913204872808 
-0.0005303174864276308 
-5.452428649616657e-05 
0.0001832211107690718 
0.0001091130851954764 
0.0001819056286911422 
-5.041821526508682e-06 
-0.0003785732875714944 
0.0002240496423155569 
-6.148125816514965e-05 
0.0002222844830623267 
1.802506532170394e-05 
4.572378805670822e-05 
-1.867711850608964e-05 
1.501700592493301e-05 
-1.175060813210285e-05 
5.717645891880429e-05 
0.0001067947891618344 
7.247601563697095e-06 
1.417962521480101e-05 
-0.0001298995754744405 
2.387188582686123e-05 
-4.66974281405811e-05 
0.0002799893309312955 
0.0003018589210383955 
0.0001089196181864307 
2.241420811445194e-05 
-0.0003858933446497343 
0.0001786280020938464 
0.0001034864227171662 
6.481058114285777e-05 
0.0001655961298556209 
-5.485503556213757e-05 
3.362109854487052e-05 
-0.0004915968050667517 
-6.325847296294138e-05 
-0.0007158796893287144 
0.0001192613480112809 
-0.0003613810278761143 
0.0003179664001093017 
-0.0004616886233304213 
0.0008461949399848508 
0.0001030158260880634 
3.666085740620776e-05 
5.301679982897283e-05 
7.604224561778771e-05 
0.0002124482269812563 
6.048527593844659e-05 
-5.413727567634472e-05 
-0.0003391592344551805 
0.0001072264810309149 
-6.570425450093136e-05 
1.835790071944151e-05 
8.02057537473141e-05 
-0.0001331015414157803 
0.0001784623724224148 
-9.764659875213844e-05 
-0.0002463436248020725 
0.0001436686100198371 
3.762908899979515e-05 
-0.0002760698037061582 
0.0002517243606100264 
0.0004140872255245701 
-0.0001050641623979067 
0.0001737536853899984 
0.0001077047807963426 
-0.0002133501166511385 
0.0001006314364717344 
9.983287406784159e-05 
-6.433893158122895e-05 
4.187352081652621e-05 
0.000287786321048677 
-1.732290741052138e-05 
-0.0003937233865449293 
0.0003305644015063669 
-0.0003868282063218795 
-0.0003389162969154109 
0.000173115421361048 
0.0003398189629240639 
-0.0001596752954839225 
-0.0003630892382997853 
-1.275401793199414e-05 
3.221873710735082e-06 
-2.424681185052785e-06 
8.971340398590986e-05 
4.167103274565973e-05 
-0.0002780890503144629 
-4.620535252925626e-05 
-0.0001169198893289121 
4.960576027145489e-05 
0.0004581246533519526 
0.0001924471749450974 
0.0004129639067958398 
-0.0002160724229539049 
-2.730501957247818e-05 
0.0001017718062754919 
5.515527668267859e-05 
-3.109768207857081e-05 
0.0003127540121427956 
0.0001716528962286236 
-0.0001888820448534797 
-3.52775519257052e-05 
-0.0002456003048992571 
-8.205424554913441e-05 
0.0003283835076210106 
-0.0001449388209395297 
-0.0006510444146394117 
-0.0004054183090766177 
0.0007541770852078402 
-0.0008078931859833802 
0.0001835960497760005 
0.0001620073866931493 
4.786702761945597e-05 
-0.0002248541997233771 
2.960609994384998e-05 
1.812190615709978e-06 
5.794281619614787e-05 
1.544549654363887e-05 
-1.631632451376967e-05 
6.947107682162919e-05 
5.428548300269974e-05 
-0.0001982380469927135 
-0.000162112106412081 
0.0004160004024488283 
0.0005793433227087749 
-0.0001972338575440007 
2.080729314044196e-05 
0.0001056618866197601 
0.0001775044879618505 
0.0002114276444451955 
-8.245105696285586e-05 
-0.0003715167880570573 
-0.0009368374305068206 
0.000417755090288187 
-0.0003431752029108442 
-4.632815177332335e-05 
-3.73232890783432e-05 
0.0002760319043732485 
-0.0001691070737880467 
-0.0001066351227792578 
-2.958845251242147e-06 
0.0002067611439271662 
4.813399633986834e-05 
0.0001844989659703831 
-0.0001230768510008752 
-9.449173849258048e-05 
0.0003907544943597233 
0.0001322465804001688 
-0.0001143086284568215 
-7.746728114876128e-05 
0.00028490087598842 
5.516137617403181e-05 
-0.0003931322177195367 
9.975838012247519e-05 
0.0002495817171167702 
0.0001984707752507013 
4.256285098092253e-05 
-6.139274946989875e-05 
-6.576864177369748e-05 
0.0003383325703319016 
0.0001760521308335544 
0.0001593108299686118 
4.973379967816066e-05 
8.615776061671032e-05 
2.721304493384997e-05 
0.0001920690065647353 
-0.0005900714597720808 
-0.0001747984313137856 
-0.0005314347555166362 
-5.884138768770699e-05 
0.0001249219785939977 
-6.164478641251422e-05 
-0.0001795855464882629 
-3.052425676580536e-05 
0.0005767670417651916 
-0.000602187648987865 
8.311873909666008e-05 
-0.0006164070180703289 
-9.698097859383396e-05 
7.211002210668948e-05 
8.069179132129512e-05 
-1.019983902659571e-05 
9.20210326414683e-05 
-0.0001849808119808022 
6.128683054740738e-06 
-0.0001426586447145407 
0.0001737320482463024 
9.140104984113892e-05 
-0.0003257466925533799 
-0.0002830486021516971 
0.0002066819945734743 
0.0002187869624186388 
4.902914714029282e-05 
0.0003721023838203796 
8.391301379329225e-05 
6.153731397777683e-05 
0.0002505667236439094 
-0.0002319100962547095 
8.72146346000641e-05 
-1.771824840619594e-05 
0.0001477691963799918 
0.0001018833001971174 
-0.0001534095690619503 
-0.0005423919563810377 
-7.76278188267312e-06 
0.0002442700264432765 
0.0002558698846570776 
-4.034387620273429e-05 
-0.0001312649430659568 
4.382796306154486e-05 
-9.175375182492869e-05 
3.093855297916682e-05 
-0.0001073321559458698 
-7.096256844626187e-05 
0.0001952090904209498 
-0.0001353603846304119 
-0.0002497261759612249 
-0.0002716910338151945 
4.726128313611712e-07 
3.694481406176795e-06 
1.39013810260151e-05 
5.396791720348165e-07 
0.000134156989001833 
0.0002241551969805638 
0.0004206852520191098 
-9.876840335676844e-06 
-0.0001599417861618744 
-0.0003109062502527399 
0.0002030557690157109 
5.662631720710514e-05 
1.709583534015052e-05 
0.0001246272291756738 
4.836559559133374e-05 
2.583799155421047e-05 
-0.0005414479248419083 
0.0002186712627267383 
-0.0002209117607506697 
9.791963201638561e-05 
0.0004666635771797577 
7.841877899910136e-05 
1.141949415576292e-05 
0.0001501041823051056 
0.0001090418627626767 
3.416997284069906e-05 
8.806038342645993e-05 
4.401239718854277e-06 
-0.0001116386462146125 
-2.372091523472422e-05 
0.000100165664665864 
7.491688709439291e-05 
-8.332221271137751e-06 
-7.713225058897957e-05 
0.0001592540911533086 
-0.0001199704867562635 
7.453427652028672e-05 
-0.0007472246238569479 
0.0002385202201923342 
0.0004976496177589759 
-0.000200469146467455 
0.0001562637099219296 
0.0003986310398582075 
0.0001411581779786721 
-0.0005465111101033281 
-0.0001724547590274001 
-0.0003784179500873601 
0.000131926846930081 
-2.39553294011987e-06 
0.0002946357771441957 
5.425744396798655e-05 
-0.0004256520177113057 
4.16588255378267e-05 
-1.956194459326856e-05 
0.0003774645994959653 
-5.739145903478598e-05 
-9.004193503561502e-05 
8.423403379549419e-05 
8.941923727847374e-05 
2.507730689589331e-05 
-1.34360822086324e-05 
-2.118830375057423e-05 
7.719508207643367e-05 
5.259439294393913e-05 
-3.70411791326294e-05 
-6.152431094328913e-06 
-4.910823309547106e-05 
3.22367264503434e-05 
0.000307684220738471 
-0.0003526344585047079 
-0.0003877884247348772 
-2.944557814862253e-05 
1.157820727844193e-05 
-9.512128524297564e-05 
-0.0001396286913516105 
-4.259214273792018e-05 
0.0003766956501409099 
0.0005403158939563972 
-0.0003733986498906533 
0.0006015036338298967 
0.0001258792789925158 
-4.004924092668032e-05 
-0.0006987009958168872 
-0.0002233283958998319 
-8.496280595731498e-05 
-0.0002542341614552363 
-0.0002088908627899603 
-0.0001032589036822947 
0.0003539796560136407 
-0.0001404448058132196 
-0.000212720282362987 
5.645185071489932e-05 
0.0003051653836989279 
-2.892809539402584e-05 
-0.0003992790752228069 
0.0002740155196663488 
5.555926627805273e-06 
0.0006698700698545432 
3.454361081904736e-05 
0.0003278913724196297 
5.596051303090605e-05 
-2.579347456663945e-05 
0.00022512042177897 
-0.0001827556438727271 
-0.0002277090392611378 
-0.0003577294397450119 
5.914466282977506e-05 
-0.0003995186007913912 
4.515648849796255e-05 
7.449474250204587e-06 
0.0003173440101484641 
-0.0001212411344291473 
1.73778767866687e-05 
1.35759019768165e-05 
-1.539909041429913e-06 
5.672327943825951e-06 
-0.00024900108074906 
0.0001326317437314941 
-9.081227990737218e-05 
-0.0002276214340823319 
-7.775624620259795e-05 
-7.376742195126665e-05 
-0.0002442060596577785 
0.0002981914080190879 
-0.0004483463553236287 
0.0001158789299984048 
9.398121827944699e-06 
0.0001457201988948318 
-0.0001869871989750093 
-0.0005377479112469624 
-0.000146118513504534 
0.0003761974817995593 
-1.424456647620935e-05 
-0.0002729618643884494 
0.0003900335490673144 
0.0002856966820864336 
9.306360868820803e-05 
-0.0001505666595272046 
-1.648051906376554e-05 
3.216695917008756e-05 
-0.0001391367153253362 
0.0008166133742434209 
0.0001574746427662693 
5.693638976414629e-05 
0.000418453108675692 
-0.0002460595563498155 
4.897011811025914e-05 
-0.0002303431014387308 
7.174950278196436e-05 
0.0003018165481953833 
3.908835588933789e-05 
-8.026034535950235e-06 
-2.214328073918649e-05 
1.676906357015623e-05 
-8.662770294834116e-05 
-6.59048657253263e-05 
0.0001664283033372834 
-0.0002982018822123214 
-0.0003001504462912009 
-0.0002316066938767491 
0.0001083030808624982 
0.0001118621624185409 
-0.0002469892266147587 
9.526092048396977e-05 
0.0001146472070091351 
0.000107512442818572 
-0.0003071882492805991 
9.159235072429608e-05 
-9.131879520009429e-05 
4.126944556169598e-05 
-0.0001877480282398282 
5.255192145585673e-05 
0.0002885431869106498 
-0.0005165137403639803 
0.000662005213795227 
0.0003848115602653978 
-0.0001445782242547844 
-7.414784391982319e-05 
0.0001549789434649867 
-0.0002027763626689133 
0.0004539332641810278 
0.0002849585435455102 
-0.0004193205626542276 
7.928653257538276e-05 
3.525344112304956e-05 
3.223084521963268e-05 
-0.0002716964994969152 
-0.0003834870083392899 
-0.0002754431640871582 
0.001567943530362304 
-0.0002464255642818924 
0.0001191179934048693 
-0.000646369964335267 
0.0006049464146407892 
-0.0002401145743573138 
-0.00019079926515434 
8.594716587313624e-05 
8.555870284543389e-05 
0.0001839438629552563 
4.248479564931946e-05 
2.383343016029488e-05 
-4.064766971602167e-05 
5.908163735902608e-05 
8.335460646137007e-05 
6.372087637719375e-06 
-0.0004250146344320701 
0.0001209711480557495 
-0.0001234011884898516 
-7.480676249882171e-05 
4.212982587868001e-05 
-8.198721876159747e-05 
-0.0004665649186506799 
-0.0001994294059198495 
4.06021835651411e-05 
4.084298808394089e-05 
-0.000153672445219987 
-0.0001214150449032864 
0.0007351145778549034 
0.0003605492920930413 
-0.000108885614275016 
-0.0001631254586226646 
-3.442014815281684e-05 
2.09752726672331e-05 
-0.0001515589373706932 
-6.430999137983719e-05 
0.0001216164342429519 
8.359782502547074e-05 
-9.902751266594336e-05 
-0.0004012116790893712 
0.0005168458567318676 
-0.0008784866370305769 
-0.0002624928855107864 
4.168543286601959e-05 
-5.432818917489911e-05 
0.0006531372279544278 
0.0002693573350820033 
-0.0003031816227558978 
0.0002249587367156417 
0.0004102812487089298 
-0.0005208782536004329 
0.0001694109670471897 
-0.0002363382174507898 
4.709537920825466e-05 
4.19601179489344e-05 
9.292202308920785e-05 
-0.0004216653077293454 
0.0008031809507183666 
-0.0006422281336047306 
0.0001548975284218035 
2.006780505132773e-05 
-2.956320759832938e-05 
0.0003128891969066735 
4.609212240491671e-06 
9.318509465138858e-06 
-8.553501905209433e-05 
-0.0001031813330134449 
0.0002441894856037411 
0.0002843600019983749 
-0.000251860793211242 
0.0001141121081189172 
2.875578787693923e-05 
-0.0001965056621214795 
-1.243840651824006e-05 
-9.748798093136546e-05 
-0.0001278094207905109 
-6.654600354826068e-06 
4.952343349050183e-05 
0.0001171096434505682 
0.0004341142680049565 
9.702151331384011e-06 
-0.0004030990084100789 
0.0001936305125557581 
0.0001431988198977465 
-0.000251387323696774 
0.0001370230909850327 
-0.0004989194995013662 
-4.82979287660278e-05 
0.0005029603862421434 
-0.0002280318997583216 
-9.645891865860454e-05 
0.0003856654664800676 
-0.0001886089633254626 
0.0001926288174314596 
-6.257552844252672e-05 
1.599513768980597e-06 
0.0001705179031994057 
0.0001754761123073015 
1.918341649572664e-05 
-0.0001959598889996912 
9.881259170214178e-05 
3.200414028316075e-05 
-9.348294726335066e-05 
-0.0003815989845227702 
-0.0002069511713482558 
0.0003273978970468241 
-0.0004189014298383616 
-1.263845841995736e-05 
1.434637018746414e-06 
-0.00031900170521956 
6.299414692769427e-05 
-0.0001974945621753042 
-0.0002391236976497259 
-9.741427034929354e-05 
0.00023323816863799 
0.0001066096871297974 
-0.0001033514726410945 
0.0001302304092511288 
0.000474407366128839 
0.0002131294353331345 
-4.043550859156323e-06 
2.644225274588193e-05 
-2.826650181799116e-05 
0.0001045833825305958 
-6.747967143946774e-05 
-0.000255470424576201 
-6.071296752741302e-05 
0.0008594038967741191 
-0.0007279826508376639 
0.0008986311706477461 
0.0003455842609652825 
-0.0004035241414284887 
-3.649935125640342e-05 
0.0003372320661477818 
-0.0005135188835732244 
0.0001398681137639689 
0.0001209536573439482 
-1.635942770627287e-05 
-7.885061880201545e-05 
6.126827833461489e-05 
4.862757441257163e-05 
-0.0002451425301472401 
0.0002145700692484848 
-0.0002141561575220641 
-0.0002038293671225828 
-0.0001039781490701549 
-0.0001520033576247466 
-0.0002129594870574123 
2.773303488802969e-05 
0.0001760101854172323 
-0.0002239913075118021 
0.0006527133118227373 
-0.0001731410461784433 
0.0009099597395714976 
0.0003527174308153972 
-0.0001339622283238835 
-0.000286032122230161 
-0.0004424589420022098 
0.0001547957581756243 
-0.0004302789454079562 
1.855904548790175e-05 
-0.000317871013371478 
-0.0002311521622563592 
0.0003722084130641073 
0.0001908752269278443 
-4.62719794990474e-05 
-0.0003731525046404311 
8.423403379549419e-05 
9.29837842324659e-05 
3.420030085687268e-05 
0.0001340994374607648 
5.849142158582604e-05 
-0.0003144231313338359 
8.64813538035889e-05 
2.61306740342695e-05 
-9.088538438386917e-05 
-5.945871186938409e-05 
1.057467737581078e-05 
-2.743244828387271e-06 
3.10255993918425e-05 
-0.0003061001027805819 
2.425252469199211e-05 
-1.102381314908588e-06 
0.0001542871164406865 
-0.0003025633786651793 
0.0004669177803594123 
0.0001547304987905105 
-7.287973542274682e-05 
0.0001423253514860598 
6.368850273403255e-05 
-0.0004256981920812263 
0.0006017274725656493 
-0.0002263107222176023 
-0.0003966136313387568 
0.0002955232429520816 
7.268766313955935e-05 
0.0001203611691297402 
0.0001299636195087601 
7.070713702782383e-05 
0.0004942516209799361 
-0.0003027433900029497 
4.420406621251898e-05 
-0.001195859221508429 
-0.0001186569397009191 
-4.149519334392302e-05 
0.0001975324450468248 
-2.172825705639957e-05 
0.000119637197363824 
-0.0001194481742539233 
3.562979772540224e-06 
-0.0001511374650285131 
2.448892817903311e-05 
-0.0001158580156384118 
-8.868943172749642e-06 
0.0003685333004158388 
-4.972447916068413e-05 
-0.0003440577119080418 
4.57245333587374e-05 
0.000196056434283851 
9.362850141806795e-05 
-0.0002193574000915725 
0.0003257311107426106 
2.358514037228468e-05 
-2.693327730352518e-05 
1.328064702825535e-05 
-4.195523287307474e-05 
-6.903571163686381e-05 
-5.549634794287298e-05 
-0.0001009240366052575 
-6.505760755888674e-05 
9.019296787139304e-05 
2.922053475681011e-05 
0.0003277422971348285 
4.499286279122498e-06 
-8.657955875988583e-05 
0.0004990463870814972 
-0.0003271647144800351 
0.0002523945614503833 
-6.394528258401435e-05 
9.177245864351155e-06 
-0.0002366372178221088 
-6.132698176280858e-05 
0.0001775599627705586 
-0.0002683849016500227 
0.0008065015037019499 
-0.0004325507921250861 
-0.0004199410271768583 
0.0001585439230684332 
-0.000172950813923581 
9.45867976518648e-05 
9.042793361043426e-05 
0.0003178698533464584 
-3.495861757890948e-05 
-0.0003687942937448533 
-0.0001060254796191468 
6.66846032394433e-05 
-0.0004181871990143142 
-0.0003859160258413574 
0.0003052440182802204 
0.001232330941737584 
-0.0001555737319399424 
1.149402796050115e-05 
2.186482997525043e-05 
-1.056221495281919e-05 
-8.413583793193237e-05 
3.191507482247671e-06 
-2.265102989867334e-05 
-1.071422674709254e-05 
0.0001528348464545502 
-3.690187348310319e-05 
-3.955389254050044e-05 
-4.56967924194827e-05 
0.0002179902555416682 
-8.548610458925729e-05 
0.000108315155593695 
0.000118474710578772 
-0.0002318645876387846 
-0.0003627202193365963 
-0.0003018916306476732 
0.0001065715269112246 
-9.2453578933009e-05 
-5.239109357017478e-05 
-6.240032633163404e-05 
0.0004867384010816706 
0.001174783437916109 
-0.0006314249201893166 
0.0004147155019702487 
-0.0004950507569940574 
-0.0001974005839539086 
5.824453506748517e-05 
-0.000286356685599974 
4.825587841173252e-06 
2.357778481016442e-05 
-0.0003065532810784948 
-6.633735825462254e-05 
-0.000314024225450001 
1.456573154483655e-05 
9.118642353799834e-05 
6.976599740849859e-05 
1.826511798478212e-05 
-5.464569404008801e-06 
0.0001144677925533789 
7.868501037812193e-06 
0.0003495689397382991 
-7.429335527072425e-05 
-5.66919096735355e-05 
0.0002786765392068184 
0.0002217328569419275 
-1.543787586640125e-05 
-0.0002906633724671516 
-0.0004633419498423234 
-0.000173166896129865 
0.0001279534080131314 
-0.0001098072721454313 
0.0004006131655530726 
0.0003936718500857578 
-1.096567629837047e-05 
2.543546439855815e-05 
-0.0001898174089450346 
-4.756097849522362e-06 
-8.542825430877834e-05 
4.020239483518778e-05 
-0.0001229924875524359 
0.0002690704564182368 
-8.64528045744351e-05 
3.528136404255258e-05 
0.000112407077959363 
0.0001160132729192951 
-0.0004125916200362804 
-0.0004008094039432909 
0.0006722192975817996 
-3.834597583123355e-05 
-0.0002003178654690775 
-0.0001266259329260667 
-6.786246246142531e-05 
-0.0001137490054905941 
-0.0006351640796919912 
0.0001637358569499338 
-0.0007185308501428296 
0.0003866524527327376 
-6.553199223790284e-05 
0.0008240927240698755 
2.083613314815501e-05 
6.414631723496503e-05 
-0.0001074357338612827 
0.0002624204892151486 
-9.683877346390783e-05 
-0.0003781153388958646 
-0.0003006698895277372 
0.0001656216598181533 
-0.0001248760683602846 
-0.0002127370349530393 
-0.0001719485031715527 
-0.0001822733940964534 
0.0004743482173032848 
-0.0002069292272638983 
0.0005359851463010748 
8.787695089150322e-05 
-3.199612432957045e-05 
7.588515079315754e-05 
0.0001006631056964551 
-2.831271084604035e-05 
-0.0001815456763437745 
2.875308905799473e-05 
-5.624144098816473e-05 
0.0002490765587757673 
0.0001037981432554256 
-3.19872090466625e-06 
-7.938818453333657e-05 
0.0001786461182669733 
5.001568902027156e-05 
-7.695966716141452e-06 
-0.0001746892345929784 
-7.062193474750542e-06 
-1.358663363263903e-08 
0.000128072008912959 
0.0002422243687375013 
-0.0001465901691335723 
-0.0001000372495688388 
4.446545629893902e-05 
-6.574111541275325e-05 
8.063088193354503e-05 
-2.500851815787218e-05 
5.34303816915362e-05 
0.0001278540947892816 
-0.0001409021014178766 
0.0004971364212683614 
-5.857115882455959e-05 
-8.76532946912344e-05 
-0.0001752041061678019 
-0.0001078317397514352 
4.677128337829442e-05 
-4.185961366926227e-05 
-0.0001310583447045185 
-0.0002101316586078323 
0.000147412974976643 
0.0002851994555068735 
-2.904320381579293e-05 
5.606258249910934e-06 
-0.0001246932690652397 
-0.0002153402554984071 
4.03288415888713e-05 
-0.0001106677793632711 
3.908835588933789e-05 
3.733793680037872e-06 
5.36478336212765e-05 
-0.0002802229243297742 
8.884477591333162e-05 
-0.0001525380661914076 
1.749998019988367e-05 
2.757226125775114e-05 
-5.48391720871207e-06 
6.842278896088662e-05 
-3.621239324386313e-05 
0.0001414685700208617 
0.0001384138535338073 
-2.034536838626354e-05 
-3.411484831857383e-05 
9.125435205999614e-06 
-4.045351055978218e-05 
-3.427970241776076e-05 
-1.183432710713715e-05 
-0.000360831976413547 
1.268973384472468e-05 
0.0002662068665159279 
0.0004392057412603058 
-0.0009913505477923685 
0.000202742166722318 
1.736698592140075e-05 
0.0003324711602715484 
-6.594085935478005e-05 
-9.905634396891246e-05 
-0.0002720703807574818 
0.0001410994754214688 
0.0006661651959552977 
6.588193439306293e-05 
-5.342596131312054e-05 
-0.0001517469653619921 
-0.0002674824088592854 
7.659540930316171e-05 
0.000150159032516579 
-0.0001536279292730177 
-2.226940247960675e-05 
0.0002123104641265023 
-0.0005620763962886212 
-0.0002073606811417827 
0.0008178065533894947 
-0.0003820814493715976 
0.000249630857288152 
-0.0002407421710010928 
0.0004573589138745834 
0.0001546837776349681 
7.928140553036594e-05 
-0.000256494474201928 
0.000124216963830058 
-2.266452822765994e-05 
-5.774206375027602e-05 
0.0004325765496176311 
5.25892900462734e-05 
6.39864028269602e-05 
-0.0002142914252397051 
-0.0002067485169189089 
4.948817706279259e-05 
1.823694882207215e-05 
-2.633250823746131e-05 
-2.432048505432622e-06 
0.0001747390730958295 
-0.0005833754128952706 
0.000165837929696697 
-4.850749959737774e-05 
-0.0002247938395602693 
0.0001354995118773178 
0.0005503246541575898 
-0.0002534109253319413 
-0.0001076937827457943 
-0.0002048020432073247 
0.000210684925920798 
-0.0001887628623033639 
-0.0004099654178571297 
0.0001819360522877867 
0.0004180794810114059 
0.0002626344291113395 
0.0002442063526733392 
-0.0001414539185275978 
-4.971617054128131e-05 
-0.0004527176209445993 
-7.567710893987221e-05 
0.0002883619614394212 
0.0001493069205239063 
7.947705924760605e-05 
-0.0002604378560529832 
-0.0003786535648954516 
1.410312973267943e-05 
0.0001099358826850133 
6.051129992362084e-06 
-4.5131485678184e-05 
0.0003560083604789022 
0.0001964865483320887 
-0.0004947403545929032 
0.0001945233358870677 
-0.0001551859469248179 
7.079199541798599e-05 
0.0004066376380376502 
-6.787119176875984e-05 
-7.684286311827587e-05 
-8.416270251667038e-05 
-1.178647607620945e-05 
1.910235159348807e-05 
4.086859833429645e-05 
0.0001224292001567291 
0.0001084048170408483 
6.344255377903122e-05 
9.068751783759485e-05 
-0.0003936967449221109 
7.36339418160762e-05 
3.02823711190175e-07 
-0.0003626758374550427 
-2.604137190170688e-05 
0.0001645922320534172 
-0.000243371334245575 
2.696200020331539e-05 
0.0003720981204080244 
-0.0001864213698301602 
-1.476813528323231e-06 
-0.0003205527622302553 
2.055410463953091e-06 
4.826805848136561e-05 
5.08951906786677e-05 
3.620379620169108e-05 
-0.0001235738824571086 
-0.000468719999945815 
0.0003863002338294841 
-0.0002421807815115324 
0.0006217584795538302 
6.920071532750346e-06 
-2.506659666914489e-05 
6.279238313367148e-05 
6.10150998069418e-05 
6.085764335513526e-05 
-3.831070662273167e-05 
7.259449398766934e-05 
-0.0003598916686365939 
-0.0003244926000217387 
-0.0003102373973767219 
0.0007667458861791533 
6.805084786692971e-06 
-5.208816270889744e-05 
-0.0001404122569345 
0.0002316720525094592 
-0.0001849236523556111 
-1.230827671988828e-05 
2.773246941632405e-05 
-2.394820457088128e-05 
8.692346819280603e-06 
-0.000419930229814 
0.0004061189203931033 
6.229474077155058e-05 
0.0003333825099553124 
0.000422870572757265 
0.0003212552579970579 
-0.0002309376339602998 
-5.70796748545361e-05 
-0.0003478616569238652 
-0.000139635860191546 
-9.768400252299473e-05 
-6.167211984431817e-05 
-0.0001913269984064471 
-4.392850190937108e-05 
0.000175060667910934 
-9.487145309821263e-05 
-0.0001648039914836791 
-2.209052440396957e-05 
6.428685149598917e-05 
-0.0002122060383280627 
-0.0001250686227897397 
5.412551238062883e-05 
-0.0007333284058109884 
0.0003850118418855389 
0.0001472497847105237 
0.0001222141198211204 
0.0003429535150869866 
-0.0002813744436691828 
0.000205518226540933 
0.0001232284900881859 
-6.106596840497887e-05 
-4.950099903443584e-05 
-7.070302281220493e-06 
-1.309540913737287e-05 
-5.922955635093475e-05 
-0.0001312352232557323 
-0.0003203592010858966 
0.0001690053774010752 
1.88054719891948e-05 
5.17009391663169e-05 
-9.924425319656296e-05 
-0.000288616731728862 
0.0005885476526739098 
0.0004759770058974115 
-1.547821040614043e-06 
-3.391560907487438e-05 
-3.437056934165539e-05 
0.000255967349313307 
0.0001306207083671078 
-0.0001025544071128029 
-4.220719931240174e-05 
-0.0001443841089609114 
0.0002016176833521373 
-3.09921719995285e-06 
-1.383792790344349e-05 
6.259914742467818e-06 
-0.0003024962638695934 
-0.0001625845793067234 
-0.0001353023784354309 
0.0004250522989535018 
0.0001900619969998157 
-0.0006623952949607479 
6.113701211700805e-05 
0.0001011668661700973 
-7.553002765013759e-05 
0.0002977811732400662 
-0.0004993899240763891 
0.0004551711198393902 
-0.0003161223642634954 
6.489214063340663e-05 
0.0002147264489393604 
-0.0003146658632535792 
0.0003577473598460882 
0.0001320243430413356 
-7.637105051188578e-05 
5.181702339266044e-05 
0.0001854849295727896 
-0.0002876334825443401 
-0.0005687443290452153 
0.0001028461095835734 
6.818404415735822e-06 
0.0002482469889772803 
-0.0002797596021741523 
-0.0001330150964781469 
-0.0005617998957176693 
-0.0004012967291801239 
0.000375690719525101 
-0.0001194466446661806 
-0.0007725202128271704 
0.0004977766968478969 
5.243265993583566e-05 
0.000926753233992507 
-2.922198314532769e-05 
-7.616339247869589e-05 
6.139059735382948e-07 
-3.843605038306783e-05 
0.0001437829630274338 
-4.340969042957616e-05 
9.893379808256992e-05 
6.334384783195211e-05 
-0.0002092397861012447 
0.0006457283420060045 
0.0001219068127913229 
0.000501917189640218 
0.0001237004583231558 
-8.825596914056463e-05 
-0.0004449575042005212 
-1.680785934182097e-05 
-0.0002355154143096847 
-6.423399139368865e-05 
2.851703282525326e-05 
6.53294912415726e-05 
-0.0001739779691716624 
0.0004393975078262347 
2.651428412978649e-05 
-5.912811469038261e-06 
-0.0001140851219682662 
-0.0001010800916731704 
-2.058352527096501e-05 
-0.000118839296958697 
1.682532599487045e-05 
-5.478148057032974e-06 
-1.931815566094043e-05 
0.0002279039454835601 
0.0007143091059046302 
-8.898945542769559e-05 
0.000113461343944767 
-3.33488017101906e-05 
0.00141952614609035 
-7.020917335872042e-05 
-0.0003518821021088184 
0.000145627386709859 
1.943647327747195e-07 
-0.0001811165423405795 
-0.0009754897814584373 
-0.0002733208191524642 
4.352116543644978e-05 
-0.0003649470383954707 
-1.753002776148528e-05 
0.0008506659267941404 
-9.217403393025314e-05 
-0.0003066518238926168 
3.21263095531096e-05 
0.0001495827165988721 
-0.000295665176365772 
-7.895454759784346e-06 
0.0002983081541162656 
0.001017694074716663 
0.0001773210209007469 
-0.0004421290904474677 
-0.0002013759406195042 
-2.841855363424469e-06 
-0.0004925310910842215 
0.000124666768833933 
-0.0001077317752894952 
-0.0002077800382781854 
6.960630519173924e-06 
6.643401685540903e-05 
-0.0002026012084926153 
7.546935145012744e-05 
9.873022126552205e-06 
0.0001072606003890283 
-0.0001456167785547812 
0.0001794886224913257 
7.916638400348928e-05 
-7.703424700465102e-05 
-1.160239353253056e-05 
-3.625950329304405e-05 
6.311170316944533e-05 
-0.0001416575145375213 
-0.000441312544399309 
5.167269270876627e-06 
-0.0005759513020323061 
0.0001751761290326799 
-0.0001611435131254175 
0.0005919458907498738 
-0.0004863101529200548 
0.0004997846326066783 
-0.0002548102218340882 
-0.0005310306941099417 
-0.0002786070609612299 
0.0005350799158125796 
8.297556921283936e-05 
0.0001031370661657905 
0.0006206421874974624 
0.000473469376394947 
-0.0002269140945102143 
-0.0001747250376678686 
-0.0001925034587534771 
1.343988697189655e-05 
8.020377660304357e-05 
-1.414829103444499e-05 
4.704240536263436e-05 
-7.945577320967469e-05 
0.0001258467293736372 
6.829588350567266e-05 
-0.0002742728355541507 
0.0001923982997437922 
1.75263757476899e-05 
-7.641118482366176e-06 
-0.0003396600778565427 
-5.873969608443027e-05 
4.905076675720736e-05 
2.718279627732249e-05 
-1.907466951013588e-05 
-3.143042550188368e-05 
0.0001203446114685186 
-9.006472070896811e-06 
-0.0001219395625538166 
-1.895177572689421e-05 
-0.0001632849424680021 
-1.05590460861355e-05 
-0.0001434401953924415 
0.0002392842012371154 
-4.422031509121643e-05 
-6.445860829359538e-05 
-6.415207290344415e-05 
-6.753187946351422e-05 
1.004820077513077e-05 
0.0001606537751729611 
0.0006353827443562998 
0.000159387972431166 
0.0002017759781399285 
8.447966175318049e-05 
-1.108349812844693e-05 
-0.0001303638894897963 
-0.0001793108035585137 
-4.847944179929219e-05 
0.0004519105192491598 
-0.0001056429229292893 
0.0005463478907155514 
-0.000415168368502541 
-0.0002941635039391315 
6.236226178781656e-05 
-0.0007316293872820677 
-0.0002051300397226041 
-0.000215302357781042 
-0.000578512435947389 
0.0002137090013100711 
0.0004909318801445306 
-0.0003749558843398759 
0.0001430833056745258 
-0.0003998579093445976 
-0.0001825519701977101 
0.0002346379491988338 
5.93418855649773e-05 
-0.0001042350160004266 
0.0009274642190796817 
-0.000343862129246233 
-0.0003070947381948582 
-1.369487908776551e-05 
-0.0001609750069088589 
0.0002433715102396909 
0.0002710000838361349 
0.0007650650697282421 
-6.602746405090157e-05 
-0.0003723591169126171 
5.286355901571382e-05 
1.976966740051976e-05 
-9.320890847392378e-05 
-0.000136426481324351 
5.663878185245792e-05 
-0.0001335095724731856 
1.241189740763487e-06 
5.168081673338244e-05 
3.761336581961831e-05 
0.0001445604573402886 
2.138431025082287e-05 
-4.072194110627048e-05 
-3.388290618730366e-05 
0.0001739445906958536 
-5.021613452201618e-06 
6.738281865693845e-05 
5.742797858208309e-05 
2.758124385124246e-05 
0.0001891754808205593 
0.0005752862551173434 
3.974022358841597e-05 
-0.0004057945639285918 
0.0002704729137173108 
1.119257339735174e-05 
-0.0004931723893960964 
4.216771399019588e-05 
-1.541737119553784e-05 
-0.0002359802624486815 
0.0001331007268080958 
-0.0002480519270401639 
0.0004231398499119729 
3.612241325505153e-05 
-0.0004974006406758593 
7.366390227145707e-05 
-0.001080806603688687 
-0.000201908025013737 
0.0006668622522345859 
-0.0002246110381343434 
4.301586406041019e-05 
0.0002311231557797454 
1.893492483545002e-05 
0.0004063189231156946 
-3.966765077901978e-06 
2.498037442354651e-05 
-6.017463740163543e-05 
7.975175921148279e-05 
-5.187360007775701e-05 
-7.245690966128952e-05 
-7.722048008963627e-06 
0.0002075624299912647 
-4.762536741436876e-05 
2.538774345715694e-05 
4.016409272157016e-05 
-7.050575375012051e-05 
0.0004774193286036379 
-6.036540222820378e-05 
0.0007415022393405092 
-0.0003289247310936841 
-0.0004585400386778311 
0.0004633919935660665 
-0.0001588183999234558 
-2.143161284780294e-05 
-4.659829940854349e-05 
-0.0001854396147826273 
-0.0001690916065311006 
-0.0006618041242202136 
-0.0005097874458558564 
4.238100555578929e-05 
-0.0002741723859530322 
0.001012230650412007 
6.607025802590488e-06 
-0.0001234342852122329 
-5.336902125767496e-06 
0.000221960119839869 
3.224554677306446e-05 
-9.137256154462488e-05 
-0.0002474395576633852 
-0.0001358824848784604 
0.0004072518215348728 
-7.391806925148692e-05 
0.0001077464946853079 
-0.0004801204096169039 
0.0003267857490650536 
-0.0005094563162398722 
-0.0004661729980570336 
-0.0005691413840255712 
0.0004049981144902259 
-0.0004377293924371363 
-0.0001171440322857736 
0.0006949903073942894 
0.0001267965951941738 
-0.0002176046190140636 
-6.008036798239911e-05 
-9.74763743312339e-05 
2.141702936927835e-05 
0.0006049204685242276 
0.0003536844901535734 
2.808425404587418e-07 
0.0006639515506202939 
-1.442130232696004e-05 
-0.0002176124111130046 
-0.0002169284560715611 
-2.574388685531742e-05 
-9.116522242041073e-05 
8.011233996681138e-05 
0.000269497328476678 
-1.118554193738431e-05 
-0.0002065729168937333 
-6.864781180236518e-05 
0.000379256738368451 
0.0002711618310620426 
4.443248346529744e-05 
6.266529549907699e-05 
-0.0002918519641809218 
-6.513066941815167e-06 
-7.588541269871831e-07 
-7.718776378219084e-06 
-2.283025468690663e-05 
-8.32412333016687e-06 
-1.176299718598435e-05 
0.0001794959229376882 
-9.220894761928298e-05 
2.029393542536832e-05 
0.0006454996014857248 
-0.0002033430541793256 
0.0005741629651883059 
0.0001289319552175283 
-0.0004006586025032358 
0.00024952682114887 
-0.0004797418377985291 
-9.519120120943289e-06 
-0.0002619916079162014 
-0.0003100284345250446 
-0.0001283412524936262 
-7.048564175701122e-05 
-5.049833527014691e-06 
6.457874810790738e-06 
6.091804796866388e-05 
-2.151168104924032e-06 
0.000146010072103884 
0.0002049728951419736 
-5.742045292699981e-05 
-4.0934579066148e-05 
-4.890292307023373e-05 
-0.0001113888140397008 
0.0001932781846943087 
4.454827672360306e-05 
6.416443819376346e-05 
-0.0001731842752960285 
6.059487313960953e-05 
-0.000261858401646736 
-0.0001105306229114796 
0.0001787991428727943 
-0.0001250348174550631 
-3.507521166257656e-05 
0.0003156499847128827 
-0.0005211404877084535 
-1.751432654707499e-05 
0.0004941764068280624 
-2.487562846685656e-05 
-5.789414771640961e-05 
-6.208284061471153e-05 
-0.0009901989769999905 
1.862536706633347e-05 
0.0002578399371780321 
5.217335620398529e-05 
0.0003299053733459948 
0.0004371825464654274 
0.0001185841513769377 
-0.0002510484991411083 
-5.673288973794036e-05 
-1.309150490544325e-05 
6.968239285597118e-05 
2.864192058847217e-06 
-7.204960515467839e-05 
2.199461575433286e-05 
-3.817249435392653e-05 
-4.004735379248166e-05 
0.0004747081658993448 
-7.810525483963038e-05 
0.0003290735619707786 
-0.0005039858215535196 
8.898384937490613e-05 
8.377381805769933e-05 
-6.787522459801226e-05 
0.0003359032121190039 
0.0002317652433343585 
7.75221689882773e-05 
-0.0001727290200701809 
-6.066879534190786e-05 
-0.0003063116113168718 
0.0003025338365014948 
-0.0002835681051568239 
-0.0002151347438480284 
-6.329793181749946e-05 
-0.0002550822597928342 
0.0001779115858773005 
4.600142671042276e-07 
7.550955455560948e-05 
0.0001180613717555836 
-0.0002029410555002704 
6.431492108254302e-05 
-0.0001069020282022477 
1.25845832005027e-05 
6.69586706904494e-06 
-4.703627563930189e-05 
-1.152599487826965e-05 
1.891834236938948e-05 
-0.0002168972239571491 
-4.700365624826743e-05 
0.0002691883123106786 
-8.417616658231484e-05 
0.0002442748793845262 
0.0002419591360905234 
0.0002672182361032198 
0.000123176922242014 
-0.000154068748819079 
-9.496614857836379e-05 
-0.0001474545243950061 
-3.299969808786905e-05 
-0.000365691609834334 
-9.622930924740018e-05 
-5.29700815562587e-05 
-0.0002547334402650145 
-0.0002013517604024321 
0.0003053375959790639 
0.0003390255292348181 
-0.0006330400654117555 
-0.0001010949112559836 
0.0001042709018304643 
0.0005839042159613782 
0.0002862944762596959 
-0.000280344655203481 
0.0001509061332023087 
-0.0002484683066053073 
-0.0002390563187128332 
-4.298009949096667e-05 
-2.84968983614661e-05 
-0.000155239153515125 
0.0002951222876410809 
-0.0002190796288249912 
-0.0001049791729649193 
-0.0001947031718188642 
0.0004993956303228625 
0.000200116961083961 
-6.10630459965752e-05 
-0.0007933214483644828 
-7.429987747018084e-05 
0.0002432966695855124 
-0.0001361541807839403 
8.669021324368525e-05 
0.0001089584121974673 
-7.170368895746763e-05 
-1.333370024474386e-05 
0.0003017716564664953 
0.0003399361117019439 
7.806546068946947e-05 
-8.415940818914204e-05 
3.448818599432549e-05 
0.0001933581761349673 
3.10459876792421e-05 
-2.296868925157541e-05 
-5.018316113410999e-05 
-0.0001315090110401835 
0.0006436229922066777 
-0.0003589009505477051 
0.0001364077822104777 
0.0002140799914632438 
0.0002769279570748407 
0.0001574097518820438 
-0.0001580754304305245 
-1.034014448905513e-05 
-0.0001061657751706088 
0.0001445406742660734 
0.0002773519009719799 
4.616132945089696e-05 
-0.0003842641695744551 
-0.0005547684777158993 
-1.515579457844321e-05 
9.704029235456973e-05 
0.0002043732894302678 
-0.0002878572274339938 
-3.777473823728582e-05 
4.016036113967961e-05 
-0.0002382674586988947 
-0.0001752135766847968 
0.0002225028532183909 
-0.0002687144665731799 
0.0009460135553464795 
-0.0001043862327207519 
-3.343774584635502e-05 
0.000183493394836869 
0.0001053169606852071 
-0.0002897537007403718 
-0.0001894923718160651 
-8.60835418424629e-05 
-7.811100512567168e-05 
-8.649403979092477e-06 
-0.0004922858928113494 
-0.0001725965461831942 
0.0003022715429494013 
-2.689952450470021e-05 
0.0001124329274267882 
-2.278260077171952e-05 
-5.644742603906285e-05 
0.0002933855061286843 
-0.0001199634402866869 
4.679827936682768e-05 
-6.732114965714463e-05 
-3.249284344033545e-05 
0.0002063815519761879 
3.774083097664155e-06 
-8.259440300551666e-05 
-0.0003424584106333905 
5.15916080519063e-05 
-1.062844074246362e-05 
8.133770736542731e-05 
-5.248517790839944e-05 
0.0001729021893715119 
-0.00013705821590496 
0.0002111224606693398 
0.0002155258047846911 
5.195678224337981e-05 
-0.0001021128071802668 
1.092492584359338e-05 
0.0001399248596037943 
-0.0002454180716328335 
0.0001698215618506134 
-0.0001063555570877144 
2.501754973302465e-05 
0.0001640636346502681 
-0.0001356011024165959 
9.023062172601656e-06 
-2.756515141958293e-06 
-0.0002460935246190739 
0.0002863693397217568 
0.0001234107440407188 
-5.028990013644104e-05 
-0.0001893963916645779 
-0.0001996862590150399 
-1.797442650787866e-05 
0.0004062015349378966 
1.34599395113281e-05 
-0.0001918261723715024 
0.0001911389658884343 
0.0001429943534981487 
-8.4938928491698e-06 
-0.0001037459053471346 
-0.0004082894391347183 
-0.0003649819758018839 
4.318932518730215e-06 
6.806933653245716e-05 
0.00034998811001915 
4.100661178745507e-05 
0.0006782930156896819 
-0.0003226707192763108 
-0.0002152709219611732 
-0.0001660420536807837 
-0.0001630939989521798 
0.0002683595177514771 
0.0001819219708144958 
-0.0001171370379850829 
-0.0003029784396864993 
2.871952874567037e-05 
0.0002689422474338727 
-0.0002228884972396308 
-0.000102957099777956 
-3.246788607283906e-05 
-2.580528584630193e-05 
-2.083164438985647e-05 
5.814510195434584e-05 
-0.0001146259432762333 
-0.0001069338762800292 
-0.0002462085858878707 
9.964661864573623e-05 
4.942331430206951e-05 
-0.0002912451981689008 
-9.78441087318146e-05 
9.861591663637405e-06 
4.176019770596305e-06 
4.695216941865975e-05 
-1.473381514092791e-05 
0.0001075986739116105 
0.000156036923548647 
-2.039548095472482e-05 
6.31233318031574e-05 
0.0003025947294640565 
0.0002546692162105249 
-0.0002206042112586533 
0.0001566290632616176 
0.0002187415102161329 
-2.324720958794905e-05 
-9.35294430202028e-06 
5.312901892497749e-05 
-7.044055167673616e-05 
0.0004165051274022877 
-0.0001062881504432911 
-5.514711198956162e-05 
-4.601374299526874e-05 
-8.199551316252814e-05 
5.34680587485522e-05 
-4.147860096305415e-05 
5.562294111158329e-05 
0.0002022970423544146 
8.11143028815587e-05 
-8.490454641567552e-05 
5.267831177738071e-05 
-0.0007994222791367297 
-0.0005815043722700868 
0.000723899377242354 
0.0002117987383600434 
-0.0002296830101267528 
0.0006922799556415007 
-0.0001624008976891325 
-0.0002320669207293037 
0.0001030255248092959 
0.0004382304328665025 
-5.37441861843804e-05 
-1.910680478805955e-05 
-9.376075961050398e-05 
6.754164564480922e-05 
-8.25117933436943e-05 
-0.0001149268210575356 
-0.0001540512643263903 
-7.405811992103044e-05 
1.031282066252756e-05 
0.000140458861464862 
4.24892658080651e-06 
-5.839335489515056e-05 
0.0002495748312891877 
2.31993170254949e-05 
-0.0002380137461038769 
-0.0005938384715772081 
2.382862360584536e-05 
-0.0002494896995301621 
-0.0004740622178879625 
-0.0001507768206960147 
0.0003396844855020747 
-0.0002517097832613134 
0.0003276816482823157 
-2.651060105941791e-05 
-0.0001257917530157194 
2.857741190585308e-05 
0.0006623905919356662 
8.587227559878272e-05 
0.0001574474667552557 
7.269436316591658e-05 
-7.214592700408158e-05 
-0.0001742283755237628 
2.548141976448221e-05 
3.252787114786594e-05 
6.316954814327046e-05 
0.0001440564854063298 
-5.62130481937308e-05 
5.826133286315206e-05 
-2.349170934914181e-05 
4.572100474445008e-05 
3.505787558903061e-05 
-0.0003110811238948393 
-0.0001335322197894663 
-9.288535992470879e-06 
5.338398650808682e-05 
-7.211388995510305e-05 
3.564935104161895e-05 
0.0001799874541474335 
1.744653247281342e-05 
6.702256971826155e-05 
-7.247113202387326e-05 
0.0001320083080037564 
3.76768649785529e-05 
-0.0003207331922558091 
7.004193121062496e-05 
0.0001669606834490965 
-0.0001471703171248376 
6.842958787762105e-06 
-3.904527793716733e-06 
8.044373680634253e-07 
-1.044985297156071e-05 
0.0001118947913936214 
3.604500203480003e-05 
-0.0002309256164295068 
0.0005650411318543483 
-0.0001393957038121035 
-0.0001721168392476523 
0.0002790844975707002 
-0.0002002974072101397 
-0.0004939145850031566 
0.0003799217821231812 
0.000135392825411753 
6.745866810285791e-05 
-9.376075961050398e-05 
-8.212261693621645e-05 
6.027891402186219e-05 
-0.0002889709498316144 
-4.549696583309411e-05 
7.114476718846439e-05 
6.836779309840224e-05 
0.0001859351587322758 
-0.0001111769308647479 
1.009704670229278e-05 
-4.896459311634712e-05 
1.549657134481217e-05 
-0.000170786728750332 
-0.0002334800562100613 
-0.0002046107060299928 
-0.0001918596981814358 
-0.0001431593884145317 
7.45236552970531e-05 
-0.0003475325132781061 
7.077787930011195e-05 
0.0003940004168228905 
0.0001347453852104809 
0.0003008261114863124 
4.112027102575709e-05 
-1.199766544525506e-05 
-0.0003283126982354122 
-3.324641305865118e-05 
9.877949736156632e-05 
0.0006626452242286113 
0.0001725696143917417 
5.373184886957471e-05 
-5.429263861279502e-05 
7.685377563287931e-05 
0.0001721275768726034 
-8.928180330982736e-05 
0.0001321961292297615 
2.242911147881423e-06 
-6.490378534839604e-05 
3.536358817477177e-05 
-4.844610279335752e-05 
0.0001486266338957629 
4.612649439885637e-05 
0.0003229226725127459 
-0.0001327375282212181 
0.0001405739044222014 
2.046146617433845e-05 
-3.297593407849657e-05 
9.833888325684336e-06 
0.0001580574377219054 
-0.000126163360891866 
0.0003263606186645353 
-5.321998404669322e-05 
-0.000269504707777044 
6.877835751714757e-05 
-0.0005262564523208768 
0.0001083708965676526 
-0.0001102962791359891 
-3.207666291384264e-05 
-0.000321250995880998 
-2.078648546662061e-05 
-4.382509466701646e-05 
-1.31970492211339e-05 
0.0001782190844684915 
-3.692437698073693e-05 
-0.0001919333168186077 
9.265288191660074e-05 
-8.911934381683241e-05 
9.493759804131629e-05 
-7.198818656344068e-05 
4.41492151313128e-05 
0.0002800265936797234 
-0.0001034084471249119 
7.563836844586621e-05 
-6.276810953055646e-06 
-0.0001500016273013894 
6.010955744289283e-05 
0.0008570521226422544 
-0.000104216258611896 
-0.0001518240289467237 
8.360408781327192e-05 
-5.137862429970005e-05 
-0.0004236024043309492 
0.0004177140887894915 
0.0001385724897300189 
0.0002573315221839687 
8.36820427332952e-05 
-6.398547515985255e-05 
-0.0003425097586900856 
0.0002450648436633694 
-0.0007921270327251594 
-0.0001847037677006936 
0.0001562167355001679 
8.908700669409101e-05 
-0.0001918035625305691 
-0.0001447874851893603 
0.00011309580902868 
-0.0002078658725529117 
1.670782375251865e-05 
0.0001382026248875282 
-0.0003762282478604613 
-3.299044269255742e-07 
-0.0005472040631893812 
0.0001823185745162118 
-9.835638554139093e-06 
-0.0001713894364581242 
-1.23059389708003e-05 
0.0004089477177435059 
0.0002255716772822926 
4.847770013648267e-05 
0.0001061469348363566 
-0.0001142853881182938 
-0.000114937301538093 
0.0002514799894309117 
0.0001753846710952719 
6.315398153843854e-05 
-0.0002039894491417371 
0.000358269467051213 
-0.0003028716446668045 
-0.0001756247306883432 
0.0005000951702337787 
-0.0001906146994582507 
-0.00023797979612981 
0.0005513202803221542 
0.0001293787914619023 
-0.0001444798184454246 
-2.414391342157157e-06 
-0.0001262625065111332 
-0.0001915677435626763 
-2.423346205590979e-05 
-6.665111742156642e-05 
-0.0001417588807665422 
4.265606430306205e-05 
0.0001427093250855844 
-8.701299355811131e-05 
-4.099862779712883e-05 
-0.0002439522620209837 
-0.0004044830309233589 
0.0009449827661858437 
-0.0001196888882344954 
-7.606362869534724e-05 
6.296295591883299e-05 
0.0003036657764807573 
-8.526857549410566e-05 
-0.0003529957464318972 
8.619560914629524e-05 
-4.838304509204643e-06 
-3.780953174379192e-05 
2.512309809850213e-05 
-0.0004892729451015666 
-3.89138185272335e-05 
-0.0001031700093781635 
8.307801945895698e-05 
2.383345655742843e-06 
8.985057668868175e-05 
3.631947248209216e-05 
-9.160475374467395e-05 
-1.180295872102479e-05 
0.0004554104645438049 
-0.0001057586145864843 
0.0002762095083365278 
-0.0001054652143716704 
-0.0001813760493741548 
0.0001152870487382604 
9.438063922363161e-05 
4.636086155175166e-05 
1.263048632310701e-05 
-9.578411382157692e-05 
-0.0003592905221059567 
8.693236956646233e-05 
0.000183944776364311 
-5.209787435908511e-05 
0.0003983982288295269 
0.0001208569788452105 
3.330485422799471e-05 
-3.433029390331136e-05 
-0.0005869214724658646 
5.056486932624679e-05 
-2.74987963193503e-05 
1.75242277197333e-05 
0.0003539633031299545 
8.121852920919318e-05 
0.0002565429174224873 
-8.585993192496368e-05 
4.342617814186577e-05 
-1.546531396790022e-05 
5.269171756091263e-06 
8.277157420121249e-05 
-0.0001215789876868093 
0.000150660688449513 
-2.769028827033869e-05 
-0.0003835997059996134 
-3.181030578285467e-05 
8.099753991985307e-05 
-4.870701951994911e-05 
-0.000236372463429257 
0.0004487765425376624 
0.0001795198679583441 
0.0002893997591132767 
-5.394795908470395e-05 
-7.992470894835788e-06 
-0.0001518709160253424 
-0.0001348260247613704 
5.640472370898851e-05 
5.002487287099466e-05 
7.657808872187209e-05 
1.993358887440655e-05 
-0.0003546348917621855 
7.687350951788922e-05 
-5.170142537978958e-05 
-6.704304726232726e-05 
0.0003984511323222213 
-0.0001811156558514435 
-0.0001223074514594405 
7.4367631870289e-05 
8.520255091469714e-05 
-0.0003468012509180387 
-6.201354752447861e-05 
0.0001682923820427923 
0.00018245284987021 
7.116444505112993e-07 
4.242158522962062e-05 
2.110962779838336e-05 
-3.643103426249473e-05 
-0.000370483906913247 
-0.0003173535380616287 
-0.0002267421767588948 
0.0004137140744187979 
0.0005726268056266252 
-3.333994300223061e-05 
-0.0003111478280611416 
0.0002358409683617347 
0.0003575850655866578 
-8.285065680819668e-06 
0.0002009606290899185 
-6.104421188335053e-05 
-0.0002690808724290929 
-0.0002187456363707502 
0.0001137498685546551 
1.367792355657726e-05 
6.771738157182992e-05 
0.0002294955224424367 
7.302200555293003e-05 
-0.0001189164382419273 
-1.028740517712249e-05 
-4.526598947222444e-06 
-0.000280350712544633 
-6.486994587699387e-05 
-0.0001747199832395264 
-4.043966949222708e-05 
-1.300149168682134e-05 
-0.0001004186705685534 
4.250785579242875e-05 
3.395865330679954e-05 
8.041651286325931e-06 
-0.0001418598812029397 
5.750049675126468e-05 
0.0001395551048412742 
0.0003906771491618321 
0.0001506580813638755 
-4.328242012030753e-05 
-7.534087223401123e-05 
0.000242987741844566 
-0.0003941057438230455 
0.0002976156907472005 
2.128805495698417e-05 
3.821759915804691e-05 
4.446274490356089e-05 
-0.0005301109259972112 
-0.0001488075182293449 
-0.000135386414993448 
7.694791538480324e-06 
5.066191289712031e-05 
-6.21637914560739e-07 
7.753728341832097e-05 
-4.621407174384172e-05 
-0.0002392256285801447 
6.095376165383378e-05 
0.0002935864097614369 
-0.000225551346414149 
0.0003672488026815053 
-0.0002182247725671381 
0.0003682531117323223 
-0.0001584515499755747 
0.0001044785174296461 
-0.0003347678220301134 
2.763693644292761e-05 
0.0002204414668590336 
-0.000328595604095966 
-2.869658200212287e-06 
-1.186127121175659e-05 
9.517339613343467e-06 
2.547303855761546e-05 
0.000338611839583468 
1.440201341015235e-05 
5.069639253230208e-06 
-0.0002841064590897261 
-0.0001788309071572918 
7.765260443725594e-05 
-0.0001291843421909243 
-8.909911684746789e-06 
8.975699694944226e-05 
0.000295781660101115 
-7.794386618700345e-06 
0.0001470479571667306 
-0.0001780253148092743 
0.000445309982191955 
-0.0001226897440964186 
-0.0003167163301884886 
-0.000119622026111757 
0.000503507110514377 
-0.0002368829136969211 
-8.091808756800128e-06 
9.876009320414545e-05 
-0.0003096160275102999 
1.694943132700072e-05 
2.095939348194167e-05 
-1.378442787173968e-05 
-7.391507293667803e-05 
-6.062966498693717e-05 
0.0001686685017495237 
0.0001674578343282941 
4.227676142490378e-05 
0.0001845689455929714 
0.0004125762493850999 
3.994281273654234e-05 
-3.21630342668598e-05 
-0.0002960791670457573 
-0.0003677509400261268 
-0.0001714796310663001 
6.821184827958071e-06 
-2.993264113102951e-05 
0.0003676612874706066 
0.0002719985879625813 
-8.62320088305406e-05 
-0.0001535436985488789 
-0.0001383972468007714 
-1.173424463703418e-05 
3.287361839211929e-05 
3.423895465611294e-05 
0.0002813734009858764 
-0.0002004518729453576 
-5.162201617451134e-05 
-9.577032313287702e-05 
-6.090251299847461e-05 
-0.0001303535835825708 
-0.0004051571800077184 
0.0003462949012620462 
-0.0001664109590880441 
0.000233556438851754 
-0.0002310302337798471 
6.397064710941602e-05 
0.0004398447627738189 
-0.0001130813996574842 
3.692386574974704e-06 
-8.071914403338187e-05 
-7.195245448364229e-05 
0.0001252535890007351 
0.0001413926560844516 
-9.549205032843975e-05 
4.565797816552558e-05 
3.674852718366218e-05 
5.742184146950924e-06 
-0.0002807479700952414 
-0.0004240587213749906 
-0.0001289781272641893 
0.0005401104659308952 
-2.62226289697004e-05 
3.475395833695469e-05 
0.0001090276483305827 
-0.0002465432248779728 
0.0001927507082647254 
0.0002363476769104353 
2.420316358366448e-05 
1.69700370958627e-05 
-0.0002573535047712609 
-3.29817106351895e-05 
4.111331047171824e-05 
-0.0001232756901246881 
6.79521673149438e-05 
-2.141218133442067e-05 
-2.42067075874076e-06 
8.913888956061603e-05 
-0.0002201917983480715 
-0.0004814800953626101 
-0.0001228602307224566 
0.0003147314168530644 
0.0003757380768443087 
-0.0001685018283714799 
8.644659100608339e-05 
0.0006193167425228421 
-0.0003007874106105636 
1.298399956097376e-05 
-0.000176942109836669 
-5.351529443291817e-05 
0.0001493006463510963 
-0.0001123252143637949 
6.322928127835955e-05 
3.715058794921457e-05 
-0.0004568760972183026 
-0.0001334190916509948 
-7.035098132181128e-05 
1.755069777163223e-05 
7.362623125705843e-05 
2.005337132780116e-05 
-0.0002337654073346068 
5.075753939374489e-05 
4.269334814159156e-05 
0.0002282833987016033 
0.0001310600816303172 
1.519292893864199e-05 
-2.195490118451007e-05 
6.269771040842409e-05 
0.000142547511869495 
-5.96733405535217e-05 
-2.56393261689084e-05 
9.899112250862376e-05 
-0.0001628209817324599 
0.000671531547876901 
-0.0003628567287957198 
-2.614479108236085e-05 
-0.0001240312514768175 
5.39322785871413e-06 
0.0001777295507205894 
-7.997399714474948e-05 
1.285796785753364e-05 
-0.0001903957740989357 
0.0002410679130397549 
-0.0003029045072014991 
-0.0004421558277623404 
-9.595624896623631e-05 
0.0001562377481190158 
0.000186620901372494 
-0.0001195286372093882 
2.398504886273808e-05 
0.000112897052648856 
-0.0002781500124492543 
-2.724371240752048e-05 
-5.459534882968491e-05 
-6.668151369966423e-06 
-0.0001158641158318328 
0.0003627321970351311 
0.0002375386010812869 
-1.651393040232028e-05 
-1.238577527131844e-06 
-4.051302164067106e-06 
0.0001408035791378309 
7.976271005922023e-06 
-0.0003005511026292492 
0.0004575139744982286 
-0.0004125179069573003 
0.0001841186680936764 
0.0001606753530233094 
-4.646414741813615e-05 
0.0002146503911946124 
-0.0001018244585068403 
-8.238274583647533e-05 
-3.42597710784873e-05 
-9.330016632746231e-05 
7.770332726401935e-05 
-0.0002134259396159873 
-4.535102616254351e-06 
5.417036578967273e-05 
-5.70106430268502e-06 
-0.0001929511695915802 
0.0003391262099365222 
-6.511774045987562e-05 
4.379342987622262e-05 
0.0001477561920188837 
-5.539700509694931e-05 
-4.350478364052492e-05 
-0.0001516248853575967 
-2.823760887306601e-05 
0.0001843679410874819 
2.566724588640457e-06 
-8.565050717810645e-05 
7.093017241744779e-06 
8.521138831026608e-05 
2.375215020319377e-05 
-3.978419496679051e-05 
-0.00026798402604211 
0.0001054405070283781 
0.0006894586043288995 
-0.000397643077131399 
-8.99758772880465e-06 
8.583833800008719e-05 
-7.648959450424422e-05 
-0.0001308658703914234 
0.0001686290474415762 
-4.163636985229929e-05 
-0.0004677581630424706 
-4.22219981140303e-05 
0.0004057515125711782 
-0.0001772773750565844 
-0.0001350873220971467 
-8.244591181621018e-05 
-7.242636031130296e-05 
1.217015167102934e-05 
0.0003188983428185052 
0.0003873130511568062 
-2.205319282555236e-05 
5.926735210126436e-05 
-0.0001024958232801149 
-0.0001508897225856851 
-1.215780148126169e-05 
-2.542763407312736e-05 
0.0001872633014371198 
2.153591856229127e-05 
0.0001562512953485621 
0.0001284674580674851 
-0.0001099655281813354 
-0.0003771926893449686 
-3.159894022012506e-05 
-5.29499101299457e-05 
-4.946477902237792e-05 
-2.306937517754286e-05 
-8.237345259819207e-05 
-0.0001029069764777411 
8.218982836115586e-05 
-4.456072569774066e-05 
-2.622799974380979e-05 
-0.0001196183867677728 
9.840314008073081e-05 
4.330214447201359e-06 
2.281157079662017e-05 
-7.291250618231618e-05 
0.000400375966240262 
0.0001275788451154749 
3.282727198329792e-05 
0.000126276156148667 
-0.0001364888663400098 
-0.0002759165817575273 
-5.16390331368555e-06 
-9.668684233429253e-05 
-1.121484050555529e-05 
4.100762886261178e-05 
0.0001470736804139894 
7.191875056348078e-05 
-3.738733898805632e-06 
-0.0001305841643867711 
0.0001723160007250088 
-0.0001168938395413441 
-0.0002651937103374407 
0.0003457243133676015 
-1.79452863749528e-07 
-1.2099399174014e-05 
-1.903082155295366e-05 
4.317189121615437e-05 
-1.215002439961193e-05 
8.59449651123505e-05 
-0.0001088103344559046 
0.0001997179106366441 
1.683857972785555e-05 
5.132514854603036e-05 
6.996774950042682e-06 
-9.484058054792497e-05 
-0.0003422478455946433 
0.0002453584827736578 
-0.0001138423032234354 
0.0001838535218733848 
-0.0004071155933779096 
-7.201788021976845e-05 
0.0002046201398205395 
6.156491106214555e-05 
0.0001048840383081331 
-5.469948916996735e-05 
-1.755349906324544e-05 
-0.0001048654931896524 
0.0004898433639724365 
-0.0002288238104933415 
2.957571794604897e-05 
-1.141726197291012e-05 
0.0001217082157036205 
-0.0001288822541100941 
-4.310890056126355e-05 
-4.844988500554945e-05 
-0.0001215155397878151 
2.872839329433643e-06 
2.794838369790212e-05 
-5.213424120139734e-05 
-5.068833659916477e-05 
-8.405929822909546e-05 
-1.325151635588828e-05 
0.0002012824530761163 
1.049887038660568e-05 
0.0001621394806867268 
-0.0002116850748118842 
0.0001694106054228767 
-0.0005433796670678002 
0.0001110482951952741 
0.0001549055283196447 
0.0003666137309623448 
-9.617318911562375e-06 
-0.0002685884133314041 
0.0003609814488231604 
0.0001025319298271732 
4.160688331496017e-05 
-2.181402172508787e-05 
0.0001495083003525011 
3.354834121105806e-05 
8.74525622839229e-05 
3.088845242690674e-05 
3.361537152186088e-06 
-0.000148149498716669 
-0.0002964014142353271 
-0.0001153633149664924 
4.556234324509615e-05 
-0.0001002454971011967 
4.1464213575238e-05 
-8.099454767536689e-05 
-3.824596765869639e-05 
4.809841899910458e-05 
7.521076102907955e-05 
0.0001051889158398405 
-5.226560642064698e-05 
-3.453279155464277e-05 
5.004970824022062e-05 
-7.913706103773223e-05 
-0.0001089915096581398 
-4.017619814504136e-05 
0.0002707356874602679 
-9.047267247913532e-05 
0.0002194199810242409 
-0.0001992214121586448 
-0.0001401828596466029 
-1.565593384998747e-05 
-2.220569370355613e-05 
-0.0001548074018380683 
-3.652347490842921e-05 
0.0002723267890266112 
-7.392645063900209e-05 
1.968164291849432e-05 
-0.0001526249525603213 
0.000797870199286267 
-0.0001465412485123279 
-1.952781967010793e-05 
-6.19885729782836e-05 
-0.0001165314089929585 
-0.0001019213974766945 
-0.0001083025031618768 
9.095687061302871e-05 
0.0002574037334429802 
-4.397179003058669e-05 
-0.0002927276049339615 
-0.0001818365729817429 
-6.018223757296e-05 
0.0003860057070359164 
8.100763712599215e-05 
0.0001276254731956633 
0.0002157098771601082 
0.0001186988708926894 
-4.548072402435411e-05 
-0.000160790598720531 
-0.0004487303093507596 
0.0001371661516502837 
-5.084797047788527e-05 
1.500126819163019e-05 
-9.137782379010093e-05 
-3.523862924166676e-05 
0.000506357502133751 
9.35534286440426e-05 
-0.0003994230722244294 
0.0002782323551658679 
-7.364938022498542e-05 
-0.0001114553680636984 
-0.0001005393930205256 
-0.0001474655206524475 
0.0001092766742940011 
2.410313385494369e-05 
-1.260821819090489e-05 
-0.0001534029675533557 
-6.101669672895273e-06 
6.393898118980213e-05 
4.771135782880749e-05 
-2.696719019257679e-05 
0.0001962738580705685 
-0.0001125234361389399 
8.33926521371187e-05 
0.0001969531293276966 
0.0003135277685094362 
9.371362324182004e-05 
-0.0001671824062309186 
0.0001385763875662194 
-1.660766688879131e-05 
-0.0003410307190161384 
0.0002727940878396342 
-1.656053373897637e-05 
1.738651390901705e-05 
-0.0004954650016427117 
4.082427669211441e-05 
-1.36756066538297e-05 
1.279743558223817e-05 
6.327058163016156e-05 
4.143792111163781e-05 
8.043663940686196e-05 
-3.573834089940995e-05 
0.000307990421591169 
-0.0007813166345808635 
-0.0002200029768195959 
1.543661830930699e-05 
1.455180079735458e-06 
0.000314821265996266 
4.863624257113562e-06 
-5.526297880086305e-05 
0.0001533791901279838 
-5.25755321761048e-07 
0.0002049196662902035 
8.515063531081625e-05 
0.00039154923506241 
-0.0003616911470614218 
-0.0001211855817128351 
-3.602408540883061e-05 
0.0001043679116166551 
0.0002509027085483672 
7.976817624987144e-05 
0.0002704247551770378 
-0.0008045011683258923 
-0.0002703898807161054 
0.0004222295198782041 
0.0003708329594095702 
4.33347888837904e-05 
-0.0001806146537417834 
5.861038627648097e-05 
-0.0001303878168961433 
-2.02085206184691e-05 
-9.04654005897919e-06 
-1.893251615981267e-05 
6.836526577597982e-05 
-8.794662376402977e-05 
-5.879426974205782e-05 
-0.0002048940361834723 
9.186316901654498e-05 
1.144776781963893e-05 
-1.031144561236486e-05 
-0.0001897173191432695 
-7.670594230322168e-05 
-9.17567188556348e-05 
0.000100848362418683 
0.0001811651785275053 
-1.737410509362706e-05 
2.844583028771081e-05 
3.850815980034595e-05 
3.466904864906212e-05 
-0.0001997252675248238 
8.7472015342935e-05 
0.0003570124634195649 
-6.51012826408653e-05 
-0.0002041272519813559 
8.877725771184497e-06 
0.0001820402630654988 
-0.0001512475893352784 
-0.0002035769124709565 
-9.239215632616725e-05 
-0.0003394713199619654 
3.773798071967338e-06 
8.230936757477583e-05 
8.781304388897359e-05 
5.227732448169705e-06 
3.77159821798958e-06 
-1.206926790890028e-05 
-0.0001009092218639388 
4.829975334431628e-05 
-5.913147187222151e-05 
-9.028094669322118e-05 
-0.0001147803751473479 
6.396404245821464e-05 
0.0004576340563230861 
-4.619719260570939e-06 
4.900159671696228e-05 
-9.536889132806157e-06 
0.0003770266690258076 
0.0002679678601430284 
-2.289912148839082e-05 
9.096609134171045e-05 
-0.0001170432384223055 
-1.341406365122951e-05 
0.0001476804926853744 
-0.0004394161923272404 
-8.820027114641129e-05 
0.0002439887641565077 
0.0001317074241943646 
3.196954373335372e-06 
8.5146122683183e-05 
-0.0003529352987043393 
0.0002851525338022159 
-3.99862738152251e-05 
-9.385556646213789e-06 
-1.547746382184807e-05 
7.137828977194516e-05 
-7.964087206883381e-06 
-2.436870146829473e-05 
-1.600639766582735e-05 
4.745624597354773e-05 
3.609901032317006e-05 
-0.0001278954356181189 
-0.000324400468887185 
-9.513789282472935e-07 
-3.198017356924382e-05 
-8.280039447806997e-05 
-8.683781554016935e-05 
-0.0002171184888757562 
-3.879865844609578e-05 
-1.110051962735384e-05 
0.0001108246734008432 
-0.0003368605600446606 
-2.15318564494688e-05 
-0.000119239195566816 
0.0001268991017661323 
-0.0001740072462520475 
-0.0001849409308794121 
-0.000120197759366717 
-0.000397909650112096 
0.0001654845544030811 
0.0001308915768078631 
0.0001914638322924636 
-4.892401403238151e-06 
-0.0002747124947961506 
0.0003018244831250761 
0.0003154266420192274 
-2.591137661591244e-05 
0.0002660709596308061 
0.0002640824548259937 
-4.108418058789077e-05 
-0.0001357101350332619 
0.0003813658336538097 
-0.0001939301660614273 
0.0007903667545341981 
-0.0001288944223381857 
-0.0003520845074676632 
-1.23731431414396e-05 
-0.0001901266104970346 
-3.800773022376281e-05 
-5.159752640178275e-06 
-1.908489364159528e-05 
5.292449826476594e-05 
2.386914928101857e-05 
-9.471377337353083e-06 
1.786294757633731e-05 
-0.0001144212085237452 
-0.0002343340040331658 
0.0001649423993470536 
-5.063304673384726e-05 
0.0005332275590019188 
1.780048909040678e-05 
-0.0002104134809424844 
-0.0001587441526267796 
0.0002631392209839343 
-0.0004302353311821205 
6.476877225774349e-05 
9.757269772335955e-05 
2.402761887247682e-05 
-7.594358219301594e-05 
-7.763041581492427e-05 
0.0004145861194069388 
0.0001343580492226846 
-0.0001680333412373311 
-3.961054835386992e-05 
-0.0001977054599007089 
0.0001533892265938194 
-2.023127407731131e-05 
8.427479410259141e-05 
6.44949373933941e-05 
-0.0002809609883388573 
6.643211131945209e-06 
9.286460749714814e-05 
-0.0002644084415050793 
1.022193127586962e-05 
-0.0001782207744772003 
1.059725953547622e-05 
3.16848744406598e-05 
0.0001214657584084927 
-3.479665065006139e-05 
2.907834817922323e-05 
1.752723547243254e-05 
3.604428696767038e-05 
-1.861614639447457e-05 
-0.0001511724511845041 
-9.956823141594881e-06 
7.864026837837969e-05 
-7.461242603492263e-05 
0.0001469141326625043 
0.000164028766153915 
0.0003010336866987407 
7.763694203689653e-05 
-0.0002114942865877214 
-6.333086617285757e-05 
-9.492371870932175e-06 
1.599445629099463e-05 
7.486495114297718e-05 
-0.0005124121999843525 
0.0002266634531488512 
-0.0001790592800639572 
-0.0001297413899073673 
0.0001216762397854543 
0.0002422397537729122 
6.340598879952865e-05 
-0.0003560049847672405 
0.0001395018207729485 
0.0002196451048708689 
0.0002558801651935614 
-0.0006330948937871909 
-0.0003333740487067492 
0.0001826094007713965 
0.0002931502899515872 
-9.175986148389706e-05 
0.0001670095677568569 
-0.0001779834278389389 
-0.0001402275007495774 
-6.507770736956252e-05 
-2.634052276110796e-05 
7.527329487687079e-06 
-5.089071377552919e-05 
-1.039405077746169e-05 
-6.508812840004975e-05 
-2.796190962215171e-05 
0.0001449253610668184 
-0.0001036142476557902 
1.857139978214701e-06 
3.314602227712235e-06 
4.388223777200015e-05 
-0.0002279590439611391 
0.0001863128252206679 
-0.0002136823119001518 
-8.54313773402258e-05 
0.0006913074458122978 
0.0005320413421816026 
-0.0002322649236095603 
-2.54614588479862e-06 
-0.0002074569904441459 
0.0004086118701498006 
-0.0001766448714725884 
0.0001306363805053147 
0.0001774956691684969 
0.0008159976315420201 
0.0003116412378266674 
-0.0004261977747539882 
-1.613646157251296e-05 
-0.0001196818492783551 
0.0001591187739481376 
-0.0001834399753969816 
2.838904073657599e-05 
3.613381029603488e-05 
-0.0002348445722058364 
-3.288050376278948e-05 
2.071872246604163e-05 
-2.761410209316069e-05 
-0.0001612465495213086 
-0.0005155044432680605 
3.522504175229334e-05 
-4.165266656241747e-05 
-3.550368850021522e-05 
9.132656218867608e-05 
7.592469790029169e-06 
1.169249008497961e-06 
3.442889638005242e-05 
6.898963586116631e-05 
3.107362111760696e-05 
-0.0001173703394906581 
-2.646861038648329e-05 
-1.063638135481472e-05 
0.0001768002546254476 
4.369796562483652e-05 
0.0005115386755030615 
-8.242318520339871e-06 
-5.771225687932289e-05 
-0.0001309230525082642 
-0.0003220841473247841 
0.0002700474160875451 
-0.0001113089629470821 
-0.000160581944754724 
-0.0002221154023565936 
-4.454427849590009e-05 
1.887722076484282e-05 
-4.179523207238155e-05 
-4.505171749436933e-05 
-7.393066369627968e-05 
0.0003011267887143181 
3.579645715837851e-05 
-4.940871418365279e-05 
1.77082765321586e-05 
2.427932465620035e-05 
0.0001646199224631301 
-6.97650817479275e-05 
-9.265588595614676e-05 
0.000510581366700747 
1.033168435473573e-05 
-0.000169730891601026 
5.524618250140704e-06 
-7.814056080364207e-05 
9.489726547676623e-05 
-0.0001529954308330055 
-0.0003295718620637696 
0.000571821109741816 
-0.0001549718571182942 
0.0001675351120426541 
-9.277331407400597e-05 
8.079847229127949e-06 
3.04314098932725e-05 
8.375437403904558e-05 
-0.0003462212456809081 
-5.846033171153443e-05 
-0.0003136676665845498 
0.00033676545553498 
-0.0003426516904494167 
-3.553999367678347e-06 
-8.857545471860875e-05 
-4.71260801425653e-05 
-6.383848755242887e-05 
-0.0002333894385751837 
-7.630376867686048e-05 
6.608483678259039e-05 
0.0001193267368355037 
-9.376075961050398e-05 
-1.537630783178551e-05 
-3.829057954418632e-05 
2.162630749191436e-05 
0.0005392691068629968 
-0.0001514976524738555 
-0.0001484319237150708 
-0.0001200267877352252 
-0.0002880279700727933 
0.0004375130888692476 
0.0003200067629854115 
0.0004170553826516623 
2.407776125588828e-05 
-0.0001107432818032561 
-0.0001901674814997152 
-5.029469488412302e-06 
-9.703327953656257e-06 
6.757248422988902e-06 
-0.0004826832614298609 
-3.67870681111773e-05 
0.000586784005931701 
0.000130617349805263 
-1.747418293193835e-05 
-7.118763658062928e-05 
-0.000108114918231973 
-0.0002084167360278015 
0.0002793650213523219 
-6.046398394289623e-05 
-0.0002151202451311856 
-0.0001397400352956342 
0.0001264689450037113 
-0.0002480582075895166 
1.635582306754398e-05 
4.69053247753718e-05 
3.276155294762575e-05 
0.0001968854707066708 
9.572968246277221e-05 
0.0002446428459199537 
6.765398922439052e-06 
1.445813224198324e-05 
-5.831670481868599e-05 
-0.0001269415041639343 
-0.0001114130677945199 
-0.0003911500746766405 
-9.820205786102514e-07 
-5.698750547621267e-05 
0.0001622894746646715 
-4.262280691469676e-05 
-0.0002179168243198998 
6.321436607115411e-05 
2.534487065526418e-05 
-1.203971973740109e-05 
5.932707973932538e-05 
5.288112181100543e-05 
-4.966409869051278e-05 
-0.0002281485033576043 
1.008259733822687e-05 
-9.098691115376249e-05 
0.0005225636893804737 
-3.803436045181641e-05 
-1.510817893927086e-05 
-0.0001075092361275253 
5.108720338724265e-05 
-4.578493333396638e-05 
0.0001053620636054455 
-0.0003408735341800637 
-0.0002107851115295412 
-0.0001156152442381406 
-7.412959706073314e-05 
0.0003368083087331781 
0.000124938997609766 
0.0002008673382289849 
0.0001438545024036141 
7.717878003731627e-05 
0.0001278070997738363 
-6.798387909741585e-05 
0.0003317257595713181 
0.0001487938001401499 
-0.0002240025131709712 
-8.056516132694188e-05 
-0.0001850167963435472 
-0.0002608268355626103 
0.0001566567383301833 
4.439727495987781e-05 
-1.817886619613526e-05 
0.0001787951828504204 
0.0005105913951219246 
0.0001603406284860106 
-0.000191978204818678 
-6.695935423603808e-05 
-3.291116543652759e-05 
-0.0001130285235894325 
-3.380942072411328e-05 
-5.681832475295985e-05 
-9.376075961050398e-05 
1.534377376489209e-05 
1.054675694247126e-05 
-0.0003215420183862792 
-0.0001452977052238439 
6.150203877784466e-05 
0.0001931400591562715 
-3.27984478142001e-05 
2.850116394628291e-05 
-0.0001414139402891271 
0.0004630105365237532 
-9.696794849654255e-05 
-0.0001142164108224303 
-0.0003576123353719886 
6.116512206233705e-05 
8.956806759114509e-05 
1.718709308899097e-05 
0.0001306845869384192 
1.814009941641124e-05 
0.000204008402927589 
-0.0002010999027253562 
1.536576713300209e-05 
0.0001318816677786954 
1.474813231239127e-05 
7.957959735367693e-05 
-0.000128007193708565 
-4.506910008526185e-05 
6.802600849426806e-06 
0.0001705758169631311 
4.389664955692215e-05 
0.0001520643206833226 
7.56336218129114e-05 
0.0004468631604467087 
7.440932129387401e-05 
-0.0001508503231359024 
-9.103090228038589e-05 
-9.98476198288451e-05 
6.507257110622418e-05 
8.059105748107247e-05 
-0.0002476982111165099 
-2.661680931992585e-05 
-0.0001271847096916073 
-0.0002108641559722895 
-0.0001153989933856048 
-5.168856750090786e-05 
6.964515827381234e-05 
-1.380466777206755e-05 
0.0001435943533465395 
4.652470913151663e-05 
0.0002699041953223457 
1.474013403116373e-05 
-0.0001171199913747924 
-0.0001071904919670383 
1.617104649516117e-06 
-8.651084727953194e-06 
-0.000171914883195136 
7.092393259305764e-05 
-4.284350638645392e-05 
0.0006941691240994022 
-0.0001578483901284443 
0.0001284199151701062 
6.259890197215492e-05 
-0.0001406276751161413 
-1.304248650775806e-05 
4.699825565461582e-05 
-9.232421159009068e-05 
-0.0002800399031479992 
1.259981834733653e-06 
-2.142486524250132e-05 
2.033284259734841e-05 
4.598046286852328e-05 
-0.0004562385965625341 
0.0002277871441760167 
7.099414309231567e-05 
-6.378170784595812e-05 
-0.0001469485914425551 
-5.642047313264728e-05 
0.0001777500784788521 
-0.000208970233322927 
-3.743688543243395e-05 
-8.445459547705987e-05 
-0.0001460765872789407 
-0.0001035820481415078 
8.217359510683916e-05 
-0.000190018201681111 
-4.03566562642322e-05 
-3.278610936088839e-05 
0.000324375218325878 
0.0001094871360026666 
7.632756459974833e-05 
-2.387787205721271e-05 
0.0002157360023210889 
6.545641099623468e-05 
0.000131346508433541 
-0.0001246152415135645 
0.0002107126675104921 
-0.0001387606224021114 
-0.0002045466310233691 
-1.765721564593029e-05 
-0.0002904910315128359 
0.0001696933403060488 
-5.391674080975201e-05 
-0.0001935453506800788 
0.0001378635937733771 
-0.0001113171751826446 
0.0003713047180616013 
8.997189669219606e-06 
-3.637902097159852e-05 
-1.716697215428474e-05 
0.0004882257793504233 
-0.0002166712163934091 
-8.02672726603457e-05 
0.0001718682446576759 
2.449487715939458e-05 
-4.921873437948106e-05 
-2.987919421318524e-05 
-4.982641091957409e-05 
0.0001197503360479565 
-3.146552290549658e-05 
-1.783250632552208e-05 
0.0001165773745496392 
0.0001467872197730217 
1.357345022705892e-05 
-5.692066168864665e-05 
0.0001105263442646675 
6.664664282662194e-05 
3.953970367796668e-05 
-3.861751739332097e-06 
4.7154397035534e-05 
0.0001181727472245954 
-0.0004713026884743144 
-0.0001197081060904092 
0.00012437198726835 
-0.0001373124239917976 
0.0003050794158969694 
-6.791020753366105e-05 
4.854429513530295e-05 
8.425711936751491e-05 
-0.0003269070367669879 
-0.0002917618310468682 
-4.945553666055816e-05 
5.191808657352356e-05 
-0.0001326785387683443 
-8.757895346254275e-05 
-7.771286079224097e-05 
-4.008591559045038e-05 
0.0001485670221157454 
0.0001259981224919183 
0.000170733807627598 
2.186572336763794e-05 
-0.0001559075848849533 
3.409276573427723e-05 
8.52661704540821e-05 
-2.690872844702389e-05 
4.53481073514106e-06 
-0.0002089238076649117 
0.0005574059897643209 
-0.0001837352297952915 
0.0003260531946527861 
-0.0004699303610568082 
0.0001327691671187112 
-0.0001714917079661213 
0.0001740299008744025 
-6.103397454092429e-07 
0.0001730615768504005 
-6.694447310636302e-05 
7.639663525337016e-05 
3.408834033090106e-05 
-0.0001246755419757911 
-5.55298851179754e-05 
-0.0001855795283256913 
-3.503831128302987e-05 
-6.818071328876468e-05 
-4.766586679508733e-05 
-0.0001027752997754918 
-1.183886094750063e-05 
-0.0001678162120849902 
-7.734928963556778e-05 
-9.041191831330476e-05 
-2.223333634430236e-05 
0.0001320941328369359 
0.0001635684332091798 
6.212894616946095e-05 
-7.224621541720946e-05 
0.0002141775380371912 
0.0001107067276979832 
-0.0004593606481937984 
-5.258207939272791e-05 
7.492416638687357e-05 
0.0004144274808353269 
-0.0001916921671423515 
8.06171946784786e-05 
-0.0001010338247930906 
0.0001930196853508381 
-6.185671094961011e-05 
2.374674430596054e-05 
-7.230331570713637e-05 
5.817480870841381e-05 
-3.912385679428239e-08 
-5.794449085868036e-05 
4.691493688904257e-05 
-8.552263034154217e-05 
8.004890576544961e-05 
6.065700687025951e-05 
-1.526588451910145e-05 
-1.843583658046767e-05 
0.0002629613097848819 
3.390006055107354e-05 
0.0001860203686292422 
-0.0001781478479758925 
4.97927133586594e-06 
-0.000179576392989698 
9.720382492552302e-07 
0.0001250964487306507 
0.0001299669132042515 
-0.0001041916818956004 
-4.148585158344315e-07 
-0.0001009769875571019 
-0.0004546858666224615 
-1.45736085852082e-05 
-9.077831050972152e-05 
-3.932204125171649e-05 
4.860395217740437e-07 
-2.419541810782068e-05 
-0.0001352659019733385 
0.0002606991342186092 
-4.46949215134298e-05 
0.0004134349982366291 
-0.0001196101394065167 
-0.000103337631043888 
0.0001360735861174495 
-1.237602528688369e-06 
-9.72180261355141e-05 
-0.0002051703300423565 
0.0002269153810828339 
-1.673393422826817e-05 
0.0001723306204741095 
4.015659790339528e-05 
-0.0001955899672437399 
0.0001585187688586873 
-7.825484800737213e-05 
0.0005031797229340673 
-0.0003891988412959752 
-3.142155488248661e-05 
0.0001029677088710478 
-3.279043275524097e-05 
0.0001267537597203366 
-0.0005952225446250042 
-7.293143074059267e-05 
4.552601679235984e-05 
1.08977624838238e-05 
-7.594477971223203e-05 
-2.694055222052712e-05 
-7.909437974644794e-05 
0.0004986701452323244 
-0.0001346690265163576 
-0.0001492626976289963 
8.378392931841817e-05 
4.341179436749373e-05 
1.739525210489704e-05 
-2.037533609709586e-05 
1.750145626079841e-05 
-3.557732072272824e-05 
7.679359050698291e-05 
0.0001993102950737701 
2.187290282281688e-05 
-6.017743829095704e-05 
0.0001130627746044425 
-5.708249469681104e-05 
-0.0004530399830464467 
5.730064486780132e-05 
-0.0004617516392156387 
3.024924062689953e-05 
0.0002577989461549933 
-0.0001217801370679918 
-9.13639122802714e-05 
-0.0001145864527933616 
-8.480984050799969e-05 
-0.0001313999106823814 
9.088587684596919e-05 
6.134002975871689e-05 
5.769110453955986e-05 
1.326286552890615e-05 
0.0002075121431956741 
0.0002036934618438674 
6.782088490696679e-05 
0.0002456465265604834 
1.185945441132652e-05 
5.449903901107114e-05 
0.0002136537528122844 
-0.0001129564327034734 
-0.0003215914897932691 
0.0003838750341060031 
-0.0003861440920118827 
3.097693288089831e-05 
-2.874306165273199e-05 
8.944648870447673e-05 
9.971232423992572e-05 
1.253857846822112e-05 
0.0001226779037692668 
2.099455119524163e-05 
-8.132498483981643e-06 
0.0002463024208285587 
-4.198850808977427e-05 
7.681925177939927e-05 
4.285297605100298e-05 
-7.314467224470844e-05 
3.374349753320282e-05 
-7.021810437979631e-07 
-6.453767630806013e-05 
-5.344196337442813e-05 
0.0001526277494020855 
-5.793822393535633e-05 
0.0001038707867465702 
4.110920805983556e-05 
0.000131321245148131 
2.549110636988199e-05 
1.744738986055046e-05 
0.0001387369754628038 
1.965566918725993e-05 
8.099903028320379e-05 
6.050277221874461e-06 
6.714009848548456e-05 
2.73736138695069e-05 
-0.0003212856981845186 
-6.538313281434372e-05 
-0.000507574217400149 
2.463105379246792e-05 
-0.0001721255831598586 
0.0003142508085100386 
0.0003221661087974712 
-0.0001037139111869012 
-0.0003773521684903462 
-3.391290072073395e-05 
-7.371288949825232e-05 
5.503300695854274e-05 
1.56815750199073e-05 
0.0002010147144887814 
0.0001737178609363755 
1.003793188172856e-05 
0.0001251316544164592 
-9.257484541401165e-05 
-0.0001690490790107265 
-6.176121176697054e-05 
0.0001016664969004109 
0.0001687572589811222 
0.0001656385001127595 
-0.0001854510746961633 
9.86845219244605e-05 
0.0004370357328065062 
9.874087186214118e-05 
-0.0001137024773477424 
3.269122550443749e-05 
-7.749048252187931e-05 
3.83443224496128e-05 
0.0002207911437880532 
-7.16503740497356e-05 
-0.0004934823644709247 
-0.0005109302021977893 
7.78974629956582e-05 
0.0001035503720425723 
-4.901348507042012e-05 
-0.0002399353253086953 
-0.0002953273567103106 
0.0003688482483879303 
-0.0001098447596389257 
0.0001988237715715143 
5.82797327100027e-05 
0.0002385755834781444 
0.0001113186850097189 
3.519896007226686e-05 
-0.000109803917928467 
1.606671858215072e-05 
-9.425060585466798e-05 
0.0002872998601154018 
6.218979087005733e-05 
7.272864964571369e-05 
7.358532018353463e-05 
-0.0002121784442792547 
0.0001055278647906355 
-0.0001253215079260551 
3.011734042316077e-05 
-6.92443879866082e-05 
-0.0003475933894727863 
0.0001849065574028292 
-0.0002265984873491846 
9.442948236234113e-06 
0.0006494880142863463 
-0.0001020912749407862 
0.0001269751656476924 
-6.656248669852034e-05 
-0.0002100048360252068 
-0.0002693678271558663 
-8.456608810111577e-05 
-0.0001292050315656311 
-3.853958449889866e-05 
-4.008350093032683e-05 
-0.0001956255828405704 
1.945082394754514e-05 
0.0004473982380970954 
-4.74035987983181e-05 
0.0001090673121477927 
4.627087471676463e-05 
-0.0001954155663252579 
-5.201048198976274e-05 
-0.000187934753847554 
-0.0004184753446052337 
-0.0002847545504436524 
-0.0001685250944674966 
0.0001339515368361379 
0.0001910452491631291 
2.263770943234084e-05 
-0.000436708282970998 
-5.50555123526913e-05 
0.0001598596973488581 
-0.0001023658417445082 
-2.14195522948075e-05 
6.72100493628681e-05 
3.527578091586933e-05 
0.0006254749300158751 
0.0002598648437532672 
1.752468663160389e-05 
0.0001367612762352809 
-5.779507863125515e-05 
1.34377013598659e-05 
8.94539437198133e-06 
-1.864022673222533e-06 
-0.0001335759129101737 
9.002190523233442e-05 
5.524757386807084e-05 
-9.745030681834125e-05 
0.0002579722276374201 
-0.0001499310615668767 
0.000111802852932221 
9.361247685510137e-05 
-0.0001184451862319358 
0.000293812395429192 
1.328744700564648e-06 
4.329136631495126e-05 
-0.0002432189701306181 
-5.164940599525532e-05 
-0.0002073003081015823 
-4.898087156835696e-05 
-7.032406040443761e-05 
-0.0001830257254389441 
1.293179528516513e-05 
2.365949435021061e-05 
-3.742110799957384e-06 
1.700469433576425e-06 
6.743745490905254e-05 
0.0001507834588726418 
9.772002785582875e-05 
-1.290405485664224e-05 
0.0003487941589529032 
3.716111509784018e-05 
-0.0002337852698801653 
-0.0001100980773136783 
-8.589999422844589e-05 
-1.899358821024781e-05 
9.559844161586331e-05 
-3.183622989201016e-05 
-4.757654012943715e-05 
-4.115748606308114e-05 
2.065101233472493e-05 
-3.424361411523796e-05 
2.479776667137965e-05 
6.419482625955399e-06 
5.347491479339971e-06 
6.313171665367854e-05 
-2.119927592410337e-05 
5.327324007962884e-05 
0.0003009496903210291 
-9.521896155398594e-05 
2.339635184600618e-05 
5.150509212597508e-05 
0.0001041082369531125 
0.0001940114980967879 
4.915714813058766e-05 
-0.0001359722154789752 
2.133427539604941e-05 
-0.000123533869070001 
2.831367070004811e-05 
2.143945493650752e-05 
-0.0001572352485851401 
0.0002866352840271878 
-0.000579013821780317 
-1.536165146090976e-05 
9.42472486481966e-05 
-6.37224572007692e-05 
0.0004003284991319479 
-4.580611808057505e-05 
-0.0002357436215649102 
-0.0001279934464775948 
-0.0003351224561064748 
0.0001029834595858412 
-0.0004535612045678069 
-0.0006279838615100038 
-0.0001711747901295999 
0.0002025688674748931 
5.372254652009997e-05 
0.0003646923765732437 
-0.0001295655309523759 
-0.0001293246468782929 
-6.791170530147458e-05 
0.0004539396384555573 
0.0001558619598614386 
4.768057233126247e-05 
4.274092008839679e-05 
4.590486980986582e-05 
0.0001236785577856859 
0.0001621711136914873 
-7.271086608602259e-05 
-0.0001444144496897008 
-0.0001231735736982253 
3.581902350381249e-05 
0.0001750726462337641 
3.901392046995509e-05 
-0.0001192455984100875 
0.0002024806302514296 
-8.564986713580541e-05 
6.540125824331647e-05 
0.0003307671280301888 
-1.986422701509111e-05 
-0.0002816751758551485 
0.0001821472970989775 
0.0001763914735116914 
-0.0004236454650093037 
-8.960710843079029e-05 
1.88361169734123e-05 
-2.238856692440083e-05 
9.567637431675142e-06 
4.704599021217636e-05 
-0.0001350004669065926 
6.588794693856852e-05 
0.0002548769306431939 
-0.0009480394403998224 
0.0003509400111722354 
0.0001423831850090519 
8.83430566248984e-06 
2.936375710620339e-05 
4.25907909075502e-06 
-4.378773025967641e-05 
7.734347815999266e-06 
-8.98409058628046e-05 
-3.088247987349263e-05 
6.811953187864568e-05 
-0.000114560017876238 
-6.623998316976346e-05 
-1.785822476878225e-05 
-4.744291060341594e-05 
8.981818261778568e-05 
0.0001463542051967681 
9.929664184982456e-05 
0.0003710719718343862 
-7.765788401348284e-05 
-1.359151073391342e-05 
0.0002550302125607174 
0.0006209756773210432 
-3.100596650954834e-05 
0.0001242752437288977 
-1.61089502122363e-06 
2.853143398457825e-05 
4.92043798990227e-05 
-0.0002294286791062263 
0.0002838691108430338 
0.0001516709444824544 
7.715149595935768e-05 
-0.0002644914813481152 
2.847392810400876e-05 
-4.446090540568703e-05 
6.558762271803884e-05 
1.691258025767262e-05 
3.469717980950785e-05 
0.0001759442769439672 
-0.0001803154195528157 
-0.0002022391064478737 
-0.0003144113505998631 
5.579150746381843e-05 
-2.557000929263431e-05 
-4.900747650036391e-05 
2.422854325536095e-05 
1.332619910974234e-05 
2.50901438105352e-05 
-3.944744902777291e-05 
-1.43494442893571e-07 
-6.44267839944107e-05 
1.364067251207405e-05 
-1.905063831076366e-05 
-0.0002984924519698203 
-6.156378095965035e-05 
-5.869710963562025e-05 
-6.771568549865443e-05 
-4.368428034874208e-05 
-0.0001675129871504916 
-5.139112905104182e-05 
-3.162148354865892e-05 
6.134127650182309e-06 
-0.0002177263158209834 
-4.951413001205627e-05 
6.891873094693421e-06 
0.0001995636789155905 
4.532847069701585e-05 
0.0001864551331994389 
-0.000232453233171285 
0.0002621310503066143 
0.0001609408272678063 
-8.248201218279348e-06 
3.650087755474569e-06 
0.000214560520455019 
0.0001175972243904448 
5.611086038206058e-05 
4.589048421043844e-05 
-6.431404371673211e-05 
-0.0001188913619255819 
5.728716745431483e-05 
0.0001054237686018694 
-2.947481736123662e-05 
-9.920510389983823e-06 
-2.19021788033703e-05 
-0.0001093698110703232 
-9.869538202517207e-05 
2.188413609748172e-05 
2.281761806764962e-05 
1.709438756706368e-05 
-8.844144742071111e-05 
8.127358768478303e-05 
-0.0002286725939406367 
1.595418614572034e-05 
0.0002624073875048279 
-5.876865843776323e-05 
-1.334166479220402e-05 
6.222590840181285e-05 
0.0003191268502645562 
1.818074311560135e-05 
0.0002045481745731294 
-0.0002684808911485469 
-0.0001662465034601932 
0.0001059524421206988 
-0.0004844087924948404 
-5.277678184884317e-05 
-0.0001522308149968871 
1.738098393870696e-05 
-1.426825140259824e-05 
3.557954036726511e-05 
-0.0002698810264456783 
0.0002568816250002506 
4.560295923310656e-05 
-7.394450032471099e-06 
2.888492184267955e-05 
9.774768802126368e-05 
7.793049178133752e-05 
2.800301969070667e-05 
0.0001107040576758374 
0.0006944753532089459 
0.0002935635036514616 
0.000422172868457621 
0.0002125921716674432 
-0.0003475781079147357 
-0.0001402449903863516 
7.817482491726086e-05 
-0.0003785495639815774 
-0.0003348630898876355 
0.000692192023642245 
-0.0001969367690704334 
-8.235353868662256e-05 
1.498147398644547e-06 
9.364501581016185e-06 
-0.000524253635813551 
0.0001008856882481997 
-1.043585466899404e-05 
3.895556368013882e-05 
-6.067268135341489e-05 
-4.96936912005254e-05 
5.485681881207715e-05 
-7.707721750317725e-05 
-1.101093157975699e-05 
1.546301987000235e-05 
-0.0002076590160414479 
9.477470836794003e-05 
-8.323803652271212e-05 
-0.0001214402878658847 
-9.108881440342547e-05 
8.964376255325594e-06 
-4.661414253264866e-06 
2.909290404829217e-05 
3.187721284070737e-05 
-0.0001397876321341716 
-0.0005145015793102493 
-0.0001504520003147005 
-0.0001399030910460697 
-0.0001562197089641301 
-0.0001234298986539646 
-0.00023019728172151 
8.597460521637551e-05 
0.0004479698611326848 
0.0001987380063374566 
0.0004896818536588496 
0.0001142029571897639 
0.0001554576898419399 
4.58341055329056e-05 
0.0001605552834237484 
-0.0001579487638090415 
4.95272718958378e-05 
2.939726235832892e-05 
4.217661713440937e-05 
-3.070082820080407e-05 
-3.139602013368314e-05 
0.0001615237416823797 
0.0002183096799025697 
-0.0004749484967587055 
-0.0001528559162090042 
9.956392461803293e-05 
-1.654354719759043e-05 
3.724622029656704e-05 
5.25097142140157e-05 
-0.0001576161913174643 
8.122378116761901e-05 
7.572197426279857e-05 
-9.083380716363975e-05 
3.450873003364427e-05 
-1.570633168732144e-05 
0.0002644397001128385 
-0.0001020708443893378 
-0.0001420432228716832 
-0.0003365283510526165 
-4.100786343879746e-05 
-9.71993763148151e-05 
-0.0002649949336141604 
-0.0001117838447420014 
-0.0002062593436323621 
2.500785730193617e-05 
0.0004548500565541237 
0.0003324748309570159 
8.718359855167966e-06 
-3.483355611208804e-05 
9.389803205604733e-05 
0.0002610324561590013 
4.03656490539597e-05 
1.649342696176779e-05 
-0.0001220030205413923 
-0.0003864368362814825 
6.591000764927136e-05 
-6.643888802618288e-05 
3.534078618622101e-05 
0.0001166318104005246 
-5.795319862755131e-06 
0.000196200763244541 
5.705727373829323e-05 
-2.944734212341252e-05 
-0.0003110179614748395 
-6.580057408692851e-05 
7.390111629536556e-06 
6.931683036562335e-05 
-0.0006357404835809486 
-0.0001801126730620325 
-0.0003234574667110535 
-0.0001194633202694589 
0.0001736193098454965 
0.0006476859685054531 
0.0001378550147801395 
-0.0001174723808477539 
2.600995879055368e-06 
0.0001620955940299939 
0.0003349479726151569 
-0.0001301748990973502 
-2.019294952099911e-05 
-0.0002271206133954368 
-2.381764820957182e-05 
5.720839943269697e-05 
1.084618569772851e-05 
4.076015728019791e-06 
0.0001195091869364962 
-0.0002429770493137827 
-2.076086241693175e-05 
0.0001082586246065562 
0.0001348855057368061 
3.502046321222424e-05 
-7.360267696465716e-05 
0.0004084513412949815 
0.0001032128713288887 
-0.000416470481935053 
0.0002783323962782098 
-1.134825654607267e-05 
-6.069624834557261e-06 
9.279003754881238e-05 
8.035739975714633e-06 
8.558757243682279e-05 
-6.117828021039078e-05 
-0.0001739267802147125 
-0.0001516585671822721 
4.697010923796415e-05 
-9.850960915549231e-05 
0.0004386012668061783 
-7.783178836279843e-05 
0.0006339096420871513 
-6.438728445877577e-06 
0.0005801326689454239 
0.0003454204552906903 
-0.0002225252908812151 
-0.0002054158131003536 
-9.154087683919188e-05 
-0.0005803505215401791 
-5.295706407767141e-05 
-5.166823240734739e-05 
-1.5400077142854e-05 
-5.404370281112769e-05 
2.548904253200142e-06 
-0.0001101543580163389 
-4.0972846207392e-05 
3.28657338850314e-05 
-0.0002039661761137221 
0.0001125013819525228 
8.95714516940625e-05 
6.792684092030382e-05 
4.611462822209027e-05 
-5.397898462247175e-05 
-4.261389857137397e-05 
0.0001095103689643346 
-0.0001726297234766028 
0.0002981589742098243 
0.0002718237441838219 
0.0001406356250861599 
-5.957220601911668e-05 
3.497034913419597e-05 
4.927494055094293e-06 
-0.000479835012155831 
9.605070528916864e-06 
4.524708232565086e-06 
-0.000150370361237763 
-8.279197478521636e-05 
4.833133723569501e-05 
-0.0001803496831394826 
3.315319365045057e-05 
-0.0001439309542482075 
-3.13328285070795e-05 
-0.0003410063788030082 
0.0002132325744003829 
0.0002981238967376323 
-3.37679490924226e-05 
0.0003677351799747132 
0.0001007900700310269 
8.376426034864533e-06 
-0.0001801932699363883 
-0.0001698698760280586 
-4.698233274426504e-05 
-0.0001430996955044539 
2.625628640422298e-05 
7.627910359016801e-05 
0.0003026030881632533 
3.124790271502114e-05 
-8.12424703191091e-06 
-9.11232124554775e-05 
0.0001292080404611548 
-0.0001610891477018751 
0.0003057665412407836 
0.0002362720375679229 
-0.0003811377856450607 
6.214265962713032e-05 
-1.772510517602775e-05 
0.0001909238691014151 
0.0002128895247604803 
-0.0002755870373811437 
-1.477694837961216e-05 
-2.975599598184335e-05 
3.845715872306789e-05 
5.605722339647711e-05 
-0.0001824874968078936 
0.0003203425075723855 
2.619028137366757e-05 
4.2960702146968e-06 
-1.449512694672953e-05 
-2.334953067031939e-05 
-0.0002357118852709221 
-0.0003099370329124355 
6.663994146840891e-06 
-6.49448757756126e-05 
0.000456315197528819 
-2.658430969947431e-05 
-1.159071939649485e-06 
8.17992492100125e-05 
0.0001505068469178422 
0.0002465445551898055 
-0.000498763600436955 
2.875911634350972e-05 
9.930138488504916e-05 
-1.901828577042083e-05 
-7.581466622914624e-05 
-2.825498886743469e-05 
3.49224318092084e-05 
6.760230038059816e-05 
8.590104263151034e-05 
-0.000135041703599802 
0.0003262222992775714 
8.448307561173223e-05 
-6.430875829599672e-05 
-0.000175905209037362 
9.738570119985834e-05 
-0.0001141926471217165 
-7.78144255236421e-05 
-5.754593796730352e-06 
6.716543453516384e-05 
-1.477780590311277e-05 
-4.044496569806148e-05 
-7.988841897172904e-06 
-0.0002640024552329062 
-0.0001528923383070279 
4.393002975911484e-05 
-0.0001428511652500835 
5.288803620207297e-05 
0.0003199116808852085 
-0.0001730311603552717 
-1.288261544242063e-05 
4.565471333552124e-05 
-6.909005712390643e-05 
-2.893988137706021e-05 
6.316299393741824e-05 
0.0003389879646767554 
-2.636853452697843e-05 
-0.0002227685426620685 
-0.0003786172652440916 
0.0001631657008085986 
-4.664143482078454e-05 
-9.567833029277482e-05 
-4.302051169204298e-05 
0.0001301972393198962 
-7.029447600009037e-05 
0.0004287835563676201 
-0.000160723021452679 
0.0002377921802431957 
-5.654502560378213e-05 
-0.0002923946049426585 
0.0001475281382765702 
-8.05863277303278e-06 
1.017769244690537e-05 
0.0002836493409552078 
-6.946002140091975e-05 
9.200506816562292e-05 
-0.0002525290946282766 
-0.0002573659978065373 
-2.422626480211264e-05 
9.823905553556899e-05 
-0.000186964772649568 
-3.044563249006816e-05 
3.357556371257817e-05 
-2.617046540465824e-05 
-7.123866605031901e-06 
-0.0001190657290280601 
-9.460891187367242e-05 
-0.0002830839249454406 
-1.338951967299724e-05 
3.592933042336504e-05 
-3.337228524772886e-05 
0.0003148494247027776 
0.0002236906162866435 
-1.26645778777816e-05 
-8.212331113717942e-05 
0.0002471728807349328 
0.0001147482046946594 
0.0002392570435305903 
4.71552592892713e-05 
-8.800152302014271e-06 
-2.350435426994568e-05 
-3.924458293562067e-05 
-0.0003913475011973733 
0.0001440798587288459 
0.0001715636111912992 
0.000235302073894517 
-0.0001029156536348567 
-0.0001678584725559193 
-2.193668244340246e-06 
-1.259671727859141e-05 
-0.0002428199907010987 
-4.26472726255199e-05 
0.0001494624667109286 
-0.000109673394243923 
-0.0001231726899232017 
0.0004703659761493988 
-3.994404981597532e-05 
7.073640053565722e-05 
0.0002944055865294282 
-0.0002235029904999302 
-0.0001130292124873738 
-0.0001358597844733342 
-1.77578672066393e-05 
-8.253155313060698e-05 
6.139214265952662e-05 
-0.0002626133854652217 
0.0001363944214796012 
-0.0001285411977269818 
8.088237080258387e-05 
-2.664772639336796e-05 
2.502338851899843e-05 
-0.0003404709923940178 
-0.0001050233409292054 
0.0007583431886786504 
7.192733490319337e-05 
-3.959021786830826e-06 
3.265904070120177e-05 
