solver_type L2R_L2LOSS_SVR_DUAL
nr_class 2
nr_feature 26042
bias -1
w
-2.607390551495845e-05 
5.336204312663509e-06 
6.58320505612729e-06 
-4.015592029715574e-05 
-9.092991761541385e-06 
5.967271802501436e-06 
2.108435218651092e-05 
-8.977651940800805e-05 
0.000143218025488451 
-9.529112650216817e-06 
-3.878281616248562e-05 
-7.516256898762303e-05 
-1.316748070221315e-06 
-4.090748805291644e-05 
0.0002837257107432063 
-5.60760103222114e-05 
-4.499453037920459e-05 
-7.730343371638558e-05 
-8.821897875131014e-05 
1.641075311132855e-05 
0.0001296916342942599 
-4.692139285473626e-05 
-1.131530387206182e-05 
-9.569899830933894e-05 
-0.0001424366085369142 
-4.692790205711417e-05 
-2.994973270012291e-05 
-4.462655701953056e-05 
0.0002484128621011591 
5.694246766249809e-05 
0.0001006086466624446 
-8.270161241599932e-05 
3.292242208119033e-05 
-5.147781080945578e-05 
-0.0001227694335658571 
3.688398874207807e-05 
0.000164594488056951 
3.009648838601912e-05 
-1.236180955908406e-05 
-1.899073829609668e-05 
-3.512947282045149e-05 
1.025627597803235e-05 
-1.663215661563589e-05 
-6.694487782877342e-05 
0.0001350007899404684 
-2.537948813031406e-05 
2.36922156113189e-05 
-0.000164704943745293 
-1.24387310535194e-05 
-4.11612432154882e-05 
6.470875655962575e-06 
-0.0001193311252352034 
0.0001035575718925342 
1.149258622117166e-05 
0.0001077317968260511 
0.000148741118316086 
4.264722396858891e-05 
-0.0001107171678242414 
8.903422892563393e-06 
-0.0001049280377104613 
1.451397106107388e-05 
0.0001074037746951786 
-0.0001344752540125708 
-2.745471832173016e-05 
-2.562170010332565e-05 
-8.584549962139534e-06 
-2.567135063407956e-05 
-7.792029675696286e-05 
3.115364455156232e-05 
-6.532458074108308e-06 
-2.139090772713028e-05 
5.017291354982918e-05 
-3.120613941317455e-05 
4.748940750766178e-05 
-3.045834625364727e-05 
-7.460425114905993e-05 
7.895371124304563e-06 
0.0001338202948254288 
7.500509443384054e-05 
-0.000139964918043837 
-7.883401687785728e-05 
-2.45230920741498e-05 
6.205228472034575e-05 
-1.859101733611165e-05 
-9.11357574302079e-05 
0.0001453001247951482 
-0.0001222272014701579 
-5.563803300049939e-05 
6.957041939025237e-05 
7.25768029146243e-05 
-0.0001313450194114494 
-6.496488804602889e-05 
0.0001462834240300802 
0.0001103878690136329 
-4.310130385975896e-06 
1.82842487428468e-06 
-2.901743288169499e-05 
3.883785268404901e-06 
6.037963430010106e-05 
-2.891364059990836e-05 
-3.435665947958683e-05 
-1.724097683467336e-05 
-2.314097365501081e-05 
-9.539461506802192e-06 
2.826464859201959e-05 
-6.968045750813397e-05 
4.873729866708876e-05 
-0.0001285790018278577 
3.487863523172404e-05 
-7.365881420169643e-05 
0.0001119653746231929 
-9.070336779490665e-05 
-1.546289663033107e-05 
-3.809739438721698e-05 
-7.21352547188339e-05 
-1.265934725879607e-05 
-4.185961888935977e-05 
-6.417481256023944e-05 
7.075715405357321e-06 
0.0002284368775210172 
4.556433089514809e-05 
1.524256162387205e-05 
1.061595675375544e-05 
3.295943599346225e-07 
-4.05301969010603e-05 
2.927618322877851e-05 
1.141928066486946e-05 
7.369243208193966e-05 
2.039560258013335e-05 
5.02181857336599e-05 
-0.0001114925818263591 
0.0001259990792138207 
-6.378577883718313e-05 
-0.0003080235896618832 
9.464545685201672e-05 
6.19871642695978e-05 
8.108689788213392e-05 
0.0001223399739345862 
6.649934523888827e-06 
4.537995891495214e-05 
-6.705885718553716e-05 
4.795981837128216e-05 
8.322318420805278e-05 
-7.520124749846159e-06 
-0.0001341637507697049 
-3.369091538827906e-05 
6.989051746498235e-07 
-5.731319843370786e-05 
-1.359368476346821e-05 
-6.00969300933563e-05 
-2.61605944010298e-05 
3.377028219607652e-06 
-1.935411680785762e-05 
4.392796727639158e-05 
-2.999676212397352e-05 
-0.0001138744551551127 
-1.261458709637491e-05 
4.277733371928331e-05 
0.0001110295060386422 
3.705593196207078e-05 
3.272066162146104e-05 
-3.485906818922035e-05 
-5.822794301820878e-05 
6.456868762184486e-05 
2.248213010385439e-05 
-1.024738708646653e-05 
7.251723740323428e-05 
6.840427604631575e-05 
2.801388620246928e-05 
-1.535797526123239e-05 
5.069740399715938e-05 
-6.754805790006609e-06 
-8.14306236941879e-05 
-2.681159567106987e-05 
5.796262893777358e-05 
-0.0003037088164042229 
9.843658652614298e-05 
-3.117039135490751e-05 
-8.894472123939058e-06 
0.0001464932046841659 
-2.470250470826611e-05 
-5.258150605022217e-06 
-1.510458259361017e-05 
-5.297076540168737e-06 
-0.0001122634524448361 
-6.240350947682621e-05 
-1.921568978517473e-06 
-2.648211670131216e-05 
5.647918395584851e-05 
5.743160264746568e-05 
-3.453929662719357e-06 
-1.845517861899687e-06 
-2.984667269628342e-05 
-2.145383286094215e-05 
0.0001098624021768741 
-4.221568617966334e-05 
-8.550630596104298e-06 
-1.646142424422235e-05 
3.480087057590183e-05 
-3.749953995555164e-05 
-3.556112141758976e-05 
-2.44077848862754e-05 
-1.982317864818241e-05 
2.336834280109241e-05 
-4.822054860975354e-05 
-2.91050980950035e-05 
0.000117252490389442 
-7.08092805414913e-05 
-0.0001339322564507392 
0.0001288981659969204 
3.079827921914168e-05 
-2.670060778191989e-05 
2.806818944127975e-05 
7.034412307954774e-05 
-2.548607324046411e-06 
-8.681052432260258e-05 
1.105757186288672e-05 
9.939010938061833e-06 
-2.582858467517253e-05 
1.527868531493302e-05 
-3.129611251837633e-06 
7.205053559185542e-06 
-1.036541910579422e-05 
6.409225869001853e-06 
-0.0001423600023045012 
0.0001655873847145124 
1.24943712519277e-05 
9.569755856963641e-06 
4.570855634646801e-06 
2.032095938538286e-05 
-2.338580125933777e-05 
2.512315274734809e-05 
-2.86226736666183e-05 
-5.962371118945481e-05 
1.53305415482264e-06 
1.569466334520359e-05 
-1.886384381607525e-05 
-0.0001406657595617964 
-1.621717972045864e-05 
-3.396180514786253e-06 
-1.938937577175174e-05 
8.240508452239963e-06 
-9.105274851987661e-05 
-3.742264638788375e-05 
1.767974278057078e-05 
0.0001602273351593108 
0.0001017344881262333 
-0.0001215695882062369 
-3.453454376130525e-06 
-1.584052904018852e-05 
-5.590539368622478e-05 
4.131809973813841e-06 
9.429709457087398e-05 
-0.000124231314191368 
7.643590706034552e-05 
0.0001043711205795874 
-8.032560569375298e-05 
1.402965697403165e-05 
-3.182138709060482e-05 
1.115726687418114e-05 
2.377350891954075e-05 
-1.703258356355833e-05 
4.937801239312387e-05 
-1.434642476180337e-05 
-4.65189658363864e-05 
-4.908715005492171e-05 
9.45097859219803e-07 
7.686286469644453e-05 
3.150372846921433e-05 
-2.294238539934568e-05 
-6.878735069627264e-05 
0.0001325598698637147 
-2.20944301801163e-05 
-0.0001295924747551451 
-2.929353016826261e-06 
5.152825992638413e-05 
-0.0001309332245121127 
-0.0001517305992524744 
1.708988731745931e-05 
3.772685557635512e-05 
-2.102506769084267e-05 
7.523364789693738e-05 
5.483680272827083e-05 
0.0002124546668142344 
-3.072585065841923e-05 
-9.43051007048837e-06 
-2.148976477983535e-05 
-1.825499671511219e-05 
7.635881400481681e-06 
5.739883714206708e-05 
-5.392413569362101e-05 
-2.838123048517287e-05 
1.014826007865451e-05 
-0.00013541488390855 
1.561387002333495e-05 
-1.748212613101996e-05 
-4.955046507787243e-05 
0.0001246653279327205 
-3.835809670464247e-05 
7.572876607689162e-06 
-0.0002046039789925006 
4.190639925215054e-05 
-1.132909100112815e-05 
6.863674351008013e-05 
-8.479962463407932e-05 
0.0001148588566173093 
0.0001205867363300114 
0.0001714205738368381 
-0.0001032731699731864 
-2.94465142545446e-05 
-6.080576833380958e-06 
1.014765532100586e-05 
-1.184601781168797e-05 
-5.965010542784812e-05 
-9.312242265512626e-05 
0.0001254309473297898 
3.917054781122955e-05 
3.085112754224893e-06 
-5.445366440223892e-05 
-1.655052037989393e-05 
-2.96592260553685e-05 
6.85578213499576e-06 
1.407088473442744e-05 
7.065659758823391e-05 
-6.612239294085783e-05 
6.852227227276223e-05 
4.645570401643857e-05 
-1.519032538259314e-05 
1.368826962389341e-05 
-2.579963802197893e-05 
-4.874750949431557e-05 
3.506304864805058e-05 
-5.57603665278686e-05 
1.257788078403091e-06 
-6.89986108661482e-05 
1.987767736522869e-05 
1.866939467133944e-06 
-7.489325000644364e-05 
-3.408716878312115e-05 
0.000159774324652969 
-1.903639126228116e-06 
-9.3721018708502e-05 
8.625333281071069e-06 
-7.439909639861838e-05 
-4.612743066929169e-05 
-2.475216623842082e-05 
3.142736955455997e-05 
5.046983435748648e-06 
2.220442288153095e-05 
-4.621862503682885e-06 
-9.65370834186448e-06 
8.905601391095013e-05 
-9.994743605522219e-05 
-5.917354820818849e-05 
-2.366098994286539e-05 
-9.639187705366443e-06 
-3.245772732401283e-06 
0.0001638566131861194 
-3.78097724796797e-05 
-8.696430018836617e-05 
-3.144056322001285e-05 
0.0001025265621861354 
-5.061711542607121e-05 
-1.088206826851466e-05 
-3.604714533223803e-05 
-0.0001447315619740711 
0.0002694835306590577 
-5.896403998718587e-05 
-4.885798849186109e-05 
9.31714504847154e-05 
-7.31508029326619e-05 
-0.0001267460752555016 
-3.026109248737704e-05 
1.111776472655349e-05 
4.967951199821579e-05 
-3.211601699429489e-06 
-6.320080131906669e-05 
4.406328860295229e-06 
-6.408571067222029e-06 
-6.067165074972744e-05 
8.615659860189858e-05 
-1.216393330777796e-05 
0.0001846743350270015 
3.273532468191004e-05 
-2.625510875519664e-05 
-1.965438166610717e-05 
-1.264694618778912e-05 
-1.989522682558059e-05 
-1.998770368482004e-06 
1.722740860096557e-06 
-2.418956185059184e-05 
-2.581781298357122e-05 
9.43011009351293e-05 
9.219169448729367e-05 
-0.000156883870842485 
-4.544135219650669e-05 
2.35469168500457e-06 
0.0001617717777497039 
-5.853087451362187e-05 
4.919500629865528e-05 
4.850766668760597e-05 
2.398651427574101e-05 
5.634862730743261e-06 
2.443132874574858e-05 
2.220410878535355e-05 
-1.070939245973939e-06 
-8.979653869981955e-05 
-0.0001248372954265977 
-2.33603165080857e-05 
8.151802153850856e-06 
1.061996634273429e-05 
-1.840847439739969e-05 
2.564861347156711e-05 
-3.172742747523939e-05 
-9.816607277764992e-05 
0.0001279710970925641 
-4.873994292879854e-06 
5.216576781654837e-06 
7.612139095486314e-05 
-4.133872394521905e-06 
-3.779385078933398e-05 
1.262245383024651e-06 
1.554334349408104e-05 
1.416432100912555e-05 
-3.355479113596006e-05 
-5.594462309433063e-05 
-1.800808995282847e-05 
2.268948523919784e-07 
1.306883068435201e-05 
3.050227063871784e-05 
-3.726962331992776e-05 
6.968153570402427e-07 
-2.252228670940359e-05 
-3.30752682599103e-05 
-8.259697820566269e-05 
5.649371742527756e-05 
-9.05360992223862e-05 
5.439958514190796e-05 
1.817195178334131e-05 
-4.469487302021444e-05 
8.696379133606898e-05 
2.301529382886151e-06 
-1.947886632309452e-05 
-3.35190158717859e-05 
-0.0001480542431254862 
0.0001257282287812103 
8.520698429287626e-05 
5.741468408310515e-05 
-1.549350427480444e-05 
-9.781853600015614e-06 
1.18234217500266e-06 
1.497027270583413e-05 
1.102512724206749e-06 
-5.566967688130991e-05 
-0.0001028273980088975 
0.0001893024940549687 
2.788308709108177e-05 
4.958899530006121e-05 
-0.000178388616065431 
0.0001407508488774309 
0.0001319677228588757 
-2.017319283365651e-05 
-7.742318431919507e-05 
-4.216406395000519e-05 
1.53032698557407e-05 
-3.839538449494742e-05 
-2.833635690896903e-05 
-2.271179918326184e-05 
-3.230251822052289e-05 
3.314885919586662e-05 
-8.494749220781589e-05 
-1.10020912435116e-05 
4.724920642584942e-06 
-2.633319061166231e-05 
-4.411338797444954e-06 
-1.532495629189973e-05 
-6.473965983229895e-06 
-1.952003543304666e-06 
2.678457943622079e-05 
-4.575207790942517e-05 
-3.20301051719748e-05 
6.038377451905714e-06 
1.393715708099757e-05 
3.015567963237346e-05 
-0.0001084833592632628 
6.151263647372136e-07 
-4.729737787390741e-05 
4.304088593997081e-05 
-7.749742858520873e-05 
-4.861857815143983e-05 
2.992711727386422e-05 
-2.418584595615078e-06 
-3.588865402829797e-05 
-4.986924443410471e-06 
-4.864334129343224e-06 
-3.659341411379886e-05 
6.23809095918121e-05 
-2.589128211129697e-05 
-1.779504009997297e-05 
0.0002359009211190283 
7.826513576068883e-05 
-8.654366875981756e-05 
8.231297552331097e-06 
-1.694525207419034e-05 
-7.19341813491627e-05 
9.740279278953852e-06 
4.449243612414817e-06 
4.011762979114732e-05 
6.115830993123797e-05 
-0.0001014924562417918 
6.108665010154705e-05 
-1.894737624805781e-05 
1.015966143861498e-05 
1.583599133602272e-06 
-5.575297831758405e-06 
-2.705758443847844e-05 
-5.789190010753375e-05 
1.252978506515816e-05 
2.409013503200001e-05 
-1.940202579223025e-05 
1.308641035695184e-05 
-1.922231130678134e-05 
-5.284591229126709e-05 
-5.876418693127898e-05 
-1.051850701591701e-06 
-2.596301247721152e-05 
-3.801415592098847e-05 
0.0001307066936090842 
-7.12037539636908e-05 
-8.853584331206354e-06 
-2.546119513961666e-05 
6.807884403616563e-05 
-2.293001103472517e-06 
-1.466365108154832e-05 
-6.460036965052839e-05 
-3.218479131433351e-05 
0.0002996027246873194 
-0.0001559223921796732 
-2.205647262760907e-06 
0.0001348103647483746 
-5.994383421681297e-05 
-1.256838223535677e-05 
-4.34472679462719e-05 
2.625985920573593e-06 
-3.926647106631706e-05 
-7.537349492164853e-06 
-4.776532191658148e-06 
-3.056829317328986e-05 
-9.380576711674011e-05 
-6.747866270300569e-06 
-2.520698454925678e-05 
1.098580313651498e-05 
-0.000112819201892888 
-5.166334367284676e-05 
5.738852526517328e-05 
-5.299710403604212e-05 
-2.129055397464e-06 
2.757911708233388e-05 
2.208695185238617e-05 
0.0002283727715349846 
4.669109791576963e-05 
1.717642763148489e-05 
-3.699069292270772e-05 
6.651843876219172e-05 
-5.453266630816709e-06 
5.518117363463898e-06 
3.916496127926214e-05 
5.37805698214285e-05 
0.0001052031224472137 
-0.0001237027689584162 
-5.300065107052213e-05 
-1.307649926805041e-05 
-5.989077277593502e-05 
-5.163800099424179e-05 
-3.730069738994631e-05 
-1.568904023823077e-05 
1.005114488863791e-05 
-1.896179580728407e-06 
2.729849119103142e-05 
-0.0001221797053142684 
-7.06059228261668e-06 
-1.129227127745254e-05 
4.198506289623663e-06 
-5.506144352690249e-05 
-3.79022043894187e-05 
2.912540142909218e-06 
-9.567349952480163e-05 
-2.753775253890948e-05 
-1.97015940780927e-05 
8.297787111772781e-05 
-5.990763863889201e-05 
9.222579196746282e-06 
-4.050381986250363e-05 
0.0003274131438958302 
3.744550426419017e-05 
-8.757758750650122e-05 
3.33095129328582e-05 
6.579158349499612e-05 
-2.611528443332445e-07 
9.365911534738047e-06 
-4.161678816412475e-05 
4.905650646786435e-05 
-6.169995767928245e-05 
-3.897148747844822e-06 
3.936578074303562e-05 
-8.791357345531098e-06 
-1.387753352011281e-05 
8.095179408293613e-05 
-2.725179378948376e-05 
2.074910973738816e-05 
9.954450899786214e-05 
-1.885382063097067e-05 
-0.0001439240341129998 
5.12652986360891e-06 
-0.0001142574076015578 
-8.792613005901449e-05 
-2.00967700005855e-05 
-1.761188692915481e-05 
2.353577308200989e-06 
-5.243566428930064e-05 
-1.353756027020832e-05 
3.494934295258646e-06 
1.867351963759488e-05 
3.10092171790552e-05 
6.340103244579331e-05 
-5.745338577559214e-05 
8.124173082230511e-06 
0.0002789310464274888 
0.000213631089402253 
-0.00012162445328218 
2.700289083699596e-05 
2.887250246488677e-05 
-7.545523099000473e-06 
-0.0002251686829438655 
1.791093579670119e-05 
-2.405527713891571e-05 
-2.535357918868798e-05 
-1.009216711549506e-05 
0.0001085212928780187 
-1.055885656294501e-05 
-4.442405333775512e-05 
-6.211930457706664e-05 
6.618636676180763e-07 
2.791948221584398e-05 
-3.344284711375238e-05 
4.147431597198145e-05 
1.872000369982564e-05 
-7.77265012717382e-05 
-2.862379408186034e-05 
7.15046876592027e-06 
3.001726167634177e-05 
-3.506687042238551e-05 
1.689730973660373e-05 
4.339808972259823e-05 
-7.041804619867249e-05 
-3.031829539821599e-05 
6.095850086155765e-05 
-7.142881155338916e-05 
0.0002816375595180978 
-9.857107531465041e-05 
3.16564349072489e-06 
1.532029692633805e-05 
0.0001019616501829997 
-6.72009717914803e-05 
-5.655851782804535e-05 
8.719047251908379e-05 
-0.0001825916313481487 
-6.441391709703424e-06 
-3.939907462715411e-05 
-2.337545895684914e-05 
-6.815337030779975e-05 
2.981484496124608e-05 
-1.32518696768215e-05 
-5.377423354353282e-05 
2.397458350771976e-06 
-4.872652320432686e-05 
5.231486176232762e-05 
3.366106803602922e-05 
-5.675912943306484e-05 
5.682905480600458e-05 
2.801702811078224e-05 
2.732289418084437e-05 
-1.744205202593635e-05 
4.330310694802038e-07 
0.0001267490871694692 
0.0001493244845954895 
2.074820000620251e-05 
-5.693298655769492e-05 
-0.0001191807096087941 
3.230821260535543e-05 
-3.099936898905633e-06 
-1.845720526700994e-05 
4.733248333340687e-05 
-1.128550343498146e-05 
0.0001566187731512936 
-0.0001267879904020537 
-0.0001323063470728007 
8.202591279222207e-05 
-3.720960829421142e-05 
-0.0001391424686650492 
1.939727187412886e-05 
1.635725446449252e-05 
-4.697559607854053e-05 
-4.811345242663067e-05 
-4.126606537048223e-05 
-2.209601101810791e-05 
-7.052570623277933e-06 
-1.353686510240919e-05 
-5.857038520210364e-05 
-3.793866072569791e-07 
5.952490661382368e-05 
-5.207421217484916e-06 
5.787954080696784e-05 
1.663334131746982e-05 
5.315223484949732e-06 
0.0001516436288486526 
3.486584439616563e-05 
-0.0001786203523031488 
-1.55194109398743e-05 
3.764264295383235e-05 
-6.577453846439986e-05 
0.0001799886899474924 
-9.164072498125353e-05 
-1.810076537649713e-05 
0.0001196510114948834 
-4.731734090457968e-05 
1.85482318423882e-06 
3.88081574816889e-05 
-0.0002277877928958824 
1.238260020265454e-05 
5.003934152204547e-05 
5.986402499538122e-06 
7.821955895865267e-05 
-1.909831432759588e-05 
7.709958712216989e-06 
2.528605098337187e-05 
6.198484605616456e-05 
-2.136129563516013e-05 
4.048119074162962e-05 
9.47862166005819e-05 
-5.563079919371021e-05 
-9.387866020268322e-05 
-1.216199952023854e-05 
-3.956831252282722e-06 
-5.208533373121304e-06 
1.246500316606396e-05 
1.358743300104482e-05 
-0.0001376548279663937 
-2.874074200145953e-05 
-1.35475020233366e-05 
0.000141294851028021 
1.461533570908512e-06 
3.115364455156232e-05 
6.909423533732856e-06 
-4.208307478557898e-05 
0.0001029575789208793 
3.391547946658575e-05 
3.356494594696966e-05 
-6.841374744515824e-05 
-0.0001301934510227527 
-0.0001604018612030432 
4.235062985474298e-05 
-1.578470355951878e-05 
-2.298706710268918e-05 
-1.348867393806709e-05 
-2.879722159740754e-05 
-8.213929525498689e-05 
0.0002215812191534534 
0.0001968042243647198 
-2.451869913256261e-05 
9.680758957103756e-07 
-2.951709481761025e-05 
-7.244569411713866e-06 
4.516634300226719e-05 
-0.0001105002715552234 
3.361924964911656e-05 
-0.0002459754378112686 
-0.0002482285384600813 
0.000322397310290121 
-4.987345686266641e-05 
-3.466584631904141e-05 
-1.11710286401564e-05 
-1.756595243445685e-05 
-5.688591907792888e-05 
-0.0002093844831608194 
8.203532309657751e-05 
2.87614607478751e-05 
-5.067599582703667e-06 
3.090604034531073e-05 
0.0001437629335873724 
7.298095843315846e-05 
-2.097631670058391e-05 
-1.968638320662908e-05 
-5.886727743053108e-06 
-1.441055417493179e-05 
0.0001220043941377246 
1.625707227363684e-05 
2.02782418705932e-05 
2.0128829586971e-05 
-6.799763226778136e-05 
-0.0001655620029300042 
3.30146947967556e-05 
0.0001478446455351003 
-4.038485683623739e-05 
-1.034942904758693e-05 
-2.126854660999828e-05 
4.850304753346414e-05 
4.693759558321453e-05 
6.916002781979644e-05 
8.895830684811654e-07 
-0.0002235256577251215 
4.779361927403583e-05 
-5.770948286945938e-05 
-2.483614754959328e-05 
-7.077995375089182e-05 
1.509516643546511e-05 
-5.164098834636832e-05 
-7.048155013310517e-05 
7.018597053910653e-06 
2.758251226420856e-05 
0.0001889528860321207 
3.883574776802652e-05 
2.615204104847574e-05 
-0.0001042886102143776 
5.30500756833121e-05 
-3.732971823202765e-05 
-6.333219967164778e-05 
0.0001411072462622444 
-1.729850386797327e-05 
-1.591576165643399e-06 
-2.587029724818234e-05 
-5.680243309855316e-07 
-6.60778405992373e-06 
-4.422783318964762e-05 
-3.425575775984642e-05 
2.999343939449101e-05 
-4.223829781816545e-05 
-5.052872455886389e-05 
1.087582915825785e-05 
-0.0001067308870935356 
-5.173777470006971e-06 
-5.735051060815566e-05 
1.365453501829561e-05 
-4.658204506262551e-05 
1.654627687101395e-05 
3.737952979689409e-05 
0.000101740890903697 
-4.891788102117937e-05 
8.029207373348122e-05 
1.37984477083577e-05 
1.512353375622221e-05 
-0.0001610874652656471 
5.617151661799192e-05 
-3.185584465620556e-05 
0.0001326487020190418 
1.419703608463396e-05 
-4.743246038412813e-05 
6.886192167902965e-05 
-8.406130686184413e-05 
-0.0001344062471879079 
2.406836381204224e-05 
0.0001311178957626898 
-0.0001842222214851914 
8.450117246657241e-05 
8.598814520850523e-05 
7.420783563019838e-05 
6.61389590198298e-05 
2.561052237765387e-05 
3.056598820910275e-05 
-0.0001085340588916332 
-6.364555908940722e-05 
0.0001405263336386462 
5.817677790185785e-05 
-3.379874199826334e-05 
-4.241334605520068e-05 
6.087300412338556e-05 
3.678634813688172e-05 
-0.0001911995628951341 
-1.626217906173071e-06 
1.091422531010241e-06 
-3.435279170218383e-05 
4.298822996740478e-05 
1.432019400488388e-05 
2.196920672404152e-05 
2.74100668442095e-05 
1.139072238618938e-05 
-2.182293926263961e-05 
-2.933969631958228e-05 
-2.437716891602511e-05 
1.309172090858634e-06 
-0.0001492898075455282 
4.472516232131744e-05 
-5.77101480374369e-05 
-0.0002570905225031504 
-2.94478616265211e-05 
-6.165978556558955e-05 
2.691302087850914e-05 
-5.389367696671312e-05 
8.477357088660203e-05 
-2.401413687729955e-05 
-2.364296132042367e-05 
-2.982978577622573e-05 
1.773894476400157e-06 
-4.483349580666909e-07 
-3.573360685915843e-05 
5.638834632362654e-06 
-3.313043793618934e-05 
-9.768139605673247e-05 
5.482308184324265e-06 
2.048541922599264e-06 
8.825842398321493e-05 
6.073187247251478e-06 
2.502469327490758e-05 
-0.0001467611048239247 
9.615904459741928e-05 
0.0001245706567269088 
1.460872680679083e-05 
-9.00331286265588e-05 
0.0002424594577177655 
0.0001102862221639429 
-2.327518346038153e-05 
-9.900027517245408e-06 
1.546835467239484e-05 
-2.488581005596791e-05 
2.991023738630178e-05 
1.392828192639365e-05 
4.20384089044282e-05 
-7.373951644047078e-06 
-6.464133007952707e-05 
-0.0002368142179038932 
1.204512413212816e-05 
-1.075535385056256e-05 
1.549209529300982e-06 
4.374360169942384e-05 
-4.139463950465026e-05 
6.134632399666551e-07 
-4.77645247185487e-06 
-8.599033831512531e-05 
3.866005381815269e-05 
-1.479777352907496e-05 
-4.154060868128157e-05 
5.465227424026036e-06 
-6.193264950320476e-06 
3.859240270621715e-05 
-1.785556440462044e-05 
6.908315952140532e-05 
7.917711132110117e-06 
4.883911689087124e-05 
1.904026123675479e-05 
0.0001032320031385513 
1.620762864862658e-05 
7.272980631528657e-05 
5.493903850643049e-05 
-5.594102596302899e-05 
-8.556240322132871e-05 
-2.24030791463896e-05 
4.120796691719375e-05 
7.6849287319809e-05 
3.354685405015101e-05 
3.945278235167577e-05 
0.00014821008505008 
-5.376226487065683e-06 
-6.27056321902485e-05 
4.816945930394641e-05 
2.785416164747865e-05 
3.829108528384108e-05 
1.264571224012733e-06 
-1.499712028922873e-05 
-2.71719925784726e-05 
3.494488116494916e-06 
2.911940112395166e-05 
-0.0001793515456127452 
8.03044719978856e-05 
0.0001435620542183607 
-2.90158892063198e-05 
-0.0001484664688190567 
1.114479976308523e-06 
3.938094184275547e-05 
3.227570903205881e-05 
-1.780768598229876e-05 
-1.697215122808193e-05 
-0.0001473305245833962 
-0.0001466779938290356 
3.101039905805611e-06 
-3.461684015727527e-05 
-8.944497837412598e-06 
-5.34918983368794e-06 
9.930953795990201e-06 
4.930869905177946e-05 
-2.46756415530677e-05 
-3.737997273451187e-05 
-1.472068884885225e-06 
-1.415918658092833e-05 
0.0002129471783799294 
-2.899386730352964e-05 
8.878324235663219e-05 
-0.0002405719795884968 
-3.535041938555755e-05 
0.0003492566267967759 
-0.0002252941506455286 
-4.916756640552408e-05 
-0.0001603051324953442 
-2.027925828342743e-06 
1.082346612606017e-05 
-4.525259237401723e-05 
2.291039320925474e-06 
6.239405785250148e-06 
1.853857410962259e-05 
2.940832151513545e-06 
2.337789903771155e-05 
-3.023420485664574e-05 
1.442116199002264e-05 
2.678893737314356e-05 
-1.85444715902685e-05 
2.274433694127632e-05 
-1.795946915786844e-05 
1.037561215074802e-05 
-3.102395368743448e-05 
3.365663928566476e-05 
-0.0002281205128246648 
-3.067479441974189e-05 
0.0003219779483733937 
5.113023090127321e-06 
6.64894218430495e-05 
-7.008497431121652e-05 
5.980454104515855e-05 
-0.0001172293772343459 
-4.754129655424303e-05 
5.984134146424768e-05 
3.660689601784877e-05 
3.317751269268544e-05 
-4.24484341285365e-05 
-0.000124142837815862 
9.899820055000492e-05 
1.304555185007287e-05 
6.198484605616456e-05 
7.661837612493464e-06 
-4.627315446589096e-05 
2.649612523715011e-05 
-1.328915303316118e-06 
-0.0001406252578410978 
4.32887699082047e-06 
4.269784741613584e-05 
-3.082050562010838e-05 
-8.977319370752658e-06 
2.054161291752086e-08 
-2.452936330510188e-06 
7.845719718237909e-05 
-4.403313943163956e-05 
-6.996472808134108e-05 
8.028476279714215e-06 
-9.506907627948483e-06 
1.768095937954832e-05 
-7.378397870024011e-05 
-0.0001305108234544485 
0.0001408569146063396 
-4.434193262849397e-05 
2.53630333531887e-05 
-6.831880583703758e-05 
8.798984550249651e-05 
7.987125692628908e-05 
-3.483309095967794e-05 
0.0001593529234691596 
3.193921263520405e-05 
-4.858748611894859e-05 
1.206847272388033e-06 
-4.778479070026817e-05 
-0.0001475952990070247 
-4.697194271544667e-06 
5.169049936928049e-05 
5.154787126494084e-05 
-7.897424722790355e-05 
-2.891586400540414e-05 
-2.594073598761318e-05 
5.61910120998601e-08 
-1.695046216128836e-05 
3.967061231175864e-05 
4.455641626764936e-06 
8.030255448792757e-05 
-3.266791351379217e-07 
-6.444802378797878e-05 
-5.677103479582545e-05 
3.031499477049164e-05 
5.354555776593023e-05 
3.820975879270365e-06 
5.856603004849819e-05 
-1.682798791786123e-06 
8.938679895139613e-06 
-4.932120171186801e-05 
5.993261356004615e-05 
8.55179898011179e-05 
5.779255007928204e-06 
-8.112343981266014e-07 
-2.560524533774468e-07 
-2.072525019309045e-05 
-4.694879692652741e-05 
6.052540756809795e-05 
7.794938947097125e-06 
-4.522621381376773e-06 
-0.000294505694353546 
-3.279169928561304e-05 
-0.0001204696418430981 
-3.1362755979466e-05 
-0.0001320144637615457 
0.0001356253392524979 
4.294447997832218e-05 
3.001729377700123e-06 
-1.204396073660194e-05 
-3.850837393906279e-05 
-3.946879802898912e-06 
-2.976034590418723e-05 
6.001232283321748e-06 
0.0001133619453318155 
-1.257422873655801e-05 
0.0001069018270830393 
-5.119282579457704e-05 
-1.826947561957073e-05 
-2.658902095629424e-06 
-2.643488599206243e-05 
1.282442924478008e-05 
-6.739666382497178e-06 
9.121610030571083e-06 
-0.0001674038893319774 
-6.008573524002152e-05 
6.25279475723103e-05 
0.0001023061155186835 
-0.0004787060977048374 
0.0002944843810680388 
-3.190888228146412e-05 
0.0001340066528043604 
-8.707632147650948e-05 
1.564722794883522e-06 
-3.582287639798088e-05 
-2.895639241399545e-06 
3.123588473232929e-05 
1.46979217277682e-05 
-8.621063179229405e-06 
4.942290821791915e-06 
8.448670438646522e-06 
8.013877912984245e-05 
4.670000190599583e-05 
1.627834094262115e-05 
9.691209998719444e-05 
1.007752918202463e-05 
4.368320981639318e-05 
-4.634943420104759e-05 
-2.57728911983328e-05 
-2.908571332449206e-05 
0.0001179361474422318 
-8.924815444690353e-05 
-0.0001702054540346978 
1.997792409409735e-05 
6.756355093608293e-05 
-1.941608962881074e-05 
-0.0002026751111371991 
1.771988972988645e-05 
3.165414866014294e-05 
-7.236484480558759e-06 
-4.983455472686284e-05 
-6.246510004413935e-06 
-9.372725756839057e-06 
-0.000118028115026387 
5.143868803734984e-06 
0.0001300437132210606 
-7.56033787439206e-05 
-9.114132926702466e-06 
2.992044730380465e-06 
-1.627575771408052e-05 
-4.962408238173184e-05 
1.354634452955385e-05 
0.0002603437456723245 
5.209219731356202e-06 
1.281997038083596e-05 
-8.906669809460396e-05 
-7.587248328023752e-05 
1.932536757080438e-05 
9.879179034781356e-05 
4.087704861260033e-05 
9.297267282662862e-05 
-0.0001104514111413593 
6.19176716240684e-05 
-1.861388561297931e-05 
-2.360800499259586e-05 
-2.552599460820807e-06 
1.586747716102895e-05 
5.465236689364387e-05 
1.974698072083225e-05 
-6.859872721393607e-06 
5.397492547065763e-06 
4.095136237922347e-05 
-5.877187692735776e-06 
-3.946839251231512e-05 
1.111828735990287e-05 
-2.403960958634564e-05 
6.114839827509673e-05 
-7.035851427790963e-05 
9.815782667126182e-05 
8.309359975361908e-05 
5.327871125261804e-06 
6.085247442281295e-06 
-1.1661014460926e-05 
-0.0001030811045468482 
-2.108427915337729e-05 
-9.935616711040162e-05 
7.159970946650809e-05 
6.889593685566477e-06 
-8.344286863786431e-05 
-5.671093619872271e-05 
-1.653911073668576e-05 
9.991246101603854e-05 
-2.814938569702441e-05 
1.318107739203272e-05 
2.381867070110582e-06 
5.414313773724501e-05 
-7.203795615704556e-06 
-7.428336631156625e-05 
1.785920666519895e-06 
2.219543435310341e-05 
4.450309059739653e-05 
3.426469229276867e-05 
-7.93177191013405e-05 
-1.728735756400292e-06 
0.000119043365708272 
-0.0003521733478068832 
0.0003105047776217747 
-0.000141874400311351 
-8.531190012742458e-05 
4.647496552581847e-05 
-1.74453731847563e-05 
-3.905297143984259e-05 
5.135026432124082e-05 
-8.307732423589504e-06 
4.614710512924688e-06 
-3.879144301783198e-06 
2.520404245729487e-05 
2.029256565192255e-05 
-1.634441238945112e-05 
1.599159004346385e-06 
-4.762904284900884e-06 
6.09196290815251e-06 
-1.09452839515643e-05 
2.730250178413932e-05 
-2.229044701740672e-05 
1.160366086632147e-05 
-3.646437710657463e-05 
-3.239359604162001e-05 
-0.0001233719934537767 
0.0002082335227828669 
4.125326612140117e-05 
-3.864337279967626e-05 
-0.0001413221784557777 
3.345483254394847e-05 
7.03440640762234e-05 
-1.407559819833593e-05 
-0.000190390136147667 
-1.113182981588096e-05 
-2.993172785758525e-05 
3.206025002798265e-05 
4.994581293515172e-05 
-4.471355746331227e-05 
-3.542782706191496e-06 
-1.551427149715504e-05 
3.94734847669719e-05 
-4.966724625494666e-05 
0.0001047583716100795 
8.2822811299168e-06 
6.200384443241063e-05 
-1.614600293542096e-05 
-2.630604276410774e-05 
1.057979348217867e-05 
3.983587467783454e-05 
-1.591576165643399e-06 
-9.312444595485019e-06 
-7.298323613037975e-06 
0.0001407141983064752 
-1.668053793748395e-05 
2.874342142484605e-05 
1.253810758016756e-06 
-4.10505930222631e-05 
-5.719460328265994e-06 
3.344438639846134e-05 
-1.896117521276406e-05 
-0.0001031594304902413 
-3.228703612841102e-05 
-1.037124124537043e-05 
-1.847601126248477e-05 
8.049820454062528e-06 
2.199819916553643e-05 
-6.020574756640165e-06 
-1.778351396833927e-05 
-2.341108312286445e-05 
-5.70803323415409e-06 
-8.654653618140024e-05 
9.720626164685914e-05 
-0.0001912516380129646 
0.0001708646765247653 
-0.0001545576985575399 
6.652493062579076e-05 
-1.517185766969842e-05 
3.33081237875931e-05 
-4.518156813231919e-05 
-8.27349795411192e-06 
0.0001010473538308513 
-4.267182179564511e-05 
1.119831101149203e-05 
4.894181665930594e-05 
-5.598341658562194e-05 
-2.655787522519558e-06 
2.660500129392118e-05 
-7.950265729380048e-05 
0.0002999382418975599 
-0.0002219154256811285 
0.0001529134404707841 
-7.922747059534328e-05 
-0.0001764721358538176 
6.669075206468086e-05 
1.306889207558517e-06 
-2.835023765741426e-05 
7.763023583514277e-05 
-2.964787831474075e-05 
-2.642416378561131e-05 
3.067899411474438e-05 
-6.02332879677227e-05 
1.051115745649791e-05 
-3.855320694050563e-05 
7.365028191420169e-05 
-1.889399502047046e-06 
-5.243474011957684e-06 
-1.316838627271157e-05 
4.156165691718881e-05 
3.102795400019373e-06 
2.642524737718956e-06 
1.276114452515125e-05 
-2.845609734568551e-05 
6.45105571458907e-06 
-4.970350970760222e-05 
3.775620053477337e-05 
-2.676183546521059e-05 
-0.0001309375040271406 
7.833469199837932e-05 
-8.520157598667512e-05 
-1.132551200069025e-05 
-5.598666988789113e-05 
-5.823325127244593e-05 
-0.0001386346185036736 
-1.036775996338604e-05 
0.0001316101454605245 
0.0001500029862108468 
5.492277924845077e-05 
-3.296727616830637e-05 
-6.433354346954066e-05 
-2.683343758023932e-05 
3.736853531042576e-05 
-6.828489410853391e-05 
2.88494966948144e-05 
-7.266964804748988e-05 
5.569603222574564e-05 
0.0001465963082577741 
7.522410461037814e-05 
1.837706797470763e-06 
-2.182285709100035e-06 
-1.242070358477739e-05 
-3.432443238353858e-05 
-1.928990029268416e-05 
-0.0001183162087980252 
7.712987496479826e-05 
-1.614393397392254e-06 
-1.800214067729411e-06 
3.569932425567006e-05 
-7.536155204922725e-06 
-2.751985215333736e-05 
-4.714981128862101e-05 
8.11157741121406e-06 
3.135587532395491e-06 
-3.810461136645982e-05 
-4.505236001779895e-06 
-3.288113618421909e-05 
-1.288245182569591e-05 
-6.353222665946826e-06 
-3.731370638177035e-05 
3.05026391905598e-05 
8.969633563624006e-05 
-6.094531573838894e-06 
-3.129940278290202e-05 
-3.181894378877916e-05 
-4.138408976040449e-06 
9.31830371029126e-05 
-0.0002177130772798443 
-4.367355500519237e-05 
8.998026114675027e-07 
-0.0001025818874371668 
8.216382806887301e-05 
-2.228751861606997e-05 
0.0003298803696529669 
3.824113860305628e-06 
6.508386363683425e-05 
-4.061663911492779e-05 
7.606372638031882e-06 
-0.0002224872511559945 
5.827369342233559e-05 
4.710304538180216e-05 
2.996897903374595e-05 
-2.811395944547294e-06 
-0.0001461576707641951 
2.986081818097972e-07 
-5.266794618604176e-05 
6.572248324593042e-05 
-3.681513365196009e-05 
3.511112421431393e-05 
0.0002630980217551537 
-1.140868461734328e-06 
-0.0003639046388625793 
5.618009747979946e-05 
0.000252377716736812 
-5.284696945858724e-05 
-4.224366112516814e-05 
-3.329420718685389e-05 
3.769255305732269e-05 
-1.015589407296583e-05 
7.412840547928204e-06 
-3.361221477477183e-05 
-7.3125432917203e-05 
-6.566906277054955e-05 
3.880865945683797e-05 
5.987951112508798e-06 
-2.188070576116181e-05 
0.0001120751964056138 
-1.414714726079022e-05 
2.213017312128914e-05 
4.336534196445925e-05 
-5.74126934049379e-05 
-2.736224525864403e-05 
-2.646443861151833e-06 
1.764556602516215e-05 
-9.909562382509097e-06 
-7.0230600645019e-05 
6.570279435365112e-05 
-1.049131356651501e-05 
5.3765389331214e-05 
4.152300234228831e-06 
4.309968814595495e-05 
-7.540439905829008e-06 
2.13332147440661e-05 
-0.0001879505780657491 
0.0001490777036798858 
-9.213129507311268e-05 
-5.948870510694084e-05 
5.388476625690962e-05 
-4.476749715905791e-06 
-7.084404173424531e-05 
4.278260737958843e-05 
-6.103322033431968e-05 
9.212491605899858e-06 
-1.880243205950293e-05 
-1.874321460110526e-06 
-1.538585933387109e-06 
-1.108729127787964e-06 
-3.384867836802533e-05 
-2.499216287419732e-05 
3.055999859665864e-05 
-2.024957320325204e-05 
-1.455783212377643e-06 
-0.0001099073672626958 
-3.853333143673348e-05 
0.0001439523474723077 
0.0001288961712489419 
-1.629613465563928e-05 
2.060786413151146e-05 
-2.755979415782536e-05 
3.856336486554815e-05 
-4.038325269787666e-06 
-8.126038920200006e-06 
5.587575792030012e-06 
7.201415667756089e-06 
2.085427973566921e-05 
9.115302384816247e-06 
-1.82726162789308e-06 
4.301783484889057e-06 
-9.580084855415107e-05 
-8.312949463270683e-06 
-3.596938285342146e-05 
8.517939466899725e-05 
-2.154735299982711e-05 
-0.0002132981218721126 
2.408385810873025e-05 
9.565030749018142e-05 
-0.0001864493694835362 
8.534504719777975e-05 
0.000104351466715766 
-7.017067395523415e-05 
-0.0001015689088590338 
-2.212976019689153e-05 
0.0001344606056482693 
2.119065601201197e-06 
7.482262663942141e-05 
-5.574812812707008e-05 
8.253453100943455e-05 
-5.923436565012373e-06 
-0.000103397312515685 
-4.998093194895736e-05 
-8.516220984118753e-05 
0.0001292637534372165 
-7.342591138051642e-06 
-8.809296643942645e-07 
-1.136848873894611e-05 
-8.987616990809034e-05 
6.256980712648512e-05 
3.723499885358721e-05 
1.963349356743888e-05 
-6.389976560737122e-05 
9.696015444998583e-05 
-0.0001621459465891597 
-0.0001010858652294701 
0.0001109739203455535 
1.537848887450061e-06 
2.86482136442799e-06 
-5.011058805710508e-06 
2.670819177689641e-05 
-0.0001146798891486282 
1.086998106702312e-05 
7.442780218460188e-05 
-1.68796938839305e-05 
-3.362435381296959e-05 
-1.84106763231859e-05 
-6.934903001770176e-05 
3.818365849074891e-05 
7.459100298158151e-05 
3.762007495105364e-06 
0.0001078665720026927 
5.56589007237389e-05 
-2.712608304632295e-05 
1.272155334318468e-05 
1.950584208079732e-06 
-7.356588400782283e-06 
7.603572307799872e-05 
6.624286192678009e-05 
4.598762244188375e-06 
1.561017448684645e-06 
7.906312275889482e-05 
-6.175755826417586e-06 
-3.311797529041054e-06 
2.547221490074317e-05 
-2.278011417081623e-06 
-1.388147087286369e-06 
1.364631412525197e-06 
-2.487788269367363e-05 
-5.225559029149969e-05 
-1.414858079633747e-05 
-4.491589653412419e-05 
-6.847184900766927e-06 
3.932263967752027e-05 
-0.0001244745900292402 
-7.219889450094188e-05 
3.642415173432563e-05 
-4.237035318930088e-05 
5.0125979883514e-05 
-8.146517835372488e-05 
-2.162945896843322e-06 
-0.0001225977311286647 
7.985614063103891e-05 
8.12238299556654e-05 
1.817850184860843e-05 
3.737385334297453e-05 
3.366124703919607e-05 
-0.0001331284051878349 
-1.974887819905616e-05 
-1.104145454840278e-07 
5.375352031062378e-06 
-3.507495667235611e-05 
0.0002094572682341068 
-7.20732358102806e-05 
8.117716037001313e-05 
-0.0001233999694584548 
-1.529427474501829e-05 
-1.209718362518628e-05 
-9.565185747511848e-05 
-8.956984889153867e-05 
-2.840808101170953e-06 
-9.743098026255875e-07 
4.232975085039209e-05 
8.390565438884929e-05 
2.645444359607532e-05 
6.274917313093991e-05 
-3.738459050810467e-05 
2.041671258080142e-05 
-4.092922177479436e-05 
-7.169735624350074e-06 
-1.032247030856705e-06 
1.894910505958959e-05 
-1.195726544024698e-05 
4.86027108297126e-05 
-4.991254223089463e-05 
-2.026918659785596e-05 
-6.02579986867215e-05 
0.0001426282246525957 
-0.000272951427804006 
-2.501438671634081e-05 
1.674748682915433e-05 
-4.804692376596359e-05 
8.353700645110653e-05 
1.406068122780861e-05 
-0.0002302303801051065 
-0.0001201000657362222 
5.735093319655631e-05 
6.411451670500951e-05 
1.3784218786595e-05 
6.751120048308906e-05 
6.925188478434741e-05 
1.176406586584404e-05 
2.842678426933414e-05 
-6.334816925199457e-05 
0.0001009904554731253 
1.090370560847678e-05 
4.114575020479157e-06 
-1.128772281059624e-05 
1.115934453388688e-05 
9.903275580392088e-05 
-3.488172689935618e-05 
-2.438020485379462e-05 
1.061107131682588e-05 
1.572450925884071e-06 
5.857410572560999e-06 
9.036994827766826e-06 
1.727600468902832e-06 
-1.367235959207377e-05 
-2.828404431523855e-06 
2.844226881472968e-05 
-3.769531150181328e-07 
4.762496847679835e-06 
-1.83430772441541e-05 
-1.240131177566948e-05 
-1.019913896884413e-06 
7.021346588858124e-05 
-5.08150906858215e-05 
-7.741177513906477e-06 
2.339617226689072e-05 
8.291375743324472e-05 
1.337019949150546e-05 
-4.153685344682837e-07 
-7.172322187509678e-06 
-2.86548640832503e-05 
0.0002674769258119732 
2.766188463191931e-05 
-1.323695668968788e-05 
-4.04101120087666e-05 
-8.881675576286455e-05 
7.900120450805538e-06 
-1.134731841872364e-06 
-7.422214867204894e-05 
-6.447242718684555e-05 
5.639568847369943e-05 
-2.21821531659345e-05 
-0.0001498076873279286 
-0.0001025015350471714 
-5.79688419962853e-05 
2.743485439259446e-05 
5.456600024508412e-05 
-4.107952448376334e-05 
0.0001174799962241599 
-0.0001547472508407552 
0.0001466801015576359 
-7.178984662425281e-05 
-3.580865542897847e-05 
3.112911737296717e-05 
4.059130601172002e-05 
-4.042093684205747e-05 
6.132412852415049e-05 
1.945052754021366e-05 
-1.23166908404717e-06 
0.0001170759988004953 
-6.217323215709988e-05 
-1.667907631664599e-05 
-2.054336371886821e-05 
-0.0001733052115202998 
7.778901913241443e-05 
-8.110853687528078e-06 
0.0002768396774360949 
-0.0003773771206686226 
1.611264820026316e-05 
5.062845104672129e-05 
6.577353016394415e-05 
9.132184394744985e-06 
-4.589574806265381e-05 
1.649560280793366e-05 
1.502440295048241e-05 
5.376633908273366e-06 
-1.400722180780586e-06 
-2.670827422455384e-05 
-6.96198386502094e-05 
-7.640443209060022e-06 
-4.704801387275123e-05 
9.701855823547034e-06 
2.659196566940279e-05 
-9.821068349146089e-06 
1.552238688243177e-05 
-2.373616013244584e-05 
2.988371474769342e-05 
1.687407686524419e-05 
5.373530946510411e-05 
-3.162858609732144e-05 
6.313254075513959e-05 
5.734621470968724e-06 
-3.526302109510508e-05 
-1.500926279315164e-05 
7.683933432409269e-06 
6.184848917720892e-05 
3.075453526688047e-05 
-2.55791709709727e-05 
-3.837539745901547e-06 
0.0002861431073244296 
-0.000132122656660483 
-1.957249875954741e-05 
-1.490997039294306e-05 
-0.0002426126348340255 
-4.731525111015636e-05 
8.556492214841159e-06 
-0.0003419914254278055 
-4.97189860243432e-05 
6.333305643739559e-05 
0.0002270187227681931 
6.130388275536172e-05 
3.566956919423857e-05 
-8.112404937056649e-05 
5.452472693022467e-06 
4.068518821539567e-07 
7.725716078750501e-05 
-2.23803838943531e-05 
2.35008508096999e-06 
-1.524446821600454e-05 
1.694316815824796e-05 
2.30130713988568e-05 
2.1330364435322e-05 
-6.738354544167843e-06 
-3.45949577882079e-05 
9.633546016904765e-05 
-0.000146083716076174 
1.719108558336761e-05 
-4.293224104084656e-06 
-4.077425482629637e-06 
-2.218550052903584e-05 
0.0001749159771934946 
-6.046999955621777e-05 
-9.960751602601937e-05 
-2.82531276309822e-05 
1.441780233075238e-05 
-0.0001841463311706514 
3.070014266966857e-05 
-0.0001806510965318409 
0.0004102360403941978 
-1.798379719016726e-05 
1.087145683987785e-06 
-1.726525351650903e-05 
-8.219519444612982e-05 
5.38276897129824e-06 
-1.584873417584628e-05 
8.130429119035994e-05 
0.0001497653525267821 
9.636229242286148e-05 
2.199497121509986e-05 
-7.51797005591532e-06 
-1.575176317628735e-05 
-6.46982304590837e-05 
-9.818615309971269e-05 
-2.440858958662543e-05 
-0.0001405442284723595 
0.0001238240470677914 
-6.421924960674175e-05 
3.126392007476111e-05 
-0.0001516309323634832 
-1.352248710416105e-05 
7.335089038655428e-05 
-1.786312260799788e-05 
1.576083805880226e-05 
-4.87398208280354e-05 
2.083292682526915e-06 
-0.0001466976210938334 
0.0001534155807451904 
4.40320081141145e-05 
0.0001030361776876799 
-2.41621443727716e-05 
4.088762060372213e-05 
-0.0001318635740988764 
-9.601463779559449e-05 
2.542475109760539e-06 
3.667473362111348e-05 
1.826940226741707e-05 
-6.442138409709796e-05 
4.44749993803229e-05 
-4.230919827343787e-05 
5.283921814220347e-05 
2.458181313286556e-05 
2.813207576454006e-05 
7.329771506728423e-06 
1.487184449899055e-07 
1.434691502980894e-06 
7.626251031540499e-06 
-1.872831665759834e-06 
-2.889487113080784e-05 
-1.700235543852337e-06 
4.206616407866408e-05 
-4.947500641059381e-05 
-0.0004092208384103555 
0.0002087713312301138 
6.160553259671709e-05 
-2.614179355986702e-05 
2.79681137422225e-05 
8.750580855081775e-05 
-8.396337218851358e-06 
2.133984492317629e-05 
2.323400129533461e-05 
-2.491162034090866e-05 
-4.474739037796658e-05 
-7.540358485614727e-05 
-5.097093510996018e-05 
7.834387127709624e-05 
-1.467056798141901e-05 
2.747698769038677e-05 
-2.977387924007428e-06 
-2.66912780271694e-05 
0.0001150836396447026 
6.117418190630506e-05 
7.662052877735142e-06 
-0.0001098546785222795 
-2.517981154701296e-05 
3.566111458040129e-05 
3.158473730287848e-06 
4.129382958861649e-05 
3.686578188609896e-05 
1.839185785653455e-05 
1.336527117345458e-05 
2.863875524174105e-06 
6.388520666983396e-05 
7.534628062215031e-05 
-2.23125230157341e-05 
4.01914879583263e-07 
-6.721828025705424e-05 
-1.270270841209596e-05 
-3.277257921905688e-06 
4.465389203627289e-05 
1.154937509161137e-06 
6.003966642016947e-06 
-0.0003712592252139262 
-6.172426833855096e-05 
-7.082818661339941e-05 
-3.340313811002352e-05 
-5.171906302472783e-05 
7.040656459743302e-05 
0.0003203102264288762 
-0.0001385232596446542 
-3.053643880429546e-05 
-1.459264955469724e-07 
5.490659174088842e-06 
-1.144088601503758e-05 
-6.475162678481271e-06 
1.437898669286312e-05 
-1.761684815426836e-05 
-7.384191185049789e-06 
-3.519918336836272e-05 
4.137989303867899e-05 
2.35785318545239e-05 
0.0001270735458577266 
-5.713402142543682e-06 
-1.536026535766273e-05 
9.543561657863432e-06 
7.193809808970585e-05 
-0.0002706673885859833 
1.111325978505368e-05 
-2.85587298533341e-05 
9.315409163829513e-05 
2.615352860855508e-05 
7.797207974457255e-05 
5.487383435064491e-05 
3.319458749301137e-05 
-2.211161443559794e-06 
-1.171027530423514e-05 
-0.000128506729255149 
-3.870995347914626e-05 
-1.00244125517604e-05 
1.415974790941479e-05 
-2.031440423666565e-07 
-6.352830559711946e-05 
1.237953539779027e-05 
-1.368626956538293e-05 
2.414169419942623e-05 
9.917221824687931e-07 
2.631948250065801e-05 
6.736717214260922e-06 
-2.200608259284375e-05 
-1.016303502825252e-05 
-0.0001437844422392185 
6.997524664647613e-06 
9.578062793196839e-05 
4.430144782351167e-05 
2.539637509992251e-05 
1.04859831915798e-05 
4.256111454213176e-07 
-4.295288718537401e-05 
3.189258457882031e-05 
-7.001392631721427e-05 
-3.999447128628807e-06 
-8.065759700573716e-06 
0.0001602582751194661 
4.208967071649523e-05 
-1.938243011373096e-05 
9.248639422052732e-05 
-1.474967156151223e-05 
1.038904519321172e-05 
-0.0001684765615872033 
-0.0003104273991687792 
0.0001615146234537916 
5.068479002011522e-05 
2.577397147108641e-06 
-5.812958803138637e-05 
-4.905788362785426e-05 
7.034731724188057e-05 
2.345353879744387e-05 
-2.879309057296933e-05 
6.25987478240421e-05 
-0.0002926343755437489 
5.273132375644808e-05 
4.266107871169874e-05 
-4.320682114126114e-05 
-2.465747583206539e-05 
5.276635819279304e-06 
-6.6425129145454e-05 
-0.000142645731107831 
-3.670070601925534e-05 
4.977000921113692e-05 
-0.0001129619800473892 
6.909761773974895e-05 
6.963121578617761e-05 
-2.481024462664719e-05 
3.004282169522053e-05 
0.000232575727587809 
7.655618855218724e-05 
-0.0001215088307912981 
-4.673957129900162e-05 
2.233246128569956e-05 
5.935508382692296e-05 
-6.346183583156999e-07 
-1.460561119119085e-05 
-5.089958704592569e-05 
0.0001310676053316591 
8.066370441031556e-05 
-0.0001018674196463674 
-3.211823523124113e-05 
-1.343306729324037e-05 
7.333074718821266e-05 
-4.48948933087235e-05 
-5.583592907128818e-05 
-8.3257205032428e-06 
-3.667143314931066e-07 
-3.268588308847787e-05 
-0.0001322039528710398 
0.0002614802055650072 
-4.077257378409505e-05 
-0.0001842147136014186 
-1.826066975035391e-05 
8.013433180722581e-05 
-4.283653062756535e-05 
7.435488858488103e-06 
3.051758912432137e-05 
-4.222855383306592e-07 
-2.303427912441199e-05 
-5.720602491946303e-05 
-0.0001120770060452535 
1.282953525855113e-05 
7.082551673952983e-05 
-2.173116111595392e-05 
4.878386341777583e-05 
0.0002240229421727261 
-4.701557337928944e-05 
-8.434662461516894e-05 
-2.762197112579172e-05 
5.967331866549294e-05 
1.989522910010318e-05 
1.048704300950074e-05 
-0.0002604101172901577 
-0.0001109278649323633 
-3.79053334064719e-05 
6.665210090924409e-06 
-9.508581183507719e-05 
-6.403481470684295e-06 
4.018275573018553e-05 
0.0001106686918798504 
9.138729713091638e-07 
-3.82704384563971e-05 
-2.761325078691606e-05 
9.904678840290968e-06 
4.393818393853701e-05 
8.573296123504428e-05 
2.939339974427018e-05 
4.062384730984055e-05 
9.329064855685316e-05 
-4.463156796408526e-05 
1.361650167824539e-05 
1.077701452686869e-05 
6.977208942593775e-05 
0.0001470075264247059 
-7.62215056318137e-05 
1.29492935801185e-05 
1.759797685965282e-06 
-4.598709558577204e-05 
-3.168358516476305e-06 
-9.023557825788067e-07 
-9.006561944578929e-05 
2.69311569145636e-05 
-1.399907936705025e-05 
2.747625151922246e-05 
9.528497960628489e-06 
-0.0001016203190703924 
-1.199544012453187e-05 
-2.002898355856428e-05 
2.738317698967958e-05 
1.446322846531428e-05 
6.02534695419267e-05 
3.820244189391712e-05 
0.0002427743018357265 
8.573897928450529e-06 
-0.0003313943591554793 
9.758694602508049e-05 
2.315868765894709e-05 
-3.566386224828902e-05 
0.0002184322423600902 
5.539022412066263e-05 
2.755483649734971e-06 
6.734978541377755e-06 
-5.129112024401599e-05 
-8.019391433988162e-05 
1.002072319662879e-06 
1.44252815549379e-05 
-4.035195611071747e-05 
-4.461871954754453e-05 
1.27095289664662e-05 
-0.0001216745723002723 
-0.0001859750663851789 
1.456445857558957e-05 
6.520161441792109e-06 
4.348152363994307e-05 
6.456412331484148e-05 
-1.768441211880925e-05 
6.775309420367547e-05 
5.209343838570887e-05 
-0.0001107379489000315 
4.200610388219887e-05 
2.129676006676465e-06 
-6.203118816851819e-06 
1.761232515063173e-05 
-7.151715180702308e-06 
-0.0001845571937100643 
-0.0002282039512706926 
-1.16418189784949e-05 
-6.835469509168568e-05 
2.181570071678298e-05 
-4.565410481944531e-05 
-1.506750639569629e-05 
-1.608282685790947e-05 
5.273099661182282e-05 
4.031348007947913e-05 
3.51056988927093e-05 
3.502112393147988e-06 
0.0001303240522524465 
3.625980959426831e-05 
4.350066163624779e-05 
0.0001760673612663032 
-0.0001151188634355449 
0.0001507815929368145 
-6.857193945931292e-05 
-3.638896788109405e-05 
0.0001226584913019084 
-4.533511155822741e-05 
1.939787194132464e-05 
-0.0001349707033153 
3.502305790548395e-06 
-4.882239874222935e-05 
3.371656118313942e-05 
4.862296987430573e-05 
-1.836014482651114e-05 
-4.541449659823937e-05 
-2.221646797640317e-05 
-4.214468827177234e-05 
1.949694865299731e-05 
-8.349957662779508e-05 
-5.6200858367283e-05 
-1.447910239877525e-05 
-0.0002811035491326195 
-3.731567101696691e-05 
-4.639546550630135e-05 
0.0003663945008462579 
2.50015458942197e-05 
5.684955507059072e-05 
-1.548286711094507e-05 
6.033306367653192e-05 
8.430268145234379e-05 
-0.0001483814858433587 
2.909897983127914e-05 
6.352371667108689e-05 
1.908461720899566e-06 
-1.397721692007743e-05 
5.206685384471677e-05 
1.046472057836627e-06 
5.290532135893719e-06 
-4.156299344529858e-05 
-6.464131190476284e-06 
-9.322033146499004e-06 
-6.902161414197643e-05 
-5.438516233598544e-05 
9.352528878696254e-06 
-2.545009623489607e-06 
-1.454388433615353e-05 
-7.663571230436473e-05 
-3.994012737142195e-05 
0.0001717397368203741 
-5.875421746933113e-05 
-4.818777470067388e-05 
-0.0001852473162481584 
0.0001155442995151284 
-8.904447146164922e-05 
6.445371160477999e-05 
-0.0001022043013705893 
-0.0001108252271310821 
-7.768434536581267e-06 
-7.422334473795435e-05 
7.804839673482733e-05 
5.603568086238297e-05 
4.208955395298832e-05 
-4.903826754693754e-05 
1.023103428314915e-05 
0.0001652355027078858 
-0.0001270351427280771 
0.0001261321234550489 
0.0001160743638371636 
2.700807914398862e-06 
6.158080224668011e-05 
-1.566462239981871e-05 
3.660088918982031e-06 
2.219800029285347e-05 
8.719073284463903e-05 
0.0001136478981491935 
0.0001472327109968274 
-0.0002254715487443853 
-5.178175650065063e-05 
2.960784335268718e-05 
1.266461919437365e-05 
2.878783925996102e-06 
5.682644272943578e-05 
1.466321678630867e-05 
6.476363627631585e-06 
-5.066795802271415e-06 
-3.018190828746223e-05 
-0.000175830025654329 
1.6438361857342e-05 
-0.0002104061604383988 
3.279288360236769e-06 
-5.458346090976499e-05 
-1.072991684083415e-06 
8.5828595735949e-07 
5.845999130091941e-05 
-2.084420317110241e-05 
0.0002141223144117007 
-4.289757760690335e-05 
-8.316530915591159e-05 
-2.560614460298054e-05 
-2.506249348459448e-05 
-5.859880573096076e-06 
-8.295178646971048e-05 
0.0001756238580982653 
3.467076189681776e-05 
-1.384742882299605e-05 
-1.397721692007743e-05 
3.727178197552311e-05 
-9.576798645341312e-06 
-4.402356021094173e-05 
-2.783755603648636e-05 
1.54742426754965e-05 
6.588072713068837e-05 
-0.0001688490842801605 
1.56998168948978e-05 
-2.015980746007598e-05 
8.229625246159645e-06 
-2.846623060289299e-05 
-0.0002633256038787429 
3.438208562611249e-05 
-6.507823095735891e-06 
-8.445914009431867e-05 
4.532646292888028e-06 
6.168476351756182e-05 
-1.336038849639568e-05 
-7.700333481021129e-05 
3.213819974359366e-05 
-2.445463359670606e-06 
0.0002273994959344092 
4.572804962316569e-05 
1.617062123891819e-05 
8.609687315745793e-06 
-5.278827060931024e-06 
1.791120805457117e-05 
4.70424801843226e-05 
2.240902206454996e-05 
6.58399335371653e-06 
1.813438966075891e-05 
7.341825081120629e-06 
0.0001483594687284117 
-1.593601808219573e-05 
8.408066988686745e-05 
8.395328673192718e-07 
4.254310618987624e-06 
-2.551174140778869e-07 
4.698462241155429e-06 
6.171526650771396e-05 
5.291696142482444e-06 
5.005140094866405e-05 
2.442477688764721e-05 
2.275175919978744e-05 
-4.915625194899993e-05 
-1.145104413812245e-05 
9.648245926507962e-06 
-1.056260333969551e-05 
-6.621774539816393e-05 
-0.0002106045336308711 
-8.548629949376429e-05 
-1.047794087774834e-05 
5.817786584655736e-05 
3.476591174983275e-05 
-6.477312344935648e-06 
3.610430347968934e-05 
-0.0001187591162968529 
1.086571134247256e-05 
-2.123251652409726e-05 
2.930584906654142e-07 
-1.552941831288787e-05 
3.16558254097502e-05 
-5.316217197212881e-05 
-3.373327138053973e-05 
1.135317191189226e-05 
-1.496533187879625e-05 
7.739531060527139e-05 
-5.342587716795823e-05 
-1.433042696258077e-05 
9.482598149845596e-05 
7.176934674269225e-05 
-1.143225553622687e-05 
-2.715788483408191e-06 
1.488445242483216e-05 
7.25482275150472e-05 
-7.330075106169254e-05 
9.500032789383842e-05 
8.690193142520071e-06 
4.962986026920754e-05 
3.716821214451973e-05 
-4.339273591132056e-06 
-4.510284370328127e-05 
0.0001677567532240722 
-0.0001154733026301982 
-3.33021519688918e-05 
-0.0001063212025040483 
4.07810472580522e-05 
-2.785842128356739e-05 
-0.000226758495962742 
-0.0001797271639360881 
-6.272002396242155e-05 
7.192632705441872e-05 
9.327491520741218e-05 
-2.777091837658958e-05 
4.628537507902458e-05 
4.080488120480158e-05 
-3.673820061750055e-05 
-5.180771084852661e-05 
-3.765235790159996e-05 
-9.834498583073352e-06 
9.699266750929208e-06 
-2.492889869412833e-05 
-2.135900347658071e-05 
0.0001974236659579609 
-8.687608666298758e-05 
-0.0001371169243218936 
0.0001082749085334891 
3.43726125127102e-05 
-0.0001288412277334521 
1.220019242003046e-05 
-2.655133032973508e-05 
4.906466940565094e-05 
-2.722528150015551e-06 
3.637421821392388e-05 
-2.905660176382629e-05 
0.0001718897413102206 
-0.0001319112469902679 
-1.253483336112611e-05 
-5.051614446969322e-05 
-5.279377494985926e-05 
8.479988200368976e-05 
5.330399931142445e-05 
9.994843678087529e-06 
5.593000833615601e-08 
1.330352192228591e-05 
-4.131857759595012e-05 
-1.899038520223095e-05 
1.690180163619454e-06 
-5.930539733321022e-05 
-8.928722511974559e-05 
4.01239695848045e-05 
0.0001581960208974648 
-0.0001975135932420946 
-3.298423022534132e-05 
1.319127211198764e-05 
5.178667852968619e-05 
-8.277541299178925e-06 
0.0001290016533394356 
-1.708536987788432e-05 
1.73975301489441e-05 
1.014117012590812e-05 
7.924612445610623e-07 
0.0001893392582486482 
4.821816327115109e-05 
3.131938062227994e-05 
-8.344071957033341e-06 
-4.446579237157055e-06 
3.82467160610491e-05 
1.575308475888178e-06 
-9.147416254660698e-05 
-3.766585415822862e-05 
1.886351077345258e-06 
2.191373702470644e-05 
-3.218761043304859e-05 
-5.078132106417264e-06 
-2.882839385007568e-05 
3.345546828226052e-05 
-0.0001395691990408315 
-0.0001162159572017934 
2.370871632598906e-06 
-0.0001808188975548767 
0.0002071493567666267 
0.0001655956753930973 
5.140102495200219e-05 
-2.530688910771505e-05 
-5.145695622830784e-05 
7.073132345637937e-05 
-3.080188383687178e-05 
0.0001990123423396312 
-4.262989175429846e-05 
-2.233166364795594e-06 
-1.443826084659974e-06 
-2.592165196686927e-05 
-0.0002626943741721807 
5.605050480414237e-07 
2.861774424155587e-05 
-8.908917794449257e-06 
-1.103752786300896e-05 
8.16808257566386e-06 
-3.672622143335287e-05 
-3.022361650818331e-06 
6.741937041464155e-06 
-0.0001145542614209247 
-2.170398520566576e-05 
-9.185698055183519e-06 
-3.150256301531598e-06 
6.390663499890907e-06 
7.277826135800382e-05 
-8.216457107130986e-07 
-9.825386746887952e-05 
3.116649325124385e-05 
1.654550094311314e-05 
-9.438085068605506e-06 
-9.624422338911642e-06 
-5.393311716122566e-06 
1.941169876771881e-05 
4.738118124353624e-06 
-1.174719618923786e-06 
-7.549042823593885e-05 
2.571099678239635e-05 
2.55111206220286e-05 
1.076476621459002e-05 
-4.748420339647809e-06 
3.256539341305602e-05 
9.126821349642303e-06 
1.954921021938449e-05 
-7.953501880120903e-05 
0.000130022010658975 
-9.350382874851415e-05 
0.0001091036254384859 
6.383067164786364e-06 
-3.394930048985831e-05 
3.179204989978295e-05 
-3.658794055731193e-05 
-1.330492903435142e-05 
2.292637867022246e-05 
-4.270394066970068e-05 
7.253719203789343e-05 
-8.711035667763432e-06 
-5.018229599768185e-06 
1.864848680589011e-05 
-0.0002261629191483458 
1.002209450374635e-05 
-4.706478197652963e-05 
-3.061860815881112e-05 
-3.564158087630687e-05 
0.0002170888862935004 
-1.904710658307393e-05 
9.899412865291842e-05 
-9.226777824541283e-05 
-0.0001429085998408011 
4.855998266168735e-06 
-2.240490144872173e-05 
-9.103463003371947e-05 
-7.58457863682892e-06 
1.365212791522823e-05 
8.161942036919789e-05 
-4.234034333534086e-05 
3.315361784141283e-06 
4.191828438608289e-05 
-2.035496484893163e-05 
7.920986690246806e-05 
2.158961893291879e-05 
2.897135030272527e-05 
-2.265836012232839e-06 
-5.2240968093169e-05 
3.425225608135133e-05 
-3.074309363684544e-05 
1.028356204041206e-06 
-4.284566447652588e-05 
-5.474826876355977e-05 
-1.547164831914524e-05 
2.441340240275111e-05 
2.731697964537402e-05 
-8.630683271816834e-06 
0.0001095107408568897 
0.0001062143264891587 
4.802740981639477e-05 
-0.000120694209953733 
0.0001197846006028949 
-1.266071520715875e-05 
-0.0001720413769954608 
0.0001152889904598015 
7.167772377111934e-05 
2.45470472867403e-05 
-1.524813225679562e-05 
-0.0001435299829849636 
-0.0001512829191393907 
4.65757264268971e-05 
-1.569784571686819e-05 
-1.506239071009557e-05 
-2.566642776804762e-06 
-7.637545846293663e-06 
-1.52017719273885e-05 
-1.888578720454129e-05 
-3.528749239678295e-05 
4.039242423343137e-05 
-0.0001666844958790877 
0.0001029759252616875 
7.578921625661419e-05 
-7.328462268587568e-05 
-3.338097238317025e-05 
3.334066676539999e-05 
-1.661576287447661e-05 
5.504595000531763e-05 
3.694502251299957e-05 
-5.03411022253654e-05 
-3.680467752519089e-05 
-5.441484218762543e-06 
-5.069597957385055e-06 
2.011377203044182e-05 
5.567705772946945e-05 
-1.54174333657019e-05 
-2.358609097405985e-06 
-7.223609361120708e-06 
-3.190995778071602e-05 
1.515506363144946e-05 
2.948486113867796e-05 
1.297751945773556e-06 
-1.662199526381865e-05 
9.249821680554974e-05 
4.966461267871078e-05 
0.0001068732563376278 
-0.0003027907302897279 
0.000150939405735252 
-0.0002080699339124402 
0.0001299189624364679 
-5.831762793769594e-05 
0.0001128785152458236 
-0.0001093921726576047 
0.0001071117058210547 
-3.304460285593719e-05 
1.426771996875663e-05 
-1.198682918430431e-05 
-4.152581164507033e-05 
-1.047614963405026e-05 
-8.664465796218103e-06 
-6.075321144080694e-05 
-0.0003200988133383365 
5.505881964364122e-05 
2.221642361855988e-05 
-1.593847469575728e-05 
0.0001088661852007883 
-1.094354685203166e-06 
0.0001297039547910847 
-6.698078857566302e-05 
-1.931566518053801e-05 
-4.955204667811044e-05 
4.065475078020744e-05 
-5.582983787335538e-05 
-5.528111066110935e-05 
6.793846255768734e-05 
-1.848240345805816e-06 
0.0002206261270357196 
-3.636687773904152e-06 
6.672404505246058e-06 
2.0295607407532e-05 
-5.705750674300442e-05 
3.712572553048657e-05 
-1.710136173855864e-05 
-1.283490228783543e-05 
3.639880787460919e-05 
2.547695565146951e-05 
-1.229964762930119e-05 
-3.518118825078805e-05 
9.62172804091876e-05 
-7.625655349679928e-05 
1.318979633698554e-05 
-0.0001329237813101594 
-2.719833849788065e-05 
-6.90259182494103e-05 
2.908276327508725e-07 
2.731545466098399e-05 
3.478586966322009e-05 
5.421589989845943e-05 
-3.309242732292589e-05 
-0.0001291174823499534 
-7.248256588991091e-05 
1.151817824505618e-05 
-5.315523238728923e-06 
8.8466496739364e-05 
3.031654150200319e-05 
1.19716488205298e-05 
-1.574185923817713e-05 
0.0001669886708003601 
1.282976059230875e-05 
0.0001050535190558804 
3.861532069453467e-05 
-6.029771454296424e-05 
5.588245280723797e-05 
-0.000169886779002112 
2.352900980566225e-05 
-5.560829044925531e-06 
-0.0001024638869167243 
-4.645802789511432e-06 
1.909807725838906e-05 
1.615250545777794e-05 
-4.760827378952048e-05 
-3.533073750061298e-06 
-1.033644799592968e-06 
-1.809218667982628e-05 
-3.912026444907798e-05 
-5.628362276510108e-05 
-9.822152981538868e-06 
0.000111958206850802 
0.0002005547388309349 
-3.21707417430236e-06 
1.368336871002847e-05 
-9.252014432986724e-06 
-0.0001373975863204048 
4.023616233615487e-06 
9.7859485577091e-05 
-4.909254791544916e-06 
-7.824815865714487e-06 
-9.75993687711208e-05 
9.671150121175541e-05 
4.335891382452361e-05 
-0.0001986483149546079 
-3.035177659303731e-05 
-3.966375291955991e-05 
-4.31340130403975e-05 
-1.498952731885321e-05 
-1.111496351256332e-05 
-1.220145711464459e-05 
0.0001545567486281217 
-0.0001130594338402046 
3.543028875928573e-05 
1.950535108537922e-05 
-6.408345271934112e-05 
2.349707903816872e-05 
1.896834338899565e-05 
-9.033755869512663e-06 
-3.389102284789283e-05 
-3.618279724278136e-06 
0.0001012291435002614 
9.696483397799433e-05 
-0.0001195699774999765 
-3.539360657529884e-05 
-2.524585833501563e-05 
3.055587967863652e-05 
4.840457649004486e-05 
6.684667778752123e-05 
3.738688131693419e-06 
4.785173162163537e-05 
-8.966758276658098e-06 
6.915675404442225e-05 
-0.0001914562024517741 
-8.184572783367517e-05 
-6.000302466797811e-05 
0.0002066913995601073 
-3.005997483448163e-05 
-9.126205306557701e-06 
1.681912256216601e-05 
0.000121633190930689 
-0.0002061157740828744 
-0.000111122705616495 
-7.746691911422105e-05 
-3.008372664703966e-05 
5.037635000639805e-05 
-3.117667090220779e-05 
0.0001011804169021201 
-2.015468376535202e-05 
1.196600830881478e-05 
-1.890733706871408e-05 
-2.076554533263549e-06 
5.368935590171286e-06 
0.0004162009167068561 
9.140045982916338e-06 
-7.190481995977531e-05 
6.802531132828325e-05 
-1.108495829896929e-05 
-2.618015589715748e-05 
-3.736368501047482e-07 
-3.114094456719987e-05 
0.0001902365947994269 
-3.033105252156849e-05 
4.376639250538631e-05 
-3.262860288053689e-05 
-0.000198586483880752 
-7.96977896372149e-05 
-3.642215337971333e-05 
-1.811826152269006e-06 
-9.509512037423328e-05 
-7.807225853469132e-05 
-8.299569407467561e-05 
2.519899532635326e-05 
-1.543392901302133e-05 
-8.169254129555282e-05 
6.331403807512302e-06 
-1.502334284270533e-05 
2.961057207596493e-05 
-4.119660938990828e-05 
-5.392543027336413e-06 
-2.222765462264015e-07 
8.493324504477254e-07 
2.254849471282945e-05 
5.640031573426424e-05 
-1.300963472553317e-05 
-1.27363109907074e-05 
1.820474754479855e-05 
2.336175086850727e-05 
1.246984213733342e-05 
3.548431332616608e-05 
5.397123036481589e-05 
1.475890524317996e-05 
-6.894569503906636e-05 
2.429645833687239e-05 
-9.553843513253093e-06 
-0.0002378858147445083 
-9.552790787229738e-06 
0.0001346092222197341 
6.81561756341356e-05 
1.067899883939947e-05 
3.115453895978526e-05 
-2.424076114873774e-05 
-1.766030908169982e-05 
9.423060929459093e-05 
6.734759529134321e-05 
-6.994704587344087e-05 
0.0001303461876791774 
-4.878119240115907e-05 
-8.052803711592441e-05 
-2.790947556704958e-05 
-1.212587342536596e-05 
-0.0002061893681996356 
4.541913175482365e-05 
8.673035376147201e-05 
-8.755511617315588e-05 
-1.000213091759894e-05 
-7.594294696507633e-06 
-1.54153595220495e-06 
-1.483044423185305e-05 
-7.709065045317285e-05 
1.552302034831286e-05 
-2.279486141627834e-05 
6.376698563834932e-05 
1.417094812573227e-05 
-1.518369406575147e-05 
1.973355048331708e-05 
-1.298708788738877e-06 
5.865631763570239e-05 
-1.650321460453368e-06 
8.312592997603768e-05 
-6.110844006050088e-05 
-0.0002250484724756485 
0.000106340299931539 
5.89302889800391e-05 
1.889828341631699e-05 
-3.919785040441115e-05 
-7.581710544844521e-05 
-3.263041758676504e-05 
-5.366055653757756e-05 
-1.284962142457512e-05 
-6.002159288283717e-07 
0.0001111631456678994 
5.976831799466563e-05 
6.730574291648121e-06 
-7.330391703774117e-05 
4.84695001092016e-05 
-0.0001146987808283495 
4.5824243448987e-05 
3.221618963464289e-05 
-1.815418490273057e-05 
2.071363259662541e-05 
1.209976762216081e-06 
8.781399045839125e-06 
-1.572337806828998e-05 
8.101521994129435e-06 
-3.038380967332143e-06 
-0.0001059158120552623 
-1.860913771531795e-05 
5.224256153165724e-05 
-4.701243267198463e-05 
-2.611279727953124e-05 
-0.000128211420049048 
-2.285094954036058e-05 
0.0001303610989183592 
0.0001049882256354187 
4.16939611665432e-06 
-6.641273751151437e-05 
8.505573004607842e-05 
-0.0002337575863006247 
-1.468917633196258e-05 
6.893585046699176e-05 
-0.0001683272081404648 
-6.356891093509097e-05 
0.0003316774989036051 
7.432983895686273e-05 
-4.127348466143172e-05 
-1.999761659650388e-05 
3.293595372254921e-05 
-3.736109742608149e-05 
2.772048650714206e-05 
-1.94858469501774e-07 
3.041225090113819e-05 
2.113072597963407e-05 
-2.334027420813773e-05 
-5.446422090060927e-06 
2.99828463706468e-05 
-1.33308603603383e-05 
3.329335092867359e-05 
-4.629212031822248e-05 
-1.944028500250323e-05 
5.336252418215816e-05 
-1.858195117098648e-05 
-1.430620021206877e-05 
-0.0002895128597227077 
2.338741750952236e-05 
0.0001760965596720382 
3.35522077560356e-06 
-8.144979044744406e-05 
0.0001216546073475873 
-7.074051148162931e-05 
-0.0001245315189365715 
4.585264350572039e-05 
0.0001039767381888357 
0.000103321138161789 
9.036566200335817e-05 
1.463416512227202e-05 
-3.843557990082791e-05 
6.79746049418764e-05 
-4.87959557392585e-06 
-0.0001310733527075614 
-6.347586149299317e-05 
3.345508104972944e-05 
-8.740635143350779e-05 
1.83220216256047e-05 
-1.951802452224082e-05 
5.246215983146485e-06 
6.139917940651792e-05 
7.314398970382255e-05 
-0.0001660874904910805 
-1.78553398600312e-05 
3.785083744604826e-05 
-8.490907918294614e-05 
-1.129225759888217e-05 
-0.0001182923557617739 
-6.908413278674195e-05 
2.963678428871568e-05 
0.0001724063681464797 
4.666136844079314e-05 
-0.0001143838762582032 
1.516375998124972e-07 
-4.518177929025553e-05 
-5.501997641286089e-05 
-1.321469585750501e-05 
-2.645065861528486e-05 
-0.0001213511864569745 
0.0001006627524371777 
8.587239767655252e-05 
8.957286221277632e-05 
0.0001707046500875104 
-8.426294944465676e-06 
-5.071578146416662e-05 
-4.771852696344554e-05 
2.226272231420708e-07 
-0.0001187731388632119 
0.000116432904633063 
3.381821966596357e-05 
6.379493634293634e-05 
2.626498200034125e-05 
0.0002295768202135729 
-2.995488698858161e-05 
-0.0001760861374115055 
-0.0001349888037326702 
0.0001380494331683651 
1.943269729602001e-07 
3.804742699283438e-05 
-1.516475334869528e-05 
-1.54177522246711e-05 
-0.0001976092545026073 
-7.376601232930248e-05 
3.971488900421627e-05 
1.42964894112309e-05 
3.96186685773636e-05 
0.00011960984307088 
-2.609804345286959e-05 
0.0002626056851140564 
4.453110328869713e-06 
-0.0002095991517647523 
-5.238420576731726e-05 
-6.314297044939001e-05 
-9.433535441541329e-05 
-2.311458083867644e-05 
2.185333164487218e-05 
-6.853907496731674e-06 
5.733226543619941e-06 
3.568965397586464e-05 
-5.083320386052776e-06 
-2.970990633761625e-05 
-2.733878863820765e-05 
3.102554722747452e-05 
-2.087165308222063e-05 
7.53151642373627e-06 
-9.47155333321738e-05 
4.494292007404736e-05 
9.890214085270767e-05 
-0.0001052847062598491 
5.700428544401854e-06 
1.616764629894393e-05 
4.151400331923813e-05 
5.98200075102994e-06 
5.471802368641821e-05 
0.000133331552537058 
-5.263927630234674e-05 
-5.299725909212716e-05 
-0.0002189643680873907 
-5.872017642451433e-05 
0.0001199009756629178 
-6.687634879154429e-05 
4.502869039115044e-05 
4.132922230690685e-05 
2.935641790515614e-06 
-3.386284273447827e-05 
5.745307808676997e-05 
-0.0001890001046132937 
0.0001594442309812477 
-5.774567844541939e-05 
-3.145104824655347e-07 
3.797111636575476e-06 
4.681081802240915e-06 
2.495743549374338e-05 
-2.310574503359208e-05 
-4.15109021265604e-06 
-2.016899348377607e-05 
0.0001247167848985376 
-0.0001771821620344131 
0.0001627578499478663 
-0.0001103603200959001 
2.602941667037434e-05 
-1.21866728818867e-06 
7.544235515658714e-05 
7.033773804255547e-05 
5.843723414671717e-05 
-0.0002327667996895325 
-5.125694940108579e-05 
1.575650626122697e-05 
0.0001131014577999026 
4.027741422538038e-05 
-0.0002450011020497567 
-1.210038459233804e-05 
4.580064446453424e-05 
-2.391937157725761e-06 
-4.795698120846323e-06 
4.064007082661637e-05 
-1.602132393715449e-05 
-2.982285957640507e-05 
-1.494508932126667e-05 
5.140779240782111e-05 
5.621323356736139e-05 
-3.321614278026839e-05 
-3.108258093575452e-05 
-7.991938255548993e-06 
5.667328713182203e-05 
5.168704910590612e-05 
8.578938580156412e-05 
0.0001040461377207322 
-3.461894079998449e-05 
-6.180303396520622e-06 
-9.623157336013244e-06 
2.946176740665924e-05 
-5.796310303723768e-05 
-3.036070327950842e-05 
-5.889762984713244e-05 
-0.0001928836499637655 
1.928312453895842e-05 
-2.487917330121853e-06 
-5.077221795007312e-05 
5.581098873650792e-05 
-5.904662179074256e-05 
-2.082999550060762e-06 
-0.0002824265373627943 
-1.289718004582871e-05 
-5.977736250227301e-06 
-5.896569227139034e-06 
6.371250382613187e-05 
1.476951025585713e-05 
-1.973260460274904e-05 
-3.9147962269921e-05 
1.144878512733932e-05 
8.897792900131741e-05 
6.499692371954104e-05 
-2.983669426416351e-05 
0.0001755475410510585 
1.545703630254465e-05 
3.98558472909592e-05 
8.311491125330952e-05 
1.171328720654937e-05 
-1.651229891077424e-06 
8.937914099051333e-05 
-2.825882396673502e-05 
-4.687271958574136e-05 
-2.080244571169105e-05 
5.04244717592617e-05 
5.445383680178229e-05 
0.0002543405763054227 
-0.000183673715953916 
4.314016607338124e-05 
7.86470730488352e-05 
-0.0002247146774183361 
-7.807204177826503e-05 
-0.0003597166766216083 
0.0001151182441678174 
4.182839265690473e-05 
-2.337782422520267e-05 
1.052184167606651e-05 
9.521694920176052e-05 
-1.958250101002246e-05 
-3.636656181669238e-06 
4.644118149694204e-05 
-4.647155228971255e-05 
3.202579764587528e-05 
5.929008325845274e-05 
-4.52918735177785e-08 
-3.11921183466307e-05 
-9.428263820519703e-06 
-8.580934752260381e-05 
1.766193423546942e-05 
-0.0001173494889593905 
-1.564731267118975e-05 
1.209769799172676e-05 
-1.327923851738165e-05 
0.0001093273891220724 
0.0001161885613859343 
-8.232344556067737e-05 
2.64672503300662e-05 
-1.630663740428628e-06 
-3.872069334793843e-06 
-0.0002803396221791583 
3.75813176336194e-05 
1.123340302487004e-07 
1.550080452925573e-05 
6.584913251845708e-05 
1.987927309786423e-05 
-4.689822129841973e-05 
8.696618419780857e-05 
-9.763391583651212e-05 
-2.349845218852397e-06 
4.358140972986996e-06 
0.0001230568602606449 
3.973528060646523e-05 
-7.191122747746964e-06 
-1.702911153251005e-06 
5.431093204528251e-05 
4.662477610110764e-05 
-0.000115289694157447 
-0.0001592176877531627 
-2.264397520705846e-05 
-2.46440991000403e-05 
0.0001539693801930666 
1.148001231018693e-06 
1.317641162639312e-06 
-3.117026810381067e-06 
-5.717077953666974e-06 
-9.924742649625973e-05 
0.000136997992658352 
-8.554292046828641e-05 
-4.079836236553734e-05 
4.574886053608587e-05 
1.964284333474836e-05 
1.957638728590445e-05 
3.849529052405051e-06 
-5.797242562100881e-05 
-0.0001201186576586572 
1.335036506813198e-05 
9.648743351186735e-05 
2.465627603926038e-05 
-6.340019025023292e-05 
-2.700424210028191e-07 
-3.219237818532875e-05 
9.248949847409122e-05 
-0.0001723548669364811 
0.0001066824918475377 
-7.531467498841178e-05 
3.860411186397291e-05 
3.047072015343226e-06 
7.312378850176179e-05 
1.663320004535683e-05 
2.757282558967294e-05 
5.447905495932799e-05 
-6.815128408742277e-05 
-3.119803735370546e-05 
-1.142593989654988e-05 
-4.436567799116755e-05 
2.246685584339508e-05 
-0.0002314575577486382 
2.083498709076127e-06 
1.78962109889127e-05 
-1.267214376421699e-05 
-7.794698415580474e-06 
-2.687574046553095e-07 
1.187648178799828e-05 
-4.375029892047125e-06 
1.666345681501039e-05 
-6.246545321556644e-06 
3.920898485437446e-05 
6.37270088734842e-05 
-4.578911448987624e-05 
4.253776182032923e-05 
-5.286401399958602e-05 
-3.211569528360724e-05 
2.366277176581257e-06 
1.647797906975845e-05 
-2.138768640568388e-05 
9.461293958989732e-06 
-7.848026972552998e-05 
0.0001655148666332883 
-0.000218162495545094 
4.405705721575065e-05 
-1.943681369941091e-05 
4.250502989084026e-05 
7.060307411401512e-05 
9.636498330170417e-05 
4.304362011078574e-05 
2.463064497339817e-05 
-7.621814608538358e-05 
0.0001141373695007624 
1.06730699915113e-05 
-9.623753607838129e-05 
-6.837999528409883e-05 
1.446073235680607e-05 
-3.947542566358317e-05 
6.624626821502192e-05 
7.351160324449347e-05 
1.486614072413194e-06 
-3.603713707546534e-05 
-5.448647008022868e-05 
1.823845648364319e-05 
2.226946665489384e-06 
-6.790148295356461e-06 
-2.871557190541005e-05 
-7.377125459592116e-06 
3.676379775587963e-05 
0.0001136686529108824 
-4.742164376971215e-05 
-1.540712828572836e-05 
1.366288615644891e-05 
1.804449119725076e-05 
-7.232119589555111e-05 
-0.0001435110406740729 
-2.56951404081726e-05 
7.827001969904689e-05 
5.325239042867798e-05 
-3.790227482379572e-05 
-3.124623306282167e-07 
3.702650004452928e-05 
-9.095613218894444e-05 
4.032158039331657e-05 
-2.500557136529927e-05 
-2.233395986815256e-05 
-6.262817238589795e-05 
-0.0001409810031910392 
0.0001579427245178883 
-0.0001644511205221802 
-3.43623680113994e-05 
-4.3500331147168e-05 
-3.972886857616905e-05 
3.477289968739658e-05 
4.483707745539283e-05 
-9.244178501834706e-05 
8.87633852356232e-05 
-5.155498875179751e-05 
3.412739665483141e-06 
0.0002653825767777233 
0.0002184297716060329 
-0.0002098382243896549 
5.983162168347277e-05 
6.109880743781923e-05 
-0.0001104612431618275 
-2.77289744050624e-05 
-3.369944098268858e-05 
4.283734750917371e-05 
2.717378712730061e-05 
-1.150160271517961e-05 
-6.475838123786757e-06 
-1.960779247124746e-07 
2.211376140045186e-05 
2.09396238133265e-05 
0.0001087423458127254 
-5.893262763039663e-05 
1.341813807060332e-05 
-1.73265964282063e-06 
-0.0001129401922110984 
-3.903053776909143e-05 
-7.673891118950344e-05 
0.0001540794222685381 
9.510066565694856e-05 
1.073605631161086e-05 
-1.277182524741465e-05 
7.060625476157901e-06 
-8.595613455556264e-06 
-1.527524396479445e-05 
3.650759165321757e-05 
-8.705399333247723e-05 
2.724340066486269e-05 
7.622021784621992e-05 
3.320619433159065e-05 
5.857654352341513e-05 
-0.0001146600973488066 
-0.000143236945886954 
8.795931002519938e-06 
-1.904725548787126e-05 
-7.107114421655376e-05 
5.150326354811118e-05 
-7.917430649009022e-05 
4.918477442361004e-06 
-4.862992290853862e-06 
-6.556109931132248e-05 
0.000106456735607663 
3.813183784015443e-05 
0.000467099219136699 
3.468691554541878e-05 
-6.219532314299127e-05 
-3.744697649708865e-05 
-0.0001043739637320422 
1.855300715403956e-05 
-4.575842037002741e-05 
-0.0001203965543227725 
0.0001956783853722913 
-0.0001811868185392649 
0.000130679139023074 
-0.0001059978322260653 
3.873124580486247e-05 
-2.891291087734069e-05 
-1.821166988905489e-05 
-7.280898430970396e-05 
-5.355622562267052e-05 
-2.370064850930028e-05 
4.430355157962489e-05 
5.909829255788393e-05 
-1.397721692007743e-05 
-3.365585122942171e-06 
1.487696170834008e-06 
1.506693420458505e-05 
-4.212395532223492e-05 
8.069575889462936e-05 
-4.664793442240994e-05 
-3.650406840165819e-05 
-3.576212029398482e-05 
-5.949988456761976e-05 
-7.364105077359825e-05 
0.0001541710353846424 
-8.218826578873635e-05 
5.496983942742176e-05 
4.82411482342215e-05 
1.94207417221088e-05 
-5.118081251818912e-05 
-3.370210264989572e-06 
3.605049129045715e-06 
-0.000360096908725351 
0.0002442576227730007 
4.789073870058995e-05 
3.087007150832253e-06 
-0.0001243338852226656 
-7.47583823807721e-05 
1.236469777824289e-05 
-4.209542866247951e-05 
-6.023411938825356e-05 
-8.282482706904956e-05 
-0.000126902501519489 
4.224452506678793e-05 
-0.0001434130986247234 
5.469642539010484e-05 
-2.219480752299207e-05 
7.071131815038524e-05 
0.0001098331760606397 
-5.117545772443267e-05 
0.0001374206236906353 
7.976048537534238e-05 
1.301746025913135e-05 
-1.090056895053342e-06 
4.996003815050228e-05 
2.188314446365319e-07 
-0.0003571976218747386 
0.0002145953345974273 
3.995102088616707e-05 
2.399891728976619e-05 
1.073816192868445e-05 
-6.526897410003371e-05 
-1.195855943332033e-05 
1.278044949792604e-05 
-4.332445006324347e-05 
2.291097429146477e-05 
2.475525691887549e-05 
6.662334058542702e-05 
-1.259437860972707e-05 
3.239458974132498e-05 
6.812403772740674e-05 
-2.199857309208871e-05 
-2.987815318424543e-05 
-4.867057925844741e-05 
-1.32963739450221e-05 
1.008109318154942e-05 
2.735643211510784e-05 
1.343106756655677e-05 
1.246807279409427e-05 
-1.789291511031649e-05 
-1.569419861635087e-06 
7.77032147170296e-05 
3.752605982550555e-05 
-1.075580087279388e-05 
-0.0002751713497681882 
7.974926968786651e-05 
2.982940419387979e-05 
2.457245320883182e-05 
-3.606405048981864e-05 
5.621006503124714e-05 
3.197265805793882e-05 
-1.80844745393137e-05 
-3.15192184444283e-05 
5.935253694878301e-05 
4.03071980367906e-06 
1.29025012848633e-05 
-3.957902886983693e-06 
-5.860755419824697e-07 
-5.367081054491358e-05 
0.0001021915280954998 
7.346364569821552e-06 
-7.088922679101861e-05 
6.215450372181407e-05 
-6.539463488549943e-05 
-8.81957376720383e-05 
2.314431819496715e-05 
-8.598504596811275e-05 
-1.397721692007743e-05 
1.753805907929713e-05 
1.762466703535858e-05 
-8.474196591664401e-05 
-1.032348880799069e-05 
-1.718944121662862e-05 
0.0002391314915350626 
-8.329315628604722e-05 
-2.050975542569933e-05 
-0.0001489366464956144 
4.20421523760181e-05 
3.428352130183983e-05 
4.340576337771408e-05 
-7.528926743812444e-05 
-1.311453901948062e-05 
0.0001480348629508388 
-1.286486807631123e-05 
3.390542806765119e-05 
-3.329442063525387e-05 
6.768885435064328e-05 
-0.0001177232498691996 
-8.637015335566514e-05 
-1.662854295052504e-05 
-4.302689722728658e-05 
-4.319580864357994e-05 
4.932675006758413e-05 
-6.30653830524749e-06 
-3.676455185159886e-05 
-1.141670945897945e-05 
-1.293689175238239e-05 
0.00031116466252974 
2.42634176929366e-06 
-2.04097885459268e-05 
-0.0001932048354156341 
4.127835212727715e-05 
-5.33921725609872e-05 
-3.377221614708831e-05 
5.568780600860178e-05 
3.809361117966984e-05 
-6.951154579009925e-05 
9.293793217587338e-05 
-1.789286888907935e-05 
-1.087277658206612e-05 
7.231948109493845e-05 
-8.486343822650295e-05 
8.73909434700727e-05 
2.71147666805686e-05 
-4.017912888990814e-05 
-8.255153490070802e-06 
5.775953704594821e-06 
8.85078875984166e-06 
-0.0001320963260587306 
-5.258856561292485e-05 
-4.569182908853784e-06 
-6.191432183468552e-05 
-0.0001372596845663092 
-2.713972002960582e-06 
1.975337568153193e-05 
-6.079365801512708e-05 
-4.38622354386352e-05 
-1.058785044261671e-05 
-9.591950684961224e-05 
-8.799439291633483e-05 
-2.026503287057193e-05 
-1.127434679313844e-05 
3.897488295864694e-05 
-3.293991556971329e-05 
9.164020408362325e-05 
-1.558498253829675e-05 
2.948363736982475e-06 
-0.0003342425218557248 
0.0002154142501199321 
0.0002773878313918436 
0.0001678175697999363 
-3.016983935112753e-05 
0.0001801234784012208 
-1.996978920235978e-05 
1.957750034072127e-05 
2.987111572074127e-05 
-7.683937969221555e-06 
-7.579631669481105e-05 
-5.727632232246608e-05 
-9.285386809145657e-05 
1.347482172475261e-05 
-0.0001832587180321458 
2.332272476941791e-05 
8.81774384582973e-06 
2.568504549143472e-05 
-9.146342682309179e-05 
5.915715079020337e-05 
7.886536986728023e-05 
-0.0003116724354375769 
9.927951540519461e-05 
6.532132571053682e-05 
-4.08399383639316e-05 
0.000110221832662428 
0.0001742946672875634 
1.871044717501404e-05 
0.0001149725505113907 
-0.0001115300958387535 
0.0001558862134783473 
-4.134542043071497e-05 
-0.0002845969288993521 
1.312352086455921e-05 
0.0002898512794588817 
-7.245445425283979e-05 
-4.974729240890441e-05 
4.421265794803131e-05 
-4.114325905966626e-06 
0.0002318131211371345 
-5.266805198970038e-05 
8.774767613220633e-05 
-4.681497150345714e-05 
-1.296383666796752e-06 
1.129383386070427e-05 
-3.074108961980186e-05 
-6.380875202239529e-07 
-1.567135183921598e-05 
2.699453050836576e-06 
-4.050354434113212e-05 
-1.736859960562785e-05 
-0.0002337680272646464 
-3.177684324099126e-05 
-1.457283146943989e-05 
8.079396456886546e-05 
-2.596936309080442e-05 
1.401420964240549e-06 
-1.575602210290979e-06 
3.92026033301876e-05 
-1.702936068656475e-05 
-0.0001726808417271622 
1.651515345252691e-05 
1.2726419125787e-05 
9.720496519032908e-05 
0.000220671837232053 
4.408004756400719e-05 
4.081689626460805e-05 
-0.0003281790105534755 
-7.902552017063726e-06 
-0.0001066033666584994 
0.0001788044887125045 
4.409622268791721e-05 
-6.553691288164573e-05 
5.905837761506562e-05 
9.324919265274392e-05 
-2.690703839533654e-05 
-1.607523530837394e-05 
-0.0001104973079842942 
4.492066838990984e-05 
9.01554727542328e-06 
-9.631041194086968e-06 
-1.500191025851033e-05 
3.137203308148552e-05 
7.116662124362878e-06 
-5.85071457703315e-05 
6.86537894033245e-05 
-2.934776892347886e-05 
-4.246497410146025e-05 
-6.207039145625875e-05 
-4.029077225206653e-05 
6.733640210582725e-05 
-8.129140873051583e-05 
3.922453128640437e-05 
0.000193974510440519 
-4.525845528246493e-05 
-6.621357183121633e-05 
2.129112611787485e-06 
-1.243833728948596e-06 
2.157672754530712e-05 
9.311061028943895e-07 
-7.314762909479595e-05 
-0.0001596678786994324 
0.0001405103941513397 
-3.413334990537915e-05 
-2.192694199217197e-05 
-1.067228165461058e-05 
6.414398443277732e-05 
-4.542048883042672e-06 
7.350038420649464e-06 
-3.434156607601965e-05 
1.409832745952179e-05 
4.17398157298051e-07 
8.341905675101113e-05 
8.05488432633806e-06 
3.013591014225275e-05 
-1.169947088529763e-05 
-0.0003984499921287728 
0.0001094738230062762 
1.277399034811969e-05 
-0.0001248229461314297 
-0.0001678133459788952 
0.0001071059966694488 
9.526944038808441e-05 
2.382884546637814e-05 
-3.167374032493836e-06 
5.166251033862207e-05 
-5.943385007542084e-05 
2.743548946682624e-06 
-1.146903206427682e-05 
1.760753082823202e-05 
9.551159486386582e-05 
2.315638171234659e-05 
-1.68851597173293e-05 
4.940604530851914e-05 
2.321005353980904e-05 
1.487697041079098e-05 
4.792522142615047e-05 
-7.045789998866853e-05 
6.435496295672742e-05 
-3.690465818616563e-05 
9.420553385109285e-06 
-0.0001003240981691609 
8.503581839294707e-06 
2.357600375206601e-05 
2.829491600101345e-05 
-2.104407343838356e-06 
2.222280360179578e-05 
7.812979091909051e-05 
-0.0001574668402654013 
5.541572363146351e-05 
-5.99422212722223e-05 
2.206272481503565e-05 
1.738843611769208e-05 
-2.229646285874995e-05 
5.855247381846931e-05 
7.837653179462045e-05 
3.83372987595562e-06 
0.0001973422337631932 
-6.556643750625668e-05 
-1.461133171997124e-05 
4.726173885698975e-06 
-3.336857380372334e-05 
4.848929862176586e-06 
1.764983383004888e-05 
-0.000216597979230524 
2.332219579206354e-05 
-8.117087955267877e-05 
4.659543575323419e-05 
-1.582994988899318e-05 
-1.354847104216625e-05 
5.472878567509832e-05 
-3.404269099494229e-05 
-4.238084146572184e-05 
4.151687037286558e-06 
-2.503999841502926e-05 
-1.140194106521923e-05 
-6.957558939029144e-05 
-6.799851216386507e-05 
-9.344757333613092e-05 
0.000110851827738831 
-2.711082075067904e-05 
-9.725866686464204e-05 
0.0001051700705796969 
-8.849304614951854e-05 
-9.947082675283197e-05 
-3.494345412247605e-05 
0.0001472534358074449 
9.190891292369769e-05 
2.901330872062255e-05 
2.49067587506823e-05 
4.859852555565542e-05 
-3.579880698722487e-05 
3.481945272391918e-05 
-1.062686243447219e-05 
-0.0001015830049920842 
1.578087071655608e-05 
-5.903850713442528e-07 
-8.92158148511877e-06 
8.429595297112163e-05 
-0.0001325119051883406 
7.605785299755336e-05 
-4.205333150125642e-05 
-4.690403667907506e-05 
-8.022635936640323e-05 
3.44562734405083e-05 
8.096384614343809e-05 
5.832112720774584e-05 
-1.576624347015116e-05 
7.005275424281358e-05 
-0.000178103121091925 
-9.417456292928211e-05 
9.231506641347732e-05 
3.660224776277785e-05 
0.0001387685535973186 
6.995008585651808e-05 
-2.600256613174216e-06 
-2.092124301272346e-05 
2.733363409858679e-06 
3.967700620568857e-05 
3.957001461504649e-05 
-8.872520473596923e-05 
-3.048225079359884e-05 
-6.144558559481163e-05 
-5.622322069090309e-05 
1.808531925523348e-05 
-8.968761142552715e-05 
-7.770211819170872e-05 
-9.013411719894018e-06 
7.232000707012546e-07 
-5.187337898234168e-06 
0.0001934630912653921 
0.0001007040684563693 
-0.000158383280717615 
5.372052888523656e-06 
-2.153190213808811e-05 
-3.734480426804875e-05 
4.780582773693515e-05 
-4.544438161009482e-06 
3.854118773023551e-05 
7.991753448779924e-06 
2.614368359248848e-06 
-0.0001481508409135618 
6.590270741773499e-05 
2.773613264653242e-05 
-2.917442085063434e-05 
2.737231152102959e-05 
3.245477579889292e-06 
-9.156390614040679e-06 
2.385273679631559e-05 
2.1877537665945e-05 
1.212751636114042e-05 
-5.380451483797172e-05 
-3.163940033090422e-05 
-5.791054021824585e-05 
0.000150686566977101 
-7.78572549693074e-05 
0.0001471215897089177 
-0.0001512101327984138 
-0.000221364300980556 
0.0001139612173325592 
0.0001202196467723542 
6.028363091201579e-05 
-5.533210693213734e-05 
-2.797767717488178e-05 
4.835663981867381e-05 
-4.021388382785312e-05 
6.941330156100941e-06 
-9.011893180609198e-05 
0.0001442213970348778 
4.292533776214673e-06 
1.163085885957354e-05 
-0.0001422414722545828 
-8.683114533735798e-05 
-1.468668587848482e-05 
0.0002174942309720281 
-0.000126869306258755 
1.763330199483956e-05 
7.058356625499146e-05 
3.447516777539327e-05 
-3.301694141133435e-05 
-6.92829393394998e-05 
8.042337711938724e-05 
-1.411102462926563e-05 
-7.617806640489805e-06 
7.136094447158487e-05 
-5.037743053813345e-05 
-5.21167577899642e-05 
-7.538539300485189e-05 
-0.0001167178519964627 
-2.592292563821883e-05 
-0.000185906417442485 
4.064308978599155e-05 
0.0002106636962469866 
0.0001713071283604414 
-5.062067007727784e-05 
-1.864468590518389e-05 
0.0001397557662459805 
1.289472396157399e-05 
-1.964348432248698e-05 
7.932376660562833e-05 
-4.522802056897013e-05 
4.036240590185293e-06 
4.972819968195725e-06 
-0.0001120453377612958 
9.548097909412137e-05 
0.0001168091366863614 
-2.955469232631565e-05 
1.047799629333833e-05 
-9.771775713291539e-05 
-2.187793224112729e-05 
-2.004702607363432e-05 
4.825602407654883e-05 
-1.468343572682199e-05 
-4.554614556244715e-06 
0.0001500320462861866 
2.521258414961097e-05 
1.920440372463739e-05 
-6.61877276050249e-05 
-0.0001438804147906094 
-1.003493485387795e-05 
1.058798096085317e-05 
-0.000103784819822564 
-3.152847377005998e-05 
0.0001533322961140173 
-0.0001374365395631688 
-5.971562666076509e-05 
-1.379923949507794e-05 
-8.97806746648535e-05 
7.650658395118633e-06 
-0.0001062724956993899 
-5.745025858114588e-05 
2.969241604141292e-05 
6.458412902822661e-05 
2.975612016178993e-05 
-1.123944205207559e-05 
0.0001187176312107267 
-0.000241935515558256 
-1.726677377603076e-05 
0.000217037319954326 
-4.062576435203641e-05 
0.0001359748749193802 
1.951778138523543e-05 
-0.0001426160905892591 
3.365952468222689e-06 
0.0001193323040955907 
-5.226459464981494e-05 
-6.534684698288076e-05 
4.280531562084681e-06 
-2.569926994060299e-05 
-0.000134556399718772 
0.00010257769827511 
2.573520789087538e-06 
-5.808013628969562e-06 
5.597970515289814e-05 
1.571777568607809e-05 
1.729246791864792e-05 
-2.16591454942181e-06 
-4.66498313732457e-05 
1.563900065391235e-05 
-5.353686146292581e-05 
0.0001200913737061695 
-4.494413236873706e-05 
-1.817178630845803e-05 
-7.057100178217381e-05 
9.11034794417489e-05 
-5.296219464979273e-05 
-4.607124106121105e-05 
-0.0001342676634295326 
0.0001037617564487106 
-0.0001988434872329801 
5.70930449139595e-05 
-1.907459833709053e-05 
-8.71427363674043e-05 
-0.0001379807237550796 
4.06278614496924e-05 
-4.59486749528458e-05 
-1.297572609504198e-05 
5.424312259299267e-05 
6.779835914645108e-06 
4.944950238021547e-05 
1.822467658209447e-05 
-3.927337541797389e-05 
2.182022216662355e-05 
2.369471117245321e-05 
1.310911386275978e-05 
0.0001811373545691628 
-6.233015319125955e-06 
7.604477529571275e-05 
6.379000496272022e-06 
2.367572928033243e-05 
7.73659847921214e-07 
5.635601432774025e-05 
5.431559928306283e-07 
7.564060676976331e-05 
3.475529002659662e-06 
-3.856406399059613e-05 
-6.568484908426782e-05 
-1.436841808094541e-05 
2.961206597188844e-05 
-2.942949174917716e-05 
5.124466593698324e-06 
6.593168678574236e-05 
0.0001179745920178487 
-3.636149707223119e-06 
-4.992002939538298e-05 
-4.070708468998837e-05 
-1.335553765113659e-05 
-5.617033565786874e-05 
-3.981950696898057e-06 
0.0001801021833715736 
-9.025800645131737e-05 
-6.926473581668582e-06 
-4.732894307597132e-06 
4.994275371938154e-05 
-8.427828571515065e-06 
-0.0001840346454547646 
-8.738509461212198e-06 
3.296608582812054e-05 
-8.812685167169342e-06 
6.075571052795254e-05 
4.525363921454374e-05 
-0.000107415843137186 
-6.850169170673617e-05 
0.0001205019071017994 
3.750755617958535e-05 
-0.0001471511403080775 
-0.0001248947886975799 
0.000204650135872879 
-4.045280049780782e-05 
8.987090384575796e-06 
8.183316866512111e-05 
-0.0001176589810230887 
-4.723510298428665e-05 
1.924592862993748e-05 
-0.0001113506847079594 
-6.537409799183284e-05 
-0.0001194886703565039 
3.998722153344041e-06 
8.37449178800601e-05 
-4.157623242840802e-06 
2.614681877598597e-05 
-6.843257214445175e-07 
4.840553071994239e-05 
3.098616101092855e-05 
7.380821315553242e-06 
1.070234804772048e-05 
2.02055148058197e-05 
-5.275382531908997e-06 
5.017137716105559e-05 
-4.194865306718448e-05 
-3.097478681379742e-05 
-3.939713839379069e-05 
-3.789747043413477e-05 
-2.06761415719302e-05 
0.0001201617912209564 
1.40875438422234e-05 
0.0001054649137588576 
2.0172303013201e-05 
-0.0001503782140038178 
-5.34576984511251e-06 
5.614947881773646e-05 
-6.706585723118948e-05 
-0.0001293434037009913 
2.011028260327278e-05 
3.247956558552117e-05 
5.296097928206328e-08 
-0.0001904056725515631 
7.814181566648423e-05 
1.602595053506592e-05 
2.215700699817833e-05 
1.559846939314792e-06 
-1.204100190825227e-05 
-2.980486105766172e-05 
-2.72948905388037e-05 
-1.665919407633334e-05 
2.76531449782373e-05 
-2.492803265493964e-05 
2.747779824640149e-05 
4.302319735804203e-05 
3.982432854483422e-05 
4.314754770890018e-05 
5.795128593165385e-05 
-4.554631195735531e-05 
0.000126096066216232 
-2.97309998673635e-05 
-4.919898664101205e-05 
-3.381984010795085e-05 
7.595187983189208e-05 
9.382920066790045e-05 
8.997396345667094e-05 
1.030179426108934e-06 
7.100920408473523e-05 
0.0002392746546660998 
3.342581201371277e-05 
-0.0002064940990051428 
-1.798321629802939e-05 
-5.041034668283724e-05 
9.992308585422411e-05 
-2.766683600635804e-05 
3.841918992131325e-06 
-4.589562778475207e-05 
-4.893274323821959e-05 
-5.342898794720381e-05 
8.574376490160071e-05 
-4.872801449724017e-05 
-0.0002899451367647539 
7.336738536208625e-06 
3.184556100953377e-05 
-7.559388467955461e-06 
2.404120475302714e-05 
-1.607773794403323e-05 
1.5050174509348e-05 
2.097790217955515e-05 
-3.082760587617822e-05 
-1.703190767556661e-08 
-6.83274475776956e-06 
-4.322350686320245e-06 
-4.648980583084682e-05 
-7.1631569606337e-05 
-0.0001699450009922629 
-9.375614403979263e-05 
3.348568362017406e-06 
3.762333204375477e-05 
-2.440909949946153e-05 
-1.978921254476348e-05 
-8.73572814395839e-07 
-1.887756024193191e-05 
8.690965118523626e-05 
-2.756583637239967e-05 
6.185387913416875e-05 
-5.72043134777832e-05 
-1.737779857811708e-05 
-4.813019258542895e-05 
7.220518533854981e-05 
0.0001227328826663972 
-1.107953231855813e-05 
0.0002631629028635434 
3.051044120575579e-05 
-2.669337552361565e-05 
-3.233909111181737e-05 
-1.379214008070475e-05 
1.752049040135885e-05 
-1.072398503429033e-05 
-5.887363893456622e-05 
-1.472705590425598e-05 
1.197985676177496e-05 
3.205159368456217e-06 
-5.961320766940856e-07 
6.159464498266148e-05 
-5.451911570675503e-05 
-0.0001513621948949871 
5.438492485357872e-05 
2.672920361837152e-05 
5.761642293595023e-07 
-0.0002251141997644428 
-8.639546020650627e-05 
-0.0001339212024167922 
-8.584557528496143e-06 
-0.0001487455579775699 
1.077906140607521e-05 
-7.656928915406051e-06 
0.0001597270366722942 
2.620971865283088e-05 
0.0001238829890219383 
0.0001673486356310548 
0.0001998856048253907 
3.44451986343926e-05 
0.0001058643880952137 
-0.0003047295732326614 
-5.776776430176735e-05 
-1.646488331325569e-05 
6.077206784764248e-05 
-9.468758199630935e-05 
-1.687453635357665e-05 
9.618408449763663e-05 
6.48315130369821e-07 
9.687341199756149e-05 
2.645758446878473e-06 
-2.242634352787698e-05 
1.535563096965221e-05 
3.337158457176127e-05 
-6.330066748879776e-05 
-0.0001090025204974506 
0.0001966669541764842 
-3.625587027495815e-05 
-1.204304884246125e-05 
-0.0001172892688118288 
-0.0001324566125806385 
-4.851505678027685e-05 
-1.281281465945984e-05 
-0.0001029246938737517 
4.567310071789944e-05 
-0.0001218097205123044 
4.298906838804617e-05 
-0.0001771546553642635 
1.319568550452107e-05 
7.718106985190444e-06 
-3.766287506271213e-05 
-4.225678789607056e-05 
-0.0001162825419981089 
8.32392859478257e-05 
-1.341492642626488e-05 
0.0001987561356318437 
2.662045925536859e-05 
-3.3841929518159e-05 
-1.821643937990495e-05 
6.764166936189432e-06 
0.0003007443258686087 
-5.906853379204911e-05 
-4.875908036182669e-06 
-4.132791081118905e-06 
4.668194928501252e-05 
-5.59681852649024e-06 
3.439074307986051e-05 
1.31833132212478e-05 
2.113678346529079e-05 
-4.805075733215679e-05 
-0.0002584236317617651 
-1.158213134053279e-05 
8.611550070134322e-05 
-5.249758334197462e-05 
-3.275829155147146e-05 
6.237590593150169e-05 
7.203141370190229e-05 
0.0001208483256053322 
7.931055715678052e-05 
5.334830533544698e-05 
-6.539353533059938e-05 
-8.68336828147712e-05 
3.733950739908261e-05 
2.482160049196052e-05 
-0.0001246229629727183 
-1.202935826843842e-05 
1.274673932386817e-05 
1.154059074865264e-05 
1.271599220831269e-05 
-8.735882744365358e-05 
0.0001932467243426958 
-0.0001094745853812336 
-3.093241205613829e-05 
-2.921202335020796e-05 
6.138794553057877e-05 
2.016987435045326e-05 
-7.61808281160174e-06 
1.637542225626071e-05 
-8.394070158259249e-05 
7.522938037148626e-05 
0.0001000244907766067 
-7.882050209747669e-06 
4.016159840972486e-05 
-1.436732437609214e-05 
3.391347491551562e-05 
-1.116530240748063e-05 
-0.0001128088723189302 
-0.00023586559374964 
-5.941875935226885e-06 
-7.766239436722163e-05 
2.18424693380404e-05 
3.705409764866065e-05 
1.166732514400695e-05 
2.194971599082158e-05 
-0.0003391605206859589 
0.0003306346680585884 
-2.426808666130176e-05 
-9.918471532484302e-06 
0.0001019953293705498 
6.391336619572634e-05 
3.042223697376463e-05 
2.128509437516267e-06 
-0.0001455761070910626 
-1.020914821274059e-05 
5.177613889713288e-06 
2.458032076582461e-05 
2.382223937187096e-05 
-3.508302940019247e-06 
-7.667477450188683e-07 
2.082903904115358e-05 
-1.361391198188357e-05 
6.261021646782244e-05 
-2.43065122354009e-05 
-1.114079050605935e-06 
4.835114319607462e-05 
0.0001276323039323859 
-0.0002288339615572582 
2.43107117822843e-05 
-0.000292283630185779 
8.486649278374038e-05 
3.365716349497107e-05 
-0.0001523494039712165 
-9.672614231487944e-07 
-4.755886127902754e-06 
4.254817255948147e-05 
-1.419535650444541e-05 
3.530568508626144e-05 
0.000104990715675932 
-2.046800489446152e-05 
7.527424942153209e-05 
1.489445278652499e-05 
6.035323645780147e-05 
2.932796166855487e-06 
-2.174127425103741e-05 
9.628850290835686e-05 
6.972685665301616e-05 
0.0001283194470397562 
-1.856359197753373e-05 
-8.534817223175464e-05 
-4.528940343973588e-05 
-1.701714719616116e-05 
-0.0001144956355641586 
1.228939224672149e-05 
-6.018070558614718e-05 
-1.42684775440979e-05 
2.49886257225382e-05 
-3.75613184839871e-06 
7.501398901138429e-05 
4.359714878490102e-07 
-2.837847359251865e-05 
2.759658200039373e-05 
-7.103411355047718e-05 
-4.431960391284469e-06 
2.361286101697895e-05 
-0.0001320546969590239 
0.0003047312353435232 
0.0001720166417518525 
-4.172704580949582e-05 
-0.0001505906065272774 
-6.168420133985577e-05 
4.501006630090567e-05 
-6.829664739928201e-05 
-4.866154188267447e-05 
1.542014482372692e-05 
-8.08118876116859e-05 
-1.687038210569846e-05 
2.001444107195226e-05 
6.089535564198134e-07 
7.414324120592232e-06 
2.05363462768796e-05 
-6.473434662663766e-05 
-6.395897870590358e-05 
-3.18739028000855e-06 
3.5806574187835e-05 
6.143283266873342e-05 
-0.0001315925786500067 
7.87620576268701e-05 
2.83327293328749e-05 
-2.202701832817168e-05 
-4.125895041348411e-05 
-5.699187860933156e-05 
-2.976777726999171e-05 
-9.32813800623094e-05 
-2.617814921959727e-05 
0.0001304731160846335 
-3.551995673586872e-06 
9.234373231421912e-06 
3.507540620095192e-05 
0.0001838670992714591 
1.440350800382106e-05 
8.405348438609535e-05 
-5.182643597959167e-05 
-7.156686397404418e-05 
-5.563256343154802e-05 
9.687976118736903e-06 
-6.2085086555992e-06 
8.303779679011948e-05 
-0.0001146218070227045 
-7.289354675487127e-05 
-4.811016985947182e-05 
5.122592665853083e-05 
-1.009151644248712e-05 
7.402149652939051e-05 
5.102555864010384e-06 
8.345026873408515e-05 
-7.358914328731936e-05 
-4.152550961779065e-05 
6.530324291636637e-05 
-2.94796344908416e-05 
-0.0001006939310857368 
0.0001202988556626865 
9.005446351774874e-05 
-8.881111382906193e-05 
4.616980437619169e-07 
3.446584514028993e-05 
0.0001547456247079772 
-9.87109418198985e-05 
4.438905381484649e-05 
-2.985680534654891e-05 
-7.646579607854373e-06 
-6.293448391257069e-05 
-3.076396405856618e-05 
-4.172580261183615e-05 
-2.24650554445242e-05 
-0.000166463081507046 
-2.141762151817063e-05 
-3.291294651520568e-05 
-9.318167434603109e-07 
0.0002021790791559325 
-3.248285201514845e-05 
-4.143686020209928e-05 
0.0001052691163616911 
2.83816451219553e-05 
1.545953635796404e-05 
4.510493305682167e-06 
-6.001720251351121e-05 
-4.614558730345896e-05 
-1.098119273350451e-05 
-1.962917926676336e-05 
3.139211614337958e-05 
3.480645958348605e-05 
1.377262964966113e-05 
-2.400369443329479e-06 
-0.0001023653902924922 
-8.231739340308193e-05 
-5.355839366104111e-05 
-2.867868018183095e-05 
5.94104529022594e-05 
2.651925421094859e-06 
-4.651011655601256e-05 
1.021474058342922e-05 
2.827615756074553e-05 
0.0001899037179714297 
8.191417104217787e-05 
-2.387617038886466e-05 
-3.961796300427082e-05 
9.751488711319532e-05 
-6.36685782876642e-05 
-6.302374731078965e-05 
-4.145751575175842e-05 
-5.578862664073584e-05 
-2.501650508796558e-06 
1.000560649676986e-05 
5.767222415977607e-06 
2.853014819607061e-05 
8.743730276433615e-05 
2.248791923901644e-05 
-8.607940589449942e-05 
-6.67960575170461e-05 
-5.239655322525205e-05 
2.696315656553135e-05 
-1.780168609746518e-05 
5.550250128747319e-05 
-7.603731928767889e-05 
5.353343479879762e-05 
0.0002081657287637954 
-2.815256290131771e-05 
5.397269531189497e-05 
-4.504073087546059e-05 
-1.729658697135101e-05 
-4.279704801759904e-05 
-2.304417550887211e-05 
4.836914822933387e-05 
2.457331401902903e-05 
-7.949632212314031e-06 
-4.458528742280505e-05 
-0.0001079380773705893 
-0.0001379063886364988 
-6.107722341694977e-05 
0.0001401439748903489 
9.420372504953675e-05 
2.019456562934785e-05 
0.0001360178768696177 
-0.0001918444767354547 
6.435485891160413e-05 
-7.939635199636433e-06 
2.164846589368638e-05 
-5.031073562870458e-05 
-2.749321910128995e-05 
-8.220227584118401e-06 
4.693540060671525e-05 
-4.003969930082752e-05 
-0.0001121289764111544 
4.841899161938656e-05 
8.961002082610465e-05 
-1.393789984770215e-05 
-1.222416773158246e-05 
-2.904771961622497e-08 
-8.180211269023078e-06 
-8.094926927285521e-06 
-5.587974464469348e-05 
-1.978625844249915e-05 
-9.135350383206012e-05 
-1.711183500075789e-05 
0.0001193586782241024 
-6.124862268638754e-05 
6.979804803290429e-05 
9.665704008728848e-05 
-5.181571876386158e-05 
-3.115911041010233e-05 
8.672077257974608e-05 
1.235451920107981e-05 
-2.693617115378856e-05 
4.911496399708017e-05 
-4.716399843030068e-06 
-6.002921295917995e-05 
-0.0001060878852976192 
8.276372320311697e-05 
6.573539953940389e-05 
-2.379458873234601e-05 
-9.418910083584479e-05 
-6.307679102472609e-05 
-4.95325051712014e-05 
-3.503939923087603e-05 
3.370294579506424e-05 
-0.0002814837218078704 
1.310960578672442e-06 
-8.444553578325182e-06 
2.310547947428699e-05 
6.608398217385018e-05 
-4.573740383924119e-05 
8.736139184068172e-05 
-8.055129183634289e-06 
-4.279015365333145e-05 
5.09999297355712e-05 
2.785448826252039e-05 
-1.812858721151978e-05 
7.951696125403458e-05 
-8.951536241943722e-05 
2.01150583035267e-05 
9.760012203721799e-05 
-3.641774654769737e-05 
5.718010698317808e-05 
-4.385816988904617e-05 
5.06184662237599e-05 
4.940909117296586e-05 
5.914703762291354e-05 
