solver_type L2R_L2LOSS_SVR_DUAL
nr_class 2
nr_feature 26105
bias -1
w
-5.695508366433478e-05 
4.048447984675253e-05 
5.377376589450175e-05 
0.0001366606276714078 
0.0001625762749130335 
1.358019237491865e-05 
1.320489105222362e-05 
0.0001500941454787516 
2.773477296739473e-05 
-0.0003594725564586139 
-7.345864786470467e-05 
-0.000315376934837879 
-0.0001128240835004827 
-1.889690797010487e-05 
9.522859622971899e-05 
-0.0001074621316473898 
-0.0002802827711488652 
-0.0001456427490843576 
-4.156428675402311e-05 
5.542526824181682e-06 
8.212814001181196e-05 
0.0002376150845195412 
7.032922367088604e-05 
2.775477387302814e-05 
-0.0002263646617830005 
0.0001683164474602146 
1.431134520303396e-06 
9.809069719768106e-05 
8.8415596969962e-05 
6.328755101578322e-05 
0.0002398381898000113 
-9.652622395224718e-07 
-0.0001344454350560768 
0.0003606167780818373 
-3.727940243117251e-05 
-4.16022509327697e-05 
-9.842643118957504e-06 
-4.259537525604262e-05 
5.201540035719584e-05 
-7.617040663233655e-05 
-4.307030908662193e-05 
0.0002880867964807162 
-0.0001459303353390318 
7.10678663901369e-05 
-4.798344833146481e-05 
1.659533576425305e-05 
-4.415158608387024e-05 
-0.0002492258577294606 
9.065406795682899e-07 
-7.635849548172793e-05 
7.788076448424892e-05 
-0.0001046677303211635 
0.0002457844586740096 
2.280050885435789e-05 
6.433609789251135e-05 
-0.0001032133594723283 
-2.672837334476989e-05 
-3.503718264159865e-05 
8.009827725179411e-06 
-0.0001656315550979127 
7.781331066430836e-05 
-0.000208169310642894 
0.0001803824105662552 
0.0001626279957244496 
-5.270153624757996e-05 
0.0001426123033032944 
-2.490131950990999e-05 
1.740622799375306e-05 
-4.239292441629456e-05 
1.673604069505449e-05 
5.150542809287196e-05 
-0.0001016951799763953 
8.090434704545765e-05 
-0.000204992967000693 
-0.0001478341598049154 
0.0003418314733793265 
4.051958189928791e-06 
-5.58888198940139e-05 
-0.0002417959907375468 
5.438862059308135e-05 
-7.147806895149085e-05 
9.17108600080008e-05 
6.362468995910168e-05 
-0.0005799557318524858 
-7.941320906708135e-05 
-8.774342380440515e-05 
-0.0001428610711091097 
0.0001722504789246209 
-1.423108632795298e-05 
-9.099952479018822e-05 
0.0001860970829328299 
0.0001910127074500491 
0.0001092492559647212 
0.0001545891506967761 
7.984669214758443e-05 
0.0002178887314524407 
-0.000169068444110201 
-0.0002958500615824304 
2.600185076934219e-05 
-8.577610742721045e-05 
0.0001123757287480896 
-0.000143363134011655 
-7.735420016983114e-05 
-9.451369019436638e-05 
4.908831323097013e-05 
6.901162370210994e-05 
5.053272263039253e-05 
-0.0001154993570334426 
0.0003886404540491319 
-2.66550641799385e-05 
0.0001173650753119252 
-0.0001155025574162662 
-2.196518448225639e-06 
3.613801546779776e-05 
0.0001153885990390388 
7.167816411456417e-05 
-0.0002443706773744514 
4.997116895681113e-05 
-0.0001560269263362133 
0.0001801230458663271 
-3.909519405981373e-05 
1.189494405903772e-05 
0.0001541574525024673 
9.568460515604654e-05 
1.027941822882123e-05 
1.060627263106414e-05 
6.957062354852917e-06 
4.619845086408825e-05 
-2.964239971548127e-05 
0.0003134115266000136 
2.640705514943193e-05 
2.785390607516641e-05 
-0.0001029565964258877 
1.576415533111204e-05 
-8.959050779972745e-07 
-0.0001762470420933772 
-0.0001043531157964556 
-0.0002048290365635955 
7.726822900661198e-05 
6.990488496613091e-05 
1.878862972230737e-05 
-0.0004157596745603927 
2.377927693622421e-05 
-3.655560636772931e-05 
-0.0002924545033121669 
1.728028527300517e-05 
-2.789937557108933e-05 
0.0002047212185649508 
7.641439671063341e-05 
0.0001029657272638885 
0.0001303335041724743 
-0.0002113413757058193 
2.500575153962436e-05 
6.768821450713564e-05 
8.766206368603002e-05 
0.0001940039564136773 
6.721798796690882e-06 
2.75314164950716e-05 
3.553444857557292e-05 
9.071522074306668e-05 
-8.15231264441702e-05 
-3.138087953064865e-05 
0.0001458665352768725 
6.659642473868611e-07 
-0.0003241661340778188 
-9.964865346770914e-05 
-5.484796644101707e-05 
-8.137488581399755e-05 
-3.697469488589743e-05 
0.0003328154251127899 
-3.778682109310379e-05 
8.336509310317739e-05 
9.814075315164917e-05 
-1.359217319881993e-05 
3.324838429837692e-05 
0.0001134681728420526 
7.875771022123927e-05 
-4.901227679725269e-05 
-0.0001914040982916953 
0.0001841694601192601 
8.406000107183825e-05 
-4.23035271373211e-05 
0.0002285209093400766 
0.0001957004605094653 
7.60292126724999e-06 
3.713074230871822e-05 
-3.499748074942427e-05 
3.852555893136196e-05 
-0.0002306468070410098 
-0.0003487994050706384 
7.515636291750628e-05 
-4.191448933967308e-05 
-0.0001085383842186298 
2.761017567119255e-05 
4.048295539131936e-05 
0.0005060221951900139 
-7.860086877931266e-07 
-3.07209520905083e-05 
0.0002553684801083342 
0.0001502157736803532 
-0.0001710759864319115 
-2.18789180697466e-05 
-0.000176750973289025 
3.529434595537542e-05 
-0.000346362325340675 
-0.0001903085349775746 
-5.751748655004264e-05 
7.194232040204686e-05 
3.477003385542756e-05 
5.441391989474746e-06 
-8.762111811811953e-05 
-0.0003344880205676221 
3.12403245290943e-05 
2.408482476996714e-05 
-5.919285667694676e-05 
0.0001122665420146697 
3.716903348540264e-05 
4.727962958859882e-05 
1.100131038894339e-05 
-7.791263342516484e-05 
3.943839293632882e-05 
-9.682509458740683e-06 
8.89935468336904e-06 
0.0002711306586014184 
-0.0001777047385198354 
-6.499659549759724e-05 
-0.0002963863172292511 
9.445998199953446e-05 
-5.091052179127896e-05 
0.0001142805106170392 
-6.530719780049642e-05 
0.0003048100267695561 
9.654988819748022e-05 
3.228628171834395e-05 
-0.0002415957519253916 
0.0004928083669613896 
0.0001573480201057506 
-0.0004124568365529809 
-9.961667280803494e-05 
-0.0001609545279366375 
-0.0001461466399972852 
-6.33282615839912e-05 
-0.0001223818419136874 
0.0001317014891112164 
3.335756111384632e-05 
-3.598999290011566e-05 
3.645361333759249e-05 
-1.025979964601332e-05 
1.709718591169093e-05 
0.0001462922452473392 
7.284434835880602e-05 
0.000184155318178049 
-6.576362949552347e-05 
1.395262837606359e-05 
3.207644092906439e-05 
9.014645400418506e-05 
6.08701444260461e-05 
3.918950688068207e-05 
5.151360895000117e-05 
-4.291907216433675e-05 
2.000675795320604e-05 
0.000214577999392236 
0.0002699636470624037 
3.137399053283907e-05 
0.0001667177486808786 
9.390786093213652e-05 
-0.0001256340160431041 
-0.0002382505662357103 
-6.198793135231199e-05 
-0.0001039887677489144 
-0.0002923239430557629 
-0.0001819318254527857 
-3.026752047600259e-05 
3.424924287621395e-05 
-4.354722937007528e-05 
-5.66477162279457e-06 
0.0001608531475591944 
3.832249652365917e-05 
1.084982373979394e-05 
7.687212610932306e-05 
3.608688222129724e-05 
6.364790438701743e-05 
-2.765799147847376e-05 
4.026554359646272e-05 
-0.0002488086998788065 
-4.377751348933724e-05 
1.216814893831288e-05 
6.214430294554156e-05 
-5.212784614742541e-05 
7.382528425442068e-05 
-0.0001627292979187941 
0.0001750481239570858 
-0.0001123283788555538 
0.0002303452136778001 
4.99565537723799e-05 
1.043848640754186e-05 
-0.0002396576444034268 
-9.756105644690959e-05 
-3.895361570370393e-05 
-6.763816099976141e-05 
-0.0004624947023101256 
7.354865728175431e-05 
-0.0001276603071493337 
0.0005852221922894733 
-7.82558851389771e-05 
7.613237035340773e-05 
2.041890592886789e-05 
0.0001806987505756921 
3.308834758134987e-05 
6.792791275238289e-05 
0.0001496857826278883 
0.0001238995737685054 
-2.849895398287927e-05 
-0.0002162025357214595 
-0.0002214432041024917 
-0.0001038017477561709 
-9.587419943578749e-05 
0.0001623333411132862 
0.000102858544826846 
2.662053024294435e-05 
9.842680139989265e-05 
0.0001414090730602679 
-8.225884061192681e-05 
0.0003093981927575163 
1.123678401302914e-06 
-3.615517424041389e-06 
-7.129662597910682e-05 
-1.437822185245537e-05 
-0.0001187615552921309 
2.069559258857293e-05 
-7.453578933911934e-05 
-8.115247663448496e-05 
-0.0001295660933718059 
-0.0002934302486436455 
1.480684967689885e-05 
7.223437437083351e-05 
-1.590281999551886e-05 
4.184095510343054e-06 
0.0002225794163029263 
-0.0001845201177779466 
9.314033863875684e-05 
2.245350602416669e-05 
-7.79197825711486e-05 
0.0001009598407654189 
-0.0002410774111806669 
-0.0001729679219216867 
-2.551199985082277e-05 
9.360019871670468e-05 
2.49378369776061e-06 
0.0001202114436431101 
0.0001801252971631429 
0.0001258739750677164 
-1.545749559033905e-07 
6.203222577061565e-05 
-9.754624016500213e-05 
-1.966554813054047e-05 
-0.000310180740037221 
-9.84483928321662e-05 
5.993010860025015e-05 
0.0001494813562985245 
-0.0001459357752182592 
-0.0001158182667185666 
0.0002463535112231688 
0.0001337235817727519 
2.391993856923693e-05 
0.0001462643429393413 
-1.548796689572415e-05 
-0.0001293512286825581 
4.828521284614793e-05 
-9.703106524369514e-05 
7.820650889057592e-05 
0.000140558081811586 
-0.0002839643179204371 
-7.307785271268472e-06 
-3.053897791432099e-05 
-2.033891034547814e-05 
7.061092207523381e-05 
-1.658511367204081e-07 
1.33749539336194e-05 
2.478181485100017e-05 
0.0001583583309169391 
-5.592897523691829e-05 
-0.0001458473909625955 
0.0002546521525072087 
-1.106278486058186e-05 
-4.701395182171634e-05 
-0.0007667868128019435 
0.0002085286723072551 
-1.638550587273572e-05 
0.0001833174751813153 
-0.000126433203342762 
-7.532921455198701e-05 
-0.0003631352041108915 
4.434075112231076e-05 
0.0002461544468057675 
-0.0001298384851564076 
7.00142607270259e-05 
7.058205091406739e-05 
0.0001347448699930263 
0.0001991378760799806 
1.289478220134179e-05 
-4.226532141541618e-05 
0.0001867307717060902 
4.254558996004488e-05 
2.725554722615325e-05 
5.942343885128926e-05 
-9.206572874571803e-05 
3.491666866509599e-05 
3.16333751983089e-05 
-3.935681290667857e-05 
0.0001799868730293396 
3.241852472602973e-05 
-4.604979798458119e-05 
1.523632340338954e-05 
-5.145936976121569e-05 
6.414093057363019e-05 
0.0001060052559690914 
-8.90664179354252e-05 
-2.51089267652673e-05 
8.983547977559495e-05 
0.0001138502758075633 
-6.215185936791973e-06 
6.241747264002186e-05 
0.0001807423099511259 
1.292509196587117e-05 
4.799793819289871e-06 
5.848461347027175e-05 
-2.018681966780189e-05 
-0.0001476588221176837 
-0.0003814537414656826 
0.000140178369969967 
-0.0002078922312769856 
0.0001745711978938668 
-0.0003100470937460473 
-6.750057415280405e-05 
7.865610956913631e-06 
5.927849451225216e-05 
-1.766828616473699e-05 
6.882514855234237e-06 
7.592719877583286e-06 
5.221497216011068e-05 
-0.0001416952161636741 
0.0001477918481778873 
-1.963972841730628e-05 
0.0001694452695557957 
-0.0002270833713625708 
0.0002888507278241231 
1.430543132903958e-05 
-0.0001622847873716479 
-1.473439629282153e-05 
7.412931772069712e-05 
2.197010791547061e-06 
-0.0001272237658697932 
-0.0003360321762556414 
1.473097142114402e-05 
-2.293047528334739e-06 
0.0001389387946940851 
7.955829783123878e-05 
5.615478634174923e-05 
1.202483743719428e-05 
-0.0001910878799362824 
0.0001091222427774689 
-3.785512507158717e-05 
-0.0001177293321085858 
0.000193775664924726 
5.43609772996501e-05 
-2.297362450338564e-05 
7.685394333733224e-05 
-0.0001685722335255841 
0.0001395667618315495 
-3.484366620760396e-05 
5.976183633530769e-05 
-4.657610909245901e-05 
-2.65265321882056e-05 
1.93985034793064e-05 
-3.764712956123504e-06 
0.0001835807905357562 
-7.789310145370391e-05 
0.0001712298553029885 
2.182693363884408e-05 
-0.0002584157876756688 
6.010107723979794e-07 
-8.301301220902224e-05 
-5.082993579948568e-05 
-3.634141035826645e-05 
0.0002684896891455773 
0.0001802597666923002 
-0.0001224606222904067 
-0.0001149031060753888 
0.0002695643705486834 
-0.0001415585350270887 
-5.384036006547684e-05 
-5.872270121034978e-05 
-8.301809339030003e-05 
2.20544016001515e-05 
-8.313925193012404e-05 
0.0001678291516098542 
-5.667318197061612e-05 
3.409013601282301e-05 
5.325287813766017e-05 
-0.0004313236696125109 
-0.0002375042776792288 
-4.629035339157478e-05 
0.0001011889480901993 
0.0004411732325730594 
0.0001505137568498279 
4.131837118251431e-05 
4.1053359444589e-05 
-6.033789578960606e-05 
1.905352432219373e-05 
0.0001043965235524634 
6.035410927965135e-05 
0.0001560594383048512 
-5.47457299920497e-05 
-5.63987360113558e-05 
3.509948901052901e-05 
-0.000243894603846598 
-0.0001021731972844463 
1.80157463657131e-05 
-0.0003087829914434708 
-2.829353700979072e-05 
-0.0002677595570375187 
1.423454202509813e-05 
-3.371408826160775e-05 
-5.327922688382479e-05 
4.27502934590996e-06 
3.891247419293626e-05 
-9.30685020536086e-05 
2.062616553883413e-06 
-4.672702214205012e-06 
0.0001140719956600458 
3.883457973334374e-05 
1.364405197854009e-05 
-5.570468261899823e-06 
-5.023387883386496e-05 
0.0001585898884998165 
0.0002836037356273731 
9.888674958341249e-05 
-0.0001766040538419786 
0.0001422470077116114 
0.0001564624022765197 
-1.604586446849479e-05 
-2.314587205768716e-05 
0.0002802042979716456 
9.599824624044096e-05 
-6.59091690251179e-05 
1.003430231804563e-05 
-0.0001396042803331636 
2.000020447606139e-05 
-0.0002626397693298167 
-4.903320831190829e-05 
-3.946944951206787e-05 
7.945598919410495e-05 
-1.778383159340289e-05 
-4.360853337300146e-05 
0.0001291953663851225 
0.0001149156947975507 
-0.0002038914641169648 
8.856033759380711e-05 
0.0002025536828547315 
-3.79224779475695e-05 
-5.161952937322354e-05 
-0.0001379265107951489 
7.053079068522709e-07 
0.0001576898092762107 
-0.0001740868366987999 
4.562000050935672e-05 
6.766412628643238e-06 
7.081606147069737e-05 
-0.0001077909258650622 
0.000490973609538267 
0.0001049413707681617 
-0.0001304950355528649 
-0.0001691295488942309 
-5.972437081109208e-05 
0.0001092295809142082 
-8.615122412186173e-06 
6.745105013645997e-05 
-2.732512146641665e-06 
-8.947077549027214e-06 
-1.004609653572861e-05 
-0.0002104131363021036 
5.666637733578517e-05 
-0.0004714071007727256 
0.0001538626440052031 
-2.503158527001876e-05 
-2.99515317441435e-05 
3.697099743014976e-05 
5.203939790994881e-05 
0.0002200239300064657 
4.96329674432697e-05 
0.000115716019336394 
-0.0006297804917235456 
-0.0001387110336156138 
0.0002469867287504725 
7.526907815587393e-05 
4.538218983324361e-05 
1.760721041574684e-05 
-4.065061378467636e-05 
-8.674819838549732e-05 
0.0001061112947999127 
6.619948309011531e-07 
0.0003233714578170751 
1.178870878625521e-05 
2.366573052926961e-05 
8.755572576415026e-05 
5.06648827446347e-05 
-4.157285045047731e-05 
4.426782267283627e-05 
6.065258636800737e-06 
4.170241048977932e-05 
0.0001672296111007002 
8.974515723704713e-05 
-1.339777419157784e-05 
-0.0001013375959218137 
0.0002890960641938997 
4.117084870488054e-05 
6.485839289477122e-05 
0.0001670784077742425 
2.836205006773468e-05 
-8.899479933260665e-05 
0.0003549308068772469 
-0.0003196881794172361 
9.842406689762159e-05 
-0.0001491449211555004 
-0.0002600118201165177 
3.778042695959315e-05 
-4.354353821949346e-06 
-1.702092252312364e-05 
4.828887660899493e-05 
-9.032225656191828e-05 
-0.0001643715700499661 
-0.0003598001699036292 
0.0002980930917686812 
-0.0001644645559532018 
-0.0001226586113334743 
3.01772912063005e-05 
3.996559231362468e-05 
-3.488131186034512e-05 
8.003370107693279e-05 
-2.05922563077992e-05 
-0.0001357828581958296 
-3.785547886697579e-05 
0.0002767043565749989 
-2.954343318217456e-05 
-0.0001614231302154968 
-0.0002639037663022191 
4.982169753588601e-05 
2.670413873847279e-05 
4.222048732358864e-05 
-0.000228149785034541 
0.0001529111314356208 
7.696586873114569e-05 
7.295412023155947e-05 
9.314156435014222e-05 
9.395965282787986e-06 
0.0001159010212776238 
5.507227998902069e-05 
1.20481599144476e-05 
4.890517652503299e-05 
4.678661883635757e-05 
-2.870849629619638e-05 
-0.0003298079411551111 
0.0002853190526808982 
0.0001085246852995475 
7.735226032167767e-05 
-0.000632807953525338 
0.0003119591595029515 
-0.000111883986690497 
-0.0001190346472033168 
9.100758921700244e-05 
0.0001826194345455624 
7.464721254949545e-05 
8.265035379495788e-05 
-0.0001787622700571449 
-7.589723920538768e-05 
0.0001067991451886265 
5.572856035882302e-05 
7.233662974484166e-05 
-4.924491175389808e-06 
5.397353752668464e-06 
6.647521596993043e-05 
1.221143174509782e-05 
-1.734525888479925e-05 
9.154603358658942e-05 
3.0572946075347e-05 
-5.486685295955431e-05 
2.970230786501165e-05 
9.942052348503012e-05 
0.0001972901207266726 
4.177890124605141e-05 
5.207989120694372e-05 
-2.594117367670738e-05 
3.152873908968731e-05 
4.416331213122146e-05 
3.333100334231057e-05 
3.446486642003846e-05 
-3.422946735385171e-05 
-0.000282970593882181 
-4.426478004110118e-05 
-8.851878855318155e-06 
0.0001155837789369023 
-0.0004996067604045504 
-1.32265253814235e-05 
-0.0001486743459196113 
-0.0002316045109833676 
-0.0002979300837380578 
1.86387432795336e-05 
-1.820893116934271e-05 
-2.420523990588481e-05 
2.316761757618304e-06 
-3.39981375164764e-05 
0.0001310337125942433 
0.0001763179956752368 
-6.345621985631017e-05 
-6.083357274704036e-06 
5.672737936433357e-05 
0.0001494082384563698 
2.457615346151841e-06 
0.0002226556740859739 
-0.0002209087543242904 
0.0001227209401524481 
6.979687270844167e-06 
-6.391214985428043e-05 
-2.106066676367879e-05 
1.327911482877649e-05 
-1.068410355899827e-05 
0.0001456688699710482 
-0.0001998067507201082 
3.727054472400447e-05 
2.00504028309706e-05 
-1.665698167144836e-06 
2.725717549120468e-05 
5.456472078169012e-06 
0.0001109521757414547 
0.0001298284814426999 
1.068295764013309e-05 
-7.597591475567574e-05 
-0.0001128333823167218 
2.112512616890206e-05 
-0.0007605069191263819 
9.72115272832795e-05 
-8.514448063449794e-05 
0.0003009748918951419 
-1.953798640662192e-05 
0.0001696601163651575 
9.922106121917805e-05 
-0.0001652214745289469 
8.981005225502898e-05 
-0.0002467533588225338 
2.389497572474687e-05 
-0.0001648573860452253 
-1.028012154340276e-05 
9.046238565765838e-05 
3.467393293360089e-06 
6.7123734727594e-06 
0.0001684330678941658 
0.0004838887640158168 
0.0001086458922933276 
-0.0003510045205712646 
0.0001574865271609145 
4.599188512839965e-05 
0.0001187316569690211 
-0.0001328914582068138 
0.0001843591724907286 
-0.0001055947912906507 
9.855262823303036e-05 
-1.188962557319105e-05 
-5.859739065269745e-05 
-0.000218523295597624 
-0.0004014160753499746 
0.0003920476987998074 
-5.430175433690726e-06 
0.00027013920230821 
0.0001043515600129285 
7.15921350257059e-05 
7.574623210067496e-05 
-1.602784637759266e-05 
-0.0001513042739381482 
3.495344927131425e-06 
0.0001089542112891122 
1.265550181252734e-05 
-1.416505745567868e-05 
7.863148418967779e-05 
-1.598269181654831e-05 
-1.280826185862175e-07 
4.447409085153953e-06 
2.613256158741718e-05 
4.326781060708401e-08 
0.0003456332759834535 
9.736816993456429e-06 
5.288705041109739e-05 
-0.0002198509718808766 
-8.708528058825808e-05 
-0.000274893764103865 
4.992036876766939e-05 
7.145240192042322e-05 
-0.0001493496926770032 
5.694334589149027e-05 
-8.523423508717679e-05 
-6.32501896585083e-06 
7.178496310876985e-05 
9.370401731760678e-05 
3.383723381103159e-05 
5.562776971015908e-05 
8.358261705614069e-06 
-0.0001903106007743327 
0.0001986146868864086 
1.705233611518423e-05 
-0.0001014100667999007 
5.398466755638789e-05 
0.0002433926339541901 
-0.0003224604161355085 
1.672203644518725e-05 
-2.811384124399763e-05 
-6.705296958353603e-05 
1.190137210465015e-05 
-3.612972207211443e-05 
9.780026421745169e-06 
3.455016093212046e-05 
5.702827757524563e-06 
2.377648936189823e-05 
-5.213847055214714e-05 
-7.633887287546116e-05 
1.688225933938403e-05 
6.420384488769091e-05 
-5.867291171647105e-05 
0.0001200954839815442 
-3.80528275890809e-05 
-0.0001172847417315819 
4.466171173306812e-05 
6.478712248644057e-06 
0.0001321127307864452 
-0.0001337187559424154 
8.896626707061054e-05 
5.516687709249399e-05 
0.0002355904253286447 
-0.00010397253861123 
-6.659268627305309e-05 
-0.0002700733748194881 
-7.861477041862101e-06 
9.46895772223658e-05 
-0.0001379281971728635 
0.0003057520515941869 
-6.209355664115563e-05 
-6.582779626109034e-05 
-6.329195759711581e-05 
-5.824411185001726e-06 
-9.102506195052231e-06 
0.0002229651355100042 
0.0001110201490125582 
3.957649037414064e-05 
3.149550425602348e-05 
-1.890949667639489e-05 
-0.0001652416095118772 
-9.662871401768941e-05 
-4.199560465983287e-06 
-1.67844113919994e-05 
1.304058743656898e-05 
1.084148347530877e-05 
-5.254548399685321e-05 
-2.941812001290597e-05 
4.130809388443089e-05 
-3.568968389092668e-05 
-3.704870875648718e-05 
7.153803716576506e-05 
4.369357958208405e-05 
2.115834137867418e-05 
0.0004012898134796526 
1.844318082621579e-05 
-3.193366028576673e-06 
2.214801253725654e-05 
-2.610375135977834e-06 
-0.0001853155531678275 
3.442749107661066e-05 
-1.013593177580658e-05 
-5.441598350196008e-05 
6.179269308981615e-06 
1.534691127212381e-05 
-1.904274701910453e-05 
-0.0001702558809799506 
-0.0004669098339435557 
-3.346328896702164e-05 
-3.348545796223954e-05 
0.000226193462389297 
6.650084675483524e-05 
6.322417105764049e-05 
1.030802144703677e-05 
-2.17888589149434e-05 
-3.924337868817167e-05 
0.0002110316712914637 
9.826108874277914e-05 
-1.091553969674973e-06 
-1.741920090048567e-06 
-0.0001344594917458861 
-5.87205323243582e-05 
-0.0001029251487687675 
-0.0001154523613885156 
-6.615468999620224e-05 
0.0003276784824084766 
0.000134965066187375 
0.0005356250096455047 
-0.0001815497431068877 
0.0001428870453528673 
-6.817864336393469e-05 
2.92141101234269e-05 
-0.0001571317811378331 
6.329190777598275e-05 
2.03693440244105e-05 
3.776259297414762e-05 
3.983878640776293e-05 
3.458290944125993e-05 
-1.387465475945294e-05 
1.214910221325832e-05 
-7.126338908152872e-06 
1.129157423432592e-06 
-5.953450932079273e-05 
7.593450333520401e-05 
-1.761053448664427e-05 
0.0003256494788200062 
0.000214434328794117 
0.0002068143423261214 
-1.221757135226178e-05 
-5.372416416111493e-05 
-8.519411543234368e-05 
0.0001193954742003545 
-0.0003410936952227456 
-0.001003132654709214 
1.936748384396449e-05 
9.020952286188782e-05 
5.172324329657791e-05 
-6.968156407847279e-05 
-2.382557247482461e-05 
1.420773802050368e-05 
0.0002123510587693975 
0.0001120942016496862 
-2.047171441556756e-05 
2.235447472470045e-05 
-9.240120550562184e-05 
-2.083088781728405e-05 
-0.0006066922994110753 
0.0001673586585000213 
2.832723839500988e-05 
5.935029917541025e-06 
8.740056477685859e-06 
-6.215291886415689e-05 
-4.674383253185369e-05 
-0.0001594416554787118 
7.03988245309983e-06 
-1.362128677764935e-05 
3.648185820232771e-05 
-3.771678771096201e-05 
0.0001759980491803533 
6.072664392313298e-05 
5.464765675182746e-05 
1.462126343412382e-05 
4.945578554629817e-05 
0.0001105496600383124 
-9.592983521121472e-05 
4.41410896297612e-05 
-6.750174627649521e-05 
-2.308449003153824e-05 
1.007573575483527e-05 
-7.103014436158458e-05 
2.606170926628916e-06 
4.381623249226807e-05 
0.0001715999087604893 
-8.281973359753445e-05 
-1.362128677764935e-05 
0.0001221937903776774 
0.0001414819116769229 
-8.901059191445493e-05 
-4.306512577657405e-05 
-5.869940952059321e-05 
9.199686717413403e-05 
-3.101316182498993e-05 
-1.942456733854344e-05 
-5.565386743837499e-05 
0.0001101696134160422 
-1.582689728465234e-05 
5.684175266515365e-05 
7.285536423834918e-05 
5.626619652657658e-05 
-7.350205186647054e-05 
0.0001331124892730941 
-1.416209458061947e-05 
7.340401822869516e-05 
0.0003142021025239648 
-0.0007738098383142329 
7.391461316484691e-05 
0.0001982404586674561 
-0.0002037311836239924 
2.271300466347196e-05 
1.740332213103687e-05 
3.128269282839518e-08 
5.97007237954162e-05 
0.0002631526175965271 
0.0001229886489170466 
3.917781284318325e-05 
-5.778222531417281e-05 
0.0002411372729702682 
-0.0003308025201601662 
-0.0003355577739196016 
-6.285681455194226e-05 
0.0003188861745715704 
-0.0002778284536152267 
-0.0001562131837204674 
0.0002540166682270224 
-0.0001424430558005179 
0.0001111367727813774 
-1.157580364639387e-05 
-2.467614870919264e-05 
1.087345534083423e-05 
-0.0001254315568573265 
-0.000151100153704077 
-1.734312350052656e-05 
-4.979841676640609e-05 
3.261252981049478e-05 
-3.730749176595975e-05 
8.525377270035386e-05 
9.369483763165236e-06 
2.913218771953048e-05 
5.242944575711709e-05 
0.0001475225810895619 
0.0005225383853580945 
6.782996947282795e-05 
-2.279864687599799e-05 
-4.721875179816853e-05 
6.237630672404615e-05 
-6.1326870761319e-05 
0.0001415192638521787 
2.931500962424184e-05 
-0.0001368097668010653 
-1.797545676141395e-05 
8.648450343816677e-06 
9.820801573897996e-05 
-4.609544148158034e-05 
4.991458489899474e-05 
7.336966045810239e-06 
2.348627303244372e-05 
-0.0004693199364810853 
8.279111937113507e-05 
-2.479755801857966e-05 
-4.012862534694601e-05 
-0.0001459926008450662 
0.0003510520437283767 
-5.281435950791068e-05 
-0.0003803188774912262 
-1.416803999547028e-06 
-0.0002516573249606214 
-3.384623796126624e-06 
1.95825943259066e-06 
-1.107015658419076e-05 
0.0001918268251314861 
8.572670466602907e-05 
2.541865942862424e-05 
0.0001118825914015321 
7.204321625797331e-05 
-2.871927888185629e-05 
8.074108253995682e-05 
1.371496705017177e-05 
-3.256626794367688e-05 
0.0002173212020447143 
0.0001108549011200858 
6.895901530680984e-06 
-1.518372937087102e-05 
-1.778533213946344e-05 
6.505405133665364e-06 
0.0001355503204938481 
-2.219868112235916e-05 
-0.0004112199630834418 
-2.118434709987816e-06 
-0.0004027251145046441 
-0.0002499672198259991 
0.0001523792352109743 
0.0002393477238957353 
0.0001253521328400554 
0.0001047423933374555 
-3.383181161891129e-05 
-4.735378696801809e-05 
3.320002384210446e-05 
-8.550170056734808e-06 
-0.0001613171598109959 
6.986074895999989e-05 
3.992393743588252e-05 
-8.726442255435199e-05 
6.21615691395964e-05 
-2.485494430429485e-05 
-0.0008018927811640894 
9.887965160001484e-05 
8.014289211464125e-05 
0.000314539388274641 
0.000197963191301173 
-0.0002509453583060941 
4.005398542857144e-05 
8.938471270685674e-05 
6.737963721228156e-06 
8.882130620443344e-05 
-9.46503775614913e-05 
6.576912053075418e-06 
0.0001845103026650881 
4.237688844249569e-05 
-7.51366740748921e-05 
3.058672418447104e-05 
1.950591972673548e-05 
0.0001809397323262559 
2.531018758809251e-05 
-5.598141715169103e-05 
1.568413568751422e-06 
2.441402394607982e-06 
-2.944806993112891e-05 
-1.574173020680905e-05 
2.147980074108198e-05 
3.077395789819415e-05 
-0.0002023977295544851 
2.552743057792809e-05 
-0.0001610887207632181 
-9.244401891176437e-06 
0.0002154642939435693 
2.976323848199388e-05 
5.89222434000421e-05 
3.703265061781648e-06 
7.551376857194119e-05 
-0.0001621489993377745 
3.169873121933692e-05 
-4.727293984182291e-05 
-9.592685259233105e-05 
2.741920788680904e-05 
-0.0001052710563128176 
-2.619305108614353e-05 
2.099876742183859e-05 
-2.717091513229289e-05 
-5.005964950263711e-05 
0.0001527507057827607 
-2.586172707070462e-06 
-3.500324808609198e-05 
5.528363270804671e-05 
0.0004423671821484336 
0.0002652738990943597 
-3.470761880114183e-05 
5.956966337054064e-05 
-4.335682512422156e-05 
-1.230079565289044e-05 
8.346594580567392e-05 
-3.090356209810215e-05 
8.774071041654026e-05 
4.780111913562767e-05 
-0.0007526913527216611 
-0.0003791335956074407 
0.0003201071274798702 
0.000147078806389203 
-3.814710594954293e-05 
1.81573849842473e-05 
-1.411158645623731e-06 
-5.690555855869224e-05 
0.0001456726336727993 
0.0002907541111662257 
-3.006827861088223e-05 
-2.853819370151695e-05 
2.647812626493947e-05 
4.808361923256779e-05 
-7.218469130881939e-06 
5.328187599461921e-06 
-0.0001300383351829661 
-2.07364269919414e-05 
-3.870920424952556e-05 
-6.304376227219301e-05 
1.393250905586883e-05 
-0.0002430010936915122 
0.0001566131143998951 
2.085264931132021e-05 
-0.0005167367980090802 
-0.0001988071400129832 
6.524614020296608e-05 
-6.12171447666929e-06 
0.0002145823176564614 
4.143951201914723e-05 
1.345748171495731e-06 
-3.956190575546127e-05 
-2.276693577064344e-05 
0.000139672027435113 
2.350447391456092e-05 
0.0001517265712705622 
7.709688404178098e-05 
2.353538691424281e-05 
0.000119751432515869 
-0.0003026793282571026 
9.050104628093356e-05 
1.12979149590586e-05 
6.476086529031983e-05 
2.652945713308737e-05 
-9.190109607532012e-05 
-8.94549905189107e-07 
-6.738851255233852e-05 
-4.503267558498488e-05 
-1.044256123087373e-05 
6.220258544757857e-05 
0.0001199122273950514 
-5.330575541527792e-05 
2.560512583462301e-05 
1.975948651355161e-05 
-2.146388276994281e-05 
-0.0002748956729411777 
1.417633282137851e-05 
2.153248437046265e-05 
0.0005140661682938427 
0.0001549636325483267 
-0.0002218125410894035 
-0.000262921416693643 
0.0001735331271320809 
5.702158535297944e-05 
-6.4474312592574e-06 
-3.385475114868372e-05 
-0.0001063717708141229 
2.271964610589609e-05 
1.436447616686217e-05 
0.0001504962375056482 
-5.297861110060266e-06 
-2.854735324607675e-05 
1.533960622864935e-05 
7.029042353998659e-05 
0.000101163622099141 
-0.0005966535967737403 
2.564673238765189e-05 
0.000137349987535905 
6.174854902529917e-05 
-9.791168589585304e-06 
-6.491718312722136e-05 
2.507440032487543e-05 
-5.408294334567556e-05 
0.000191547227835654 
-1.132135120758857e-05 
-5.524373606064071e-05 
4.405195303240904e-05 
1.196577454225621e-06 
-0.000310246695775591 
0.0001503827391890832 
0.000109396803006449 
1.919369367036019e-05 
0.0001090211297153174 
-9.284898159421977e-07 
-1.661808299056602e-05 
-2.932970355671559e-05 
-4.911629217544867e-05 
7.600634995825436e-05 
-1.828882158679989e-05 
2.884040657861305e-05 
-2.954212438704708e-05 
-3.222757453394582e-05 
-0.0006995358713003305 
0.0001870612532172288 
-3.930949571028999e-05 
-0.0001152573737755561 
7.592516726724139e-05 
0.0001368326247605863 
0.0001795540815542402 
-2.797354136470947e-05 
-5.135354059702531e-06 
0.0001670126323691646 
-4.122090125123659e-05 
1.623951908560414e-05 
-5.299519019650025e-05 
0.0001136751346259134 
2.807659295145536e-05 
-8.408059376241514e-05 
8.401097826705211e-05 
-2.548441609297782e-05 
0.000142810135375737 
2.003205779293716e-05 
-2.156453989633926e-06 
0.0001763794783728452 
-6.900834124530789e-05 
2.936647959591968e-05 
0.0001777406461362538 
3.095479196646995e-05 
-0.000349033551436133 
-2.073804690940518e-05 
-1.30054018517812e-07 
2.717032078839711e-05 
8.265900858449559e-06 
5.825626873725615e-05 
-0.0002626014281368268 
0.0003859287489711576 
-9.332320073101559e-05 
4.971664263599232e-05 
-0.0001960418502323403 
-4.741723857468422e-06 
6.337426075707283e-05 
-1.766966856361221e-05 
0.0001294116547344561 
-0.0005753242465132289 
8.131292404101726e-05 
0.0001115969273896366 
-5.131501605868551e-06 
7.494027252212044e-05 
-1.710026959477809e-05 
0.0003040839943661779 
-1.185470580127296e-06 
9.347020971837703e-05 
0.000109152830319859 
-3.794830565196043e-05 
-5.414180428465315e-05 
-0.0001780110105604958 
-1.866017415300572e-05 
-7.163571809801522e-06 
-4.534600177594607e-05 
-2.523516227439351e-05 
2.297965943205473e-05 
-7.623625872295649e-05 
0.000103742628661594 
6.739981728370237e-05 
-2.684155183170581e-06 
-6.118430732092695e-07 
-9.133183742709996e-05 
-1.855930871731269e-05 
0.0001961537387398081 
4.449134006175192e-06 
6.132582080632841e-05 
5.072986145050964e-05 
-2.878602868781058e-05 
8.661302763113548e-06 
0.0004790886526331686 
6.997689166988117e-05 
-0.0004674414376098797 
-0.0003416872247811574 
-1.936308068867027e-05 
1.17845947007393e-05 
-2.400282451090206e-05 
0.0002713272182339592 
-0.0001545688568513232 
-4.381063555561506e-06 
-3.04002296826211e-06 
6.882514855234237e-06 
-5.471234818558474e-05 
2.194706969551826e-06 
-1.011949702650516e-05 
1.127999143840058e-05 
0.0001078846346440801 
-0.0001205754278543098 
-1.600942932329884e-05 
-1.888571999159941e-06 
1.159222118342996e-05 
0.0001005685545044975 
-7.878393836045529e-06 
3.800981921211519e-05 
-2.530394391069014e-05 
-0.0001301202337094844 
-7.479308799193135e-05 
-4.86704714020241e-05 
0.0001003422159899751 
-6.161283263562683e-05 
0.0001546670127532229 
0.0002350705437842705 
-4.856846284618329e-05 
4.589830068388357e-05 
-0.0003190755619226907 
9.616651141591107e-05 
5.936076997312639e-05 
-8.515732434853875e-05 
0.0001036859287152012 
5.88391152957012e-05 
0.0001251411109535416 
-1.41960508511409e-05 
0.0001189889646921053 
-0.0001823799671012342 
1.962146091135662e-05 
-0.0002396498318744124 
2.39232763565496e-05 
3.270264520266167e-06 
5.829133203445619e-06 
1.508586795768196e-05 
-3.780365876922534e-05 
0.0001447695725873453 
5.538330678138841e-05 
-9.202231924903038e-05 
-4.816386060671709e-05 
5.678587745417762e-05 
-6.315173065486757e-05 
-6.567628854985295e-06 
-9.505749155168383e-05 
9.544389433669339e-06 
8.170972392734163e-05 
7.955638775901642e-05 
-1.699796581994008e-05 
4.340227418947882e-05 
-9.624659033991869e-05 
9.844586636676065e-05 
1.614873375930459e-05 
-6.259662668473897e-06 
-3.937039880819138e-07 
-1.169541032602308e-05 
7.780280264508787e-05 
-5.488538026126111e-07 
0.0002281903307030718 
3.226206750110881e-05 
3.125957205105272e-05 
6.699264974263064e-05 
-0.0003036004328667667 
-4.895552459942102e-05 
-2.40304743956374e-05 
2.178566880323905e-05 
0.0001011980859660228 
-9.756373705409339e-05 
-0.0003104017707045131 
-0.000186809604555736 
3.88215110686181e-06 
0.000404298896719473 
4.914858550479908e-05 
2.470288533199903e-06 
-3.993245878255876e-05 
1.535391038227876e-05 
-0.0001380533009346853 
0.0001610821054240402 
0.0001443553712384502 
-2.796354713128445e-05 
6.573361218064294e-06 
-0.000157588075226177 
2.715116731444567e-06 
-8.749972598648197e-05 
-2.691596646091317e-05 
1.390442450540861e-06 
0.0001606469296249169 
3.329369430359347e-05 
3.426346216110127e-05 
-3.37018239524664e-05 
-0.0004487846068894404 
0.0001946280297262876 
0.0001675399931530091 
-8.102793206326868e-05 
7.59754175796655e-06 
0.000267376302410137 
-4.531447279119619e-05 
-2.844612429740508e-05 
0.0004459777053608529 
2.136414587294859e-05 
-0.0001410143468156193 
-0.0002444097962523352 
-1.024057551571654e-05 
-0.0001680631974152519 
-1.453950864992815e-05 
-2.587708039542947e-05 
8.608797497997411e-05 
-2.440288702541242e-06 
-9.472196019572781e-06 
7.424055781549272e-05 
3.571633641434627e-05 
4.025793341317803e-05 
-1.095713209648533e-06 
3.8063785317504e-05 
3.468347955006941e-05 
-8.977596171722466e-05 
-6.893994719499213e-05 
-1.810699973475928e-05 
-0.0001428112868402232 
0.0001359210549480406 
4.568131394734556e-05 
0.0005111258175543431 
0.0003338064061081008 
-0.0005963843687357351 
-7.33105264316518e-06 
0.0001296049432608623 
-0.0001147645109070442 
-0.0002278032692541778 
-1.67011949923399e-05 
-7.51469376501318e-05 
9.687972990330464e-06 
7.983306855201142e-05 
3.588750532249829e-05 
4.197526735512369e-05 
-0.0002559495702483808 
7.138750470489939e-05 
-6.873975259707481e-05 
0.0001987595853225879 
1.453876277554505e-05 
-1.534376995726095e-05 
3.259343701344028e-06 
-0.0001626337377288013 
9.575257110322706e-05 
-1.697174494245341e-05 
-1.068961490926122e-05 
-6.866690614696661e-05 
4.864542753309601e-06 
-1.153475225541353e-05 
-6.318740809168596e-05 
-3.123631497331171e-05 
2.953266804161262e-06 
0.0001122516677235465 
6.14262728814027e-05 
5.865823276875161e-05 
6.405116243613425e-06 
9.117647361164426e-06 
0.0002478806251268382 
-0.0001171079271314651 
-1.060941249350614e-06 
5.568835244138159e-05 
-7.122788167112779e-05 
-5.911001083901656e-05 
0.0001053661611593466 
-0.0001201497352970342 
0.0002359043225425982 
2.5929372717506e-05 
-0.0004514761849735735 
6.720187467630205e-05 
-1.971826939662592e-05 
-0.0001381086457609648 
-1.369123078531826e-05 
-1.091183396733958e-05 
-0.00015630799500046 
9.014328737565186e-05 
0.0002614984293750582 
0.0001070990629513476 
3.029223635056183e-05 
-0.0004184263946838884 
-0.0002474504633940213 
0.0006447629064941021 
-0.0001490003179766441 
0.0001125209025347691 
2.99832707158923e-05 
-9.920699523065919e-05 
7.019836675908517e-05 
1.859881542845141e-05 
-0.0001876060403480269 
8.175339450461984e-05 
-3.802969081951017e-05 
-4.058591993491894e-05 
-1.060319244225018e-06 
0.0001351977336164838 
2.384984713152275e-05 
1.433152999153703e-05 
-7.876825048277941e-06 
3.307183310371724e-05 
6.732529475116987e-06 
2.183223810314634e-05 
-8.140177234567537e-05 
-3.566263463568236e-05 
-3.873169701523235e-05 
0.0001954390097998887 
4.660060094995808e-05 
1.499655729578872e-05 
-0.0001153501067292372 
5.308669411402387e-05 
-0.0001538136276485787 
0.000128790928619412 
1.780738866891577e-05 
8.616749011038167e-05 
6.166884550444072e-05 
-8.363741895782903e-05 
-0.0001794654001077828 
3.646524801139685e-05 
-2.719707287703988e-05 
4.001851410760492e-06 
3.186758683587315e-05 
5.46566394492203e-05 
4.232600255687101e-05 
-2.353432056485572e-05 
1.676221121141897e-05 
-0.0001164210516524191 
-9.685988136225796e-05 
7.34894015763735e-05 
-3.411908001495008e-05 
-2.916246475631997e-05 
-2.798153049489346e-07 
0.0001420749940516499 
-4.910995716610882e-05 
-1.946006436137962e-05 
2.367156899933399e-05 
-2.591002530793912e-05 
-6.657191388449371e-05 
6.837579604797703e-06 
-7.011345548385672e-06 
0.0001393337973727329 
6.014664145407723e-05 
-0.0003271221192713 
-6.703978350489125e-06 
4.808800775061476e-05 
-4.419237427556076e-06 
0.000123434094824765 
4.644552211925851e-05 
-9.834066882669025e-07 
0.0001608132837800209 
0.0001068001869464678 
-0.0002015948893853534 
0.0001154660557542562 
6.60444384615156e-06 
7.26586927267523e-05 
1.285490184833578e-05 
-8.524268032568885e-05 
-7.43788734080951e-05 
8.213651991077774e-06 
-5.199317414820516e-05 
3.7485885025614e-05 
0.0001671718949939788 
-4.663473519821773e-05 
-7.709105123099813e-05 
-2.319559835083839e-05 
0.0001715181430119857 
-6.212787549925858e-05 
-0.0002680569773510081 
5.607610835609474e-05 
-0.0001073123199971556 
6.617035525170118e-05 
0.0002167763508073812 
-9.670275331353687e-05 
1.712927997968301e-05 
-1.489475004101373e-05 
-5.49125956759773e-05 
0.0001958840994280702 
7.449937482534777e-06 
0.0001126152786809616 
1.497845140473392e-05 
-3.694069495496653e-06 
5.144835479679917e-05 
-5.903071950881328e-05 
1.365521933727147e-05 
6.140431407360216e-06 
-1.349356637124352e-05 
-3.218906373823938e-05 
-9.964600882957985e-05 
-0.0001272096944507354 
-8.120649656401971e-06 
-8.713354898103734e-05 
0.0002552322732802844 
7.099424023225601e-05 
-5.776310522404106e-05 
0.0001108520113027069 
-3.469864060462413e-05 
-5.476205204302406e-05 
-1.307178915746334e-05 
0.0002150400471644563 
-0.0001935616763473391 
-0.0002593482917816503 
-0.0001247442771224624 
9.254212169678249e-05 
-2.562136573929331e-05 
3.879431783939972e-05 
0.0001965704237438676 
-1.001114481210222e-06 
5.133206265031905e-06 
1.312792035867147e-05 
-5.166837469708755e-05 
-0.0001828105883197498 
-1.088289699985982e-05 
3.176408723350237e-05 
0.0001296520706539461 
-0.0005555514622649852 
-8.230458794530957e-06 
7.39398560111689e-05 
3.525837833349982e-05 
3.026800932803069e-05 
2.747693325615501e-05 
1.694661554228253e-05 
5.33309688411809e-05 
-2.11932776238911e-05 
7.18675931930337e-05 
0.0001772288051843728 
6.623978444660568e-05 
8.852969878417936e-05 
2.171892846693181e-05 
-7.027455188994546e-05 
-2.710002280501025e-05 
-0.0001089099154845568 
1.447161803628342e-06 
5.297246057914296e-05 
-1.770419987921629e-06 
-7.443746246642057e-05 
8.545802213691281e-05 
-2.529932015287249e-05 
0.0001024508149000985 
1.480194063561627e-06 
-0.0004635395992822357 
0.0006439872798827257 
-6.513087213918656e-05 
4.44924347159597e-05 
3.018939656691668e-05 
1.447576176534983e-05 
-0.0001849277084079692 
-0.0002325631825420841 
-0.0002843029860541839 
-7.827833141572619e-05 
2.365030686632476e-05 
-8.429948031846682e-05 
0.0001292841811586552 
-6.742016582906469e-06 
-1.134132683162332e-06 
-1.880174128800539e-05 
-6.172538920184332e-05 
6.165121723715428e-06 
0.0001139203863529229 
5.525609348417994e-05 
-4.348628626081819e-05 
3.701235015582232e-05 
0.000199007524860258 
0.0001563898917259389 
-4.20187339337142e-06 
2.424207715666356e-05 
-4.523657114535155e-05 
0.0002239590141489538 
1.694759946228234e-05 
-0.0001383988182665175 
4.428117479615865e-05 
-8.120054925194942e-05 
-0.0001877350346290205 
-5.653711268538091e-05 
-7.06625435350182e-06 
0.0001098929453768071 
2.997300128548796e-05 
-7.527615893121281e-05 
-9.839123600315194e-05 
-0.0001084699808944559 
0.0002015600964100293 
-0.0001452537637534767 
-5.026809294938529e-06 
9.046548498893663e-05 
3.072493288159702e-05 
-1.957611283121685e-06 
6.72784371533572e-05 
0.0001071165276948988 
6.634531361360995e-05 
-9.672209148976081e-05 
8.23713638394132e-05 
6.31450298590175e-05 
-3.798933167215136e-06 
8.108627939121781e-05 
2.638996740513167e-05 
-3.119400238175314e-05 
-9.377113529807161e-05 
-2.868007013919229e-05 
0.0004084013985131483 
-0.000106272498538566 
0.0001507352766930651 
-9.842565842424043e-06 
0.000159177541655075 
-9.20933127777818e-05 
-3.436460521784146e-05 
-1.183410899174662e-05 
1.377619969577612e-05 
6.042649829850523e-05 
-0.0001694617230826588 
1.007888955567361e-05 
9.899171820304165e-05 
-0.0001448088243968131 
-1.58927533131145e-05 
1.604451992138146e-06 
2.81810669073575e-05 
-0.0001224304135008801 
-0.0004213285096538581 
0.0003362755886042632 
1.066694590932077e-05 
-0.0001101959782014411 
-6.119313309936192e-06 
0.0001304037746152081 
-1.666883124367908e-05 
-1.48881980993477e-05 
-7.405376544946199e-06 
5.378444765864332e-05 
-7.315413105027024e-06 
0.0002449561696108865 
-6.750139316292015e-05 
-0.0003122151135902946 
0.0001635765921029742 
-0.0003539108272831658 
-2.513978352141474e-06 
-3.127913744812246e-05 
-7.581054898724505e-05 
0.0001011602895211103 
0.000458551949818223 
-0.0004971372654464852 
2.037842313201529e-05 
-3.322728404123611e-05 
2.379487141221875e-05 
2.167067541646086e-05 
2.448204907442374e-05 
-0.0002466426035916278 
-0.0001137170626455187 
1.4943915856738e-05 
-1.57950213722385e-05 
-2.410798553170304e-05 
0.0002337595776106112 
-2.99872815191627e-05 
-0.0001963110432069202 
8.771222595148856e-05 
-0.0001498574180038361 
0.0001082903363093509 
5.67433569365287e-05 
0.0001787562068862185 
0.000177965555280763 
-2.993990880460166e-05 
0.0001155600702873212 
-0.0001113047177142952 
9.077104870567957e-05 
7.024597498499869e-05 
9.920630787453084e-05 
7.157843027314406e-06 
0.0002084686621659564 
0.0001029223859757502 
1.521388894164258e-05 
0.0001269019510970232 
8.901560073563436e-05 
7.074929662024947e-06 
2.165010302554593e-05 
8.822414961551869e-05 
-6.392435922800458e-05 
-1.469093114034729e-05 
0.0001371202850085559 
1.068080154879341e-05 
-0.0001211108537903739 
-0.0001679265950555078 
-7.092953132062641e-05 
1.810402287033517e-05 
-0.0001257327859993366 
2.478348832027122e-05 
-8.080916736514093e-05 
5.47813958830607e-05 
-0.0004157902639834994 
0.0001639818532378496 
-0.0001975735925341202 
6.770204433997716e-07 
0.0002633242069272888 
-0.0002147464233443798 
9.674534146474101e-06 
4.365405171342571e-05 
5.491748377383157e-05 
-3.74794268940667e-05 
0.0001320896845207129 
2.44665877016034e-05 
-2.338556433791832e-06 
0.0001165754020206793 
-2.690479036453936e-05 
-9.41332476900627e-05 
-2.711571921525363e-05 
-1.617806267353689e-05 
2.607233860675952e-05 
0.0002664560843005935 
-9.356626380880034e-05 
-3.699987201311156e-05 
-0.0005053790641883351 
6.036299531636474e-05 
-0.0001703394309102641 
-0.0001001801345653599 
5.727920996082887e-05 
-3.473961462147697e-05 
3.179992798243726e-05 
0.0001152756349344826 
-0.000123851539489213 
7.224527272648206e-06 
8.378346529784268e-06 
-3.24429434976392e-05 
8.654062642711932e-05 
0.0001600104132885833 
-2.021135401709432e-05 
5.497424972214697e-05 
0.0001545926297635571 
-2.103388349852703e-05 
-2.514262200096997e-05 
6.527947597849626e-05 
0.0002281657744209496 
5.023112520984503e-05 
-0.0001324261767874053 
-7.93469684651397e-05 
7.941622975837788e-05 
7.741239566297146e-05 
-8.278374516252317e-05 
1.844830904773026e-05 
-0.0002289878558497984 
0.0001456281453331134 
-0.0004776256165326284 
0.0002494501438265808 
0.00012715731096839 
-2.809778517168913e-05 
-8.410074995839978e-05 
8.876979238749696e-05 
-4.908238975722222e-06 
-2.023964096392865e-05 
9.018349965747046e-05 
8.67772418793845e-05 
1.904042789447732e-05 
-2.186195275619012e-05 
9.087870423456439e-06 
-0.0001540234976027477 
6.920610628515425e-06 
1.625675442540486e-06 
6.07167608809873e-05 
3.692513946573608e-05 
1.999107210687245e-05 
-2.862634934826841e-05 
2.320650030116005e-05 
-3.930441238278867e-05 
1.112041949770021e-05 
0.0001144076066789864 
-3.394492564302485e-05 
0.0001257690147557392 
1.720865285862363e-06 
-5.890943638722388e-05 
1.213800259388777e-06 
-7.008396731457758e-06 
1.313333962511939e-05 
-5.673908544692399e-07 
6.0683173334748e-05 
-6.821163232761563e-05 
4.88093681929074e-05 
0.0001531553469487323 
-6.315459952280212e-05 
5.245334016315358e-06 
0.0001748999942833003 
7.122925179822611e-05 
-1.232765867811854e-05 
-2.164392144111893e-05 
7.285192955095777e-05 
-4.315691905510522e-05 
-0.0002076034865464015 
-9.579614402379565e-05 
-1.562407475983901e-05 
-2.662654669375885e-05 
-7.231687633773433e-05 
0.0001090986902632986 
-3.957774329782392e-05 
2.045427606302625e-05 
-3.914719720801861e-05 
-0.0001413544257071733 
0.0001090636431687159 
0.0001349940732513071 
0.0001437860144705745 
-0.0006090868782072042 
-1.60366055644436e-06 
-1.780696274109132e-06 
0.0003252246841886754 
0.0003703405542088837 
2.672341806979716e-05 
-0.0004312133798266447 
7.7298911062737e-05 
0.0001397393062344058 
-0.0001467457219763857 
-1.021491527288894e-05 
-7.287990429544547e-05 
0.0001319716641018587 
3.655861219046408e-05 
-8.102108285242637e-05 
-1.741262687358564e-05 
2.183431620054758e-05 
-0.0002264859565266274 
-4.949104819180956e-05 
1.77752275641334e-05 
-2.405323707445212e-05 
-1.762238819041362e-05 
2.731693161321265e-06 
3.578350832109447e-05 
3.125317383116581e-05 
5.47475483377195e-05 
3.593027258248326e-06 
5.369823091642319e-05 
9.314924919195442e-06 
-5.670053554899169e-05 
-6.385088793159006e-05 
3.423110695541053e-06 
0.000159762203412532 
2.109006258482989e-05 
-9.403169823109522e-05 
8.535844006247663e-06 
9.730137515222467e-05 
1.630645827434156e-05 
-3.854567429951979e-05 
-5.977297158844069e-05 
-2.791203974663734e-05 
-2.718546288117795e-05 
1.287832661194283e-05 
-6.719465472103447e-06 
-0.0002309153149083455 
-7.487052975191617e-06 
0.0001871233325699973 
-0.0002275721354955301 
-3.96182512704419e-06 
-2.304468906814187e-05 
0.00019062203805684 
-9.31306366815373e-05 
-0.0001126601277312667 
-4.504481370037123e-06 
0.000285219325204891 
-1.354189243348377e-05 
4.739631624219566e-05 
6.769257384588515e-05 
6.329594295698774e-05 
4.822907696764541e-05 
-8.051805975314208e-05 
-7.888953547080285e-06 
-0.0001409389301476014 
0.0002542918226759561 
0.0001439243799046813 
-0.0001563765797427448 
7.054441886228417e-05 
-9.129169982669413e-05 
0.0002677543179230755 
3.073169091450859e-05 
-3.37913153499441e-05 
-2.599011488295727e-05 
0.0001257431153468291 
-1.016368365650626e-05 
5.065356001979821e-05 
-0.0001023698883815324 
-0.0001678688414133816 
9.865960509675717e-05 
-4.761074652563929e-05 
9.250965663127922e-05 
7.989282695813604e-07 
-4.714569734429562e-06 
5.731261467169828e-05 
4.246712019466767e-06 
0.0001813462263436638 
3.448058606293707e-05 
-0.0003744400351782318 
-2.778438616212195e-05 
-2.935724425854885e-05 
-0.0003037960655393976 
-7.293902125499048e-05 
0.0002053406577806762 
1.580481841743775e-05 
8.446362391416284e-05 
-8.612679937170908e-05 
2.123537650843719e-05 
-8.360147051501344e-05 
6.295646031222497e-05 
1.91575451039338e-05 
-2.888853675601671e-06 
-1.521141210702138e-05 
2.388669610513963e-05 
-7.941982368661642e-05 
3.580400907649014e-05 
-1.0001667304213e-05 
5.800681972360472e-05 
-0.0002215028697989718 
4.151288263399107e-05 
0.0001543081407606834 
9.225620423779193e-05 
-8.516123296564538e-06 
-3.903382110605688e-05 
0.0001349308387981839 
6.18031231047363e-05 
0.0001349145958506238 
2.307266248443556e-05 
-7.128903275762487e-05 
-0.0001258677353902482 
-4.064861622170027e-05 
-2.206719455260385e-05 
-6.278295284391631e-05 
-0.0001443672549611982 
9.535523570922584e-05 
-7.546072644726003e-06 
1.402852124894713e-05 
0.0001229522798161517 
-8.291602758684396e-05 
5.993360815750993e-05 
7.80043098026954e-06 
-7.272325249901795e-05 
-3.247362110304036e-05 
-6.308474184757055e-06 
7.28987345284872e-06 
8.708471153994497e-06 
0.0001170928322062488 
0.0001954983186017031 
3.695042477633763e-06 
1.82635903222119e-05 
0.0003436315581679912 
-0.0001285879140492649 
-0.0003682737210767685 
-1.212593823877164e-05 
3.513868210056819e-05 
-2.634945715700142e-05 
-0.0001895365384449287 
-0.0001568813659020532 
6.248641141020893e-08 
0.0001573010579874164 
7.177500203374723e-05 
-1.762367150157416e-05 
-3.301998652989873e-07 
-0.0001458001397275759 
-2.550006781647783e-05 
0.0002777545170333386 
-0.0001083674578588341 
9.674653363844813e-05 
-0.0001130254021904528 
1.717389513694032e-05 
-3.763244019461373e-06 
0.0001507745023594833 
-4.048047443713914e-05 
-5.834836710813977e-06 
-1.463325619643787e-05 
-1.233332093692314e-05 
0.0002731563908792223 
6.004589785740554e-05 
-0.0001001763563304437 
-3.647742837491985e-06 
-5.116740425148492e-05 
0.0002170128639914444 
-0.0002151320637441479 
5.894138907418546e-05 
0.0001555514148907001 
0.0001350974355118324 
2.583286561832043e-05 
6.117781515194406e-05 
0.0002563503937122838 
-0.0005159652924789987 
3.574054430010616e-05 
0.0001182061945303148 
-0.0001450971701143506 
-6.135934393365416e-05 
-4.827429683666567e-05 
8.031691562496099e-05 
-0.0002822153968367208 
-7.690170663186197e-05 
2.786548906061584e-05 
-7.138629348005055e-05 
1.194522741571506e-05 
-0.0002237026137809141 
0.0001394326737235596 
9.34196264052762e-05 
6.403266961805805e-06 
-0.0002301737133021661 
4.226523754118637e-05 
-0.0001124824178118446 
3.666319594082273e-05 
0.000268949219829587 
-0.0001321675941672808 
0.0002800477091829224 
-7.317202846304736e-05 
1.903886031633025e-05 
4.699482015490118e-05 
-5.56114983877535e-05 
-1.828155970001682e-05 
-5.210663419340948e-06 
1.16609159073592e-05 
-1.317672056839532e-05 
-2.323296187031217e-06 
-0.0001325443948988344 
-0.0001245871567134978 
4.42038303358041e-05 
-3.204146676156005e-05 
3.175875813981966e-05 
-1.30400699443659e-05 
5.465714461588061e-05 
3.048326842974985e-05 
-3.51736131392037e-05 
9.096493012859528e-05 
9.263503448080407e-06 
3.430288152239937e-05 
6.944537313668146e-05 
0.0001417073268273597 
3.59956172608284e-05 
9.097460579423947e-05 
7.431236653612264e-05 
6.36418026015211e-05 
-0.000208617078880276 
-2.808440966607048e-06 
-0.0001215012936146189 
-0.0001238475625534545 
0.0001835916926767445 
-3.189308249313895e-05 
6.783282133777811e-05 
3.686003603186382e-05 
-3.948522731972174e-06 
-3.514907145721058e-05 
-7.433689748700548e-06 
8.764704397721045e-05 
1.454583237767688e-05 
1.621564834254428e-06 
4.095590008400585e-05 
-0.0001621609907053784 
5.833191227412365e-05 
-0.0001506095021942753 
-0.000128205356700716 
7.098376041458341e-05 
0.0001818437406203284 
-6.097228356919297e-05 
-2.144334958143261e-05 
-8.125794480682609e-05 
-1.974253343649944e-05 
-2.387965800619566e-05 
1.219338660264656e-05 
2.81184508323742e-05 
-5.398450687860035e-05 
0.0001049095886326796 
-3.431460188776735e-05 
3.95158032141506e-05 
1.557045502038162e-05 
5.529345591543342e-05 
8.65963185214535e-05 
1.984581158046664e-05 
9.456639560401564e-05 
-6.260753188430176e-05 
4.128037440711834e-05 
0.0001652574412332734 
-1.478727095552401e-05 
-3.698267164285577e-05 
-6.747542061225657e-05 
-4.539431919435517e-05 
8.366056397174992e-05 
-0.0001034319761806619 
-5.809037475849762e-05 
-7.997006808585242e-05 
-6.545078964733445e-05 
-1.484086592163112e-05 
6.756833167820526e-05 
5.012962663232791e-05 
-5.071182316375763e-06 
0.0001656487574321613 
-2.456823931620629e-05 
-0.0004025730497075084 
0.0001135610566399835 
-3.735191358986293e-05 
-6.861189049744155e-06 
3.487443406178094e-05 
1.467155132345397e-05 
-0.0001347106051916163 
8.836703307759062e-06 
-0.0001021945040124209 
4.198839302724595e-05 
8.60534724966943e-05 
-8.120140868354642e-05 
6.637997222482209e-05 
5.237265292256372e-05 
-6.42071390282941e-05 
-4.918848582090592e-06 
-3.967665364619156e-06 
-9.235965667793511e-05 
0.0001409739180778459 
3.484162449090829e-05 
-0.0001652237525498341 
7.66010949435606e-05 
-0.0001934234140553104 
0.0001593516744566038 
9.838941793397055e-05 
7.408706739738818e-05 
3.187822719764942e-05 
4.223097143384309e-05 
-5.559591772429659e-05 
-1.547864274254037e-05 
8.795293198124253e-06 
-4.335551280290318e-07 
2.170837159161971e-05 
4.287995173296867e-05 
-7.951745768969939e-05 
0.0001278572245747006 
-6.800916194606252e-05 
1.769102472272557e-05 
-4.689397896703932e-05 
6.665044055476173e-05 
0.0002921858463313744 
6.103853087746268e-05 
5.329255929530823e-05 
1.541750387165939e-05 
2.402911375656536e-06 
1.048513911265173e-07 
1.238497557540054e-05 
2.032404655396809e-05 
-2.349598594769925e-05 
4.121687756004381e-05 
1.000428147091743e-05 
-2.272351927714027e-06 
-0.0001204090027725881 
5.283086716473785e-05 
-9.914800528234503e-05 
4.297603278832309e-05 
7.213317878098449e-05 
-0.0002003132756822345 
5.745340556001247e-05 
-1.269056892054081e-05 
-0.0001216326561398319 
6.55771029490263e-05 
-0.0004353848662549449 
0.0002047875759127194 
7.047851385284651e-06 
-5.630619951636315e-05 
-4.504696828545082e-05 
8.86972545238117e-05 
-0.0001759030525914776 
1.865270456280905e-05 
9.095069220378232e-05 
1.764493148929735e-05 
5.191516520169813e-05 
3.418633862499067e-05 
0.0001390950439944477 
-0.0001899225817673786 
0.0001319191804071191 
3.570709573920246e-05 
-9.173817393003062e-05 
2.38033755194693e-05 
-7.889209780039174e-06 
-1.427434739910871e-05 
-1.350230358057207e-05 
-0.0003709685358182861 
-8.18119298705274e-07 
0.000140193798602002 
0.0002765431406842198 
9.947845188358555e-05 
0.0001580533620203216 
-7.780088985900817e-05 
-0.0001246045652042604 
-5.242978329383841e-06 
-2.584183770848546e-05 
-0.0001903130509757643 
7.550748308606404e-05 
-0.0001423084411303169 
6.900971825428838e-05 
6.163835419998538e-05 
-1.730747698721422e-05 
3.759606313492376e-07 
1.882767228351216e-06 
4.752060043306898e-05 
-6.316363569953325e-06 
2.141211085494718e-05 
7.427622528556564e-06 
8.041620133730513e-06 
-0.0001732840610053375 
0.0001144396575999796 
-0.0003355115838438855 
5.459674265930776e-05 
-6.074714667243482e-05 
4.106754359305715e-07 
-4.018770283787748e-05 
0.0001463804765907931 
-1.237803401000824e-05 
0.0002176524599709967 
-0.0003167794192753241 
7.38758969276462e-05 
0.0001598518258970182 
0.0001436987363303544 
-0.0001073762353569232 
0.0001678671824127935 
-4.167345885684683e-05 
-1.411538332455653e-05 
0.0001212658573869382 
-3.937703199808197e-05 
-3.175807419947183e-05 
0.0001580876358478341 
-0.0001603171093009239 
-5.083771229192994e-05 
-5.56177117562869e-05 
-9.352788773537665e-05 
-5.548403487471645e-05 
2.409191867819517e-05 
4.414836108646109e-05 
0.0001403259068410356 
0.0002479875339852715 
0.000117984811196672 
-5.018401715961058e-05 
-0.0002765670791664386 
-7.368501415316538e-05 
7.978369773471727e-05 
-1.190579564788108e-05 
1.601046045807553e-05 
-3.938695415903362e-05 
2.142921291504079e-05 
1.199579035318441e-05 
-5.758040239065386e-05 
-5.714043678731137e-05 
-2.017103061757311e-05 
0.0001447261991427928 
-0.0002356166465126362 
6.166003441641323e-05 
-6.353350646891319e-07 
-1.70948566924599e-05 
2.148505253090285e-05 
0.0001131798800833913 
7.176888442969351e-05 
2.70457455544619e-05 
4.716033732987262e-05 
0.0001352212566302229 
-0.0002445868453097418 
2.012743100487734e-05 
0.0001452824969380413 
1.116116554349028e-05 
-9.46815905833022e-05 
-8.882083827573616e-05 
5.115800070494992e-05 
-1.331549295723594e-05 
0.0001447257606914491 
4.974065715433954e-05 
9.207279872052202e-05 
-3.387195094351766e-05 
2.948968601934015e-06 
2.729232115201164e-05 
0.0002552390851108903 
0.0001061649341384837 
5.135048373435369e-05 
0.0001514001736217654 
-0.0003289203890108685 
-0.0001379300686394636 
0.0001300892636143743 
2.185479255613612e-05 
-0.0004197856000685924 
1.209201254406029e-06 
7.892550629867895e-05 
-8.025520870647397e-05 
-0.0001184188853146742 
4.20833704516839e-05 
-4.480015893668189e-05 
-4.431653584474308e-05 
9.950465122071693e-06 
-1.936032668110267e-05 
6.852120488676045e-05 
-2.843410389606457e-05 
-6.762333611013632e-05 
-6.349926347685517e-05 
0.0001584041999095438 
3.533756206488404e-06 
5.694138828298047e-05 
5.513991869670309e-05 
-2.873177744877912e-05 
-0.0002284541155917631 
8.692257020262696e-05 
-0.0002622390144154512 
-1.711071168334999e-05 
-2.386391512569268e-05 
2.256006485210002e-05 
0.0002768600732058026 
6.328456334156384e-05 
0.0001035184573916604 
-4.205991781597682e-05 
-1.078911681880311e-05 
-5.754356724696338e-05 
-2.710986314987433e-06 
3.238057577223945e-05 
0.0001253132571916958 
-5.830945014853828e-05 
-6.620427284268469e-05 
-0.0001614195490179444 
1.948112917792393e-06 
6.775549609030052e-05 
1.595110510245458e-05 
0.0001608600092075598 
-0.0001044490717195379 
2.888965664084262e-05 
-1.073805760513264e-05 
-2.771696705406581e-05 
4.950899693358092e-05 
0.0001326610835804589 
1.256431430457015e-05 
-8.749410828395632e-05 
8.689718820203464e-05 
-0.0001214915303889457 
-8.221295143985764e-05 
-6.996216780345558e-05 
4.873953017679671e-05 
-0.0001200408342655817 
0.0001681703933202846 
6.02994313779475e-06 
6.216649042896144e-05 
8.761547857531046e-05 
-0.0004847190816058454 
0.0001234385660737707 
0.0002585731296541837 
-6.65197658463029e-05 
4.090573128570503e-05 
-1.381828103738048e-05 
0.0002747746266772778 
-5.454859698662991e-05 
7.410505267407101e-05 
3.765614656937116e-06 
0.0001011225555490262 
-5.952447703420806e-05 
-0.0001471160562206184 
-0.0001280472603861032 
-7.952861074680262e-05 
5.926108681294991e-05 
0.0001066773309411814 
2.982843526759197e-06 
0.0001960710056164719 
1.323710408544269e-07 
0.0001692995243642104 
-8.227340218425013e-05 
-0.0008257384606374442 
0.0001497553512161367 
7.932522249242839e-05 
-0.0002504946410597768 
2.251352224576448e-05 
-0.0001298379294963516 
4.776499729382308e-05 
-5.986281446383071e-05 
-3.199005501053342e-06 
6.522213905310777e-05 
7.04577955077206e-05 
-3.432416318307361e-05 
-5.905489511824965e-05 
-2.64376362120048e-05 
1.932531379768459e-05 
-4.448838446329594e-05 
9.741896542219016e-05 
-4.654024251931907e-05 
0.0001775043353099354 
5.58475869657449e-06 
4.165472240679804e-05 
2.213141376497241e-05 
7.895393447378855e-06 
8.044015420133716e-05 
2.778736920597081e-05 
0.0002091280806261768 
9.620760807735143e-05 
2.00516954351725e-05 
1.358448167986073e-05 
-7.696206507110877e-05 
2.804245017267976e-05 
-0.0001595467691150309 
4.165137713201192e-05 
-0.0001767664774735919 
-0.0001572080624852071 
-0.0001017955162694265 
-2.791398738423547e-05 
0.0001388141815413217 
-0.0001576981655757318 
-6.641842756661924e-05 
0.0002557499267682087 
1.136254579429802e-05 
6.133805235935978e-05 
7.982549883888182e-06 
-2.994256187217253e-05 
6.59803179855736e-06 
4.141309208440064e-05 
7.918540821474727e-06 
0.0001675770781342529 
-1.144194085366362e-05 
0.0001737350538255893 
-3.049878243424666e-05 
2.855456983690126e-06 
-6.572658403987977e-05 
-4.424807101927186e-06 
8.024561388050557e-05 
-4.474986720878739e-05 
-7.212686582167174e-06 
-4.292211235605253e-05 
-6.407638874641834e-05 
-5.375129307163859e-06 
5.718383116040257e-05 
0.0001307200989913344 
0.0001520419860800179 
-0.0002950254060632962 
0.0003668566790712354 
0.000162486956773739 
2.148048273559822e-05 
-5.865959131210906e-06 
-5.678629178469564e-05 
-4.199119441176335e-05 
8.781533019700258e-06 
5.38317772444393e-05 
-3.711905303926133e-05 
5.117745134557356e-05 
-2.466291262577502e-05 
1.794577144999355e-05 
1.851168842970461e-05 
1.251544977673338e-05 
7.313595552908591e-06 
8.734515491489909e-05 
-5.115492957535678e-05 
-0.0001228400737215402 
-5.850861544494388e-05 
-0.0001647605832784363 
-0.0003356278778920894 
0.0001131006781349913 
-3.442181597385726e-05 
4.660166931178669e-05 
7.006457469763163e-05 
1.871196512017011e-05 
9.298698047915927e-05 
3.134045750418674e-05 
2.865093347771255e-05 
3.566814847425786e-05 
-2.03729928287805e-05 
1.386680535797133e-05 
2.367338461334008e-05 
6.000172440596385e-06 
0.0001354931480889411 
0.0001156739804051506 
-6.732776892661743e-05 
-4.509755634072913e-05 
3.045477188343651e-05 
-7.874306021622094e-05 
-3.728497536251651e-05 
-3.655826863186091e-05 
2.653479670690557e-05 
0.0001635487344713038 
-5.021979689030728e-05 
1.677956856474995e-06 
-4.706915222387483e-05 
4.734595120091457e-05 
0.0001182717320894597 
-9.560562819501133e-06 
-8.714924942862163e-05 
-0.0002461822746647179 
-0.0001795900854006106 
-2.346659495166509e-05 
0.0002257738761239281 
9.886782159227962e-05 
-0.0002490982428613354 
-9.975662457351796e-05 
-7.578405633187579e-05 
0.0001537469264162441 
-5.917003844467822e-05 
-9.984346921090595e-05 
0.0001382054440726179 
-6.845646825146996e-05 
-0.0003525578330127089 
3.156965830422137e-05 
-2.246922869052023e-05 
0.0001936124086742245 
-2.381557267420606e-05 
-2.294703120967765e-05 
7.840425914228076e-05 
1.214180993721516e-06 
5.616606264234866e-05 
-8.242535083729933e-05 
-0.000213181811681953 
0.0001361906002621485 
-9.767961705192159e-05 
3.071597539750333e-05 
-8.325218523477478e-05 
-4.084832593238799e-05 
-1.568967662980641e-05 
0.0001326141943071065 
0.0001979647117385085 
4.052663851810433e-05 
-4.205715737075328e-05 
3.284476222852701e-05 
0.0002104906035950158 
6.653414192672415e-05 
-6.404508574201481e-05 
-5.8239713067545e-05 
0.0001174087075827832 
-2.269012781762973e-05 
6.461194918356425e-05 
0.0002640194430641147 
-1.658748620465481e-06 
-6.406703507175116e-05 
-0.0004961968027507712 
1.43072560599591e-05 
-0.0001119875112296044 
5.551119904487503e-05 
0.0001414397810588978 
0.0001203346407449461 
-0.0001321158876902614 
1.54835674867286e-05 
7.144533900715421e-05 
6.128859634548073e-05 
7.213893137172271e-05 
2.265467383104786e-05 
-4.633543239556648e-05 
4.638703551474539e-06 
2.896934389775521e-06 
-4.136121800256306e-05 
-2.025607844592847e-05 
-4.759814335660251e-05 
-6.932516329043174e-05 
5.619059213921324e-05 
1.538336488459885e-05 
1.694037096250377e-05 
-2.62582940666123e-05 
1.998507722961695e-05 
3.823206320610106e-05 
0.0001078736314540105 
-0.0001629034200781952 
-3.242679098418868e-05 
5.771248705916541e-05 
4.821039033715417e-05 
-0.0008189112278624979 
0.00011182785399258 
9.910205669286411e-05 
-1.278002086056847e-05 
-6.381155127346019e-05 
-0.0002172148542105816 
0.0004059736291265237 
-0.0001408662485549808 
0.0001991747006881416 
0.00010924906667214 
3.856980416238211e-05 
0.0001008722581789115 
-0.0002125707004990657 
-9.842459335388275e-06 
1.129426502631142e-05 
-5.994702929773715e-06 
2.400907069836701e-05 
2.352789261410985e-05 
-1.20492783008323e-05 
2.816134876061069e-05 
0.0001479254305866313 
1.007590210038521e-05 
0.0001389029168910201 
-5.093995724666368e-05 
0.000168466885049237 
4.667132178661047e-06 
-5.846447479418255e-05 
5.762092549185695e-05 
-3.023656619230469e-05 
4.013973466826752e-05 
-3.683817553148587e-05 
-6.339218002631294e-07 
2.687089195487313e-05 
1.417486145076983e-05 
-4.260154848245566e-05 
0.0001488469635871132 
1.242335536646486e-05 
2.531510921641698e-05 
0.0001012391632144028 
0.0002264816425768004 
-0.0001950201385008924 
5.091759153159592e-05 
5.210399716177168e-05 
9.902069385896675e-05 
-1.210573648310619e-05 
-0.000170897027538585 
-0.0001247281916079729 
-3.039179045223984e-06 
0.0001251466730755298 
2.056399232942798e-05 
4.065780384165278e-05 
3.488890620784972e-05 
-0.0001138215728467527 
-0.0002790731282681935 
4.754372793470998e-05 
-5.508801423200818e-05 
-0.0001322219423329054 
0.0003143183308422995 
-0.0002051481861097924 
-1.66152643515988e-05 
-3.511630522911456e-05 
1.442203667865769e-05 
6.90643315688564e-05 
0.0003464755754982018 
1.54977961584058e-05 
2.764557989305949e-06 
-0.0001272523862413877 
-3.829969862873265e-05 
0.0001765522166312065 
0.0002936457873027534 
-2.306523305321553e-05 
3.102050530044248e-05 
3.032713502886487e-05 
-9.021067791079363e-05 
-1.201203248397831e-05 
-3.225245366412671e-05 
7.239317061744367e-05 
-2.118838862767351e-05 
-8.252698352952421e-05 
0.0002006279531752353 
6.35444952248591e-05 
-2.971456866414702e-05 
-9.07287814920749e-05 
0.0002936236737652066 
-0.0004036982822660519 
-0.0001849130151983545 
-3.823581102146957e-05 
-0.0001086457742057231 
-0.0002851511211549639 
2.552952232800902e-05 
2.095905579430516e-05 
1.200172109159067e-05 
-8.571323848138771e-06 
0.0001019434760028609 
4.586854856992615e-05 
0.0001069324054180443 
-0.0002362309412424757 
-4.524232101800259e-05 
4.567596146815933e-05 
7.209175245475584e-05 
-9.962303629119877e-05 
7.568526174384217e-05 
5.804398668693307e-05 
-5.79629628567965e-05 
0.0001702811860982962 
0.0001561483049954845 
0.0001432847121417446 
0.000135602110557282 
-1.120482331239829e-05 
-3.83935203548081e-05 
5.93419798005148e-05 
-0.0001830873499335133 
-0.0001340127601967857 
-0.0001492110724773972 
-3.130976677313481e-05 
-9.141961220940772e-06 
-6.651174764332496e-05 
-8.481980626112748e-06 
-0.0001487953787652757 
-0.0001974315407839422 
-1.975021684399859e-05 
0.0003983268950582123 
-9.944456256057478e-05 
5.190264016734889e-06 
1.644797374400367e-05 
-1.517225188241175e-05 
6.621501931843585e-05 
-1.925203707746241e-05 
4.85813949380211e-05 
-6.548613213884009e-05 
-5.38378902946713e-05 
-5.931334616709792e-05 
0.0001169665163540685 
-0.0002556654965294959 
0.0001663569018216794 
-0.000223776967917436 
6.658119272643132e-05 
-3.439562393723249e-05 
-0.0001805343492064929 
4.666519485040787e-05 
2.825929590168565e-05 
-2.039277773002306e-05 
1.200948397370963e-06 
-6.274461985981722e-05 
4.635360276442205e-05 
0.00018516429451961 
0.0001347005261465836 
9.088776416586549e-05 
-4.979452303830408e-06 
-9.003218631868484e-06 
-1.338431876878242e-05 
-4.63556868185635e-05 
7.31637818345696e-05 
1.947958365197229e-05 
-1.109905054900768e-05 
-4.903142941557115e-05 
7.543664998387568e-05 
-1.094608664877859e-05 
-4.230777885142775e-05 
4.353451212657687e-05 
5.181982451467299e-07 
3.482773929513975e-05 
-5.443655579972697e-05 
-3.358472785084606e-05 
-8.533161912599773e-05 
7.183430618656801e-05 
-1.349043424245035e-05 
-4.14650770991222e-05 
-4.315706120684904e-05 
-0.0003023605203572834 
-4.973701192049918e-05 
-8.571470985398448e-05 
6.38071660857474e-05 
4.766364096225138e-05 
0.0004024047183179651 
-6.900263444263162e-05 
0.0001007346133711103 
-3.528391759678725e-07 
-3.370150378338061e-05 
-1.830279678927556e-05 
-3.004999525139995e-05 
3.203530236285288e-05 
0.0002265271227621988 
-2.016386036476872e-05 
-0.0001526230773192277 
6.79209326894084e-05 
5.335852449177308e-06 
-2.864143888521287e-05 
3.904171636923771e-06 
-1.949695903713348e-05 
0.0001153000087474554 
1.310117260571286e-05 
-4.232330916851407e-07 
-3.970599640051037e-06 
-7.581223529918258e-05 
-3.814980013360993e-05 
-3.87205153442693e-05 
0.0001004761639866756 
-0.0002843138419941975 
-3.82217492442043e-06 
-2.811364249757443e-05 
-8.295520508096769e-05 
-0.0001513788074375112 
3.118938881958555e-06 
-0.0001173788234654347 
0.0001090815270253074 
0.0001090265645842027 
0.0001615298364928323 
0.000185656295040533 
8.365768357553609e-05 
-7.799489413957049e-07 
-0.0002044148509589993 
-3.547564602820636e-05 
0.0002821687817075176 
4.278540185090304e-05 
-0.0001319726763955572 
-8.849486260142655e-05 
0.0001096383139023913 
5.169143705771421e-05 
5.560669341708498e-05 
9.620620955821549e-05 
-0.0001275500252719355 
0.0003240309024595475 
-6.53739310047556e-05 
-0.0001022868965624447 
-6.15214717045204e-05 
4.803470168119546e-05 
-3.757434809446038e-05 
6.542604441145968e-05 
-7.496934984552601e-05 
-0.000188557586803564 
-4.395140435492966e-05 
3.559931039612678e-05 
-3.443673986772382e-05 
-0.0002383975627097521 
5.211950187700132e-05 
-8.657300879281088e-05 
8.441843781921577e-05 
-2.390410236066896e-05 
6.42005303362582e-05 
0.0001694391178117032 
7.933517282024773e-05 
0.0002227093808810846 
-0.0001967502455924471 
5.294900846330476e-06 
3.703456457319604e-05 
-1.989980129419256e-05 
-5.951502167751894e-05 
-1.123528838343128e-05 
3.383441188152734e-05 
3.602793888931654e-05 
3.209569397392363e-05 
9.131908065238678e-05 
0.0001385301912942256 
1.721954295799619e-05 
-0.0002463951287086764 
-4.750576415483629e-05 
-3.188396436790494e-05 
-4.676882737921773e-05 
-3.616189263691119e-05 
0.0001270802836116328 
-2.116528535029674e-05 
6.11487181018368e-06 
-2.058396042759461e-06 
-0.0001920996957934166 
-5.58330539831938e-05 
2.525452574027047e-05 
5.438919027459679e-05 
0.000227973796232066 
-0.0001064190356665579 
3.224334867425038e-05 
6.468261586066627e-05 
0.0002110088818757442 
-0.0001160282071593129 
-7.175544791675723e-05 
-1.469115792992515e-05 
-3.249621715768908e-05 
4.646631247672173e-05 
0.000151782734386259 
-8.356795126323945e-05 
-6.378857650516058e-05 
8.692468969946666e-05 
-0.0001076461221657048 
-6.945714990583629e-05 
3.2643381424216e-05 
-2.854620704110597e-05 
0.000395559237053735 
6.77498226080915e-05 
-0.0002387227559734174 
0.0002606491315852693 
5.351159945480711e-05 
-5.354240433914253e-05 
-4.435252533815635e-06 
0.0001086363007577467 
-0.0002036705521334639 
-9.111032287924393e-05 
-0.0001975972508142173 
-6.085784513476464e-05 
5.584062785157807e-05 
-5.356078616846852e-05 
0.0001236038799621118 
-0.0003441684866626446 
-1.691338927442664e-05 
0.0002783216436945816 
4.486568076402332e-05 
-2.631110790659144e-05 
-2.367020732515573e-05 
-4.053170978306817e-05 
5.709818634771494e-05 
3.242843534127955e-05 
2.478702769430525e-05 
-0.000151659084367343 
0.0001884878331986939 
0.0001220787164048124 
-0.0002046859565614355 
-0.0003342674702432117 
1.295135691657682e-05 
-0.0001521524901635012 
-6.062918800270077e-05 
0.0003810921436823717 
-0.0004670133465032899 
0.0002513936530149216 
-0.0003096267618395186 
4.620179775706681e-05 
0.0001374198551632438 
-0.000189607896285577 
4.122053520305827e-05 
-3.44522157429589e-05 
-0.0001398046612842936 
-1.866420047747337e-05 
1.607019104917627e-05 
0.0001007637852063677 
-2.629822253326572e-05 
7.795217702159008e-05 
-4.149226492334311e-05 
0.0001072501555241441 
-2.117043030252103e-05 
4.892470494580374e-05 
-4.501218634032932e-06 
-3.13056470843229e-05 
0.0001368236619217444 
-4.416003147798611e-05 
-2.253843670953727e-05 
0.0002158396149270768 
0.0002756049210147937 
9.717151908343849e-05 
-1.217455488501368e-05 
-4.251599371096733e-05 
-0.0002709100867830792 
-2.449927137599517e-05 
7.916901734670047e-05 
-3.398317571667522e-05 
1.793738921873529e-05 
8.97726965050379e-06 
-3.452980109969802e-05 
0.0001037084722710188 
-8.411262481564872e-05 
8.754741234679417e-05 
0.0001219771851912334 
8.999720889645395e-05 
2.543203616333912e-05 
-0.0004365842088493189 
-0.0001108375920073259 
0.0001160509551850512 
0.000370432345667799 
4.611450615713436e-05 
-2.155796003123239e-05 
-6.821868081048819e-05 
9.791588582870456e-06 
9.105328996866931e-05 
9.399094649911976e-05 
0.0001081795515338883 
6.8257485098114e-05 
0.0001577409273098262 
9.098824333722136e-05 
-8.17414651098695e-05 
1.096859290727106e-05 
4.057792861897154e-06 
-0.0004560603205445155 
-7.138467161438121e-05 
0.0001919185739478523 
2.673411580471598e-05 
3.387924131721914e-05 
0.000228953601603223 
2.165594788642084e-05 
5.074424114313682e-05 
-4.199854421705044e-05 
5.149727261092403e-05 
5.759083825304369e-06 
2.240724238127728e-05 
-2.36996002770128e-06 
5.702660973836637e-05 
3.045299518690012e-05 
7.831583917975864e-05 
-0.0001581928432627144 
0.0001607879353561712 
-7.15024250254978e-05 
3.998568702652265e-05 
-6.305218823934729e-05 
-3.632154137025966e-05 
0.0001017640880360148 
-0.0001687918987754875 
-8.876298393837999e-07 
-7.776259724723739e-05 
7.08589051383216e-07 
1.710439899735304e-05 
2.851625828064028e-05 
-0.0001422843278020714 
-6.416267378405524e-05 
-0.0002046436527434367 
-8.035732085729535e-06 
7.094966087972393e-05 
-2.721244757086945e-05 
-2.416466507930723e-05 
-0.0001744278556624275 
-5.720059055524328e-05 
0.0001527721999556918 
-0.0005328997165510943 
0.0001414057300788824 
-5.153173292538462e-05 
0.0002136124599819 
-0.0002196464199212862 
1.994801831680971e-05 
1.892727833222709e-05 
0.0001175158753780755 
8.822566627154534e-05 
-9.818335608562707e-05 
0.0003060865741145656 
-7.117587119545907e-05 
4.172806401929683e-05 
-1.947189460585259e-05 
-4.310397432252039e-05 
0.0001283028711312642 
3.933368135966479e-05 
-0.0001267512151390628 
1.516128244267174e-05 
-2.100728465206754e-06 
-4.835468274028152e-05 
0.00013833377625045 
8.249516654702516e-05 
-2.290030962143888e-05 
-5.159784207435654e-06 
-1.369202507247057e-05 
0.0001336030143783886 
2.275182415198092e-05 
-7.866165961372723e-05 
2.239805583956898e-05 
-5.224387009328585e-05 
0.0002023177221977766 
-3.795680011485219e-05 
-7.149042223390375e-06 
-2.067916304544505e-05 
1.244437125122612e-05 
-1.164189469522711e-05 
0.0001196343863179248 
8.001991496788484e-05 
4.30404393173201e-06 
5.112440398520958e-05 
1.168203460961826e-05 
-0.0001431757191420581 
-5.733810994197678e-05 
2.193863683944833e-05 
3.200329762742992e-07 
2.362324727608931e-05 
-0.0001754452270047495 
-2.223395191396964e-05 
2.835631778961932e-05 
-0.0005074769357831047 
-5.414687871783497e-08 
-2.268069158375324e-05 
0.0001065202535365785 
-0.0001390229171852843 
0.0001337987594693385 
1.85208346671192e-05 
0.0003192233103725849 
-4.59647684986519e-05 
-0.0003420460294100605 
-0.0001550342653299558 
4.849849651772001e-05 
2.259285484169545e-05 
-9.892907668030772e-05 
1.399193973582254e-05 
4.523893296133186e-05 
0.0002936410932509057 
-5.699923059582285e-05 
0.0002559261178431508 
-0.0001511940794430755 
0.0001435397247673336 
-5.136212499766763e-05 
4.896181500650457e-06 
0.0001407618448727545 
0.0002265150756451241 
3.891839694341597e-05 
4.886036995047991e-07 
-1.099356670474891e-05 
-0.0002798584340251988 
5.707628705646469e-05 
-5.376599511299961e-05 
-5.475779633120543e-05 
-6.065299072529469e-05 
-7.015475841672232e-05 
6.286493935097249e-05 
2.224578641061535e-05 
-0.0001300604779288637 
-1.241008849581889e-05 
-2.71317196496876e-05 
0.0002609401622874514 
-0.0002197410019148061 
-4.125689182950911e-05 
-6.088066209329387e-05 
-9.259300801316188e-05 
-1.420725357459564e-05 
9.103221334737763e-05 
-4.282584152557984e-05 
-4.505770738266062e-05 
3.477918379342783e-05 
-8.466062040021858e-05 
6.620442875898696e-05 
-4.381715655877765e-05 
8.875142893214203e-05 
7.309859111290427e-05 
4.848194193235937e-05 
-0.0001679115955446262 
7.11436463083689e-05 
4.638403418035325e-05 
0.0001828225583999073 
-0.0002380975975617966 
-8.688297417410151e-05 
0.0001540767713815315 
-5.928396812446437e-05 
3.128255730801308e-05 
-4.709223826552988e-05 
-0.0001598870669345041 
0.0003430605857678182 
3.323222664644594e-06 
-2.070588698241072e-05 
-2.791061704012047e-06 
0.0001200798514818078 
0.0001099925525532332 
9.815732508363638e-05 
-8.251559102138669e-05 
2.15819699603992e-05 
7.775500764442568e-06 
0.0002235638236415592 
-9.14664509609102e-05 
-8.790743245424548e-05 
-7.821785884580399e-05 
-0.0005498017422981238 
0.0002957397889158917 
-3.548115163695146e-05 
-1.956968655298058e-05 
3.966050913668806e-06 
-2.97173522345786e-05 
-2.388251804727442e-05 
3.7584867467284e-05 
4.025034135414111e-05 
2.74088331694902e-05 
0.0001585975431215337 
-0.0001299933249916322 
6.721334016050997e-05 
1.883306678104294e-05 
5.284995965616936e-05 
5.838035452989994e-05 
-0.0001714586064443898 
0.0001049398907965127 
0.0001086882836174516 
1.607239197634691e-05 
-1.628614224613649e-05 
-8.268240850581893e-06 
1.625085951893663e-05 
3.532942494910387e-06 
0.0002366243202817768 
-0.0002038360933100089 
7.762338570686545e-05 
-9.027700011605636e-05 
-5.150881129054114e-05 
-2.355912600126949e-05 
7.711273190993853e-05 
-0.0001418851018691799 
2.150214692507439e-05 
-9.593089458991067e-05 
3.834915788856899e-05 
0.0001161592624044517 
0.0002224013780031492 
-5.907455207136088e-05 
-8.920713447429475e-05 
4.504452796368166e-05 
7.093620846614672e-05 
3.441455878043796e-05 
-6.13015513637193e-05 
9.892303205942342e-05 
-4.245247067115388e-05 
1.692485723021889e-05 
-1.08446601994911e-05 
7.590980920827231e-05 
-0.0003561611473201126 
-0.0001396459454279402 
-7.861004651952456e-05 
0.0002005855779844951 
9.621021527399952e-05 
-7.436446855361344e-05 
-6.410388107477667e-05 
0.0001908627501052818 
8.688721274878106e-07 
0.0001056417086792755 
7.819821483557625e-06 
3.230284739071584e-05 
0.0001677082035328837 
-3.420241142461838e-05 
3.372121853557468e-05 
0.0001662175522822223 
3.141703458296027e-05 
-0.0001658678574371206 
0.000247617342741486 
-0.0001281896241333379 
-6.453858644230498e-05 
-1.329295707867091e-06 
-0.0001619392613745394 
1.05810836579679e-06 
-0.000413791060639203 
-3.31602812286106e-06 
-4.189267994327536e-05 
-6.245308222936169e-05 
-2.343951782656411e-05 
9.360316932492817e-05 
-4.201050388542324e-06 
-0.0001433131035516942 
4.04267327424561e-05 
0.0001120158349692826 
0.0001413347156600807 
-9.430862854993352e-05 
4.492242337071599e-05 
0.0002554281679970021 
-0.000110152338173828 
7.65180749745309e-06 
-9.614546299004259e-05 
0.0001782105393877087 
-8.026518185230743e-05 
0.0001501536836252131 
7.36638119990952e-05 
-1.982718182264097e-05 
0.0001888023647116032 
8.867297356403652e-05 
-2.790690313231946e-05 
-1.895029589479e-06 
2.292074759231177e-05 
0.0001236046226640603 
0.0002100049865591308 
4.521992068910399e-06 
1.036178322739486e-05 
0.0001085043345240433 
-4.284088797198221e-05 
8.578744654918559e-05 
6.220425155415744e-05 
-4.950666912625131e-05 
1.223545706567397e-05 
0.0001788044521676926 
-0.000196642835911334 
-0.0001787205307670339 
9.14740091663977e-05 
0.0001635107345722654 
-2.351368029868529e-05 
-0.0004880151102485796 
-1.864514114875311e-06 
-0.0002435233143708333 
-0.0001106030524608775 
-0.0001553468010028084 
8.346033715704842e-05 
1.660034896939192e-05 
8.488112467842442e-06 
-2.554259345149261e-05 
-4.887507028435303e-06 
-0.0001181025905499167 
0.0001882519198661301 
1.927483176881449e-05 
-2.256528364842446e-05 
-2.523713534945636e-05 
0.000114631312890512 
5.88649008597903e-05 
0.000164958751404991 
-8.307738538390546e-05 
-3.012702131301845e-06 
-5.326953223015127e-06 
6.38648862025844e-05 
9.47914593815878e-06 
-7.722828471086015e-05 
-0.0005257072172125854 
4.507590954080135e-05 
-4.207082360428998e-05 
5.234269375399593e-05 
-5.360082319490821e-05 
-4.418989850074464e-05 
-0.0001292868437969817 
0.0001930652403164614 
0.0002744739315846554 
-9.422824985594714e-05 
-2.132189198104531e-05 
-4.105432255537441e-05 
6.042921879633179e-05 
4.989522321355231e-05 
-3.342714690868933e-05 
0.0001060754059522985 
-0.000139494401570517 
-0.0001224249561314166 
-0.0001375997211784842 
3.425692173902492e-06 
8.293411330373921e-05 
0.0001751480197583162 
1.416191201273822e-05 
-0.0001865411303416124 
0.0001835245972324225 
5.135073978241244e-06 
-5.342774328702763e-05 
0.0001039961380352817 
2.553581864591413e-05 
3.60499647498497e-05 
6.334278904309724e-05 
-6.264738079186042e-05 
-2.068175466808418e-05 
-0.0002013165303555064 
1.854186251288726e-05 
2.124317400401667e-05 
-5.576948323760384e-05 
5.08636058876195e-05 
-9.837039275416426e-05 
6.101441142655852e-05 
0.0002679345694682687 
-0.0001002308852301513 
6.369072599884182e-05 
-0.0002812677904770574 
0.0001975072548734551 
8.890484398020362e-05 
-0.0002205136032281529 
-6.59712644780549e-05 
-1.837406769296223e-05 
9.040398118356922e-05 
-0.000376037330591554 
-5.336675352778861e-05 
0.0001316870611211201 
-0.0001957706067629874 
4.553564023092748e-05 
-3.305803980518877e-05 
-2.048250978160047e-05 
0.0001112423529900445 
5.403561616020966e-06 
0.0001040051340151723 
1.784923410807117e-05 
2.197921865285594e-05 
-0.0001440897383004252 
-0.0001116214622650899 
4.915455815458847e-05 
4.696062460348795e-06 
5.500712979624845e-05 
0.0002201951441115387 
-2.728144654588367e-05 
3.555483552338292e-05 
-2.845791813759448e-05 
4.943687321154199e-05 
0.0002062383736579945 
-5.905721860310668e-05 
-3.587815999645652e-05 
0.0001298362501702611 
5.965090007178311e-05 
-2.270278592097872e-05 
-0.0003365228928403336 
0.000157416891660744 
0.0001469135931925783 
0.0001387547045893285 
8.440581144909412e-06 
-6.196701227728417e-05 
-3.105438730331863e-05 
-0.000108589304061286 
-0.0005872516836064537 
0.0002036032790917859 
-0.0001393392405115071 
7.196894052602833e-05 
-0.0001078753483675705 
0.0003775732921430457 
2.177865508435358e-05 
7.417265947506725e-05 
1.081403676138977e-05 
-0.0001240672612280934 
3.028201139128743e-05 
-3.285360054266309e-05 
7.474061075078405e-05 
0.0001022790776911651 
-7.738115993898261e-05 
0.000126970060263058 
-1.019482596638865e-05 
0.0001258438774463369 
0.000235533455807265 
-0.0001182857106155656 
-3.599904932602708e-05 
3.166486563500874e-05 
-0.0001078452948088557 
-0.0003445189588324501 
-6.928711734149125e-05 
5.694279451241578e-05 
0.0004357256167588237 
5.259322446136356e-05 
0.0002474122291646163 
-7.50216733035801e-05 
-6.547022602686592e-06 
-8.378439819183374e-05 
5.439197529080126e-05 
4.602163781217585e-05 
-4.459998483457861e-06 
3.999945824598566e-06 
-2.367229273893712e-05 
1.498565213066917e-05 
4.383343070184814e-05 
4.793142263400943e-05 
5.217531271319558e-05 
0.0001176007353008857 
6.018827078467057e-05 
-8.698862835415808e-05 
-0.000607951236262274 
9.990981445898004e-05 
-3.858685886106676e-05 
-6.275889520605288e-06 
0.0001091925983760601 
-9.855482066058986e-05 
-7.054429194017378e-05 
1.012746603166803e-06 
-4.62636105056047e-05 
1.908874448116766e-05 
0.0001362716809282928 
-4.870489029792836e-06 
8.867087184091081e-06 
-0.0001460599981315516 
1.709465567047636e-05 
-5.707922472249727e-05 
-0.0001126491182601497 
-2.326460878693138e-05 
-8.271308218910246e-06 
0.0001458859334673797 
-0.0001543291632979609 
-1.002090925719138e-05 
0.000206879280754767 
-2.039698697718515e-05 
0.000120697747965808 
7.385555923309788e-06 
0.0003337782534435497 
-0.0001195073571188064 
-0.0001925167409165035 
3.465525703648747e-05 
0.0001536929558450153 
3.698934727982394e-05 
5.076005771807005e-07 
-3.566019241126706e-06 
-1.47006796019741e-05 
2.84595262332822e-05 
-2.670438241198451e-05 
-0.0001992077756806721 
-6.921236313866226e-05 
-0.0001156304363728925 
0.0002065806709077362 
-1.849463533960302e-05 
3.182935955431587e-05 
-6.801743391880971e-05 
3.928027525040745e-06 
-9.960918815546434e-05 
-0.0001138282183502932 
-4.85099731001323e-06 
-6.056718075222409e-05 
0.0001828934262090629 
0.0001116626022967715 
-0.0001664931398878386 
-2.502795523596727e-05 
0.0004597828552465609 
0.0001196551724624496 
-0.0001729493162731252 
-0.0001093494796460956 
0.0001525259461185565 
0.0001612165127001304 
1.9711254339322e-05 
-0.0002211075959566009 
-1.607158512211377e-06 
1.76574521816334e-06 
-0.0001652145522892126 
-6.768475637780414e-05 
0.0001396465038773617 
-8.190576971711648e-05 
-5.325186875539733e-05 
-1.668810672194879e-05 
-1.681195462585659e-05 
4.578595183667747e-05 
4.369289614331612e-05 
9.846933827617345e-06 
4.861061470439151e-05 
-1.893873468061677e-05 
2.499085876761332e-05 
-5.831059881235467e-06 
-0.000135134321895067 
-5.853655807800886e-05 
-2.007117617061597e-05 
-9.247194757665353e-05 
0.000101364958523084 
0.0002730720738430107 
-2.984679789865534e-05 
0.0001026989378785809 
5.371929829939831e-06 
-0.000125690774540276 
7.026609047977284e-05 
0.0001575854771773412 
-0.0001486677560698134 
-0.0001616578593225619 
-2.452215580868313e-05 
-3.140212089916113e-05 
7.996941687041908e-05 
0.0001602016623529407 
-1.659954310514151e-05 
3.68334386552966e-05 
-3.603008218946159e-05 
2.467604780935314e-05 
3.211240792334473e-05 
-0.0001717019247762441 
5.665907657902384e-05 
5.205609256226507e-06 
-3.045118328399634e-05 
3.332895298943332e-05 
-8.088103292690172e-05 
4.198039082592397e-05 
7.13058402902332e-05 
6.223589013459855e-06 
0.0002080596784290131 
-7.332055617224808e-05 
-0.0001326212586977819 
0.0001263684085491807 
-3.788530981354336e-05 
9.657002299831021e-05 
-5.154317699939551e-05 
-0.000321018005739901 
4.300652660885015e-05 
-1.950183592817914e-05 
-6.849234234516743e-05 
0.0001134561322776787 
-0.0001900023124805857 
5.277132896870943e-05 
-0.000102826989899223 
-8.693982770002431e-05 
-1.51179770039165e-05 
-1.247010496876603e-05 
0.0002967952821902182 
-0.0001257791363001468 
0.0002279749988624014 
5.548569622704221e-05 
4.686570256887301e-05 
-4.831519538488932e-05 
-4.985983059526378e-05 
-9.585200289058239e-05 
-0.0001394729342756686 
0.0001374856416972735 
6.477728454518267e-05 
6.069369930768751e-05 
8.22399953757242e-06 
-5.630551258942383e-05 
-0.0002442701456527542 
-5.287137597680511e-05 
2.259545671114484e-05 
7.204770089770795e-05 
-3.909732298415279e-05 
7.344692633626572e-05 
-0.0001053009404166598 
1.237328241664999e-05 
9.757268176439257e-05 
4.375933401495622e-05 
-1.844551923616427e-05 
-6.351994541606305e-05 
7.688972588192277e-05 
-3.534501368042007e-05 
-1.203744848922768e-05 
7.464770128046133e-05 
-0.0001794108706172914 
8.462330558469213e-05 
-4.035248065132151e-05 
-5.796362781783333e-05 
7.563849406352659e-05 
-3.521137635894016e-05 
0.0002235036082775539 
0.0001792381065090414 
-0.0001659359492126942 
8.587696843010734e-05 
-2.291955031973063e-05 
-3.775112960096835e-05 
9.351972880398491e-06 
6.376997977288318e-05 
9.890291590105905e-05 
0.0001271854772485989 
-0.0001127592823277882 
4.041958157650194e-05 
-0.0001643155392656045 
0.0001471467969644941 
-4.757679585715007e-06 
0.0001048219074065754 
-3.640018503932067e-05 
-3.83274297396569e-05 
6.605022332063589e-05 
0.0001008287899930561 
-0.0001570984570051477 
0.0001479639691545043 
0.0003581539621124391 
-0.0002874659471731416 
-9.436446833582033e-05 
-0.0001038471429409156 
-0.0001939723861769328 
-4.645967946496045e-06 
-4.306057082130921e-05 
0.0001200788335537885 
4.851230560459841e-05 
5.152723296454864e-05 
-3.031876017849245e-05 
3.560899589255242e-05 
0.0001581630068133944 
-0.0002087084253228387 
-0.0001275501858633829 
-3.164262163691683e-05 
8.111568851204272e-05 
-1.042360232048336e-05 
8.691558051788081e-05 
-2.550277499561622e-06 
-7.217941731799746e-05 
1.168459774882363e-05 
-1.090793015100456e-05 
0.0001495063600384341 
-0.0002240092488296022 
-6.77633497673649e-05 
-0.0001128794406649818 
4.758372762069097e-05 
8.355763328153668e-05 
-5.532831766530153e-05 
0.0001329770978954471 
-9.185754357207031e-05 
4.672475551857259e-05 
0.0003077527323170955 
8.417941575629972e-06 
1.464271970337308e-05 
5.159117257613577e-05 
-0.0002254983288760546 
4.033282550052257e-05 
3.988164448140152e-05 
0.0001156346247693296 
9.909271910948784e-05 
3.536892027923689e-06 
-1.023344062180505e-05 
2.965469096905761e-05 
-6.029427208200688e-05 
-2.827652324023448e-05 
7.715769414667956e-06 
-2.932228716599126e-05 
-0.0002492820722732052 
-0.0001745855098430716 
6.442020844131194e-05 
0.0001712318284699125 
8.810646286175818e-05 
-0.00020066885466397 
0.0002349930827755951 
3.862769518888874e-05 
3.521077347220134e-05 
0.0001022368567025473 
-2.140012783827485e-05 
-0.0002135509061115791 
-0.0001443804667063953 
0.0001486848876848111 
-3.415990173276564e-05 
2.076263005087776e-05 
-6.435938004309104e-05 
-7.267162116240764e-05 
1.868241263526265e-05 
0.0004199874953731798 
0.0001188233855892263 
3.134740072882223e-05 
-2.745255866844172e-05 
-3.748605358346018e-05 
-4.133498219862098e-05 
-8.199021523601245e-05 
4.947388602410867e-05 
-0.0004456103631991768 
-2.025854267910305e-06 
6.221858341271033e-05 
2.902824745688766e-05 
3.071525123725076e-05 
-6.605325751134635e-05 
-3.243659904406822e-05 
4.441197018333158e-05 
-0.000155221255879044 
1.849018568478582e-05 
-1.709729792497059e-05 
1.00531441303385e-05 
-0.0001339199238043547 
-0.0001210913726944503 
-5.292650668189949e-05 
5.74673598097602e-05 
-0.0002119036614255706 
-5.254078317770231e-05 
-0.0001318937885764637 
5.342335360062231e-05 
5.466476746647446e-05 
-1.633021779425578e-05 
0.0001235336898003346 
-4.581095946814581e-05 
-1.160823284940829e-05 
4.447302180836663e-05 
-1.80982284830024e-05 
0.0002784849466150478 
6.987757671033229e-05 
5.805753886256566e-06 
-5.500977141005464e-05 
-8.130431156511181e-05 
0.0001970376653020798 
1.708460865500306e-05 
0.0002416069457577576 
-0.0002106770807368195 
1.353986073344811e-05 
0.0001547361767102096 
0.0002388078816774058 
-6.968815464742826e-05 
-0.0001067414643322589 
-7.694508677858653e-05 
-0.0001781136780599076 
-7.5525996984487e-05 
4.729776701736301e-05 
6.342899281194734e-05 
-8.902924723301086e-05 
-9.092913253183323e-05 
-8.045505575489869e-05 
-0.0001282129130222285 
4.349786013214234e-06 
-0.0001020937566585218 
-2.938470010835268e-05 
3.676353625635384e-05 
-5.073733926553542e-05 
4.390452092938814e-05 
3.924502183711601e-05 
8.764075134638743e-05 
0.00017483922273179 
8.286049923109908e-05 
-2.153121528948966e-05 
0.000239764513756319 
-8.034146271032151e-05 
-5.074259010626779e-05 
7.535003689845463e-05 
7.593071519288914e-05 
5.889598853492205e-06 
-5.513597000852842e-06 
5.048466793175756e-05 
6.248913337831254e-06 
0.0002787911405292856 
0.0002600770409111362 
0.0001759130445058687 
0.0001471272090895311 
0.0001072477406610824 
-0.0002018832890264987 
1.118215587519148e-05 
3.804737808677871e-05 
-9.812485695397746e-05 
0.0001019376209936519 
-5.701554354574892e-05 
0.0001486550707499048 
2.418774828473391e-05 
-0.0002380257706510782 
-0.0001586545817386668 
-3.492552026203467e-06 
-2.096474804040559e-05 
-2.013455888432945e-05 
-0.0001022489995473892 
-0.0001665034841819274 
-1.950381954714463e-05 
4.030061724925345e-05 
-3.589600697371326e-05 
-5.410994959004244e-05 
-0.0001321552049503279 
8.941382419139366e-05 
-9.443303149805339e-06 
-2.289622352453596e-05 
9.575438526167153e-05 
-5.601071698800947e-05 
3.03777957216114e-05 
-0.0001151281274524634 
9.555106751573319e-06 
-2.585983125215801e-05 
-3.075427091999149e-06 
0.0001985009744799573 
-5.401490858520635e-06 
1.486696465131432e-05 
3.71799144919672e-05 
-6.532452266394065e-05 
-0.000136583612565698 
-0.0001098174173275939 
4.098122554873149e-07 
0.0001219712809375088 
4.327846733684789e-05 
9.270844319938725e-05 
-8.90019905654047e-06 
0.0001149714365218219 
-7.645328648710275e-06 
5.640472392191868e-06 
9.19635625059724e-05 
7.846225100692634e-05 
-4.034189495869877e-05 
-1.889734608576761e-05 
0.000106106346376715 
-8.310819646496888e-05 
4.040005327901788e-05 
-1.339346510681655e-06 
-4.543726474308016e-05 
4.683850761849461e-05 
-0.000248694177740823 
-0.000172122304649213 
-0.0001498665380711778 
0.0001563823402232153 
-3.622467713882355e-05 
6.734725235036457e-05 
7.028206403852447e-06 
-5.999560128532181e-05 
-1.342796974986535e-06 
-6.687774567189569e-05 
1.958585385400511e-06 
9.102109451821764e-05 
-1.851983554691622e-05 
1.106513393936101e-05 
-3.249638996401136e-05 
-9.972632717772895e-06 
-1.246924107314449e-05 
6.923944813026589e-05 
-0.0001946318461354523 
0.0002398554379988908 
-5.643166022652561e-06 
5.609675370460519e-05 
-9.983792388403021e-05 
-0.0001845208836420894 
9.095011204493404e-05 
-7.207317774735588e-05 
0.0001102389727765761 
-2.116101372268457e-05 
0.0001067591895106155 
0.0001003849524768779 
4.747512584254946e-05 
7.697528241423676e-06 
-0.0002330171741563075 
3.67561938182303e-05 
2.964908640022978e-05 
1.208206747987494e-05 
-6.318400482000239e-05 
0.0001726220790220359 
-8.983256752617096e-05 
-0.0001673172385970645 
0.0001418278163062645 
7.269123685333129e-06 
-6.139692058645087e-05 
5.435819247753528e-05 
-7.861268991828693e-05 
-0.0001938645836651732 
0.0001922426420642597 
-2.731351912357757e-05 
8.292400392789641e-05 
-4.654634252330124e-05 
0.0001334056178437271 
-0.0001042147561404987 
0.0001065570261781537 
-0.0002486076655870057 
2.141494937823317e-06 
0.0003861086526544525 
6.780176583600216e-05 
-9.188491757768892e-05 
-5.796762767116047e-05 
-4.451523420442259e-05 
-0.0001989277576605991 
-1.599315657007367e-05 
0.0001279566039307151 
2.142052955208456e-05 
3.791976741002538e-05 
-8.582920875506093e-05 
7.054662887285064e-06 
7.121924755177076e-05 
-0.0001933212187902522 
7.326568760824512e-05 
-0.0002236329952541659 
5.96711021891624e-05 
1.596439867897014e-05 
3.449469581523255e-05 
6.411164204355588e-05 
-4.536072667594014e-05 
0.0002025799103392367 
9.43160770526727e-05 
-0.0001038426865555717 
2.509357323674364e-07 
0.0001061339806851111 
0.0001294890320058767 
2.54086170390918e-05 
-0.0002592959443178371 
-3.376395313318863e-05 
-7.283271629156706e-05 
0.0001116621771862142 
-3.938432399517128e-05 
-6.340606825063985e-05 
0.0001276562499107045 
2.658123751808377e-05 
-0.0001930702104626894 
3.838919286285756e-05 
-4.419351649614711e-05 
1.103916549063118e-05 
-2.467211601408365e-05 
0.0001287951630718304 
0.000128020386538079 
-5.98444347700636e-05 
1.561229457822137e-05 
-7.710186466558019e-05 
-6.45723095345862e-06 
-0.0003106156237941714 
-0.0001237844427312984 
5.124479310881445e-05 
0.0001247944582532507 
2.659866716483399e-05 
-7.076656097210172e-05 
0.0001035843412476806 
-0.0001370220913637746 
6.338917977880728e-06 
7.650692204754268e-06 
-4.922118415274756e-05 
0.0002481087788012438 
0.0001122862445398655 
2.539458521951904e-06 
-2.408725019196647e-05 
-0.0001295406261631112 
0.0001112720340309746 
-9.276073051467063e-05 
-0.000149406711020621 
9.877026320805783e-05 
0.0001736003347249608 
4.254741710675948e-06 
0.0002269229840085029 
2.849231070773308e-05 
1.449720319873805e-05 
0.0001654739707449943 
6.059284728900469e-05 
-2.276100592509379e-05 
-0.0001549651305084441 
-0.0001817115531480513 
-6.597191762113537e-06 
-1.534356044322893e-05 
-7.021653434802613e-05 
1.190539611395013e-05 
0.0001746676816551545 
-5.967004223692546e-06 
-0.0001399359048777398 
0.0001943677976402969 
-4.349909396943039e-05 
-5.852016727912147e-05 
0.0001426906806307975 
4.619692231874409e-05 
3.218193369431999e-07 
-9.480779689057716e-05 
-0.0001545464209637216 
-0.000117389779691975 
1.938291058198357e-06 
8.791894069287617e-05 
-2.340509677080992e-05 
-0.000110160949837645 
1.583656399179731e-05 
7.830581725911219e-05 
-1.168220507253306e-05 
-7.240810726204159e-05 
-0.0003378490830030157 
9.424822996630618e-05 
1.923886626214007e-05 
0.0001068640945138578 
0.0001596964303258283 
9.404061924132291e-05 
8.004954405322147e-05 
-9.137763326044474e-06 
-9.878664791771967e-05 
-9.434239916454094e-05 
-2.546013596572384e-06 
8.918256592421607e-05 
-8.815299235947373e-05 
-0.000127070220890957 
-6.036334162993018e-05 
0.000105028757217036 
4.054879606413891e-05 
0.0002379146635817208 
-3.114645979247425e-05 
-1.341325885887221e-05 
-0.0001299678531435689 
2.081641013374341e-05 
0.0001819110378834651 
-0.0001305942016103455 
3.988325825208756e-05 
0.0001792704268240559 
-2.954277713950398e-05 
3.219566490182537e-05 
0.0001944059666207669 
-3.508815182805664e-05 
-9.234634741755889e-05 
7.145418383341814e-05 
2.159798912527194e-05 
-1.446703654203776e-05 
-5.341467071134328e-05 
-0.0003311470204609799 
5.382676578900614e-05 
9.347613068979186e-05 
-0.0001008090579085703 
0.0001085068694707889 
-2.171933888188564e-05 
3.228285164781252e-05 
-0.0002494299769723931 
0.0004038507835406892 
4.72411628711232e-05 
-2.148965097932581e-05 
-0.000151863204553639 
0.000346500741630248 
0.0001049805149286134 
-2.968737414520915e-05 
-9.676738523360236e-05 
-0.0001918628745591977 
-5.867361564723217e-05 
1.394656726621875e-05 
-4.53271691320794e-06 
-2.867811561130452e-05 
-3.51275394180271e-05 
1.678261787770732e-05 
-0.0001776415835003605 
0.0001334711201845908 
-5.587869718050227e-05 
0.0001915525582709537 
-7.138069391680368e-05 
-4.691303141588191e-05 
-1.286011766991108e-05 
-0.0001905782362765682 
-6.048831419056914e-06 
-6.520675595626656e-05 
0.000179848464269742 
-1.447171343772075e-05 
0.0001097972446078283 
-1.262213806860438e-05 
-2.867267608478862e-06 
6.508669839367088e-05 
-0.0001643326426649803 
0.00021001091733224 
-1.167790433684931e-06 
-3.270450405552913e-05 
9.123162691647974e-05 
0.0001298143859871407 
-4.248895629817259e-05 
0.0001379405498147745 
-2.080136736721173e-05 
4.634840682842081e-05 
-7.728763037277649e-07 
4.412010697115927e-05 
-0.0003052602065384071 
-0.0002961556685524542 
3.688612745960901e-05 
0.0001435995297822922 
-9.644807949330191e-05 
-5.167822948934247e-06 
1.863924962604338e-05 
1.287493363384863e-06 
-1.32606155036053e-05 
-4.292594329903278e-05 
-3.486131236021602e-05 
0.0002441183864371433 
0.0002008285958787876 
-6.666611046908595e-05 
1.520361123024292e-05 
4.020282823798837e-05 
5.27443848316475e-05 
-0.0003153606998553729 
0.0001852248664645168 
0.0001237332717144254 
-5.498895951623705e-05 
0.0001989072711685501 
-5.454122131878178e-05 
-7.635088835520657e-05 
-2.124178327063892e-05 
1.508676068225712e-05 
-1.340799605141051e-06 
2.753053434626435e-05 
3.692857700308897e-05 
1.784740676307006e-05 
0.0001023280505406045 
-6.745798040113024e-05 
-7.652297519185526e-05 
-0.0003922079377784143 
4.675284026056978e-05 
-9.051373164807832e-05 
-3.323861026195941e-05 
-5.529952993739251e-07 
-4.780991929247141e-05 
1.7941258971007e-05 
0.0001062549651806919 
5.831961332283167e-05 
1.81038870800964e-05 
-2.569054198934641e-05 
8.418235948312673e-05 
-2.598432992296384e-05 
-6.862548800401358e-05 
3.717822282238435e-05 
5.507578230952414e-05 
-5.75064709185748e-05 
-5.452062783076855e-05 
4.835248958279259e-05 
-5.663518291365933e-05 
-6.323910844406546e-05 
3.750849534629407e-05 
4.964570506204824e-05 
-2.217895999254805e-05 
2.276537175281739e-05 
1.70352796807792e-05 
9.546160599937522e-05 
0.0002886524230549645 
-0.0002735064566264265 
-0.0001040356019531043 
-1.070981078410519e-05 
-9.598196127510049e-07 
-6.273101447766082e-05 
0.0002823318664754837 
5.190820152965079e-05 
-0.0002763974837546608 
-2.171626383745462e-05 
6.132348918359857e-06 
-0.0002271312612625512 
-0.0001063807685173684 
4.568883932104916e-05 
0.0003185318440401401 
-6.869018724796619e-05 
-1.478540348419808e-05 
3.330443418477839e-06 
-3.35207547777543e-05 
5.113970035774008e-05 
0.0001885439167374479 
-7.306879042155094e-05 
-1.218390780900365e-05 
1.65892476431801e-05 
-0.000251389010708873 
1.562805066195469e-05 
0.0001169048389465626 
2.994834000188799e-05 
9.518176192396014e-05 
0.000122172816203308 
5.013645152147229e-05 
8.317280706483592e-06 
-0.0001472080120262945 
-4.830826435943355e-05 
6.410017920816248e-05 
-0.0002193559264790586 
-3.218033519901176e-05 
5.083405352427074e-05 
1.360878069358701e-06 
-0.0001311107328400789 
2.538206855806712e-05 
-0.0001453558529418519 
0.0002498610637254235 
-8.373945459339214e-05 
7.082356402803929e-05 
9.071957632420757e-05 
-1.186367256012834e-05 
-0.0002637708476272522 
2.015832360858316e-05 
0.0003892035338547204 
-7.993074341453872e-06 
3.150611203693984e-06 
2.404396489860983e-05 
-5.323647778728827e-05 
-7.156222897200714e-05 
-0.0002040445199391816 
-3.833636183891931e-05 
2.119086213482305e-05 
-0.0001436825725469028 
-4.507694975060974e-05 
0.0002173609110034093 
-2.058504501875407e-05 
-0.0001911545197176155 
-1.867265091779467e-05 
-0.000128470374729307 
-2.01285614661087e-05 
-2.29350488447743e-05 
8.157843817448088e-05 
6.449960432450749e-05 
-6.536975560239506e-05 
4.849475441731106e-06 
-0.000108952520750414 
3.620903196368444e-05 
-9.503016895512568e-05 
-0.0001194605087845383 
-5.981324179518803e-05 
8.232121222093927e-05 
0.0004329777354099084 
0.0001573527082572098 
0.0001420541034643263 
5.476597742432353e-05 
-4.627144772520829e-05 
-5.928948655672419e-05 
0.0001343781527915555 
-6.005088755427946e-05 
0.0001261696741937779 
-0.0002343353617550392 
0.0001846879022733709 
5.67684559713579e-05 
7.884878074199818e-05 
0.0002166142007945337 
1.575246381145981e-05 
-2.205940123460887e-05 
-5.841393850602195e-05 
2.73494331651845e-05 
2.171126700357547e-05 
6.108717170186577e-05 
2.449654144485605e-05 
1.070539891649753e-05 
-3.251197449294177e-05 
1.223007381822862e-05 
4.201761175616279e-05 
-0.0001353772951887809 
-0.0002133043318365748 
-0.0001046886544830659 
2.088966283071644e-05 
-8.777696751827332e-05 
0.0001515284218768824 
