solver_type L2R_L2LOSS_SVR_DUAL
nr_class 2
nr_feature 26105
bias -1
w
8.108977153431709e-06 
7.236260297734465e-05 
-4.98129218929171e-05 
-4.29426014884234e-05 
-0.0001532142718173329 
-0.0001723016406076305 
-0.0002027044314324386 
0.0002582827853738613 
-6.433805862773778e-05 
6.072483515424194e-05 
1.825437700939656e-05 
9.925829677375485e-05 
-2.557331505709189e-05 
-5.023901106096329e-06 
-0.0001089517862081071 
-4.70986012722855e-05 
-3.14958547972371e-05 
2.446792985493563e-05 
0.0001443503088276646 
8.120676251104456e-05 
3.700350746367491e-05 
0.0001805839113587393 
3.031459154193444e-07 
-7.727622430037414e-05 
7.621075955135676e-05 
-5.080121500634068e-06 
-3.228808166588926e-06 
3.783886094013507e-05 
-6.17727569357961e-05 
3.560078970841611e-05 
0.0001268805267652395 
-4.252844130038953e-05 
-0.0005089894272887644 
0.0002206148473711236 
6.822472034670407e-06 
-4.674869700279659e-05 
1.914291529429154e-06 
1.515183063883697e-05 
0.0001482231945062176 
6.989476292846369e-06 
-5.127091728230214e-05 
7.943676044719832e-05 
3.421892243870058e-05 
-6.070458618939021e-05 
4.144650326678341e-05 
-3.643254718848042e-05 
3.690471596157438e-05 
9.578220554105789e-05 
-3.694543994913573e-05 
-1.414923118893304e-05 
2.567683053215598e-05 
0.0002170728741462718 
6.389018690109344e-05 
-1.158080827101821e-05 
1.839454077571918e-05 
1.750688761564153e-05 
8.946340162052558e-06 
-0.0002256164199612361 
-3.228863502901556e-06 
0.0001319740748482435 
-9.396469362112222e-05 
0.0001228240154503535 
-1.920573360282985e-05 
-1.685896458348859e-05 
6.255716027116833e-05 
-0.0001098950657460622 
2.908598684753528e-05 
1.311944126833168e-05 
-1.831955421064913e-05 
-1.981749983783485e-05 
0.0001143992264539224 
-5.782857603987913e-06 
0.000146121821640606 
0.0002105986268266467 
-9.285846931077977e-05 
-6.184964143544149e-05 
0.0001725578714916305 
6.28176178353458e-05 
-6.324883483897349e-06 
2.449913870362151e-06 
1.483242349607345e-05 
0.0002492015980075357 
-7.951116878395641e-05 
-0.0001046079548626228 
-3.245339213749356e-05 
-8.760929532296408e-06 
1.116862326428308e-05 
-7.447043740792063e-05 
5.672384591148248e-05 
0.000110609814414033 
-2.065100815154706e-06 
-0.0006223662147992129 
4.806286914431476e-05 
7.108194633102931e-05 
-3.245251111506066e-05 
6.424153483564574e-05 
-0.0001334248066441394 
1.67736314592973e-05 
4.041834161021456e-05 
0.000137808446593954 
-5.770554130129327e-05 
-6.381723860160796e-05 
-4.871671714468259e-05 
-1.496681842275496e-05 
2.076393561430602e-05 
-4.966764490520283e-05 
9.713584631001587e-05 
0.0001149853645396023 
-3.567695691828015e-05 
7.83572830421661e-05 
6.800805130693903e-05 
3.389444525161245e-05 
0.0001455079275818424 
-0.0001995377877808002 
9.081977470880048e-06 
-9.766484457016923e-06 
0.0001697877730967511 
2.316201808808815e-07 
1.222724011074496e-06 
-7.388928989965426e-05 
3.748697969850871e-05 
1.184922420614095e-05 
-0.0001460946947028824 
-9.048484344241508e-05 
-0.0001062864245218194 
0.0001823312460615898 
2.016786520511024e-05 
1.231720632923821e-05 
1.45195607321571e-07 
-0.0001407112691672329 
1.813441319975766e-05 
2.885696510594516e-05 
-0.000190438844989686 
-7.114232628312657e-05 
-2.035244201834349e-05 
9.349898051526149e-05 
2.388185547116181e-05 
-1.15223593005329e-05 
6.586493212076414e-05 
0.0001032857827054659 
0.0001690856279259241 
0.0002184869842696306 
-8.081154012496602e-05 
-3.345077782461003e-05 
0.0001777959255477726 
-7.963049185350743e-05 
-1.326853308414972e-05 
-3.307789748518048e-05 
1.436598235136933e-05 
2.871062203962858e-05 
-9.510234156666048e-05 
-7.844109263222186e-05 
-3.94180126910062e-05 
0.0001510180092137029 
0.0001592130509268648 
-0.0003163580780137501 
2.537680434553e-05 
9.795729369277799e-05 
-9.678415400551671e-05 
9.292637682918481e-05 
3.268824383049361e-05 
3.679507374384552e-05 
-6.65655336725214e-06 
-6.234559458027153e-05 
0.0001550524587844267 
-1.085033283079472e-05 
1.110408723307299e-05 
-1.223479267565768e-05 
-0.0001270550847810309 
-8.549731424767658e-05 
5.467161242786358e-05 
-5.950038914444304e-05 
0.0001591352190050314 
6.695167791690682e-05 
1.108100163477432e-05 
1.284871782101715e-05 
-0.0001766932850776906 
0.0001190161227333255 
3.623256841207034e-05 
1.016200019010886e-07 
4.676067795651444e-05 
2.922909517817701e-05 
0.0001348031656408919 
-9.631127738306493e-05 
3.811465323029929e-05 
-7.381170287409415e-05 
2.08224158212361e-05 
-6.316758848622232e-06 
2.804682619576553e-05 
-0.0001576471657317036 
2.902173578800548e-05 
2.053791901425706e-05 
8.186004696790158e-05 
-9.764481679013698e-05 
-0.000168284717505014 
0.000266470107901825 
-4.283166503799895e-05 
-7.180114973042015e-05 
0.000175403305063049 
1.214958564472289e-05 
9.012891258908487e-05 
-1.605676836450606e-05 
0.0001557335008395516 
4.39888789987623e-05 
2.996140554861124e-05 
4.271392851130126e-05 
6.301167529815715e-05 
8.029884317672882e-05 
-4.33819620762398e-06 
-3.38892093416691e-05 
3.142273688340043e-05 
-0.0001044169106647561 
-5.985893134031478e-06 
-1.455118530047721e-05 
3.333701003697866e-06 
-9.656705907546191e-05 
-2.474171326072825e-05 
-0.0003568472541832534 
4.22509493122767e-05 
-2.638977462864806e-05 
2.160830201512435e-06 
1.075952649028321e-06 
8.947973695735693e-05 
2.099685650533393e-05 
-1.462337081202853e-05 
-2.09061050972974e-05 
3.404089352573693e-05 
0.0001186599199335509 
-5.88950587051966e-06 
0.000180089588738327 
4.598039717165027e-05 
-3.544842097160953e-05 
9.275829365315645e-05 
-4.455218812284947e-05 
0.0001739753231625277 
-1.843194847282164e-05 
6.515064533646852e-05 
2.631345689116753e-05 
1.491960543536296e-06 
-0.0001836720178331182 
9.714639350943591e-05 
-3.100278220489634e-07 
4.834932016077778e-05 
-1.293365077447386e-05 
-0.000168424902393901 
8.232293214997137e-06 
-2.518278048401779e-05 
-6.848719083133982e-06 
-1.474839334795239e-05 
1.228852165331337e-05 
-0.0001079306616703955 
-0.0001487656646490897 
-8.76289889182046e-05 
0.0003099620910939986 
-0.0002068212819394397 
5.677417050183235e-05 
-4.592552547092237e-06 
-6.407102960312478e-05 
9.947302973110841e-06 
6.462186570758197e-07 
-0.0002670396749840449 
1.410456872502495e-05 
0.0003533857602341094 
-4.488257724258942e-05 
4.649040113631128e-05 
-0.0002143640574360885 
-2.297379965318435e-05 
5.972799440963472e-05 
1.322384636472664e-05 
1.662509206461068e-05 
0.0001672445094431118 
1.414755897287051e-05 
0.000181616571639296 
-0.0002029111560829589 
-9.43378609920101e-05 
4.79996544566817e-05 
-1.694498789096685e-05 
0.0001126233399143201 
3.743212243977567e-05 
0.0001307060393967213 
1.582929101912862e-05 
-7.404255050972053e-05 
2.673465743976656e-05 
-1.857540044458949e-05 
-9.209665969318398e-05 
5.864088907750261e-05 
-1.190256232040411e-05 
-1.029630813624661e-05 
2.87578671863058e-05 
0.0001140648397192176 
-9.101829915266529e-05 
8.220484127791638e-05 
0.0001962094471962189 
5.509182357479506e-05 
-8.681533808644433e-05 
-1.999528532538727e-05 
9.933007086685989e-05 
6.821817669994587e-05 
0.000227087306841562 
-0.0002216308162425032 
2.123289515675548e-05 
-0.0001898418693662579 
7.637305020839316e-05 
0.0001395909843221837 
-6.05947742168457e-05 
-2.170050927121163e-05 
5.5901482340187e-05 
-0.0001470443771603513 
7.115524714346268e-05 
-1.908698159189004e-05 
-0.0001064088104741822 
8.255666373023589e-05 
5.100638539569341e-06 
0.0001006343540481601 
-1.872462088772272e-05 
4.071151983617595e-05 
3.722327210458995e-05 
-0.0002294071689923067 
-9.671325399395313e-05 
-2.436773520323706e-05 
-0.0002239245833683901 
9.529221357760183e-05 
0.0001593991143134357 
-4.467467774340557e-05 
8.675313751680698e-05 
-1.48165514798585e-05 
-8.156747161465391e-06 
-4.005424910629314e-05 
-1.436232003041592e-05 
-3.071401420241337e-05 
0.0001299177914764003 
0.0001801979143805236 
2.924758113783374e-05 
-8.105712887899896e-05 
4.633303026461522e-05 
1.871473927369805e-05 
-1.231245113772675e-05 
1.525511740799414e-05 
-6.862633710173923e-05 
0.0003262684332156801 
4.970737791966722e-05 
1.924166428500351e-05 
-2.025623035015378e-05 
-4.741391727158205e-05 
6.524004889411421e-05 
-8.763647057510013e-05 
-3.108738655233717e-05 
2.739529523543829e-05 
1.466468374215649e-05 
-5.376977843271038e-05 
-9.250019769689921e-05 
-0.0002241704607239004 
-3.287539002371651e-05 
7.656113261691161e-06 
1.066888007361482e-05 
-9.284536743050113e-05 
-3.652540433716589e-05 
-1.504808347941984e-05 
0.0002485266235631329 
-0.000153025544836866 
-0.0001198931254503565 
5.863228287578336e-05 
-8.047777434263622e-05 
-2.101930644010729e-05 
4.080610489379466e-05 
-2.702406724023594e-05 
4.447733262792188e-05 
7.899233827214011e-05 
0.0002035688375521059 
-9.452637284870544e-05 
6.088828668474439e-05 
0.0001231072658498425 
1.473672575756288e-05 
-4.522058070079268e-05 
7.267676175419058e-05 
3.659374890818753e-05 
-3.932905473192387e-06 
3.35565892626473e-06 
3.914352497379009e-05 
3.866108376907256e-05 
-1.503032402091157e-05 
2.591923624054465e-05 
3.776311205483675e-05 
-0.0002406350305870377 
5.688676208951957e-05 
0.0001276281650863927 
0.0002796673736306848 
-0.00041107297711622 
-2.376057998192344e-05 
-4.547367333605257e-06 
-5.837457915827126e-05 
-2.97643122253325e-05 
0.0001338891470501663 
-3.583387048855931e-05 
0.0001605221696133748 
3.113170915331554e-05 
-0.0001213796258947715 
-1.173727661189148e-05 
-0.0001212913766258424 
5.770359723099279e-05 
-1.031313337344849e-05 
3.193598066010289e-06 
3.097465752615446e-05 
1.036413029299567e-05 
-2.109615326171362e-05 
-5.819379840441436e-05 
1.436542502059042e-05 
-6.735955493606896e-05 
8.981532568087905e-05 
0.0001860666348770491 
-1.12274748155067e-05 
-4.392992335131279e-05 
1.67498272485599e-06 
-1.426664157987178e-06 
-1.897967142957738e-05 
3.449930195104325e-05 
8.059385332365812e-05 
-6.834074278242073e-05 
0.0001031298284684673 
-4.647496092274981e-05 
0.0001031288060568103 
-3.434198862515145e-06 
-3.565703652041288e-05 
-7.017917019243558e-05 
2.684707689195961e-05 
-2.101419694972887e-05 
-2.41343849320361e-05 
9.875569120544821e-06 
7.546949131677917e-06 
0.0001500498801329697 
-4.293280316098276e-05 
-2.889067947408627e-05 
-0.0001049742061147755 
0.0001461861328102414 
5.570070937219956e-05 
-0.0002155976854313534 
-4.59357169492723e-05 
8.406943095307292e-05 
9.083820332359076e-07 
1.040176787551631e-05 
1.889792126132354e-05 
-0.0001961334618824739 
5.591595809549745e-05 
-3.440288343254883e-05 
5.619744414056636e-05 
-8.729944835643864e-05 
0.0001294471138966576 
0.0001545993932274058 
-0.0001106195440999833 
-2.585082331342945e-05 
-1.093026464714808e-05 
9.695905772403902e-06 
-7.946101367903335e-05 
0.0003141519837118094 
4.123000457458135e-06 
7.206246730825459e-05 
1.782909627310252e-05 
-4.630128125582342e-05 
-3.990387474581722e-05 
4.781925844006399e-05 
4.919370320378309e-05 
-0.0002076123132245258 
7.578640987399504e-05 
-9.04721628535828e-05 
-8.048884338082317e-05 
-9.891913137950192e-05 
3.527107328489421e-05 
9.994396450917108e-06 
7.284471294149746e-05 
-5.184916370390044e-05 
5.745125568106147e-06 
2.106103435683156e-05 
2.477616621431416e-05 
5.405067644278498e-06 
5.847918275236639e-05 
3.094763542574767e-05 
4.564519200212625e-06 
2.235128228267564e-05 
8.471600735875832e-05 
4.368502858967671e-05 
-0.0001953537858810153 
-0.0001235359510990973 
-2.462858485246241e-05 
5.658641128656972e-05 
0.0002313082750318957 
5.511468114110001e-05 
-1.285967285500685e-06 
0.0001411690592059246 
-0.0001067226121778059 
-7.62247307587201e-05 
9.66925341014341e-05 
-2.76355863448392e-07 
-6.625192929958134e-06 
-3.210316131061211e-05 
5.207274246156645e-05 
-3.273032661884273e-05 
4.972489932697774e-05 
-3.20843206840572e-05 
-7.787689598417883e-06 
4.018516567605327e-05 
6.284386095801988e-05 
6.692633031283129e-06 
-1.739485217172865e-05 
-1.054623050142278e-05 
2.261557179990626e-05 
2.158146746739257e-05 
7.558320791691108e-07 
-1.327743076113523e-05 
1.185610786503174e-05 
2.328908643124034e-05 
-4.451573287799785e-05 
2.069923833623408e-05 
3.187278999552434e-05 
5.588496962558239e-05 
-1.075207217984496e-05 
-1.429014466567163e-05 
2.775768428787772e-05 
0.0002429546953934275 
-5.35891806148193e-05 
5.935931390663605e-06 
-5.262108280974413e-05 
0.0002133059710098191 
-2.947201158310787e-05 
8.868551801630674e-05 
-8.538007207080929e-05 
1.402129208789575e-05 
-2.96919087282802e-05 
-0.0002726868552497339 
2.376157364456192e-06 
3.231611932931164e-05 
-4.645925448532863e-05 
-9.702245095725429e-06 
3.202609504301992e-05 
1.05368886734763e-05 
-6.642702526660732e-05 
-0.000123502201424435 
-4.210932536157786e-05 
-0.0001521020397867603 
-7.855692529597395e-05 
-3.347005069802304e-05 
0.0002343059562815889 
0.0001101053970809534 
8.570579131511572e-06 
0.0001582509914326027 
-0.0001387589232257905 
7.106449974483965e-05 
-7.324898748688086e-06 
4.822553832740271e-05 
-1.672559484851625e-05 
6.975435723393225e-05 
4.540386622076632e-06 
-3.297642442567733e-05 
4.351140072610854e-05 
-4.052786539396189e-05 
6.3670661889692e-05 
-1.204473424942739e-05 
8.398820581381286e-05 
7.193584030068351e-05 
-5.421947714542712e-05 
-2.332884150597738e-05 
0.0002759027765394381 
-1.480202061693632e-05 
0.0001866535056870159 
-2.249014721878354e-05 
-5.058104474481973e-06 
-0.0001691920229639531 
3.24908149662866e-05 
-1.154199280881112e-06 
7.016651100972038e-05 
8.696287439120918e-08 
-0.0003374944610651283 
-1.929930893182969e-05 
0.0001024339335883588 
-5.148546365320217e-07 
-6.383024897411899e-05 
3.411373209929012e-06 
4.639096532333943e-05 
-9.794494174603438e-06 
-1.620566035353785e-05 
-1.141201994223148e-05 
1.064902129173697e-05 
5.103638057362967e-05 
-7.285010820609058e-05 
8.810233239841307e-05 
-2.357860625186838e-05 
1.40016814304316e-05 
2.605114734437313e-05 
7.847733053666163e-05 
-2.667546572986476e-05 
-1.738980127252046e-05 
4.363450423111561e-05 
-7.400495918115536e-06 
-1.667192383435193e-05 
0.0001566477778158565 
-0.0001101930827875927 
-1.874669872930279e-05 
-1.569759261194593e-05 
-6.872407570079673e-05 
-2.174712535216718e-05 
0.0001329673329688332 
-2.581967787255922e-05 
-4.41911397877934e-05 
7.342374061855176e-05 
1.05536414413324e-05 
4.533144752045067e-05 
2.264651351448947e-05 
-3.652735862605858e-05 
-8.819384903024064e-05 
-2.787863847385023e-05 
1.554127194047128e-05 
-4.915788076707453e-05 
-4.5760432276366e-05 
-1.974542588909543e-05 
-5.55281847414473e-06 
5.100091688996843e-05 
0.0001011974141751348 
-7.498325055715785e-05 
4.479544052020528e-05 
1.387530339739332e-05 
9.459460958496388e-06 
0.0002021304808984503 
-0.0001614176532503657 
0.0001357381830515848 
7.869033334849928e-05 
-2.571916698124166e-05 
0.0001193187020956169 
4.308681136064536e-06 
1.023266799859e-05 
-8.257840154777066e-05 
3.946531873347305e-05 
7.310642009932353e-05 
-7.474249948382899e-06 
0.0001003743077395682 
-0.0002366716336300763 
-5.21569941838463e-05 
-7.19676231240557e-05 
-4.176845840082883e-05 
1.761286832119198e-05 
8.933409054093041e-05 
-3.5254593513132e-05 
-4.288086490558398e-05 
1.606593585272907e-05 
-4.129474055221964e-06 
-4.062713200338546e-05 
1.818235963661693e-05 
5.008433404816493e-05 
2.744794896523428e-05 
-5.255852245142383e-05 
0.0001175775317125057 
-2.798458015894435e-05 
8.448092319413298e-06 
-4.885206010658508e-05 
6.211904488595211e-05 
0.0001654178162848834 
-7.043746518044634e-05 
2.539666216988951e-06 
6.339623180947831e-05 
-3.613107456032723e-05 
-0.0002059777664659848 
-4.828590509467284e-05 
0.0001318984109851991 
0.0001483024377370779 
-0.000130106871757682 
9.536367511750865e-05 
1.546073233837818e-05 
0.0001551168395474739 
6.674845781635589e-05 
-0.0002867665248957966 
2.766797344637358e-05 
8.267042763618763e-05 
-5.693182450477971e-05 
-3.474320938811098e-05 
-6.115747572748262e-06 
0.0001162119030716065 
0.0001577450578519552 
-2.353248347478201e-05 
-0.0001677595211484243 
4.096108975121328e-05 
-0.0001371063764909527 
3.111095791533041e-05 
0.0001077523297587181 
4.324531264533644e-05 
6.662669619853304e-05 
2.715789551322334e-05 
5.301657774992959e-05 
-4.467829240266668e-05 
-0.0005078189919130542 
0.0001180509092366243 
-6.678972339283007e-05 
-0.0001206144117129571 
1.694106355001093e-05 
-2.672552477486315e-05 
1.131717318989487e-05 
-2.17085849835061e-05 
2.927500604449706e-05 
-7.437011800920832e-06 
3.827766305028288e-06 
-6.158283875220554e-06 
3.970086674665648e-05 
-1.893779971244041e-05 
0.0002025407791682973 
1.44330461564054e-05 
-1.256598445469554e-05 
0.0002561289476843734 
5.779560928150034e-05 
2.168525215079121e-05 
7.488789384906649e-06 
2.466957418206761e-05 
2.469249115756299e-06 
-5.774443715136817e-06 
-1.485029490785214e-05 
6.135270110785274e-05 
0.0001274256731138562 
-0.0001119583079475278 
8.463206468509921e-05 
-1.804498882197665e-05 
0.000125257099967938 
4.286729269600945e-05 
2.318852108959245e-05 
-0.0001086006869878213 
-0.0003580396046338442 
0.0001991200272107555 
0.0001009880286719318 
2.864694017676633e-05 
-1.86502686257437e-05 
-1.639743559448388e-07 
5.690555174099296e-05 
-3.761396996056452e-05 
-0.0001237025455698912 
-6.117309253160718e-05 
-9.135682607909579e-05 
-7.876237854731773e-05 
3.427257166949482e-05 
0.000166869355137947 
4.886495986262781e-05 
-1.771323773398705e-05 
-5.823570922672079e-05 
3.903846320492387e-05 
0.000145041669726927 
0.0002078095513653301 
-0.0001197027713595125 
-0.0001779609947890154 
-8.814767694229983e-05 
-2.850856595377772e-05 
-3.130536011556648e-05 
2.148563051871755e-05 
-6.382359035498131e-06 
-1.701513049092222e-05 
3.252113423371678e-05 
4.982321705374249e-05 
-0.0001431300166079661 
2.083921867029516e-05 
2.897781693569465e-05 
-2.419408994803198e-05 
9.27230586881178e-06 
4.290004163413195e-06 
2.90040171358116e-05 
7.54399587549858e-05 
0.0001039995596925558 
2.458544656894358e-05 
-4.339169707537652e-05 
3.239859168148249e-05 
-5.168003127245586e-05 
3.815319113307144e-05 
6.959920262540873e-06 
5.0973010464907e-05 
7.066576197951619e-05 
-3.352942577067035e-05 
-3.057519925331361e-05 
3.641475540596941e-05 
8.746123231684626e-05 
8.434982295466308e-05 
5.850482706546515e-06 
-5.51140863278762e-05 
5.81505202454665e-05 
1.548919958735471e-05 
-4.891322305773828e-05 
-4.575895133791709e-05 
-5.042345425529653e-05 
-1.843783837982558e-05 
5.192700944780508e-06 
-2.730409107114979e-05 
5.369826345611323e-05 
0.0001155047723999697 
-2.900113900466097e-05 
2.317014697706719e-05 
-5.216147288935415e-06 
1.057497155157085e-05 
2.245477846012934e-05 
7.57339380634711e-05 
3.391496128007773e-05 
-7.909642605991655e-07 
0.0002255284143426778 
-0.000246020409202022 
-0.0002099719869061361 
0.000145208605915906 
2.534375851421292e-06 
-8.354958931879784e-05 
1.607325567360573e-05 
1.8665223582085e-06 
2.769160318175288e-05 
-2.668633786456289e-05 
2.418952737593558e-05 
5.19553882857967e-05 
-1.555961545701279e-05 
2.252709051259633e-05 
0.0001119910995258636 
-0.0001640308768424418 
5.502380595685257e-06 
0.0001996542491867098 
0.0001537605516305887 
-0.0004491263417795342 
-0.0001313293355625632 
0.0001270821386556996 
-0.0001017885637466482 
-4.88411669082218e-06 
-7.281238807500149e-05 
0.0001433072849176038 
0.0001188412092325708 
-6.295392875013349e-05 
5.966933671752762e-06 
-1.07252958434394e-05 
2.973268778249358e-05 
-3.939803931180788e-05 
4.358674250450796e-05 
1.425819437040316e-05 
-4.447660872786065e-06 
0.0001051164840509178 
1.98476178471063e-05 
0.0001636429221542756 
-0.000122658526042207 
5.841562184275556e-06 
-2.392623707537106e-05 
9.078034023266039e-05 
4.245906325246535e-05 
1.844523224459754e-05 
8.8289862295962e-05 
-0.0001598711489380278 
-0.0002461124194920528 
0.0001408978019973402 
-2.452303018135913e-06 
-2.839012668064905e-05 
8.289203186128758e-05 
1.900537830053108e-05 
-1.615165075195371e-05 
-9.340405032191246e-06 
0.0001551097780245477 
-0.0001123589563249736 
-2.472418387638321e-05 
1.284792526212596e-05 
2.164756455051796e-05 
-9.081935382029438e-06 
-4.205152958729307e-06 
4.018131757543534e-05 
0.0001080022043979855 
2.835933090490511e-05 
-2.174673622398651e-05 
2.787482798036846e-05 
1.265695260527873e-05 
2.590054602177502e-06 
-4.93338624910174e-05 
-6.061908806812518e-06 
-3.354897077789144e-05 
2.336097256959502e-05 
-6.411056612354638e-05 
2.780842231189236e-05 
0.000106054636139028 
3.014093026980093e-05 
8.288067012818128e-05 
-3.294425247095343e-05 
-4.989969724803731e-05 
-1.703979700178229e-05 
-2.017655442902504e-05 
-1.997827821649928e-05 
0.0001245829019027124 
1.6293340571005e-05 
-5.862547125357714e-05 
4.40355288689851e-06 
1.581684999893784e-05 
-2.518996669514957e-05 
7.404732887178781e-05 
0.0001116143677295357 
0.0001270337563438936 
-8.663483661196131e-05 
-0.0001897812267768761 
-4.454898596587061e-05 
0.0001645511635742787 
-6.780768260382097e-05 
5.07181364520004e-05 
2.859011748814999e-05 
2.273684966299543e-05 
-0.000191909384150181 
0.0001412457003822348 
-1.592037721913754e-05 
-9.334441372871265e-05 
1.748740660937244e-05 
3.00730888968773e-05 
-3.80422427711107e-06 
-3.543522059080052e-05 
2.353779985995402e-05 
3.015024243914132e-05 
8.052018912228471e-05 
0.0001688235904606571 
-5.831277834934763e-05 
-1.151602931944334e-05 
2.945700589645452e-05 
4.248670041122153e-05 
-6.554194539486428e-05 
-6.25778473302367e-05 
1.005681570990403e-05 
7.320731847912311e-06 
5.262697095920929e-06 
4.123640471030661e-05 
-9.234188380892987e-06 
-3.789342213623829e-05 
-8.565663099481709e-06 
-1.325197537251522e-06 
-1.139574773694498e-05 
-2.882850765114056e-06 
-1.162648862261441e-06 
-0.0002725105464528591 
2.850806584397372e-05 
-0.0001240711500051849 
2.83259351915647e-06 
0.0001233818377450349 
3.569050362462896e-05 
-0.0003029051746696082 
0.0005178910085517875 
3.300846787762643e-05 
3.100189547494381e-06 
-5.455476931592361e-05 
-9.391019511620333e-08 
1.028465841646737e-05 
2.35949305111159e-06 
-7.211927610554535e-05 
0.0001451999174675267 
-7.986163615623864e-05 
-4.227299378120773e-05 
5.479010682305634e-05 
-3.025910465849866e-05 
-0.0003430375976372321 
5.535636596089977e-05 
0.0001991374297364429 
2.229244715798144e-05 
8.075564262729623e-05 
-1.388038931337192e-05 
-6.837990731779231e-05 
5.013096238243843e-05 
-1.843128519681837e-06 
-3.787083112970614e-06 
-2.349872844858166e-07 
4.311584529390146e-06 
1.615291290763729e-05 
-5.912275749221073e-06 
0.0001055064678926361 
-3.663286658207504e-05 
-1.566600985382705e-05 
1.589775857175443e-05 
0.0001400935812020689 
-1.747409741061142e-06 
6.369455143376229e-05 
-2.607032864044785e-05 
-9.938070982866764e-07 
2.426599061948826e-05 
2.239353887873673e-05 
-1.520366974439177e-05 
4.723012306721947e-05 
9.474635609738617e-05 
-3.787083112970614e-06 
-3.435103571998459e-06 
-1.498064029244271e-05 
-3.935383662444855e-05 
3.087652575783144e-05 
-6.290880256064359e-05 
5.467522283630215e-05 
7.257792778752023e-05 
-1.121583929053824e-05 
-8.724790178542698e-07 
-2.704434776004102e-05 
0.0001572147166568171 
4.780774837068526e-05 
-3.552086395601369e-05 
0.0001708276963584968 
0.000107630832027003 
-0.0001420035026535641 
-0.0001799923271470837 
8.077379937917493e-06 
-5.5495748226489e-05 
0.0002374063578088765 
1.047079715217646e-05 
-0.0002604424224955111 
-0.0001024803217699153 
1.791597131647709e-05 
3.264047493599801e-05 
2.440686765949864e-05 
-7.630482776493103e-05 
0.0002010387061390416 
3.371954981713011e-05 
-5.930098996913884e-05 
-3.958448486111064e-05 
-3.98132194282566e-05 
-8.184299595570046e-05 
0.0002093355630454182 
-0.0001305361419835376 
-6.201909003555497e-05 
-2.605267051570721e-05 
0.0001054800135095925 
-3.780199296456601e-05 
-5.042654189098743e-05 
2.814751729130252e-05 
-1.204527438153891e-05 
-3.543939703122331e-05 
-5.142138408517106e-05 
3.237152342723346e-05 
-2.415124637272467e-05 
-2.153895120784651e-05 
1.506390681077601e-05 
8.916895618994634e-06 
-2.586601625544479e-05 
-8.186239340701015e-06 
8.414700539238217e-06 
3.175741672603207e-05 
8.417018220503798e-05 
0.0001170468158299459 
7.237935411504623e-05 
5.654313803195981e-05 
-2.099360181376409e-05 
-1.261641615159611e-05 
2.770108832187913e-05 
-2.773229046852369e-05 
8.952298884185317e-05 
4.729397504688776e-05 
6.950486371005076e-05 
-0.0001087179263642791 
7.884744962213324e-06 
6.18336274408465e-05 
7.41264182140024e-05 
-5.953897448644369e-05 
5.031572161457882e-06 
-5.797343472583558e-05 
0.0002081667811417566 
-0.000100727003825347 
-7.240558267650172e-06 
2.50371037148379e-05 
3.134525180378641e-05 
-9.089036466921779e-05 
-0.0001009193173601081 
-0.0001489697964777806 
-3.212288150422144e-05 
4.574417558712424e-05 
1.31236654741403e-05 
0.0001308876546128679 
1.151810829699283e-05 
-9.223249179549878e-05 
7.700598301222397e-06 
4.34245889589135e-05 
-0.0001193306582605134 
0.0001463916043500108 
5.863949125992198e-05 
-3.194572921996284e-05 
-2.912990994962574e-05 
1.913988280842795e-05 
-6.163768635699489e-05 
5.802012958664701e-05 
-1.071653716426463e-05 
-6.548528672545354e-06 
1.300917869437492e-05 
4.965392396887682e-07 
2.73180549836631e-05 
-5.616613792097005e-06 
9.460420252700755e-05 
-2.488323649486844e-05 
8.388283518567345e-05 
-0.0001563466926230879 
0.0001044848388414957 
-0.0003604655339980788 
5.801683559884531e-05 
3.533858876707645e-05 
-0.0001871914763534847 
4.105398038403813e-05 
0.0001565667842416925 
8.583168333329751e-05 
5.669922892159226e-05 
4.024530990471105e-05 
-2.331994183711403e-06 
6.370528780703051e-05 
2.772055270799319e-05 
-6.925771246380504e-06 
-0.0003982152545411625 
0.0001087981703969149 
-6.170748600211278e-05 
6.40435711010627e-05 
-2.774647559573095e-05 
0.0003682554409933786 
4.729626019148994e-06 
2.713938807000364e-05 
3.250732029906329e-06 
-3.046933618146362e-05 
-4.114247212154885e-05 
-1.964538188276222e-05 
-6.66749560870306e-05 
-1.724669436407387e-05 
6.48042929390504e-05 
0.0001133402741648852 
-0.0001026266430667136 
1.703654004456691e-05 
8.279538533909608e-06 
-6.82377927963188e-06 
-1.015508123004422e-05 
-6.558948221117834e-06 
-7.030700812015242e-06 
-6.4103399756514e-05 
-4.626863180231322e-05 
3.483093059539864e-05 
0.0001069190077609891 
6.414526975879595e-06 
0.0001102764769882406 
-3.667949229350398e-05 
5.967967926293156e-05 
1.339117818905178e-05 
5.079469457815036e-05 
-2.223043707319211e-05 
-5.029230046469386e-05 
-8.780344139463398e-05 
-1.645306808961016e-05 
1.571305409079296e-06 
9.499908055729095e-06 
9.822919928395333e-06 
-6.396493252318846e-05 
9.358596737406439e-06 
-2.536286403912177e-05 
1.563632051698375e-05 
-2.068509514642715e-05 
0.0002149943071839112 
-1.475281259490126e-05 
-1.187651113809793e-05 
-2.54182831685104e-06 
-4.019090031941852e-05 
-0.000647163807531422 
-9.828183829856955e-05 
2.588123000782663e-05 
8.179846647695459e-05 
0.0001542614277731622 
0.000199379085611219 
-2.152257663902844e-06 
0.0001148917509728035 
1.158337256341038e-05 
0.0002791311405161989 
1.098688376603643e-05 
6.079803243606931e-05 
7.25395924882613e-05 
-5.108229959998919e-05 
1.453228088752269e-05 
-1.06543683526731e-05 
9.315784810158938e-06 
0.0001196817311554264 
6.636899195376126e-05 
3.508245347332333e-06 
1.960120960900882e-05 
-5.515630275926404e-06 
-2.81564354684471e-05 
6.425844865117921e-07 
-7.338010412394534e-06 
9.961578689857194e-05 
4.392943634277212e-05 
2.152826079464476e-06 
-6.774326654297274e-05 
0.0001354597967074552 
0.000215001330026827 
3.670929853751934e-06 
8.190539448319234e-05 
9.257592464381907e-05 
-0.0001727557053968268 
-0.0003134295009919893 
2.204134059326443e-05 
-3.413093600816435e-05 
3.201516628593748e-05 
-2.648558434245638e-06 
-1.337579900350862e-05 
6.561978339549557e-06 
-3.076675623676791e-05 
-4.142986419352798e-05 
-7.321215300247281e-05 
6.708866431626946e-07 
-2.838492138641678e-05 
2.673681654015376e-06 
0.000343333070951188 
-1.530343563485185e-05 
3.290891864823602e-05 
1.123228983898592e-05 
6.59940135126395e-06 
5.585508918713669e-05 
-3.120574562156239e-05 
4.694278525420397e-05 
2.383688933518684e-05 
-4.359836337473874e-05 
5.780141162045034e-05 
4.002004184508715e-05 
-9.986544809515546e-06 
3.731301025985169e-05 
1.915258519911622e-05 
2.283674561951678e-05 
-0.0001266770072910795 
6.066018808203053e-06 
2.305959855341145e-05 
-1.361901515194072e-05 
-0.0001466988363690552 
-0.0002687129743018056 
0.0001570143323378899 
1.01698589057592e-05 
3.902375701552315e-05 
-4.240157716288848e-05 
-8.274114426209119e-06 
-7.66799461429569e-05 
2.54069262125437e-05 
1.839070990302931e-05 
0.0001098527693007152 
-0.000163269786661656 
-0.0001153200781383305 
-5.876010730441666e-06 
-7.892678084912787e-05 
8.016941545725525e-05 
-0.0001218873955486487 
-6.775386459634444e-05 
5.894752023435648e-05 
2.273665097785699e-05 
5.653328026544926e-05 
-3.640732863487939e-05 
-3.808207980674234e-05 
0.0001151803809750714 
-3.559842241464431e-05 
-1.006931782750059e-05 
1.059439864177736e-05 
-0.0001263564732858808 
0.0002740988942900894 
0.0001554037337936369 
4.676569883223865e-06 
4.782266033737455e-05 
1.598189028036941e-05 
6.094086398854593e-05 
1.112312532938933e-05 
9.392329933622817e-07 
4.616797005075947e-08 
-5.835930416309235e-05 
6.101385118074203e-05 
-1.704838532080666e-05 
-5.854436886818214e-05 
1.553283177458686e-05 
-9.514776924366146e-05 
-7.204401061548118e-05 
5.174427439761944e-05 
-6.651457782276732e-05 
3.450056685854581e-05 
-0.0001232734311144229 
4.583623110078682e-05 
-1.908802432226372e-05 
2.372816384908832e-05 
-4.492515408009024e-07 
-4.004984589368742e-05 
-3.81585206706413e-05 
-4.019351281938827e-06 
3.300514616446932e-06 
3.04300077311897e-05 
0.0001230619857074819 
-5.502354628155955e-05 
8.807749316283835e-06 
4.810224750853836e-05 
0.0001209908309787337 
-3.711151754470649e-05 
1.070636021734365e-05 
1.503398065543909e-05 
-4.8742435590776e-05 
-1.129386356918894e-05 
4.044365126219622e-05 
-1.453194119806035e-05 
0.000151858517996961 
3.544266727925076e-05 
-1.903854010133794e-05 
6.413014488680047e-05 
4.46337325616273e-06 
-1.513430242058468e-05 
-8.183590048255157e-05 
-0.0001132299143697175 
-3.035581216579914e-05 
-0.0001614750510486935 
-9.256683936231123e-05 
0.000131833910878037 
-4.072540371514125e-05 
9.56269157519629e-05 
-6.532023998698045e-05 
-0.0001932587515330006 
9.329889760972953e-05 
3.163135082010825e-05 
0.0001353297327128664 
-8.935766392950453e-06 
-8.720197016372822e-06 
-2.215933561072601e-05 
3.380101272362355e-05 
0.000129972150236389 
-1.391708246918275e-05 
-6.128879022614861e-05 
1.938887964937831e-05 
0.0001702600490045628 
0.0001338019874161888 
2.834590952135569e-06 
3.379660344486933e-05 
-2.058695472540359e-06 
5.55190900024236e-06 
7.812038901814794e-05 
-3.967958913826791e-05 
2.730679441794397e-05 
-3.798861397642915e-06 
-2.555073872140875e-05 
3.156248998165044e-05 
-2.839410327945027e-05 
7.700333766169847e-05 
-6.759963684893793e-05 
1.542537821240559e-05 
-3.934295587859161e-05 
-2.746289586975773e-05 
1.762390375744258e-05 
7.758438813745564e-05 
-2.259373556272292e-06 
0.0002718304339332376 
-4.147678536698177e-06 
-0.0001856992175286789 
-1.139934971739278e-05 
-0.0001898660094855626 
-1.909748689990372e-05 
8.240471665154629e-05 
-2.185407078555269e-06 
9.822615010435987e-06 
9.083820332359076e-07 
-5.117857148416369e-05 
5.394540112375375e-06 
-7.31703548234628e-06 
3.631134430723427e-05 
-0.0001187417011253644 
0.0002239430542053996 
2.070501421075551e-05 
8.215193070782375e-05 
3.703628714802362e-05 
-4.137101375006063e-05 
-9.095230988065792e-06 
1.504235676812109e-05 
4.098722561774408e-06 
4.038804924246644e-05 
3.4639457665077e-05 
5.731052229916833e-06 
-6.411310151693345e-05 
-5.781889373923775e-06 
2.972120535046341e-05 
-2.934022916976461e-05 
-1.287437576760567e-05 
-0.0001961705881656378 
-1.354855561619245e-05 
-0.0001171610724239164 
0.0001453322526449406 
-5.747832274710821e-05 
0.0001855061604097497 
0.0001107619586083695 
4.480548154415391e-05 
1.096869889171813e-05 
3.209691018112121e-05 
-0.0001432394251171373 
3.981317442204584e-05 
0.000165016737144744 
-1.86579916955011e-05 
2.691189766438602e-06 
3.005111536346661e-06 
1.009955485442677e-06 
-8.16063530756284e-06 
-4.809017005078875e-05 
-4.020786114828996e-05 
6.138561546311463e-05 
9.173113624385452e-05 
5.827922288998558e-05 
-4.698071539215593e-06 
-2.512418427451232e-05 
5.401076124852107e-05 
-6.888309227873527e-05 
6.398900627021284e-05 
0.0001356186322488334 
-1.71862043561519e-05 
2.104083645751918e-05 
1.40970646778229e-06 
7.244065245396586e-05 
-3.603552993137603e-05 
6.200001556586808e-06 
1.153833203950927e-05 
2.121438413440429e-05 
-2.087976225288342e-05 
4.368227345185853e-05 
-4.62543320999699e-05 
-2.378931442087672e-05 
-1.896399866504159e-05 
3.413283339976941e-06 
0.0001799249539324261 
-6.717993043033112e-05 
-6.347979778386869e-05 
-1.979324279664005e-05 
-5.341031087367738e-06 
-0.0002223675724530852 
-7.080049467899627e-05 
-1.789295941096917e-05 
9.779208590397718e-05 
3.447889064818243e-05 
2.099155461024463e-05 
6.404439705690684e-05 
2.727919091631681e-05 
1.048911570858774e-05 
-5.914423029860882e-05 
8.70967103423186e-05 
0.0001498247439436441 
-6.004753787678313e-05 
-6.519783430280721e-06 
-3.022985366357808e-05 
-4.395745030401071e-06 
8.259058381981297e-06 
2.720909795087591e-06 
1.051621799594654e-05 
0.0001012891953848544 
2.305097306167501e-05 
7.105544024842469e-05 
-0.0001347713032485524 
0.0002296486815680916 
-8.862997392673666e-05 
-9.25135641664763e-05 
-6.691462490352772e-05 
3.696238519265104e-05 
-9.241509854627226e-05 
-5.373946502914035e-05 
-1.061441684459754e-05 
-0.0003007935145019507 
-4.713032934814282e-05 
-0.0001891130537780417 
0.0001539151962530574 
0.0001387109294180955 
0.0002692124355427807 
8.255640749568337e-05 
-0.000111878709836356 
1.645734252393092e-05 
6.198489803951909e-06 
-8.581317042309396e-06 
2.587168889635046e-05 
-1.46088102740374e-06 
1.994541525755525e-05 
-9.277171112682083e-07 
-1.580163543854683e-05 
4.751005006956208e-06 
-1.085227219316791e-05 
-5.870285186304185e-05 
-1.178058876939959e-05 
0.0001053464436021363 
0.0002065976803099557 
-0.0003191906167905697 
-0.0002169636887984858 
9.482599274667663e-05 
8.217090124965499e-05 
-0.0001831124529021938 
1.847894795723241e-05 
0.0002312976356276927 
0.0001035857821661743 
4.145594336471446e-05 
-2.939828201936907e-05 
-4.226157479526511e-06 
-2.292076499882211e-06 
-3.75259068779218e-05 
6.121449526186601e-05 
9.173242728555782e-05 
-1.169680307907113e-05 
4.540186502607359e-05 
-3.126555092784847e-05 
-3.220867201834415e-05 
4.228664954611793e-05 
5.757548433608342e-06 
1.837682766509523e-05 
6.567739882403589e-05 
-8.707191566042285e-06 
5.491189526983136e-06 
-3.535362056336836e-05 
-1.584672185241531e-05 
2.956424952799622e-08 
8.314364088088818e-05 
6.152385754276289e-05 
-5.008853650478854e-06 
-2.6001965768067e-05 
-9.784579323269605e-06 
1.669446913769906e-05 
-2.985399261388931e-05 
2.570866691475769e-05 
7.206049423952018e-05 
0.000154221585302511 
-3.66643676948791e-05 
-0.0001054734833370002 
-0.0001811531475699996 
5.111773909445407e-05 
-4.248051184473926e-05 
0.0001318469678132974 
7.864599606416191e-05 
0.0002002939314498356 
-0.0003537324805372223 
2.335138838381023e-05 
-3.850735820101766e-05 
-9.909884039439025e-05 
-1.830738508145864e-05 
-0.0001418596724882647 
9.248744229412877e-05 
4.18201788382756e-05 
-0.0002243377620550915 
6.659022687372824e-05 
-4.217287473834061e-05 
0.0002335566495269778 
-2.606380375609559e-06 
0.0001488005570432053 
6.551762477229337e-05 
-2.683279185976723e-05 
-2.329150557842897e-05 
-7.345090950080921e-06 
-1.253625435398158e-05 
1.947650255647338e-06 
7.130370344225401e-05 
-1.667234121057076e-05 
-7.662407790720112e-06 
-1.946783071566629e-05 
4.469699372963973e-05 
0.0001013696321493656 
2.109357162815237e-06 
-1.556027093122332e-05 
6.476823922040777e-05 
2.189319397567218e-05 
-1.946144247383845e-05 
-7.151898050671615e-05 
3.198011337427721e-05 
-3.350773212594629e-05 
3.625065583356019e-05 
8.047030322453024e-05 
-0.0001017225234224673 
7.436028382099841e-05 
-4.522486937743424e-06 
-6.909903824536227e-06 
1.023169204005168e-05 
3.565433130049513e-05 
-6.772375908122831e-05 
-4.686651646687367e-05 
-8.878355193394911e-05 
4.943601624181139e-05 
0.0001214589550370918 
-0.0001372376455212842 
1.027627288588594e-05 
-1.267774673163847e-05 
1.532697069288656e-06 
6.116797354196067e-06 
5.602916501035391e-05 
7.776062733742489e-05 
-5.677212650602362e-05 
4.801128515971904e-05 
-1.79330897001712e-05 
4.140226921584978e-05 
-2.292498281855261e-05 
0.0001067901807051286 
-6.349356604400548e-06 
-6.898557955981109e-05 
3.665560920180594e-05 
-4.132012252968441e-06 
-1.073712378654953e-05 
2.993590453758253e-05 
-9.744769901375353e-06 
-4.065505700736374e-05 
-0.0001180829515184691 
0.0001454903101908333 
1.024573590875121e-05 
7.319093360640598e-05 
-3.466343898092938e-05 
-6.278411073542625e-06 
-5.472090353739786e-06 
4.037943734265905e-05 
3.10598351023943e-05 
1.975615736647878e-05 
0.0002347113430272237 
-0.0001264653232855234 
8.404902091205855e-05 
-1.583961317421678e-05 
-1.119060786631075e-05 
-1.881066216349496e-05 
2.202978426728386e-06 
-0.0001245982198626387 
-1.183535283942863e-05 
5.457665932438045e-05 
-1.494099599190366e-05 
3.357688815379629e-05 
3.150270540009112e-05 
-0.0001776290064245921 
-1.719910033988408e-05 
-5.035710136406246e-06 
-6.888959517000396e-07 
2.274477780288375e-05 
7.57564589250033e-05 
4.798160620940779e-05 
-0.0001561869475487107 
-4.870631991672404e-05 
-0.0001558810147134372 
0.0001612194137064329 
-2.692665691817087e-06 
-3.924330564432562e-05 
-2.70584808671009e-05 
4.348425704046823e-05 
2.584169711005926e-05 
-3.147547180339456e-05 
-7.499953767153184e-05 
1.682262849551365e-05 
3.085296212919378e-05 
9.883717509137524e-05 
2.949851703540595e-05 
3.750378431637402e-06 
-8.678345152415826e-07 
5.206509108331383e-05 
8.094825334034615e-05 
2.08538821199986e-05 
2.105727245499262e-05 
4.556972958787342e-05 
-1.216029847891883e-05 
0.0001299848728677597 
0.0002327650699722397 
-0.0001218521408799868 
-0.0002812966732023601 
-3.066363259411137e-05 
4.57562923078002e-05 
1.054513256832115e-05 
6.255922601737931e-05 
3.876711299512376e-05 
8.500969288373571e-05 
0.0001272519100981728 
9.212914364694843e-05 
8.917223137975892e-05 
2.547650090487225e-05 
-0.000204481432849918 
4.273516835440121e-05 
-9.622965535746305e-06 
4.271620588307444e-06 
-7.291569790918178e-05 
-1.233351703089475e-05 
4.837028155860675e-05 
0.0001521886877881195 
7.081597740439146e-05 
-0.0002199655644553938 
2.456964482341006e-05 
0.0001057312702438618 
-2.333326553538236e-05 
-2.956972256453562e-05 
3.399207013367681e-05 
2.828374384173724e-05 
-1.455911052624081e-05 
-4.036042641737248e-05 
-0.0001085068693050368 
2.086115039492133e-05 
-1.712597563768008e-06 
0.0001429760900099673 
-0.0001154054829282085 
-2.55430829300399e-05 
5.022961201864058e-05 
5.203265984555858e-06 
-0.0001028636856787918 
7.207673676561479e-05 
1.360539957918685e-05 
4.123500834658351e-06 
9.347061528076859e-05 
-0.0005148673492915745 
9.907648785247136e-05 
0.0003693558838810201 
0.0002039100782411711 
-3.241414028105462e-05 
-9.989905504495999e-06 
-2.100300526092556e-05 
3.945106990945803e-05 
-5.533366063585759e-05 
0.0001923294152474593 
-4.889291755333966e-05 
1.477980871732395e-05 
-3.028808315577492e-05 
-7.730242129098655e-05 
5.81271544805591e-06 
-5.210202413607333e-06 
5.323609470723508e-05 
7.505795850520301e-07 
4.078661334375933e-05 
-3.413318797564899e-08 
6.247249833087547e-05 
-9.719220731217111e-06 
-0.0001635589359638727 
2.541194852204527e-05 
-3.976859965167485e-05 
-0.0001280822366968362 
3.916405115140036e-05 
-2.525404495078574e-05 
-4.941223196843356e-05 
1.008667743942878e-05 
-3.941043627960039e-05 
0.0002222912713085097 
-8.37535403945936e-05 
0.0001190955872888719 
0.0001006166812067353 
-0.0001785187925788335 
4.516819371617129e-05 
-6.2622825533854e-05 
-0.0001381662999294201 
5.937465513711068e-05 
0.0001769491683309775 
0.0001061871834624803 
-0.0001880369300089037 
-1.203094315042537e-05 
7.346174076894728e-06 
3.729538697189156e-05 
2.545862182865637e-06 
3.819039219125006e-05 
-9.053348889931517e-06 
-7.706625547478018e-05 
-4.345658226977405e-05 
6.767697332042735e-06 
5.863511537424407e-06 
-7.513168071366305e-05 
7.362965994823427e-05 
-2.281415751762877e-05 
-1.613167897632522e-06 
1.315023896615465e-06 
6.873167970452569e-05 
6.772702770301832e-05 
-0.0001035999952415828 
-3.929518662397776e-05 
7.657443276567033e-05 
-1.68704775928139e-05 
8.960928514706995e-05 
-3.096303014915456e-05 
-4.208419860135804e-05 
3.704493655966818e-05 
2.857007538710523e-05 
5.718366255581706e-05 
0.0001063911342925957 
4.329035830065167e-05 
-5.385507670074716e-05 
7.131583477603502e-05 
1.633360202920968e-05 
-4.740944236200655e-05 
-7.695075166157214e-06 
6.766876729210446e-05 
4.379609262096892e-05 
-0.0003084896156994013 
-4.912659934347766e-06 
6.636211897173066e-06 
4.29576500475441e-05 
-4.341322082146299e-05 
4.423217172808588e-06 
0.0001909178328074396 
-7.290906082059403e-06 
-1.6148199096772e-05 
-7.902570355279954e-05 
-8.880139666616331e-05 
8.792943803812028e-05 
8.730629342839693e-05 
-0.0001980572980439052 
0.0001147100755174431 
7.267574035468167e-05 
8.441724913740697e-05 
6.273275976579622e-05 
-1.862359304670315e-05 
-0.0002527314321063255 
-2.016743616022438e-05 
2.066214815697341e-05 
3.571240973478647e-06 
-1.296313505840408e-05 
8.449752219468851e-06 
-6.453605819220494e-05 
6.537406059687989e-05 
0.0001022695930137649 
1.072528751003603e-06 
2.591418068335752e-05 
-1.60911666231049e-05 
-3.707236477891505e-05 
-5.881339194607733e-06 
0.0002543957483694427 
-5.431689690027151e-05 
-7.244169806214633e-05 
-2.594123395111792e-06 
-4.011247269179721e-05 
9.129077647966449e-05 
6.206796360351724e-05 
1.577488724667211e-05 
-0.000145335948158064 
0.0001002280916675916 
-1.363005936596705e-05 
3.704286606818952e-05 
-2.405386478785335e-05 
2.842616851521017e-05 
-2.851379401317546e-05 
-1.637243938120355e-05 
-3.747344429215729e-06 
-4.322359347929012e-05 
2.042500122172358e-05 
-1.43298825779332e-05 
-3.601056692865675e-05 
-7.094999121158222e-05 
-2.920293599187297e-05 
1.289329180505077e-05 
0.0001578932444730351 
-3.890835062174961e-05 
4.272935197588095e-05 
3.640693005937342e-06 
-7.030562772721825e-05 
-2.637559544174705e-05 
1.484046941725207e-05 
-0.0001198784193813698 
-8.282401765250659e-05 
5.664002290283168e-05 
-0.0001340547738020323 
-5.708331071961925e-05 
0.0002336318338753996 
-3.319142001251805e-05 
0.0002444531908497735 
0.0001059366835943145 
6.860874667447685e-06 
2.880025296529843e-06 
7.121194511122805e-05 
-5.342227724493013e-06 
5.287731398001374e-05 
5.207306637425889e-05 
6.572397094797341e-06 
7.615433083379497e-05 
-7.834461215235881e-06 
3.489086946641502e-05 
-1.271888441481179e-05 
-2.75032676673522e-05 
-0.0001203537911172574 
0.0001177651129212189 
0.0001180846316751931 
2.902754966504812e-05 
4.81491642868336e-05 
1.555023373503769e-05 
-0.0001065111381047191 
3.037548611440991e-05 
4.567757402218219e-05 
-1.853721465108066e-05 
-6.013316050483352e-06 
4.037271148001216e-05 
-3.726065958955311e-05 
2.818775695338845e-06 
4.622641576081089e-06 
3.13084052244873e-05 
-0.0001149021254241089 
-0.0001337371698030898 
0.0001152987286993052 
1.931748769306499e-05 
7.181169654661484e-05 
-4.947236132342293e-05 
-8.204205044310444e-05 
-2.776709645231281e-05 
4.977385086016259e-05 
2.743137737456548e-05 
-0.0001710224319312892 
-0.0001100560327640831 
-6.109402201814154e-05 
5.840507244835882e-05 
3.049184648485595e-05 
0.0001106098545377146 
-9.41487965694176e-05 
0.0002299995607242432 
-1.644029019467866e-05 
0.000170605884184399 
-3.394913438055821e-05 
4.350923752857321e-05 
5.983710802464687e-06 
4.095978887014903e-05 
6.177830297511044e-06 
-1.238589186622522e-05 
3.461001246906805e-05 
2.026844845807684e-05 
-2.073553607090088e-05 
-2.406854961252956e-06 
4.969746163549297e-05 
-0.0001289648753190373 
-1.985985816247405e-05 
-1.976695568258984e-05 
-6.955125501699349e-06 
-8.359696060388743e-06 
2.841773854493287e-06 
2.474587920758243e-05 
-1.84583880050117e-05 
-1.341305942238747e-05 
-3.619578057463859e-06 
1.342404369500718e-05 
6.939301497961105e-06 
3.822814367581106e-05 
-8.391426335957807e-06 
-9.45800804304397e-06 
-3.072206303354553e-05 
-6.324013536581521e-05 
-1.950950908529115e-05 
-3.412745095812586e-05 
-8.742035072952421e-05 
0.0001049958296245103 
-4.51650709375064e-05 
0.0002189866393286093 
-5.0895933338495e-06 
-8.179857335652777e-05 
4.298768263489577e-05 
-1.324211194733559e-05 
1.40695869129401e-05 
8.225972868978704e-06 
-3.178518645018164e-05 
1.819697054765174e-05 
0.000138228000283122 
0.0001419328486710224 
8.012350141842549e-05 
1.999393787238334e-05 
-0.0001244291071577224 
-6.617494714097594e-05 
2.487151082101103e-05 
-4.644722107293606e-05 
-0.0001048608080097567 
7.237181199080505e-05 
-0.0004206527813146517 
-0.0003031200184206409 
6.777578645735678e-05 
0.0003704930636837644 
0.0001349310477018671 
-2.309903637871145e-05 
-5.110006120952915e-06 
7.60328542088822e-05 
2.951477215876775e-05 
0.0004297132439040275 
-3.38661376173031e-05 
7.008868294877643e-06 
-5.570513570236865e-05 
2.396396345326967e-05 
4.674789274052667e-05 
0.0001174526794580836 
-0.0001215621161702612 
-7.329698057711684e-06 
-6.06836613273073e-06 
-9.360875562373818e-05 
5.08891691118619e-05 
3.60662009257283e-08 
1.595121299488511e-05 
6.710861253410057e-06 
2.027263882921686e-05 
-2.116477212681843e-05 
2.307766064795488e-05 
-4.82411285431809e-05 
1.616540914127564e-05 
-6.243331537017814e-05 
-5.410050472789755e-05 
-1.258077710623568e-05 
-0.0001136555772406638 
-2.40744618529168e-05 
-3.823356269649497e-05 
0.0001092317737775642 
-2.128548883321018e-05 
-0.0002313995791845758 
2.389620075162152e-05 
5.634950231904917e-05 
-2.049049972782492e-05 
2.887948008256262e-05 
-1.391982543145725e-05 
1.102009587218276e-05 
4.902383988593991e-05 
7.571550709516333e-06 
-5.251797634024589e-05 
-6.379648578850056e-05 
0.0001073896147697576 
9.937343289333163e-05 
-0.0003236282384073303 
0.0001552607705234955 
-3.124772055164846e-06 
2.024231421853578e-05 
0.0001691148956393848 
7.929492733538889e-05 
-3.335051073775729e-05 
-0.0002535791266952644 
0.0001284256015886675 
0.0001709366545877283 
-1.662610865856321e-05 
0.0002673868086778249 
-1.312560353970469e-05 
-9.249500561529932e-05 
1.738281634811998e-05 
-1.426303417890532e-05 
0.0001043419169274796 
0.0002563234804075271 
0.0001540570636497034 
-1.708300455576466e-05 
7.623089474492193e-06 
-0.0003101842902672193 
-9.622966779470688e-05 
0.0001560056923440417 
-2.015364008757493e-05 
-0.000143715214725473 
-4.538174829443234e-05 
2.79144662414469e-05 
1.495986508503387e-05 
-8.732789698596153e-05 
-0.0001375898800041685 
1.821051320483587e-05 
-1.402815948286955e-05 
-3.546317965804312e-05 
-3.753253093018158e-06 
-1.502194545646123e-05 
5.749518593410909e-06 
4.47622589532597e-05 
0.0001128017369275747 
3.407533831685545e-05 
-3.566300633635243e-05 
5.0583287600841e-05 
3.23321457162809e-05 
0.0001988085420085776 
-5.431653767382551e-05 
-3.766263237712871e-05 
-6.487194676396751e-05 
8.13342538237982e-06 
2.88156583149137e-05 
3.229478127616892e-05 
-6.083007629638674e-05 
6.283415329066687e-06 
5.099848146437197e-06 
8.243072713822049e-05 
-1.408654453098145e-05 
8.930901256039998e-05 
2.041872134948553e-05 
-1.96788582734828e-05 
0.000245319350430405 
-6.236704059227335e-05 
2.752927092331054e-05 
-3.70552296198248e-05 
-4.828245189103927e-05 
-0.0001199053332433454 
-0.0003414810946863254 
0.0001366903048787345 
0.0001150175889843248 
0.0001189252997725247 
-6.762484195344799e-05 
0.0001054129074802798 
-4.208495942848719e-05 
1.244950055721362e-05 
3.760682615204623e-05 
-2.218168148235492e-05 
1.575462993370147e-05 
-4.134335532128259e-05 
-2.249057590144537e-06 
2.464584389130772e-05 
-3.208972512205821e-05 
-4.542619197988154e-05 
-5.217815688154518e-05 
1.875400162241439e-06 
-3.57753518099698e-06 
1.194027480982676e-05 
0.0001546068129796477 
0.0001104532559224865 
-3.159883938491001e-05 
-2.062635562312164e-05 
-3.997149849141461e-06 
-0.0001404819286256222 
0.0001257653765135714 
0.0001624992052876923 
4.345607912719937e-05 
-0.0001437981849884741 
2.116829443418642e-05 
2.888223232757343e-05 
-3.735140888803458e-05 
-0.0001061849609402327 
3.656898175491846e-05 
-2.688416260213608e-05 
-0.0002620757875182753 
-5.026383712833879e-05 
-3.842298895394053e-05 
0.0001854086903669776 
1.517602901069263e-05 
-2.832204503448091e-05 
0.0001805848104168282 
5.745301111422863e-05 
7.203931457995415e-05 
-1.650386927926266e-05 
6.705897410792209e-06 
-1.287000656383644e-06 
-4.350686194309185e-05 
3.443444196751378e-05 
-1.111565787320855e-06 
3.368227713915583e-06 
3.066903515038179e-05 
1.86603769292783e-05 
1.046301725118221e-05 
-8.109350288890262e-05 
4.64145406650301e-05 
-4.535390293671486e-05 
8.215183879473231e-05 
7.705794148323044e-05 
2.018094025270896e-05 
1.671546228848315e-05 
0.0001952988684453373 
2.156684403658924e-05 
0.0002903898967050407 
-6.661020271108339e-05 
-0.0003878107228914081 
-1.295667400225204e-05 
0.0001765269662157549 
-4.521687736588424e-05 
2.115300947465097e-06 
6.643201834348639e-06 
2.91050209661658e-06 
-0.0001893122735750016 
-4.828638063300429e-05 
2.393194283939823e-05 
-2.49629349871605e-05 
4.939829817798266e-05 
-0.0001976122518368925 
-0.0001136447043611544 
3.573306194377574e-05 
4.33749997645145e-05 
0.0004101763291394679 
9.745075315014502e-05 
-0.000244823301922121 
-5.815627120586314e-06 
8.402688733920743e-05 
0.0002566025046652151 
-4.817147057606966e-05 
2.868529522016852e-05 
2.952767846689688e-05 
2.200242050318709e-05 
2.949444917963441e-05 
7.636781197167537e-05 
4.857875956098147e-06 
2.016547398992542e-05 
-4.225394396954972e-05 
-0.0002852439449795346 
2.416229939175935e-05 
1.706566095736897e-05 
7.448810704841079e-05 
3.307029272150289e-05 
-3.717379092529826e-05 
-0.0001057109512031556 
-5.981754242742965e-05 
-4.849566210448287e-05 
1.251156618697147e-05 
4.624257219578352e-05 
6.907035697019242e-06 
3.944756765124641e-06 
-3.473386467491225e-05 
2.543440076489335e-05 
1.333995660119466e-06 
-7.286176905165469e-05 
-8.041402287748985e-05 
2.482449848155511e-05 
-1.715043714634307e-05 
-5.412427460259905e-05 
0.0001327381016376255 
0.0001558497869555795 
2.687425476512525e-05 
-2.884494652604237e-05 
6.37540109111626e-05 
2.869575161077123e-05 
3.647254082494596e-05 
4.937074265027697e-05 
1.769283153203732e-05 
-4.34042862039417e-05 
-6.419687447911897e-05 
-1.811709556313327e-05 
-2.642620950340112e-05 
0.0001391977019128964 
-3.476228994286085e-05 
-6.450792325085284e-05 
-3.00887787287502e-05 
-9.314951784010963e-05 
6.471667483765021e-05 
5.290491370746306e-05 
-5.920286075076477e-06 
3.627683721372387e-05 
7.135056423783351e-06 
-2.64748825957494e-05 
6.69347187540213e-05 
-3.30067793260172e-05 
2.594468702772966e-05 
-6.294712184982209e-05 
4.030198411466023e-05 
7.483591901814863e-06 
1.956403328209989e-05 
-4.722462064631438e-05 
-0.0001448840013292731 
0.000100166115938127 
8.017113137054152e-05 
9.980533106905735e-05 
2.693779644366055e-05 
-1.583724885092339e-05 
2.320728054573055e-06 
5.788945692741087e-05 
0.0001455091208024332 
-2.84402258948675e-05 
-7.814835960619456e-06 
-0.0001488735616150785 
-9.143261480463106e-05 
-9.968666692150997e-05 
-5.327854755531161e-06 
1.340654603612432e-05 
-5.141178194817427e-05 
0.0001136994766999706 
1.555678189733844e-05 
8.930726890627446e-05 
4.250249500629678e-05 
-0.0001840638737305301 
0.0001269595084715053 
1.458505575722697e-05 
9.682025208792966e-06 
6.353182300176834e-06 
1.454686555931827e-05 
-4.168800382103988e-05 
-2.506973284351291e-05 
4.044435507360121e-05 
7.006218195907045e-05 
-9.052603319328175e-05 
-9.896587671893534e-05 
-0.0001157011834926888 
-3.765164600445256e-05 
0.0002582520612058779 
-4.395347536214559e-05 
1.501019426922062e-05 
-0.000132157894644224 
5.814779388200585e-05 
-2.754970900509549e-05 
0.0002579427473222904 
7.870578821492561e-05 
-0.0001629561788620257 
1.921025058642912e-05 
-4.388938322347772e-05 
2.737146468207866e-05 
2.234233513316099e-05 
3.178595561226198e-05 
1.291511973373198e-05 
-2.339409557633123e-05 
6.676881272009953e-05 
-0.0001650540213346412 
-8.561646054849267e-05 
0.0003043918026278784 
-3.166460063300413e-05 
-0.0001513480530586937 
5.415161102247676e-06 
-3.495627248135419e-05 
-9.787225008307139e-05 
0.0002460947127926176 
-0.0002790430541121437 
0.0001273264840680529 
4.312536519979198e-05 
-1.596980189244147e-05 
-1.094380215626476e-05 
6.030750159939436e-06 
4.584482277038112e-06 
1.068830633103456e-05 
1.443457156981686e-05 
-1.226922538096215e-05 
-1.306607680972358e-05 
5.822966830639121e-05 
-4.206657454408923e-05 
-0.0001361268370365849 
-4.493780834500354e-05 
-3.733538156364212e-05 
0.0001415267575647409 
-6.147395083547143e-05 
-1.635050797461712e-05 
-1.771129700855386e-05 
0.0002502117194110767 
5.317604124412408e-05 
0.0001824928652505717 
3.063513413939026e-05 
6.457085759215595e-05 
-9.897734289880101e-05 
-4.691629604699242e-05 
9.421529427252996e-06 
5.13298355988202e-06 
-3.500356212507224e-05 
2.561558039976588e-05 
0.0001302537709757948 
-3.646855431890432e-05 
2.074043980928953e-05 
-2.484390569596729e-05 
-2.142762271769469e-05 
3.253959343456612e-05 
4.837074221928489e-05 
-1.139838420698027e-05 
0.000109795787589578 
4.270228740986502e-05 
-1.801219486869956e-06 
7.524700431389335e-05 
-0.0001238832506274104 
1.34040482071911e-05 
-1.880988650501625e-05 
-6.918178427491085e-06 
-8.155199819018583e-05 
-9.028834559127352e-06 
0.0002086568427253279 
-0.0001840603603449432 
4.050454865998622e-05 
-3.504302128626193e-05 
6.856133640683443e-05 
4.182423677834813e-05 
-1.836400330257381e-05 
-4.49459397869299e-05 
-4.211073460864278e-06 
0.0001073467675952751 
-3.751005792048868e-05 
0.0001421757194573389 
-0.0002079648345007364 
-9.249874435963985e-05 
-0.000176897699324069 
-2.540726013745388e-05 
1.086526885306204e-06 
0.0001354644854138605 
8.603532888570396e-05 
-0.0002863289428529325 
0.0001189102053756306 
6.814970372444122e-05 
-4.062713249093715e-05 
-1.552599457856466e-05 
7.671502886678379e-05 
2.431666050225411e-05 
8.935393094044933e-05 
0.0002478881511564094 
-4.288132723996733e-06 
-0.0001170705384824469 
-5.369764943668136e-05 
3.279757290111417e-05 
0.0001530958726767785 
-3.136707033372355e-06 
-9.125405972070159e-05 
7.343142549068549e-05 
-4.531361739559543e-05 
9.296799896075661e-05 
-0.0002938011221041435 
0.0001173252644243663 
9.23564906321838e-05 
-3.676859990137182e-05 
2.2462641094724e-05 
-2.011067658848837e-05 
4.027967490721438e-05 
1.168363342327419e-05 
5.025716956251953e-05 
-0.0001779945372975032 
5.322286335111885e-05 
-0.0002226369421696619 
-0.0001252478321813221 
2.199431965582038e-05 
1.697098514201994e-05 
-2.694970412185918e-05 
0.0001111674580416405 
5.558695772862947e-05 
0.0001151305745419462 
0.0001442747123566714 
-5.317010147669359e-05 
1.943540926071318e-05 
5.405334674588431e-05 
-0.0001504591187125613 
-0.0001051231708913098 
0.0002987434827935279 
-4.710443107737096e-05 
0.0001584109278769289 
8.009410879320258e-05 
-0.0001696649790196106 
-0.0001152901470783153 
8.309573271311059e-06 
0.0001154107184869758 
6.490283299955406e-05 
-2.377650869003573e-05 
-1.103898995526892e-05 
-0.000144516474555836 
0.000163720121450573 
-9.747003726593537e-06 
7.081963361314091e-06 
-0.0001212276936471417 
-4.341862297474747e-06 
1.962392800966347e-05 
-5.613792079121817e-05 
1.89751739371666e-06 
-9.711096977069716e-05 
-0.0002005820074672443 
-9.270239226501133e-05 
4.481927491592472e-05 
1.838328612743975e-05 
-1.41006308965992e-05 
-9.74837093961061e-05 
0.000124427802599131 
0.0001037938997308185 
-0.0001085446190882438 
4.964507503843482e-05 
0.0001543475430355465 
7.070474918787119e-06 
0.0001365493982809563 
-8.792816806661106e-05 
3.62210823005966e-05 
1.434333887534379e-05 
0.0001024074084016933 
-1.011563610176173e-05 
-8.982388642075629e-06 
3.406367096230085e-05 
0.000214259322093217 
2.289980792428599e-05 
-8.046027305089724e-05 
-3.356500342617726e-05 
6.776378956646885e-06 
-0.0001338857334146681 
7.539528305566695e-05 
3.296313759902061e-05 
-2.272728293593581e-05 
0.0001559884268938193 
3.715216160881189e-05 
-1.062150143324627e-05 
-0.0001747815065295937 
5.586619536478687e-05 
8.038530962902287e-05 
-3.719500051118984e-06 
-8.178163904809124e-05 
-6.969579364804322e-07 
-1.596083524253817e-05 
1.457305056975952e-06 
2.797931633109086e-05 
2.922154705235433e-06 
-5.628336919290316e-06 
-9.008338568420124e-05 
8.489109604264917e-05 
9.048370266976852e-05 
-4.742608775267519e-05 
0.0001202366021751711 
-5.781978833307748e-05 
1.930558039526699e-07 
-8.93130139943607e-05 
5.993305302324759e-05 
0.0001610424997397738 
6.417075348476933e-05 
8.10920564113284e-05 
-7.070385226385461e-05 
3.11116504630545e-05 
-1.385867133878039e-05 
-5.994789612437924e-05 
7.999290886676557e-05 
0.0002060040482917899 
9.548249140782373e-05 
-0.0004509935220545192 
-0.0001335585701337571 
7.337443097178396e-05 
5.785481693683838e-05 
5.661416617646411e-05 
-9.013059990497604e-06 
8.828715378705421e-05 
6.689215229457983e-05 
2.987090730926726e-05 
-0.0001032057404708659 
4.328561858644719e-05 
-1.864985727835516e-05 
2.666641072812662e-07 
-6.763990053997838e-05 
7.049633995009388e-05 
-7.804015935152059e-05 
2.418516598237713e-05 
-7.753916324337431e-05 
-4.372153190786003e-05 
-6.127321401724525e-06 
2.562255956594051e-05 
7.148572669120227e-05 
0.0001350042756421806 
-3.067753216350172e-05 
6.109129859280841e-05 
-0.0002842640173836886 
7.737968551627946e-05 
-0.000422283581501837 
9.507442506935419e-05 
-2.798056079549683e-05 
8.038146122376984e-05 
1.739222579029611e-05 
-0.0001063039703762815 
2.50265583304418e-06 
0.0002615499445214432 
6.977664456343516e-05 
4.194198741228895e-05 
4.068119174637571e-06 
-1.985319315353827e-05 
-4.556526368888995e-05 
0.0001887876148356122 
-8.055179468108191e-05 
9.212556053071493e-05 
0.0001473184720828509 
-1.020467148149946e-05 
-9.935307230472745e-05 
7.328778572498582e-06 
7.335770165075202e-05 
-3.601905036933669e-05 
3.084879152818478e-05 
1.737613162136959e-05 
-1.453262148067605e-05 
-1.238191350438722e-05 
2.036882229109543e-05 
6.939556290208572e-05 
3.352953464572602e-05 
1.039840030787641e-06 
9.733728176357617e-05 
-1.900286181358374e-05 
-0.0002582746953402928 
0.0003308608664816385 
1.695410676678774e-05 
-9.926930932044426e-05 
-5.510494541802395e-05 
5.825096417450237e-05 
-0.0004567287352714792 
-4.719443265641053e-05 
7.320191505476195e-05 
-9.098581657599566e-05 
8.943106508037049e-05 
9.395880066621772e-05 
1.961479243024698e-06 
0.0001528478992494292 
2.833508654437247e-05 
-1.98805124822552e-06 
-1.68254493838208e-06 
-3.014664879630899e-05 
-2.583922711615224e-05 
0.0001165770255386465 
-2.263327194351542e-05 
-7.270159282838308e-05 
2.771755859271189e-06 
5.957954537829884e-05 
8.801902769224364e-05 
8.678914417735078e-05 
-1.046850099926837e-05 
2.866993674704021e-05 
-0.0001989412871116595 
-6.780741457744914e-05 
-2.931813357165639e-05 
-2.323204196172824e-05 
-8.106692298444607e-05 
-0.0002395139842351842 
0.000109309941704471 
0.0001754834968597606 
-7.352900501089047e-05 
3.823044452781782e-05 
-2.129151938868801e-05 
1.201181618743266e-05 
-9.423632397932052e-06 
1.601358330552972e-05 
-0.0001402822127156804 
3.617999886032616e-05 
4.625751297105061e-05 
0.000155977646700321 
0.000100089913462168 
0.0001277002261633419 
0.0001012883275791018 
1.421841121593175e-05 
-0.0001093363805961425 
3.277998478023404e-05 
5.036128984970126e-05 
0.0001932532887579371 
-0.0005049316601868561 
0.0001596447776386459 
-3.411079932860486e-05 
3.869178537402656e-05 
0.000186759363060456 
0.0001066278258962372 
1.411229587278763e-05 
1.078649157957497e-05 
9.410738221588637e-06 
-1.331415670235409e-05 
-4.549769325182819e-07 
-1.545857643905508e-07 
-5.873872205260985e-05 
-7.71275640380549e-06 
-4.764451218658862e-05 
3.777416171503121e-05 
-4.036503174548514e-05 
3.788733072894216e-05 
-1.390160474158563e-05 
3.649226229300822e-05 
0.000152844760011313 
1.596460572864075e-05 
-5.238414675138248e-05 
-6.475721126090156e-05 
0.0003288893798952878 
2.822954788199357e-05 
5.860343492139787e-05 
-0.000101217317981516 
-0.0001246518677556062 
8.424304278527844e-05 
7.185700097641728e-05 
9.517628666349603e-05 
3.335946243721294e-05 
-0.0003092551452365221 
3.947169147603479e-05 
-7.789576522107997e-05 
4.177311681776782e-05 
-1.633316844185311e-05 
-0.0002432563607999696 
-0.0001125400271079715 
2.501596001423113e-05 
-1.25962481436279e-06 
-0.0001242919278871495 
-0.0001444167717359284 
0.0001745848308680719 
-8.27427169640857e-05 
-4.680988637049032e-05 
1.038413700325003e-05 
2.996000203851356e-05 
4.647671844874307e-05 
0.0001113311042963099 
-6.586136639789059e-06 
4.026431804876913e-05 
9.802613520579738e-05 
0.0001100271117958071 
1.934481341455466e-05 
0.0001070260381716967 
0.0001229670084304847 
-3.074111823809094e-05 
3.143200231401977e-05 
2.394547786254798e-05 
5.824736552575425e-06 
-0.0001109196079555089 
7.38748276783967e-05 
4.963410090281877e-05 
-4.807021168911168e-06 
1.426934987644083e-05 
-4.941309752081642e-05 
2.150933384530255e-05 
9.980931262317792e-06 
8.524650543698025e-05 
1.680565677295859e-05 
6.602571932026018e-05 
5.599082004771433e-06 
1.768035610435376e-06 
2.034661756348613e-05 
5.711339482449006e-05 
9.26857004623785e-05 
-8.565781936591409e-05 
-0.0002727732637720635 
7.105819557801863e-05 
7.588951674796078e-05 
-8.517724943300267e-05 
2.641987290914846e-05 
2.195478591969386e-06 
-8.1502932319553e-06 
5.272558762924541e-05 
-2.77234968067493e-05 
4.535048688371825e-05 
8.849976744535707e-05 
-3.65759078106967e-05 
-1.51393326025389e-05 
-7.415840052122932e-05 
1.165999077315784e-05 
2.58942421946464e-05 
-9.130660054858713e-06 
2.036108895132461e-05 
-8.448764393207237e-06 
-4.606308389625172e-05 
3.35758468871215e-05 
3.666514947558501e-05 
1.206976653031805e-06 
6.050021921927593e-05 
-9.634293992526442e-05 
-0.0001975197410198227 
-3.213952671716509e-05 
-3.83770723054988e-05 
0.0001763951598820515 
0.0001362463372633548 
3.670230901876735e-05 
-0.0001698839431509991 
2.931787492461314e-05 
-3.479148586720399e-05 
0.0002329457846511231 
0.0001270281640236547 
0.0001253974946459609 
-3.375666866522429e-05 
-5.662244845779857e-05 
8.478914564226164e-05 
8.910566229112203e-05 
-1.084017014176747e-05 
-6.780814055307895e-05 
-2.151965893983948e-05 
2.11101587842936e-06 
3.907674899032137e-05 
1.410259765034515e-05 
-0.0001887441892389727 
4.385812164929716e-05 
-3.304293085234207e-05 
-4.447440699909581e-05 
-1.249669749258647e-05 
-1.564798147832238e-05 
1.870464315255319e-05 
5.821363749422882e-06 
-7.123401107086842e-06 
1.467391856254622e-05 
-2.150053074005199e-05 
1.801087776736966e-05 
1.068829382575317e-05 
1.426899358989429e-05 
1.666190107935377e-06 
2.000722734710483e-05 
2.084888598939824e-05 
-2.745806719303281e-05 
1.627072274619321e-05 
8.967044475062009e-05 
-0.0001390181407849079 
-8.778757436717072e-05 
6.400300590051024e-05 
0.000169678218246802 
-3.118073957008501e-06 
-2.617004892150937e-05 
-0.0001608460965257337 
0.0002024835234373705 
0.0001142481397666604 
4.51279585679409e-05 
-2.27456504443774e-05 
-0.0001677170630866641 
-1.629282631993527e-06 
-3.627994381553197e-05 
-7.693122732665507e-09 
0.0001559539946707428 
0.0001014449658038961 
-0.000244972423516109 
-2.105843451925105e-05 
7.648170447999866e-05 
8.117331520051717e-07 
-3.088458160850521e-06 
4.272014504655208e-06 
7.627591461974662e-05 
-0.0001473064935948332 
4.568000487154265e-05 
4.405994563202852e-06 
3.262297939243916e-05 
-1.107324916571504e-05 
-0.000118610485713601 
6.372712589151009e-05 
8.295350384359444e-05 
4.706033585056544e-05 
-2.119095678696223e-05 
5.941025508685639e-06 
-5.708299028869452e-05 
-0.0001023090143371576 
-0.0001861907649558636 
2.566200457922858e-05 
6.277161174338377e-05 
-5.007826576756514e-05 
0.000161235642016254 
-2.659344425098502e-05 
3.210247689955706e-06 
3.767357399451787e-05 
-3.234787991178689e-05 
-2.013499573292583e-05 
-3.827339854054675e-05 
0.0001065644454782556 
-2.48463534749089e-05 
9.465163096604162e-05 
0.0001517016028443842 
2.551037901135892e-05 
1.31224836042289e-06 
-5.609976421054679e-05 
-3.182443288407795e-05 
-2.753137412631005e-05 
8.218228513914283e-05 
-8.123442779632331e-05 
5.887350928112236e-06 
3.987444179721976e-05 
6.563877806142006e-05 
0.0001122770363058952 
3.272169312526786e-05 
5.530182488271334e-05 
0.0002127872940576263 
-2.447456988476681e-05 
-6.81994964273719e-05 
-4.418799881945307e-06 
-5.877760210627139e-05 
-4.777771934676793e-05 
-3.208632380883301e-06 
6.557021271149513e-05 
-1.053682794005999e-05 
5.036969460514867e-05 
-0.0003512565535376561 
6.542857838329429e-05 
-1.068297443781887e-05 
-3.604281658354814e-05 
-5.38321186423842e-05 
0.0001983132935339997 
-4.357880916871479e-05 
-7.050204183446574e-05 
0.0001348984911143687 
4.057138129797507e-05 
4.378727502712533e-05 
2.726292142033325e-05 
3.105301964418353e-05 
2.697088916805628e-05 
-3.538458731238807e-05 
-8.209869517953672e-05 
7.104039159020916e-05 
-9.118292032123506e-05 
-5.902168768433892e-05 
-0.0001142089970477223 
0.0001092745074059132 
-9.395390875939117e-05 
0.0003485426562274812 
-1.798980468366245e-05 
0.0002163202514617658 
-6.001157715130754e-05 
1.75949187318064e-05 
8.324528672157563e-05 
5.008836885487755e-05 
-0.0001495325173474643 
1.94405962868837e-05 
-9.036153407846382e-05 
8.682590315921748e-05 
2.080858419022583e-05 
-1.940504475222288e-05 
-0.0002348296431267042 
-6.003442792027306e-06 
0.0001875777442106865 
5.384169379928048e-05 
-0.000190123976812829 
-2.204341132072841e-05 
-4.619148973432302e-05 
5.236957451748024e-05 
-2.268454587882827e-06 
-1.597675025815382e-06 
-2.38049512206686e-05 
3.704621613298923e-05 
6.464961484666667e-05 
0.0001996569521655149 
7.951392787612744e-05 
-4.055037888136561e-06 
0.0001035508159991923 
-8.581707518117245e-06 
-4.271741158188118e-05 
6.097324000761052e-06 
-2.205890284980762e-05 
0.0001418220261742936 
-5.281918325848387e-05 
-0.0004336823174380235 
0.0001686975849118316 
0.0001858925661537618 
1.447774351225379e-05 
3.19092215609419e-05 
7.455324141462741e-05 
3.989288414270067e-05 
1.797165230284609e-05 
-1.645111290517775e-05 
-0.0001772901341824357 
-0.0003012715162760372 
2.212523957308638e-05 
8.401798820730347e-05 
-3.177796565964108e-05 
8.417927461632202e-06 
1.407555960181522e-05 
9.00538468442703e-05 
-6.676527469809797e-06 
7.017287323665755e-05 
1.162455002030749e-05 
5.119049645967516e-05 
2.187451044037092e-05 
3.620920642581343e-05 
-4.782924918166343e-05 
2.68592718296277e-05 
0.0001161152416618157 
-7.754745328081002e-05 
6.103898901307197e-05 
4.27803480596454e-05 
5.683858911382723e-05 
2.690285006589726e-05 
9.023849496758614e-05 
9.993136958209124e-05 
-1.763715347204502e-05 
-9.269495685365814e-06 
-2.498493492164533e-06 
-0.0004784020230892125 
-4.192885720172274e-05 
-6.951668083896123e-05 
-4.760857339232118e-05 
1.383971835419685e-05 
-7.105814124472865e-05 
0.0002311216224835974 
0.0001080105316036608 
-5.181746822866902e-05 
-3.287053878721299e-05 
-4.612277357166732e-05 
4.179466550648899e-06 
-9.746619356367375e-06 
4.905206713944161e-05 
-0.0002085565671321092 
-4.745879593112137e-05 
-7.011457882118824e-06 
6.87986460710853e-05 
2.774096626993462e-05 
-9.313976639659583e-06 
0.0001550957175947549 
4.42356551023394e-05 
5.859257941241172e-05 
8.003758301418785e-06 
-4.406586525578102e-05 
3.74092235407483e-05 
0.0002798470845517792 
-5.971724078816815e-05 
0.0001964081600493097 
2.433889878299304e-05 
-5.177927359275924e-05 
-6.227493846203341e-05 
-3.547492695892602e-05 
1.027893282860557e-05 
-0.0002953503883356775 
-0.0002110786338570953 
-2.551544610627444e-05 
2.493921000930495e-05 
9.573946954892529e-05 
-2.52093781041208e-05 
5.316160786040728e-06 
8.378487915946346e-05 
8.688727353058323e-05 
4.036746630170238e-05 
-4.332310937032313e-05 
0.0001260870442274832 
-8.52783949408996e-05 
-5.675962887878596e-05 
0.0001842222821592199 
2.510202880843113e-05 
6.695183431176291e-05 
-5.34961122609101e-05 
3.282080621671448e-05 
3.718056348745604e-05 
1.670515759235881e-05 
-1.130155439628896e-05 
-1.819739185646504e-05 
0.0001641389922918677 
-1.516444420451017e-05 
0.0001062792421001944 
0.0001037021890767979 
-0.0002263764191610138 
-0.000211735917613262 
-9.485899453024367e-07 
-2.916022376072464e-06 
2.307396168829866e-05 
0.0001031251186162582 
-4.02832591742253e-06 
2.188463550526336e-05 
-1.19479096357807e-05 
2.89815518760889e-05 
-0.0001455371218785471 
0.0001066712390602952 
-0.0001641260649362154 
3.193753487918089e-05 
-2.474796043517011e-05 
5.455322372636173e-05 
5.316826319247948e-05 
-6.573731608870604e-05 
4.098039155953232e-06 
0.0001396945391508191 
-0.0001360480106239531 
-6.218236938277684e-06 
8.165978658903138e-05 
9.975959795401373e-05 
-1.970145178583103e-05 
3.849759779574289e-05 
3.11108812273569e-05 
-0.0002049235207379 
7.24839790669819e-05 
-3.651024237876634e-05 
0.0001128947975323697 
-0.0003413283343203574 
-0.0001094443733368354 
-1.110359774427112e-05 
0.0001251378088056467 
3.016439676726291e-05 
1.677424794425585e-05 
-1.976135957459785e-05 
-1.327307728697475e-05 
-1.147136887795723e-05 
-6.886250058386716e-05 
0.0001729504834590235 
2.330408755197508e-05 
7.266502139912024e-05 
8.839810179984612e-05 
1.991113842280064e-05 
0.0001023144139746389 
1.491438164405065e-05 
-9.064057037439636e-06 
-2.581425360984578e-06 
-0.0002186599789952575 
0.0003253304491941079 
8.543345064053027e-05 
4.496214023590527e-05 
-0.0003351499108375377 
0.0001118999025486298 
0.0001994891134490384 
-2.980067107270801e-05 
5.04547876176026e-05 
0.0001688383331077048 
-0.0001319963436297928 
7.883044437471511e-05 
5.243800124397384e-05 
1.586444067891821e-05 
9.924522120163356e-05 
-9.976730590707003e-05 
-5.55354542166474e-05 
-7.309575522284183e-05 
-2.744818988766317e-05 
4.651176322285076e-06 
-5.538843972430448e-05 
1.710343602398432e-05 
0.0001474690731622018 
2.144551972547549e-05 
-1.771389646460407e-05 
-0.0002546427840649626 
-0.0001084291348924265 
4.668370299641885e-05 
0.0001498236983262433 
0.0001074971000944624 
-2.962863097315025e-05 
2.105275823789299e-05 
-4.814991810825775e-05 
-1.098577795503183e-06 
9.494215560608017e-05 
9.026487908087092e-05 
-9.508000960755381e-05 
-0.000135887003130606 
6.924950892019765e-05 
3.485828892117818e-05 
-4.890071727414517e-05 
4.009685156492339e-06 
-7.888204765330793e-05 
0.0001770795431686395 
-0.0001208663715566035 
0.0001332290604145411 
-4.928792510916921e-05 
-0.0002354641114372953 
-6.571475416730646e-05 
5.348342789891052e-05 
0.0001107784736777797 
-1.65546875518571e-05 
5.75104209989896e-05 
5.708377512355485e-05 
-9.80965376531696e-05 
-3.984296256404522e-06 
1.520156747249146e-05 
-4.30250255210979e-07 
2.056101319010345e-05 
-5.048769313145149e-07 
-3.299857575155795e-05 
-0.0002626030773633469 
3.224998067201456e-05 
7.152598062048759e-05 
-5.762916743390122e-05 
4.293356737863004e-05 
6.085738540925939e-05 
-4.332057483698444e-06 
5.220398544443927e-05 
1.630939579560605e-05 
9.197987316926532e-05 
-1.350586491484107e-05 
9.910006910333823e-05 
1.439708602014544e-05 
-5.623997088844761e-05 
1.981571901727009e-05 
5.623141030965221e-05 
0.0001276974911029323 
4.728518435939887e-05 
-1.369190547572602e-05 
0.0001027785017948275 
-5.138277675058085e-05 
-5.563107039561428e-05 
-5.611997475567844e-05 
1.993550287234839e-05 
2.607271395258495e-05 
6.287724914562175e-05 
8.001249704825514e-05 
3.559355318710403e-05 
-0.0003253693451843758 
-5.813148618402703e-06 
4.355442944056503e-05 
3.328658538956092e-06 
3.445101665583078e-05 
7.552333656706224e-06 
0.0001576524129890166 
-0.0001646190286314385 
6.044621955947578e-05 
0.0001146586830472365 
-0.0001976417687433524 
8.927595719946791e-05 
4.029244998287171e-05 
7.802668462495737e-05 
8.385918276567874e-05 
2.53105631252626e-05 
-7.632748167020747e-05 
2.427622824931613e-05 
-2.528168715389759e-05 
-8.972305802959851e-05 
-6.821908058456659e-05 
-5.93780018015693e-05 
5.374158836831111e-05 
-5.598783716249278e-05 
9.029960423347651e-05 
-6.137997014237137e-05 
-3.579950115359052e-05 
3.602412223336384e-05 
1.973068192992456e-05 
1.601304442750938e-05 
-6.324585720617743e-05 
0.0001195055816439541 
-7.981051681427616e-05 
1.47600904655546e-05 
7.630332622424351e-05 
8.934065550021151e-07 
-1.656686649540598e-05 
-4.817882298511374e-05 
-1.146614443719331e-05 
7.164400733483846e-05 
-0.0001256255241463481 
9.922084489969017e-05 
4.749775489289335e-05 
3.407591789808138e-05 
5.841127022713965e-06 
1.510116532459917e-05 
0.0001135502009091929 
3.014398336122829e-05 
1.927839206173905e-05 
3.732437449195634e-05 
3.863833081390829e-05 
5.160798846613994e-06 
-2.136806201114383e-05 
1.222424760803735e-05 
6.338709761311421e-06 
-0.0003371155831110564 
0.0001508751280040958 
-0.0002047955287394866 
0.0002608094303892667 
0.0003955394133363886 
-0.0003806983731161697 
-1.037478120180725e-05 
0.0002443872468790494 
-9.566297610813222e-05 
-0.0002879161994612933 
0.0002898003869714874 
-0.0001704813647213671 
9.096436568568106e-05 
0.000288431339898781 
-0.0001403796268937334 
8.31080361202079e-05 
3.600429255069428e-05 
-3.090862579699497e-05 
0.000126628578774373 
0.0001081910059332919 
2.994328260180201e-06 
-4.330450950604342e-05 
-0.0001664785845232567 
1.916552446323793e-05 
-0.0001707569029927346 
-2.724457271982292e-05 
-1.288175284078504e-05 
-0.0002674483865009328 
-6.273413441886567e-05 
-3.386315844442498e-05 
1.086688066451819e-05 
9.080485989697407e-05 
-0.0001647557642300206 
0.0001252947349669297 
5.077364877438673e-05 
5.541344796063558e-05 
2.972576917146569e-05 
-7.294993236312308e-07 
6.395522388430109e-05 
2.510275362489779e-05 
0.000110009447792876 
6.839430384773714e-05 
1.168827385875457e-05 
-0.0001079366571110996 
8.359145759551239e-05 
-0.0001691838858106207 
6.295100491446556e-05 
-0.0001065217822342839 
-2.816093804496504e-05 
5.068356701641427e-05 
1.027723449926288e-05 
7.580370805584229e-05 
0.0001080629811717007 
-4.416912707722569e-05 
-2.504386545811022e-05 
-1.146580780290239e-05 
-5.003570113794013e-05 
4.133652834830763e-05 
0.0001199315408568615 
4.684573073153494e-05 
4.19677378454272e-05 
-8.760178737602914e-06 
-5.333879986109166e-05 
-4.181110215038303e-05 
-6.477486370198419e-05 
4.526483120538046e-05 
-3.554274617872176e-05 
-1.046353604662402e-05 
0.0002153133154918217 
1.299128457768284e-05 
1.710404437298739e-05 
9.177682751752126e-05 
1.26464584353354e-05 
-0.0002464006818881357 
4.110247616126998e-05 
-1.388307183916078e-05 
1.569616536156103e-05 
-1.002487361613436e-05 
2.776932121574853e-05 
1.452988744435167e-05 
6.690379045681881e-05 
-0.0001437676293390975 
-5.595459296917698e-05 
-4.231916739626005e-06 
3.662247846267374e-05 
9.856903538875734e-05 
0.0001025736909932398 
1.471230440034913e-05 
2.777516016872609e-05 
-1.837362052831221e-05 
5.654142312966633e-05 
-1.742177064566193e-05 
7.804715710834766e-05 
4.230577761098246e-05 
-0.0001192579034407834 
4.475284865008075e-05 
-0.0001728487790237546 
2.792098503806623e-05 
2.873986834372528e-06 
7.114495120233137e-05 
5.184430342652912e-06 
-0.0001395730409164278 
1.832863616218615e-05 
-1.833596758348451e-06 
4.320010314922845e-06 
3.779783469197533e-06 
2.956131439597752e-05 
6.146922665388997e-05 
-0.0002773410693301955 
-4.051170508595007e-05 
4.890212825305517e-06 
-6.308491369297135e-06 
7.51806297788042e-05 
-1.321518659651992e-05 
3.144847734797848e-05 
-2.44953060557297e-05 
5.438126437082903e-05 
-4.835244465162289e-05 
1.476296707599609e-05 
3.307593402536702e-05 
-9.002884812712929e-05 
3.123673254016406e-05 
-5.401012568670245e-05 
0.0001109727345915626 
6.816333673827533e-06 
-6.85682753633816e-05 
-3.304903416111856e-05 
-0.000127638022025964 
0.000159557866446567 
3.644446118766054e-05 
-0.0001199952636999661 
2.639462203992987e-05 
0.0003254464101185637 
0.0002304388618690703 
-0.000161988979381974 
3.047861792946068e-05 
5.213837249651467e-06 
9.657109663674087e-05 
4.173842945123361e-05 
-8.1452096795587e-05 
-7.6302152067632e-06 
-6.893712374390223e-06 
2.801571300119658e-05 
9.604372960475643e-05 
1.186385226228508e-06 
-5.411902311338811e-06 
-9.625230472983335e-05 
7.017471909791448e-05 
2.841757745757661e-05 
4.400879228825449e-05 
-0.0003890886091036772 
-9.177888284298096e-05 
9.242272547267581e-05 
1.986593164258392e-05 
0.0001625813200588683 
1.493144261881234e-05 
4.922201659114324e-05 
0.0002776571498099456 
6.493000604402962e-05 
4.318993062656728e-07 
4.059184751684658e-05 
-3.385035850056148e-05 
7.13041804349009e-06 
9.201577393187448e-05 
-0.0002976980558073576 
-9.939645768887929e-05 
4.842452007707446e-05 
0.0001497165236724288 
7.276805057576296e-06 
-8.976272863742333e-05 
2.111635759296703e-05 
-3.030378608172612e-05 
0.0001892688208065191 
2.168567066971252e-05 
-0.0001783519418113716 
-0.0001217036655756973 
-4.094213999626653e-05 
2.042621292493131e-05 
-2.384931682278967e-05 
0.000180726392989715 
7.188891331400332e-05 
2.293167232831232e-05 
-1.598903872595538e-06 
-7.197858293738758e-05 
-0.0001136776351276468 
4.448096504521074e-05 
4.077958888939649e-05 
1.877603965206066e-05 
1.462637841853583e-05 
2.29520549288884e-05 
2.622770749859473e-05 
0.000116508850863308 
-1.745701976407001e-05 
3.043917959528934e-05 
-0.0001708509823541429 
-0.0001058087938976012 
-8.668536839873569e-06 
0.0001156676895575785 
-0.0001026199654778213 
0.0001736259551757394 
2.900898104781103e-05 
-0.000141268810485089 
-3.547981582914813e-05 
0.0001623296779134701 
-1.345723915648297e-05 
-5.557420484440052e-05 
1.716923252420048e-06 
0.0001325531125395755 
1.58543954804421e-06 
-0.0002475691665925559 
6.151874593472568e-05 
-8.915475357050434e-05 
3.799766350240462e-06 
0.0001343783673108869 
7.588372173306111e-05 
6.856222853153148e-05 
0.0001121615302286792 
-3.32537106661256e-05 
4.975612704041767e-05 
-1.290380070263978e-05 
0.0001138417284063955 
-5.830300968843612e-05 
0.0001654011443828085 
2.424523168689225e-05 
-3.132712712049131e-05 
3.599387511557874e-05 
-0.0001836956540674798 
5.037300622162079e-05 
1.454038941693439e-05 
0.0001447713809407382 
-0.0002099918281887056 
-0.0003264999513960412 
9.769917024725205e-05 
-8.421830935337049e-05 
-3.794785940519707e-05 
0.0002632093666921977 
-0.0001842400795677345 
-6.317489934252889e-06 
7.420777168491884e-05 
-0.0001173001402073325 
2.404087539573416e-05 
-1.115468419799478e-07 
5.623588404269763e-05 
5.396224928278083e-06 
-0.0002759686412604421 
0.0001067170497369487 
0.0001093089678483139 
9.623016544224125e-05 
-3.982822229552381e-05 
-4.076278673857099e-05 
0.0001529056415810252 
4.007511135361434e-05 
0.0001251354296672269 
-0.0002231679413766055 
-4.810651605064765e-06 
5.44039185022999e-05 
-0.0001996353773833788 
-5.127541096141224e-05 
-6.523030274024696e-05 
-3.379847212608517e-06 
0.0002034325428758036 
7.647307557124933e-06 
0.0001784875850561208 
4.365124383291353e-05 
1.01206106621779e-05 
-0.0001476241501528518 
0.0001380905689648701 
0.0001016603299732714 
2.298126203240795e-05 
-0.0001803814058261478 
2.45880856054293e-05 
2.028579324467885e-05 
8.128329160125753e-05 
-9.432765761127036e-05 
0.0003216944924439966 
8.423015515059327e-06 
-0.0002550311827180835 
5.018735534583321e-05 
7.210532687068911e-05 
0.0001425565220115864 
-8.620722275168259e-05 
1.288723816784721e-05 
4.679532685472365e-05 
4.115612536278004e-05 
0.0001261037180542901 
4.982449022535699e-05 
-2.790834420221358e-05 
-0.0001854685152454419 
4.186282546046808e-05 
-1.152897647613663e-05 
-0.0001952771292643941 
7.35839100987353e-05 
3.703661881436802e-05 
8.270491794517208e-05 
-5.178351711465747e-06 
2.715261114614325e-05 
-2.242511374454483e-05 
-2.15536119077729e-05 
9.39870074839517e-06 
-3.922947526249068e-05 
1.717566871794963e-05 
0.0001014804322090005 
5.201935772356086e-05 
-3.38943247715039e-05 
-4.69590852215774e-05 
1.593947201387235e-05 
-0.0001273180441242051 
3.022557665771428e-05 
0.000182838697270615 
-0.0001706518411817398 
1.801310802413661e-05 
-5.310158224964495e-05 
-7.711142475929505e-06 
9.579615783644062e-05 
5.580104131414627e-05 
1.807941552006253e-06 
3.898667972653155e-05 
3.36982612363882e-05 
0.0001477545090267231 
3.923248046437392e-06 
7.978974417633207e-05 
6.807914540121002e-06 
-9.845243965691806e-05 
-0.0001431807070875085 
2.128348423652064e-05 
-1.062112963756854e-05 
-8.860203804535627e-06 
-0.0003639865951244171 
2.441733032192629e-05 
5.333122000672459e-05 
3.835798723906383e-05 
0.0002133839042869107 
-0.0002011798309474082 
-0.0002146032084666457 
-6.986815096189532e-05 
3.25210475054817e-05 
0.0001096339593759511 
0.0002025524387215072 
4.46345965809162e-05 
-3.548197927962221e-05 
0.0001638019369154632 
-0.0001254197610737321 
-4.20939399333512e-05 
8.830265988390932e-05 
2.698558321966186e-05 
-2.881577665026019e-05 
9.42278007639428e-05 
5.158235051979336e-05 
0.000117220215501589 
-0.0002229766366259362 
8.51840767383619e-05 
2.651359300957261e-05 
2.205874150904625e-05 
0.0003765482640019308 
-1.042817162039791e-05 
-7.585127868123152e-05 
1.751350390568388e-05 
3.010079781586459e-06 
4.947882107728906e-05 
-3.044558538173468e-05 
-7.503897224986402e-06 
5.406100175702221e-05 
3.175902539380158e-05 
-0.000364826838487733 
0.0001338740831089232 
-6.303199943002623e-05 
4.355149915458321e-05 
-1.346488314206793e-05 
5.937684747602181e-05 
-5.357702890520886e-06 
-4.733375499540251e-05 
4.236896771300929e-05 
-4.640921797703932e-08 
-0.0003441021014908589 
8.248035623673352e-05 
-0.0003853223486942019 
-8.80127455997237e-05 
0.000108508199530642 
1.43065350479385e-05 
4.676427462509894e-05 
-3.89630323764982e-05 
0.0002936454930545107 
4.332175952035404e-05 
4.125755215179536e-05 
-2.825020348767174e-05 
-2.493402626227918e-05 
0.0001382589433852379 
9.013918649205349e-06 
2.154854717968707e-05 
6.799941616555804e-05 
0.0001756499110469683 
-3.018504093673749e-05 
2.687041081816162e-05 
-1.865452811800838e-05 
-1.63128913331701e-05 
-7.673040606170986e-05 
4.007131673301328e-05 
0.0001486768607395018 
-9.600587288167577e-05 
0.0001139958024403926 
-2.328036759378569e-05 
3.023487447486873e-05 
1.072106905905697e-05 
3.4113427346803e-06 
0.0001128289361101434 
2.707363314299871e-05 
-0.0001949870834783481 
0.0001025974169116185 
-0.0001211902473980398 
-9.286407912198164e-05 
0.0001355601962549035 
0.0001266579116221016 
0.0001239116657363954 
0.0002119996230155271 
-0.0002199639930782115 
4.503910394211301e-05 
2.817879421823548e-05 
-6.551738117007188e-06 
0.0001554994407605519 
-0.0003275422174583888 
-5.483656158879205e-05 
-0.0002061148440436292 
-1.30048373152517e-05 
-0.0002349728972971734 
-1.358935397096357e-05 
0.0003378927818614383 
4.916131682345311e-05 
-3.051335241017095e-05 
-2.577712476854837e-05 
1.402948819790796e-05 
0.0001092010056125908 
7.945613692023983e-05 
-1.474792292626658e-05 
-2.610990998747227e-05 
-6.013400115660639e-06 
-3.356766842880456e-05 
-2.587684888656972e-05 
0.0001149371577433342 
2.593844169088532e-05 
-8.787002831427522e-05 
-0.0001358890623737795 
0.0002475583813579716 
-3.868522512248175e-05 
3.035901464282487e-05 
8.823331541800058e-06 
2.740053071870167e-05 
-0.0004484611793597534 
-6.891702999038222e-06 
1.616918477073206e-07 
9.224041688425082e-05 
3.047248585292844e-05 
0.0001421619552858075 
-1.35410063077671e-05 
0.0001923905329692384 
-6.579658658803181e-05 
2.333387250344503e-05 
3.555949143416824e-05 
-1.038565347301423e-05 
7.7711505181416e-05 
-0.0001440274799061803 
1.480080321180703e-05 
-1.013225560623765e-05 
0.0001375659658853025 
5.275069051086646e-05 
-5.692816098618949e-05 
1.264141335430724e-05 
-1.306376000068242e-05 
-0.0001169408666830059 
0.0001261413457664342 
0.0003004086366832604 
-0.0001864926395076804 
9.232125439186163e-05 
-7.154263191125766e-05 
-9.833068146494651e-06 
0.0001398102642435544 
2.73408196928543e-05 
4.833506418246181e-05 
-1.184728438616129e-05 
-7.481188667213648e-05 
0.0001215183027866993 
-0.0005336374318116764 
5.57331408183712e-05 
6.365026281933666e-06 
0.0001067631003286061 
2.40355612148523e-05 
3.840077061547944e-06 
-0.0001065730049290462 
-6.048855722735623e-05 
5.998393326207283e-05 
-6.869823983026176e-06 
8.263400465701579e-05 
1.426660834472243e-05 
1.212440014861861e-06 
8.026616522182928e-05 
0.0001977275859029854 
-2.910503923475531e-05 
0.0001325605032516971 
1.012460916908689e-05 
0.000108719155107083 
-8.592691789427494e-05 
-7.76369464775826e-05 
2.080147053941995e-06 
-0.0001198577768011428 
-7.202178941305885e-05 
4.922339532416412e-05 
4.387658793384299e-05 
5.079297504977823e-05 
-5.611273529262202e-05 
2.867482468236997e-06 
-6.688671127661775e-05 
0.0001777698239580992 
8.976811445771759e-05 
6.181924644115127e-05 
5.991733567501602e-05 
-0.0002549812574825961 
-2.616820836632814e-05 
0.0002447185330104791 
-0.0004634283435379004 
1.260994721104185e-05 
3.138047454165921e-05 
3.88244503075547e-05 
8.865839722794519e-05 
-1.436948005233146e-05 
-5.032752267138976e-05 
1.959594786058656e-05 
0.0001239562986121479 
-2.990496704651592e-05 
8.215170656068414e-06 
-1.031772885269026e-05 
-0.0002663883796759849 
-4.01487193626853e-05 
-9.036067168197468e-05 
-0.000125806601175688 
-6.582081984550012e-06 
-4.020756371869099e-05 
-5.917042096487722e-05 
-3.742817091776306e-05 
4.091737041994851e-05 
-4.172159546391689e-06 
-3.923677952563677e-05 
0.0002788339308374661 
-2.264249233736291e-05 
0.0002366471241189742 
4.471366674204848e-05 
8.99777473165162e-05 
6.068947797850222e-05 
-0.0002678604965854241 
1.359440018131723e-05 
0.000273153193499574 
-6.101420595977102e-05 
-4.79531519703764e-06 
1.255798781699878e-06 
2.863195544879208e-05 
6.427615175199544e-06 
3.882244299968337e-05 
8.699254732093564e-06 
-3.949337629632604e-05 
-3.395516879335871e-05 
-0.0001029822582788213 
2.166848774365386e-06 
1.58561326449479e-05 
0.0001682106816613628 
-0.0002454345096855458 
-3.471326365687447e-05 
-0.0001709468282214472 
-8.470186359772946e-06 
9.925662195387734e-06 
-1.675805580916108e-05 
0.0001997044085460884 
7.501962038437359e-05 
0.0001693334106920008 
-0.0004038938576404678 
8.758576688476212e-06 
2.295210467499179e-05 
-1.403332033695464e-05 
3.130194191607945e-05 
2.670730940537748e-05 
2.857743850196637e-05 
0.0001923325663954413 
-0.0001964307531543743 
-2.674575089241288e-05 
9.932324593569749e-06 
-6.955058879638229e-05 
6.915648424372789e-05 
2.964340155738469e-06 
4.317949419348757e-05 
0.0002388432568877398 
0.0002165799561943552 
-0.0001143719302454363 
-0.0001350428142907624 
7.714213377595674e-05 
4.241150308942392e-05 
-0.0003264947219507718 
-4.640561950823184e-05 
0.0001620054538527934 
-0.0001225945553245854 
5.504287028540209e-05 
7.834725382566752e-05 
9.004708395501343e-05 
4.911668718720087e-06 
4.129512656831039e-06 
3.390407161549497e-05 
-6.784043014849201e-05 
-5.791015644756356e-05 
3.908952960402196e-06 
4.431762202267246e-05 
0.0001548755985587809 
-5.147834160337856e-05 
2.864416340744659e-05 
-5.164746098681606e-06 
-1.143037090203472e-05 
0.0001095320150067171 
5.91006438819906e-05 
-0.0001555892556037962 
0.0003038818401276541 
6.123578106119663e-06 
-4.494448275915627e-05 
-1.528905198764783e-05 
-5.198741756068406e-05 
0.0001163125694117118 
2.49772366397459e-06 
-3.094469367366142e-05 
-0.0001051366905552622 
2.707100942432554e-05 
4.727486140632804e-06 
-2.271877841803043e-05 
-0.0001365966241487613 
-0.000112691987001675 
0.0001893831451326589 
-2.925741059599987e-05 
0.0002444446967765167 
3.198401904684838e-05 
0.0002241474788701018 
0.0002150995894874316 
3.165753898218024e-05 
-0.0002434705506313414 
-1.156871058450211e-05 
2.115938916500583e-05 
-3.300145530318755e-06 
-0.0001019371709305023 
7.906809268399802e-05 
-0.0003473853620345314 
0.0001688144147758377 
1.714323680835238e-05 
0.0001610512918765511 
-2.529831291384066e-05 
-0.0001307705159152176 
0.0001174539971643023 
-6.338697116723816e-05 
0.0001173394170181204 
-0.0001855898275989401 
6.510586551056023e-05 
2.284441373812218e-05 
9.664505977122952e-05 
-2.924749717050934e-05 
-0.0002830604259794736 
1.073479880239565e-05 
0.0001379896537778675 
9.207454869115746e-05 
2.590922651076709e-05 
0.0001881496885070946 
5.398167824905141e-05 
-0.0001195740699333754 
7.937291857406832e-05 
-4.690045802333589e-06 
-2.688993472435271e-05 
0.0001000274224354816 
-2.00326421064766e-05 
0.0001449061585017223 
9.511149370874198e-06 
-0.0004436099871044185 
-2.130813727737785e-05 
-4.740798702526809e-05 
5.966237160862615e-05 
6.9612089514317e-05 
5.872699616821875e-05 
2.249550533079952e-05 
2.691241382380174e-05 
9.604353129367454e-05 
-3.162073477387367e-05 
-0.0001901374957570504 
6.638547948758544e-05 
3.186127006585693e-05 
-8.172775740626436e-06 
-9.467639964287516e-05 
-0.0001003105292850555 
-4.105963049573772e-05 
0.0001743882165877324 
-4.294696918995823e-05 
-0.0001064220249240673 
-8.550571216715667e-05 
-1.221223914167273e-05 
8.75550682783387e-05 
-0.0001390855180084642 
-4.02506461652252e-06 
0.0002292080929821275 
-2.374095974354314e-05 
6.954700498569501e-05 
2.75064865405155e-05 
-3.628093007897411e-05 
5.524482433163713e-05 
0.000428948993223104 
-9.353991678410062e-05 
2.834581090829892e-05 
3.95426909917725e-05 
-9.209137106343345e-05 
-1.440881647191171e-05 
4.993390782948113e-06 
9.018416107181023e-05 
-0.0001777918143771585 
0.0001464418496887749 
2.321266864577437e-05 
2.330722989890921e-05 
5.080027380032017e-05 
-1.349289954986099e-05 
-0.0002335413263496919 
0.0001048788722192747 
2.471640171607463e-05 
-0.0002658856140723325 
-9.037124790199457e-05 
-5.079524967912609e-07 
-2.494225871523955e-05 
0.0001272750265392722 
6.9844341220344e-06 
-8.39214684196341e-07 
-8.982457918252699e-06 
4.990070213052307e-06 
-5.044745984961622e-05 
0.0002271061644993399 
-9.388426662362689e-05 
8.850362625799138e-06 
-9.444800959168087e-05 
-2.204909800765458e-05 
-1.801602207851232e-06 
-5.732062888157162e-05 
-3.982374160211948e-05 
2.841755484119665e-06 
1.638936461226496e-05 
-0.000105404216344228 
5.713630291124998e-05 
3.398921011940119e-05 
0.0001351463715747156 
-3.238359570061031e-05 
-0.0001009039608792477 
0.0001178287889274439 
8.313844247817095e-05 
0.0002302753954257511 
-2.34569971633772e-05 
2.940572413013841e-05 
-8.439412300173283e-05 
1.367016898231122e-05 
3.539097575943054e-07 
-2.124483278327807e-06 
-5.576235806503892e-05 
-1.138432415012315e-05 
1.810575834463358e-05 
8.040482131651816e-06 
-2.825348296442992e-05 
7.657782147072916e-05 
-7.287657187605833e-05 
-0.0001869670630547849 
7.571472975299452e-05 
-2.810248845383147e-05 
-1.007011897297965e-05 
7.677387213037186e-05 
-0.0001305232354820579 
-3.203996841880439e-05 
-8.720943792397425e-05 
-0.0001644729880244598 
-8.532541584310722e-06 
-2.651037786490484e-05 
0.0002940770612839111 
0.0001353134249712072 
0.000271096575216063 
9.559960520229105e-05 
-0.0001384035486686367 
5.824284435087255e-05 
7.097716742575736e-05 
-3.429932737194866e-05 
4.607193483345156e-05 
-0.0002693745767734278 
1.581184748644756e-05 
1.37735075831049e-05 
-0.0002007009768911557 
-0.0001062001231780794 
3.248419607604009e-06 
1.270417453836034e-07 
0.0001192081403258773 
0.0001094127268994759 
6.538224810537884e-05 
0.0001567640378970909 
6.505000737812557e-05 
-4.231729049464108e-05 
0.0001421485254754336 
-6.497687589543963e-05 
-2.662367627976727e-05 
-6.708005267078444e-05 
-6.353615615044666e-06 
7.215683530513575e-05 
-0.0001166107432233286 
7.437779504506341e-06 
-4.486723218598364e-05 
1.597245466348263e-05 
8.5576952756265e-06 
8.465911367865817e-05 
0.0002201627031868441 
-7.557416055312436e-06 
-1.033130843952762e-05 
1.582070502351051e-05 
-1.124498880904428e-05 
3.064831949567123e-05 
-4.008591298244045e-06 
-0.0001031820111711012 
-1.170512204813268e-05 
0.000164744953643306 
5.384773943033212e-05 
-1.144483329834988e-05 
-2.726529925141064e-05 
6.080142647105152e-05 
2.77598520200654e-07 
-0.0003040795455262001 
-7.769542071333385e-05 
1.906433435090293e-05 
2.085400973198096e-05 
0.0001719622967670987 
-2.019290880757117e-05 
-1.874188162162549e-05 
-0.0002483505855791251 
1.204773813979131e-05 
-0.0002200479310105749 
5.018652306687856e-05 
1.242281218946299e-05 
-6.160278816938545e-07 
0.0001229383603059408 
-3.798225398795575e-05 
-3.983998812405733e-05 
0.0001305735141556914 
-0.0001180353575259589 
8.254513709357902e-05 
-1.101184472615175e-05 
0.0002801299710620221 
0.0001720092448017725 
6.652943102569834e-05 
-2.649438654893489e-06 
3.842306273066372e-05 
-0.0001750030416808371 
0.0001974336237043852 
-6.99381879507473e-06 
-1.755633273568338e-05 
1.934065595103181e-05 
3.98583159316701e-05 
0.0001002817024011281 
0.0001350451149313029 
-7.900038869349984e-05 
-6.333119296517278e-05 
3.896525286811962e-06 
-4.795146398875997e-05 
-0.0001853073548614637 
-0.0001299471471422541 
3.71595371409127e-05 
2.377021278857924e-05 
0.0002335812308291344 
-1.369202540301492e-05 
-0.0001293200393388844 
-0.0001052390570308122 
3.110213679186893e-05 
4.104407441651732e-05 
-7.227896592337277e-05 
0.0002562018126665733 
-0.0001683047729238256 
1.688955621352108e-05 
-6.32205989891987e-05 
6.016232441974096e-05 
2.566294972970602e-05 
9.730183466728492e-05 
6.808617069859702e-05 
-2.376550175413799e-05 
3.117011160257945e-05 
5.789225876869702e-05 
-2.079321874097762e-05 
-1.538923757208614e-05 
5.072570075691678e-05 
-0.0001051780801806192 
8.495804694869902e-05 
-2.762669263009132e-05 
7.677559531195474e-05 
8.442559424572682e-05 
9.996954451933886e-05 
8.207769740331643e-06 
-4.716086201054564e-05 
2.666711134391565e-05 
-0.0001811765745451391 
0.0001858149809001717 
1.838653479823001e-05 
-1.568721325981434e-05 
5.340435941049758e-05 
5.019530916179922e-06 
1.613617100141202e-05 
7.504384986387991e-06 
-0.000132446607890423 
7.196283399048229e-05 
-1.433717096301498e-05 
-0.0004352146469133096 
0.0001726999039339092 
0.0001218471406282629 
-1.626996732435007e-06 
1.617293165926206e-05 
-1.24306144278664e-06 
4.47289503707711e-05 
-0.0002060838163574545 
-3.680861080713054e-05 
4.422653095588529e-05 
0.0002478374310862546 
-3.32326197788855e-05 
3.831478240851615e-06 
-0.0001604886619708356 
8.644038114509296e-07 
7.062714601580212e-05 
5.061717361361627e-05 
-1.681103443049522e-05 
-6.220338397985607e-06 
-7.979001568278243e-05 
-9.192420125513351e-05 
0.0001300080865463114 
-7.044221749414617e-05 
0.0003018711736953289 
1.65038869559818e-06 
5.490963413438683e-05 
-9.88003709191188e-05 
0.0001479384398423105 
1.487721177998477e-05 
-1.638318458979581e-05 
-1.575358497993199e-05 
5.240932682296654e-05 
-3.297406872807717e-05 
-4.728116296772576e-05 
-0.0001014398532076319 
1.537311169394637e-05 
-2.742384326414715e-05 
2.818173835338712e-05 
9.15603011255041e-06 
6.312310709254413e-06 
8.8042114751591e-05 
0.000229591084653748 
-0.0001351642991082136 
-4.178955925987181e-05 
-5.174459720989223e-05 
-5.875529923606438e-05 
7.188305689721764e-05 
0.0001284917197413151 
-0.0003210068867824364 
-8.781468020661127e-05 
0.0001569607023226273 
-6.997336227248198e-05 
-1.058440240696246e-05 
1.008305851100191e-05 
8.266086418025327e-06 
8.147925226065811e-05 
-0.000233146047471598 
7.036564571728656e-05 
-3.212455273041151e-05 
-5.168001760921496e-06 
5.300636548208811e-05 
-3.596057968317608e-05 
0.0002055694252658944 
5.384658953598162e-05 
1.245947533771746e-05 
3.124915150539585e-05 
5.846833664631931e-05 
-1.65733912832624e-05 
-9.815823518183057e-06 
2.485717888990519e-06 
2.048048224879371e-05 
2.511067021073843e-05 
4.132436309918273e-06 
7.100691062296796e-05 
-6.714154176253524e-05 
0.0001605994904466493 
-0.0001942898158851662 
0.0001201292507561674 
2.840661359883562e-05 
-0.000132335863788117 
3.154529915789248e-05 
2.470358839797539e-05 
-1.053386740151944e-05 
0.0001608799584674661 
-0.000241742029840198 
3.707850499072802e-05 
5.89595256809133e-05 
0.000163426751459371 
-2.915603087849263e-06 
-5.905099155932518e-05 
-3.121547310850881e-05 
3.201184756943519e-05 
-6.672887078196026e-06 
9.422216605516024e-05 
-3.513436527632396e-05 
0.0001151749577592313 
2.71537837679549e-05 
-0.0003905039163946885 
4.764380167903384e-05 
1.811943803961708e-05 
0.0001158226986804714 
-1.69771798893179e-05 
0.000254428563767251 
-5.044434010525165e-05 
-0.000100268208233806 
5.446331519915544e-05 
9.450075485864264e-05 
-8.214738416407121e-05 
9.046660413573086e-06 
3.678145685774387e-06 
2.622094989692114e-05 
2.958856156255017e-06 
3.95628316302535e-05 
-2.566384397410762e-06 
3.46390338287885e-05 
-0.0001869156673917808 
1.889444151217787e-05 
-8.790015762363571e-05 
-1.180281839290839e-05 
7.438794417695857e-05 
-1.917747101187597e-05 
0.0002096273858109753 
4.535678970432838e-06 
-5.12723520764636e-05 
5.699417771963567e-05 
-1.15697393788199e-05 
-3.101941971879776e-05 
-1.347975547912489e-05 
5.104260909313644e-06 
-3.730624733976248e-05 
7.729835753074075e-05 
0.0001973830660869818 
-9.0027623623465e-05 
-0.0002197322143890797 
1.87466654906186e-05 
-7.561211712166619e-05 
1.595651350794644e-05 
0.0001240537490968653 
-2.790025595036794e-06 
-0.0001305591444149955 
2.580611429181015e-05 
-0.0001336502949742336 
-2.086496475534556e-05 
-2.731014976395925e-05 
-0.0002353605351051364 
2.776143595197619e-05 
-1.508612365983964e-05 
0.0002848747736350897 
-3.448671867510137e-05 
-8.980951461020798e-05 
7.526381136922188e-05 
-2.218426847475447e-05 
0.0001518449370828113 
0.000176599515470051 
4.536298933780121e-05 
0.0002750994699609191 
3.680695811872078e-06 
-6.690348061781339e-05 
6.165092057542037e-05 
-0.0002108414023334254 
1.921806873593798e-05 
6.235774627117943e-05 
9.957546951093642e-06 
-7.422848355041191e-05 
-0.0001634489898779075 
9.2995900816795e-05 
-1.091130937107569e-05 
2.708547971907842e-05 
-2.376536650130991e-05 
5.501898396830437e-07 
-0.0002508401592884398 
0.0001682500011955439 
9.155102055670986e-05 
0.0002168528741579833 
-7.633506307355777e-06 
-0.0002331528481016306 
0.0001358652442235588 
-0.0002286460508054424 
6.812115640221802e-05 
3.562130914568144e-05 
-1.341400889373882e-05 
1.262527261759271e-05 
-2.5198661354629e-05 
-1.48498082093154e-05 
7.680342022709871e-06 
-0.0001693544471047723 
-6.014370184642059e-05 
2.874114433842761e-05 
1.966003870933964e-05 
-5.81229020903298e-05 
0.0001445406394851467 
0.0001366934125175138 
1.419382004497647e-05 
0.0001003703174089612 
-3.886358955380233e-05 
-1.750490769213002e-05 
-4.234387529169194e-06 
0.0001163280330920109 
-0.0001108635527736368 
0.0001025439188823649 
-4.873284721633872e-05 
-1.085551490404509e-05 
5.386108545326442e-05 
2.591438842615633e-05 
-0.0001747792363773674 
7.67421540794066e-05 
-0.0001227852950771294 
2.540783381330605e-05 
0.0002213040254263703 
1.674771679484895e-06 
-2.820892425555046e-05 
0.0003085242962841603 
3.112152854445272e-06 
0.0001844724818187017 
1.774118481340525e-05 
-4.685019378021564e-06 
-1.381433442856259e-05 
9.052976468893916e-06 
-9.836743878700782e-05 
-3.06460408723966e-05 
-5.39587512536745e-05 
1.810091671783746e-05 
-1.214910986603414e-05 
-4.318590607177827e-05 
7.75177335506764e-05 
-2.228710068453463e-05 
-0.0001665346839315846 
-3.365526332113583e-05 
1.905891853928109e-05 
-1.425178781382978e-06 
6.494495562635144e-06 
-0.0002417448761892071 
-5.761431794526496e-06 
-6.038196440991539e-05 
4.395595882036023e-05 
-0.000102201573517937 
-5.046307682758562e-05 
-3.629318804661317e-05 
-1.341580345362351e-05 
7.48828591459806e-05 
0.000223870829393758 
-8.61624295385188e-05 
-3.366189170425933e-05 
-2.249117102664675e-06 
5.864485842398457e-05 
1.537144102989075e-05 
6.934626140279397e-05 
3.945546929505822e-05 
4.104141346480957e-05 
-7.368176127832622e-06 
8.32183224423314e-05 
1.541945309948995e-05 
1.541540904326432e-05 
7.915227244851948e-05 
-0.0001859950061270794 
-3.644501659866382e-05 
