solver_type L2R_L2LOSS_SVR_DUAL
nr_class 2
nr_feature 26105
bias -1
w
0.0001661661447021126 
8.430471317114772e-05 
0.0001831392369909662 
-0.0006944837418235291 
0.0003720892665924757 
0.0001770081611656233 
-7.189149195428447e-05 
0.0001146738730809306 
0.0001618626765595128 
-0.0003947910075900524 
-6.200425952021209e-05 
6.806411912610861e-05 
1.383335034687379e-05 
-2.095334253208044e-05 
-0.0002343039408206582 
-0.0001551816446237387 
-0.0001028326865174546 
0.0003315978443713907 
0.0001467684157230738 
-4.733214550143973e-05 
-0.0003159583991526815 
0.0007617361880704849 
0.000174319561086494 
5.030122032563381e-05 
-0.0009616047951011666 
-4.605959778530443e-05 
5.762391908225323e-05 
0.0001454758640167009 
-0.0001387296527996815 
9.096755351533183e-05 
0.0002228166829169123 
9.153706444976215e-05 
-0.0001405784646717494 
0.0002517406119644708 
-0.0001175132856384875 
-0.000189283689866467 
-0.0001188604222881465 
-0.0001667978032904944 
0.0002982345976135718 
6.502123662340189e-05 
-2.971441291101815e-05 
-0.0001458877907527516 
-9.105527575694078e-05 
-1.511438672448998e-05 
-3.144458978890536e-05 
-0.0001275115679246289 
1.871256067078631e-05 
-8.538040232511594e-05 
-5.706968321140651e-05 
8.579981905763515e-05 
0.0001526037119071372 
0.0001932673065055748 
0.0001804383083719496 
5.180715328333437e-06 
0.0004553211160100503 
0.0001232081289046974 
-0.0001971748137796283 
-0.0003810258564848533 
-8.601374981927883e-05 
6.109770182713622e-05 
6.067142685611107e-05 
-0.0002971425305373319 
0.0003320492454145352 
0.0001623813882878035 
-9.988013373527212e-05 
4.357764211411948e-06 
-0.0002191510914753122 
-0.0001125349855564791 
0.000195079630414451 
0.0001430349787581341 
0.0002406446944847707 
-1.390760721328335e-05 
0.0002349163474443022 
4.773972497376083e-05 
-0.0001692551750273978 
0.0004255490372874132 
-0.0006298929572680249 
0.0001218271023365321 
-0.0002903995533488698 
6.628986355294379e-05 
-4.675969943149414e-05 
-3.114928291120305e-05 
-0.0002650237801464977 
-0.0008541228158804437 
0.0001603923592352412 
-8.67951956073223e-05 
0.0003782456700504438 
0.0004309453273482754 
-0.0002277198759739557 
0.0002031382187286034 
-0.0001713257100898761 
0.0003946910498723223 
4.759638824832365e-05 
0.0004087172057098817 
0.000103518330181872 
-0.0002206066796017513 
-7.846474805633491e-05 
-0.0003308053810157952 
0.0001410316055416986 
0.0001199373756505369 
7.99239021998631e-05 
0.000478502540986407 
-0.0001201253469831444 
-6.202613578547431e-05 
-3.987032910058422e-05 
-0.0002236584208457736 
0.0002260132593398978 
0.0003875359208277155 
0.0003547788106353514 
-0.0001115052760403023 
-0.0003140803052513148 
-8.90457426299316e-05 
2.875362010064025e-05 
-0.0001121384836159774 
-0.0001415349959817082 
-1.678959442573517e-05 
1.970246951692971e-05 
0.0001260233930928868 
-0.0002815493698544018 
-0.0003622524153637846 
-9.726957448011667e-05 
-4.618753548770288e-05 
0.0003250570550718125 
3.777144849594197e-05 
0.0003042399407444648 
1.227209488416733e-05 
1.236917969541802e-05 
-5.84498122941446e-05 
0.0001853987545157012 
0.0004424314517083843 
1.693684038070344e-05 
7.148724113902866e-06 
-0.0002946770587566412 
-0.000381890893429522 
-0.0001638502306873779 
-0.0002361296535596148 
-6.821386222785525e-05 
0.000339821872786214 
8.176295422460895e-05 
0.0001559490817797761 
-0.0003774843718224677 
-0.0003837453570737822 
-0.0001061985613867372 
0.0002916817697262752 
-0.0001020764426099362 
-0.0002408506213338996 
-4.696225639035863e-05 
4.946935034159769e-05 
-0.000180045148264208 
-4.18945886907006e-05 
0.0001192232452489409 
0.0003899085879907428 
1.586800279059293e-05 
0.0002976760614170064 
0.0001512579813332794 
-7.474921296732381e-05 
-0.0001088811020271217 
0.0001197237657105107 
5.504105800178967e-05 
0.0002565090087290184 
-1.700400147814724e-05 
9.215830228562927e-05 
-0.0001172473358419376 
0.0002010635568154143 
-4.697334522623272e-05 
-0.0002837618011267638 
3.505851246026636e-05 
0.000104026846936198 
-6.908367277047398e-06 
4.264164640305532e-05 
-0.0002283916975087677 
-5.937038900548258e-05 
-8.355786495946677e-06 
4.530838092524371e-05 
3.491059334716538e-05 
0.0002534082456036253 
6.456916286603131e-05 
-0.0001718423476734546 
-8.170654377939672e-06 
-4.326152084023742e-06 
-0.0001700508245263666 
7.304982969773436e-05 
0.0002861104000794305 
0.0001068384255832018 
-6.765854309498673e-05 
0.0003216046618367333 
8.338191606093968e-06 
1.506746771406937e-05 
0.0001951220001385437 
-0.0004788678564179074 
7.016431329772026e-05 
-0.0001123522858896507 
0.0004045165534067563 
-1.781116341459131e-05 
-0.0005828938353810314 
0.0004195020748025329 
0.0001935026485639281 
0.0001751414567646998 
0.0001807994430598344 
0.0003298204014383885 
-0.0001231967904868382 
-9.530894198333544e-05 
-0.0003467086240234288 
-0.0002149290851159108 
-0.0002963076539333559 
-0.0002416795204076574 
-0.0001352240622146102 
0.0003494986395720288 
0.0001373315271919029 
-0.0001233602438217273 
-0.0002575324095564844 
-3.67675803228169e-05 
-2.062607243681018e-05 
-3.15885943177058e-05 
0.0001212497675841941 
7.027837700124382e-06 
-0.0002234007133709605 
8.505968455799009e-05 
0.0002151045472935795 
-2.04675999465884e-05 
7.799651400812098e-05 
3.167833831922633e-05 
-0.0002434668014628861 
0.0004511994075049383 
-0.0001730918321709793 
-0.0003203735184779348 
3.228891580268367e-05 
5.193462445424582e-05 
-0.0001346984841812219 
0.0006739414154144075 
-3.290408816803902e-05 
8.620186650290053e-05 
0.0001485863147562072 
-1.782961586341194e-05 
-0.000315150797188089 
0.0005637588028483157 
7.284636190662016e-05 
-9.336921648782443e-05 
-0.000294419954810167 
3.807670304243937e-05 
-6.473666877717295e-05 
1.141233658202461e-05 
-0.0003412916605386175 
0.0003626891465841412 
-5.528846328449819e-05 
0.0002000850523814451 
-0.0001477985248151959 
3.22709899000621e-06 
0.0002207162634775627 
-0.0001332459707912395 
-3.100623709167884e-06 
-0.0001808805509006874 
-0.0001387960916290629 
9.375539303579649e-05 
-5.478980036547694e-05 
0.0001104047159514984 
3.847424386449418e-05 
-2.482268811527703e-05 
9.073693276749143e-05 
0.000296049051383429 
-0.0001819073257281674 
0.0002510271143665898 
0.0002648674831976836 
-0.0003640176433098785 
0.0002616489198599893 
0.0003915288469834909 
-1.38856691331798e-05 
-0.0002406567601789338 
-0.0002242257467184759 
0.0002013641658917139 
-0.000400331720379068 
-0.0004165248834215553 
1.939879963506691e-05 
-3.816996151761985e-05 
0.0002948096558561369 
0.000209014546177509 
-0.0002491969749625074 
0.0002909330597223269 
-0.0002745288778386594 
-0.0002906269984363679 
-2.422209708793686e-05 
0.0002978942374418467 
-7.098498275759887e-05 
-1.214571372663031e-05 
-0.0003573131963080208 
0.0001535081810549676 
0.0002880686389600838 
2.39651202855881e-06 
-0.0001970658253480614 
0.0001264208691382463 
-0.0001596520879279587 
0.0001981108660358049 
-0.0002147866342045032 
0.0001767499411240453 
-0.0001022928140055128 
-6.147718276375677e-05 
-0.0001729330310841428 
-4.217575189558463e-05 
0.0008030844488519087 
1.903263281874751e-05 
-0.0001549174645602763 
-0.0001752464418836026 
4.817985171888492e-06 
-0.0001032518696281573 
-8.420749870098345e-05 
0.0002647275645829978 
-0.0002110892831804564 
-3.85459587361109e-05 
4.358833629087819e-06 
1.998057919561413e-05 
-0.0001603685976708922 
0.0003006710111980207 
-0.0002822381033469947 
-4.968860972557803e-05 
-2.794069004554741e-05 
-0.0001900475770809664 
0.0002330600686676021 
0.0001527213521370403 
0.0002662896623411396 
2.605875646844806e-05 
-0.0001936159596900959 
0.0001230260457720938 
0.0004506557493414445 
-0.0002618395988878367 
2.457015623078543e-05 
2.129770656719009e-06 
0.0001438957830063584 
3.373375459461453e-06 
-3.571476908728032e-05 
0.0004595134860850109 
0.0001561011254787935 
-0.0002060747347363664 
-2.639662647147585e-05 
-0.0003355977786943223 
0.0001720439027188009 
9.343867695751063e-05 
-2.37123808560449e-05 
8.47814685233345e-05 
-0.0002012504845831006 
3.933663108190267e-05 
0.000110787860619557 
1.458245404759825e-05 
-0.0001281860649464426 
-9.564970384921534e-05 
-0.0002612660699953951 
-7.824037043194931e-05 
0.0001752089599440247 
-0.000195114051919618 
0.0001723112285462454 
0.0001867230989641331 
7.638174177154256e-05 
-0.0002780437714846757 
-0.0002274406724205546 
-5.417011502941165e-05 
-0.0001688325088504656 
7.045734182716599e-05 
-0.000838453310860188 
0.0002745514671515528 
0.0006616500421711702 
5.930341154615939e-05 
0.0003665594776841208 
-9.400062121431875e-05 
0.0005127102454466696 
-5.588622793557513e-05 
-0.0002495444538518262 
-0.0002622287186793588 
-0.0006071418583879241 
0.0002690158466130799 
0.0003000049116836965 
-6.946652312708618e-05 
-2.451213797278238e-05 
-0.0001964936732770776 
-0.0003245679026961359 
-0.0001251608762497423 
7.723022094600629e-05 
0.0001881542968365892 
-5.989308099512282e-05 
-2.294218282020862e-05 
-4.275668422037321e-05 
-2.422012333788703e-05 
0.0001494820458001357 
0.0002953888060652254 
7.549388999644151e-05 
0.0003158688177295327 
-0.0003389027028679855 
0.0001442257302303786 
3.788894954370576e-06 
-0.0001245180302948038 
-0.0001325851971862504 
-0.0001004320100374991 
-0.0001982462175513758 
0.0002511485766447888 
-3.216116058477348e-05 
0.0001250367652287704 
-0.0005664527243420257 
-0.0001048268736008718 
0.0001460305683385512 
0.0002128650004393518 
-8.720647980890762e-05 
6.466996475078897e-05 
-3.736055570442358e-06 
-1.382567556011247e-05 
0.0001523780925514783 
-5.474060235920095e-05 
0.000125187614395074 
-0.0001319449045819587 
8.920948863652413e-05 
4.704118538570608e-05 
0.0002827492077427617 
4.674086860458618e-06 
7.877611171774946e-05 
1.489811909752573e-05 
0.0001605233142061029 
6.664855467979231e-05 
2.129555042531247e-05 
6.659095763222116e-05 
-0.0001117331175023196 
-0.0001702528540270971 
-0.0001767152390472691 
0.0002773459428638112 
0.0001995958314418654 
0.0001837493813771253 
-2.807769641259695e-05 
0.000193389685388994 
5.814969815038692e-05 
-3.231616060181848e-05 
-0.0001522414412670296 
0.0001515623597183687 
-2.524503122042451e-05 
0.0001163582439118958 
-9.063462843051604e-05 
-8.705472442218071e-05 
-0.0001204753485962906 
-0.0002188964978875044 
0.0001264472751293807 
-0.0004105514123906795 
-0.0003302120689244322 
-1.90781923463162e-05 
1.271450488422751e-06 
2.689133260400258e-05 
0.0001187402565984266 
-0.0002338185043559454 
8.175479206382509e-05 
-0.0001712233165026416 
0.0005526247135987596 
0.0001840107568792567 
0.0003980546576324764 
-0.0001232609943404316 
-7.001138005314864e-05 
-2.456602387960874e-05 
-6.34114154705157e-05 
-1.261614317077598e-05 
6.557341509900916e-06 
-6.900775769815503e-05 
-6.054516574926296e-05 
0.0001293267928716864 
4.764144188495283e-06 
6.395954126505888e-05 
0.0003401844251242899 
0.0002849728106591077 
-0.0009012128167090142 
0.0001680680494873145 
-0.0006281647662535348 
-0.0002818177153307618 
6.814206672774906e-05 
0.0001066207255760741 
4.529257864889729e-05 
0.0002787472973296368 
0.0002470453575970477 
8.941343017002618e-05 
-4.183570289836651e-05 
7.021560726581662e-06 
4.609371689895164e-05 
-0.0001122231309386274 
5.745409200497211e-05 
0.0001711419969303617 
5.561385888950808e-05 
6.687745793882909e-05 
0.0002286542585270659 
-3.23803353482843e-05 
-0.0006330493037092407 
0.0001402922378770455 
0.0001892408398214858 
0.0007958086224121493 
4.500350561621699e-05 
0.0003785390260137805 
-0.000438593194336568 
9.287355013989807e-06 
0.0003246823289072199 
0.0001450364143690408 
-0.0003936225701207733 
0.0005966886805176963 
-6.962419464576035e-05 
-0.0002653317730141372 
0.0001375177729185009 
-0.0001450292269387604 
0.0002149688027061845 
-0.0003674228585709363 
-0.0001901564302241829 
7.557209921866494e-05 
-1.454255815500448e-05 
1.682584533291585e-05 
-6.491476058307797e-05 
0.0001453068252520262 
-0.0001464753347910329 
-0.0007333365288376902 
1.706840437157537e-05 
-0.0001497125949991117 
9.773004393806217e-05 
3.144732665684948e-05 
0.0003729516409258331 
4.600270662854113e-05 
-2.121542721101802e-05 
9.051135380618563e-05 
0.000508225374297673 
-0.0001487335647358334 
0.0005048877745253946 
-5.249163696002308e-05 
-0.0001185307556767266 
7.889233666542297e-05 
-2.485523587047754e-06 
-8.003523103753652e-05 
-0.0002741677300498853 
-0.0003432825412458162 
-8.427871420373728e-05 
0.000225568809650598 
-0.0003471153364804011 
0.0004522675446184617 
2.915381127493058e-05 
6.388754682921486e-06 
4.526363069618347e-07 
-0.000201939778708375 
8.540888135229002e-05 
4.957250979934682e-05 
-8.546907477176744e-05 
0.0003824427249982758 
-7.544313826049827e-05 
0.0003389250691059089 
-0.001220384887367787 
-0.0001399563762181903 
0.000130004331983339 
-4.026964397165452e-05 
9.535671694911909e-05 
0.000425899880040975 
0.0003072877672651827 
4.367252087309573e-05 
-2.189293254586762e-05 
-0.0001588948098514683 
0.0001845722735438563 
-0.0002450424085007074 
-3.754135445245594e-05 
-4.458394327067257e-05 
0.0001756165183178191 
-9.300383289063162e-05 
0.0002420426977719278 
-0.000110570250131659 
-8.417275257664871e-05 
-2.210763096428981e-05 
-0.0004546262897279364 
0.0007582010408373017 
9.1095453036236e-05 
-0.0001528528555043849 
0.0004497853644092185 
-0.0003538640894281247 
-3.843634692630072e-05 
0.0006047906058892277 
-0.0001077415039649266 
-1.302514903561419e-05 
0.0006141576126617097 
-3.211954993939624e-05 
-0.0007498296663577221 
6.435243197496906e-05 
-0.0007095262333728077 
2.175282143430452e-06 
-6.533151868944725e-06 
6.677433215808966e-05 
-9.969065121313974e-05 
-5.872197689750243e-05 
-8.176477064464409e-06 
-4.367078575235098e-05 
8.745677552659833e-05 
-7.990804511824014e-05 
0.0001043349417714058 
-4.202270451053036e-05 
-0.0002081918961135623 
0.000192938325772403 
-3.306583047285645e-05 
-2.518421007652439e-05 
0.00024521544509869 
-0.0004564678862589039 
2.236410178796582e-05 
-6.253681003638615e-05 
0.000919971096240231 
0.0004158252568447925 
-0.0001853820145638005 
-0.0003748756570602009 
6.50077172519563e-06 
2.019815580886184e-05 
0.000205056809203132 
0.000268799056313645 
0.0002320132986308252 
-0.0009134240241913151 
-0.0006477087362704582 
-9.950697156038772e-05 
0.0002087826856256219 
0.0001240662395818599 
0.000284804533609075 
0.0001683663331918253 
-6.673238969448146e-05 
-5.132651841911169e-05 
-0.0001346238654706386 
-0.0001648120096144105 
-0.0003997619244302542 
0.0001168518975577429 
4.515734754210501e-06 
0.0002658537571990848 
6.785680155346216e-05 
1.77654203137992e-05 
0.0001714713576063123 
-8.57754263714951e-05 
-7.570315337902965e-05 
0.0003783587352486294 
-9.66651809758493e-06 
-2.144738938463168e-05 
7.992610378419831e-05 
0.0001614266859543206 
-5.763106012081138e-06 
-4.01213065667376e-05 
0.0003188440680270964 
-6.98039396259083e-05 
-0.0003468431613563731 
-0.0002198412652436205 
0.0001647192727474487 
0.0002191271179264454 
-0.0001673376423709931 
-2.329851185555611e-05 
0.000142967533535024 
-0.0002034743982052057 
7.570718816572757e-05 
6.910000129610619e-05 
0.000270736642704257 
-3.940692785373743e-05 
-0.0001814636423505128 
-0.0001271096110676156 
8.083465013952267e-05 
-0.0001008035071118047 
-6.418707614332701e-05 
-0.0001873755198086493 
0.0001625062328613849 
-0.0001548619917129983 
-8.23512556668963e-05 
-0.0003428744953269569 
-1.67480853983145e-05 
0.0003520271085899816 
0.0003413745851216443 
8.364198938326301e-05 
-5.189675680887186e-05 
0.0001977222433068298 
-0.0005214646635117785 
0.0001117910879530677 
0.0003111784528463621 
-0.0006348469207641394 
7.736480568518984e-05 
0.0002566332331122713 
0.0003016079303457626 
0.0001963540765264548 
-0.0001236551735731674 
-0.0006008546421928592 
6.076425209851829e-05 
0.0005830757841470124 
-3.56873061306114e-05 
4.61336501722215e-05 
1.258288135808807e-05 
-2.314887365225675e-05 
0.0002140458051781709 
5.09951982149291e-05 
-3.776621374738815e-05 
4.634097299446525e-05 
-0.0001370317801117423 
1.968263222634633e-05 
-0.0001435410039100279 
0.0002962134237324729 
5.47685243747096e-05 
0.0001006509249563624 
0.0004857246798389648 
0.0001372274039829812 
5.837824491628276e-05 
0.0002247718286173354 
7.710955932384981e-05 
0.0001151331794892002 
4.372400974934068e-05 
0.0002027132281147592 
0.0001040222866906871 
-9.277360393478489e-05 
4.222814438220971e-05 
0.0001319283431527022 
-0.0001495867627850247 
-0.0002461747109590916 
0.0001897330527097851 
-0.0002876762111121893 
0.0001167998889206677 
-0.000300818439187414 
-0.0007797440277662365 
-0.0003583534361866481 
-0.0001712837328979142 
-4.827200404348835e-05 
-3.17209808121033e-05 
4.613165647264687e-06 
-2.059072573497353e-05 
-8.182846994286106e-06 
-5.152329269717092e-07 
2.431370627832011e-05 
0.0004071302773930881 
-0.000162712992761464 
-9.535583723001339e-06 
-1.735849548308154e-05 
-0.0002132356004480463 
0.0001220919786064913 
7.093781739015873e-05 
0.000143718763110753 
-0.0004439324695632411 
-0.0001290694370983993 
0.0003550348810168957 
9.236697207134635e-05 
6.148912711944883e-05 
2.798293667462465e-05 
4.820180459924148e-05 
9.119393350041148e-05 
-0.0002127960994141497 
0.0002323502746075439 
0.0001750358290502562 
-0.000303052131194023 
0.0001120127532824233 
7.179726861415454e-05 
-4.001881741880004e-05 
-5.983518887697478e-05 
-0.0001018110632706281 
-0.0001308232832738634 
0.0001426168286076518 
-4.142432210187554e-05 
0.0006267599712749905 
-0.0002300212183671294 
-0.0003128317810223947 
0.0001224729869830444 
6.748869135439425e-05 
0.0001135116206221887 
-0.0001469918614835179 
0.0005411355671090432 
-6.600664500876739e-05 
-0.0006186066551279413 
0.0002929323777355147 
-0.0001124684579530326 
-6.710466077853378e-05 
7.965242282206674e-05 
0.0001573613316572621 
-0.0001001043712500484 
0.0001014356869029819 
0.0005800645506462784 
-3.741082801345301e-05 
-0.001111714040929283 
0.0003279795139775596 
0.0003480150690222323 
-0.0001019492755058983 
-0.0001674582160709548 
0.0002280088533026681 
-5.33005106319589e-05 
-9.843465232345265e-06 
-0.000151405666424741 
0.0001278239968834343 
0.0003292656589423512 
0.0003451957295831294 
-3.8947709415672e-05 
5.966252643754887e-05 
0.000315134105852074 
-2.650573936596712e-05 
-0.000131509792850453 
0.0001549599940715043 
-0.0001226848649128273 
0.0002028348352267114 
-0.0003161083688564115 
-5.638981690744063e-05 
-2.099609484300382e-05 
4.386163237083838e-05 
-0.0003051963405838756 
0.0001693054006970052 
6.15482057341659e-05 
-2.387460101690177e-05 
4.931700883055105e-05 
8.373090748887632e-05 
0.0007917254810517413 
9.139352000869271e-05 
-0.0001607411231112652 
-0.001435966670353599 
-0.0007230485673610879 
-0.0008091980118631728 
0.000289804130584181 
9.178390786594243e-05 
0.0004188541442757045 
0.0005535048551539224 
0.0001596208099548101 
3.076227937901622e-05 
0.0002002148519978447 
-1.053998810867842e-05 
5.003701363170724e-05 
-5.04923254809834e-05 
3.442896223751036e-05 
0.0003491698361731813 
0.0001881815279798696 
-0.0001117311418539006 
0.000789765687460898 
0.0001952357128230721 
7.746688193107998e-05 
-0.001216152676498866 
-0.0001818240496150744 
0.0001569743443482231 
-6.714515468066699e-06 
-8.510436987113284e-05 
-0.0003111666971971021 
-0.000108598728148152 
-9.054355013961082e-05 
-6.069203006720008e-05 
2.694604152410107e-05 
2.532292001862326e-05 
0.0001183938573488406 
0.0002665173235257634 
0.0001138411294817394 
-0.0003210319901205152 
6.065765937797988e-05 
-7.839035177299145e-05 
0.0001149834039140825 
2.240027347997224e-05 
-2.015814271971699e-05 
9.34350638267817e-05 
6.639307200780639e-05 
0.0001580028658032126 
6.628156320443452e-06 
0.0004898713972588159 
-0.0001006623616092956 
-0.0006910525276900262 
0.0002455858460496169 
7.56553116130545e-05 
1.441940885017687e-05 
0.0002678120867238022 
0.0002375738036845731 
-7.975201166073698e-05 
2.22371129159263e-05 
1.145276533680754e-06 
-0.000132928313333601 
-3.908422289439697e-05 
-0.0001914101051672948 
0.0001546806779540621 
2.968366179349523e-05 
-0.0001450277173012728 
-0.0001656613583964269 
1.902777351770634e-06 
7.925756315101577e-05 
7.959655739515147e-05 
-2.425111728609101e-05 
8.016339841590724e-05 
1.631070587351015e-05 
-8.415159841618688e-05 
-0.0001505560707782301 
-0.0001439346158558899 
-3.723573561851764e-06 
-0.0002266989677928509 
0.0001349267179591325 
5.343303521324524e-06 
-5.083203370960118e-05 
0.0001077059471635191 
-0.0001262541029270101 
9.118186509201924e-05 
7.737352722576103e-05 
0.0001459557961783616 
5.353294654371801e-05 
-0.0003381275848206317 
1.068094664437887e-05 
-1.849824143931303e-05 
4.36453248949692e-05 
-1.356097682058668e-05 
-5.347585823196657e-05 
-0.001226723864816382 
0.0001987727579182875 
0.0001983645591529613 
0.0005249897193310475 
0.0008180574577405064 
0.0001533241673135564 
-0.0003589810723331825 
-0.0001302475581652158 
-1.07554390668904e-05 
1.744412290641487e-05 
-1.604832912197207e-05 
7.821583967895759e-05 
1.277440078440662e-05 
3.781942127034918e-05 
-1.325132638205861e-05 
4.15056838794756e-05 
-3.091913848332699e-05 
9.955413400335881e-06 
0.0002535735469383545 
4.490327855911458e-05 
0.000354351883023171 
9.105705347781727e-05 
0.0002364216006748655 
-3.367909286831361e-05 
0.0001587618450664623 
-0.0001024345022744204 
1.667003023649078e-05 
6.333693554772567e-06 
0.000171827062833761 
3.437429475388308e-06 
-1.72624670433253e-05 
2.737819277363184e-05 
1.367925363039665e-05 
7.151029507826952e-05 
-0.0002537181588056251 
-3.169773073891052e-05 
0.0002307218092840738 
0.000120644111542277 
-8.412016892689774e-06 
0.0002392902823318489 
0.000258597836827166 
-0.0004366567133027768 
-0.000235853623019312 
-0.000270710076325635 
-0.0002835879052508361 
-0.0001003144000217049 
0.000301657356800882 
-0.0006373670009107083 
3.282250476411531e-05 
-4.637455302579957e-06 
1.165781100161982e-06 
-0.0003346376406451778 
-6.159096034943349e-05 
-2.533999769874707e-05 
0.0007029123397162221 
0.0005070501428208288 
-6.108988542617995e-05 
4.63532077638407e-05 
0.0002053865744768739 
-0.0002209629214472061 
-0.001249890142590374 
0.0003535259104605627 
0.0004264139649052587 
-0.0003379458836212127 
-9.72928246748467e-05 
8.383240689421805e-05 
-0.0002217025811182529 
0.0001056340423753322 
1.733150963618141e-05 
1.75587591554326e-05 
2.313848798169247e-05 
0.0001528548389036159 
-0.000108414632007619 
6.122329876831312e-05 
-7.629668124461926e-05 
-1.0963927108383e-05 
0.0002109443587459355 
7.126272207571611e-05 
-2.158676688656795e-05 
-1.889940085160347e-05 
-0.0002253125361375558 
-7.211468114931735e-07 
-4.046254884094947e-06 
0.0002857031970693657 
-1.090444059457801e-05 
-9.548804929233853e-05 
0.0001000567440559296 
0.0001952774563162947 
1.75587591554326e-05 
0.000158966976140841 
0.0001049134902910378 
7.136149243632185e-05 
-3.278010308270873e-05 
-0.0003841155511990486 
0.0004326910164952317 
-0.0002268327118688645 
-2.707811513503562e-05 
-0.0002245279844978207 
-0.000615116430210474 
2.915852451227459e-05 
0.0001746114176656636 
5.59888909979907e-05 
0.0002882963027904102 
-5.07982121217095e-05 
-0.0001328851660543443 
0.0001042993789603 
5.324615272607963e-05 
-0.000735642262876299 
-8.235786257613496e-05 
-1.954253063892959e-05 
0.0005436265877682439 
0.0004205521201715157 
-3.28811498735561e-05 
1.057137266420418e-05 
9.478529476105115e-05 
0.000382337451548057 
0.000316893015914093 
0.0005734042482526426 
-5.612040787583593e-05 
-0.0002546083444230441 
0.0006755883071199694 
-0.0007421505765507496 
-0.0002499192990328399 
-0.0001643739747448058 
0.0004722100428776087 
-0.0006153757406815064 
0.0002077166498393616 
-3.549310775784961e-05 
-2.941535056784133e-05 
2.871527132476253e-05 
0.0001867220731692571 
-4.766327833431474e-06 
9.547844259847855e-05 
5.594100124070647e-05 
-0.0001993843054665468 
-0.0001552369002473115 
9.04429039907323e-05 
-0.0001462489062071328 
1.006027254546264e-05 
-0.000336664654402366 
-2.784288167633115e-05 
-1.172295497955767e-05 
-3.647760783824769e-05 
6.597529188407037e-05 
0.0003055204872425135 
0.0003457446360858468 
2.641252446549984e-05 
4.239703032545641e-05 
-6.963622881239902e-05 
4.212789979695573e-05 
0.0002601952756433871 
9.596502041882551e-05 
-0.0001658833126423354 
-4.220801777547741e-05 
-2.935282085585796e-05 
-0.0002222088626038211 
-0.0001710508547447307 
3.50927206988681e-05 
-5.6686038519541e-05 
-2.691368725454743e-05 
-0.0002589004871393947 
3.69132777654581e-05 
0.0002189326070618724 
0.0001795732247945107 
-0.0008813078670742923 
4.111924723867826e-05 
0.0001048050164690345 
-0.0001335805474404378 
6.40962120770665e-05 
4.953847946425421e-05 
6.528781024209401e-05 
0.0003494618429124842 
4.835297142253796e-05 
-1.445224246046199e-05 
-0.0002379610978676478 
0.0001667649306371032 
-9.714967951159276e-05 
0.0001303910508026325 
-6.030585478416328e-05 
-0.0001752958777181455 
-2.201540344898457e-05 
7.155234606608111e-05 
0.0001083660329875875 
-3.993908327554459e-05 
1.045015534301802e-05 
6.67151555695185e-05 
-1.273407280149729e-05 
3.223122181712218e-06 
6.253679677674187e-05 
-5.768325375275525e-05 
-9.782092446797669e-06 
-0.0001539896254758579 
0.0005226177483800736 
1.47098493462087e-06 
-0.0006512165305252419 
0.0002166614622183968 
-3.14312922872213e-05 
1.397926249464124e-05 
-0.0001258322671743365 
8.110383465742947e-07 
1.29140356886762e-06 
0.000208462372536328 
-0.0005017300092412558 
0.0002611126836918134 
0.0001618474626936978 
0.0001706668599318406 
7.191746448264479e-05 
2.319078900810995e-05 
-1.959824678510572e-05 
-0.0005232999740964264 
9.510990349056769e-05 
-0.000116855576050703 
0.0003440011930579588 
-0.0005458901402163075 
-6.244945203358032e-05 
0.0001896724862050113 
9.179129254231988e-06 
9.723809200161969e-05 
0.0002188714864544174 
0.0001815601435216731 
0.0002936798999302642 
0.0001206117634013747 
0.0002216966948600612 
4.048259707994163e-05 
0.0005899891743735205 
5.499752146378181e-05 
-7.900465719452316e-05 
-0.000537326853862049 
-2.442221027604909e-05 
4.012565306022336e-05 
-9.644972122426e-05 
7.895509901747214e-05 
-0.0001472195049143156 
0.000243597949864468 
-6.469628039152967e-05 
1.097564750163417e-05 
-0.000225488072405956 
-0.0001209086667526642 
-3.573818793187162e-06 
-9.540210997005598e-05 
0.0001782019095812296 
0.0001016985147876201 
8.271395690773443e-05 
-0.0004323989831782924 
-3.040747022139366e-05 
0.0001387352179925971 
0.0001514380363177664 
-0.000159119231062267 
0.0004842810088775035 
-6.486892156726682e-06 
-4.280315673677291e-05 
-1.842611935708364e-05 
0.0001222143378620998 
0.0001389844623144104 
-0.0002349628701928185 
-0.0007832759017451359 
8.216210655579982e-05 
0.0005676075286843422 
-0.0001143615973506854 
-0.0006448135655301565 
-2.574360985212657e-05 
7.305216554870268e-05 
-0.0002685202373752425 
6.375535109803444e-05 
1.779802712179996e-05 
2.628077803629137e-05 
0.0001759295683064303 
-0.001150595648902649 
0.000531544632966669 
0.001121326483347121 
-2.658473806198007e-05 
4.893508498865946e-05 
-2.549305411511115e-05 
-6.388068350425347e-05 
-9.172257093782374e-05 
0.0005855323840543193 
-0.0001370837955744399 
-0.0003515599518983488 
-7.139548784034721e-05 
-8.905283888666714e-05 
9.674105219841606e-07 
-6.646396166052975e-05 
-0.0001905476872705024 
-0.0001773027822588011 
0.0001410377444655944 
-5.772000772310926e-05 
-0.0001813425764621393 
6.660274025566542e-05 
0.0002457616707839267 
0.0001358294592665111 
0.0004174290041921299 
0.0006500327450933594 
-8.507960525383912e-05 
-0.0003804221408507433 
-2.861342510044626e-06 
0.0002169114158574972 
0.0001716935921085313 
4.60195000486709e-05 
-0.0001509265639306511 
-0.0003001350778518087 
-0.0002031374363302728 
-6.264395300610401e-06 
7.786576929738503e-05 
4.486767378597198e-05 
-2.018786424379032e-05 
0.0006059887959516513 
0.0004310852995213026 
-0.0001849853238011199 
5.428817149250176e-05 
3.058421923013331e-05 
-5.807408011447343e-05 
-5.76140414348574e-05 
-0.0003326231366907218 
-9.537655470042188e-05 
3.283728597114088e-05 
-0.0001385006235990163 
-4.645330139898458e-05 
0.0003189872257490144 
0.0002289247523974237 
4.056618114587662e-05 
-3.234129433598004e-05 
0.0003046619221770468 
-0.0003730236413620112 
0.0001314769616871967 
7.401260551007669e-05 
0.0005169055206673825 
7.926574554853379e-05 
-0.0006398716768294697 
-0.0008767819622960115 
0.0003038129269890054 
0.0001091626019779826 
0.0001776671345367935 
8.834074506119107e-05 
-0.0004842582516084147 
-3.732605730166968e-05 
1.700886367419756e-05 
0.0006529747225408119 
-0.0001703442818947112 
-2.057655460395172e-05 
-8.392472470987392e-05 
-0.0007120121583889072 
-2.086396385878294e-05 
-0.0004325780196880981 
-0.0008850192092708016 
0.0003067397419446789 
2.962902308514558e-06 
0.0002212728488070835 
-5.392554255876832e-05 
5.812402913887527e-05 
0.000145193808633613 
0.0006089944939011028 
-9.242753667825589e-05 
-8.805304700180857e-05 
0.0005654791098312566 
-4.460050479874929e-06 
0.0004130252941649119 
-1.359857986600193e-05 
-0.0002983074766462559 
-5.2563780499674e-05 
0.0002595056470406981 
0.0001031414644810902 
5.733881961841877e-05 
8.078711694648544e-05 
-0.0002477166483141761 
6.315399757854119e-05 
-3.6440610766421e-05 
1.236681653804974e-05 
-0.0001700894786762609 
0.000415010595796462 
-0.0001257036691179169 
-0.0001929222872489113 
-0.0001426310261350159 
7.59052440031535e-05 
-0.0001361964296749713 
0.0003040268390788669 
-0.0005606305142024587 
0.0001393078258369209 
3.219257721878451e-05 
0.0003893449186024198 
-1.803936024120267e-05 
3.711010166513732e-05 
-0.00013310438770255 
-0.0004294465309072477 
0.0002972309395458854 
1.815674319499534e-06 
-4.914631074176494e-05 
0.0001759312165002444 
0.0001417725796605322 
-9.14568927147142e-05 
-2.788093566338658e-06 
5.111672973771509e-05 
-8.067617355479621e-06 
0.0001622627655752656 
-0.00013312021230416 
-0.0006043160169217745 
0.0001105126733918651 
0.0001267198743567774 
4.69414805593205e-05 
0.0003174264792504822 
-2.890001669331772e-05 
3.05767325381062e-05 
-9.875783646775006e-05 
6.158017541150032e-05 
-0.0004192143754158398 
0.0008789759317116658 
-0.0003059152169407427 
0.0004055658725961274 
-0.001169171691571872 
0.0003515988300321689 
-0.0001242069302980416 
-0.0009843274633880175 
-7.85176466107372e-05 
0.000176650447800276 
6.202166585166284e-06 
-0.0001017870158456201 
9.644085815037142e-05 
0.0004311983083546766 
0.0001497121904993448 
-9.024160980392763e-07 
2.58467881255663e-05 
6.154285703421951e-05 
0.0001784909401563849 
0.0004299756224111889 
-0.0001823795865781975 
8.750904867463984e-05 
-7.697055119150283e-05 
0.0001503042251223782 
-7.375426329075552e-06 
0.0001832153564185477 
-0.0001000696269577281 
0.0001178475704127665 
-5.478988770420854e-06 
0.0001474842182848321 
7.152360986874009e-05 
-0.0002103207217354675 
0.0005209832384186211 
-0.0003162191416289001 
-0.0001929330781447739 
-0.0001290448437558975 
-8.8656495471064e-05 
5.85380058974943e-05 
-0.000151569414579421 
-1.180175912357747e-05 
0.0002863690687412518 
-3.058414670164973e-05 
-0.0008815847270611034 
0.0003320556632239401 
0.0002148717616462682 
0.0001796181172090372 
0.0004380902419711081 
0.0001261386059061532 
5.541947213798561e-05 
1.271450488422751e-06 
-1.597616348832921e-05 
1.144854910135695e-05 
-8.32450661843667e-05 
0.0004300789368467874 
-0.00010877766132812 
-3.559498318173335e-05 
-3.860567257426035e-05 
-0.0001011768010953666 
0.0001007785755146672 
-0.000410419689631129 
-4.125772655998683e-05 
8.850303515064601e-05 
-8.051279253976502e-05 
-6.052709893102982e-05 
0.0004046977124527942 
-4.759194277683974e-05 
7.143949440358027e-05 
0.0002003088790196162 
0.0002451513255611406 
0.0004171386269061559 
-0.0001757849877951765 
-0.0002395416296070609 
-0.002050620130634698 
0.0005999851205009054 
6.667766839303245e-05 
-0.0003997711230984622 
0.0004630433454621444 
-4.228361975353457e-05 
-2.937809673499044e-05 
-6.227588094397046e-05 
0.0001373951567857158 
0.0001067706722876379 
-1.632150181984792e-05 
0.0004937159029868878 
2.526364133351541e-06 
0.0001058511554728378 
-6.380579081870253e-05 
1.431993732604669e-05 
3.974237750161315e-05 
0.000114461964583655 
6.643700434456932e-05 
-0.000160334271686763 
0.0002302964506689472 
-0.0003028542115566707 
0.0001270158685046346 
6.042880342206129e-05 
-0.0002470976646032335 
0.0005530307750889142 
2.610827485383726e-05 
-0.0001020035980481923 
-4.372107601978207e-05 
9.758147652332591e-05 
-0.0001161380147077549 
9.72546500724985e-05 
-0.0001029731604097137 
-4.468487986795263e-05 
3.370447710921444e-05 
-4.667634339497965e-06 
-0.0006772092326220868 
9.528689533387803e-06 
-0.0003329219272734465 
-5.781317458688004e-05 
0.0001256916499889761 
0.0001347982842496887 
0.0003571477638803917 
-0.0001477692902211778 
-0.0002429119104680462 
6.941757362156444e-05 
3.591773232465774e-05 
0.0002117181590347198 
7.29099213432951e-05 
-8.607786490221692e-07 
-0.0003109915616800926 
0.000660226714404936 
7.440192522532739e-05 
1.881217000239394e-05 
0.0001013934943489008 
-5.320773190578543e-05 
-7.206228423110223e-05 
-0.0001537937952968032 
0.0003444827098070246 
-0.0002282636568802854 
-3.905897753703395e-05 
8.032484989784582e-05 
-1.620847127831649e-05 
-0.0001639572797772903 
1.088953291390658e-05 
1.571352323260807e-05 
-8.767768476073371e-06 
0.0001846775418461601 
-0.0003147011760193241 
0.0002011313375697601 
-0.0003880794458028431 
-0.0005048144128772475 
-0.000261190400506857 
-0.000299715651735541 
0.0001916783322784083 
3.04009457273849e-05 
3.924087620508678e-05 
-2.957088281937642e-05 
0.0006592005928273131 
-6.796028600865817e-05 
-0.0005682453200989959 
0.0006419485254258368 
0.0005503540609081836 
0.0001931062726069041 
0.0001474992990699003 
-0.000282791718486006 
2.965669638652312e-05 
2.236174066678399e-05 
-0.0001183023446461189 
-4.657805078344468e-05 
-3.499155706064877e-05 
6.636766172345161e-05 
-8.136067444404101e-06 
7.196062919646112e-06 
-3.542203427573348e-05 
-7.565042513632447e-05 
-0.0001641638753612046 
0.000263380190620398 
0.0002853783788481027 
0.0001729424304853558 
-0.0003465625581487777 
0.0005750155239049912 
0.0005698294423117817 
-0.0005946380796581121 
0.0001865190506089026 
-0.0001321362779270925 
0.0002765969944106669 
9.854745215513265e-06 
1.306259175951286e-05 
-1.850612984048114e-05 
-5.626497951990229e-05 
-2.787251751149207e-05 
8.693161212303822e-05 
4.717717047543382e-05 
-0.0005047025714191502 
-0.0001448912547396048 
0.0001662661314793696 
7.710505079038298e-05 
-0.0001540964148316615 
0.0001826092853208052 
-4.219205537293522e-05 
-0.0001787518623682046 
9.163819147284615e-07 
6.7866665837672e-05 
2.896188970515313e-05 
-0.0001639639675218292 
-9.593439783074228e-06 
1.406015763496517e-05 
8.126528012471562e-05 
4.242033667669082e-05 
5.169569006646674e-05 
-0.0001041527808657004 
0.0001766907005226899 
5.873941580995858e-05 
5.999287470164418e-05 
-0.0001492147194251033 
0.0001824914726322505 
-0.0001120091699973199 
-0.0001589010121554289 
3.479885645007466e-05 
-6.984789164432852e-05 
-0.0007251564279720946 
6.085864151833118e-06 
0.001010628686706949 
0.0002887543996078953 
-2.351731671529761e-05 
-0.0004239880808344931 
-4.780485107527395e-05 
-0.001047048655489923 
-0.000306123174010922 
-3.154623728839184e-05 
0.0003630255289005703 
0.0001285928115789222 
-0.0004441690311392475 
-6.678395220479749e-05 
7.333406561246304e-05 
-9.60541880527499e-05 
-0.000403989322944315 
-5.138316385619525e-05 
0.0007704025649243009 
0.0005756757508850261 
6.412557630695081e-05 
0.0001548453991079054 
-1.430179872568913e-05 
0.0002133242343585334 
0.000103681093355487 
-0.0003008544137559461 
-5.193548708538537e-05 
-5.531248450617266e-05 
-0.0001061395848149401 
9.660976856300448e-05 
0.0003958309959988796 
-1.720008933271537e-07 
3.437685741224217e-05 
0.0003758121979602486 
-0.0001159120564165419 
0.0001673510068878363 
-6.407474541631538e-05 
-9.271899965183875e-05 
-0.0001003094060281661 
8.536152415970515e-05 
0.0006164337160267513 
-0.000427826561924469 
-0.0002483114215000651 
-0.0001152580314008665 
-0.0004643524794130746 
-0.0002973647944493298 
5.803124975667084e-05 
0.0001395842384515144 
1.023983551414513e-06 
0.0003056293033980635 
-0.0001609093691663615 
0.000132858537190702 
0.0004210087758900201 
-3.926422752926672e-06 
-0.0001874111572052555 
0.0001517687303658569 
8.666797759383337e-05 
4.446252786839349e-05 
-7.46158745971088e-05 
0.0002776159783165622 
-0.0002303780681717758 
-7.027274869889033e-05 
0.0003948833149984816 
-9.991087069685808e-05 
1.806417399191135e-05 
-2.889353225376364e-05 
-0.0002503076913712682 
3.968226138800485e-05 
2.256023789252043e-05 
-1.123946822601653e-05 
4.350111055912163e-05 
8.936611484101594e-05 
8.979737941743944e-05 
-9.101778504347357e-05 
0.0002040595295535384 
7.429429757197946e-05 
-0.0002029534070914864 
-0.000186654206208676 
-0.0001501506190177502 
8.579179530209032e-06 
-8.980734934457108e-05 
0.0002536374599814733 
0.0004172343830180319 
0.000446007673978208 
5.811507559879036e-05 
0.0003656178457374858 
0.0002195038361823388 
6.226856285573166e-05 
-0.0001101061704394771 
-7.440681167405278e-05 
-0.0002211284649238594 
-0.0004216740935314002 
0.0003098019074473352 
-0.0002986038023532663 
-0.000115104867298702 
-0.0003026255963024017 
9.954773813698722e-05 
-0.0001831095388204537 
-0.0001176307573303177 
0.0001422087823014173 
-0.0001977254631910521 
-0.0002070079356441625 
0.0002978262516346176 
0.0001312290143146055 
0.00032077092171752 
0.0002907043133427014 
-8.966164290901327e-05 
-5.467911732629584e-05 
-4.632160163913993e-05 
0.0002192791881270232 
0.0003488457589172562 
7.478953375189879e-05 
1.640539106220983e-05 
-0.0001454631775054759 
4.526353110423295e-06 
-0.0001133646688502025 
8.871503217483379e-05 
0.0001371046667135509 
-0.0001383299002576843 
8.079559613015322e-08 
0.0002019168810325841 
-0.0008161192462775217 
0.0003313754210407683 
0.0003088624868923452 
0.0003334306084571445 
0.0001275965848721846 
-0.0004639876696899441 
0.000252110782542511 
0.0001966349017319218 
-4.743876576147563e-05 
2.907998569431654e-05 
0.0002385467987763959 
-0.0001140060478749583 
-0.0001727946939355512 
-0.001281679738269565 
0.0002029423105367554 
-0.000760421369570161 
-2.646230768088882e-05 
-4.742399815129271e-05 
-0.0001039759476408022 
-1.07139149945154e-06 
-4.881650858449411e-06 
1.014582586041251e-05 
0.000360991261988244 
-0.0003230276164213912 
-2.749862546262149e-05 
0.0002301878691160107 
0.0005519184171794963 
-0.0004003903392007438 
0.000200778483392545 
-1.524500090021298e-05 
-7.456496092137804e-05 
0.0001089996147978647 
-0.0001480036621895 
-1.442500533176197e-05 
-8.359646720856999e-05 
4.181767977555724e-06 
0.0002455035895346123 
5.442813696551132e-07 
5.14962222791586e-05 
0.0004857207231701782 
0.0001082531751976384 
9.001402870556521e-05 
-3.115532211012892e-05 
-0.0001289507912361172 
-4.962373349442547e-06 
-0.0002874615918012722 
0.0001616276984224914 
-2.956635626505078e-05 
3.132688068301382e-05 
0.000132850720624351 
-0.001219432331282057 
-3.863674320924338e-05 
-0.0003216925948109797 
-0.0005048524686100332 
-3.043952351451261e-05 
7.517926473578788e-05 
0.0003793589051546547 
0.0001110072660134362 
-0.0001807841424488052 
0.0006676800241447082 
-9.025220297665021e-05 
-3.022943043647267e-05 
-7.385187693850565e-07 
-0.0002276985139855553 
3.815295674575736e-05 
1.901326940900323e-05 
2.493809457328912e-05 
0.0001159268568280807 
0.0001811290185365928 
0.0001041988842463906 
0.0006800777103498275 
4.244183347582079e-05 
-7.230949277516189e-05 
-9.652472300738893e-05 
0.0003548172857190554 
7.260677345390073e-05 
1.454383263774154e-05 
-0.0001955610840910948 
3.857431353693254e-05 
-2.032958344149087e-05 
0.0001167125293759992 
-0.0008458120869136771 
-1.99960074862698e-05 
0.0002718495864541605 
-6.491200131375071e-05 
-0.0006018490755222212 
0.0001843201791531447 
0.0004447485713274751 
0.000124607027846647 
0.0001291189136410755 
-0.0001731259446968562 
0.0006023120403537664 
0.0004824523899189772 
-0.0008068112953184987 
-5.975027503481217e-05 
0.0001881901616955201 
2.123989782306055e-06 
-0.0001923015114533802 
-0.0001894133880469171 
-5.092134328583722e-05 
0.00031228261057899 
-5.995894020816379e-05 
-3.294490741714742e-06 
-0.000379926223711407 
-3.912887412630696e-05 
0.0001704432610491418 
5.669498473640699e-05 
0.0002445392098198329 
7.178809941622121e-05 
0.0002349323221862114 
0.0004067291802857295 
-0.0001338090081149395 
0.0002354574813723888 
-2.061398566162252e-05 
0.0005207296583405348 
-0.0001686761485418863 
8.009065512859818e-05 
0.0005400330568474542 
0.0001325268222437897 
-0.000183975228776545 
0.0001065378982596944 
4.17379749281064e-05 
-0.0001191104382716113 
0.000118167998068076 
-0.000202294228157203 
8.913875620700656e-05 
-0.001151603966700886 
0.0001298299690413082 
-0.0005188231499731336 
-0.0005149335393088226 
9.018163271520214e-05 
-9.933432159496626e-05 
3.269855446630885e-05 
1.711645745424673e-05 
-5.865588291763207e-06 
0.0003112991471131891 
1.430965446147369e-05 
1.503227849677683e-06 
-6.760964783613501e-05 
0.0006033362554835812 
-9.189926711619822e-05 
-2.471671234914214e-05 
8.945887305715283e-05 
-0.001098470681663712 
5.458212822551372e-05 
0.0001162627497770358 
0.0001447717454934798 
0.0002815695286432484 
-0.0002902461952429002 
-0.000568759710548062 
0.0006101005911642452 
7.568848173209533e-06 
6.170274739688082e-06 
-6.669388898076335e-07 
8.448329859669644e-05 
0.0001458452462675413 
-1.388067117089914e-05 
6.883313424784535e-05 
2.951587162629208e-05 
0.0002451931431322147 
0.0001529105825185484 
-8.849738392033234e-05 
0.0004313316774339614 
-0.0004150751152333924 
-0.0003303088542856423 
0.0001274437664996549 
-1.720203545013966e-05 
0.0004465132473489147 
0.0003837499986621189 
-0.0002204346504511194 
-0.0003335324601655692 
0.0002192446007491605 
-3.054104782711004e-05 
-6.977441193632138e-05 
0.0001680908992554001 
0.0003891607500141358 
-1.950446362836568e-05 
0.0003551423173113444 
9.138678972151997e-05 
0.0001108718388773517 
0.0002681041716385488 
9.263823611373196e-05 
-5.236020214761114e-05 
-3.764371399971091e-05 
4.851893848069696e-05 
0.0002930083158625519 
-5.092930536029386e-05 
-0.0001239370307348761 
0.0002245940087739265 
-0.0005133688001338416 
0.0002289213228202911 
-0.001269016549082365 
-0.0001008377919099105 
-0.000185617745942197 
0.000217550912173432 
0.0001914232701330861 
1.145663438293592e-05 
0.0004499600523498177 
-0.0001029940133041857 
0.0006294559483109626 
-0.0002711541669135332 
-0.001040688027268912 
0.0001302265595166615 
-0.0001149701831465369 
0.0003169721202378161 
-0.0001663019428303508 
0.0002074858146501552 
6.952170465804455e-05 
3.318123676041891e-05 
-0.0002968080828947703 
0.0001075750532477077 
0.000193856384049088 
1.852951748272234e-05 
-6.252742815915946e-05 
2.392927762005497e-05 
0.0002400166492323448 
0.0001287055660359646 
-0.001692349097238047 
-1.191667031431689e-05 
-4.637025000783907e-06 
-4.810033485696451e-05 
0.0005284254110659484 
8.688384098213544e-05 
-0.0002392259515411045 
0.0004508526960293865 
0.0001729695169714372 
2.024134448633033e-05 
0.0001370509854461156 
4.092361572172876e-05 
-9.229918041761327e-06 
-2.765053836249232e-06 
-7.170200195023313e-05 
0.0002037387882021355 
0.0001113648456032782 
0.0002902284364365535 
-0.0003379864522653159 
-0.0002037182274252033 
8.364470841387724e-05 
0.0004449528843417113 
0.0002931507085320269 
0.0001957406025611906 
-0.0003992179101368192 
-0.0002202396782403142 
0.000229677042435178 
0.0003979298314087107 
-0.001300519686404697 
0.0001079998016839772 
-0.0005886903080394798 
-8.265877097015999e-05 
0.0004644978541750864 
-3.887480325340972e-05 
-0.0001977856578026323 
6.854965411999798e-05 
0.0003884286460755078 
3.452984879470366e-05 
-0.0001103744296847124 
0.0001203809745959002 
0.0004852082220846263 
-8.907289019604454e-05 
-0.0001549127830355185 
0.0001411410234057029 
-0.0002156137005054471 
-0.0001119009387622755 
-3.22279599148143e-05 
0.0003197145888207172 
-7.877051255771961e-05 
1.538434427069477e-05 
6.639300214861892e-05 
6.975439100616664e-05 
-5.441424138497409e-05 
0.0001757915662481077 
6.801168854769505e-05 
5.703449282073378e-05 
0.0004230345394521994 
0.000159579294344768 
0.0005521422572042527 
-2.631695004025129e-05 
-0.0003022332218671045 
3.462226180673122e-05 
-3.670363030900878e-05 
-6.595961923614439e-06 
6.10661448540028e-05 
4.716981719623526e-05 
0.0002731614672968092 
-8.109355006570601e-06 
-1.687754389478493e-05 
0.0004669814402056431 
-2.453104982976563e-06 
0.0002698679183304436 
5.345156130754056e-05 
0.0001962410208465445 
-0.0002161703455248951 
-0.001386586774479781 
0.0006631840452984791 
7.683993875068412e-05 
-0.0001146947630049463 
-0.000232369845979621 
-0.0003118830390729927 
0.00026088711752358 
-0.0001497766747221413 
-0.0004027093844989305 
-0.0004574268271553242 
-0.0007589270833001994 
1.900580783223447e-06 
9.203638978241877e-05 
-0.0005435642333625635 
0.0006305223041689359 
-2.392558666988189e-05 
-0.0001970068134313436 
-0.0004046142418611167 
0.0001158761066088377 
-0.0001199992380290832 
-0.0001285338193470242 
-0.0006361046244412736 
0.0003997611758996338 
-0.0006590451185793632 
0.000649496799098441 
0.001030901352377706 
0.0003116940623533672 
0.0002679294713245967 
4.242193088685499e-05 
-8.842217654838391e-05 
-7.057307645609339e-05 
-2.112103704064732e-05 
-9.475440120314271e-05 
5.091405354382024e-05 
0.0002389005129374031 
-0.0001827322084362123 
9.465945697439125e-05 
-0.0002543300427342625 
8.55174859021709e-05 
0.0004850996414109877 
-0.0001470567241833293 
1.23825114264411e-06 
-0.0002999028717226592 
5.35303933385438e-05 
1.910832556751674e-05 
0.0001413138872874005 
6.13030156338526e-05 
0.0007856325651690745 
-2.119163988572111e-05 
-0.00024789167210255 
5.674240704615333e-05 
-9.239661761612274e-06 
-7.34650069196787e-05 
0.0002517810300053381 
2.92964183565099e-05 
0.0001804353624339673 
-7.810550003712215e-05 
-0.0001055596352436262 
-0.0003610921968408181 
0.0004529552052892181 
-0.001836944830388502 
0.0002226341974852791 
-0.0001443157570954006 
0.0005619587523068473 
-0.0008519623881798682 
-0.0005163427601474929 
-6.363019752070071e-05 
0.0005881639340451989 
0.0004661271499159152 
-3.463700055942847e-05 
0.000162206506942081 
0.0006384447710783402 
7.602629490749062e-06 
0.0001332037165846938 
0.0001924093952094113 
0.0005686468592733545 
0.0005931757127973369 
0.0008810202748549857 
-0.0001460251639696422 
3.431021249795292e-05 
-0.0005164436064622066 
-0.001580681856650787 
-0.0002568127728840669 
0.0001876738149268877 
-0.000460596566235481 
9.326192760638653e-06 
0.0005018755870228821 
2.753262271292607e-05 
2.497351704969184e-05 
0.0003548949337967691 
0.0001740897563540315 
0.0001807625831675948 
0.0001097878384643823 
-0.0002130218812177452 
2.433259227618782e-05 
2.408560582530312e-05 
-8.491484951157006e-05 
0.0001428844643969145 
4.404083624196382e-05 
-0.000304570108611615 
-2.037090947546045e-05 
0.0002170928669463259 
-0.0001201738748731239 
0.0001334834506620235 
-0.0004676322105944388 
-8.699616717992315e-05 
3.687670780088951e-05 
-0.0003373628427156069 
3.983237022791901e-05 
-0.0004362777771235328 
-0.0002185594709077067 
7.281906846098837e-05 
0.0001265977971549092 
0.0001157836311694278 
0.0006222870356228541 
-3.43117208759632e-06 
-6.887561204426812e-05 
-0.0001493409784363253 
0.0004915276351472401 
-0.0005824198572104062 
-0.0003430381332900493 
-0.0003685573497645215 
-0.000514221517386815 
-0.0005988015352805144 
-0.001459230285514189 
0.0004626213587106882 
0.0009184895725234311 
0.0001662935696864793 
0.0008765005393648993 
0.0002300037826488167 
0.001096264142682569 
-0.0001474411975003822 
-2.457359881504211e-05 
-0.0001733087959267857 
-0.0001223577249984403 
0.0002770050524130276 
0.0001295103217950696 
5.35444131644796e-05 
3.465504460070392e-05 
3.192958892443856e-05 
-0.0001292341422797447 
-2.865166530208344e-05 
0.0002239432824651516 
-2.987322542502501e-05 
0.0004767036478222011 
0.0003244693784923742 
-0.0001506970171277989 
5.167562042517744e-05 
1.858561624836091e-05 
-0.0003255405257440646 
0.0004596152462230769 
-0.0003348496896747225 
0.0006949146144606117 
-0.001202217336868556 
0.000122954870922025 
-0.0003170176705088694 
0.0001000529059736132 
0.0001631265322387837 
-0.0002013891976943317 
-0.0001921593340858596 
0.0001045610952847473 
2.335986228957586e-05 
8.708293796737466e-05 
0.0009653403774525917 
0.0003103882280057977 
-0.0001516713097853211 
0.0004338833015094131 
0.0001144958942998834 
-0.000359954915126993 
-0.00115032286641103 
-1.481206657319588e-05 
-0.0001444137083217887 
-4.285267528298625e-05 
7.120260327178192e-05 
9.224105021309289e-05 
9.301023516784915e-05 
0.0001222332320472065 
0.0004094326113978095 
0.0002943688735860949 
1.202507226094068e-05 
-0.0001238874054014851 
-0.0007931625406597112 
-6.862665209507351e-05 
0.0002820513031728819 
0.0002159181933818352 
-8.785665624729859e-05 
0.0004879256070073843 
0.0006981261610438595 
0.0005288699076323047 
-0.0004098571681049067 
-0.001394754883188891 
-0.0001479337681129972 
0.0004181825225637345 
-0.001169277344352812 
-4.663567657957899e-05 
-7.134349218246129e-05 
0.0004890128036096534 
-0.0003090616994264694 
0.0006602651514247496 
4.850425874142788e-05 
-0.0001247286228814107 
0.0001939939224599633 
-0.0006612252762185402 
-0.0002703981815320313 
3.46489941820255e-06 
7.427571306060915e-07 
-0.001846931647196998 
0.0007348959083594757 
0.0008070481695306726 
0.0003476501779561791 
6.680589797640844e-05 
-0.0006315032984379519 
-1.800525041567151e-05 
-0.0001281705899490353 
0.0003215049538606712 
0.0003263713053505323 
-7.923248576108373e-06 
0.0001827744694986396 
-0.0001688461608857849 
0.0001856542932775419 
0.0002194298924423311 
0.0008388438474737428 
-0.0001081007902830411 
-0.0001027255265037899 
-4.719303384508303e-05 
-9.499169541920647e-05 
4.784336393532331e-05 
0.0002542224269030585 
-0.0001911886175499234 
0.0001706299180438551 
8.252493823082517e-05 
-4.951948798879064e-05 
-4.832321926885224e-05 
-4.720204574574919e-05 
0.0003968173610945729 
-1.633117991611042e-05 
0.00012061915804889 
-0.0001062180928541301 
-0.0003249861917879924 
0.00026749455918461 
-0.0002749578050807181 
-0.0001096278507703574 
-0.0002819680983670209 
-0.0005881974506784839 
0.0003011650671850013 
0.0001836869250849948 
-0.0006246690803439712 
9.300016011358191e-05 
0.000102059402426563 
0.0004730383884318787 
0.0004280396269832721 
0.0002375752989173848 
-9.115912113812991e-05 
3.648749175009987e-05 
7.370814720428214e-05 
-0.0003269165767194628 
0.0001978310489897281 
-0.0003463981488695079 
-0.0001408261409889735 
-0.001148167925452245 
-0.0001194830175832914 
0.0007506261960931579 
4.168797788044823e-05 
0.0008114419711819248 
0.0002398695912041684 
-8.70825416526626e-05 
-0.000103423300722097 
1.384084389769032e-05 
-0.0004130697784079581 
9.19507441733406e-05 
8.820246808689404e-05 
0.0005813985831896174 
0.0002202713997663246 
0.0002805841990496172 
-0.0003777627838556025 
-0.0007360928358886975 
8.05001319710367e-05 
6.516134617910834e-05 
-0.00030550772473886 
-0.0001759662788811989 
0.0001298818584044532 
0.001016740883058308 
-7.820786499110503e-05 
0.0001363340815189433 
0.0005351634190170826 
-0.0002452695396439984 
5.119238649770599e-05 
0.0002681109489566493 
0.0002338243844377786 
0.0001791845527141655 
-0.0001582627685550646 
-0.0001098569335881324 
4.145039054074353e-05 
0.000283763013038684 
0.000613875847059201 
-0.002720367796651001 
0.0002383785696084854 
0.0004421367043293946 
6.88374463226957e-05 
-0.0002174046005343347 
-1.557125777603582e-05 
-8.254027739315885e-05 
0.000114385174936038 
0.000249936466960826 
0.0001118287413862679 
-0.0004171884819740019 
0.0003751719156325075 
0.0005445358805675079 
5.219552649723473e-05 
-0.0001665681059989732 
-0.0001340736428882322 
-8.996043456698072e-06 
5.449495465750846e-05 
-0.0003948362345416939 
-0.0004482732356198876 
0.0001204386105572041 
0.0004654385889933069 
-0.000654155985256126 
0.0001342658479701696 
-0.0001459041312170877 
0.0001525274759079622 
0.0001961377087862901 
0.0002204896757121868 
-0.0002070987823960029 
0.0001590441006431056 
0.0006092007059373149 
-0.0002346374956644009 
-0.0006516923751212446 
0.0006481843372355891 
-0.0003300133592943378 
0.0001609408336142241 
-0.0002622385409242502 
-0.000453127839631786 
0.0003156153325981168 
0.0006379571238374544 
-0.001176335452843982 
0.0003354709172373175 
0.000189695591253352 
-8.424404279859297e-05 
0.0005229192192400088 
0.0001153374049797985 
-9.225498527909291e-05 
6.959316073751605e-05 
-5.990960060771405e-06 
1.210313579211072e-07 
3.728347584651297e-05 
0.0002329105596576576 
0.0003874434689114425 
-8.835831970946974e-05 
0.0001558018207550566 
-0.0002760027383228447 
-0.0004992555502354057 
-2.481354111148815e-05 
0.0002608538742292399 
6.47919889873605e-05 
-0.0001657428682770086 
0.0002333014358041506 
-0.0007313882173145975 
-4.517365846787431e-05 
0.0001273792799303304 
0.0002256693455712066 
2.361035704063925e-05 
-0.0004679382607132909 
-0.0001637981275279197 
2.851646832851887e-05 
7.046621479067781e-05 
0.000454994626899416 
-0.000213407307578964 
0.000286317182619869 
0.0001624410599744158 
-0.0006870605102520369 
0.0003081978954784001 
-0.0002966649833541851 
0.0001866182464790131 
0.0003206836890558012 
0.0003232672479702279 
3.974833307344181e-05 
-0.0002940271692262745 
-0.0006924928748779948 
-5.187443170122467e-05 
7.489679459165369e-05 
0.000823788294476372 
0.0003167402027422431 
0.0002196838309757043 
-0.0006347775439017202 
8.106649998163526e-05 
0.0003730307064074184 
1.831621169734677e-05 
-0.0001192889213226215 
-4.185634465067107e-05 
-0.000438826837406088 
6.307442239149643e-05 
9.471417711019855e-05 
-0.0002063321142499032 
5.152139817007454e-05 
-8.840358456271568e-05 
-5.055808113811713e-05 
9.259858220468591e-05 
0.0005585456833751633 
-5.52429015943805e-05 
2.298183695359305e-05 
-0.0013203464860363 
-0.001016680599653994 
-0.0002860627530216561 
0.0002918386264619387 
0.000495229132065547 
-2.908238920523748e-05 
-0.0002864557836855631 
0.001026786943164369 
0.0002505597304535624 
4.505675280371934e-06 
-0.000435671858981152 
6.382571315228715e-05 
3.387989174831929e-05 
-7.042584232349541e-05 
-0.0003273874721466356 
0.000550926768576002 
8.334508844872782e-05 
0.0005385340282769963 
0.0006424437357905942 
-0.0003648039620179974 
-0.0002258265244272654 
-0.0003385113855091219 
-2.074938055280519e-05 
0.0005831774345555985 
-9.105856952389271e-05 
-0.0003556269946811545 
-5.294507409041931e-05 
6.703789047259563e-05 
-0.0002800013652291163 
-1.943425968836939e-05 
-0.0007281720185593229 
0.0001054321572594298 
-0.0004220883361282481 
-0.0007395109125615122 
-0.0003894148952291125 
0.0001261838512347837 
-0.0002142453084086592 
0.0003896430711914185 
0.001061305033783203 
0.0003233447689997275 
-0.001094633736372373 
-0.0004754162992059579 
9.780292533614948e-05 
-0.0005767919921662736 
0.001282158755821688 
-0.000174049363391928 
0.00103408185297977 
0.0008662207358859505 
0.0001265277465206351 
0.0005709502168861639 
5.828172397198411e-05 
0.0001984843095025602 
3.876250249847361e-05 
0.0001537200775739802 
0.000112263953738191 
-0.0008306532988488369 
0.0004205676439361094 
0.0001665737856205876 
-0.0003696149458135718 
-5.772730584584305e-05 
-0.0002275522827338464 
-0.0002631466983055831 
-0.0001225575015001185 
0.0002762346797521359 
-0.0006757671455779728 
-0.0001913810095553527 
0.0006773883537010621 
-0.0003584500273791457 
3.266853693130205e-05 
0.0008699623886862787 
-6.613299659868433e-06 
0.0001953305066277356 
-0.0004872091965479505 
-0.000790065288102256 
0.0003731182862069052 
-0.001989412906846707 
0.0001032424597664208 
8.459220803625744e-05 
0.0001770040981306614 
0.0006351305855731706 
0.0005037185439423439 
0.0007884152300601383 
0.0001413741511825406 
0.0001398509074118882 
-0.000165590516589308 
0.000408268749415825 
-0.0005179174558141856 
0.0003977236148618398 
-0.0003552336410665949 
-0.0003970253088404019 
0.0004064889155826831 
-0.0007485634025566565 
2.138189231826571e-05 
-8.169526380172291e-05 
5.462983216947882e-05 
2.400728359657297e-05 
-0.001507433830012976 
-0.000203642252695634 
3.343414489365037e-05 
0.0002167345996714546 
0.0001422175948274643 
0.0002744525730563499 
0.001231302514831473 
-0.0003592741107894248 
0.0002153859804535407 
0.0002217726670575431 
-1.075141765475479e-05 
7.151489889890585e-05 
0.0003852544365768172 
0.0002075218315993853 
2.223985617945513e-06 
0.0001679600809219722 
-7.987405529594483e-05 
-0.001542862300228569 
0.0004872580831093314 
0.0008974849061266801 
9.659040309764169e-05 
0.000210773760228904 
0.0002704067278326372 
-0.000184282379954501 
0.0004459677118436554 
7.118131952269417e-05 
0.0002418769550382547 
-0.0002695198289695078 
-0.0003606846578300487 
1.099220373136048e-05 
0.0002356842897953808 
-8.596222003032992e-05 
0.0007206659067340008 
-0.0008384587909534507 
-0.0001286262219763763 
-0.0004294556143930329 
4.028608941337546e-05 
-0.001226947187553622 
0.0002878268783886889 
6.619469199410259e-05 
-0.0002986784062751171 
-0.0003325862657663896 
0.001192127999188691 
-0.0001947971795661599 
-0.0001256286910922934 
8.414605829592816e-05 
-0.0004719951951765558 
0.0009687074899026364 
0.0002745321948135338 
6.720224123401333e-05 
0.0007720683677831045 
-6.796245958241178e-05 
-0.0005974237990823412 
-0.0001623414770105443 
0.0001683503645749335 
0.0001114163825753127 
-0.0006796853503189201 
0.0001466045275882731 
-0.0003563144776112392 
3.100366813330065e-05 
-0.0006759031852287816 
-0.0004804938196962753 
-0.0009308487591224708 
0.000802448674844766 
-0.0007308280924237084 
-0.0008511866179451684 
0.0001884726746777205 
0.001019146591970377 
0.0006759095006672175 
0.0002331867529861019 
-7.129529257338074e-05 
0.0003269942396176078 
6.626896103510823e-05 
-0.0002474491066594364 
3.049704323659268e-05 
-0.0007619922524745493 
-0.0004665545146866809 
-0.0002995712500664615 
-4.008331808073021e-05 
0.000169754403368563 
0.001170488332802731 
8.774043611154532e-05 
5.030951789640715e-05 
0.0003745209677276022 
0.0002333118828366119 
0.0003068841774184607 
0.0002241057474958283 
0.0006227170860444786 
0.0001484503077989189 
0.0001166974069666111 
-2.797224456195098e-05 
0.0003937997700200971 
-0.0003438458577460824 
-0.0004251369997196619 
0.0004480457515837808 
0.0003328284112466048 
-0.0009146442518951559 
-3.01794967389547e-05 
-0.001280734090348909 
0.0005714289516240011 
-0.0003159756444505765 
-0.0001949201752106636 
0.0004643460916944232 
0.000217493212623405 
-0.0001555403019007623 
-0.0006957099697479388 
0.0003458147200664459 
-4.890730568865105e-05 
-0.0002671358591225323 
0.0001449350924316021 
0.0006578450032768995 
0.0004167572370162972 
0.0003564507544784008 
0.0002398319872831912 
0.0002326472598501364 
1.777748123744202e-06 
0.0001849891872178748 
0.0004586002059326162 
-0.0005219903065067918 
-0.0003418874460249133 
-7.369169841421743e-05 
-0.001143519030852923 
0.0004149558585843026 
0.0001144233114705593 
0.0009257949138660873 
-0.0002206050301610276 
-0.001080218703547076 
0.0002658069901438412 
0.0005048024866229234 
7.479628160753203e-05 
4.229460806137175e-05 
-0.0001884415836997895 
-0.0002165620549477879 
0.0001673637892016186 
0.0006581650041133037 
-0.00025307475175992 
0.0001311762091777507 
0.0004877051095392651 
0.0003323149599924268 
-9.926406355297975e-06 
0.0002697602754703489 
0.0001828319684546923 
0.0002352572661411125 
6.283525835774374e-05 
9.539648655757757e-05 
-0.0004508385630194531 
0.001502713767950493 
-0.001845165926047179 
-9.43016985159635e-05 
0.0005369106077125832 
-0.001613343519857741 
0.0003525429637243561 
0.0003308686478126809 
0.0004808424332763575 
0.0002406742241101321 
0.0001042132521104919 
4.455405975574479e-05 
0.0001549686369966903 
0.0001426475584700653 
0.000791686215037644 
-0.0002279839964829154 
0.0009705540859524002 
2.14535799293302e-05 
0.0002224862955435159 
-0.0004185915692548163 
-0.0002574962533239665 
-2.527429885751079e-05 
3.753203791849301e-05 
0.0002586343149563177 
-0.0001780030830161645 
-0.0001123419074454089 
0.0004143196630974596 
0.000282185331245793 
9.907732136431763e-05 
4.291830208818675e-05 
-0.000994081841206306 
0.0001325540442927039 
-0.001761272918700918 
0.0002485229702702889 
-0.0008153521036673557 
0.0002413861051983958 
-0.0004902377507923777 
8.062292022290982e-05 
0.0001060928726693309 
-0.0004849545179616027 
-0.0003255218247151155 
9.23670089653853e-05 
0.0001663251806867477 
-0.0004186158552234229 
0.0007311209340347327 
0.0002796905425518085 
-0.0003643523586289484 
-0.0007169847905994098 
-4.648509600732677e-05 
-0.0004475656012597604 
0.000168342942064444 
8.467509130570785e-05 
6.918923042531215e-05 
0.000249908634586003 
0.0004691727590936067 
0.0001186011764066939 
-0.0004811178379478235 
-0.001218177927057893 
-0.0002957594463849657 
3.218892118017792e-05 
6.44833700296651e-06 
-0.0004909590986155198 
0.0001429515369250692 
0.0006634094837173285 
0.0002927959335708405 
0.0004589104936650499 
0.0004262314639629951 
0.0003098943489217504 
-6.749874146558802e-05 
0.0004759305142144074 
0.0002879977121578583 
-2.890736438160274e-05 
0.0002474812610702109 
0.0006100093950410954 
0.000201981963965436 
0.0004199533129363774 
-0.0001331362852014523 
0.0002014391680515394 
-0.0005242032458623455 
-0.001211583001850123 
-0.0002418977511491989 
0.0003056120180454102 
-0.0007121075391769857 
0.0004674476251792362 
0.0001297396139641836 
2.562379600114787e-06 
-8.167719019584136e-05 
0.0006075837730246431 
9.585397000163367e-05 
0.0002998789494356433 
9.83911107009152e-05 
-7.219325753669617e-05 
-7.026008363275904e-05 
4.802545773337055e-05 
0.0002860931344125504 
-0.000588067545583882 
-0.0005269133786454017 
9.875278064835757e-05 
-0.0002278752454448879 
0.0001480162818246925 
7.512340957128305e-05 
5.8518961197367e-06 
0.000237183536906246 
6.076386956962785e-05 
-2.604906545511574e-05 
-0.0002500185421223081 
-0.0001063276627165408 
-0.0003443529354336767 
-0.0005000823575816143 
-0.0008404799781445859 
0.0003719711226179315 
-0.001108944977302023 
0.0004171361311047138 
-0.0004016967296505845 
0.0008736225867541825 
-0.0004461004251029368 
0.0004659289778946505 
0.0003381579604619841 
0.0006624294008299548 
-0.0001387297483335706 
-0.0002459876797781766 
0.0001697589183613696 
0.0002189045468800681 
0.0001435348941318366 
-1.987652790316831e-05 
8.084781265936845e-05 
0.0001818467064881001 
0.0004508226913723242 
-4.791016840812614e-06 
8.727341509353641e-05 
-5.365277640947439e-05 
-0.0001128135140196344 
0.0005210973780856914 
0.0001249090129386068 
-0.0004009423388782116 
-4.121884458610406e-05 
0.000169903470026205 
-1.288712298853641e-05 
6.055312621038635e-08 
9.433443940934704e-05 
5.017920942374637e-05 
0.0001009671345349646 
5.403874457583737e-05 
0.0007483126806255693 
9.559215025800228e-05 
-6.146441142434051e-05 
-0.0005235035904227071 
-7.228272608192913e-05 
-0.0004352620288074328 
8.298314560013243e-05 
-0.0005565014266632923 
-0.001427390656158777 
-0.0003491644284306268 
-0.000577668078545914 
0.000738153510320565 
0.0006730040085234429 
0.0003946306483444373 
-0.0002134791512679976 
-0.0001394225771416563 
0.0003022223672361714 
3.905964668888913e-05 
5.533968227579052e-05 
0.0005130654993395191 
-0.0005822190255678747 
-0.0007033877790938992 
0.001834774757141777 
-8.261065069801013e-05 
0.000280902097253779 
0.0002652378098045138 
-2.583396943860575e-05 
0.0001744718208853514 
-0.0002634011239889049 
-0.0002095043780914318 
3.537372888612016e-05 
-8.735937382297396e-05 
-0.0001250268550583468 
0.0002007214490533139 
0.0008508106861446927 
-7.106520595392976e-06 
0.0001717460099520137 
2.894840965836359e-05 
-0.0007852809761563422 
-0.0007588907722382394 
-0.0001039207630836328 
-0.002201755489643059 
-3.488417068246577e-05 
0.0004408725392884722 
-0.0003059566369608805 
0.001347027573500353 
-0.0002897495618476326 
0.0003006735919659456 
0.001343144236258618 
0.0003143113160265428 
-0.0001037591869351683 
0.0002769548306639886 
-0.0005881786578154818 
0.0006563979892019994 
3.363083540103663e-05 
-0.0006624573380150475 
-0.0001041577144279441 
0.0001190283629854597 
-0.0006662859634094584 
3.48229581597394e-05 
0.00086269141721247 
0.0002230508975439047 
0.0005998546585702789 
0.0001508554224902094 
0.0003247907034588788 
-0.00111295634994033 
-4.866141111770382e-05 
-1.661128357957036e-05 
-0.0007262260894344806 
-0.001281712285738016 
0.0007320329900913258 
-4.996982236668207e-06 
0.0003942674963636054 
-0.000242347297924309 
0.0005684431547184447 
4.281582779952902e-05 
0.0002271938282477687 
6.342647454286296e-05 
0.0003343275621744251 
-0.001259977376200308 
0.0001561608720477678 
6.151653629596914e-05 
0.000354152988788884 
-0.0003258943787135638 
-0.001407117728486124 
0.0002608855430659408 
0.00158003799471911 
0.0002747483215034257 
0.0002556855647197386 
0.0002717395641111537 
-0.0002078188858819618 
0.0001304136428556706 
-4.668954727133621e-05 
0.0001260168784324963 
0.0002347160501722535 
-0.0003854718909787282 
0.0002202121719416247 
8.98106800771992e-06 
-0.0002978747891685725 
0.000605546154282872 
4.260880701167742e-05 
-0.001039856367371079 
6.059947119868288e-05 
0.0009815139307838238 
0.0008073101179964972 
7.0419023247313e-05 
-0.0002243638785765061 
-0.000120692860372652 
-0.001095584381773668 
3.203601764620916e-05 
-0.0006485800530264404 
-7.230778127066338e-05 
-0.001358521723662758 
9.819179105124645e-05 
-4.807646074207564e-05 
5.210246821352331e-05 
0.0001914830909379776 
0.0007492214567488516 
0.0008891827581124272 
-0.0001139822578038066 
-0.0001015293584093954 
0.0002679572962043875 
0.0001349085767894102 
-8.424932507017424e-05 
0.000322903732188734 
0.0003822141455971082 
-5.28411037133298e-05 
-0.0001056746510110548 
-0.001010814408653668 
-0.000350172845193774 
0.0003711310728056617 
-0.0003110784748015945 
0.0001808897648557214 
7.464064328031506e-05 
0.0008145727348899913 
0.0003003710607292889 
-0.0005919331123629595 
0.0005858879927905367 
0.0006188376661203975 
-0.0001377574298864249 
0.0005948417132533261 
0.0002878778433039814 
6.852729756848919e-05 
-0.0001426981553259171 
0.0003945447165880235 
-0.0004766955467009957 
-0.001025210872110518 
-0.0003481740240872889 
0.0002295289263706969 
-0.0002911330496110679 
8.072873274078685e-05 
-0.0005122424095671829 
0.000258973549030378 
0.0001503886712530902 
-0.0003513345804404354 
0.0001380717025463373 
0.0003314671009234987 
0.000481073823055821 
0.0004828050051729585 
-0.0002174651348720247 
0.0004191788335567605 
-0.0003871881181928754 
-0.001086601793779061 
-0.0002321963446372244 
0.0002075563374572379 
0.0004875332677282329 
-0.0005875249814493347 
0.001086452043793059 
0.0004884862964350182 
0.0001745786330675436 
0.0001562412114935625 
-0.0009952380493250485 
-0.0001310854261584573 
-0.001025856033033405 
-0.0003744465635525228 
-0.0008264008640540647 
-8.838344848269161e-05 
0.0001285006447525287 
0.0002249120166606629 
0.001662983189318983 
-0.0003725799899214007 
-0.0005873699109724974 
-8.13245253486137e-05 
0.0006339525875454792 
1.357843421655333e-05 
-0.0002852648830619555 
-0.0003041658574694222 
0.0004963035848811288 
0.0002800945329260272 
-0.0004427159766496737 
0.0001735904572636617 
0.0003923384813885267 
0.0002955966928323419 
-0.001194252742471667 
0.0005718499272542244 
-0.0001306004649722824 
0.0001260181294880042 
-9.571344518121611e-05 
7.600958032551769e-05 
0.0009741211927900819 
-0.0005515220487920126 
-0.0005728615035881647 
0.0004400023780742647 
-0.0003067538663785704 
-0.0009984994980630165 
-6.688282549308418e-05 
-8.094651940057232e-05 
-0.0005828291085349333 
0.0004333270909485291 
-0.0004123007668531164 
-0.0002123355697033091 
0.0008194652314536157 
-9.790352310256662e-05 
-7.08550660713343e-06 
0.001433292566758079 
-1.479502470635433e-05 
-2.270498751098038e-05 
0.0002034115465482015 
-0.0009256031808137732 
0.0002893094388212466 
-0.0006074359399542752 
0.0001014377190747688 
0.0001607550923354662 
0.0003968660327286221 
5.689284299757798e-05 
0.0001749479907882977 
0.0002627527240518399 
0.0001140112022396173 
0.0002014874806523354 
-9.399618301254376e-05 
-0.0003664070962329559 
0.0009761941145633238 
-0.0004134433009691886 
0.0008494522359724648 
-2.468560995961562e-05 
-0.0004822883135276431 
0.0003371001637966789 
0.001044474525139417 
0.0001526795812134625 
7.660452123130763e-05 
0.0002350226397762877 
-0.000667760040802117 
-0.0006809452733382975 
-0.0005047736045312668 
-0.0009879341287334974 
-0.0003098861789011264 
0.0007845050088939174 
-0.0001618818729660478 
-0.0001853956862195084 
0.0006279569849568333 
0.0003361877156059837 
-0.0007981218121961278 
-0.0008392733174965262 
0.0001697300982614322 
0.00057354781789103 
7.721138191643838e-05 
-0.0001065010213846383 
-0.0005276704470575375 
0.0007144411273406917 
-0.0004220819485226813 
-0.001510437062580414 
-9.453142791036259e-05 
0.000864187300493954 
5.661045841862175e-05 
-0.0004010707152381072 
0.001343375002755311 
0.0001265058491075265 
3.618163916614391e-05 
-0.0001076134388227369 
4.080991632281368e-06 
-0.0007408337827182955 
0.0001059540781342047 
-0.0001218045525874416 
0.0003205094332717599 
-0.0001119624543614826 
0.0005281784688596894 
-0.0004530969123364147 
0.0004394055661990994 
0.0006716032009966081 
-0.0004071133860038241 
0.0003614748467857001 
0.0003860190529748003 
5.299964178892138e-05 
2.901172706644378e-05 
0.0003623772313374619 
-0.00169311372956961 
0.0008665783916955351 
-0.0007949160968249545 
-0.000328082373571021 
3.779800775703849e-05 
-0.0005676611557568603 
7.938488451845765e-05 
-0.0002052459223316797 
0.001312194296264998 
0.0008854185698695671 
0.0002875969436223743 
0.0003486408932329318 
0.0001116731531165438 
-0.0005047321192608581 
-0.0004270037057605434 
0.0003530641222230464 
3.57061419261697e-05 
0.0001133690003497825 
6.226269111925516e-05 
0.0002494202771680467 
-0.001376090693013884 
2.481235750305793e-05 
0.0004140651989832984 
0.000737401213507659 
-0.001455588645867012 
6.421638666073454e-05 
0.0003451085620561002 
0.000318897384515495 
0.0003934469509991436 
0.0001846936879492666 
-3.050737613210838e-05 
-8.83083457309337e-05 
3.511790069800646e-05 
0.0001339976105452289 
0.0004321870628544587 
-0.001864558546381436 
-0.0001895038813088546 
0.0003963321933706481 
1.996772250711106e-06 
0.0005312292222261116 
-0.0002452325435134054 
0.0007269154709744504 
0.000350860254301899 
-0.0002481549242933428 
0.0007543319355492386 
-0.0005409505682026722 
-0.001081750958352109 
-0.0006461630297286525 
-7.204571593071875e-05 
0.0002668825145785745 
-0.0003814133276593015 
5.056575278143973e-05 
-0.0001706486798954872 
0.0009777433885096369 
0.0005185713230216713 
-0.0001256333286187108 
0.0001805334158272678 
-0.0003820181790577727 
-1.925428657623245e-05 
8.166632176998722e-05 
0.0001403459226500718 
-0.0003452397903323574 
0.0003222158615747701 
-4.350128347550678e-05 
0.0004037506782906329 
-0.0004547826682052482 
1.251566040859174e-05 
-0.0001237036285873435 
6.525717207664994e-05 
0.0002077582864578423 
-3.921228860714497e-05 
0.0003230651465673491 
-0.0001089670548270193 
-0.0006109686772012018 
-5.965688715643584e-05 
-0.001584667026024498 
-0.0009877950468462711 
0.0001606189396110375 
-7.722476458681416e-06 
-0.0001601662236367798 
-0.0003922013553028476 
0.000436110732325368 
0.0003096300616629405 
-0.0003124543242500285 
0.0005599710218941228 
-6.978596571335109e-05 
-9.256393199053194e-05 
0.0001324710764669989 
0.0007112179455415709 
-8.270858716709332e-05 
0.001777661538055898 
0.0001953426793980049 
2.385920709624551e-05 
-0.0001525481764612944 
-0.0001648539455687709 
-0.0003950251030084001 
0.0005647678661774902 
-0.0006011204239381939 
0.001497501226643864 
-5.836057463205178e-05 
0.0002338490178973973 
0.000203859035152293 
0.0001378391578996102 
-3.154286917649001e-05 
-0.0004439396618057956 
7.228001132651878e-05 
-8.414219023982756e-05 
7.440283384588664e-05 
-0.0002397976658362614 
-8.012732860770825e-05 
2.388224701566607e-05 
6.753609182348566e-05 
0.0002685569448333845 
-7.816469016544138e-05 
-0.0004621602093555712 
0.0001382430570743212 
-1.001146502123922e-05 
-4.200049626236106e-05 
0.00076273317304222 
0.00035730574003037 
-0.0009189637586513036 
-0.0005259535606617273 
-0.0001650870202928204 
0.0001408920586414642 
-4.966884922890819e-06 
-5.268181299313345e-05 
-6.719846140345311e-06 
0.0001369385952083613 
-0.0001409913540748371 
-0.0002898160484994748 
0.0003410088566849681 
9.755789017997651e-05 
-2.355141193951946e-05 
-4.814779668142517e-06 
0.0003894633278745472 
0.0001605208187639072 
0.0001099443388631075 
4.363516467227324e-05 
5.395716051777304e-05 
0.0001992896281163556 
-0.0001425045158709056 
-0.0002904064327005253 
0.0001924774269837949 
-0.0002611474992537568 
0.0008040772476555052 
-0.0009021633658288835 
-0.0001217917264756517 
-0.0001975430973132287 
-2.508119795321545e-05 
-0.000193627661042806 
0.001406861477055865 
-0.0003253808163498694 
-0.0002230062238359651 
-0.001418641759841704 
0.0007163715930584528 
0.0001341957352961845 
-0.0007278835218132322 
-0.0006556850497403955 
0.0003985863238421893 
-2.650744558063758e-05 
-8.045303846925973e-05 
1.328872585462267e-05 
-0.0004503243090307275 
-0.0002257804231192446 
-0.0005853793152691498 
0.0006705774573542912 
-0.0003544174083090602 
0.0004251853569356689 
0.000425535844892617 
0.0002735328782627909 
0.0001223120987145652 
-0.0002299639127237128 
8.377982531367215e-06 
0.0003789189509799134 
0.0004285528955892187 
-0.0002953408952094631 
-0.0004010675349662711 
-0.0002264847768817108 
0.0004946644417747577 
-3.174216610145045e-05 
-0.0002573146212453417 
0.000201619428760789 
2.933130287686872e-05 
0.0001645029709021863 
0.0001793981079609399 
1.829362395388113e-05 
0.000349629441548308 
-0.001364920859394142 
-0.0005481504551286909 
0.0001286869026058064 
6.345449557400805e-05 
-4.823642689407438e-05 
0.0004206480409529388 
0.0001610782327021795 
-0.0002478792038737237 
-8.483594549053157e-05 
8.726695496443624e-05 
-0.0002245377819747399 
0.0001720633623806715 
0.0002629696583702442 
0.000754107221597201 
0.0004992672438510068 
-0.0001983215863681599 
0.0003713811505211108 
8.29707545094168e-05 
0.0005936086240383458 
-0.0008524385636444735 
4.564293698138387e-05 
-0.000185958635035581 
0.0002004774361992012 
-0.0001690882075802696 
-0.0002322638800829285 
-5.10254298152977e-05 
-0.0001545369275137089 
0.0001179318879619636 
-0.0001303452690651663 
0.0007615829061326813 
-2.611427277377022e-05 
-3.632521513582647e-05 
5.511588570342901e-05 
-0.0003206315312631997 
6.233476634905068e-05 
-4.544798035756169e-05 
0.0002203226676697663 
0.001515595013621985 
0.0001690767370540974 
0.0001712765385029366 
-5.912126829005007e-05 
-0.0003295465543101538 
-4.327761377280103e-05 
-7.692472465168271e-05 
-1.797056855315723e-05 
8.149788914395412e-05 
-2.70465595940617e-05 
-0.0002654309052074284 
0.0001278135972170723 
3.266273952711752e-05 
0.0002993026933035532 
-0.0004194999796183012 
-0.000427756107680374 
0.0003137873151052769 
3.508266331592228e-06 
0.0004173401742698445 
-0.0006013790957822198 
-0.0006395525686336842 
0.0003844564221017928 
-7.509078192814058e-05 
3.911690202782206e-06 
7.48178617195548e-05 
-8.321028557975826e-06 
-0.0004076638400515257 
0.0001610812833110303 
-0.0003887815331676415 
0.0008183373502384517 
-0.0009629188842888962 
3.089569771876501e-05 
-7.900350150694685e-05 
0.0002644400020333969 
-3.637036610677006e-05 
0.0004170762978585808 
-0.0001678895062257959 
0.0001831298256204525 
3.174295542089168e-05 
0.0005723647621407182 
-0.0003403160224585788 
-0.0006933649717883606 
0.0002768335049655646 
-0.0004687164313955875 
0.0004883286042221275 
0.0004021675919715506 
-0.0005923987500390014 
-0.0008705252956902556 
4.48647051544391e-05 
0.0002612335073199228 
6.661873364170928e-05 
-0.0004960375434923967 
5.998051682753576e-05 
0.001063912750156448 
-4.105302268366802e-05 
0.0002059327101849669 
-8.267568023361242e-05 
0.0003627710718039729 
-0.0003235012119415079 
0.0001778963585481399 
-0.0001325185539454519 
2.814261609179067e-05 
-0.0004252491105501847 
-5.082693895372876e-05 
5.503718923849008e-05 
0.0007086891266843521 
-0.0005207991302794068 
-0.0006713229159720254 
0.0007752039167583859 
-0.0002480424949364155 
0.0002114494108368957 
-0.0001940937115695104 
0.0001822206920420846 
-0.0002052789987246729 
0.0003947085117965944 
0.0009677180862837396 
0.0002796752034660471 
0.0003520190496012584 
-0.0002580191932328667 
0.000214325058846233 
-0.0004376090865193488 
-2.475430680648731e-05 
0.0003708911392729408 
-0.001328820719937042 
0.0002522891158567305 
8.376882379696984e-05 
-0.001090181023705488 
-0.0003222961755593195 
0.0008037361860769451 
0.000122148178584049 
9.805284648181881e-05 
0.0001674719440042189 
0.0003546116612737343 
-0.0005944780161556506 
-0.0002989544299506783 
-4.822095678451657e-06 
5.025681290310196e-05 
-0.0005182637258212784 
-0.0003592076470102501 
0.0007078082789887109 
0.0002448909953206771 
-8.3869587579043e-06 
-0.0001954392339312251 
-0.001024843721230289 
0.0001518450654605211 
0.0001066437701937091 
-0.0003014697453461555 
0.0001465416449693453 
-3.573337101762764e-05 
1.889252084379169e-05 
0.0001461712108215608 
-9.628595716230314e-05 
0.0002745950479336299 
0.0001990101036192301 
0.0004050903940023568 
0.0005813486000022537 
-0.0002438143465631942 
9.9695563175282e-05 
0.0004864117275552881 
0.0003398507125934754 
-0.00118268161926603 
0.0005792397726524188 
-2.783580885077694e-05 
-0.000185266051283057 
4.796678277818885e-05 
-6.050018082546436e-05 
7.172338513716325e-05 
4.541674058650201e-05 
-0.0003218395080181184 
-6.467544823128489e-05 
-8.599900749157363e-05 
7.204059445711207e-05 
0.000362849947523927 
-7.746315353566327e-05 
0.0001550300187303124 
0.0004037717449889705 
-0.0001815250615724074 
0.0002078827309261674 
8.101145301990899e-06 
-0.0004366867105138737 
5.041751877235313e-05 
-1.879680249519219e-05 
-0.0006560528770941149 
-0.0003731694376572045 
-0.0009896859580138348 
0.0004866177638025312 
-0.0001001720958325567 
-0.0005219973984738219 
0.000425275988860896 
9.661714497885187e-05 
-6.324580078469736e-05 
-0.0002447887418680743 
0.0006457559924772833 
-0.000499543226926562 
0.001970099110866751 
0.0002443625726100695 
-8.137543521831206e-06 
0.0001944038039101403 
-9.642681698739243e-05 
-9.43761854022665e-05 
0.000592333633917609 
6.747139579999315e-05 
1.233732555047407e-06 
-0.0009608941937924038 
0.0003886862207276054 
4.918532559962362e-05 
-5.522170384417402e-05 
4.333775201035338e-05 
8.973570916906373e-05 
-5.079279707832248e-05 
-0.0003604979685021551 
0.0004185295814593856 
-0.0005323943426096 
-0.000161193586269571 
0.0001004296720032344 
0.0001268301574151268 
-0.0003693331820501037 
-0.0005057384895693084 
-9.880682420617612e-05 
0.0003033336980564181 
0.0003065491202483619 
0.0004736137478419721 
0.0008621676917796579 
-0.0001028166983734664 
-0.001112303759425957 
0.0002218453725302485 
0.000193044053570322 
0.0001501103133265622 
-0.0005262760206533722 
-8.058723926304883e-05 
0.0002619573823586485 
-0.001094589252196327 
1.299369931106335e-05 
-0.0003266610076668243 
-0.0004400248127866224 
8.590761892873092e-06 
0.001666068363049167 
7.038039945192022e-05 
-0.0006930110706974691 
0.000101235770579697 
3.521925583856227e-05 
0.0004714310383309633 
-3.100774468688614e-05 
0.0003971791276292174 
-6.951413429547566e-05 
-4.948494158809098e-05 
-0.0003514368011166544 
0.0002064611940646475 
-1.419955821897736e-06 
-3.097446869795477e-05 
-0.0003338457616209193 
-0.0001327202499268839 
0.0001634098631727958 
-0.0002153214017420972 
0.0003735301356576458 
0.0003797813540641198 
0.0001053991568817671 
0.0002333879888808765 
-9.210179215849447e-05 
0.0004762075532871352 
-0.0001577839649028152 
-0.000312507206791563 
0.0005510645954169656 
-0.0001101454630496807 
0.0001171404701391251 
-0.0001050973850420358 
-7.422453282132272e-05 
-0.0002090955267921604 
0.0003734118290498838 
0.0006432634882337491 
-9.683234855351037e-05 
0.0007415321349368539 
-0.0004668912733376768 
-0.0002113574930230054 
-0.0002523164218360442 
5.584468433442866e-05 
9.91046826046366e-05 
0.0002696639954416143 
-0.001550841545588386 
0.0003843724764684953 
0.0001200463188135154 
4.166780176500735e-05 
-0.0004371116848061235 
0.0004750471869626598 
0.0002192817301413354 
0.0002142898744148049 
-0.0003782041292228219 
-2.647972267329092e-05 
0.0001091551456467161 
8.664889540324682e-05 
-0.0004206950150482272 
-0.0002626741598035643 
-0.0002259345857377431 
-0.000533371795107595 
0.0001498697534723619 
0.0001085813747124772 
0.001235875751122458 
0.0003063784222295554 
-0.0002774750983861648 
0.0003006543770196058 
-0.0001743725355870568 
-0.001115695855240307 
0.0002351340189755569 
8.587428590392345e-05 
-0.0005136205427668216 
0.0002117534615714347 
9.143777531911132e-05 
0.001260660162633224 
-6.979311306926405e-05 
0.0001883115068646403 
-6.805099644854644e-05 
0.0002495220909301344 
-0.0002412166552274845 
-0.0002964487601138939 
4.26746780109913e-05 
-8.306671076469597e-05 
0.0001028262096273143 
3.431831110844813e-05 
0.0001080661854086759 
6.454906942767796e-05 
-5.171333219272697e-05 
-4.39046792165837e-05 
-0.0006509894651036234 
0.0003941040626555268 
4.355620910124721e-05 
-8.134504473384602e-05 
-0.0003188556196798297 
0.0001389424844977093 
0.000325907585182615 
0.00046842535334078 
6.103323144378867e-05 
0.0001854534018974057 
0.0001186138775987776 
0.0002930171784683072 
-0.001788618625929944 
0.0002370103490689203 
-0.0003924426872899094 
0.0004817222231137789 
9.626800422732152e-05 
0.0002857448728939133 
-0.0005669650688748924 
0.0002167541473943304 
-0.0002521453877338106 
-4.373257619081897e-05 
-0.0001269736975170804 
3.484489370086237e-05 
-5.335814837676925e-05 
-6.905875776943069e-05 
0.0001966388263264001 
8.029862550511237e-05 
0.0007821755467570347 
-0.0002800632419423357 
-0.0002296505946049992 
0.0001170060226166391 
-0.0001861482955752879 
0.0006057620917259676 
0.0005402043371617099 
0.0002069644594294153 
0.0003106067324699557 
-0.0003845064191355049 
2.334023909677999e-06 
-0.0001231761038354668 
-6.939955675879e-05 
-7.185363336481907e-05 
0.0002224301915545874 
-0.0004919981954065523 
0.0002727347869808273 
-1.256441866898773e-05 
0.0004289242512784328 
-0.00138532820770226 
0.0001640255818085272 
-0.000175176342238986 
3.775739491246727e-05 
-5.24185873165969e-05 
-9.66882198793239e-05 
0.0002307839645653916 
-0.000755374221387563 
4.297640874252997e-07 
-0.0002528926664894191 
0.0001493217800110771 
0.0005569861177310358 
-9.113314930211762e-05 
-8.77480741731062e-05 
-0.0001944444122711976 
0.0008240567818503675 
-0.0001022932692659281 
-3.816763270873973e-05 
-7.899141487678934e-05 
2.044871628565834e-05 
0.0004332383198379578 
0.0008907473834535145 
-0.0005460618598697181 
0.0002176518940715909 
0.000120903606308483 
-0.0001822912708784371 
0.0001947396375570344 
0.0002175906199892815 
-0.0003102471030731461 
-0.000358989404797005 
0.0001447374272287829 
-0.0005783053481075864 
0.0005226682413450303 
-0.0005701803567500368 
2.942987262612873e-05 
8.688389803792464e-05 
-0.0002379896718758784 
-0.0003629417119510186 
-0.0001086927515865097 
0.0003097665623059571 
4.801082550032857e-05 
-0.0006125249896019061 
4.359623469095005e-06 
-0.000162668597681833 
0.0003274524618527955 
-0.0001625848179141862 
-6.723390130573016e-05 
4.124861077160274e-05 
0.0008189536234688038 
7.903102573131303e-05 
0.0001882233562906484 
-8.146760951772663e-05 
-0.0002966215962513717 
0.0001189888609783894 
0.000104900000818565 
9.306828174382486e-05 
-0.0004180392384718176 
-0.0005065894120542697 
3.17898410829516e-06 
0.0006731856797788117 
-0.0001653485705614108 
0.0001348481786296515 
-1.945713111826092e-05 
8.810344745358747e-05 
0.0001528248279813114 
0.0003317154627746984 
0.0001197794684658387 
4.899590307184895e-05 
0.00017094610101591 
0.0003691843252794933 
9.761833658093658e-05 
-0.0001377206034276046 
-0.001487358651516522 
-4.676956847327622e-05 
-6.295742458750381e-05 
-6.79500073585676e-05 
7.843662384579011e-05 
0.0001047551981981802 
-1.948111620988501e-05 
0.0006779705174734729 
-0.0001430608452931824 
6.425736992365648e-05 
-0.0001020844282037571 
0.0001513700289151927 
0.0005525047146240807 
9.04297566179257e-05 
-0.0003152420798750832 
-0.0001750401898894034 
1.27482985651076e-05 
0.0005438070905213523 
9.1447368850426e-05 
-0.0002352785649473755 
-3.516432105231084e-05 
-0.0005575698325013272 
0.0003558583581440415 
-0.0001091819522641475 
-0.0001755292980461157 
1.246332821610321e-05 
-1.16126122499776e-05 
-0.0001389345907711377 
0.00104412675719903 
-0.0001893964854827425 
-8.281867619060488e-05 
3.064328371881214e-05 
-1.348606527665981e-05 
0.0003362369847882801 
0.0001598518780217726 
-0.001344877772201995 
-0.0006662332293738285 
0.0005788449326641099 
-0.000125460754610609 
0.0003730949657731278 
4.938284551787405e-05 
6.325941037135975e-05 
9.07190262860027e-05 
-2.837759766676908e-05 
1.893208448385269e-05 
0.0006995041953274573 
-0.0005089699730493697 
0.0004663939398764032 
-6.082732447214031e-05 
-0.0002594496591620219 
-0.0007037231019381739 
0.0004560653953025194 
-4.280361923890351e-05 
0.0003679410659405291 
-0.0003987297688479544 
0.000737102598065856 
-0.0007959424340483628 
-0.0001542013699581559 
0.0002898159486459728 
0.0001167198953860691 
-0.000492488032624706 
-0.0001048428048353626 
2.447227591960992e-05 
-0.0002389802683978475 
-0.0004340576185573333 
0.0003374873296683757 
7.893869159949623e-05 
-6.001095703075276e-05 
4.452579255373436e-05 
0.00105510832629823 
-0.0002875159281410954 
-9.039396199385392e-05 
4.723769765503427e-05 
-1.490693474841235e-06 
-0.0002189581416045094 
9.988182192846588e-06 
0.0001888479119636034 
-6.405541815708365e-05 
9.093312380385786e-06 
0.0002035619067324579 
-0.0004327611707481816 
-0.000385341630417727 
-0.0005035000708198314 
0.0006500973082816055 
0.0007649013693837156 
0.0001292491377940474 
0.0008708587442758863 
-0.0002316097777726655 
0.0004120515808734284 
-0.001539727095470328 
-0.0001147387075034229 
-0.0002164680394977269 
0.0002657627197155673 
-4.547324147657594e-06 
-9.728962617639776e-05 
-0.0002513706097397032 
7.990566132853907e-05 
-6.890434320324259e-06 
-0.0001215393792449939 
0.0001585067478349946 
-1.154514563511373e-05 
-9.568839655158261e-05 
-7.866248372146376e-05 
2.038809156516032e-05 
0.000228029418276243 
0.0005516105085017361 
-0.0002968620017650374 
-9.817495271181319e-05 
0.0001890943866229738 
0.0007587827799085319 
-0.001031708988586233 
-0.0005526110382192557 
-1.097158783285916e-05 
0.0001952339837619948 
-0.0001509745938960291 
-0.0003280200690570928 
-5.507546125116198e-05 
0.0001734429744356805 
0.0002369829141024511 
0.0001999685507861722 
0.0001496196141993485 
-8.489437067620114e-05 
0.0002310344109844294 
0.0001424958973501794 
-0.0004123829488435143 
-0.0001617426871518958 
0.0001576419475911854 
-0.0002606270529274336 
-0.000103302814600204 
-0.000160127850944473 
0.001059855197777978 
-7.277428798954244e-05 
0.0001201291906955138 
-3.216836134582641e-05 
-8.531962256682883e-05 
-0.0002872833252349475 
1.930332802627302e-05 
0.0007195959889291395 
1.810477963781286e-05 
-0.0003533819889611251 
8.908028828890159e-05 
0.0002097555469990034 
-5.573225506471574e-05 
-0.0003211717160257531 
-0.000409649813710114 
-0.0001346587857964779 
0.0004536168389789689 
-3.149516564930433e-05 
0.0003876174095814812 
-1.103058188482457e-05 
-0.0003911086710415156 
0.0006466376639969483 
-6.4996581653925e-06 
-0.0003002660665944723 
0.0003488903897540132 
-0.0001162914932589016 
1.29281044901291e-05 
0.0002604566970219795 
0.0001128434390428243 
-0.0003283259219175406 
-6.323840805595598e-05 
0.0005121393143364474 
0.0009168190430325963 
-8.148747572672523e-05 
-0.0006457816934634129 
0.0003563386632302711 
0.0002014603209317666 
-3.844490776371766e-05 
-0.0002040251165976167 
-0.0008659396300740734 
-0.000115052533749833 
0.0002986267889637758 
-0.0002570952430313461 
-0.000688095894663563 
-0.0002023161376037076 
0.0004548472366514522 
-0.0001737963265539063 
-0.0002040009573657343 
-0.0001135965012730451 
-0.0001444276461268412 
-0.0001208393560511445 
0.0006218204480888528 
1.252837954394499e-05 
1.78279479678317e-05 
0.0003129172251992719 
7.990855999532913e-05 
0.0006321415361397381 
-0.000154100023523352 
-0.0004572743510763166 
0.0003286769639842449 
0.0001338323545010497 
-0.001807590993137222 
-3.457796852612182e-05 
0.0002585335924314438 
-3.036576111668576e-05 
-0.0002043894109951201 
-0.000129554828427208 
0.0009244218689148428 
0.0006924030423216836 
0.0002230121843116934 
-9.388340154661778e-05 
0.0001076183553241124 
0.0003631761307394965 
0.0004284574568146141 
0.0001498483945855785 
-0.001330802738056855 
-3.789406551674074e-05 
-0.0002893231607408218 
0.0001005520507711232 
0.0002982540880263078 
0.0002862458121922026 
-0.0001010325090347546 
-9.249888438214275e-05 
0.000530915399527849 
-0.0001517386037129124 
0.0002570206875810535 
-0.0005564702982432982 
3.099544222288709e-05 
-0.0002085577537093793 
8.878259496464047e-05 
0.0001640161032700409 
0.0009044801761532268 
-4.986477941610405e-05 
0.0001372976955520465 
3.48379936188413e-05 
-2.559950930627348e-05 
-6.164333341837549e-05 
-0.0006619240186646972 
0.0004596902230521124 
-0.000196405143303861 
0.0001762248896165139 
-0.0002003095454713134 
-8.683257091437926e-05 
-0.0001917390752251257 
2.142802705961832e-05 
-4.67236718785283e-05 
-0.0002667651514010102 
-0.0006153262839260992 
1.635374149907328e-05 
4.416249847288156e-05 
4.063126299583661e-06 
-9.332784327324013e-05 
0.0003169464193954677 
0.0001764561103729664 
-7.479190000435392e-05 
0.0002630110010259601 
0.000572443731408557 
0.0001881339468450097 
0.0001223157440573178 
-0.0007660745938627377 
-1.4523144100917e-05 
-1.510855835910117e-05 
-2.544290050685252e-05 
0.0002540870577863871 
-0.0002717904173058062 
4.905429468478733e-05 
-7.442401279205159e-07 
-2.231710441714882e-06 
-6.632722435089096e-05 
-0.0007598933000293241 
0.0001273089859440076 
-8.393370252585347e-05 
0.0005061848854531006 
0.0007154001884235785 
-0.0008265151507164035 
0.0007203291836539521 
-9.344154818400041e-05 
-0.0003978327832695549 
2.354763601185025e-05 
-2.6302944809884e-05 
-2.640698637211738e-05 
-0.0001564082684395631 
0.0001476298929294067 
-0.0002309153367645029 
9.073025868707815e-05 
5.811858524881552e-05 
0.0009280753996944993 
-0.0004192411877318763 
0.0005185594295632406 
0.0001929760269445846 
-0.0005361163819947549 
0.0001224366959575225 
-0.0009901260934354478 
0.0003727667879986796 
-9.86106731899696e-05 
0.0002980816389272796 
-7.110872656764458e-06 
0.000100991084967024 
-0.0003112836322264911 
-0.0005394877963602527 
0.0003776922669598323 
0.0002063894950692249 
0.0002547523264945779 
-0.0003625649805608193 
0.0003405998553500419 
-0.0002720539041633905 
0.0004546315006323311 
0.0001480836582948973 
-3.244657531232044e-05 
3.008565700474324e-05 
-2.777583703318144e-05 
0.0007962726895655766 
8.935611670714823e-05 
0.0001292586066266044 
-0.0003305386480735701 
-0.0003695276898968172 
3.898962750637124e-05 
0.0003888943212525973 
0.0001493212235110388 
0.0004547816095420389 
-1.258885933108998e-05 
-0.0002261727221797622 
-3.564107292870019e-05 
-0.0002435627315036593 
0.0002094129758453827 
-0.000215875757600958 
8.897072032633209e-05 
-1.40009280662172e-05 
0.0001291207387272839 
-0.0002334499854798342 
-0.0009077976106635688 
-1.953732350408302e-05 
0.0007390434657029837 
-0.0001838352327495576 
0.0003940238645796356 
-2.147811936501575e-05 
0.0001252503138405604 
-0.0001443961013878823 
-0.0003687524452129859 
-0.0002072451408775858 
-0.0001037634323042309 
0.0002749427620684903 
-0.0002776527118866043 
0.0006879846826843014 
-9.50328556814304e-06 
0.0001000538225570182 
-0.0002261552659489121 
-0.0001606498480427796 
0.0003563818087454553 
0.0006132125901256121 
0.0004271135955385308 
-0.0001511878201607085 
-0.0008804582871860166 
-7.10409983142782e-06 
2.318000405105321e-05 
0.0009423301018556147 
-4.00806144300587e-05 
1.593765718227631e-05 
9.698761982894952e-05 
-0.0002548525570402098 
0.0001485720257777226 
-0.0006557943061239397 
-0.0002741492685794536 
1.066619053448713e-05 
0.0003451258253445603 
-0.0005216453062525671 
1.652110341418687e-05 
-0.0003314901291898168 
0.0004306305782221295 
-0.0001095898794989042 
-0.0002710337499398926 
-4.637065637521865e-05 
-7.389838027269541e-06 
5.958450574589735e-06 
-0.0002425293319804755 
0.0005559566263241504 
2.804711168301827e-05 
-1.491439662668617e-05 
0.0001772207369926376 
0.0002195669292634901 
-0.0003394127565569953 
0.0004270455690228017 
-0.0001203719055425621 
-6.597717767316639e-05 
-0.0004451721030223696 
0.0009233959672682206 
-0.0004307593756019966 
-0.0003535108212911498 
0.0002746910001859456 
-0.0001732239985444415 
-0.0002023982012315546 
8.292493125573605e-05 
1.208530803244767e-05 
-1.660067357973382e-05 
-0.0002119791367806841 
-7.614459096571959e-05 
-0.0005785726999961518 
0.0001784374237698821 
1.371298465940014e-05 
2.239146145802978e-05 
0.0006070665476081662 
-0.0003468459626658586 
0.0001224838027577945 
0.0001429772688020114 
-4.767031436719832e-06 
-4.995331531809402e-05 
0.0003558660642008809 
0.0001326855318983938 
0.0002755118886341391 
-0.0001116066426875281 
0.0005081784668029424 
0.0006335305232571617 
-9.450679307460851e-05 
-0.001233128035438439 
0.0004015567861187698 
5.000810284050128e-05 
0.000629407980898546 
-0.0002553873375405288 
-5.133175304710686e-05 
0.0001074903200031568 
7.097550015286474e-05 
-9.707381654702659e-06 
8.985028158741112e-05 
-0.000114140955289583 
-0.00029151490550049 
0.0002627753079903462 
3.281071212551358e-06 
0.0001484711819102878 
-9.486042534134331e-05 
-0.0001890497008740706 
6.511474231039376e-06 
-0.0007545805828151427 
0.0002346881312025523 
-2.288957160609695e-05 
-0.0004002160700718839 
-6.49889616736964e-05 
-0.0002270448514127084 
0.0004524975557123395 
0.0001129392682266643 
0.000133137640966905 
0.0006623131225224693 
-3.80824101356223e-05 
-0.000136998729222651 
0.0005620438368454058 
-0.0006833140455889073 
0.0001803984046117474 
-0.000495064581536444 
0.0001127757444591214 
0.0001943579825199326 
0.0001023999183447148 
-0.0001505032344567157 
0.0001515147078104038 
-0.0001603486660610747 
0.0005645131721734555 
-4.15184091245486e-05 
-0.0005247663384202387 
-9.062943242605045e-05 
-0.0003327544707889075 
1.301300584046271e-05 
0.000121933445497804 
-1.631254480535211e-05 
1.434401447076176e-05 
-0.0001982255804323207 
0.0002483500203327349 
-0.0002309612377769692 
0.0002011186218847618 
-0.0003301089441333152 
-2.857836326355237e-06 
-5.302277767534917e-05 
-5.468887181022658e-05 
-0.0008482198240362728 
0.0001731228440932915 
-0.0002729148303486266 
0.0002754633932725101 
-0.0001533262095143056 
-0.0002493045249043858 
0.0005759508614879722 
-0.0001084959879691057 
-0.0002527110970832281 
0.001692981893834712 
-0.0002039214982545888 
5.630429620337928e-05 
-0.0003555212844142721 
-0.0002291414437756271 
-3.713030879982901e-06 
-0.0006421298091023451 
0.0004422528124464049 
-0.0005080155224570902 
-0.0001342244385667329 
0.0007867999898436625 
-0.0002059805026117206 
0.0004123693451209571 
-0.0001009014897101861 
8.653885297370666e-05 
-7.099271432822088e-05 
1.643319721989966e-05 
0.0001987148528722515 
-6.860966895728187e-05 
8.565015442124315e-05 
-0.0001185878178189342 
-0.0001298377387842422 
-4.419025171524093e-05 
-0.0002718949338171517 
-0.0002052826689532218 
-0.0001721422242130966 
0.0005041922668128205 
-0.0006955803863227225 
0.0002286907881767656 
-2.511972397110171e-05 
-2.308036525850869e-05 
8.211376642764853e-07 
-2.310242833317003e-05 
0.0003390656475103278 
0.0002795565537080923 
0.0001310281926338996 
-0.0002982928493399815 
8.280677477390973e-05 
-0.0001464016794061345 
8.343994727253024e-05 
-0.0001865569895220691 
-1.434374670026723e-05 
-0.0001936487244420864 
9.03480935641161e-05 
-0.0002894072286322042 
1.598002415265434e-05 
-0.0002599595583884982 
0.0002440896734282034 
0.0002388824457546459 
-1.144548563235394e-05 
0.0003281254511796237 
0.0003714687660087275 
0.0002199503703629591 
-0.0001607349021114121 
0.000522495541326406 
-0.0005318148909602344 
0.0003451277177688685 
-0.0003428603888579193 
0.0001091087626356635 
-0.0001677552882028858 
-1.376602099570667e-05 
-6.060782965807337e-05 
3.983444434404681e-05 
-0.0002053869720422803 
-3.600320054332487e-05 
-0.000509776737348714 
0.001309532498121663 
-0.0006160220169119682 
0.001201366804277456 
-0.0002016338385758854 
3.166042804945027e-05 
-9.791605099792156e-05 
-0.0004681217867497732 
-0.0001408814015156541 
-0.0002627593343966192 
0.000215564593147547 
0.0002025718893261021 
-0.000208357037199334 
-1.469465097065505e-05 
-0.0001362633727463307 
-8.450259249543489e-05 
0.0003980859161003283 
0.0003526530136397259 
-0.0001092657659325023 
-0.0001907183799531268 
0.0001794841786413329 
0.0002309771519037192 
-8.146419609677946e-05 
-5.747889030671528e-06 
0.000199465783000323 
0.000900343347773177 
-6.728757579418871e-06 
-6.074999757258052e-05 
0.0002110643052317535 
-0.0001417731885410093 
-0.000405791371511805 
0.001223745515211213 
-0.0006203813547018864 
7.763634793239684e-05 
-1.751987800451262e-05 
-0.0002429834214630013 
0.0002258870685563012 
-5.841215926724856e-05 
-0.0005288746793302271 
-0.0002273393168844672 
-0.0006240077250711304 
-0.00015882468780748 
-0.0001628525233566657 
-0.0004517030798683657 
-0.000250267825814653 
0.0005309292206747898 
-0.000108705670320815 
-3.135978827805693e-05 
-3.472828343566553e-08 
-0.0001626235394055898 
0.0005400044246768838 
0.000196767584159419 
3.71033931609867e-06 
-0.0001924081331493387 
-0.000167866078266228 
8.392246307482432e-05 
-0.0003350953396458919 
-6.795776842846336e-05 
0.0005100033977882504 
1.114190840347622e-05 
-0.000193573762269933 
-9.970279621148105e-05 
0.0003346777614322753 
0.0003957556372783418 
0.0002751163113035343 
-0.0003303676169316233 
6.237194074446784e-05 
0.0001754086701538092 
5.449929362096478e-05 
-0.0005787668945245741 
-0.0001024227342748696 
0.000447178924025958 
-0.0003276634097347014 
3.560055843370427e-05 
0.0005069202590783086 
4.904969084997981e-05 
-0.0001490196501137166 
-0.0006771735864085128 
-4.964387226655066e-05 
-0.000453197960937214 
0.0003426305781788291 
-3.948038147778389e-05 
0.0002663222200237286 
0.0003781891805058269 
-0.0001234262899126754 
-0.000117719031042372 
0.0002106147629228977 
-5.377319711408155e-05 
0.0001271673635398721 
-7.09622704195449e-05 
0.0003292309773055959 
-9.650168036253591e-05 
-0.0002983545500943474 
-3.671192826147055e-05 
-0.000182846742072456 
-2.34855674110059e-05 
7.57200031592612e-05 
-8.347836787311756e-05 
-9.990485121478297e-05 
-0.0001776045136772891 
5.232866010235561e-05 
-0.0001898667574995539 
-0.000132358142466366 
0.0003885680548672162 
-0.0002936748629193949 
-0.0002107115372596936 
-1.607528569361108e-05 
0.000273948625445115 
-0.0003763502536643155 
0.0003449756829802091 
-0.0002486057923540389 
8.59689227015835e-05 
0.0004151569217196938 
0.0005608632647575668 
3.444361544071743e-05 
0.0001015839159420675 
-0.0002377158737707535 
0.0002033963311190926 
0.0001515776998497396 
0.0002940232588080353 
0.0001641404481610843 
0.0003553704115039311 
0.0001669518920889476 
-0.0002032242419795229 
-0.0004056762038518466 
7.93723965967167e-05 
-0.000743445689640921 
0.0001665189138569914 
5.376920398602093e-05 
9.41023277008094e-05 
0.0001510781153541433 
-0.00017641178184369 
0.0004178564897947905 
2.856764084892971e-05 
4.416698867645694e-05 
4.434423544774825e-05 
-0.0001967615783693032 
0.0001979485665600608 
-0.0001229258971543735 
6.251606746893958e-05 
6.480437868906402e-06 
-7.303618789943661e-05 
0.0001699622218619062 
-3.922399808446257e-07 
-0.0002725899222923498 
