solver_type L2R_L2LOSS_SVR_DUAL
nr_class 2
nr_feature 25990
bias -1
w
1.32515575780123e-05 
2.727180883515238e-05 
-2.034583896983496e-05 
1.454214861036317e-05 
4.856305941053451e-08 
-1.144989605303986e-07 
4.135681764337102e-05 
-6.017339097701082e-06 
-1.686078756896291e-05 
1.609288271012176e-06 
9.245820308024962e-07 
9.086475560057009e-07 
4.576296288935401e-05 
1.647463893123088e-05 
1.044501390879015e-05 
2.468960746180946e-05 
-2.52088884879648e-05 
-1.004720490954502e-05 
9.511379008983238e-06 
-1.878301911386099e-05 
1.099814851690761e-05 
-4.369502116695636e-06 
-6.350725187270614e-05 
-0.0002221846316187901 
-3.203439556460407e-06 
1.897405459134051e-06 
7.698217758226855e-05 
-1.083133186990317e-05 
6.168129686104481e-05 
-3.840738104905366e-05 
6.470990335485921e-05 
3.688850413995365e-05 
-2.289401101779212e-05 
7.326891937662019e-05 
7.477943163832103e-05 
4.981435164273213e-05 
2.47745188845753e-06 
6.012237980289014e-06 
-1.796474028226328e-05 
1.624731190724536e-05 
-5.624907143850487e-05 
-7.706214280037829e-05 
-5.110519906095483e-05 
7.540195797592711e-06 
5.390646611229837e-05 
-3.816552736358911e-05 
1.029205604430697e-06 
4.151731520949456e-05 
-2.047801619847303e-06 
-4.290219958230749e-07 
-1.251640319061116e-05 
-1.595887760185837e-05 
-6.578425049704077e-05 
-4.160140868987847e-06 
-9.917173358868309e-06 
6.25997987980434e-07 
1.166475509576704e-05 
9.416779716172945e-06 
1.496105788047351e-05 
1.787247624364344e-05 
1.927452212996285e-05 
-3.392058847900427e-05 
0.0001225335021891782 
-9.469369231868145e-05 
-8.655959306673768e-05 
3.405578927185757e-05 
-4.890162633705868e-05 
0.0001543523826291711 
-4.317845192670475e-05 
2.598362027232307e-05 
-7.736157964033349e-06 
-3.720878596147588e-05 
4.305923923736026e-05 
2.200785272657993e-05 
1.938414708993583e-05 
1.856836324073829e-05 
-1.692764536981136e-05 
-1.085233310537387e-05 
-2.364770361264206e-05 
3.198803749031796e-05 
-1.123781524321462e-05 
2.126187238181843e-05 
2.570083125428817e-05 
7.157289332121204e-06 
-1.209819949435182e-05 
-2.256939508134989e-05 
7.363080147063926e-06 
5.997836457882542e-05 
-2.048042539906584e-05 
-3.257017585342737e-05 
-3.75215186308219e-05 
3.937703042788786e-05 
-2.564264619751331e-05 
-3.019069137547045e-05 
1.756337170311594e-05 
-4.040477065789534e-05 
7.410818003549521e-06 
-0.0001461881982912467 
-5.650493872833778e-06 
-5.264123675532331e-05 
-9.701549104582114e-06 
0.0001136853138881112 
-4.356287791916516e-05 
2.482047905313632e-05 
1.455402151635973e-06 
1.400831673867238e-05 
2.607170852969334e-05 
5.579665011751094e-05 
-3.554066584411592e-05 
-5.408186242366587e-06 
1.718280352188446e-05 
-3.676652573110623e-06 
-1.516441771187038e-06 
-3.666163289757701e-05 
2.013660684427433e-05 
-2.92682376099032e-05 
2.136877893090974e-05 
2.642517505539585e-05 
-1.894934203667952e-05 
-2.708041714099713e-06 
-6.156932129862643e-06 
9.24237622851e-07 
7.187674412976331e-06 
0.0001338837339725322 
-6.794376290134585e-05 
-8.372819777670257e-06 
-1.294407164404418e-05 
3.660678074843619e-05 
1.240106580812252e-05 
-3.461867533004652e-05 
3.675042279541214e-05 
3.746471452294282e-05 
5.862986070966468e-05 
-6.692342838202151e-06 
1.422920019340869e-05 
1.134074967737429e-06 
-2.465507490712023e-05 
-2.628774342220303e-05 
2.312141685105138e-05 
-3.82405860000013e-05 
-2.934620205546708e-05 
8.409059666498683e-05 
1.68396907089909e-05 
2.208254067036439e-05 
5.084096127640083e-05 
-0.0001325205269024911 
2.144981224349126e-05 
-5.291378931126766e-06 
3.720221958578902e-06 
-1.234061898464959e-05 
-1.440832727092211e-05 
-9.626575133759484e-06 
-3.987794099907347e-05 
-1.583414865475202e-05 
-2.236645628914619e-05 
2.160445048326068e-05 
5.675806174569781e-05 
-3.26457398546005e-05 
8.435718983197194e-06 
-4.727136503291849e-06 
6.723232857845361e-05 
8.418255719236178e-07 
8.727725049562579e-06 
5.556968124747739e-06 
8.053623414369833e-05 
3.447847805367942e-05 
-0.0001452640634835975 
7.302186138534866e-05 
9.078696414991812e-07 
-5.575256383930663e-06 
1.930179351484043e-05 
-8.844544457559268e-07 
-1.36007350980467e-05 
-2.226971577592683e-05 
-9.300158322039231e-06 
-3.57251753133469e-07 
1.977581222335871e-05 
-2.1926180756096e-05 
-5.472781362660492e-07 
-2.14466543392306e-06 
3.873942167788339e-05 
-9.349560855680329e-06 
-1.388990172386391e-05 
-6.993650835719324e-05 
4.523347470356357e-06 
-7.222623618113026e-06 
3.413198787457932e-05 
-4.56704858370636e-05 
4.430140665075661e-05 
5.891200425030518e-06 
-4.995608389863318e-05 
2.439001217799285e-05 
-4.212709073576356e-05 
-4.953995060050416e-05 
6.436394688680197e-05 
-2.678003478271164e-05 
-2.189439134831083e-05 
-9.494510259364747e-07 
-1.655073635295477e-05 
-3.79406082203657e-05 
2.394119240710041e-05 
4.527136387651422e-05 
-3.465761372430147e-06 
3.361171159089484e-05 
4.336903027245618e-05 
-3.496772043386888e-05 
-6.977138788329842e-06 
-3.240383002523983e-05 
6.887959011680125e-05 
-6.403942016777518e-06 
-8.597278324853893e-06 
-0.0001266558104588934 
6.067561786323104e-05 
-7.318942800991231e-06 
1.520177815688321e-05 
8.024929180215397e-06 
8.384094454063079e-06 
-7.286958442735892e-06 
4.382191713692697e-05 
6.759353120801987e-07 
7.346491587785113e-06 
4.355252207643108e-06 
-2.37988099026805e-06 
1.655841652651638e-06 
-2.427942432966018e-05 
0.0001024323857666685 
-5.500491558408187e-05 
2.920564301018801e-05 
-4.598327795707278e-05 
-3.761223155319427e-05 
-2.845470808054532e-05 
-7.049399287907723e-07 
3.100626581431402e-05 
6.467140758353145e-05 
-3.992386416426921e-05 
3.10318060508833e-05 
-5.275438888655844e-05 
-4.215135247627763e-06 
-1.935208508790011e-05 
-2.196971382501917e-05 
3.017815874651308e-06 
-2.716815867303958e-05 
-8.41762799494188e-07 
1.541150110139907e-06 
2.865915349710229e-05 
-2.313048161375381e-05 
9.587684433973169e-05 
2.037209878918596e-05 
6.487685622388245e-07 
-1.759465431378079e-05 
1.657877314177494e-05 
-2.403099677036881e-05 
3.481437723421262e-05 
4.991562389558381e-05 
-6.833388000124635e-05 
-2.355444628122513e-05 
-7.857224365668855e-06 
5.00121423194691e-06 
5.860296990038363e-06 
-2.916294660195384e-05 
4.6007916534183e-05 
-2.376934266326244e-05 
-7.739430718567211e-05 
-0.0001111330262996389 
2.698419286578295e-05 
0.0001356848864831711 
-1.96494390006269e-05 
1.103194402275215e-05 
-1.688681391815749e-06 
7.222226787525598e-05 
-2.30468611759069e-05 
4.703068485331132e-05 
8.10364677201373e-06 
-1.976005423779217e-05 
1.373742834220718e-05 
6.57220230211611e-06 
6.858951413956978e-06 
-1.25182348694999e-05 
3.513112246727587e-07 
4.105161879118528e-05 
1.109702251947321e-05 
1.032381079611014e-05 
1.554782076874895e-05 
-6.173214489820972e-05 
3.999570163591745e-06 
5.126380325106078e-09 
-3.613186785311367e-05 
5.102390972676875e-05 
2.237301669291206e-05 
-1.335617782493902e-06 
3.521765252561064e-05 
-2.609345032152206e-05 
-0.0001584710686091572 
4.34682050589491e-05 
2.089208870210385e-05 
-2.195973797816109e-06 
-8.206895562308025e-06 
4.26254399930149e-06 
-8.963676865976922e-06 
6.219758708976358e-05 
4.280677453349919e-05 
3.682520316874121e-06 
9.073804496291083e-06 
-3.784947160310067e-05 
1.003301623962813e-05 
-1.794078052359819e-05 
-1.015374108265938e-05 
2.793243664109144e-06 
-7.559189423393676e-06 
-1.954329888131312e-05 
-3.231661441249705e-06 
-5.159501775564722e-05 
2.956714638138919e-05 
3.416268514330054e-05 
2.496187756057619e-05 
-3.644886301137347e-05 
-2.674285327102676e-05 
-1.093893736805257e-05 
5.08277616760698e-05 
-6.907370904184673e-06 
1.485572522762358e-05 
5.494021527002899e-05 
-9.074013300930464e-06 
-8.5963619699313e-06 
2.9376381740173e-06 
-3.410768210737473e-05 
-3.538279907853292e-05 
3.76100923617508e-06 
-1.282368265122929e-05 
2.013527761291071e-05 
-2.400921473225909e-05 
-6.133102663075114e-05 
1.332172127270331e-05 
4.353470847059811e-05 
-4.827683211142725e-05 
-5.479103358519234e-05 
4.026174609582649e-05 
4.266109854582213e-05 
2.810696720354005e-05 
-2.044450850756001e-05 
-1.587521003583748e-05 
-6.07209986896526e-05 
-2.373698658785405e-05 
-3.428527976778014e-05 
-3.484907793800137e-06 
9.345833009065514e-06 
4.469093299858474e-05 
7.331484618758065e-05 
-6.857771969848784e-05 
2.706796956102248e-05 
0.0001235632757937428 
4.805957298554486e-05 
6.637921202824413e-07 
-2.652235691286324e-06 
-1.602141953634777e-06 
4.165434401083299e-05 
-2.246532835522844e-06 
-4.246579840315627e-06 
-2.776451839224022e-06 
-4.355189957500948e-05 
2.268666981242741e-05 
-4.446056156564517e-05 
-5.544617847986549e-05 
-6.461971888077656e-05 
2.002193672814284e-05 
4.023436406258685e-05 
4.912611201839725e-06 
1.329488923911899e-05 
1.290758333080976e-06 
2.636792226192668e-06 
-5.922484845737644e-08 
1.558749504242898e-05 
3.33808537205221e-06 
-1.758540851920461e-05 
2.884755026598158e-05 
0.0001291029549804411 
-5.223914415811659e-06 
-6.461105284095845e-06 
-1.418485722613399e-07 
-8.783398662175975e-05 
-8.399399982361746e-07 
-1.251075095339073e-05 
3.485520457823107e-05 
-1.726433730883038e-05 
3.647756779045496e-07 
-1.511136756971846e-05 
-9.96698331572805e-06 
-2.633293244399169e-05 
3.943499240457148e-05 
-1.728218763824901e-05 
4.308758077093341e-06 
-5.862818959470334e-06 
2.424555356560593e-05 
-7.203892933433109e-06 
-1.028677613751423e-05 
-3.47685932036908e-06 
2.960426227882416e-06 
7.484115705035177e-05 
-7.687796537424014e-05 
-6.351608782758477e-05 
9.922506172962393e-06 
-6.919409964022073e-06 
1.909167677998484e-05 
4.703159272055898e-05 
6.635472187093566e-06 
-2.906673550474361e-05 
5.313672657795722e-05 
3.209412563337276e-07 
4.830194976799112e-06 
4.283168845483699e-05 
1.925700707073652e-06 
1.490261750790982e-05 
-7.239829411879981e-05 
3.776967738751831e-05 
-3.916530808265459e-07 
5.666969491720334e-06 
3.497761570047076e-05 
-4.39320994503511e-05 
-6.026294358957509e-05 
0.0001101511975935506 
-3.974617918749466e-05 
2.013477341386433e-05 
-2.308939333448398e-05 
-3.55563277480684e-05 
-5.013463070309613e-05 
1.487048421195249e-05 
-2.152491180511237e-05 
5.781335659145653e-05 
1.067142579201752e-05 
6.595176727244804e-05 
1.830823992692398e-06 
-2.63734724366295e-05 
-1.429345739765723e-05 
-1.1757133140193e-05 
5.630909098372986e-06 
-5.970014348276678e-05 
-5.790622424606616e-05 
7.056366096527445e-06 
1.428899864476532e-05 
1.481005799832547e-05 
-1.448197655212232e-05 
-1.322683081269912e-06 
6.185257562671662e-05 
7.669903245128605e-06 
9.399663584641876e-06 
-2.046198352603458e-05 
-2.929323723705159e-05 
1.702470939546251e-07 
3.827975649215047e-05 
1.256958771472844e-05 
6.225543842909333e-06 
-1.998859727592973e-05 
-1.731246273240558e-05 
-4.691020032964834e-06 
-2.802401725503443e-05 
7.985045876023641e-06 
2.016018047797262e-05 
-5.646664497623771e-06 
-3.855351494049022e-06 
-3.156242961173376e-06 
-1.349057545589674e-05 
3.314608467700678e-05 
-2.160586106650584e-05 
5.307689359518877e-06 
-7.095036607328237e-06 
6.799099093947211e-06 
-6.920942843443907e-07 
-1.7715224312116e-05 
-2.514631094607275e-05 
0.0001028032943088027 
-0.0001277583616631557 
-1.265094748779282e-05 
3.283728615621358e-05 
8.480192244136058e-07 
-1.465262370280321e-05 
5.103691818892769e-05 
7.514119653816796e-05 
1.806716129471722e-07 
-3.083959155398572e-05 
-3.057345078615224e-06 
2.029134193642324e-06 
-3.262323292877997e-06 
2.52582582182418e-05 
3.524368266649113e-05 
1.681812045854364e-05 
-3.051056610695947e-05 
-2.837016134543007e-06 
-1.956423495423904e-05 
-1.630261051146808e-05 
1.735146494244277e-05 
3.788685401413211e-05 
-6.515541245376226e-06 
5.347118547867942e-05 
8.497107821626951e-06 
-4.784014607856281e-06 
1.08154751808442e-05 
4.719342266221665e-05 
-4.251182814814891e-05 
-1.433565606873499e-05 
1.755684446405692e-05 
-1.008329178142266e-05 
2.535514160193564e-05 
-4.1508192245151e-06 
1.338834624893187e-05 
9.070310904069877e-06 
-1.2848383037436e-05 
-7.181260892098763e-05 
8.277709219153172e-06 
-3.490456251433314e-05 
-3.501861797116146e-06 
-3.422770345331133e-06 
-6.66034248125028e-07 
8.89738400333452e-07 
-5.992862204420376e-06 
-1.025143186008837e-07 
4.955406820135666e-06 
5.669887257261585e-06 
1.479376926548152e-05 
-1.8222123017681e-05 
-1.843948212448169e-06 
2.824523798408783e-05 
7.658515219742887e-06 
-1.759750941117855e-05 
-2.083446546951706e-05 
2.313809886318906e-06 
-1.44866303012412e-06 
-1.115037649531149e-05 
3.006787749322908e-06 
8.156857629568616e-08 
1.154299856420911e-05 
-3.615897799541939e-05 
7.330631100231581e-05 
3.239659106663163e-05 
-9.576661104466504e-05 
0.0001007779979079059 
-3.006582605665608e-05 
-3.533184645927929e-05 
-5.425166665695138e-06 
-6.875922077383382e-05 
-2.042966584226762e-06 
9.276846093604263e-05 
-1.401313645085778e-07 
5.691918182899852e-07 
7.211785963329051e-06 
-9.304378269840294e-07 
-4.781474076625173e-07 
1.411357537151679e-05 
3.657620038767627e-06 
6.533650171790341e-06 
-8.941521392925599e-06 
5.640458319852995e-05 
8.433782831464024e-06 
-1.29991983687674e-05 
1.399265158553921e-05 
2.544632142708567e-06 
-2.421506800596931e-05 
8.993069577403369e-06 
-2.219413320848303e-05 
-2.179724320227263e-06 
-4.254074461662383e-06 
-2.012081591844247e-05 
-4.263557743516083e-06 
-9.527338922866799e-06 
-1.973379792705191e-05 
5.286771060177144e-05 
1.446557644115778e-05 
-2.53253954756364e-05 
-4.602456031013558e-05 
-3.83379802867707e-06 
3.035637727916573e-05 
-1.075458735589737e-05 
4.34897691683774e-06 
1.149644060759844e-05 
2.116760681256554e-05 
3.622429447438804e-05 
-5.723372744639076e-07 
-1.616975376424946e-05 
2.503175673409102e-05 
9.476973860294229e-06 
6.069174396256067e-05 
-1.270297944712924e-06 
1.161825191399927e-05 
-1.432686054422621e-05 
1.432958936532114e-05 
3.328245672154738e-08 
4.542991759882464e-05 
3.087486080613755e-05 
-3.997723375908855e-05 
-5.432360229596752e-05 
-0.0001118313735905148 
7.801880195331816e-05 
-7.949865362921125e-05 
6.163049969345253e-05 
-1.521001091922055e-06 
2.003058538643621e-05 
-4.990961994450454e-05 
1.508490199269069e-05 
-1.178991524257168e-05 
-3.111059492631557e-05 
-8.046240213898351e-06 
-3.460915719264352e-06 
8.808886821878084e-06 
3.34181889245391e-06 
-4.590950789127278e-06 
6.678914511360891e-06 
3.425446773385697e-07 
-4.746680147743015e-06 
4.292389376489223e-06 
-4.385905799501689e-06 
-3.353844175689055e-05 
3.70660478453227e-05 
7.035178292860043e-06 
5.533478323035323e-06 
-3.679391396061317e-06 
-5.52186420171835e-07 
-1.670204937109806e-05 
4.179878750897853e-06 
-7.196506058106916e-06 
2.896291178930342e-06 
1.515361023208925e-06 
2.334008090690051e-06 
2.760162621504625e-05 
-1.610456497502815e-05 
-3.361747321540554e-05 
1.024540769833883e-06 
2.873092202378877e-05 
6.594029198359885e-05 
-3.816288035078276e-06 
-4.386998915853629e-05 
-2.813878182611562e-05 
-3.307860083315249e-06 
1.339189247521713e-05 
2.9930293354283e-05 
-3.910763676699462e-05 
-3.295525606633889e-05 
3.578128462921712e-05 
2.419631857308404e-05 
6.906297731257783e-05 
-4.548125869836372e-05 
-4.062313631576547e-05 
-2.535769898472463e-05 
-5.545669625481318e-05 
-2.793236429670359e-06 
-1.231524435642767e-05 
2.006706500556573e-05 
-1.758210163681357e-05 
-8.186030720386793e-06 
-3.192826293275262e-05 
2.196932273897944e-05 
3.657510842780808e-05 
-1.341229628992408e-05 
-1.150124860694042e-05 
7.131501926108315e-06 
2.056477639032388e-05 
1.382914919596347e-05 
3.144273929445863e-06 
5.079215255916554e-05 
-2.232777656397839e-05 
4.605347934787507e-05 
-6.602248109991676e-07 
3.114336494059057e-05 
-2.132209713298534e-05 
3.753606671755984e-06 
-2.571620535515547e-06 
3.702241656860367e-07 
5.663097679991904e-06 
1.390597908382957e-06 
8.156857629568616e-08 
-8.721664143290187e-06 
2.305822814405542e-05 
-7.272236509377196e-07 
-4.20366037487399e-05 
8.051597115592972e-05 
-5.085438740275239e-05 
-1.253873672999937e-05 
-2.88694052692819e-06 
-1.361067321882953e-05 
3.818902750266363e-05 
3.594218866715752e-05 
-2.418633949554826e-05 
3.135406173723976e-05 
4.793790480015547e-05 
6.765256094594508e-05 
-0.0001172880179029936 
-3.895819766442651e-06 
-1.535771132896647e-05 
-6.10788437188642e-06 
-3.38311694770032e-05 
2.119624876023439e-05 
8.510502101635194e-05 
3.058849255422561e-06 
5.171410097192783e-06 
9.472657189596252e-07 
-1.795590051712817e-06 
3.056882033556438e-05 
-2.791907941347286e-05 
-7.51974470079885e-05 
-2.693177639641516e-05 
1.60935854613181e-05 
-2.830742457827773e-06 
9.755523837004929e-06 
9.683073171783815e-06 
-5.117212629584504e-05 
-7.3921053392622e-05 
5.286222261103098e-08 
2.498529402157939e-05 
2.623452924446628e-05 
1.859439509434046e-05 
-2.937651304228304e-05 
3.07941626683821e-05 
-1.039377709581815e-05 
3.250204571559197e-06 
4.314657674513836e-06 
-3.728075379312632e-05 
1.2226717921064e-06 
1.252819993699693e-05 
8.156857629568616e-08 
1.428106105644888e-05 
6.859036025646665e-06 
1.422137044917899e-05 
-2.875376399010257e-05 
4.501934260176931e-05 
-3.812710100545562e-05 
6.518934300439457e-05 
-2.045049536899079e-05 
1.978126385445308e-05 
1.203405867008494e-05 
0.0001371973594990358 
-0.0001500134243092532 
-3.287436674895996e-06 
6.769803502197017e-06 
-2.237719919300586e-05 
-3.260471616297928e-05 
5.587388405909042e-05 
0.0001019798492762392 
-4.633163727944668e-07 
5.261061229241285e-05 
-8.963720329829657e-05 
-0.0001119095112592084 
1.889485843035042e-05 
3.817822538819459e-06 
6.044210907289062e-05 
-1.539814493638819e-05 
9.843412878127275e-06 
4.341729916305537e-05 
-3.971470084755547e-06 
-3.264453344852307e-05 
-4.311767143551824e-05 
9.711498242274243e-06 
1.97604486144314e-05 
-8.458871777966313e-06 
1.721650458969523e-06 
-5.045258512154232e-07 
-2.174105602472852e-05 
3.143546280300663e-05 
7.59245979609746e-05 
5.768154661328972e-06 
-1.986822609931871e-05 
-1.549015923195288e-05 
1.476569627044537e-05 
-2.000086926702741e-05 
4.361880668416068e-06 
-5.206842644069839e-05 
1.268002908959301e-06 
2.366215409021651e-06 
-5.399186193738499e-06 
-2.431557142928706e-06 
-3.73618784902381e-05 
-1.799497622596878e-05 
1.122213694973652e-06 
7.623612333606864e-06 
-4.640718810769823e-06 
-2.934245797448171e-05 
-4.757461072805927e-05 
-7.033402534200435e-06 
-1.241114719282184e-05 
6.983671853273236e-07 
1.437654260619419e-05 
7.226124085562695e-05 
-6.676345444355969e-05 
4.113269952816713e-05 
1.767595972751406e-05 
-4.736142048572472e-05 
6.835789573149138e-06 
-6.045179638322572e-06 
2.602482161016997e-06 
-1.441443056150338e-05 
-1.188504846196752e-05 
2.020046793125812e-05 
8.596506527398414e-05 
-2.89816748224203e-05 
6.797732712527991e-05 
6.302284680738742e-06 
-2.186575267191391e-05 
3.317196189025761e-05 
-5.532046405258289e-05 
-1.41820812665735e-05 
-5.520043077909161e-06 
7.946383883436087e-05 
6.594051420619812e-06 
-2.247266475712382e-05 
1.921081686049562e-06 
-3.006032556839866e-05 
9.795702422331734e-06 
-6.133054403268809e-05 
2.75673336997854e-05 
2.618880358364155e-05 
5.19245492628689e-05 
6.227870220688349e-05 
3.313064486022115e-05 
-9.701599708692144e-06 
1.008454565896677e-05 
-2.129799952583414e-05 
-1.450128769566932e-05 
5.515435623470857e-06 
-4.849284569203268e-07 
-8.046160735120289e-06 
-7.307017363607915e-06 
3.658539011521384e-06 
-3.016537432565694e-05 
-1.937485969655565e-06 
-5.228086547205018e-06 
5.910014064278243e-06 
-6.453525827731279e-05 
1.131784745059575e-05 
9.607793551024244e-07 
3.585278872670928e-05 
0.0001632411139464585 
-5.805082109999742e-05 
-8.418392247102099e-05 
3.159434614706974e-05 
-7.619980941095218e-05 
-1.445554728820019e-05 
-1.208635218744571e-05 
4.129736212742541e-05 
-4.679989811223348e-05 
2.033301615068585e-05 
-2.036984807077869e-05 
4.316863363357963e-06 
2.251228590705582e-05 
2.486847579059784e-05 
1.77795619930542e-06 
-9.496267487535167e-07 
-1.255456528422502e-05 
1.676994954495451e-05 
-5.961790522561045e-06 
2.085330542849601e-06 
-1.857002676767532e-06 
-1.283539295102234e-05 
3.320133773521636e-06 
1.939494420948247e-05 
9.467726093916991e-06 
-3.180281964174462e-05 
5.065205111902806e-05 
-1.648302146773084e-05 
1.494874899519044e-06 
8.156857629568616e-08 
5.667853941603614e-06 
-4.212097893236782e-06 
-3.882740741181443e-06 
2.376917307702105e-06 
2.149316562523581e-05 
-4.121745043711114e-05 
2.507387236325373e-05 
-2.076116628769869e-05 
1.000831323994741e-05 
-4.915254342947448e-06 
5.048270241166624e-05 
0.0001124861418665739 
2.550570902476436e-05 
6.848320199979508e-05 
-1.192855572911637e-05 
-0.0001037712247290573 
-6.630663684468308e-05 
2.116280908348549e-05 
-1.068846474234823e-05 
3.924516254812195e-06 
-1.435411725416286e-05 
-2.046763921017604e-05 
1.08400720029732e-06 
5.813688771790837e-06 
-2.052285716106325e-05 
-1.734832512772623e-07 
-5.63611417797267e-06 
-1.107845288312403e-05 
1.411107931506708e-05 
-6.806121237704636e-07 
-5.791014445360693e-06 
2.429964031150096e-07 
-0.0001404510468916143 
-9.800218616928385e-05 
4.081535190295836e-05 
7.546959985513494e-05 
4.655403908555062e-06 
-5.542702659090162e-05 
-4.608508350490907e-05 
4.304811864288903e-05 
-3.485429885177115e-05 
-1.46697870904284e-05 
-7.244378629750947e-06 
1.475591732271393e-05 
3.644625923959927e-07 
1.676288480990267e-05 
7.223937579693073e-06 
-1.812352240421278e-06 
8.754026107737532e-07 
3.112891056690045e-07 
1.451390329231156e-05 
-5.764846895313405e-06 
-8.085071558459731e-06 
2.978080965418955e-06 
2.230488979208972e-06 
2.677879382019139e-05 
-7.035143339883622e-06 
9.516172700429325e-05 
1.603943667341028e-05 
3.519317027362257e-05 
1.677532869316666e-05 
-1.150530267507446e-05 
3.120475841024408e-05 
5.851804501714144e-06 
-2.880016405319331e-05 
3.776103147462346e-06 
6.373306798987823e-05 
5.054424326998503e-05 
-1.290505470982441e-05 
-2.245466825294361e-05 
6.00253779241519e-05 
-1.085181285215466e-05 
-1.458180147975045e-05 
-3.75884672544669e-05 
3.689930706077935e-05 
-6.694493254957249e-05 
-1.004818520933654e-05 
3.215155675997738e-05 
1.098337454687537e-06 
-1.802195264684338e-05 
3.887626041268265e-05 
-2.732121713427121e-05 
-1.757966363510241e-05 
-1.868584601934365e-05 
2.029407412957221e-05 
8.423179905364651e-06 
-1.194524642588364e-05 
-2.032287936042506e-05 
2.676563835546495e-05 
1.670397245807682e-05 
-3.471681223535277e-05 
1.200968248440216e-05 
5.080442433891556e-06 
-5.434738066186145e-06 
6.111346661981501e-06 
-4.215812057251241e-06 
-3.066966600511992e-06 
1.399895652815975e-05 
7.175820851273174e-06 
7.665340174969185e-07 
2.195606313473506e-06 
2.405405281988566e-05 
1.353377147565367e-05 
-6.843726307687099e-05 
1.778736194670874e-05 
1.460245102088245e-06 
-1.01137407448798e-05 
2.912622534136638e-05 
-2.243195746783325e-05 
-1.004142997920933e-05 
2.189895615958881e-05 
-5.145965957468438e-06 
1.214932811153741e-05 
6.591228475933029e-06 
-1.468757148130004e-05 
2.32463040976412e-05 
9.041893608004357e-06 
4.216570343078809e-06 
-4.661582701828623e-06 
-6.92676107798161e-05 
-7.883352749949371e-05 
-2.098597900264517e-05 
8.580259968051624e-05 
-1.963972929737874e-05 
1.39382727591587e-06 
2.841617302693481e-05 
4.45312059204359e-05 
-8.050477100382993e-06 
-4.345759648430067e-05 
-2.007371198396164e-05 
6.034567696598558e-05 
-3.074841084405837e-06 
2.335498003463207e-06 
6.850032432769335e-05 
-3.102263232905433e-05 
3.609430966002029e-06 
-9.696599362647097e-05 
-1.790864615406991e-05 
5.15040856891018e-06 
1.84380318463718e-05 
2.62478085696351e-05 
5.811965813463899e-06 
3.947118951483652e-05 
-7.509097106374797e-05 
2.369461194298433e-05 
-1.329429606894539e-05 
5.535846724922505e-06 
2.879423575186376e-06 
-1.98877246764502e-08 
-2.480490265155168e-05 
-2.688085183529594e-06 
0.0001090825658658259 
-1.260508529964643e-05 
-3.515847119306974e-05 
4.508823003015385e-05 
-7.727924567754106e-06 
2.930772243198635e-05 
-3.69517481356856e-05 
3.469872010288705e-06 
6.736045647234779e-05 
-4.545119399890075e-05 
-5.221425044128734e-05 
5.179096242990232e-05 
1.903267570468197e-05 
3.161819588167989e-05 
2.08022523561936e-05 
2.306279109155549e-05 
1.986254257681575e-05 
5.653697208583608e-06 
-2.398021325338782e-05 
1.552086001633848e-05 
3.245649794106957e-07 
5.112009550714879e-06 
-2.969188979414383e-06 
5.735243623732517e-06 
8.092312010016399e-07 
-2.620999544940744e-05 
-2.825672043965402e-05 
3.568721830977763e-05 
-7.844814357293509e-05 
-4.126136103521814e-05 
1.133400210383147e-05 
3.875914845733673e-05 
2.707381712510663e-05 
7.547019045546084e-06 
-1.468201338693517e-06 
-9.310836216134721e-05 
-9.770876202041438e-06 
-9.716449381097834e-06 
3.867860216273767e-05 
7.163002462545132e-06 
3.960875628286422e-06 
3.027222063133439e-07 
-3.330341087484189e-07 
1.163236953508311e-05 
7.500743322741086e-05 
-1.108355418334675e-05 
3.55997864840679e-05 
-5.572336183626516e-05 
-5.095201105657685e-05 
7.001927276787595e-05 
-5.102266051897176e-06 
-3.593356348459199e-05 
-1.108536231778538e-05 
-5.698472473128795e-07 
2.262032195383227e-05 
3.857992597605565e-06 
-4.882471683619361e-05 
6.76831388270118e-06 
1.748686239456521e-06 
-1.163724758183776e-05 
-1.153241221412909e-05 
1.125751094346364e-05 
6.529612493445654e-05 
-4.400661007634238e-05 
3.276470099568472e-05 
3.883985123630621e-05 
-9.52001009401736e-06 
9.056074974664201e-06 
-9.331251984803763e-05 
3.075961745161739e-06 
3.502169193079402e-05 
-1.713983783962584e-05 
-1.373858156904314e-05 
-1.626832342197353e-06 
-1.107042916371972e-05 
4.36533014535404e-05 
2.428266575468033e-06 
2.992101033330069e-06 
1.532206435923749e-05 
3.500018564011551e-05 
-6.836650519337266e-06 
-4.199102958279271e-06 
-5.894882985888555e-07 
-1.145733013654368e-05 
-3.726130430655892e-05 
-1.280039804561982e-06 
1.886525613972735e-05 
-4.175537714780864e-05 
-6.667373666320227e-05 
1.496102631673145e-05 
6.382436576613834e-06 
9.153681941731185e-05 
1.37689572672405e-06 
4.671354479581937e-06 
2.946859060443215e-05 
7.903275543395213e-06 
1.338339722473451e-05 
3.68616530053796e-05 
1.330285049417121e-05 
-0.0001287356682949481 
-1.466807932998227e-05 
5.998354400196233e-06 
1.287181155975586e-05 
2.986316490779963e-06 
-8.148465667494308e-06 
9.025437656762e-06 
-4.008242236922786e-05 
1.713826327885443e-05 
4.1045598829209e-05 
2.255009091299101e-05 
7.8136967621867e-07 
6.603612724221073e-06 
-1.840737666533795e-06 
-3.453368694485806e-06 
-2.632565397305829e-05 
-2.798296830547107e-05 
2.641504979736301e-06 
-4.778160759020512e-06 
1.235881685613973e-05 
-4.089497430837414e-06 
-7.351406827191802e-06 
2.935659260020238e-05 
-1.592464759838506e-05 
-0.0001475539089212282 
-3.3419039475847e-05 
8.065469096997956e-05 
-2.276675769546824e-06 
-2.827052813921589e-05 
2.383638026293389e-05 
9.693839156965358e-06 
2.379209670058443e-05 
8.330281433802262e-05 
-7.857638747556366e-06 
3.900252832750585e-06 
5.743517820798577e-06 
7.003577255187428e-06 
-2.279847153846638e-05 
2.266353430343686e-06 
-4.140525538143535e-05 
-4.702719177857809e-05 
-2.877485658532709e-06 
2.590995482406289e-06 
-9.905694655076236e-06 
-9.5224323816053e-06 
6.35276165929498e-06 
-7.030674012112793e-06 
8.723013947484293e-05 
-1.058634896565404e-06 
4.568410533214565e-05 
-3.841513836419866e-07 
7.489828327928462e-05 
-4.993038111872166e-05 
-2.372242017097368e-05 
1.533911879402352e-05 
-1.766589438858864e-05 
-5.148098024592704e-06 
-1.036883592937657e-06 
-9.801591884076671e-06 
-7.877926032872291e-06 
3.734204114525799e-05 
-3.258305859179629e-06 
-2.471383878745453e-06 
8.770966441148367e-06 
-4.98776682095239e-06 
3.86067795410697e-06 
-8.439628274415246e-07 
4.492499798697849e-06 
2.169706728756903e-05 
-4.672337450773912e-05 
-8.16138638785609e-05 
1.051343983342722e-05 
-7.945069679857478e-06 
4.295488609176794e-06 
3.904179727133941e-06 
2.338460676803007e-06 
-1.865920461201825e-05 
4.460693318970861e-05 
-3.837158451704924e-05 
7.151381944649874e-05 
-1.69043712312464e-05 
-2.513837471892204e-06 
3.86013154175176e-05 
2.295606033502359e-05 
-1.361058873271239e-05 
3.01715400407057e-05 
3.708397496855253e-06 
6.000784708443329e-06 
2.921303805976676e-05 
8.911502087029555e-08 
-7.992084138582456e-06 
4.764481741890578e-06 
-1.798239794063794e-06 
-7.632621282124547e-09 
1.038766024365653e-05 
-6.494868091420035e-05 
5.325033874009509e-06 
-7.826649435996504e-06 
4.768288476633812e-05 
-2.878118243373617e-05 
1.558932377462893e-05 
-1.293416706821468e-05 
-1.71164158340996e-05 
3.977061272723004e-05 
3.799579266456575e-05 
-5.800133803731209e-06 
1.440982008492061e-05 
-9.858746619007989e-05 
1.89305026860765e-05 
2.626823296883912e-05 
-3.2546460498181e-05 
-1.626537405130451e-05 
4.179912595459043e-06 
-1.889684255074992e-06 
1.270593818533957e-06 
-1.622318260049482e-05 
-2.94336874216356e-05 
5.845956583342896e-06 
2.092497858864448e-06 
5.687949182645596e-05 
-3.986665051321763e-06 
1.591908923399977e-06 
1.790166292389293e-05 
-3.22035338547912e-06 
-2.958802017488325e-05 
-5.64269845601892e-05 
-1.597869080307543e-05 
-2.082899334804333e-05 
7.130027146448913e-06 
3.663485978912248e-05 
9.03027517416067e-05 
4.105667438876371e-06 
6.388133396076833e-05 
4.058708917169403e-05 
-4.825978578420576e-05 
-8.174401674451064e-05 
6.62520677189676e-06 
-2.238163379030337e-05 
2.578385673324862e-06 
-2.433959557492894e-05 
0.0001078268186147042 
-1.645612159058959e-05 
-7.514562054523962e-05 
9.496952039248292e-05 
-9.656722796720232e-06 
2.591398029260281e-05 
-2.324491651452753e-08 
-6.263133559844188e-05 
2.734359060481255e-05 
1.023251836173699e-05 
7.007259781714004e-06 
-1.123152615402583e-07 
1.694960147476144e-05 
4.361132153578506e-07 
-4.220072266976626e-05 
-2.135178097221103e-06 
-1.908492108490128e-08 
-7.664188204913839e-06 
4.188641375314137e-06 
-1.704650144890724e-05 
-1.198934082703185e-05 
-7.317853034319416e-06 
8.34767367097458e-05 
-4.282019808822134e-05 
1.203944333390332e-05 
-4.442965132616778e-06 
3.783846876623506e-05 
-4.451104929680298e-06 
-1.261861201248127e-05 
-1.542276420650917e-07 
-1.07335701038148e-05 
8.218355825216622e-06 
-1.175287415868091e-05 
2.080046297021068e-05 
3.286342723894565e-05 
4.019343403042328e-05 
-8.524543142943598e-06 
-1.032642488684117e-06 
-1.830382083032875e-05 
-1.997828594365544e-05 
-4.790569141958581e-05 
5.144335915184706e-05 
-3.728062608715551e-05 
-1.558181263889527e-05 
2.063081693949303e-06 
-3.181612016944138e-05 
-4.77842998150718e-06 
-3.394444121181121e-05 
-6.662551403707599e-05 
-2.151635803184439e-05 
-4.99870869497413e-05 
2.158435288671956e-05 
4.079774178852598e-06 
9.93274461172812e-05 
1.748251427737115e-05 
7.356794294750915e-05 
-6.829440329242905e-06 
-1.521248559299817e-05 
-3.832584819884877e-05 
9.571775611010922e-06 
2.875842186968811e-05 
-1.555168851953248e-05 
2.826614533460372e-06 
1.385553742145887e-06 
-8.193283697697535e-06 
-2.361060238546421e-07 
4.100232264795829e-06 
-2.355642852505646e-05 
-2.815625132768353e-05 
-2.0376536006496e-05 
2.120109707968535e-06 
2.921284791476407e-05 
4.836655582987576e-05 
6.661215504474435e-06 
4.539368032272485e-05 
-8.129081054400762e-06 
-3.627239653625138e-05 
3.773718203128315e-05 
1.283824373782315e-05 
-6.781454272315589e-06 
2.582367297302227e-05 
-4.030744603364222e-05 
-4.063109874117084e-05 
7.531099833076465e-06 
5.856037262428124e-05 
-9.579238099800265e-06 
-3.130795218934347e-05 
2.863249315439651e-05 
6.157208309821859e-06 
2.558443293451464e-05 
-6.233604896897229e-05 
7.56158832785467e-05 
2.852030074808174e-06 
6.239931878799802e-06 
3.904179727133941e-06 
-3.050874753842351e-06 
3.257458314611159e-06 
-6.431321168929837e-05 
0.000105863560843774 
-7.436334580400135e-05 
2.147051642441411e-05 
5.007804377148472e-05 
-9.201761623828964e-05 
-2.097399443613734e-05 
-3.061982553142671e-06 
2.916993196905775e-05 
-6.686759550403495e-06 
2.267891836147972e-06 
4.002037219941923e-05 
4.882701569127799e-06 
-6.431404529252753e-07 
-2.499823152516685e-05 
-5.512883446973379e-06 
1.213979811119514e-05 
-3.984813034009305e-06 
8.752535012231353e-07 
2.752530032799252e-06 
5.495865841732801e-06 
-6.889568388480071e-06 
-9.721783270514167e-06 
9.538258458734015e-06 
3.053348168727665e-06 
3.838108584431686e-06 
-2.524715096697659e-05 
-2.654457006301446e-05 
1.511696422482113e-05 
-7.532525432073719e-06 
8.004781330999381e-06 
4.484258152796687e-07 
1.765885908872043e-05 
9.556328889054366e-06 
5.723487321155698e-05 
6.593653597963895e-05 
-5.890533446624426e-05 
4.046158826388082e-06 
4.86531041376183e-05 
1.270893141397873e-05 
-1.665123778009532e-05 
1.830545328003225e-05 
-4.760869610259312e-06 
9.375979021146368e-06 
-3.866375374907527e-06 
-2.310794971052013e-05 
1.719496996473246e-05 
-4.218508470000987e-05 
-7.333428592240812e-05 
-2.07393157061575e-05 
1.75227026982198e-06 
-1.103798382381693e-05 
4.928973353436144e-06 
2.063171322660081e-05 
6.001982817219622e-06 
6.264475572541269e-06 
1.894218559498493e-06 
-2.145503709654785e-05 
-9.171959232020265e-06 
-0.0001089231057351454 
4.473078721499708e-05 
-1.553863619347015e-05 
4.350012476682258e-05 
1.46078558934103e-05 
-2.135639296346498e-05 
6.108999769303032e-05 
-1.536369928626679e-05 
0.0001231513452117359 
4.16324022238467e-05 
-6.748903568311669e-05 
1.16007428160343e-05 
-5.17468590341291e-05 
1.883454800152464e-05 
-2.209787024214491e-05 
6.893267640561484e-06 
1.311259450151425e-05 
-2.896923357259264e-05 
-9.233698032918455e-06 
7.001992550251684e-05 
-5.098319236017002e-05 
5.718456340896955e-05 
4.01434759930458e-06 
-6.036048396891704e-05 
-1.162172704780014e-05 
-3.308306934755798e-05 
2.73356169678294e-05 
1.600522728581457e-06 
-6.598336406986605e-06 
-8.499404217780546e-06 
6.271700206548189e-05 
6.678299831316782e-06 
-2.940362683451331e-05 
4.40753422165871e-06 
1.115198229740233e-05 
5.976147018100076e-06 
-2.888544924222367e-05 
-3.512955877420773e-05 
4.108556734386797e-05 
-2.762472182609111e-06 
-1.773201072710721e-05 
-9.978141450543226e-06 
-2.439405856794421e-06 
-2.058743046252338e-06 
1.910826450653878e-06 
-6.331033703151222e-05 
-2.815455355268917e-05 
1.575274843907415e-05 
7.093530658807887e-06 
-7.332066214324579e-05 
2.492960458847565e-06 
-1.34189792889168e-05 
1.255207513422813e-05 
-8.15115503732557e-06 
2.669328784085131e-05 
-3.567297030562505e-06 
-7.971046547458494e-05 
4.098696890767338e-05 
9.098924526909925e-05 
0.0001027057588672477 
1.988889068017838e-06 
-2.390236813134588e-05 
6.954141143752022e-05 
-1.299582408979508e-05 
-3.957719667962942e-06 
-2.85736307302365e-05 
-3.646488347049778e-05 
4.038949759080371e-05 
1.634567882612748e-05 
-1.312596505983987e-05 
-1.895780809479204e-06 
5.890303672910602e-06 
5.842701216074943e-05 
-8.225116230273415e-06 
-4.074385298626341e-06 
-1.004918389184215e-05 
-1.263891584363415e-05 
3.568773801831826e-05 
1.682118175095398e-05 
6.7869233735973e-05 
-3.399159682093059e-05 
3.851674751930919e-05 
1.71978577771989e-05 
1.666164108347395e-05 
-3.545455351134727e-05 
6.287107411676938e-06 
-2.517969343666656e-05 
-7.799779325807135e-05 
-3.000364707412388e-05 
1.995181336962956e-06 
-3.384626483747815e-05 
1.8831177278611e-05 
4.374621323651802e-05 
-2.014753227819179e-06 
1.921554493076189e-06 
-3.616796899181812e-06 
9.202619936931868e-05 
-2.961993180729819e-05 
1.187131826183689e-05 
2.036662072097109e-05 
5.109390036897074e-05 
-1.327616848945859e-06 
-3.180715568255932e-05 
-2.508062360259072e-05 
-2.084537612161232e-05 
5.90212329772561e-05 
-4.949535945535897e-05 
2.944476129747806e-05 
1.656625872306014e-05 
-0.0001347300342488734 
-5.465239424279756e-05 
-1.589298373319975e-05 
-1.235131357659237e-05 
3.5462225289306e-05 
2.564009827915719e-05 
-1.264493205306668e-05 
1.284177943701458e-06 
4.111870205665235e-05 
-1.71152366311825e-05 
-4.26994790575382e-06 
1.473857490491306e-05 
3.49585339158402e-06 
7.960322350267581e-06 
-2.022022112078017e-05 
-4.932613259559002e-07 
3.399126740421801e-05 
4.660190675308674e-06 
2.849925243728811e-06 
5.542082126520171e-06 
-2.410906613885741e-05 
6.673326371224241e-06 
4.779641397005195e-06 
-3.103024733053674e-06 
-2.936808648324371e-05 
2.286479759451122e-05 
-1.035874139135352e-05 
1.095897039447748e-05 
3.942148613845054e-06 
-2.486557123100049e-07 
1.035737516954187e-05 
4.553043211643646e-05 
2.713381068455142e-05 
7.876171759520144e-05 
-2.810920753568734e-05 
-0.0001501842006803919 
7.669991219098635e-05 
1.789684827960228e-05 
-5.83437133372996e-05 
-3.258305859179629e-06 
-2.595036778761794e-06 
4.521087511993681e-06 
-1.130069930961301e-05 
-6.121008601870998e-07 
-3.392407271211131e-06 
-1.047144659733616e-05 
-1.14224284825559e-06 
8.758861447304999e-06 
4.027427657821794e-05 
-2.433290643898404e-05 
2.265884952282598e-05 
-4.803416091035345e-06 
-9.654951047585245e-06 
2.097470948136662e-05 
4.999141543155673e-06 
2.429964031150096e-07 
-3.552275035028455e-06 
0.0001012888539774855 
-3.588540031193665e-05 
-6.095410469293457e-05 
-4.523783588653969e-06 
-1.368721785739205e-05 
-5.956412551417926e-05 
-2.26471399740482e-05 
-3.414175926985286e-06 
-7.416745608294185e-06 
-1.44156737323732e-05 
1.152469563775638e-05 
9.686417025169432e-06 
1.979102174265745e-05 
-1.122665776833295e-05 
-3.258305859179629e-06 
8.156857629568616e-08 
-7.168207700016219e-06 
5.005460883957652e-05 
-9.185889385202417e-06 
-4.963175964111331e-06 
3.039148822780264e-05 
-1.173611977903933e-06 
-1.646884459266933e-06 
-1.106854079666093e-05 
1.160085162633871e-05 
2.037212615603611e-05 
-9.660775520212405e-07 
-1.210908076938786e-05 
-1.02344685906014e-05 
-2.427340282127966e-06 
3.97310909301513e-05 
-3.910514533770171e-06 
-2.756604744293587e-06 
8.393473156873152e-07 
-4.18113553193959e-06 
-3.56177942086237e-06 
-3.806972498101709e-06 
-9.254156944481652e-06 
-6.842751677764261e-05 
-9.320061726085656e-06 
8.240229603197284e-05 
2.00488814113813e-05 
2.74794369384004e-05 
-1.076295902442043e-05 
1.20854030078173e-05 
4.168586054922534e-06 
2.076131579973366e-05 
2.657102723816648e-05 
-4.856521725332733e-05 
-2.281246178618119e-05 
1.495325731282762e-05 
3.223630007291668e-05 
-6.619119872082092e-05 
-3.134006660117191e-07 
-1.475842788043015e-05 
-1.288706337209538e-06 
-1.143142371112914e-05 
1.570254564216672e-05 
-2.427512521518044e-05 
-1.826103067256778e-05 
-1.986439506414686e-05 
4.575845760097646e-06 
-1.762085649983349e-05 
-3.377016542631189e-06 
1.728386320293334e-05 
4.04199828333425e-05 
3.787310285554068e-06 
6.208694973682612e-06 
-1.61388812588837e-05 
1.387448471542581e-06 
7.810846689373228e-06 
2.419702368250154e-05 
3.024074547761892e-05 
1.742738561676274e-05 
3.456072293185023e-05 
1.021891770788408e-05 
-8.118274048871665e-05 
-2.033174717368978e-05 
2.077234952958984e-05 
-2.6867443010952e-05 
2.81167415440993e-05 
1.03041797183782e-06 
8.370114739878297e-06 
3.673573967122469e-06 
9.878150268810657e-06 
2.662580415311849e-05 
-6.127463553978544e-06 
-1.224891166656951e-05 
-1.611695475507173e-05 
-7.55143309900932e-06 
3.14707054776934e-05 
-2.717826328591937e-05 
1.74976024738225e-07 
3.418243994217771e-05 
-4.23180537312e-07 
-7.331442799632396e-06 
-1.826366390956972e-05 
8.876892209047055e-05 
-3.723213466827745e-05 
-5.575937975033424e-05 
1.603067371634415e-05 
1.282222501102825e-05 
-1.319704171129938e-05 
-2.956311241142951e-05 
-1.373105371733084e-05 
9.03757478577294e-06 
9.098147313744611e-07 
-2.110735005223811e-05 
3.49129066476394e-05 
-9.046053887195022e-05 
6.579150663906e-05 
-2.395972291961174e-06 
3.114277066130428e-05 
3.96025070042086e-05 
5.054472623411069e-05 
-7.313446979951279e-05 
8.091832034553417e-05 
1.154087095231857e-05 
-3.941510325436808e-06 
-2.632622256168084e-05 
-3.87933349743156e-06 
3.776865248865111e-06 
2.545995221142513e-06 
-1.139729949835443e-05 
-2.824242882951441e-05 
1.637735647525487e-05 
8.315556903731709e-05 
-1.561840332898155e-05 
-2.306150605803663e-05 
-1.389715911160075e-05 
-2.553693909440276e-05 
-7.006693381099441e-06 
-1.665116957347795e-05 
2.494073398234531e-05 
-5.706816593486059e-06 
3.69172586060364e-05 
-1.154639114369038e-05 
1.064135565452471e-05 
9.37352383877152e-06 
-2.022780060199345e-06 
4.465905236575539e-05 
-4.875809425390458e-05 
3.111663163906275e-06 
6.466864298937604e-07 
-2.628717545625893e-05 
0.0001512720825761915 
-6.906885457669435e-05 
-0.0001208552200471518 
1.602817950689806e-06 
1.87823541771689e-05 
6.988552975490879e-05 
4.147278554565982e-05 
2.013941757447087e-05 
1.890298779080932e-06 
-4.13396604656877e-06 
-1.902747215567929e-06 
4.56581746193552e-05 
3.37557642713975e-05 
-7.200199621732219e-05 
-3.736025095579275e-05 
2.009062599146019e-06 
-4.072354691446779e-05 
-6.40701655996326e-05 
-1.627562635839365e-05 
-2.539908839147362e-05 
2.693474854910284e-06 
1.791151379175759e-06 
2.411111639953496e-05 
-3.982272751741488e-05 
-3.583974203608178e-05 
2.170394577515995e-05 
-8.926132161890063e-06 
-2.808067730012942e-05 
-1.390444841245689e-05 
5.52899075160112e-05 
0.0001410689094625012 
3.284689013492755e-06 
-7.343552575884069e-06 
-3.447665204345381e-05 
-3.480474341967765e-05 
7.567609004686025e-06 
1.729354070321359e-06 
3.560970573404079e-05 
6.418341382701902e-05 
3.240339069738664e-05 
-1.312801609644575e-05 
-3.707639555092764e-05 
-1.986597800229185e-05 
-1.342019203981944e-05 
2.083828649006311e-05 
0.0001149288456978832 
-2.615212005191974e-05 
2.926702737920164e-06 
-9.207838065854265e-05 
-2.299277734172787e-05 
-9.503014131586529e-05 
1.400253305039101e-05 
9.941915935602181e-07 
3.995992960509014e-06 
-1.08027661534181e-05 
-3.384099375962868e-05 
-8.875478756282037e-06 
1.750907014073359e-05 
-5.23971910260977e-05 
4.223480674916596e-05 
-4.371680406405503e-07 
9.148325568097659e-06 
2.484475567789559e-05 
2.137624598903422e-05 
1.602118998678631e-05 
2.080467944215344e-06 
1.377604738035285e-05 
6.858254488799194e-06 
-2.399326175477759e-06 
9.536687196172738e-06 
5.646358581920305e-05 
-7.152642148108935e-05 
8.082404980357344e-05 
-1.590393049395455e-05 
2.066306605655322e-06 
8.249246939830268e-07 
4.405787422203745e-05 
-2.222198102165559e-05 
-0.0001810294917018482 
2.09226302060685e-05 
6.668734940411044e-06 
2.429964031150096e-07 
2.658796447842791e-05 
-1.018949861210452e-05 
-7.634920561013207e-05 
5.306981150651114e-05 
-2.493215763711088e-05 
-7.20490111284603e-08 
-1.432689970598458e-05 
3.871144612050769e-06 
-1.115372037344789e-05 
-1.438079272929592e-05 
-5.552355700159754e-06 
6.732479724609649e-05 
-1.491471659240248e-05 
-1.305905179664539e-05 
7.880003964389744e-05 
-3.937701702294463e-07 
4.035890345311909e-05 
3.375748109112466e-05 
-4.252807975289559e-06 
1.216372726464011e-05 
-8.4988372258715e-06 
-5.329310346691811e-05 
-1.040390564067382e-05 
3.771085118265306e-05 
-7.042188788016026e-05 
8.124059944980598e-06 
2.213109972268771e-06 
1.733570476726412e-05 
-1.074272896464911e-05 
2.822639820498932e-07 
-6.055836762501655e-06 
1.450444701403108e-05 
-6.371728550979406e-06 
3.449708563019904e-06 
4.96982286871223e-05 
4.543604254723509e-05 
1.14386419054221e-05 
-5.177860031981531e-05 
-9.031613358500831e-06 
-5.369986129178305e-05 
0.0001434831292854369 
-7.135785253359004e-06 
-2.120466768797256e-05 
3.85141836836548e-06 
1.005277712688795e-06 
-8.749562905201025e-07 
5.786536712691968e-06 
-3.012244393482482e-05 
-2.627852789071963e-05 
-0.0001549850674697983 
-5.088731866193757e-05 
-1.470411041416469e-05 
6.073707285041332e-05 
0.0001445819844169749 
-3.032216875646314e-05 
-7.283767202867618e-06 
-2.83887143979939e-05 
2.101541527063285e-05 
4.19761156525592e-05 
-6.066369046889026e-05 
-5.04963456443573e-07 
-8.853204994044819e-05 
1.558316295659699e-05 
-3.477273559461647e-06 
1.238247685510463e-06 
2.276490222892359e-06 
8.587972151688673e-06 
-1.106483185833773e-05 
-6.880037750134648e-06 
1.978154887670975e-05 
6.66142381758651e-06 
-1.703639494381038e-05 
1.11237605595937e-05 
5.030859371994893e-06 
1.055796518616231e-05 
8.849304981690663e-05 
6.020564228373694e-05 
1.123334141986173e-05 
-9.66223626330666e-06 
2.80998375234751e-06 
-7.428074641655694e-06 
1.624566344841587e-06 
4.144464263882099e-06 
4.022057641178339e-05 
-1.419339471702293e-05 
2.015200480234897e-06 
-1.211424903028517e-06 
-1.903065259141007e-05 
-3.460748247088238e-05 
7.803413697945634e-07 
1.543117427554742e-05 
6.282376636663325e-06 
-2.194386835437463e-06 
-3.019553081344235e-05 
1.807149525839557e-06 
4.615485049566944e-06 
-6.295113137716709e-06 
-1.067218879273755e-05 
-5.656870137627862e-06 
-1.618608414776076e-05 
-5.097403686371158e-06 
1.589244623494311e-05 
-1.391238690935483e-05 
-1.981520341677041e-05 
1.139798224437166e-06 
1.115061627038369e-06 
1.695826146490458e-05 
3.161899805197508e-05 
-2.208926581482397e-05 
-4.343455670407247e-05 
7.288363084010452e-05 
1.50789681027752e-05 
3.305678268058277e-05 
7.22618799703649e-06 
2.005755733655342e-05 
-5.81562914965612e-05 
1.818236566517519e-05 
-6.937938282663521e-07 
3.957903000770635e-05 
1.596093353276224e-05 
4.813067199928953e-05 
-5.426831648165326e-05 
4.796752731779651e-05 
-4.492720758415614e-06 
-6.474007174854492e-05 
-1.476320297687542e-05 
-1.397078990960952e-05 
-5.898800826731577e-06 
3.954564360037743e-06 
1.240268834976997e-05 
8.013160977275998e-06 
1.659587300178229e-06 
-1.407649565748834e-05 
-8.29676043912557e-06 
-1.785458491770902e-05 
-3.029898854542736e-06 
6.660587743618234e-06 
1.395607799992417e-06 
-1.575263008183967e-05 
-8.361391451489294e-06 
-4.141891133683147e-06 
1.651960198230816e-05 
-3.540388226821996e-06 
-7.702835248411166e-06 
7.210412817472515e-05 
-9.477937819788747e-05 
-5.675893259644065e-05 
-9.09697932476409e-05 
3.9617204472467e-05 
1.786195676717837e-05 
-1.815454631892685e-05 
9.602701609653026e-05 
7.241356431395047e-05 
-8.670603550432768e-06 
2.723538999271245e-05 
-4.833222308790959e-05 
-9.820585572428231e-06 
5.038251411500226e-05 
5.244861364968586e-05 
8.354579970879354e-06 
1.163139719549302e-05 
5.88114987920112e-06 
1.61888550429814e-05 
-5.969468611095402e-07 
8.239484382825052e-06 
1.840222041807778e-06 
1.755849229044719e-06 
-1.186340604486048e-06 
2.131166362161537e-06 
-2.662872128632602e-05 
-1.909649194499531e-05 
-4.060551468783265e-08 
2.034533907293743e-05 
-1.413978783423548e-05 
5.86795558396985e-06 
2.672167328052991e-05 
-5.569563832539677e-05 
3.577973032388546e-07 
6.022687748711545e-06 
-1.433350647359505e-05 
2.111398420335555e-05 
-3.064491200008749e-06 
1.803382262997369e-05 
1.63319412759599e-05 
-2.480637181549458e-05 
1.387654119017929e-05 
-2.221123914544836e-05 
-1.528317141546726e-05 
7.100231840029617e-05 
-5.106948167675982e-06 
2.061503973422259e-05 
-1.337280600075642e-07 
-3.935225301809505e-07 
-4.226289902648037e-06 
6.465301580812244e-05 
6.604411083690505e-06 
2.526591326352157e-05 
-3.129958017504846e-05 
-6.306176092950883e-05 
1.134599639024691e-05 
-7.491623455065877e-05 
7.319309386436882e-05 
2.058792744041185e-05 
-6.093584280404292e-05 
-1.10336617352473e-06 
-2.308623556148236e-05 
-2.030597067808019e-05 
-5.087002928387888e-06 
2.042410868141769e-05 
6.052325396753648e-05 
1.447973627861422e-07 
-3.236785330698684e-06 
-9.00534830764212e-06 
9.269395943739354e-06 
-7.841206765275433e-06 
1.658291994991157e-05 
-1.632429425027135e-06 
-9.036322835441691e-05 
1.251895987472617e-05 
2.848993497418297e-05 
-1.666735108371545e-05 
-5.253234367896565e-05 
0.0001501011760856302 
-4.186446183808953e-05 
-2.857614886822286e-05 
-4.078960868736295e-06 
1.168522559089959e-05 
-3.711095022311348e-05 
-2.230031568775628e-05 
1.780022961358553e-06 
4.521750878135121e-05 
-4.854547111403863e-05 
3.871550802455139e-05 
-2.938207850205101e-05 
4.588893455851296e-05 
3.86964315440937e-05 
1.001938046991086e-05 
-7.218450922027058e-05 
-2.124674042636942e-05 
3.626159281598589e-05 
7.466232956684938e-07 
1.680538616834787e-05 
1.928045843169082e-06 
1.417942694572278e-06 
8.032137514538533e-06 
7.354564269666592e-06 
1.601824883509408e-05 
1.042280177740455e-05 
1.05196566562914e-05 
1.672635298256827e-06 
-3.783417647971621e-06 
1.995225879262171e-05 
-4.90865135594278e-05 
-1.120403218464543e-05 
8.134407339320013e-06 
-1.285672350630898e-05 
-4.43312513726604e-05 
-1.675008451299442e-05 
9.057995173190052e-06 
-9.694041236504902e-06 
1.778982001203833e-05 
-1.81165468043322e-06 
2.125512857863948e-06 
1.51080903086499e-05 
6.059941231631538e-06 
-7.296971911276226e-06 
5.122996900447387e-06 
3.528896042430889e-05 
1.009921712878932e-05 
-3.957845344032801e-05 
-3.023783705893656e-05 
4.321232385184845e-05 
5.813745398931207e-07 
3.371721333623785e-05 
-4.153536125162732e-05 
-2.989070188895078e-06 
2.711385481344393e-05 
1.786580209529345e-05 
2.793642733519435e-05 
5.195156040917101e-06 
-5.10393529870121e-06 
-3.407467335080251e-05 
-4.259435759494548e-05 
-7.124219353829495e-06 
2.877227549912681e-07 
1.206441161110319e-05 
0.0001505159258079517 
-7.812995518969037e-05 
-0.0001216383318328376 
-1.793771544766713e-05 
-3.734293250489846e-05 
1.726782691858243e-05 
6.817905565639494e-05 
5.366121992108205e-06 
-1.49382078178017e-05 
-1.310105737396903e-05 
2.704294476945431e-05 
2.728237224543963e-05 
9.522797068466811e-06 
-1.192663885515957e-07 
7.914874291090555e-05 
-0.000143654744753764 
4.300890424714834e-05 
5.417568653148097e-06 
2.34243165976545e-05 
-4.675160881604774e-05 
-7.282571460868885e-05 
-1.127105045901165e-05 
1.596897427054158e-05 
9.317174372005586e-06 
1.328895059739624e-05 
1.766196588201414e-05 
5.409039910121422e-06 
8.291838870954058e-05 
-2.498787294110249e-05 
-0.000125680189768387 
6.579142126907115e-05 
1.199570445897776e-05 
1.922692811358816e-05 
1.380546079602148e-05 
-3.779625736368611e-05 
4.771216863211112e-06 
-8.256190213177623e-06 
6.032477647458687e-06 
-2.48508305935884e-05 
-3.049550125990928e-05 
-7.217306040809815e-05 
1.067778662789765e-06 
-4.275439894996934e-06 
5.885784259397935e-05 
4.04107725441422e-05 
1.660267153525496e-06 
1.876875513195056e-05 
8.503956451098998e-05 
-4.362934456854863e-05 
-5.204466623230277e-07 
5.159416057669694e-05 
-1.658478694264301e-05 
-2.54729314450853e-05 
-8.321078890207034e-06 
3.455226229596208e-05 
4.691449775983747e-06 
-9.978233912890632e-06 
-1.700552722274311e-05 
-2.191703239136495e-05 
-8.001683836373017e-06 
-6.972223394225717e-06 
-7.816729647634933e-05 
0.0001291962837842779 
-2.92103657733475e-05 
2.098706669805584e-05 
1.203247079791674e-05 
-1.741216429227671e-05 
1.116164725318855e-05 
-2.313101915631626e-05 
5.97757503911547e-06 
-1.058724931340579e-05 
5.646255142013581e-05 
3.031749721319932e-05 
-4.140595978825088e-05 
2.066416315970667e-06 
1.314779833822141e-05 
-2.445282254412603e-07 
-1.402890679254897e-05 
2.118522007353038e-05 
-1.269408379223476e-05 
1.822177796811454e-06 
6.677971725288583e-05 
-4.917172590309513e-05 
1.130506324023315e-06 
1.261232172116975e-06 
1.265085086487616e-06 
2.380794300932996e-07 
-1.885733250005331e-05 
-2.481338784533139e-05 
5.23701189174514e-06 
3.111305424059287e-05 
2.572774758970585e-05 
-4.382091841476086e-06 
1.93287840709667e-05 
-4.744466451019374e-05 
1.820651778602452e-05 
-1.521722266523498e-05 
-4.179862825689786e-05 
4.375575639492355e-05 
5.663692742887313e-06 
7.361470677005572e-06 
8.702212619773288e-07 
-6.396526898095672e-06 
-5.672861402934837e-06 
-1.404833744874514e-05 
2.637962560324053e-05 
-1.560833682331416e-05 
2.251349231949248e-05 
-2.174555709820544e-05 
1.319802368517379e-05 
-3.700840669483887e-07 
1.860051091821928e-06 
1.751031180853783e-05 
5.862868416462641e-06 
-1.205516472939163e-05 
4.90540506923889e-05 
8.536637230622519e-05 
-2.336423950400802e-05 
-3.544154437781122e-05 
4.316180879913359e-05 
3.314184341810513e-05 
-1.715249348778564e-05 
-1.369280013866385e-05 
2.274292094731588e-06 
-1.448956754472394e-05 
5.183905524636746e-05 
-6.54159947976603e-05 
-8.155030269969877e-05 
1.886997691220328e-05 
-1.673598774967891e-05 
-3.518241684763467e-05 
-5.35741431450945e-06 
-1.639828783751402e-05 
-3.219923119674326e-05 
1.122450859179255e-05 
3.464447119642238e-05 
-6.865554211489029e-06 
-8.63056500259008e-06 
6.360275027960843e-05 
1.803362478016296e-05 
3.786520942653057e-05 
4.326024146770177e-05 
3.58057007113117e-06 
-7.134171394059496e-05 
1.130198221916571e-06 
-3.269474613037052e-06 
-2.988804873382303e-05 
0.0001374623191468993 
-2.379183326195479e-05 
-2.683966336877216e-06 
-8.438819476578715e-05 
-4.922199562573675e-05 
2.56346873171565e-05 
3.466750406381086e-06 
-2.218430243428501e-05 
-1.505701156348768e-05 
-3.747160644204186e-05 
-7.737720444237288e-06 
2.358123514715569e-05 
2.242211892860167e-05 
3.166070334389578e-05 
1.440184700562822e-05 
9.507527588535328e-06 
-1.989702108618919e-05 
-4.268972030881302e-06 
8.045861520009038e-06 
-7.309117200641494e-06 
2.469098637659514e-05 
1.980944076039373e-05 
-2.302513492006141e-05 
-1.649982501932275e-06 
1.446246103839379e-05 
-1.274920014164068e-05 
-4.84566190985927e-07 
-1.445950459886866e-05 
-7.92737869598663e-06 
-1.09980554939835e-05 
3.652565667500498e-05 
-6.292695012615946e-06 
2.654678957148493e-05 
6.5966573949405e-05 
-1.691611534843005e-05 
-1.950972927945033e-05 
-1.715506424643638e-06 
-1.497197969468486e-05 
2.407945213468775e-05 
-8.246803386388587e-08 
-5.534068705322223e-05 
3.45372589314138e-05 
-7.770148752713137e-05 
1.38450954852254e-05 
4.267728793079495e-05 
-4.689651104582842e-05 
-7.476726898446476e-06 
-4.625037922619796e-06 
6.888710251751579e-06 
2.15848237724686e-05 
-2.800788044387942e-05 
1.522558396411133e-06 
-1.21138552762707e-05 
8.85877244222633e-05 
3.176786237625638e-05 
-8.771323932685525e-06 
-3.049239639349399e-05 
-8.104898529186416e-06 
-7.614349131710856e-06 
-2.400190938051997e-05 
5.447310802594533e-06 
1.894081369635288e-05 
1.216303149152516e-06 
8.076339522608439e-07 
-1.169617626104286e-05 
1.689142795963004e-05 
-1.452007057740789e-05 
1.021974700500115e-05 
1.558567962558305e-05 
-1.542978270532131e-05 
-2.730168279807251e-05 
6.73232653772537e-06 
7.807687595691923e-05 
-2.850942008247537e-05 
-4.381579299941484e-05 
-4.806309520322369e-05 
-2.472497561967835e-05 
1.717197556437586e-06 
5.323985042678093e-05 
3.924555250774472e-06 
-2.317429591246498e-06 
1.074428258034411e-05 
5.551082175415871e-06 
3.646923563403388e-06 
6.468843708564468e-06 
-5.982335091539703e-06 
-1.370492149475878e-06 
8.421739817151774e-07 
-2.025601544585927e-06 
6.324850855103566e-05 
3.349703079075599e-06 
-5.740951076580247e-05 
5.624322685704276e-05 
-2.079210411678834e-05 
-5.690744961890102e-06 
-6.759853841026888e-06 
-5.401539273655528e-06 
-6.062450507333132e-05 
-3.73024719212245e-06 
-2.85716290678534e-05 
2.585373607278536e-05 
-1.566194694154431e-05 
3.653290249438314e-05 
4.144527680633491e-05 
-1.040553789274651e-05 
5.471866812588869e-06 
-7.253692688032148e-05 
1.719443972025452e-05 
1.733434551641825e-05 
-5.873724345182408e-06 
3.832855931927121e-06 
-1.033757509872708e-05 
-4.915155383226827e-06 
3.031121170441558e-06 
-4.640718810769823e-06 
-4.684201675756701e-06 
-6.658242780808775e-07 
1.577691282575955e-05 
6.710795778726889e-06 
9.345799251625527e-06 
1.894368574063502e-06 
7.743993514483978e-06 
1.145459840565734e-05 
1.598721540278322e-06 
2.561514966968912e-05 
1.797438753780449e-05 
2.688861749119244e-06 
-3.377264952566728e-06 
2.115857535559836e-06 
1.641344768176924e-05 
-2.437969595201194e-05 
3.628384053495896e-06 
2.814606843498373e-05 
-2.620717899830049e-06 
-5.520586090195e-07 
2.851973840695646e-06 
-1.489255400358535e-05 
-6.87332458101667e-06 
5.517888211006043e-06 
2.360326417193271e-05 
9.829182631565956e-06 
-7.935341625802216e-07 
1.613006665112819e-05 
-4.211764254240854e-06 
-1.464307580244238e-05 
3.147751970908758e-05 
-9.292874102856456e-05 
3.824287947185283e-05 
-2.645224832918032e-05 
-6.312149086287738e-06 
5.616323179987126e-05 
-3.027209704511641e-05 
9.523430500021019e-06 
-4.159306128462311e-05 
7.242038428266666e-05 
-2.327237627924124e-05 
-3.329342012523811e-05 
5.605724394991888e-05 
-3.062112986534248e-05 
1.664461889221545e-06 
5.853854474696803e-07 
-3.008711820066029e-05 
-4.986565524932573e-06 
-2.320453786933173e-05 
6.954595692918994e-05 
5.143353183571413e-05 
5.835286875089698e-06 
8.593143111043543e-06 
-1.157826566986899e-05 
3.165385824275927e-05 
3.610309212494273e-06 
2.307377339189158e-05 
-1.332627937555887e-05 
-4.967346812494027e-06 
-1.559309865749419e-05 
-9.795909610378805e-06 
-1.584358430156498e-05 
4.571135002972507e-05 
3.45119704307126e-07 
7.612915849146947e-06 
1.810321825917374e-05 
-2.114053448673813e-05 
-1.903948976463225e-05 
1.25344586795169e-05 
-7.361114300429466e-05 
-0.0001084526039185908 
-7.515635354478492e-05 
0.000127017633901737 
-2.256916977328331e-06 
2.095344912693611e-05 
-4.993639858061032e-06 
2.749733348697589e-05 
-6.21786511371454e-06 
2.948383931944939e-05 
1.097888299787298e-06 
5.802496675725891e-06 
-8.518654550502434e-05 
-5.229343110375675e-05 
-1.111703763226751e-06 
0.0001162608576885439 
1.610992683723281e-05 
5.648568852990109e-06 
2.662852550891513e-06 
3.806150074320189e-05 
7.963077233022047e-06 
5.970792002410688e-06 
-8.067049199145405e-06 
4.606917806544996e-06 
-2.304535084304059e-05 
9.208190187759176e-06 
-3.764163991542072e-05 
1.078375146302714e-05 
-7.589017913541499e-05 
2.677717984042746e-05 
-1.85000068908066e-05 
0.0001065976366501902 
-7.562338388229512e-05 
1.968244180966069e-05 
-4.244301953674177e-05 
2.207864871663611e-05 
8.443038464040579e-06 
9.310356867042706e-06 
5.391089307277858e-06 
-5.847539920818291e-06 
-3.258416140188214e-06 
4.722717552650572e-05 
4.099050146771923e-05 
-5.373298404237532e-05 
-6.709726937439804e-05 
-1.67188163246733e-05 
5.185149108843804e-06 
2.433169613540463e-05 
1.886233835376528e-06 
2.578386012830317e-05 
-9.086678560012823e-06 
1.048962851694469e-06 
1.594446701542916e-05 
-4.966645470260271e-05 
4.183342347021655e-05 
-1.054844313413541e-05 
-4.001490998718e-06 
-9.622310156776513e-06 
-6.315563519324257e-06 
2.966052808604429e-05 
-2.907646719409211e-05 
-6.261358822480446e-05 
4.753148476494997e-05 
7.374341073050303e-06 
-2.054208027246028e-06 
-1.018016194375527e-05 
8.679604500211768e-07 
1.479399145608609e-05 
8.379349015369761e-05 
-7.598993722516596e-05 
4.789730565272061e-05 
-6.114445101338734e-06 
-4.983715247067073e-05 
1.503376522538978e-05 
-2.044171264785457e-05 
1.935259958844307e-05 
-2.536138392985365e-05 
-1.095850408685843e-05 
-1.558728228495555e-05 
4.393668422484891e-05 
1.146476280613735e-05 
-3.002044253687971e-05 
-6.436387464007121e-06 
-2.701757238633492e-06 
-6.220188098856347e-05 
2.782840892370499e-05 
1.219465956353397e-05 
-4.159273371678819e-05 
-2.931876833134315e-06 
-3.034356548980893e-06 
-0.0001147771646318548 
-7.279709387633339e-06 
1.853786337114876e-05 
4.0150438281993e-05 
-5.383222080804343e-06 
-7.675692637730875e-06 
-7.887916597468081e-06 
-1.544525999944018e-05 
-2.787784749539793e-05 
-5.615176301313475e-06 
0.0001288761746920549 
4.576372032968043e-05 
1.437255536168046e-05 
0.0001056091640166634 
-2.40064534201573e-05 
1.195590324921554e-05 
2.753766652675985e-05 
2.039411636336862e-05 
8.790806889354026e-06 
-1.746718979701938e-05 
2.332892281003712e-07 
1.863451257995861e-05 
1.121854925747846e-05 
2.996702593715565e-06 
-3.607476110322729e-05 
3.755359795152311e-05 
6.952267242174507e-06 
-7.245955935953127e-07 
-2.486269579155159e-05 
-5.14964652906571e-06 
7.727424368697166e-05 
-1.562894921367735e-05 
4.963885086409486e-08 
-4.077083867674838e-05 
-1.874122926813699e-06 
4.590054398851676e-05 
3.87265210526163e-05 
-2.175082832702858e-05 
-0.0001286195486883144 
1.886676828846237e-06 
-3.503595557547995e-06 
6.0068937962464e-05 
1.6186830496143e-05 
1.764891652883732e-05 
-3.935590287948704e-05 
-2.414725626621754e-05 
5.892099951193764e-06 
1.940021503827408e-05 
1.504817751228493e-05 
-7.561908077679593e-06 
1.824477219649801e-05 
-4.122929873788601e-05 
1.814968641263751e-06 
1.041160017917529e-07 
4.567792860968636e-05 
5.153891944667737e-05 
-2.241818896614964e-06 
-9.115215900507546e-05 
-9.97838533872451e-06 
0.0001662947822284128 
-1.579026695478169e-05 
1.721221740036258e-06 
-3.343219952596957e-05 
5.8086436393323e-06 
-4.557557385016126e-05 
-3.435440271521767e-05 
3.062582211804849e-05 
-3.404274313891213e-05 
-5.440567201995613e-05 
3.280586107199287e-06 
-7.747169722150512e-05 
-4.149052615642128e-06 
0.0001012217615095286 
2.554449048262734e-05 
1.231275724918242e-06 
-7.739870660297559e-07 
1.521973593557213e-05 
-3.643701521273358e-05 
-7.79823245645726e-07 
2.228676227245588e-05 
-3.76221270538047e-05 
5.325252435161202e-05 
2.788104219328053e-05 
2.711879080397585e-06 
-9.854374268010659e-06 
-9.317916158022866e-06 
-2.415314306456176e-05 
-1.737023538097308e-05 
3.276267337083843e-05 
3.738373896241192e-05 
-5.333913081939291e-06 
-2.96608989581073e-05 
1.588135495113297e-05 
-8.906305177476611e-06 
-8.770424619339014e-06 
3.756627239333961e-05 
-2.661791107015826e-05 
-1.125236613361637e-05 
-1.183905013496617e-05 
-1.672075801675113e-06 
-1.006415401967453e-05 
-6.895215972149336e-07 
2.542122242796678e-05 
1.416991758735279e-05 
-2.965274286249426e-05 
-7.584456498504387e-05 
1.645425332170034e-05 
5.624553175979175e-05 
4.892780014914224e-06 
-7.435068568014417e-06 
-6.639365768143142e-05 
-5.947363336603868e-06 
-3.212551254674429e-05 
1.086069268010243e-05 
7.545271672780041e-05 
-4.120705052525835e-05 
-4.844406639709973e-05 
-7.941848266176411e-06 
3.941035574643579e-05 
4.372401469975281e-05 
-8.403640382006623e-05 
-1.404366794555294e-05 
6.361185460039838e-05 
-2.477278706591907e-06 
2.71470304830029e-06 
4.047647503055727e-05 
5.117876714156882e-06 
-3.664023314418126e-07 
-1.748035223970517e-05 
-1.058651604809508e-05 
2.202834291743575e-05 
-7.890964596665752e-06 
-4.675461526608533e-06 
1.083500748235766e-05 
4.030836011016603e-06 
3.054404693897678e-06 
-2.766198522911964e-08 
-2.761651787717188e-05 
1.947842890560538e-05 
5.887897674392003e-06 
-2.058238032789948e-05 
6.523283573258863e-05 
4.165359528477733e-05 
4.700491092712576e-05 
-1.778388276947777e-05 
-1.224953447483494e-05 
-1.194925915551976e-05 
1.922730407318119e-06 
-5.276006140440891e-07 
1.924432820296053e-05 
3.373433100987716e-05 
-4.414535701895715e-06 
-8.281760695177366e-06 
1.250899663275744e-05 
-5.031863372285646e-06 
-1.365583015267347e-05 
1.404866233266671e-05 
-3.776391079885911e-05 
-0.0001153072747608485 
4.319541941955061e-05 
3.67606191258135e-05 
8.162146388113587e-06 
-6.33599538294094e-06 
3.058132603614133e-05 
6.16963524833142e-06 
-4.672232741423799e-05 
-2.52676206234961e-05 
3.307147607622614e-05 
6.873828285238437e-05 
-2.102891293301488e-05 
-3.873735749378626e-05 
-1.337826768447535e-05 
1.712810589980486e-06 
2.552799168971398e-06 
-1.200791285202585e-05 
-4.889363446067242e-05 
-2.5258570014055e-05 
-7.850716011329085e-07 
3.164962647470829e-05 
4.222783518641697e-05 
5.31155063832248e-05 
-1.861257033199109e-05 
1.988943580108444e-05 
-2.287773101578026e-05 
-0.0001446927109894211 
-6.309402394854888e-05 
2.278797158955587e-05 
0.0002222133365815664 
-6.599386767282818e-05 
5.63983995108567e-05 
-2.096415498554521e-05 
-2.66485055304871e-05 
1.129192689811594e-05 
2.013237243159071e-05 
-3.748169899150812e-07 
6.912422125354294e-06 
-2.456789035322161e-06 
-2.11394250040125e-07 
1.484777464505056e-05 
2.381646817742254e-06 
3.816203207972834e-07 
3.932395055431457e-05 
-3.607636891277327e-05 
-9.436593667036607e-06 
-2.764857172531884e-05 
9.922371884870138e-06 
1.001946100695358e-05 
-6.813532405825057e-06 
-2.136816998431657e-06 
-6.81423390169947e-06 
-8.878044140314268e-06 
2.870781086575241e-06 
1.353446754040877e-06 
4.95656903734986e-05 
2.826969983465696e-07 
-8.487885988008936e-06 
-1.318714179546368e-05 
1.139199237239363e-05 
9.576609780578336e-06 
7.483193463506115e-06 
1.369884575272562e-05 
5.256222324128141e-05 
6.582463722887659e-06 
2.553114188447263e-06 
6.697636292364421e-05 
-6.635483060289982e-05 
4.283338450016775e-05 
-8.448459451785365e-05 
-7.909816246700229e-05 
4.684647604828054e-06 
1.102026226497132e-05 
-7.739010475437721e-05 
6.148502488803286e-06 
-1.478732428670863e-05 
4.775186463553955e-05 
2.837818182222616e-05 
2.849911498754416e-06 
3.571870393755099e-06 
-3.691421515446983e-06 
-4.265195770202826e-06 
-2.560992336086833e-05 
2.145507046309299e-05 
1.890390391097931e-05 
9.996738614208087e-06 
-1.359204308352415e-05 
-6.213686543302069e-06 
-7.596499682943399e-06 
-3.170045405957812e-07 
6.658817617873467e-06 
3.13564142389927e-06 
1.644180911635025e-05 
-1.164485842733061e-05 
1.001469305918984e-05 
-1.894461909519553e-06 
-0.0001042335485338448 
-7.583189568691674e-05 
2.618782651254089e-05 
4.913465572444933e-06 
7.975075190575966e-05 
-3.443353479358655e-05 
4.522173210457316e-05 
1.619165670534146e-05 
3.112582344489704e-07 
1.805452304843932e-05 
1.521345115206572e-05 
1.166604671907214e-05 
-9.554071740358528e-07 
9.840945932584024e-07 
1.679466381281055e-06 
4.352106660559182e-05 
3.798334529209364e-05 
5.184276341293811e-06 
9.332084384453947e-07 
8.401576219320886e-05 
9.398104423271101e-05 
1.598568446396434e-05 
-0.0001023987249885724 
4.746878889399767e-07 
-9.502069105963868e-06 
1.446240155103148e-05 
-7.72179946739099e-05 
7.177335202251478e-06 
-3.521868184951613e-05 
-0.0001103129084512362 
2.445541112674659e-06 
-4.818433162814645e-05 
4.222016682011583e-06 
-3.254146512706546e-05 
-2.217655596903321e-06 
-9.329914350497497e-07 
9.573007827694678e-07 
1.201839862828427e-06 
9.38482258619789e-06 
-3.428667643486772e-05 
3.379610147323719e-05 
2.217783234021539e-05 
1.817575067811329e-05 
5.772601834238057e-05 
-3.790403281771638e-05 
6.623050948975096e-06 
5.036178159646828e-05 
6.644182984737539e-06 
1.149869135579111e-05 
-4.278217876275778e-05 
3.656120911881e-06 
7.731323976904275e-05 
2.614105571597897e-05 
3.677996088346257e-05 
-5.508820877266625e-05 
-2.859277220580534e-05 
-3.111508414571785e-05 
-4.28414195518955e-06 
2.00712683501284e-05 
-5.382099506986415e-06 
1.646587784407926e-05 
4.502260670746208e-05 
-2.649544811015546e-05 
-8.517243700632431e-06 
-1.087509527686893e-05 
-7.393927099962973e-06 
-1.206333069671753e-05 
7.06311673783538e-06 
3.31802711378581e-06 
7.957692086955918e-06 
7.40235414877983e-07 
6.968819436519469e-05 
-0.000175869139965977 
2.410226680174888e-05 
7.637307205696833e-06 
2.411590357270855e-06 
1.725215069790055e-05 
-1.968888523548952e-05 
6.445730663755282e-05 
6.089267551422829e-07 
1.465347035868186e-05 
1.511572644146899e-05 
-1.822387798832093e-05 
-1.274800395632828e-05 
-1.045734983305798e-05 
-8.850152125331559e-06 
-2.297626122838034e-05 
-1.262136190244211e-06 
2.403376879299488e-06 
-1.002968177318327e-05 
-1.081949492330616e-06 
-2.130708948193214e-05 
2.35973223636903e-06 
4.04199828333425e-05 
-1.52091263721341e-05 
3.487248823342219e-05 
-5.65038976726838e-05 
3.972656673609422e-05 
3.181361240857358e-06 
6.148009805319958e-06 
3.727862595993665e-05 
1.439047812505391e-05 
-5.312617470423475e-05 
-6.187238449098375e-05 
3.286337068584554e-06 
-1.684767246127175e-05 
-4.446773161018757e-06 
5.199515936700849e-06 
5.774024896825823e-05 
2.364557781941369e-05 
3.398544203994641e-05 
2.774856422667619e-05 
-0.0001408856683331191 
6.815058158691547e-06 
0.0001256650043709158 
-5.01699708814227e-06 
-1.41768206178832e-05 
-8.454631364070729e-07 
-1.325972570114722e-05 
-4.326388118848015e-06 
1.517124550271479e-06 
1.121081934305416e-05 
5.104378722592567e-05 
-1.785028850630331e-05 
-8.015105831215831e-05 
1.217050434996492e-05 
-3.158034913434746e-06 
-3.126716873171746e-06 
5.670142875173034e-06 
6.805904104061092e-06 
-4.926637489973435e-06 
-4.379723222284182e-06 
2.819426749185422e-05 
1.711558877564041e-06 
-2.023430108375928e-05 
-2.50947883660278e-05 
3.817573775663076e-05 
-1.503016602504906e-05 
7.261940750974829e-05 
-3.022553586054797e-06 
-3.87669809972798e-05 
5.07907888801761e-05 
-2.581302084320753e-05 
-1.505739867492415e-05 
4.151995307483073e-05 
-1.653129135496698e-05 
6.853281687757146e-06 
-8.616044124814524e-05 
-1.806090767634215e-05 
8.978419751297322e-06 
2.266811651370983e-05 
-4.177635225580986e-05 
-2.160327738212268e-05 
6.181678300978133e-05 
-1.023025698293886e-05 
1.28518648316353e-05 
1.233485629544591e-05 
-2.88100290037002e-06 
8.847794417478037e-06 
-2.591217169354398e-06 
9.359805691114763e-07 
-7.249059028027804e-06 
6.856723082945337e-06 
-3.485344540571063e-06 
2.522106700308258e-06 
-7.456209768966674e-06 
1.129908173419272e-05 
3.801712653640529e-05 
4.252297967546729e-05 
3.996390551437145e-06 
-6.292598511471785e-07 
2.01168268428527e-05 
-2.083660600466172e-05 
-2.751632392985078e-05 
1.106096452053028e-05 
-4.231882573953549e-05 
-6.810367877688473e-07 
2.735133038853689e-05 
-1.334917862984541e-05 
4.094912927672756e-05 
6.914246859898678e-07 
-3.2452547641022e-06 
7.459837866121437e-06 
-7.138404120368797e-06 
1.402353680289096e-06 
4.811371860281535e-06 
-0.0001198356106355076 
3.771537066259585e-06 
-2.253281612973722e-05 
6.049629246361148e-07 
2.003196644643247e-05 
-9.130161332359944e-06 
4.009632811507359e-06 
-2.533636054922766e-05 
1.685107411921738e-05 
4.418898423133253e-05 
-3.256760122137341e-06 
-8.355839222614762e-06 
5.974083630263372e-06 
-8.447734383880561e-06 
1.873961446517673e-05 
5.732944705548079e-05 
7.26164471503268e-05 
6.69065845855771e-05 
-5.733619253279334e-05 
-6.371323530835158e-05 
3.259022275984727e-06 
1.537343698249983e-05 
-9.080457731434798e-06 
-4.483921437776013e-05 
-1.322185538516956e-05 
4.030203737812727e-05 
-3.200716905226188e-05 
1.920617565823957e-05 
-4.592171569735114e-06 
-5.526957140449275e-06 
-1.016908470739391e-06 
-1.383709800523986e-05 
1.141582851850989e-05 
-7.093026049290828e-06 
2.232123672071843e-05 
3.481309901850027e-05 
-2.17579966825286e-05 
-4.483764209332055e-06 
8.6646741508581e-06 
2.53646306494332e-05 
-1.149081173995542e-05 
-5.313331928689506e-05 
3.312311016759395e-05 
-1.501404672533861e-05 
1.055099558495563e-05 
9.005759711215091e-06 
1.990806452094686e-06 
4.537247486272626e-06 
2.301449297339759e-05 
6.670681364545469e-05 
-1.096538612999603e-05 
-6.151584831127307e-05 
9.190633005275043e-06 
-5.141139744890436e-05 
-4.489728117353427e-06 
-2.406651619814137e-05 
5.59339513971716e-05 
-8.743936787926739e-06 
1.609650312030456e-05 
1.104913217259894e-05 
1.831385535970847e-05 
2.978164680032992e-06 
5.464969955065802e-05 
1.545357348855217e-05 
-2.239426439963775e-05 
-3.120306824383711e-05 
1.714023316181458e-05 
-5.374288622165515e-05 
2.516977684198516e-05 
6.274627104491367e-05 
-6.220269804873928e-06 
2.111892260949294e-05 
-2.182255825966531e-05 
8.31272961278068e-05 
-2.213943900287191e-05 
1.942840440553737e-05 
-7.011129830102626e-06 
-1.713509258187468e-05 
-2.843774573196532e-05 
1.524969432032502e-05 
4.063286388830327e-05 
-2.965768981178451e-05 
-7.358259212062936e-05 
-4.614732410680109e-05 
-1.433563559529699e-05 
-5.605441539662259e-07 
-1.37614974736815e-05 
6.143554548264709e-06 
7.118638971212331e-05 
1.168629478103933e-05 
-4.246600985242992e-05 
-3.523102728723213e-05 
1.330362777662435e-05 
-1.097792659698569e-06 
-6.360213269416783e-06 
9.304119538101308e-06 
-8.356067361435666e-06 
1.403714707058001e-05 
-1.969213696624185e-05 
-4.528752681137415e-05 
8.80383492270546e-06 
1.532384666389767e-05 
-5.967891678265386e-05 
-1.257584874015986e-05 
0.0001114042555650724 
2.748350392015786e-05 
8.592256533997392e-06 
7.457007137040736e-05 
5.730299265534754e-06 
-1.788464483389132e-05 
1.712621916458323e-06 
4.419549643052215e-05 
-4.680258153054062e-05 
-4.353324061875047e-05 
-1.78208133375409e-05 
-1.795948623472075e-05 
0.0001260760432986713 
-7.694249289165826e-05 
2.66116191637652e-05 
4.156435107249651e-05 
2.548695085200545e-05 
-1.078247335612604e-05 
1.377321221281209e-05 
-0.0001369045308021942 
2.844546777284439e-05 
-3.413333002907741e-05 
-1.897520077081353e-05 
-5.524090854594683e-06 
1.10801705224039e-05 
1.01770071111507e-05 
-6.271464889842285e-05 
6.875776686922579e-06 
3.76222825883417e-05 
-3.777205997492979e-05 
-2.372018400904655e-06 
1.763782643051074e-05 
0.0001394790196733636 
-9.040034270528267e-05 
3.19893893634042e-05 
-1.535765891830003e-05 
-9.377691912077742e-05 
-3.805478358789227e-05 
-2.964657021814306e-05 
0.0001600692577836428 
6.6114317739394e-06 
-3.306591825969061e-05 
1.529702739070432e-05 
7.699541598284863e-06 
2.131994636515798e-06 
1.588209659625629e-05 
4.968022031404432e-07 
-4.723536265771311e-05 
5.360747673977448e-06 
-2.614435279394243e-05 
-1.959181109152878e-05 
4.082594202575248e-05 
7.76925836771929e-06 
-3.467671675243615e-06 
2.088588502359467e-06 
-2.772806285465638e-07 
5.598757005868285e-06 
-3.258305859179629e-06 
-1.257046964498199e-06 
9.094402745602716e-06 
7.206926731121854e-06 
5.559721532003113e-06 
-4.698114571539472e-05 
3.259596117303765e-05 
3.506844676463626e-05 
-4.795836445553676e-06 
1.096527865009354e-05 
1.801838471966669e-05 
1.010103412682576e-05 
-3.5673929704067e-06 
7.519051259946566e-05 
8.440715073767306e-06 
7.647679526794593e-06 
-1.235777541531227e-05 
-4.135588030005576e-05 
-6.968005163077386e-05 
2.37045093404312e-06 
1.291536979045279e-05 
1.818224647216102e-06 
6.24682047097309e-05 
-1.537233474716421e-05 
7.193412996488572e-07 
-2.743145198186314e-05 
-2.484110504408957e-05 
2.339547207694977e-05 
-6.290451253255677e-05 
-6.906126335961413e-06 
5.356590253904283e-06 
-7.707077858603844e-06 
3.377875856309207e-05 
-2.137975193616627e-05 
5.038714452423849e-05 
-7.978747728979582e-07 
4.034228008054301e-06 
4.513331443772881e-06 
-8.717144749646498e-06 
1.602538715248525e-05 
-1.709467651864154e-06 
-1.69509853049337e-06 
5.819056463199312e-07 
-1.149599611663371e-05 
-3.706798728574443e-05 
2.736574577366266e-06 
-3.330289500600409e-06 
-6.129911498352156e-06 
2.762616455214633e-05 
8.832318869672707e-06 
1.54704500542181e-05 
1.216196542872084e-05 
1.804300183949118e-05 
-5.928814839848688e-05 
3.865766782195618e-05 
3.501352567665515e-05 
-3.873629630041027e-06 
1.823001879818909e-06 
9.228867361728911e-05 
-3.964676391123254e-05 
9.607724880591195e-06 
-0.0001042746281930248 
-2.653029374423381e-05 
-6.854875438031137e-06 
5.690743867750793e-06 
2.438218779453233e-05 
1.129233488383158e-05 
-5.748516619122071e-06 
3.272850731146248e-05 
-3.153350029587853e-05 
1.139105374869125e-05 
1.091767238712789e-06 
-3.928955828418295e-06 
2.409967651489342e-05 
-2.467327716015719e-05 
2.070108867216226e-05 
-5.008126425016116e-05 
-1.008115017712876e-05 
2.181692140841286e-07 
-1.626284293179853e-06 
3.959709364832416e-05 
-6.044009647633319e-06 
3.106378809348229e-05 
1.798750294690756e-05 
-0.0001207210553423152 
-2.221318775932364e-05 
1.979812341110723e-05 
-1.68236943458637e-05 
-2.885373505870295e-05 
2.123999130044998e-06 
8.379241207728439e-05 
-4.656333248798415e-05 
1.271757946478023e-05 
-2.259362281604352e-05 
-1.001560077029293e-05 
2.072508805117281e-05 
-1.43186349876196e-05 
3.673323004429776e-05 
-1.063846923505391e-07 
3.151599848460598e-05 
-5.922608619977963e-05 
0.0001032588442954865 
1.919857375887272e-06 
9.78919213110196e-07 
-5.118099583072108e-05 
7.192806804975102e-06 
3.075631471028202e-05 
6.871382623770099e-06 
-4.055353796746534e-05 
-2.986208383610054e-05 
7.015690035905935e-06 
2.412883059057929e-05 
-3.318082194955038e-05 
7.770574319688911e-05 
-2.493112402703805e-05 
-3.383369822038005e-05 
1.442288383955497e-05 
1.741244594754145e-05 
1.89192938189618e-05 
1.206006094680055e-05 
-1.69509853049337e-06 
7.729351836459251e-06 
-6.880952919801778e-06 
2.965150937425241e-05 
-1.574355484110157e-05 
4.982826576002997e-05 
3.588300224158171e-05 
-6.578660869000372e-05 
-5.801810521270734e-05 
-3.617881167272471e-05 
-3.755317087587346e-06 
-1.293524998619711e-05 
1.522337273172423e-06 
4.577441020760886e-06 
-1.324411912485001e-05 
3.10769678771968e-05 
-9.694736798546909e-07 
6.339424069640717e-06 
3.815126218520131e-05 
3.030581690330341e-05 
-4.039121197393482e-05 
1.854219774663101e-05 
-2.38002888529886e-05 
-3.658087758818579e-06 
3.397566680174512e-05 
1.149711144210409e-05 
-6.449767482474783e-06 
-3.244920549852218e-06 
-1.215504369494752e-06 
1.098766076325753e-07 
1.719516464245262e-05 
6.844880445339468e-05 
-6.154193831291909e-05 
-2.522789049284401e-06 
-2.134570427355422e-06 
-1.56326417276795e-06 
-2.444404266711065e-06 
7.756826425947187e-07 
-4.971048096914441e-07 
-1.321422078244417e-05 
1.712644640559684e-05 
-7.360538481007901e-06 
-3.27750411542557e-05 
-1.88707673477986e-05 
3.034282962267928e-05 
1.97531126523903e-05 
2.524340486425737e-05 
-6.42192319625878e-05 
3.499861356825252e-05 
9.364759192557943e-07 
-4.517265000963942e-06 
-4.450181437208278e-05 
2.49947290904297e-05 
8.727251643939483e-05 
-1.190586485125128e-05 
1.239071914281294e-05 
-3.638053808170731e-05 
-4.155494070038174e-06 
2.036591820579221e-06 
5.923354304075212e-06 
3.967005438855033e-06 
-2.255627488917598e-05 
-4.238746853450333e-05 
3.924414928018094e-05 
-5.027435068369091e-05 
4.562765061487112e-05 
-1.088585927977698e-05 
-2.05430685624398e-05 
3.29122062060233e-05 
-9.925161537686386e-06 
8.125968386500061e-05 
-2.263178654289142e-05 
-5.849801575454198e-05 
4.246583566914088e-05 
3.50648131489831e-06 
-4.295261689665799e-06 
6.859881762486489e-06 
-2.548249498530309e-07 
1.674170509585494e-05 
5.21083230764232e-05 
-9.736797922380998e-06 
-1.224440441749392e-06 
-3.485344540571063e-06 
5.422569468125524e-06 
1.252211295090443e-06 
-1.085143392575012e-05 
-1.361142235512432e-05 
-3.787238569107004e-05 
-4.863583958139234e-05 
4.841542417711456e-05 
4.73021111591894e-06 
-2.846400111651228e-05 
-1.938063347725768e-06 
7.724323560046892e-05 
7.1887828745751e-06 
1.678224079539829e-05 
-7.610954703427741e-06 
4.757937707948966e-05 
-2.099090963959658e-05 
-4.569249432845555e-05 
-5.152221769313387e-06 
5.669640364886064e-05 
1.027141996617441e-05 
-5.534661918638254e-06 
1.059045736067333e-05 
-5.830582225345014e-05 
3.786343393501317e-06 
-2.053937208725966e-05 
-3.806309464097763e-06 
6.44963475534972e-06 
-1.406029093901777e-05 
7.729039374917074e-06 
-5.162078570661767e-06 
-5.507541624016489e-06 
-2.764088763699066e-05 
2.845302061330102e-05 
-3.259652868138444e-06 
3.158920928454662e-05 
-3.920472865077853e-05 
1.521310158670705e-06 
-2.931189677028201e-06 
5.263831079719271e-06 
5.841325883421164e-06 
1.015363871574613e-05 
-3.270207697186376e-05 
-7.168095877976531e-06 
2.959421679890609e-05 
6.37502405668531e-05 
-5.290762560008897e-05 
2.510968023575255e-05 
-0.0001214868971371576 
2.240996941608549e-05 
-1.248699375222105e-05 
6.899147376697695e-06 
1.083680800167871e-05 
0.0001474347109087608 
-2.668789787231594e-05 
-7.91258118983125e-06 
-2.465613240744956e-06 
2.347124788295503e-05 
-2.684108754681584e-06 
-1.912919235286714e-05 
-3.575941202458271e-06 
-2.035735944137529e-07 
5.340899974499614e-06 
2.667645822803805e-06 
-4.352863622800332e-05 
8.970542153087624e-06 
-2.975985747256228e-05 
-5.06653194032888e-05 
2.975903102946036e-05 
-5.640098716791005e-06 
2.338626619295701e-05 
2.345247491405799e-05 
8.237122882400177e-06 
-3.327407353077444e-05 
2.205211832867259e-05 
-9.903465370535769e-06 
7.335651208679312e-06 
-1.163849654436e-05 
-2.256063960062844e-05 
8.700178731180209e-05 
8.520103125280316e-06 
-1.695851411561315e-05 
-2.934776847621664e-05 
-6.189180454643828e-05 
2.066263918998715e-05 
3.401047968313215e-05 
-1.067036683297775e-05 
8.190792529026268e-05 
2.928189871104414e-05 
-1.002986983224597e-05 
-2.101017999516741e-06 
-4.717581490775495e-06 
1.174777261394018e-06 
2.34757047257858e-06 
-3.158320398022657e-06 
-8.098114026054824e-06 
1.46406395358868e-05 
1.538928493183649e-05 
-3.550190164266196e-05 
-5.445201985996172e-05 
1.679061107068124e-06 
4.528232845692212e-06 
-8.451267037505886e-07 
-3.546874408726237e-06 
-8.440441693213631e-06 
3.040135063967971e-06 
2.52900213333463e-06 
6.356414889535187e-06 
2.828649699241705e-05 
9.282463608772991e-05 
-1.483441562360835e-05 
-4.728104963240837e-05 
1.516436458930892e-05 
5.828572629947414e-05 
-2.194078631140651e-05 
6.33958896338918e-06 
-8.801754887877773e-07 
-8.825184336138118e-06 
-9.05848529441207e-06 
-3.872231141670955e-07 
3.071706328902549e-06 
-4.118755722450637e-07 
-2.034559211166449e-07 
4.38923446178055e-05 
-1.270402904776439e-06 
-5.814040891497901e-05 
2.642002648744716e-06 
2.536253408908072e-05 
3.416534575510016e-05 
-3.331287330153584e-05 
9.651510803237513e-06 
-3.071941524416983e-05 
-4.799278213089657e-05 
-1.821916906090777e-05 
6.318438125504318e-06 
-1.593876633630721e-05 
-2.605453522154036e-05 
2.928305712799397e-05 
-5.644634096604354e-05 
1.648527341501547e-05 
-0.0001059759913146931 
0.0001259118232955263 
3.038551812175627e-05 
-5.697553821372545e-05 
7.459401899385001e-06 
-2.150652424828465e-05 
-2.457286589060055e-05 
7.066645029401655e-06 
7.089284415105244e-07 
5.394144041225959e-05 
1.772625252268615e-05 
-2.346218533409292e-05 
2.555001006778939e-05 
1.805353488134915e-05 
1.925905343550981e-07 
1.644723690947324e-05 
2.163206522852171e-05 
-4.015614899492834e-07 
-3.097351868801446e-05 
9.995095522291932e-05 
5.09590033520958e-06 
-2.334711079827506e-05 
-8.329796011958507e-05 
-4.304956290315712e-05 
3.605865448778453e-06 
7.773225473600734e-06 
4.764511399963854e-06 
2.410279592692266e-05 
-2.87315790339103e-05 
-1.169649844589403e-05 
-1.276103992079265e-05 
-3.856963020489927e-06 
-7.34264565545489e-05 
-8.766325611642921e-06 
-1.960120850358333e-05 
7.338263361940926e-05 
1.861262097606555e-05 
-6.862181847904503e-06 
-4.200078590573017e-05 
5.551219714597343e-07 
5.526999473512159e-05 
-3.534002933025861e-05 
-4.261744983392056e-06 
-1.739726681997483e-05 
-3.325841562184529e-05 
2.173418801750848e-05 
-1.48667741955655e-05 
6.486644013908836e-05 
4.271579684939632e-05 
4.120994368080279e-05 
-1.740525801193233e-05 
-1.070933223074521e-05 
3.159808988821354e-05 
-4.954197342550355e-05 
-7.419685926656592e-06 
-1.843283060123922e-05 
0.0001233492753024069 
-2.418453448450889e-05 
-6.685720817797037e-06 
-6.014163379100827e-06 
-1.446922479543613e-05 
5.450101549770771e-05 
3.078479685869356e-05 
9.616808815860884e-05 
1.150117061742987e-07 
9.771417343096703e-06 
3.767668616946196e-06 
-8.842073981970451e-05 
3.798139308993129e-05 
5.8015767663761e-05 
1.379611083309245e-05 
-2.509998041669144e-05 
3.61428497932359e-05 
-2.69153872471992e-05 
-2.272824500029442e-05 
2.417820091364666e-06 
-9.450895113165104e-06 
-1.341828947402717e-05 
6.170022604227018e-09 
-1.131539379554329e-05 
-8.641057970024296e-06 
-3.731317020598211e-05 
1.306764211129461e-05 
-5.402886743759481e-06 
-2.703970796425503e-05 
1.91812984804252e-06 
-1.201418330174992e-05 
-4.259432874210871e-05 
3.071178143730987e-05 
2.145416565767169e-05 
-5.2946513151282e-05 
7.223511518143186e-06 
-5.94646181507571e-05 
-1.813437223045743e-05 
-2.465462786330705e-06 
-3.715824490598724e-05 
1.246547592598455e-06 
-1.07799325307657e-05 
-7.639234789606888e-06 
3.044306281542687e-05 
-1.777450609969424e-05 
5.020069663346456e-05 
-7.276536085809674e-06 
2.043819563892607e-05 
3.116129510218528e-05 
4.961007414233816e-06 
-1.74588325653163e-06 
-4.054581978652406e-05 
6.345852539459023e-08 
7.481536007369099e-06 
-1.423870075601507e-05 
-3.970839029668267e-05 
2.006764740164921e-05 
-1.183047009794616e-06 
-2.192307006671132e-05 
-4.70716908825016e-06 
-5.260744433547251e-06 
7.359073256582933e-05 
-4.830556114933814e-05 
1.120651394344953e-05 
0.0001401073565309009 
3.164782806305078e-05 
-3.014901594000231e-05 
-3.40822323652167e-05 
2.142879563469701e-05 
-7.22302604065269e-05 
-2.004876364991619e-06 
5.998559420196289e-05 
3.939393898787054e-05 
-3.588634780992297e-05 
5.62992617448056e-05 
5.237268177996712e-05 
-2.136211443144272e-05 
-2.08566415020112e-05 
-1.520829169643152e-05 
5.913923046605227e-05 
-2.058488482453058e-05 
-1.672821961440834e-05 
-3.88148528063338e-05 
8.679071631656384e-06 
-4.950168551660564e-05 
7.478460049630969e-05 
1.969274684353479e-05 
-4.338143289357335e-06 
-8.712375731904737e-06 
3.837284296944788e-06 
9.67044098787807e-07 
-7.767261396733411e-06 
-4.294080127940951e-05 
-0.0001419580850240393 
7.668270991664969e-06 
1.998924844110892e-05 
0.0001179605348925694 
4.988504888076236e-06 
-4.26791916874407e-05 
1.446056049253959e-05 
7.938193646970704e-05 
-1.867139640270267e-05 
-1.431705180125347e-05 
-2.779591049570297e-05 
0.0001285974637920853 
4.539318718437865e-05 
-1.097420002482595e-05 
5.701772264541569e-06 
-3.861944053175268e-06 
-2.421103337786855e-05 
7.478522298002151e-05 
-2.043730899533656e-06 
-2.119164324620795e-05 
-5.564236684070178e-05 
-4.602263204688816e-05 
6.696281243744778e-06 
-6.682849750442097e-05 
2.243405313938168e-05 
-2.05520688855252e-05 
2.785614043397224e-05 
1.762933635013404e-06 
2.469556318770043e-05 
-3.812790498969788e-05 
0.0001047556250571959 
-2.651151044562054e-05 
-1.305440343820123e-05 
1.943738070586422e-06 
-2.044343631030338e-05 
-9.834389735470762e-05 
-2.114434816628468e-05 
3.377746411927149e-06 
2.242964891982145e-05 
-2.754404094274657e-07 
-4.22604316339344e-06 
-4.381035773486703e-05 
3.683872490446313e-05 
-1.197345291531228e-05 
1.177744018102607e-05 
-4.400444802994802e-05 
-3.385287062769465e-06 
-2.491364385200576e-05 
6.3161556509286e-05 
1.58138911031509e-05 
5.642962007229449e-05 
1.378477423144274e-05 
7.010206778305212e-05 
-1.434581516792263e-05 
6.100998033041551e-06 
-3.498429099389864e-05 
-4.664769828359102e-06 
-2.955283626580326e-06 
-3.7779772703154e-05 
-3.429978751176383e-05 
5.385261387619661e-06 
5.669887229405476e-05 
-1.532264269504905e-05 
-1.673184891359026e-05 
-2.679901038024507e-06 
-1.806458079665341e-06 
-4.892015573176677e-05 
5.573949854071911e-05 
1.279722240140899e-05 
1.679881074404859e-05 
-5.427600222165388e-05 
9.204886860191705e-06 
-5.468166717244816e-06 
1.081563841458997e-05 
-8.367282415971046e-06 
-6.75592468132097e-05 
-7.346560059800458e-06 
1.717804598163575e-06 
4.156054138087465e-06 
-4.957050278110704e-06 
1.297382962125265e-05 
-6.653729052003678e-05 
1.058808556614621e-05 
1.660664971397295e-05 
-1.46470131663838e-05 
1.646477182913047e-05 
-2.452681944684367e-05 
7.393549859453642e-06 
-8.833175714394707e-06 
2.223129973449465e-07 
-3.382538386832913e-05 
-1.945557497844191e-05 
7.267152903381449e-05 
6.146674721186689e-05 
6.813774064006835e-05 
1.364245340002238e-05 
2.463097236588582e-05 
-6.678951878968649e-05 
4.1869233933911e-05 
2.322128887466701e-05 
-4.308089128335708e-05 
6.091617075389798e-05 
-6.52324092542004e-05 
1.403050662730712e-05 
8.005286044728315e-05 
1.368727053142112e-05 
9.166817250619441e-07 
4.316033922385066e-05 
-3.263834170620829e-05 
-2.060903873626457e-05 
-2.900400801053671e-06 
-4.674528139417308e-05 
-2.096828049428609e-05 
7.357204921590157e-06 
-1.184417642778864e-05 
1.933836826834809e-06 
2.184550585284662e-06 
2.068601868044557e-05 
-1.119955132370457e-05 
0.0001371482589112795 
-0.0001083382701398194 
-3.817947445056009e-05 
-2.994410330803403e-05 
7.744494805489702e-06 
9.270779692739682e-07 
-7.319765875560406e-06 
-9.022720429076471e-05 
-1.520089533159802e-05 
7.21053383803738e-05 
-7.920680565736745e-06 
1.159910103113066e-05 
-1.110988674169987e-05 
6.78436339863243e-05 
-9.022290125676754e-06 
2.863803566432361e-06 
1.095293514666102e-05 
-4.829451390843398e-05 
-5.229244223337561e-06 
-6.511871014984129e-07 
1.482845058812709e-05 
-4.530950114786458e-06 
3.040887070902652e-05 
7.450103436821599e-07 
-1.563327730841545e-05 
-2.276720501669668e-05 
-1.816852136260288e-07 
3.212393559897476e-05 
-2.763021663920856e-05 
4.834367365531319e-05 
-4.558455953694964e-05 
1.126409144985377e-07 
7.679037246688772e-05 
-3.574376088558029e-05 
-1.049095958392361e-05 
1.622290782515029e-05 
1.366778083282564e-05 
-2.702844760401556e-05 
-8.836518471963828e-06 
2.586332965548785e-05 
-6.728007606593921e-06 
-6.964025173577598e-06 
-6.091567019607178e-05 
-4.231037837552098e-06 
2.259984740039687e-05 
5.371721948299824e-05 
-9.538600016646114e-07 
6.091488310322503e-06 
-2.417800710384947e-05 
-9.329792147446298e-06 
-2.255197654780895e-05 
-1.973880724005637e-05 
2.184053603704071e-05 
2.660535072162198e-05 
4.46187920653218e-06 
1.298905222124607e-05 
-8.146866212526332e-06 
-7.3179707014174e-05 
-8.410318318106051e-06 
9.320780767628285e-06 
6.468342106159502e-06 
9.464019311216169e-07 
4.353212111471206e-05 
-2.877466592970641e-05 
2.838543767234846e-05 
3.577330626743259e-05 
3.740084765706538e-05 
-1.487793723555625e-05 
2.479225977840698e-06 
-9.065459716452708e-06 
-4.905164394026126e-05 
-9.074846329212501e-07 
-5.048275009474805e-05 
5.168949846503573e-06 
-5.068796239194109e-05 
0.0001054063686377285 
5.056269471733973e-07 
2.58724984991096e-05 
1.258345040593879e-05 
9.716539014805971e-06 
-1.80386327962107e-05 
2.583136600904067e-05 
2.869438559301243e-05 
-5.266685942845492e-06 
3.099547605019158e-07 
1.230559999800795e-05 
3.438173938465941e-06 
1.101590908178871e-05 
-4.771211929315126e-05 
7.758194582512845e-06 
-1.457349449570759e-05 
-3.971052257340609e-05 
7.03736517897924e-06 
7.481213816771958e-07 
1.40523411468001e-05 
-5.155860174789556e-06 
4.511216868112064e-05 
3.103990627707129e-05 
6.896295563251197e-06 
-2.446544594191394e-05 
-2.296132015619159e-05 
-3.380742588379344e-05 
-4.502431193912162e-06 
6.309633450269823e-05 
3.185499345129805e-06 
-4.903102012155619e-05 
2.123971079148017e-06 
-2.447327795997258e-05 
-1.8928681207128e-05 
0.0001007797261165667 
-4.862385457583214e-05 
1.389879558709412e-05 
8.85987759738128e-07 
-3.848264854607035e-05 
4.031269356662921e-06 
1.193127729205438e-05 
-8.611098906701293e-06 
5.374494576331133e-07 
1.603893880314328e-05 
-6.764893476630247e-07 
3.494867885201692e-05 
1.791644011527154e-05 
-5.333220288371338e-05 
-6.185744605785832e-05 
1.174405944780453e-05 
-5.867220772321124e-05 
7.123019600684089e-05 
-4.939057209245662e-05 
-5.392494342179286e-06 
7.809973749289587e-05 
-1.050112485813888e-05 
4.569790520762889e-06 
-4.317902970037766e-06 
-3.51240497861782e-07 
2.067352936363475e-06 
3.710092335920194e-06 
6.012348409997938e-05 
-7.349996524901101e-05 
-6.542530327688333e-05 
2.383635233859522e-05 
1.783576066510677e-05 
3.011872420770939e-05 
2.453063190655335e-05 
3.642780966319023e-05 
1.114156767319375e-05 
1.78679030095257e-05 
4.572518403647579e-07 
1.798491699751375e-05 
5.319102734141218e-06 
-2.15416767051891e-05 
-2.772446074929505e-05 
-4.113409819898421e-07 
1.039455697761165e-05 
-1.415276199502885e-05 
9.635607797139055e-07 
1.744043475102411e-06 
1.882108226824639e-05 
4.47186448113813e-05 
2.541087087129104e-05 
-8.95770797211315e-05 
4.142340346640469e-05 
9.248171695248388e-06 
2.05397602054099e-06 
-0.0001008463651749377 
0.0001179715127622159 
-9.726643824174151e-05 
-2.646113122433342e-06 
2.529117082491637e-05 
2.424318296174861e-05 
6.028693274757498e-05 
1.446577266686158e-05 
-1.452253918509801e-05 
-5.989442885832513e-05 
-9.284664780015271e-05 
-2.26162672371406e-05 
0.0001143118316953216 
-2.91795494044104e-06 
-2.131252624526751e-06 
-4.900184002828827e-06 
1.295218965337162e-06 
4.522040336123897e-05 
3.676968708067206e-05 
-2.694899793270877e-07 
2.367646791708513e-06 
-9.366183995227163e-05 
-1.922465931952298e-05 
-4.309981673355922e-06 
-1.266732242543123e-05 
2.793169554729173e-06 
-3.680873045018628e-06 
-4.603812100081704e-08 
1.871789352940513e-05 
8.992660648971125e-06 
2.944534316304301e-07 
2.898168777934163e-05 
9.811077616284856e-07 
-7.817879491989459e-05 
3.76402648081634e-05 
-3.559963879391494e-06 
6.88686468436099e-06 
3.018904341787281e-05 
-4.944395962918503e-05 
1.054837958044298e-06 
3.147249778555567e-05 
2.085422728406992e-05 
9.543157591756348e-05 
5.475859932866922e-06 
-8.035344967450882e-05 
4.91959035427894e-06 
2.088040726745847e-05 
8.41130958987109e-05 
-5.613515718480206e-05 
-1.371421524531996e-05 
1.297471560443607e-05 
-3.485344540571063e-06 
-2.388085166011732e-06 
-2.860196049818711e-06 
-1.166276320583992e-05 
5.725601268922548e-06 
-8.63593641113642e-07 
2.020942933172286e-05 
-2.276112679697974e-05 
-7.918400908230316e-07 
6.38858532160247e-05 
1.225903770299947e-05 
-5.724076099103065e-06 
-1.518206310438651e-05 
2.186598727330846e-06 
-1.249567667236083e-05 
-4.111472527395868e-05 
-4.560389107768637e-06 
-1.193416042030637e-06 
1.475597265988991e-05 
4.049398348532658e-06 
-3.794867337377206e-05 
-9.344992218894863e-06 
6.018250110507352e-05 
-1.595087971517818e-05 
-8.173516358469615e-06 
-1.971813509172211e-05 
-3.019955671290223e-06 
-7.962476900197392e-06 
-2.920196779800297e-05 
1.108116414558386e-05 
1.786532347989159e-05 
1.174006013747285e-05 
8.429115918410691e-06 
-1.596341099668593e-05 
3.516365667859123e-06 
5.928468788721856e-06 
3.507558036579236e-05 
-1.283657819585465e-05 
-0.000138439069029689 
-9.256408168628776e-06 
5.214080527255697e-05 
-2.224800014512571e-06 
1.815186785871682e-06 
-7.812856033803302e-06 
-2.399792386572748e-05 
-1.025968548240867e-05 
-1.495027377653597e-05 
2.560744928464316e-05 
0.0001093419994561192 
7.844067164869784e-05 
0.0001021309932351938 
-3.361081590095094e-05 
-3.719800947344914e-06 
-7.790147705775364e-06 
-6.282128207592246e-05 
-3.192279915293186e-05 
-2.781463402430929e-05 
5.650380602130304e-07 
1.04278810456437e-05 
-9.471341185331709e-05 
-7.836142632750736e-06 
-7.970069493417328e-06 
9.974184937770769e-06 
3.89829157140918e-06 
-1.366854957523534e-05 
-0.0001205166871536625 
1.008079170379298e-05 
4.357358377606897e-06 
-3.717530445258435e-05 
4.17368970977362e-05 
2.400872887631739e-06 
4.106144347411018e-05 
4.149435528709266e-05 
2.460868904165049e-05 
-0.0001073011184711601 
8.857234670502145e-05 
-2.324476663480805e-05 
-1.990014471664811e-05 
1.548753938242754e-05 
1.492036864737336e-05 
1.643608933148711e-05 
4.820056327952194e-05 
-1.769938832094996e-06 
-1.610779636766081e-05 
-1.777525855183159e-06 
8.780173789703015e-07 
6.399679358032277e-05 
3.981113058963961e-05 
-5.777552627945521e-06 
-5.112691462859675e-07 
-2.384028035903135e-05 
1.11323371899688e-05 
-1.165930747506074e-05 
-6.393972009209109e-06 
3.630153875801367e-06 
2.763538920139866e-06 
1.562827260823637e-05 
5.783264032654081e-05 
1.506991194690589e-05 
1.014852455652364e-05 
3.992938524237173e-05 
3.302874921059285e-05 
1.023198841173679e-05 
1.114732582178447e-05 
-0.0001029046224811142 
7.546974303162998e-05 
2.015690872045133e-05 
-3.424619199064507e-05 
3.449648790777198e-06 
9.539138532065383e-06 
4.084264115240225e-05 
2.074271409134589e-05 
-1.473513724082008e-05 
-2.489218369655845e-05 
4.280104009804832e-06 
-3.795089705202848e-05 
-5.044000898662762e-05 
4.736413378592336e-06 
-5.733980097211577e-05 
2.791329345182306e-05 
1.320953270187216e-05 
-4.64072272016999e-05 
-3.623155945477378e-05 
-3.530961843050413e-05 
2.802339546632456e-06 
5.626029092078565e-05 
-1.88066798600315e-05 
-6.001078472980471e-06 
1.985076430931067e-05 
5.46169918256049e-05 
5.435330925646011e-06 
4.184816629096425e-06 
-5.607979593832813e-05 
-2.7325234762511e-05 
-3.323457959255054e-05 
-7.872150425094004e-05 
-5.32292832579759e-06 
3.661144129088404e-05 
2.052007435425096e-05 
-2.771935031390452e-05 
-2.340530424899281e-05 
-3.321549125418207e-06 
7.669816507437229e-05 
1.687088669060106e-05 
-4.092958853902298e-07 
2.807892381360641e-05 
-1.433651434815169e-05 
-2.018325640748702e-06 
-4.375907822200867e-06 
-4.454998061648916e-05 
2.608549146964568e-05 
9.787382345424852e-05 
6.771497549161051e-06 
-1.541829425767773e-05 
9.484344359563364e-06 
1.039719694368473e-05 
-9.534217576613767e-05 
-8.14703299472126e-05 
3.534764779951431e-06 
3.896276221922506e-05 
6.176448599549393e-05 
-5.586082083136957e-07 
3.812600353337168e-05 
-3.488700762930752e-05 
0.0001599748908652047 
2.814368812232104e-05 
-2.272114309770505e-05 
-1.126761863768916e-05 
-1.531424485586803e-05 
-5.612788338987236e-06 
-2.37746155422747e-05 
6.694282984751858e-05 
-1.438278508117928e-05 
-2.933360183956856e-05 
8.995614810241086e-06 
6.831838389714727e-05 
-3.331732779071867e-05 
-7.929647366973578e-06 
3.193600529096567e-05 
-1.249358400314353e-05 
-5.474704911220039e-05 
-6.855963338231978e-05 
2.330068970943607e-05 
-3.003973038036453e-05 
1.928035611175159e-05 
-7.336788999457328e-06 
-6.525925638540261e-05 
5.749604384769119e-05 
-1.147104141800682e-05 
-2.118355349162236e-05 
1.916986173949753e-05 
-2.331539900550481e-05 
-9.408292567137274e-05 
1.379460616888165e-05 
-7.727076018897683e-06 
-6.823979210391925e-07 
2.938387772164206e-05 
3.007828482241291e-06 
1.797094129280664e-05 
2.072385082040398e-05 
-9.887737135278083e-07 
-6.729136202931916e-05 
-2.720605764104279e-05 
1.957932172054248e-05 
-1.937500685141344e-06 
9.645277241719818e-06 
-5.739435868318374e-06 
-2.288665112740577e-05 
1.228432745916158e-05 
2.036628469544914e-05 
4.88641745579089e-05 
1.122895057180447e-06 
-3.81514163881839e-05 
2.878290153179019e-05 
6.330546547973851e-05 
1.175110133172161e-05 
4.295263974150017e-05 
-1.22052150186352e-05 
-3.769889819124145e-05 
-3.710919401962034e-05 
-4.678831803481939e-05 
-6.802003281809167e-05 
1.177112066601162e-05 
-1.239262056977818e-05 
1.008928614378301e-05 
6.573436657446674e-05 
4.47292151718374e-06 
-9.597845518816055e-06 
8.717753931620354e-06 
-1.094260430110723e-05 
6.540109513665969e-06 
1.579501576057797e-05 
-1.050132300519482e-05 
-7.340741289095991e-06 
1.57980165973911e-06 
-8.314637539916877e-06 
3.852241975038566e-05 
2.831241041565166e-05 
4.993040330667547e-06 
-9.406524488922488e-07 
1.661105353587754e-05 
-9.202719128995963e-07 
-1.476621348399518e-05 
-2.362012133893463e-05 
0.0001145448524493648 
-1.862107470966192e-05 
0.000107171534765135 
-0.000151140881382345 
-4.049459231695476e-05 
8.442767237369174e-05 
3.19675181554531e-05 
7.340463803296608e-06 
-1.352323257905809e-05 
-1.764425498465961e-05 
7.337149031087756e-06 
1.416318928226792e-05 
2.111247443908467e-06 
-4.613169233269598e-05 
5.894140418107575e-05 
-5.566113331614246e-05 
3.2414860091496e-05 
9.887855157178809e-06 
4.82234923382959e-05 
-2.91931854238157e-05 
3.862906905764185e-05 
6.371056050379107e-06 
-5.614377765177032e-06 
1.96337998338185e-05 
2.096862966592575e-05 
-1.290825874395453e-06 
-2.475734633171769e-05 
-3.125575685092933e-06 
1.218548240390606e-06 
-1.084016337043594e-06 
1.109448314464984e-05 
-3.801575740143034e-05 
7.071384247185315e-06 
4.142730992372442e-05 
-0.0001092537622294984 
4.343796635443374e-05 
5.131014256203931e-06 
-4.200194349123022e-05 
-6.54318187988222e-06 
-1.13246579439675e-05 
-3.179156456914198e-06 
1.176193083678473e-05 
2.764255360180399e-05 
-7.921113074901646e-06 
6.730655221727131e-05 
-5.319370986571037e-06 
2.543382928485471e-06 
-2.386890781756487e-05 
-4.315398595161312e-05 
-3.737885900914988e-05 
8.902944171331929e-06 
-1.96914148389687e-06 
3.208343980995894e-05 
-6.116768689319551e-06 
-5.989869733755296e-05 
-5.9601400775655e-07 
1.83185604793267e-06 
-9.598549595758999e-05 
6.578567463241538e-06 
9.004757333545764e-06 
6.156961699382318e-06 
3.699111670381271e-05 
2.225260668398183e-05 
-2.751942578961749e-05 
5.362906531752068e-06 
3.168194516470508e-05 
3.581770647646739e-05 
1.100378763873784e-06 
1.061741841648436e-05 
3.321108804193787e-05 
3.662662512984105e-05 
-9.136906295317709e-07 
2.187911760625609e-05 
8.530261511990708e-06 
1.663617358032102e-06 
4.123461785448457e-05 
9.366781000507547e-05 
-2.530928186646206e-05 
5.3171998922227e-05 
-5.776143338964072e-05 
2.075167388874208e-05 
-7.217268287464679e-05 
-1.532683344195259e-05 
-2.344678233519285e-05 
-0.0001470600433075751 
5.458932194682896e-05 
3.21872263420091e-05 
2.191990883677972e-05 
5.275429889974886e-05 
-2.571670630640513e-05 
5.693931946627025e-06 
4.255111744578518e-06 
-3.183077066338373e-05 
-3.074162495393523e-06 
3.638626024932489e-06 
-1.622373142848802e-05 
4.871024852321241e-06 
1.155227310922508e-05 
5.288639624388917e-06 
-1.641753641463273e-05 
1.624285024958628e-05 
-3.519194419391452e-05 
0.0001915682249479402 
